%YAML:1.0
---
opencv_ml_ann_mlp:
   format: 3
   layer_sizes: [ 21, 100, 100, 1 ]
   activation_function: GAUSSIAN
   f_param1: 1.
   f_param2: 1.
   min_val: 5.0000000000000003e-02
   max_val: 1.
   min_val1: 2.0000000000000000e-02
   max_val1: 1.
   training_params:
      train_method: RPROP
      dw0: 1.0000000000000000e-02
      dw_plus: 1.2000000000000000e+00
      dw_minus: 5.0000000000000000e-01
      dw_min: 1.0000000000000001e-01
      dw_max: 50.
      term_criteria:
         iterations: 300
   input_scale:
      - 9.6822038743837824e-01
      - -5.0405551615789107e-02
      - 9.4223459517134001e-01
      - -2.2349804533510209e-01
      - 8.0192077442589405e-01
      - -5.1476898221840284e-01
      - 7.0186828607896079e-01
      - -7.7524159717566721e-01
      - 5.8457773609199670e-01
      - -7.7315082458629070e-01
      - 5.4945582419477701e-01
      - -1.1405274276415855e+00
      - 4.7017710315359473e-01
      - -1.2619459412208056e+00
      - 5.5373505569042458e-01
      - -1.4718720813895172e+00
      - 5.9663099477763470e-01
      - -1.6608536344130918e+00
      - 6.9649648843471268e-01
      - -2.1248714890577278e+00
      - 6.2020204570039150e-01
      - -2.0022354796116946e+00
      - 6.5378721143068674e-01
      - -1.9303851984972638e+00
      - 5.9100679197746309e-01
      - -1.5608725802482262e+00
      - 5.5617712611072656e-01
      - -1.4552040837474667e+00
      - 4.8454742915676130e-01
      - -1.2242090772211998e+00
      - 5.5441689270715744e-01
      - -1.0967142282530520e+00
      - 6.1184824017981843e-01
      - -8.3136715176035270e-01
      - 7.0159595087869531e-01
      - -6.3014541964381543e-01
      - 8.4452767596089895e-01
      - -4.8178614716365525e-01
      - 9.1158600824214986e-01
      - -3.0942875597013952e-01
      - 1.0027004181191814e+00
      - 5.5329008152621470e-02
   output_scale:
      - 1.
      - 0.
   inv_output_scale:
      - 1.
      - 0.
   weights:
      -
         - 1.9397360018221579e+00
         - 5.6082763086801757e+00
         - 7.0469353963903292e-01
         - -3.3086357066649881e+00
         - -6.0021817856220983e-01
         - -2.7215900087741089e+00
         - 1.1704904114328920e+00
         - -1.6918019400382975e+00
         - 3.8874903768785996e+00
         - 2.7797837832439294e+00
         - -1.1436502928778363e+00
         - -3.7365631591477627e-02
         - 3.5503042365361415e+00
         - 1.2104610993712490e+00
         - 2.4810221737499788e-01
         - 2.0745477153132219e-01
         - 2.9556343746627567e+00
         - 1.6625310125203119e+00
         - 1.5970615752148787e-01
         - 3.1315709665771263e+00
         - -1.3857035126793433e+00
         - 1.5346994466748394e+00
         - 1.1677439367770584e-01
         - 1.0355500156594335e+00
         - -1.6844896866058112e+00
         - 2.3991818398575488e+00
         - 9.3946629267012693e-01
         - 3.8684868083489465e-01
         - -2.5442158811175126e+00
         - 4.5917688837284336e+00
         - 6.0930517728520839e-01
         - 6.5015500094618206e-02
         - 2.9267716914298214e-01
         - 1.0758389215322646e+00
         - -2.7046845812411813e+00
         - -4.0539874878872730e+00
         - -5.0184160550765791e+00
         - 7.2770722498445073e-01
         - 1.6828655080647117e+00
         - 1.1035119950644028e+00
         - -5.1181259049186068e-01
         - -1.4775742420439639e+00
         - -3.0584077631267390e+00
         - 2.9246432660073474e-01
         - 2.0416795963102841e+00
         - -4.8784657922311290e+00
         - 3.8370523022325187e-01
         - 5.4426971304438376e-01
         - 2.0078573414420169e+00
         - 2.4781800987903519e+00
         - -5.8419459780940795e+00
         - -3.4283309622688480e+00
         - -1.1000193690041136e+00
         - 1.0755707001769951e-01
         - -1.2503833007818004e+00
         - 3.2502816692847714e+00
         - -4.1506472304712076e+00
         - 3.6582165518853378e+00
         - 6.7478334169609813e+00
         - 1.2518475224975967e+00
         - -2.0194545867645273e+00
         - 2.3871620200449342e+00
         - 9.4196235653616589e-01
         - 9.9454457253664486e-01
         - 9.9236270227084755e-01
         - 2.9169568145588523e+00
         - -2.2774597722103682e-01
         - -1.7498051904111838e+00
         - -9.3351406615936050e-01
         - 3.3842184005227463e+00
         - 2.1567415489408197e+00
         - 1.0151912184541347e+00
         - 8.2178220958037018e-01
         - 1.3053790925805417e+00
         - 3.0935279157085978e+00
         - -1.0480762405602146e+00
         - -4.9033587668943568e+00
         - 4.4201957756242436e+00
         - 8.5701409941179141e-01
         - 2.5864552370525935e+00
         - 3.3567570929393629e+00
         - -3.6083254754911960e+00
         - -5.2200750890415994e+00
         - 2.8279819833225917e-01
         - -5.4865292283495055e+00
         - 5.6909129922336925e+00
         - 2.2733488846016794e+00
         - 3.3459148274397270e+00
         - -1.3711914497494406e+00
         - -5.9490644043700314e-01
         - 9.5539618242993429e-01
         - 2.1559047436240335e+00
         - -1.7482946360729390e-01
         - 2.0808715650192435e+00
         - 9.5707608391335752e-01
         - 3.8446688319626121e-01
         - 1.9184044482156504e+00
         - 3.3014947806853043e+00
         - 4.0380953977848772e+00
         - -1.7887415457798025e-01
         - -3.2327537587036961e+00
         - -1.8539430458082520e+00
         - 9.9392958018608413e-01
         - 3.8876816841429878e+00
         - -3.2840711687814230e+00
         - -3.5471638361259235e+00
         - -4.6831283720435446e-01
         - 6.6154642405213304e-01
         - 2.9889785411207268e+00
         - 3.0442078560357233e+00
         - 8.4881445099351827e-01
         - -2.5711744048786511e-01
         - 1.2328492239675539e+00
         - -9.1684692622795672e-01
         - -1.9832769661389971e-01
         - -3.7462397969976529e+00
         - -2.9007404167889064e+00
         - 3.9143998381259537e-01
         - 8.4640914441336412e-01
         - -4.1719290963701527e-01
         - 5.8634957655455600e-01
         - -2.3109502752524089e+00
         - -3.1213397943505496e+00
         - 1.5218892950435103e-01
         - -3.6938228869641150e+00
         - 3.5231296679642132e+00
         - 1.7375444441974461e+00
         - 2.5810539899957408e+00
         - 1.8537943129568191e-02
         - -2.9620963771711541e+00
         - 6.8001723888602896e+00
         - 2.5565073924657122e-01
         - 3.9033992249175054e-01
         - -9.6772973247064009e-01
         - 4.7689857211965974e+00
         - -3.1176360055404730e+00
         - 5.0390250214939059e+00
         - 2.0657639029910673e+00
         - 7.5532120193778129e-01
         - 3.6270025701965953e+00
         - -3.7315609960649878e+00
         - -2.2510727758370006e+00
         - -2.7764778487262358e+00
         - -2.0801344132832913e+00
         - -2.0411042108394595e+00
         - 3.9658653585757588e+00
         - -2.0423668668027855e+00
         - 1.5342188361806526e+00
         - -2.0707009802888381e+00
         - -4.2352051800461732e-01
         - 1.2115409777783979e+00
         - 5.3893412742453983e-01
         - -6.5314078160329370e+00
         - 3.1382236589456092e+00
         - 1.6373176000756204e-01
         - -1.5662555406036378e+00
         - -1.2831451151735527e+00
         - -1.0300789388833462e+00
         - 5.4342379047140321e+00
         - 4.7214357314972755e-01
         - 3.9734508969611970e+00
         - -5.9943965014102663e+00
         - 5.3557419999446614e+00
         - 4.9944374814789212e+00
         - -1.4563557087370245e+00
         - -5.5458815976723788e+00
         - 8.6602058029418871e-01
         - 4.5199812924482430e+00
         - -1.1391847976115730e+00
         - -1.5328336285620883e+00
         - -2.2829539710140536e+00
         - -3.3481590035100446e+00
         - 4.5985755877269359e+00
         - 2.5145695273636606e+00
         - 8.7896571867317708e-01
         - -7.1755394786201476e-01
         - -2.7356530921766766e+00
         - 6.8571325825105667e-02
         - 2.0831774765383821e+00
         - 5.6695309409779004e-01
         - -5.1773092705061174e-01
         - 1.9642020032701060e+00
         - 1.8977600086833379e+00
         - -1.0188660395930182e+00
         - 8.6819964905608316e-01
         - -2.1008286017137112e+00
         - 3.1856631509034095e-01
         - -1.7736860615560057e+00
         - -3.4032187268973613e-01
         - -2.5075574468852286e+00
         - -2.7662070028051211e-01
         - -5.1067069553082201e-01
         - -1.1233715204086785e+00
         - -9.2630502654279401e-01
         - -3.5568153337574735e+00
         - 2.9139291334985695e+00
         - -1.7175325560480035e+00
         - -2.9806715296740807e+00
         - 3.9546648429753724e+00
         - 1.4853854643104982e+00
         - 3.4195689495535020e+00
         - -4.6788609516952739e+00
         - -2.7832322827631906e+00
         - -1.7767306386567812e+00
         - -8.5978555992863825e-01
         - -3.3382584918677516e+00
         - 5.6786292904121671e-01
         - 5.1345762933795074e+00
         - 3.2582283889282251e+00
         - 5.7934010275214898e-01
         - -5.0704775917413016e+00
         - 1.5927150193339759e+00
         - -1.9772997624503427e-01
         - 7.9082430894700639e-01
         - -3.7018576248261659e-01
         - 7.6712087458665010e+00
         - -1.8564045161686025e+00
         - -2.6529956746743060e+00
         - -9.1351960638267045e+00
         - 8.8763556814388000e-01
         - -1.4057701137417600e+00
         - -1.4160022777531339e-01
         - 2.5319848593098939e+00
         - 1.6208792341288225e+00
         - -2.6727010168546443e+00
         - 5.1013099372829860e+00
         - 4.3491397738371518e+00
         - 6.1986944392021837e+00
         - -5.2838967051280550e+00
         - -1.5091511381288756e+00
         - -2.3950879713503639e+00
         - -5.4288520577905497e-01
         - 4.5492781235387880e-01
         - -2.5202318931326038e+00
         - -8.4362083951151134e-01
         - -2.8214901564539132e+00
         - -2.1903312191972373e+00
         - 1.2009675995497968e+00
         - -4.0008255560166779e+00
         - -2.7027079894768029e+00
         - 1.2044245744553201e+01
         - 1.9058167998222428e-01
         - -1.0915238520809520e+00
         - 5.9019374643541267e-01
         - -2.4692783693679107e-01
         - 7.4331078149151542e-01
         - -4.6614719265388782e+00
         - 4.0573735360826388e+00
         - -2.7006546287456739e+00
         - -5.0750435996306575e-01
         - -5.5889889767389107e+00
         - -1.4654532818496546e+00
         - 1.8119800214830812e+00
         - 3.9317504515242154e+00
         - 2.9951139804629578e+00
         - 1.1510374733562714e+00
         - -2.8002815644958021e+00
         - 1.2701903814968010e+00
         - 2.5223302558875385e+00
         - -2.6015370525398280e+00
         - -4.1258755082900649e+00
         - 5.1389409195683988e-01
         - -5.8251268063371009e-01
         - 5.0128300351934367e+00
         - 9.3532578139196099e-01
         - -8.3598163353810750e-01
         - 2.5150936334205154e+00
         - 3.4224738074470036e+00
         - 1.8616612133525230e+00
         - -2.4291333217162663e+00
         - -2.7327066850011739e+00
         - 7.2539243666369515e+00
         - 1.8739445733309339e+00
         - -7.0661993732354345e-01
         - -3.8330027263022703e+00
         - -4.0789210383991472e+00
         - 5.7151611423569160e-01
         - 3.0958723598085722e+00
         - 8.3807579205682969e-01
         - 1.9706074406071279e+00
         - 1.1641593121607303e+00
         - 3.7456470605162784e-01
         - 2.2413169705212418e-01
         - -6.1774839927536167e+00
         - -4.4207327343335612e+00
         - -1.5751565737017663e+00
         - 1.0144730131048671e+00
         - 1.3428589538020521e+00
         - -2.5575751843762201e-01
         - -4.8556534131456475e-01
         - 6.2724117687184835e+00
         - 1.9901345309374820e+00
         - -1.7760953581960222e+00
         - -2.4187985302642837e-01
         - -1.4948039111594151e+00
         - -1.1613334353317151e+00
         - 6.6592222044254745e-01
         - 1.3502709505877895e+00
         - 5.2354084666550049e-01
         - -2.7769184849263411e+00
         - -2.0016096933449199e+00
         - 1.5042497944323319e-01
         - -4.3516929029807594e+00
         - -3.2569249250505089e-01
         - -2.4601968919200585e+00
         - 3.3969224173974162e+00
         - 3.3209691299705426e+00
         - -2.9644782662921392e+00
         - -3.8274182582241254e+00
         - -7.0274383012987585e+00
         - -1.6312098784773493e-02
         - -3.1673794746791550e-01
         - 3.7416484505981296e-01
         - 1.9867401411649928e+00
         - -4.5822710288732205e-01
         - 2.8234653833694798e+00
         - -1.9495030944980645e+00
         - -4.6705335890647399e+00
         - 2.7934080426082941e-01
         - -3.6513474087851612e+00
         - -1.8650619100097359e+00
         - -3.8503440244896310e+00
         - -3.3001081155508678e+00
         - 2.8226432594014703e+00
         - -1.3995152251859595e+00
         - 7.9530247077826055e-01
         - 1.0231339491966824e+00
         - 1.2977422553473228e+00
         - -4.3278171863073911e-01
         - -1.6913301463568744e+00
         - -5.1134832082585984e+00
         - -6.7504888555828313e-01
         - -1.9784963051290485e+00
         - 2.1517060588684562e+00
         - 2.7092385852526504e+00
         - -1.4850971330189848e+00
         - 1.8028119167194248e+00
         - 6.2311670602872038e+00
         - 6.4955241107833961e-01
         - -1.1669769763675264e+00
         - 1.6722200632224320e+00
         - -4.6790810308892734e+00
         - -1.5391589784870032e+00
         - -2.8163494626436254e+00
         - 2.6794413937699946e-01
         - 5.8960672749033067e+00
         - -5.1348022136069789e+00
         - -1.2451326404578207e+00
         - -3.9111763894894325e-01
         - 1.5855566036162783e+00
         - 1.9274223749040176e+00
         - -9.7317816100995547e-01
         - -1.8590878206565216e+00
         - 8.9396800287495175e+00
         - 5.1279305901664545e+00
         - -1.4649602170740805e+00
         - 3.8124160573273507e+00
         - 3.0114874967872463e+00
         - -3.4006847066579153e+00
         - -1.7577792711513149e-01
         - -1.7105212655891151e+00
         - -5.6755635561994755e-01
         - -2.2784975161468948e+00
         - 1.0388681837049627e+00
         - 2.8731267080534124e+00
         - 4.2613324771073637e+00
         - 1.4052599863997055e+00
         - -1.0761481666875572e+00
         - 4.4224008156393904e+00
         - 2.3645718252582628e+00
         - -2.3635236079402142e-01
         - 3.9349852141028387e+00
         - -1.3977504420521647e+00
         - -2.3264459847624883e-01
         - -4.6880547608332153e+00
         - 9.4161592126183535e-01
         - 3.3160608231240976e+00
         - 4.1316162328149009e+00
         - -6.5460161833253683e-01
         - 1.5581552093747271e+00
         - -2.3099603914060407e+00
         - -1.8975814596914897e-01
         - -2.7078734945780920e+00
         - -1.7806491828939515e+00
         - 2.7955361592755943e+00
         - 1.2130951379444161e+00
         - -2.0280513716240138e+00
         - 1.7222814484570301e+00
         - -8.2209897684072497e-01
         - 2.9613129339892623e+00
         - 7.5794987060042436e+00
         - 2.9222225392093244e+00
         - -1.9293673272183312e+00
         - 5.7843240894007975e-01
         - -2.4301503069481569e+00
         - 4.4835688283242914e-03
         - 2.2452074745890771e+00
         - 1.6856328721152503e+00
         - -7.7913008350753490e+00
         - -2.3803878981129407e+00
         - -3.0405979428545802e+00
         - -4.1411066517692747e+00
         - -6.2507816277512926e+00
         - 1.1126510736054658e+00
         - -3.7145677334069274e+00
         - -1.9582869165445067e+00
         - -8.7188395086886056e-02
         - -2.4076206027387324e+00
         - -1.2029223206475630e+00
         - -5.4373244022847373e+00
         - -1.4340065011111576e+00
         - 3.8355553230119716e-02
         - -2.6111163543122080e+00
         - -9.6901153627768954e-01
         - -1.3625899108173807e+00
         - 1.1731070290250331e-01
         - -2.9043355445148737e+00
         - 7.9577487462080998e-01
         - -1.0231392254647506e+01
         - 4.5631260416102409e-02
         - 3.6828377702706603e+00
         - -3.7511128715342656e+00
         - 2.1038258975244064e+00
         - 5.8197084492563551e+00
         - -2.5228132001619898e+00
         - 3.7110982726873232e+00
         - 4.4879094320979442e+00
         - 2.7025582172807407e+00
         - 1.1245306484394115e+00
         - -6.1280991400899687e-01
         - 6.8272084083409201e-01
         - 6.6218208704686232e-01
         - 5.1643635979596221e+00
         - 3.2448214261865727e+00
         - 5.0833210900534898e+00
         - -5.5947647383770849e-01
         - -2.7794884479657245e-01
         - -1.4915555578489053e+00
         - 9.7748867693386210e-01
         - 3.0238495572238522e+00
         - 3.8220300244852496e+00
         - -2.7426463210958167e+00
         - 1.4988787897737406e+00
         - 1.0073008504284571e+00
         - 2.7296080763860797e-01
         - -5.0395665164799808e-01
         - -2.4920027332681016e-01
         - 1.9171148225033527e+00
         - -4.3243704868424855e+00
         - 4.1725975576803203e+00
         - 1.4757235640279445e+00
         - -2.1215020047302663e-01
         - -1.5616864964468984e+00
         - 1.9036914444124606e+00
         - 6.1820122767637518e+00
         - 8.5645009915533521e-01
         - 6.2900674702069628e+00
         - 1.1441542848796589e+00
         - -2.8655587699110603e+00
         - -6.7273034226360362e-01
         - -2.2300640801946749e+00
         - -8.0967561115534337e-01
         - 3.0999501774294655e+00
         - -1.6920436189786601e+00
         - 3.4254662545412571e+00
         - 2.5478388760577295e+00
         - 3.1358226192068352e+00
         - 2.5915251487175222e+00
         - 1.6923313530358026e+00
         - -5.8438444369064591e-01
         - 7.0093989729867212e-01
         - 1.0749546913445798e+00
         - -1.5382513259262289e+00
         - 4.0709097854925931e+00
         - -3.1059965859615835e+00
         - 1.0398040796568406e+00
         - -3.5043667870059991e+00
         - 5.4638245046531324e+00
         - 3.5259337045628092e-01
         - 6.6814999841825196e-01
         - -8.1644503154169659e+00
         - 1.4754530050035140e+00
         - -9.9352251834202345e+00
         - -1.0840557972918923e+01
         - 1.3862606898312027e-01
         - 3.3853498986969555e-01
         - -5.9766649588503720e+00
         - 1.8965754227884086e+00
         - -1.3411206994228597e+00
         - -2.1324108004996836e+00
         - 1.9344740253287174e-01
         - 3.1232178482420250e+00
         - -3.6966291216165152e+00
         - 2.0397113648673653e+00
         - -8.5925610110755866e+00
         - 4.1686833157739258e+00
         - -7.4613050933176972e-01
         - -3.6412296625708135e-01
         - 2.2195271580570955e-01
         - 2.3950914252815219e+00
         - -3.1142986836045696e+00
         - -3.3625102933204398e+00
         - -4.6771949544903286e+00
         - -1.4431785608792245e+00
         - -3.9594561963264892e+00
         - 6.9461912260148839e+00
         - -2.3128206691393056e+00
         - -5.3891509890838685e-01
         - -4.3763414559603642e-01
         - -4.6089214702397339e+00
         - 8.5470735740480419e-02
         - -5.0047511540851108e-01
         - 1.9307660135946494e+00
         - -1.0836622645011544e+00
         - 1.4596304992410811e+00
         - -8.4020105114911769e-01
         - 7.9340025044331797e-01
         - 4.1952347673486823e-01
         - -1.8063128290227852e+00
         - -2.2405277764616285e+00
         - -1.7259179511207972e+00
         - -5.3010088298952818e+00
         - 5.0315134003213666e+00
         - 8.2009180737162612e+00
         - -9.7428343281598451e-01
         - -2.4485563641645731e+00
         - -1.1676546075635479e+00
         - 4.5096173746357353e+00
         - -1.1384703281162514e+00
         - 2.6165328430852206e+00
         - -5.1131479133387154e+00
         - -1.0769219361644846e+00
         - 5.8082777836210486e-01
         - 2.9726504059446617e+00
         - -8.4082895511059808e-01
         - 1.9746492507671165e+00
         - -3.3092069780955824e-01
         - -1.3963834663121646e+00
         - 1.5127328578481656e+00
         - 1.6747753212837500e+00
         - -8.1566804128076620e-01
         - -4.3614107103627449e+00
         - 7.4384521442158702e+00
         - -7.3441172151489358e+00
         - 3.1830839466474665e+00
         - 1.9121034042165665e+00
         - -1.1315131728687922e-01
         - 3.7937458484373987e-01
         - -1.3444035922634379e+00
         - 5.0332522951025789e+00
         - 2.5110740639662184e+00
         - 3.6772034863313690e+00
         - -1.7743582243727989e+00
         - 3.5487818041977657e+00
         - 1.2671087626719149e+00
         - 2.7890393842206427e+00
         - 1.8647174129813284e+00
         - -4.3160099272412831e+00
         - 2.8032773794591197e+00
         - 3.2375389677871076e+00
         - -2.6273894272993048e+00
         - 1.1911206227365478e+00
         - -1.6140133631656941e+00
         - 4.1470698983963663e+00
         - 8.2429807453116011e-04
         - 3.4387879999098709e+00
         - 3.8480178924631958e+00
         - -1.5844215479220993e+00
         - 1.2766224350995453e-01
         - -7.4283001804817261e-01
         - -1.7896507403523958e+00
         - 3.1138385782212308e+00
         - 2.4259720469447563e-01
         - 7.8408518674752303e-01
         - -4.8818043907912241e+00
         - -1.1226122569998012e+00
         - 2.0646738371191056e+00
         - 3.6158991041510786e+00
         - 3.6721789645831358e+00
         - 4.0557566432057151e+00
         - -4.1075358067054030e-01
         - 1.7294720129871541e+00
         - -1.2787115400162019e+00
         - -3.9687479685210363e+00
         - 2.7398802232234805e+00
         - -1.1178102239888954e+00
         - -4.5401963231931788e+00
         - 1.1687543227595071e-01
         - 2.9662283027287875e+00
         - 4.0887134022887306e-01
         - -1.0788446945733585e+00
         - -1.1547199293475698e+00
         - -4.1186408108680022e+00
         - 6.6205450868146076e-01
         - 2.8955526152695171e-02
         - 5.4333266679688768e+00
         - -3.4347397887767737e+00
         - -1.0850179391631083e+00
         - -5.7802950504695625e+00
         - 2.9584619201189444e-01
         - -1.5691392124810106e+00
         - 4.3172066249146990e-01
         - -5.4151721236231278e+00
         - 2.4621105636807547e-01
         - -3.6228422658337127e+00
         - 2.0276288219053122e+00
         - -6.0050228761278390e+00
         - -1.3969870873689074e+00
         - -3.9593274735773731e-01
         - -3.4552542856630644e+00
         - -2.8435014381980572e-01
         - 3.3128666407829988e+00
         - -2.9212773554344089e+00
         - 4.3474774678557659e-01
         - 1.4003983484820484e-01
         - 3.1940080151108097e+00
         - 2.8875308797055677e-01
         - -1.4101562154327887e-01
         - -3.6923240686104233e+00
         - -1.2665498179522785e+00
         - 3.7112722365648543e-01
         - -2.9305355310117926e+00
         - 4.3144971046208616e+00
         - 6.5937758110095901e+00
         - -1.8773504883657716e-01
         - 1.5462226623338071e+00
         - 2.3020317323970518e+00
         - 2.8213139045415860e+00
         - -4.0696560809259923e+00
         - -8.0729548196460899e-01
         - -1.3149350016953538e+00
         - -1.6565317413276599e+00
         - 2.5366368926511056e+00
         - -2.3057489699464493e+00
         - 6.1131745626367939e+00
         - -1.8879383392451285e-01
         - -1.1528289598618655e+00
         - -3.1265435852389292e+00
         - 4.9472289656680324e-01
         - 6.4581981655187115e-01
         - -4.1361966906522962e-01
         - -2.6229227186360371e-01
         - 5.3219540290991736e+00
         - -2.7285659375429563e+00
         - 2.4445416649598040e-02
         - -1.1007511900841256e+00
         - 2.4394314969214972e+00
         - 1.7096145119757329e+00
         - -1.0410261500909059e+00
         - -1.7118613043604460e+00
         - -1.5665186057488032e+00
         - 3.6731458767872978e+00
         - -1.8652198721681561e+00
         - 7.5115070407837754e+00
         - 4.7701326592394846e+00
         - 3.2996310594375311e-01
         - -6.0728870697757209e-01
         - -6.1125110854959042e-01
         - -1.6399101255240325e+00
         - 1.3277668571316597e+00
         - 1.5018538927158025e+00
         - 1.0878545707199188e+00
         - 3.1986828257162170e+00
         - -2.6240857728072235e+00
         - 2.2896894879713585e+00
         - 6.6038077138868023e-01
         - -2.5374722518068302e+00
         - -3.0782669909764732e-01
         - -8.2640984689881097e-02
         - 1.5062525369532671e+00
         - 2.7565698855051597e+00
         - 3.2164581714294274e+00
         - 2.3224854951442380e+00
         - 8.8007595057379373e-01
         - -4.4247362891617694e+00
         - 2.7235216328967848e-01
         - -1.2295675587760462e+00
         - 4.5988665274358853e+00
         - -8.3246392232142585e-01
         - 1.9916317522097544e+00
         - -7.4277447877803597e+00
         - -3.0451467450798866e+00
         - -5.0946193037520282e-01
         - -1.7719436172615799e+00
         - 9.3954804660763847e-01
         - 1.6854260195261752e+00
         - -2.0169662770046894e+00
         - 1.9789959669632026e+01
         - 2.3541154207805945e+00
         - -2.6526898141372679e+00
         - 4.7803166310566070e-01
         - -3.9040696052768853e+00
         - 1.3865158139014493e+00
         - 3.5554513373356478e-01
         - -2.7327375751546290e+00
         - 8.6223532475483089e-01
         - 1.7714640704967197e+00
         - -8.2912394272275469e-01
         - -1.7522569280583900e-01
         - 3.5394640788093592e+00
         - -3.1053425376301274e+00
         - 3.6656202552124151e-01
         - -2.7762777391703271e+00
         - 9.3678767406474905e-01
         - -3.3038152947335666e+00
         - 1.0388412874177484e+00
         - -3.0484134276537189e-01
         - 3.1875974113516059e-01
         - 2.9655202332914066e-01
         - -2.7049307375839637e+00
         - -5.5136252469986013e-01
         - 2.1480546314784590e+00
         - -2.6689616221505599e+00
         - 4.7974186421293119e+00
         - -2.3595749959090386e+00
         - 5.2198895148561073e+00
         - -1.0872274202622034e+00
         - 2.9465842644300655e+00
         - -1.0645308357446730e+00
         - -2.1117829611969343e+00
         - -1.9674696323630458e+00
         - 6.8655661851406158e-01
         - 3.7454169077521251e+00
         - -1.3651105075234660e-01
         - -1.3810179214830056e+00
         - -4.1307624503651539e+00
         - 4.4388258463876840e-02
         - 1.8321326686481356e+00
         - 3.1841334660307217e+00
         - -1.7713839446521160e+00
         - 9.2807890632619172e-01
         - -4.7053520467356974e-01
         - 2.3659158691277953e+00
         - -6.9832042691873741e-01
         - 3.0807100590391325e+00
         - 3.0901906212149166e-01
         - -1.8561331876628624e+00
         - 8.6420144299767887e-01
         - 2.0287952293369282e+00
         - -3.5492797238282368e+00
         - -4.7708714779845689e+00
         - -2.0504668400175174e-01
         - 4.1501728318347233e+00
         - -2.7545329177619444e+00
         - 6.4956579688287608e-01
         - -1.5854045053137897e+00
         - -5.6952586033598906e-01
         - 2.8887515262124417e+00
         - 2.4340892075402589e+00
         - 7.3014440659144686e-01
         - 2.8764571937280721e+00
         - 5.3460067501527808e+00
         - -3.8683858901386936e-01
         - 5.3062267728716139e-01
         - 6.4125803630557501e+00
         - -3.0150883391831806e+00
         - 1.9647576863856155e+00
         - -2.1579280702110715e-01
         - 2.5714392351008981e+00
         - 3.8368442786244676e+00
         - -9.7848110135839816e-01
         - 4.0436550819891419e+00
         - -2.4897421720125275e+00
         - 2.7846684541789539e+00
         - -1.6141517382022332e+00
         - -1.4924316318385291e+00
         - 1.7754349772256026e+00
         - 1.7093058693790038e+00
         - 3.1027905476534645e+00
         - -1.0272657298314555e-01
         - 1.3778728326548872e+00
         - 2.1816291234595087e-01
         - 3.6884516995224184e+00
         - -5.5526030287525496e-01
         - -5.6806849452452477e+00
         - 1.0249242383866315e+00
         - 1.8676659916299326e-01
         - 4.0849669110970488e-01
         - 5.4255560610518927e-01
         - 4.6904105628627448e+00
         - -3.4649477470346524e+00
         - -7.2773156832222385e-01
         - -8.8901821141942072e-01
         - 8.5920928036264999e-01
         - -4.9267092192587070e-01
         - -1.4549165137547710e+00
         - -1.5027406541174601e-01
         - -2.2066888560376696e-02
         - 7.1330274531497508e+00
         - -4.6368330697832425e+00
         - 2.5174725196930217e+00
         - -1.1681183307631717e+00
         - 8.7580960272868480e-01
         - -1.4134435438999522e+00
         - -5.1322234693115512e+00
         - -1.4344407027742816e+00
         - -1.1620408174687835e+01
         - -5.7395413031308653e+00
         - 2.4711740269805809e+00
         - 7.2051780541582939e+00
         - -2.8803590079410679e-01
         - 1.4122373710185785e+00
         - 1.5917033720252323e+00
         - 4.9239995654941247e+00
         - 7.9920839877396910e-01
         - 3.7656205306097448e+00
         - -4.6791644176548166e+00
         - -3.2338521858841394e+00
         - -7.8764049758557431e-01
         - -4.0094597350336969e-01
         - 1.6011158916901604e+00
         - 3.8588905978489101e+00
         - -7.1732173672177320e+00
         - 2.7914323527963090e+00
         - -1.4297788944171543e+00
         - 1.0873138577210287e-01
         - -1.5220942732721066e+00
         - 1.4108201369223923e+00
         - -1.4652369864378192e-01
         - -6.9894169104845116e-01
         - -4.9583137420538526e+00
         - 1.2404718356633238e+00
         - 2.3837276168900740e-01
         - 3.3199958616964191e+00
         - 2.7439548824074600e+00
         - -8.2259069192165801e-01
         - -9.0954014438413311e-01
         - -1.2342590536125908e+00
         - -4.9939513396183850e+00
         - -7.5434321571707219e-01
         - 2.6833456698620894e+00
         - 9.3269009823542659e-01
         - -1.1442947125148966e+00
         - -2.3352910547300665e+00
         - -1.4421848162386777e+00
         - -1.0343685384586072e+00
         - -3.9661796924607433e+00
         - 1.3574186499865766e+00
         - -6.5051856588298964e+00
         - 3.8205039780813721e-01
         - -1.2334611001772144e+00
         - -1.9656923040214545e+00
         - 2.5518262585338487e+00
         - 2.4830710889295480e+00
         - 2.3883238329843506e+00
         - -3.4463796504611222e+00
         - 2.3208948471411079e+00
         - 8.3727213283337076e-01
         - -4.2911608224617623e+00
         - -4.5610297968863878e-01
         - 1.5206550314944562e+00
         - 6.8022976767018291e+00
         - 3.8214987721803930e+00
         - 3.9331224618662532e+00
         - -1.5869778420092997e+00
         - -6.6976792031279810e+00
         - -2.9908319825250445e+00
         - -3.0048461646294884e+00
         - -4.4090260816661484e+00
         - -3.3980872661532708e+00
         - 1.1358854900475861e+00
         - -6.1935317518254485e-01
         - 1.0260289597421344e+00
         - -3.5345389238922591e+00
         - 5.3128940817407759e+00
         - 2.3131921150197057e+00
         - 2.9272144513432421e+00
         - 2.9434097486649131e+00
         - -1.1309201369204500e+00
         - -7.2780388606547382e+00
         - 6.6546904531299491e+00
         - 7.2869067126101605e-01
         - 2.1415942576605502e+00
         - 8.9567196695934481e-01
         - 2.2057035345172485e-01
         - 1.0769193924184295e+01
         - -5.0875341509250271e-01
         - 3.1949305766662164e+00
         - 3.9753391778204366e+00
         - 1.7209740070876376e+00
         - -4.9185560361928971e-01
         - -2.4844677722318012e+00
         - -2.6562862233344537e+00
         - -3.0034936006926736e+00
         - -1.9887320107058941e+00
         - 1.1452924295893001e+00
         - -3.0576623073456823e+00
         - 5.1913575323642869e+00
         - 1.2059157506276383e+00
         - -2.2119706565206965e+00
         - 2.6856814126543109e+00
         - 2.8604196215984357e-01
         - 3.6001401096798369e-01
         - -1.6362305998255158e+00
         - 4.6140251479889027e-01
         - -4.9933710213035865e-01
         - -2.8077129662447992e-02
         - -2.1550615140981155e+00
         - -1.2837182903631805e+00
         - 7.1918041689712364e+00
         - 1.8019499246665878e+00
         - 4.6349716151264113e+00
         - -4.5505780483852440e+00
         - -1.8077880821379604e+00
         - 6.9859152738025421e-01
         - 5.9038557653284878e+00
         - -5.4067969140344490e+00
         - 7.0308618763438718e-02
         - -6.1482631003702002e+00
         - -3.3836368842692508e+00
         - -4.1674718546010758e-01
         - 2.8521373469614386e+00
         - 2.0396088803323487e+00
         - 6.1713705767903626e+00
         - -4.0705606589841743e+00
         - -1.5649968414786501e+00
         - 1.7523917849845311e-01
         - -1.5531161291335880e+00
         - 1.2635271513823034e+00
         - -2.0496498071335942e+00
         - -1.6656793754506292e+00
         - 3.2715432641924880e-01
         - 2.7016088368338433e+00
         - -8.7353058972873232e-01
         - 2.4435307557046673e+00
         - -5.1913089341585659e+00
         - -1.5429645960430665e+00
         - 1.6927906810108833e+00
         - -4.0349395895270384e+00
         - 8.2778025568307765e+00
         - 3.3113473334755072e-01
         - -5.9332891963091017e-01
         - 1.0364969085797704e+00
         - -3.3224005176902867e+00
         - -2.5832714877393870e+00
         - 3.3214998073107500e+00
         - -1.7490163181920557e+00
         - 4.4636596168105880e-01
         - -1.9234468636204101e+00
         - 1.0033958816696713e+00
         - -9.7883597356947660e-01
         - 8.1135176630042993e-01
         - 3.3858459399843466e+00
         - 2.1691017131960248e+00
         - 2.0050447460009213e+00
         - 1.3928111503464793e+00
         - 5.6947633393538277e-01
         - 8.6120716205968395e-01
         - 3.8707533021493621e+00
         - 1.2136460758906087e+00
         - 7.5228056588820644e+00
         - 3.1999315585965800e+00
         - 9.9235888758587942e-01
         - -4.0507457728551284e+00
         - 2.7329048287438256e+00
         - -3.0281528352193861e+00
         - 2.4985851203970011e+00
         - -2.3234629745803894e+00
         - 5.9325398099060997e+00
         - 2.5970341913466424e+00
         - -5.7793340474859587e+00
         - 7.1398570655929749e-01
         - -6.7402619834512545e-01
         - -3.4053800958756635e+00
         - 1.1110170453888388e+00
         - 3.0689456985022008e+00
         - -3.2423853419772808e-01
         - 6.6881848177038783e-01
         - -1.1879585597227442e+00
         - -4.8440837087414170e+00
         - -2.9542126416248387e+00
         - -6.1484407220603476e-01
         - 2.5302975208742113e+00
         - -2.8253699560660723e+00
         - 1.6942963892876231e+00
         - 5.3327941186173149e+00
         - -9.4337975034460964e-01
         - -2.0294216291720213e+00
         - -1.9623293790015652e+00
         - 6.9166752763669748e-01
         - 8.7381731565915444e-01
         - 8.7585215694371965e-01
         - -8.5025347791752115e-01
         - 1.1962504231511186e+00
         - 1.3923167440767723e+00
         - 3.1420300172456805e-01
         - 2.0235771574614714e+00
         - -2.3730964089215973e+00
         - 2.1285378579059504e+00
         - 1.5992982999516279e+00
         - 6.8095984868458148e-01
         - -6.4942041485439972e-01
         - 1.0561981190106384e+00
         - -7.2584790694477856e+00
         - 1.2796527612346531e+00
         - 3.9357385422570914e+00
         - 8.3224473330087285e+00
         - -3.5782717658367633e+00
         - 4.3675921792843093e+00
         - 5.7355231786636249e+00
         - 1.6448735775512393e+00
         - 2.2556965773279605e+00
         - 2.7219614284308906e+00
         - 9.7864544249257668e-01
         - 3.0861971371056089e+00
         - -2.6872129422358255e+00
         - -1.1553482235477504e+00
         - 1.8977694643414955e+00
         - -4.5021150595141570e+00
         - 4.7708323611738246e+00
         - 1.0964189237466728e+00
         - 2.2751737570917743e+00
         - -1.9230288465913288e+00
         - 5.2406114178737120e+00
         - -7.3895965959131820e+00
         - -1.3873141937040914e+00
         - 2.2908263442342407e+00
         - 4.9085039430134199e+00
         - -1.6693193742722354e-01
         - 5.6302684491626204e-02
         - -1.5579559784824548e+00
         - 2.3529228961522790e+00
         - -1.9813545999376698e+00
         - -2.3764827921707266e+00
         - 1.0882477089088449e+00
         - -1.7603825373584412e+00
         - 5.8512884929390896e-01
         - 1.0028730129225063e+00
         - 1.1630703960929081e+00
         - 6.5357465802864345e-01
         - 1.4757394513479156e+00
         - 1.2226376313108153e-01
         - 1.3086753581590780e+00
         - -3.6145152065958559e+00
         - 4.0257755393829364e-01
         - 6.5166771111464322e-02
         - -2.1337553267251277e+00
         - 6.2369416762909387e+00
         - -7.6789872249395774e-01
         - 3.7432305824621341e+00
         - 3.4464721212319471e-01
         - 2.7244107368256958e+00
         - 7.3706591105088703e-01
         - -1.7493935426602766e-01
         - -1.4752448833934912e+00
         - -2.2180934599211461e+00
         - -3.9491817252104036e+00
         - -4.3146583442101927e-01
         - 4.5023221794061852e-01
         - -3.9632673706733268e+00
         - 1.0284038183178410e+00
         - 1.3976411495639309e+00
         - 3.6075172308992989e+00
         - 2.5030389495801852e+00
         - -4.7162864171360948e+00
         - -3.5892056119876332e+00
         - 1.9631278201999174e+00
         - -9.0214061695000625e-01
         - 5.9606564227099357e-01
         - -1.8550390665193297e+00
         - -4.3569860686410511e+00
         - 5.2269526128419952e-01
         - -1.8476074060940948e+00
         - -1.1572603516698812e+00
         - 2.3745914822578453e+00
         - -5.6705134116077482e-01
         - -1.9688121976450141e+00
         - -6.5100083080691784e-01
         - 4.0875578394190004e+00
         - 2.8630266078155697e-01
         - -8.3432928941096673e-01
         - -7.2338930395493701e+00
         - -4.5549885172507565e-01
         - -5.8581759229769741e+00
         - 1.1003132176117361e+00
         - 3.7734899962598036e+00
         - 2.2456895909579182e+00
         - 2.3908416683269018e-01
         - -2.9351152425834188e+00
         - -1.9210155971079090e+00
         - -2.2858129930022355e+00
         - -4.4425478398276628e+00
         - -1.6280133377021846e+00
         - -1.4255016452121738e-01
         - -6.5981070203584684e+00
         - 4.7693028968166624e+00
         - 6.0691501363426097e+00
         - -2.1288707873852610e+00
         - 1.0783039539654240e+00
         - -6.6712957120546283e+00
         - 1.3120190894811548e+00
         - -1.7481112205982303e+00
         - 3.7173095688403412e+00
         - 8.0776820474165567e-02
         - -9.9834551608265132e-01
         - 2.3035000444287395e+00
         - 1.6698158710537747e+00
         - -4.3851708722016225e+00
         - 2.1658064722043076e+00
         - 2.4318504875493843e+00
         - 4.5806802879196109e+00
         - 2.4140830428984823e+00
         - 1.5032078533015463e+00
         - 2.0413328088881566e+00
         - 3.1706300134390131e+00
         - 1.5503476374969247e+00
         - -7.1405581169942662e+00
         - 1.1343544458883157e+01
         - -1.6452354834840806e+00
         - 2.8162089681714826e+00
         - -2.7075945883238117e-01
         - 3.9857463649842262e+00
         - 1.7525821338463214e+00
         - 3.4702022556420142e-01
         - 2.1916812956655316e+00
         - 1.2095046187080474e+00
         - 2.3698164916396784e+00
         - 4.0167253691424398e-01
         - 4.7881051910182437e+00
         - -2.0010457017363370e-02
         - -1.6473874723968129e+00
         - 3.3516407944236262e+00
         - -2.9228924918835189e+00
         - -1.5753731947670413e+00
         - 7.0964283837080746e+00
         - -2.7513385555155208e+00
         - -3.2405610788424086e+00
         - -1.2358831945675406e+00
         - -2.1895469533613441e+00
         - 7.3303708929604694e+00
         - 9.0310863451114465e-01
         - -8.5887238373476005e-02
         - 3.4749453022277998e-01
         - -4.6970765309177072e+00
         - -2.5840594813669910e+00
         - -3.6859596757719681e+00
         - -3.5617655091194533e-01
         - 6.8109383368143535e+00
         - -4.1662044094796373e+00
         - -1.1232463577202918e+00
         - 1.6914291554555263e+00
         - 4.2651699110025696e+00
         - -2.9832761181405401e+00
         - 6.5488201493802451e+00
         - -1.0887707320637925e+00
         - -4.2519799967752512e+00
         - -5.9381694396672291e-01
         - -2.6739067022021965e+00
         - -5.4366851886287870e-01
         - -1.4706355936295805e+00
         - -2.3907912508422919e+00
         - -2.5632549802431299e+00
         - 1.8533626797742397e+00
         - -4.0829312000413402e+00
         - -2.5664198384321524e+00
         - -1.8919355655624468e+00
         - -2.9649891924283880e+00
         - -2.3110374427917146e+00
         - -6.7465006552393814e-01
         - 3.2160591814575223e+00
         - -1.5367614814806867e+00
         - 1.5304630493490614e+00
         - -1.7746461336079582e+00
         - -2.8499623685081041e+00
         - -1.0310041957402181e+00
         - -1.4580297184723445e+00
         - -4.5217584747220716e+00
         - 2.7760709107781927e+00
         - -4.3806881865827918e-01
         - 1.5517221954735708e-01
         - 1.3796413038283557e+00
         - -5.5946824217017488e-01
         - 2.3696239389277283e+00
         - -2.9074795886406064e+00
         - 2.0332665805850807e+00
         - 2.6462160455437096e+00
         - 7.5470876396853392e-01
         - 3.6124099563709156e-01
         - 2.5293072416554918e-01
         - -2.4797454361151989e+00
         - 2.4478811684104662e+00
         - -3.9274319317327593e+00
         - -1.6747523687619494e+00
         - 2.9937736911497579e+00
         - -1.6772733896971987e+00
         - 3.7877464479615144e+00
         - 4.4709759572870666e-01
         - -1.7686266097857535e+00
         - -7.7419773437538336e-02
         - 3.7069351086219815e-01
         - -1.3081459191237974e+00
         - -1.3431261227718447e+00
         - 1.1272459522864824e+00
         - -2.3342924314216269e+00
         - -1.6440735691203230e+00
         - 1.8582476984151983e+00
         - 5.5454214152459533e+00
         - -6.5225165077271507e-01
         - 1.1732435603692160e+00
         - -3.0451749301301634e-01
         - 1.7780117263546122e+00
         - -5.0738997841959815e-02
         - 5.0203670359289720e-01
         - -9.9016261535295025e-01
         - 5.9155986755310996e-01
         - 1.8993543441496508e+00
         - 2.6679925014132917e+00
         - 1.5725487725365150e+00
         - -2.2415080710287669e+00
         - 2.8006105734181053e+00
         - 1.9488360215537376e-01
         - -6.6229887816464117e-01
         - -3.3747041635143699e-01
         - -1.0716762310438832e+00
         - -3.2936271569233382e+00
         - 3.1895862071131607e+00
         - 3.7040621714336668e+00
         - 4.3664156929570401e+00
         - 2.6725231125005902e+00
         - -1.3326543875052284e+00
         - -3.4633092329059161e+00
         - 4.1242513545247739e-01
         - -3.6742376600849584e+00
         - -1.0702285488183394e+00
         - -2.8161479717204587e+00
         - 9.4499515294606318e-02
         - -3.4136538099579177e+00
         - -5.0186552985688717e+00
         - 1.8299868124142216e+00
         - 8.6541755266297093e-01
         - 4.1182888222815093e+00
         - 9.9113266376356624e-01
         - -1.8193198977797853e+00
         - -5.5360479153190356e-01
         - -4.6773463332967653e+00
         - 1.7985263314615689e+00
         - 6.5206763317590555e-01
         - 4.0481152025259801e+00
         - -6.9380050175361019e+00
         - 8.2575806145184294e-01
         - -7.1512261464653326e-01
         - 1.2967529320377766e+00
         - -4.0238358721188794e-01
         - 2.0718106226628783e+00
         - -9.6888716587245149e-01
         - -8.9054807172998385e-01
         - 2.7673773587229551e+00
         - -3.5729215760654061e+00
         - 3.7418196117506397e-01
         - -3.7393227735315655e+00
         - 1.7747527302417365e+00
         - -6.9312435617673374e-01
         - 4.8908384403017795e+00
         - 1.3487090942214501e+00
         - -1.3857297110321509e+00
         - -7.4939447422978811e-01
         - -1.8217357442850803e+00
         - -4.7510503517234977e+00
         - -1.8890716154646789e+00
         - -3.3972081660774172e+00
         - 6.3536369834160278e-02
         - 1.7042286187815259e+00
         - 3.1373729749120494e-01
         - -1.0877408601002982e+00
         - -3.4178117280165443e-01
         - -2.2524262557557057e-01
         - -1.0443552960228031e-02
         - 2.4671822100899879e-01
         - 3.6859403414465919e+00
         - 2.0773980488183166e+00
         - -2.1181706062617662e+00
         - -2.6678125095783369e+00
         - -8.2427125168255380e+00
         - -1.6604274911504031e+00
         - -1.8137004767104134e-01
         - -1.5078585550761137e-01
         - 3.5051072088276425e-01
         - -3.4319705436414794e-01
         - 5.2156273170922738e+00
         - -3.8205056183540451e+00
         - 5.3682623276653372e+00
         - -2.8937655318652766e-01
         - -1.0346579414055990e+00
         - 1.0230196517015870e+00
         - -6.0706753070471038e+00
         - 2.0906628491034072e+00
         - -5.2925299456587915e-01
         - -2.4923406438440657e-01
         - 2.6995965789295379e-01
         - -1.2943338535288587e+00
         - -2.4411872631540548e+00
         - 2.0918660418568003e+00
         - 1.9000104910496614e+00
         - 6.4344348931022488e-01
         - 2.1033735020558515e+00
         - -6.3051663370824764e+00
         - -2.1301761500079488e+00
         - 1.3679597211616201e+00
         - 4.7456995058818103e+00
         - 5.2510274771164323e-01
         - 1.2213915446997463e+00
         - -2.9759246418917418e-01
         - 1.5034816452994377e+00
         - 6.8498002309896633e-01
         - 2.8112594860873727e+00
         - -9.9789622720128150e+00
         - -2.1356363651764263e+00
         - 6.6009174328541951e+00
         - -1.6938693337696806e+00
         - -1.3345558829250195e+00
         - 7.7512850513497267e-01
         - -5.6338340529403830e-01
         - 3.1848839326276823e+00
         - 1.1997345517446554e+00
         - -1.8061567130360470e-01
         - 1.2672355422575841e+00
         - 7.3866701116285460e-02
         - 1.2429935564731593e+00
         - 5.0079504376254240e+00
         - 6.5410148997778634e+00
         - 3.7840829949655963e+00
         - 3.2263497500970502e+00
         - -2.8210177332834978e+00
         - -3.8650205920359206e+00
         - 3.1254340797902396e+00
         - 6.3636417692617797e-01
         - -1.3609357408072138e+00
         - -3.3288682639410685e+00
         - -7.5218616609165179e-01
         - 3.5566758937864198e+00
         - -6.1764715454503571e-01
         - 4.0706156281374950e-01
         - -2.3301654628346129e+00
         - -1.0463288772288317e+00
         - -4.8151914260055886e+00
         - -2.6029261102191521e+00
         - -3.0969952367935476e+00
         - 4.7376837792047137e+00
         - -4.8290800705666532e+00
         - 3.6975574182663271e+00
         - -2.4354247676702805e+00
         - 5.9715260686401521e+00
         - 1.1396256182617672e+00
         - 4.6490901792102983e+00
         - 9.0267266301207549e-01
         - -3.7083289900766769e-01
         - -1.7907815550694406e+00
         - -6.1175246297369892e+00
         - 9.5495542069245409e-01
         - -6.8696214061418814e+00
         - 1.6265099068058952e+00
         - -1.6079133135765418e+00
         - 2.3112616108931858e+00
         - -1.7312646027114242e+00
         - 7.6293636916859336e-02
         - 1.7333183939754897e+00
         - -6.8859780938312660e+00
         - -3.6345045437573803e-02
         - -8.7929423046805422e-01
         - -3.2039600533515231e+00
         - 9.2126347505111295e-01
         - 2.9140150974736265e+00
         - 3.7832566554279445e+00
         - -3.2471040405728040e+00
         - -4.5434548462784923e+00
         - -3.6880332587096498e-01
         - -7.4297200169731248e-01
         - 1.5430551772766865e+00
         - 3.2528019559438390e+00
         - -2.1867859322215102e+00
         - -1.2293531798209820e+00
         - 7.5853623568335415e-01
         - -7.6433440376743889e-01
         - -4.0176770794810357e-01
         - 2.9231252115901620e+00
         - -5.4964690998227610e+00
         - 9.0002244088359606e-01
         - -8.5606002338424538e+00
         - -6.2611711302368356e-01
         - -9.2157785363589699e+00
         - -2.0021724077443337e-01
         - -7.4922345552479950e+00
         - 5.7421002810192672e+00
         - 4.2217211879764518e+00
         - -2.8272171324326751e+00
         - -1.9844525405527498e+00
         - 1.1068143003166500e+00
         - 4.4291311117622234e-01
         - -1.8663835968450666e+00
         - 1.2890883941925215e+00
         - -2.7917976604172088e+00
         - 7.0996821995003689e-01
         - 2.6937564865578714e+00
         - 3.0633704039585341e+00
         - 1.9786115323979336e+00
         - -8.0936533840986447e-01
         - 2.9925169430931025e+00
         - 1.3563669548027768e+00
         - 1.3399377369646708e+00
         - 5.3276774762720358e-02
         - 1.1781026747942269e+00
         - 2.2423577703602322e+00
         - 1.0876214308449783e+00
         - -2.3964836744018698e+00
         - 2.1477427970991747e+00
         - -1.6755349526706473e+00
         - 1.3689250758906601e+00
         - 2.0202912337504313e+00
         - 4.9047018667101627e-01
         - 3.6904856854141728e+00
         - -7.7294121216585554e-01
         - -3.5040284159256032e+00
         - 5.6323003014832118e-02
         - 2.0915443764721151e+00
         - 1.6226525871933581e+00
         - 1.6150041685574665e+00
         - 9.8578265857849168e-01
         - -1.6646744359621388e-01
         - -1.2974532536644114e+00
         - 5.8488396497929234e+00
         - 6.6418551447303322e+00
         - -5.0435439728604980e-03
         - -2.2903177017908214e+00
         - 9.4420504361726693e-02
         - 1.6530040847040608e+00
         - -4.0163614671285757e+00
         - -1.8946730598885768e+00
         - -1.6744161899391843e+00
         - -2.6310905088567917e+00
         - 1.9757688978942145e-02
         - 1.0854255804741389e-01
         - 7.9586343097380463e-01
         - -7.0353907221666763e+00
         - 2.4335195754454579e+00
         - 2.4995019217114658e+00
         - 1.1294378534872859e+01
         - -1.8698730083293806e+00
         - 4.2433050587478034e+00
         - 2.8766541885496402e+00
         - 7.2368061560139779e-02
         - -5.4990216552862320e-02
         - 1.1320893277426076e+00
         - -4.6851749007189811e+00
         - 2.0417164579860145e+00
         - 5.7043767723023697e-01
         - 4.0079913604551071e-02
         - 2.7685177215229928e-01
         - -2.9906083703522612e+00
         - 3.2132783011788328e+00
         - -2.9668500416243146e+00
         - 4.5677122520743598e+00
         - 9.0913808550261144e-01
         - 2.1645782205444881e+00
         - -2.7865909455653886e+00
         - 2.1391847515472211e+00
         - -1.1161985622452861e+00
         - -9.5054603618698519e-01
         - 3.6304293683768396e-01
         - -3.8877629673403833e+00
         - -1.9628284216086520e+00
         - 1.8681130599135016e+00
         - -1.2388486523003102e+00
         - -2.9197736340756792e+00
         - 3.5834926384642529e-01
         - -1.3394170518248329e+00
         - 3.1451499561604614e+00
         - -1.0664661876146297e+00
         - 6.4543245583882103e-01
         - -6.9498841740365536e-01
         - -1.6154007587402492e+00
         - -3.5093745077608460e+00
         - -1.7744684049966897e+00
         - -4.3274774182736984e+00
         - -2.5120426046889950e+00
         - -9.9124133897664601e-01
         - 4.5119680323886613e-01
         - 4.9827612694698180e+00
         - -3.7556755478509851e+00
         - -1.1546857183379327e+00
         - -5.4695885636071324e+00
         - 4.7111858409494998e+00
         - 6.2522217909204170e-01
         - 5.3612758938279326e+00
         - 1.7457791592316201e+00
         - -3.1479712751304745e+00
         - -2.6305605637341891e+00
         - -3.8830823858006847e+00
         - -4.4387470318081157e-01
         - -1.8943434445882721e+00
         - 2.7607180192632867e+00
         - -3.5297014935672615e+00
         - 8.2899897980668791e-01
         - 9.0684608820371349e-01
         - 5.8737672199174424e+00
         - 3.9216198545527914e+00
         - -1.8418029396616999e+00
         - -8.1012421371333843e-01
         - 5.6731644288732430e-01
         - -4.2427007595534305e-01
         - -1.5079408721674636e+00
         - 7.0611662962024713e-01
         - 6.5094619966299860e-01
         - 2.2865525311567514e+00
         - -4.8689090293528015e-01
         - 3.2624465882702325e-01
         - 6.9432296965099460e-01
         - 2.0294830058429829e+00
         - 6.0112795978783562e-01
         - 3.0540580968312905e+00
         - -5.0720876585771535e-01
         - 9.3908965671707645e-01
         - -8.6456332937423197e-01
         - 1.1176140586561942e+00
         - -4.3504692133905234e+00
         - 3.4507317858601749e+00
         - 9.9069281165623280e-01
         - -3.6580843522234816e+00
         - -1.8854945252780855e+00
         - -1.4735489606180261e+00
         - 3.1453830048887985e+00
         - 1.0013647340473870e+00
         - 5.7529466308250143e-01
         - -9.0628312880706954e+00
         - -4.2253144691792943e-01
         - -4.2035716657694140e+00
         - 6.3055362105379853e-01
         - -3.6532142008433452e+00
         - -6.6339509576497979e-01
         - -2.3962483193526959e-01
         - -6.9228385389801672e-01
         - -1.1221881611827642e-01
         - 1.1159884161566420e+00
         - -2.5387071770008092e+00
         - 4.4252321158540511e+00
         - 1.4112766811011508e+00
         - -5.4093871587958970e+00
         - -6.2249726550679896e-01
         - 6.7585919267483896e-01
         - 7.0252143420028290e-01
         - 6.8037830123901095e+00
         - -2.3472225493247030e+00
         - 2.2008200115495486e+00
         - -4.1559898484111057e+00
         - 1.5647271618063818e-01
         - -2.7701743083659096e+00
         - 3.2889568986151234e+00
         - -8.2756299783328557e-01
         - -3.0598014024213520e+00
         - 4.5533220228810203e+00
         - -3.3141627025512048e+00
         - -1.3783329619599201e+00
         - -5.5285592289153813e+00
         - -8.6777656650499824e-01
         - -5.1890876200948455e-01
         - 1.9497873978310669e+00
         - 1.0562325894691806e+00
         - 8.8260231124188671e-01
         - 2.4949856377788642e+00
         - -2.2093879443693680e+00
         - -8.4764623090720592e-01
         - 2.5197212128418798e+00
         - 8.3922794338727791e-01
         - 1.8359609297186457e+00
         - 1.8178284543011116e+00
         - -5.4620802045984940e+00
         - 2.3542777850899244e+00
         - 9.5632657659924947e-01
         - -7.9975615159816673e+00
         - 1.4623722830688073e+00
         - 5.5755858010018420e+00
         - -2.0468163136559987e+00
         - -1.0167589012198408e+00
         - -3.0008441352390158e+00
         - 1.1354243929257293e+00
         - 1.5247624570896721e+00
         - -3.4940847131535682e+00
         - -1.4120889054831962e+00
         - 5.0430307595963575e-01
         - -2.1303316579089904e+00
         - -1.7040826384686054e+00
         - 2.1040408198972932e-01
         - -2.7761368517591349e+00
         - 4.0825620699118375e+00
         - 2.8567343516366543e+00
         - 7.2361851427355661e-01
         - -2.6773025066522744e+00
         - 1.2042142057311314e+00
         - -1.6607522537006580e+00
         - -1.7121149065577139e+00
         - 2.0038586570428101e+00
         - 3.9368227165311265e-01
         - -2.0040037748315975e-01
         - 2.3974862788562823e+00
         - 3.6903700913002702e+00
         - 5.8681808420590253e-01
         - -1.9448039024773900e+00
         - 1.3450809307892471e+00
         - 1.1274949394652542e-01
         - 8.4263166771859455e-01
         - -6.4389803229886988e+00
         - -1.1105104415102635e-01
         - -3.6000662910551822e+00
         - -7.4228562435557394e-02
         - 3.7729829421420464e+00
         - 1.1161139033958170e-01
         - -8.1527395501982536e-01
         - 2.3485827628076499e+00
         - -2.2161568436118714e-01
         - -2.5613241006979788e+00
         - -4.0933269945644319e+00
         - -1.0472159246923023e+00
         - -4.3539757935183685e+00
         - 2.2423688477249787e-01
         - -2.1913957928105012e+00
         - -5.5311559435557891e+00
         - 1.0929692748378970e+00
         - 3.7029044678594718e+00
         - -1.0432165182467762e-01
         - 1.1965836457056018e+00
         - -1.8231588016200271e+00
         - -1.7816431862187105e+00
         - 1.0413048654386725e+00
         - -4.1803661674954018e+00
         - -6.7300933974957344e-02
         - -3.8651962770632342e+00
         - 4.5596336507899355e+00
         - 1.3852464741362909e+00
         - 1.2370768625414094e-01
         - -5.0392282161511490e+00
         - -7.0723436240198978e-01
         - -3.2663238186066734e+00
         - 1.6019468464081971e-01
         - -2.4082630850985343e+00
         - 6.5935667482790237e+00
         - 7.4580053773404464e-01
         - -2.4103206788283824e+00
         - -5.4229012859491443e-01
         - 2.8203580689488472e-01
         - -3.8776206457734874e-01
         - 7.4396435085344925e-01
         - 1.7697340165422977e+00
         - 3.3401305998929653e+00
         - 1.0974394822712976e+00
         - 3.9432321292798400e-01
         - 2.6966223613122797e+00
         - 1.4288129213651071e+00
         - 5.8743301401865882e+00
         - -1.1579935762780444e+00
         - 4.1246903994378936e+00
         - -3.8925416845117033e-01
         - -2.7986687718106422e+00
         - 9.9844180632128754e-01
         - -2.3040789621721780e+00
         - -2.3645380764093815e+00
         - -9.7028177798762016e-01
         - 2.8020795303277239e+00
         - -3.2831431839560006e+00
         - -4.9458276717895151e+00
         - -5.6588961855340925e+00
         - 1.9572535038951119e-01
         - 8.6158965000763665e-01
         - -1.1693108745995262e+00
         - -1.0124575020011644e+00
         - -2.4544005250970229e+00
         - -5.8487164329135921e-01
         - 2.9662182685780563e+00
         - -3.3182015487557961e+00
         - -4.2330773576202265e+00
         - -8.0696117904017373e-01
         - 8.5214618426973487e+00
         - -4.4790484613559602e+00
         - 4.2431419648440913e+00
         - 1.4175163039524650e+00
         - 3.8949110478155973e+00
         - -1.8169743226743644e+00
         - -2.9697899705498281e+00
         - -2.9988049321000130e+00
         - 5.0529051981489026e+00
         - 4.0338999790434746e+00
         - -1.0194181264104478e+00
         - 2.8010024954934729e+00
         - 1.0264553745836102e+00
         - -8.2821306573020254e-02
         - 8.3203913809004604e-01
         - 2.1082309467273297e+00
         - -1.3865420761523266e+00
         - 1.7969327850461014e+00
         - -6.7259361390623331e+00
         - -5.0857819217344833e+00
         - 5.0521190391311577e-01
         - -2.8205615505393755e+00
         - 1.3860826195430274e+00
         - 1.8870875117657335e-01
         - -1.6974854391589302e+00
         - 3.8635481326745369e+00
         - 6.3674630722719205e-01
         - 3.3723797231722841e-01
         - 1.9297303710861144e+00
         - 6.3742329881368576e-01
         - -7.0749712816821697e+00
         - -4.6862088221360771e+00
         - -2.4479741419140675e+00
         - 1.6438275293581532e+00
         - -1.4424498639840291e+00
         - 2.7531257728983909e+00
         - -4.2376959471129538e+00
         - 1.4635010031026534e+00
         - -1.3828317148718130e+00
         - 4.9269361870365840e+00
         - 1.2931333212374143e+00
         - 6.9962286777937088e-01
         - -1.1438869168983641e+00
         - 2.6952793968366522e+00
         - -5.4946351562703910e+00
         - 5.7077496105684167e-01
         - -5.9998656732419819e-01
         - -4.7907391574466851e-01
         - 3.6000299802508173e-01
         - -1.5136080537976215e-01
         - 6.3951028805119803e-01
         - -2.6503648212407120e+00
         - -5.2030699976566259e+00
         - -2.5744002616601862e+00
         - -1.2411729130589053e+00
         - -2.9788540968517720e+00
         - 2.7423032271816759e+00
         - -5.1054352119805024e-01
         - -1.4214245147690223e+00
         - 1.7003919064114519e+00
         - -1.9883770703931081e+00
         - -6.4722252810931051e+00
         - 1.1521808039296284e+00
         - -3.4802472926968329e+00
         - 5.6154126562154829e+00
         - 3.4937908405891061e-01
         - -8.2652105165998885e-02
         - -3.2154919266498483e-01
         - -2.8185887977216311e+00
         - -9.2665336849956004e-01
         - 1.4483800030905518e+00
         - -8.9461487745390000e-01
         - -1.6545536811657846e-01
         - -3.9286270680875530e+00
         - 8.1228845103514864e+00
         - 1.0268059595886982e+00
         - 1.0149554297586176e+00
         - -2.3289124555737302e+00
         - -2.9739189687733192e+00
         - 2.5526343167426102e+00
         - -2.7433667529401147e+00
         - 5.4732894361247517e+00
         - -3.8443085678183579e+00
         - 2.4394808734944924e+00
         - 4.1956320687340289e+00
         - -3.2671101041057238e+00
         - 2.0980480375845154e+00
         - -1.7504311281869771e+00
         - 8.0951727532393158e-01
         - -3.0229725042980435e+00
         - -1.1597891501031685e+00
         - 3.2137352407475555e+00
         - -1.4829130271765738e+00
         - -4.7486392922332543e-01
         - 7.4030212269718920e-01
         - -8.3402866156695371e-02
         - -1.4798784654364527e+00
         - 1.3252031569992695e+00
         - 1.0989872111673855e+00
         - 3.8870316595342302e-01
         - 1.1612530791714777e+00
         - -5.3851083397903672e+00
         - -1.5244280406184658e+00
         - 5.8645403652403134e+00
         - -2.6249567658498441e-01
         - 3.2498774665013919e+00
         - -5.2023104149390935e+00
         - -4.2256367701051207e+00
         - -6.8090800151889375e-01
         - 1.6134723472695367e+00
         - 5.3961659966693720e-01
         - 1.9379659129956653e-01
         - 1.4243319519608844e+00
         - 1.7839474246115186e+00
         - 1.9302539850434295e+00
         - 1.3117483890904091e-01
         - -9.7370709212111584e-01
         - -2.2619134870336066e+00
         - -7.3301041267137002e-01
         - 3.2060342371105366e-01
         - 1.3878182165858397e+00
         - -2.4900074469810543e+00
         - 3.2457407761872226e+00
         - -9.2804540887184217e+00
         - 1.3678018508027552e+00
         - -2.4771875516953381e+00
         - -2.0470350109592075e+00
         - 3.1435086779895838e+00
         - 1.9739468296956124e+00
         - -4.0893582373876516e+00
         - -1.2624178819239633e+00
         - 2.6483187410589042e+00
         - 1.5751116955416007e+00
         - 3.3800073658592344e+00
         - 8.9145800463699054e-01
         - -2.3371789883115022e+00
         - -3.0828980450662771e+00
         - 1.4664887920531440e+00
         - 4.4218981815791758e-01
         - 3.0943008665191369e+00
         - 1.6158984933270504e-04
         - -5.1898201355305684e-01
         - -4.9044418340169740e+00
         - -3.3566293997650112e+00
         - -9.0622303292530904e-01
         - 6.4777339219648944e-01
         - -4.5942980287497024e+00
         - 5.3891977352512788e+00
         - -3.1646181105030546e+00
         - -2.6778453076063662e+00
         - 1.0303686074479739e+00
         - 7.2938942917259819e+00
         - -3.6770342308649595e+00
         - 1.7212383137107614e+00
         - 1.1922808181898441e+00
         - 1.4157905480754979e-01
         - 1.2636594020266410e+00
         - -5.1080583112486773e+00
         - -3.4568890529674627e+00
         - 7.7650754745737016e+00
         - -3.4338321875836928e+00
         - 1.3755524979992846e+00
         - -1.0509664315642968e+00
         - 3.6578126875557382e-01
         - -7.4768999354056231e-01
         - 6.8759054818365128e-01
         - -4.0683210614880005e+00
         - 2.5086804469331652e+00
         - 3.1987477299445208e+00
         - -2.0137303291924499e-01
         - -1.2289932369737315e+00
         - 9.0977839109551062e-01
         - -3.4380446873325217e+00
         - -1.6745097819430619e+00
         - 2.1955471536378037e+00
         - 1.0535311646353025e+00
         - -1.3976960554951603e-01
         - 6.7494247538548393e+00
         - -6.1196344343329245e-01
         - 6.8247351002229384e-01
         - -2.8007560013989985e-01
         - -3.6020262583800671e+00
         - 1.6036439258561397e-01
         - -2.6608781405821946e+00
         - 8.8848986991936729e-01
         - -1.1465588319288829e+00
         - 3.2307011108632948e+00
         - 4.8938119170802361e+00
         - 5.2053820585381994e-02
         - -1.8964223019046429e+00
         - -8.6061425048787452e+00
         - 2.4233910530864771e+00
         - -6.3427334102726818e-01
         - 4.1873965346976485e+00
         - 1.5014042003396448e+00
         - 2.2394820854351711e+00
         - 2.6127067472300451e+00
         - -1.3084540694332239e-01
         - -7.1925301221096314e+00
         - -1.7205871776947244e+00
         - 3.0513171987544276e+00
         - 2.2517738981938780e+00
         - 2.4042284758128871e+00
         - -1.5728155493089271e-01
         - 5.8997310038440298e-01
         - -1.1445060153869052e-01
         - 1.6817288163683193e+00
         - 2.2117496720280800e+00
         - 5.7574645671762376e-02
         - -4.5355218938832609e+00
         - 9.7975091714542628e-01
         - 4.3337889392727984e+00
         - 1.6438004185031452e-01
         - 4.1391571775603522e+00
         - 5.7187664312371522e-01
         - 8.7639170417624057e-01
         - 2.1881365030702396e-01
         - -1.4023291187081249e-01
         - 2.2559167636682611e+00
         - 8.8947167352849166e-01
         - -1.3676576691327145e+00
         - -2.7221562140135434e+00
         - 3.0465934432132333e+00
         - 2.1082928118938558e+00
         - 1.0491188388727171e-01
         - -3.7059249310103453e+00
         - 1.2170634570794783e+00
         - 1.0677646780071521e+00
         - 4.3507554416423817e+00
         - -9.9790499108647623e-03
         - -1.1241460340430987e+00
         - 2.7790982982755148e+00
         - 9.4604228727200401e-01
         - -1.2098383092338814e+00
         - 3.1296273717171896e+00
         - 1.0280302103176033e+00
         - -8.2626142358960719e-01
         - -5.2229732703200638e-03
         - 2.1446302809664686e+00
         - -4.3302514841476967e+00
         - -3.7643285497550771e-01
         - -3.2630362908625421e-01
         - -6.6171312616652073e-02
         - -2.2684217164780474e-02
         - -3.2770245000559334e-02
         - -2.1965357049477363e-01
         - -6.1387984716059096e-01
         - 2.5608202917737697e+00
         - 3.4075981676373301e-01
         - 2.4430677137885675e+00
         - 3.1890924834122432e+00
         - -1.2856079872563995e+00
         - 7.2205443671829483e-01
         - -3.8000437979826094e+00
         - 2.5872919944023640e+00
         - 7.1677123396011155e-01
         - 1.3867731294031915e-01
         - 3.3131988490918968e-01
         - -2.4343317177682069e+00
         - 1.7919655741866949e+00
         - -8.3847732634273764e-01
         - 1.8330990851093865e+00
         - 3.8985541611588292e-01
         - -7.3954876330722099e+00
         - -7.5815682790502192e-01
         - -7.7035640538932606e+00
         - 3.5722099512265806e+00
         - -1.0087562296159396e+01
         - -6.8903898861100163e+00
         - 1.2977212833596565e+00
         - 1.2292665122739963e+00
         - -1.1891303332411036e+00
         - 1.7937239806017529e+00
         - -1.0162912697614788e+00
         - 1.9615136876827934e+00
         - 7.1921546574581585e-01
         - 2.0251901594191066e+00
         - -2.6872258257623460e-01
         - 1.2998932066116156e+00
         - 7.8064821877254098e-01
         - -1.6606599591088238e+00
         - 4.5276217745560672e+00
         - -4.4626531658792610e+00
         - 5.6578759187055283e+00
         - 7.5522270470006336e-01
         - 4.2329396440136655e+00
         - 2.2705568727451486e+00
         - 2.4612043164705160e+00
         - -4.8595190773796748e+00
         - 2.8487502895010985e-01
         - -3.7171511557889030e+00
         - 1.2863012524599053e+00
         - -1.2910671542574517e+00
         - 9.3431884457627590e-01
         - -1.7731921611150465e+00
         - 1.2390197783843675e+00
         - 3.0529358721896935e+00
         - 5.0819692010518680e-01
         - 9.0243846946249051e-01
         - 7.9784743322367824e+00
         - -1.9508829453386185e+00
         - 5.5380550015861929e-01
         - -4.8768043534781258e+00
         - -3.7612354760541429e+00
         - 8.1979040687611626e-01
         - 2.8432982886448031e+00
         - -1.0224566592580229e+00
         - -2.0871869221804382e-01
         - -1.7932889888322603e+00
         - 3.4875112549007641e+00
         - 5.2821272356632432e-01
         - 6.3049135441667514e-02
         - -1.5848384601819687e+00
         - -3.1559523651996564e+00
         - -2.4360631534725634e+00
         - -1.7582677761723842e-02
         - -2.4734388832158576e+00
         - 3.8284029790027507e-01
         - -1.2816549270436102e+00
         - 3.9759324185778239e-02
         - -2.7350974435113629e+00
         - -1.1247243700130931e+00
         - -8.0649352532341023e-01
         - 3.7063040925525521e+00
         - -1.9429042297024108e+00
         - -2.8661059756745080e+00
         - 8.3325163966552496e-01
         - 4.8232395252723448e+00
         - -7.7166304065189584e-01
         - 2.4531681980103199e+00
         - 7.4566709640454448e-02
         - 1.3929600376414577e+00
         - -2.2130916938949818e+00
         - -1.9259598375901524e-01
         - 1.2657759231273134e+00
         - -1.9597062367068101e+00
         - -1.4001454835068998e+00
         - 1.1355557734734061e+00
         - 1.4951472351293236e+00
         - 7.4470332118849458e-01
         - -1.9857359889648811e+00
         - 1.1418794906312186e+00
         - 3.5873910295462981e+00
         - 3.1951985840334478e+00
         - -1.2006122617753385e+00
         - -1.4311437690943956e+00
         - -2.4407687777033011e+00
         - -6.2322325854667202e+00
         - 7.4556741134378657e-03
         - 2.9082546618780794e+00
         - 1.3716112734364654e+00
         - 1.4323532849061733e+00
         - -1.9264329247009715e+00
         - -1.2051714465239755e-01
         - -1.8825702849324533e+00
         - -2.7386556846035943e+00
         - -1.0495897115675188e+00
         - -4.0335566713908264e+00
         - -2.3151649230555988e+00
         - 9.4119182890182806e-01
         - -2.0554082757503478e+00
         - 1.5125449598549916e+00
         - -1.0710432566433918e+00
         - -2.1556003596886408e+00
         - 8.7203794391420109e-01
         - -4.9550025595698888e-01
         - 1.6920713183217990e+00
         - 1.2492108906965436e+00
         - 6.1419514884710064e-02
         - 2.7111964461850571e+00
         - 3.0400512609504386e+00
         - 1.4086212358420234e+00
         - -1.2846157980086448e-01
         - 1.4592139521408178e+00
         - 1.1500606010998049e+00
         - -3.3066712996284426e+00
         - 3.5994432077457814e+00
         - 7.8829474179961134e-01
         - -2.5299347431120287e+00
         - 1.8470970495968748e+00
         - -5.1772337389665424e+00
         - 2.9283673013169471e+00
         - 1.6650072771164468e+00
         - 7.5614868786990375e-01
         - -5.0506754387830597e+00
         - 1.2279412961636154e+00
         - -1.6006189500735646e+00
         - -2.0620367423083246e+00
         - -1.1335126549098458e+00
         - -3.3639758804623479e+00
         - 8.9213641759459463e+00
         - -6.8681985452788152e-01
         - -1.6206739048280934e+00
         - 1.2022827110348672e-01
         - -3.8286682845587838e-01
         - 4.2482880287198661e+00
         - -2.0935147804411192e+00
         - -1.0516089366054731e+00
         - -2.7783380638301902e+00
         - 5.2185137386669389e-01
         - 1.7274273733476517e-01
         - -1.0149477745902946e+00
         - -7.1592969802330797e-01
         - -3.6197510032742641e-01
         - -1.0007424046415145e+00
         - -3.6394689311063306e+00
         - 8.3785348423108506e+00
         - 3.0867513050626765e+00
         - -1.7695154760260783e+00
         - 2.5571484324573071e+00
         - 1.7494294251010254e+00
         - -1.1958810510125142e+00
         - -1.2700657872230252e+00
         - 3.2545278991612654e+00
         - -2.9877595725000914e+00
         - -1.3730737800804245e+00
         - -9.5469340568539396e-02
         - 2.8783443112800731e+00
         - -2.1445771006095073e+00
         - 6.0652199227854331e-01
         - -1.8402168852172118e-01
         - 1.2844448734735692e+00
         - -6.4677740598411120e+00
         - 1.9292491339232214e+00
         - -8.5152228539924746e-01
         - 4.8245183795268609e+00
         - -2.2516707892336192e+00
         - -4.4729755865077570e+00
         - -2.3818309955286434e+00
         - -1.2870208828446356e-01
         - 2.0156816028568971e+00
         - 3.4175903765834468e+00
         - 1.0515129991939542e+00
         - 4.4598700198793146e+00
         - 3.7148850946038094e+00
         - 2.4850766693067068e+00
         - -2.6961546098944228e-01
         - 8.4586325972816334e-01
         - 1.2085302684416592e+00
         - 8.0529953015863298e-01
         - 2.7249216976420625e+00
         - -1.3548178950470013e-01
         - 2.3197989958910570e-01
         - 6.1399433908348822e-01
         - -2.6796652748606148e-01
         - -8.5412210338771966e-01
         - -1.5667763452244954e+00
         - -2.7975004393271239e+00
         - -3.9286793470494028e+00
         - 3.4719218710946222e+00
         - -5.4131819543648274e-01
         - -4.9503482096560403e-01
         - 3.7420181934994949e+00
         - -1.8643771923795289e+00
         - -4.0655381723349340e+00
         - 4.7736438131530274e+00
         - -5.7387176441957735e+00
         - -2.0683787957658391e+00
         - -5.2938737467313359e+00
         - 5.7852475781686312e+00
         - -2.2835817330510446e+00
         - -3.6640855694345470e-02
         - -2.2325952924825514e+00
         - -3.1018292297758787e+00
         - -2.6950333663136932e+00
         - -2.4850996205287195e+00
         - -6.4499285015094943e-01
         - -7.6427103363836957e-03
         - -1.6499161763619710e+00
         - 6.4654409101721744e-01
         - -4.4817498444427102e+00
         - 2.3659622884192597e+00
         - 3.2557377854395386e-01
         - -3.3618851343194169e+00
         - -3.4621173354663615e+00
         - 3.2689200856778036e+00
         - -5.3975449742788326e+00
         - 2.6906759077683389e+00
         - -2.2856816298306528e+00
         - 1.1366808658036867e+00
         - -9.9171935706088501e+00
         - -2.3517102438399995e+00
         - -2.3003520275051823e+00
         - 3.2301208341960277e+00
         - -2.8123560899011428e+00
         - -2.5581640593476300e+00
         - 3.5307092268237663e+00
         - -3.0509466524949307e+00
         - 2.0141010213512405e+00
         - 2.8925428422511170e+00
         - -4.7750202764179956e+00
         - 5.6312989804633251e-01
         - -5.3792810531164886e-02
         - 3.4695533226022740e-01
         - 2.0076458658452987e+00
         - -5.3623356038510739e-01
         - 3.2194074429446444e+00
         - -1.7680648129173357e+00
         - -1.7164106482620456e-02
         - 1.8024340799766834e+00
         - -1.9956069518519863e+00
         - 1.5209332948672387e+00
         - -1.1933633355830233e+00
         - -2.2429100845824421e+00
         - -4.6221958211529532e+00
         - -1.6103832483963085e+00
         - 3.1558505825323908e+00
         - -1.5584234619947084e+00
         - -3.0033530850551360e+00
         - -7.6426565659366097e-01
         - -2.7295893835294727e-01
         - 1.2124666635140098e+00
         - -3.8108341459176382e+00
         - 4.3451095231379888e+00
         - 4.4539510535623605e-01
         - 8.6732795229735937e-01
         - 1.8520247589729896e-01
         - -1.2953698790372443e+00
         - -4.8067156835776101e+00
         - 6.0134273174875501e+00
         - -1.6451730154688586e+00
         - -1.0635615141484217e-01
         - -8.6767118643325336e-01
         - -1.3641192692684853e-01
         - 3.4429003023307327e+00
         - 3.0620607818289183e+00
         - -4.2559734462844911e+00
         - -1.2588471092504339e-01
         - 6.1756589613650525e-01
         - 1.3724407961902998e-01
         - 6.9040211428350073e-01
      -
         - 2.6321738953529339e+00
         - 5.0466031925867982e+00
         - 7.4809936366522034e-01
         - 1.1974814273700027e+00
         - 3.2316958559571574e-01
         - -8.2091398209538119e-02
         - -4.6800519652292927e+00
         - 5.2983615567560605e-01
         - 3.8911110280311747e+00
         - 1.8726275381521904e+00
         - 1.7684354863160077e+00
         - -1.8104649872129559e+00
         - -7.9325540877282807e-01
         - 4.8443168627649085e+00
         - 3.4757191427462648e+00
         - -2.6994950617589528e+00
         - 5.5316676046295843e+00
         - -5.8925475004636296e-01
         - -1.0880155529917832e+00
         - 2.8568120276401072e+00
         - -6.9449082723235387e+00
         - -3.4114889117590796e+00
         - 1.4198722030133373e+00
         - 1.9563255568025213e+00
         - -3.0609199137475436e+00
         - -3.8574243966853312e+00
         - 2.3425821252036334e+00
         - 1.9046313396789469e+00
         - -1.5073468592309447e+00
         - -2.0932671209292129e+00
         - 4.6637989109587323e+00
         - 4.0407576310356035e+00
         - -2.1891016639643013e+00
         - 3.6649495630057261e-01
         - -1.3795988435302340e+00
         - 2.2491611004854631e-01
         - 2.2978991569498466e+00
         - -1.4668812412375409e+00
         - -1.4920445368113004e+00
         - 1.4189048882110467e+00
         - 8.4993020830210764e-02
         - 1.2409470763169237e+00
         - 4.4377690266413783e-01
         - -1.5941147341220112e+00
         - -1.8170980940600014e+00
         - 3.5622613380924637e+00
         - 7.2381703896698255e+00
         - 4.4861039903931665e+00
         - -2.7662331578917461e+00
         - -2.8795477460763617e+00
         - -7.1233252968825980e+00
         - -2.8877048655275372e-01
         - -2.5445056241429798e-01
         - -1.5014996462927561e+00
         - -1.1192301116280379e+00
         - 3.3307425206603405e+00
         - -1.5571445145995573e+00
         - 4.1083306383749028e+00
         - 2.4026192848432411e+00
         - 2.8131358156572683e+00
         - -2.7863789207894352e-01
         - 1.1743566476815928e+00
         - -2.7618725229249081e+00
         - 7.9220070759479384e+00
         - -3.9614684885964438e-02
         - 5.1785229684307312e+00
         - 1.5123204713427980e+00
         - 1.3798446381658487e+00
         - 2.0856759366770161e+00
         - 1.9178300259047645e+00
         - 2.6052864274823855e+00
         - -7.2674494941503545e+00
         - 2.7058580237454111e+00
         - 1.3853417205602632e+00
         - 6.5897407874867575e-01
         - 3.3251061820684352e-02
         - 1.1180154844227816e+00
         - -7.6266378279662108e+00
         - -1.1231159204012804e+00
         - -5.4973700827456753e+00
         - 3.4280113044286731e-01
         - 4.0282063904517107e-02
         - -8.6841897325302453e-02
         - -1.1394240453966060e+00
         - 7.7771768539754387e+00
         - -4.0874644822151340e-01
         - -1.1197035526249213e+00
         - 2.0829372047988377e+00
         - -3.7669244447199093e+00
         - 2.2522098719564472e+00
         - -3.1217035264664794e+00
         - -3.1302649365085228e-02
         - 6.3877626751277141e+00
         - -7.4841446308374664e+00
         - -2.8678729580035158e+00
         - -2.0867240303394117e+00
         - -8.1956862532099066e+00
         - -3.0808476649341667e+00
         - -3.8775206316336139e+00
         - 2.5464091258899693e+00
         - -1.8554065350022433e+00
         - 2.9549087310766695e+00
         - -3.1810872561004842e+00
         - 1.5156858496947969e+00
         - -1.7996344206677233e+00
         - 1.7314740728533013e+00
         - -6.9339850240779721e-01
         - 2.8290266142423359e-01
         - 8.3625867886543925e-01
         - -6.9300179426535091e-01
         - -3.0773099832708928e-01
         - -2.8488515444526952e+00
         - -1.5031512955008992e+00
         - 5.0770012430580929e+00
         - 1.1453918340387232e+00
         - -3.7698652543563052e+00
         - 1.0794309896393994e+00
         - -4.3548897360050489e+00
         - -2.2060440901110128e+00
         - 2.3990638015958957e-01
         - -7.9993158849404977e-01
         - -5.9833720703072446e-01
         - 3.7501527559359316e+00
         - 1.8304906643651904e+00
         - 5.0052246829196925e+00
         - -1.6605775626114643e+00
         - 1.5857968830019684e+00
         - -4.1444284019254207e-02
         - -5.6177669703293898e-01
         - -6.6359546938211472e-02
         - 1.3904402064625336e+00
         - 3.5425372860217794e+00
         - -1.3241934343456572e+00
         - -4.5306754485946348e+00
         - -5.0919176135439637e-01
         - -2.6506777346794705e+00
         - 1.6368198320395715e+00
         - -8.3983240892692684e-02
         - 1.9439930176513056e+00
         - -1.9240637676016412e+00
         - -1.0934949542009069e+00
         - -4.9383693536840362e+01
         - -2.3840834252499032e+00
         - 1.3364447780896593e+00
         - -3.4214796259307534e-01
         - -1.0013018289156426e+00
         - 1.5332507151629760e-01
         - 4.0680580350768638e+00
         - -6.5569084563840835e-02
         - -1.3316966409688320e+00
         - -5.0425675088427173e+00
         - -2.2912802679749475e+00
         - 1.3468105331765290e+00
         - -6.3274345404971344e+00
         - -5.7269798087855621e+00
         - -1.4799477322179357e+00
         - -1.4224010521106010e+00
         - -2.0665282748249845e+00
         - 4.5335474195333292e-01
         - 8.3350526658384427e-01
         - 8.7685419876129111e-01
         - -4.4201240322728941e+00
         - 1.8230189108847723e+00
         - 3.5448294616404064e+00
         - 8.6852660473468313e-01
         - 2.2527138976036212e+00
         - 7.6657408229947066e-01
         - -1.1438391467947218e+01
         - -2.7682573337495686e+00
         - -4.8116990939424733e+00
         - 3.9023012831310488e+00
         - -2.6961036912685665e-01
         - 7.7942838935707626e-01
         - -3.2813175860652439e+00
         - 2.5629014252340854e+00
         - -6.6411224778438696e+00
         - 1.9030060736826300e+00
         - -1.8749828729204665e+00
         - -3.7430318830064606e+00
         - -8.6989434189680559e-01
         - -3.7930590386586893e-01
         - 4.0403315622527982e+00
         - -2.1566381009699898e+00
         - 2.5247367334209811e+00
         - -1.1329725619742708e+00
         - 6.4233542759434370e-01
         - -3.2607016144657375e-01
         - 1.6662058845817516e+00
         - 4.0165173984849618e+00
         - 2.9864021881408132e-01
         - -2.8697965580948193e-01
         - -3.6469155073313053e+00
         - 2.9469257837394132e+00
         - -4.1784570224164606e+00
         - -2.2500462947217135e+00
         - -1.9023569059755872e+00
         - -2.5542122398603460e+00
         - -5.5079879755050276e-01
         - -4.0130060176725575e+00
         - 2.3383330182273401e+00
         - -2.3619519086282308e+00
         - 6.5311317990662392e+00
         - -1.8628640974175741e+00
         - -3.9178405789755471e+00
         - -5.2763629725990135e+00
         - 5.4845150107570912e+00
         - 4.9032200712187226e+00
         - -5.4426758044902117e+00
         - 1.5836079538356469e+00
         - 1.5936023556646299e+00
         - 1.0726224886334541e+00
         - -8.8624257869241134e+00
         - 1.6977009443809490e+00
         - 4.3991985090491452e+00
         - -1.0780463990277194e+00
         - 2.1390699133027014e-01
         - 1.0474780029014374e+00
         - 1.3132263603119898e+00
         - 5.4618038689767412e-01
         - -3.7316583502553242e+00
         - 4.5052025033209370e-01
         - -2.5805235972538978e+00
         - 2.1260725709256953e+00
         - -3.1975013407780870e+00
         - -1.5692976642791772e+00
         - -3.7087505635786194e-02
         - -4.1348875624904764e+00
         - 3.8804678062720424e+00
         - 7.7598542361353906e-01
         - 4.7590395279739841e+00
         - -1.4871009789331189e+00
         - -1.7863060737567173e+00
         - -3.1033617826181139e+00
         - -1.7268233920705418e+00
         - -2.3998308080007433e+00
         - 2.8210712280487265e+00
         - -3.6974190152143899e-01
         - -6.6911792234967393e-01
         - 3.9726599372093223e+00
         - -4.4874708347345713e+00
         - -3.6597011093418930e+00
         - 2.2064110302147077e+00
         - -4.7957447773429216e+00
         - 6.4092822402138971e-01
         - 5.5612545018280590e-01
         - -5.9942334821692400e-01
         - -8.9148555777072425e-01
         - 6.4567707725907448e+00
         - -3.8091434873195906e+00
         - -2.5318638570408964e+00
         - -2.8067841722532738e+00
         - -9.4448054976782964e-02
         - 6.3848827586066936e-01
         - -3.2644093938851553e+00
         - -9.2418959348046592e-01
         - 7.0879091758258850e-01
         - -1.6868936180931884e+00
         - 1.7289950455171188e+00
         - 8.7305987273035457e-02
         - 2.1530037229041890e-01
         - 2.3901115138386229e+00
         - -4.3018863645400485e-01
         - 1.2307165880424042e+00
         - -6.1975053789723500e-01
         - -4.9954041238003732e+00
         - -9.7236195369776429e-02
         - 1.6413362435280179e+00
         - -2.2390149545339182e+00
         - 3.0121218135934695e+00
         - -2.1838250950219491e+00
         - 2.7903944986762887e+00
         - -9.5392045152851734e-01
         - 2.3962329306234693e+00
         - -3.0141708195677892e+00
         - -3.9267973448688387e-01
         - -1.1019846663483119e+00
         - -1.7351039257255727e+00
         - -3.1597674311215203e+00
         - -2.0973065949103606e+00
         - 3.3556959988131716e+00
         - 1.2859368229521548e+00
         - -1.1951764773743152e+00
         - 4.8420434708216940e+00
         - -1.8768479881765550e+00
         - 2.2859463053231397e+00
         - 1.2180138176228965e+00
         - -1.4812108201442857e+00
         - -3.9493221642036285e+00
         - 1.4567850248951797e+00
         - -1.5836052541679665e-01
         - -1.6375437018033796e+00
         - -1.0012641582832716e+01
         - -1.0630446529958171e+00
         - 1.5077589945282135e+00
         - -1.4158007579597907e+00
         - 2.2906150118750861e+00
         - -2.1052723450664681e+00
         - -6.7271752124768514e-01
         - 2.3696359944075773e+00
         - 2.4019032236103408e+00
         - 7.9664764182523284e-01
         - -1.1403388237903693e+00
         - -2.8381980818363903e+00
         - 9.8554559164181799e-01
         - -2.0441759786802298e+00
         - 2.0887497900099552e+00
         - -3.0569961247245026e+00
         - 3.4599310801548377e-01
         - -4.3792552590185920e+00
         - 4.9939864026882015e+00
         - -1.5377856735551392e+00
         - -5.0789855383797491e+00
         - -2.6403980406264260e+00
         - 4.5974752042066447e+00
         - -6.1498007162680342e+00
         - 1.4088306931763894e+00
         - -1.3880805288128666e+00
         - -2.7250361938165307e-01
         - -6.5724252205579503e-01
         - 2.1013067826106457e+00
         - 3.1828971795136649e+00
         - 4.5923548153073170e+00
         - 1.5380422404014551e+00
         - -2.1244923971181331e+00
         - 6.4161816228675383e-01
         - -3.3765549015967258e+00
         - -1.4192727789293538e+00
         - 2.3123627239592137e+00
         - -5.5622096925103892e-02
         - -3.6931379060049170e+00
         - 4.7746571650290309e-02
         - 5.9045910205263785e-02
         - -4.2013590431168426e+00
         - -6.1047721405771300e+00
         - 4.4501761938665005e+00
         - -1.4445792175777998e+00
         - -4.1480064309264819e-01
         - 3.2030915847836972e+00
         - -1.6302216606603182e+00
         - 2.0027234465194792e+00
         - -2.3442002704352070e+00
         - 2.0326551443221508e+00
         - -1.3118390847107773e+00
         - 3.1488057674575243e-01
         - -3.6532000430702927e-04
         - -4.1160394101827569e+00
         - 3.7171977979900772e-01
         - -1.2483084080005487e+00
         - -6.5683155191616365e+00
         - 2.1354349634332932e+00
         - -2.0745252757714332e+00
         - 5.2507466492527555e-01
         - 5.2265510985178887e+00
         - -2.9453897451792037e+00
         - -3.6187012049523539e+00
         - 1.0445262093806549e+00
         - -2.2240422072919594e+00
         - -5.6311187697199827e-01
         - -1.5811592354311574e-01
         - 1.5788506818066361e+00
         - 2.3693656918424839e+00
         - -2.3332541449765789e+00
         - 5.5573956753332787e+00
         - -3.8414589361310281e+00
         - -1.6021530578265619e+00
         - 3.3421174013303223e-01
         - -3.3517797726163421e+00
         - -9.4438416609653792e+00
         - -9.8702852715989522e+00
         - -1.5964431252050173e+00
         - -4.5822843021663151e-01
         - -2.1711557169398286e+00
         - -1.9158096299854810e+00
         - 1.7410137611505550e+00
         - 5.1941175359497453e+00
         - 5.2879712118806941e+00
         - 5.6906992939459071e+00
         - -1.2637556352007744e+00
         - -9.5094696375924748e-01
         - 5.8687144583908279e-01
         - 1.7493935918290402e+00
         - -1.5229732622417531e+00
         - -1.4604442545213563e+00
         - 4.0600831222405065e-01
         - 1.9409749370698992e+00
         - 3.3166564256423210e+00
         - -3.4118666288940953e+00
         - -1.4455039540384333e+00
         - -6.2233669886753651e-01
         - 1.4268464984049654e+00
         - 1.9419983785502826e+00
         - -4.5850522209218907e+00
         - 2.4077759254169526e-01
         - -1.7560543083477853e+00
         - -9.1511600449240282e-01
         - 2.9085456432294243e-01
         - 1.9916638345958582e-02
         - 1.9068049722929678e-01
         - -3.3145124805639403e+00
         - 7.5060058221844117e-01
         - -5.2030167600774779e-02
         - 4.0920338678197137e+00
         - -4.0438843631625989e+00
         - 4.0594480518293607e-01
         - -3.8087882698563669e-01
         - 1.3794297174423107e+00
         - -9.1074572932040077e-02
         - 1.0488731671588141e+00
         - 8.6498918447720607e-01
         - -1.9118111549094114e+00
         - 4.4189449342426883e+00
         - -2.4513107643705774e+00
         - 2.1721961819765334e+00
         - 1.3401706221101011e+00
         - 2.4823552096944321e+00
         - 1.6358007395272276e+00
         - 4.1083354185388146e+00
         - -1.4033065206618045e-01
         - 1.3927869990077815e-01
         - 9.1359093331353858e-01
         - 6.1208754951703537e-01
         - 2.5989294758478101e+00
         - 5.5065721046874119e+00
         - -7.1282540297711861e-02
         - -2.4622080707035976e+00
         - -2.3618333921416541e+00
         - 1.9079133554900700e+00
         - 9.5410947107825894e-01
         - 1.7446956636888389e+00
         - -2.4342693564080222e+00
         - -2.6856511222626680e+00
         - -5.8654916956342058e+00
         - -6.9500315449029220e+00
         - -7.9312948741893419e-01
         - -2.3207967416607631e+00
         - 2.7613179902679104e+00
         - 5.0328872604914627e+00
         - 7.2636418192287067e-01
         - -3.6676184749006127e+00
         - 1.1986893063069683e+00
         - -4.8974802172061893e-01
         - 4.1550427536052625e+00
         - -2.6587635024229894e+00
         - -7.5039422859277938e-01
         - 1.0934999334177757e+00
         - 8.2187917421671908e-01
         - 1.9862332018272868e+00
         - 1.8617833999167126e+00
         - -3.6318795718217234e+00
         - -1.5817577135683569e+00
         - -2.7194235034397773e+00
         - -1.5837734386640872e+00
         - -4.9457176418730926e+00
         - -2.6489426886879279e+00
         - 1.7084058627233814e-01
         - -1.6187662634892765e+00
         - 2.3388369889612362e+00
         - 2.7082060269096941e+00
         - -7.8903685760994358e-01
         - 1.0840548330122495e+00
         - 1.0519941016242793e+00
         - -4.5001326775871293e+00
         - 8.8082956047749950e-01
         - 3.3154889543933876e+00
         - 4.8184811549956867e+00
         - 5.3648780617082288e+00
         - -1.6560216634783522e+00
         - -3.0506914055145351e-01
         - 6.2900615809017502e-01
         - 3.1318857617152447e+00
         - 1.0629445123778078e+00
         - -1.3587430815972603e+00
         - -1.8032177047519380e+00
         - 6.4629391895382515e-01
         - 3.3724838088291067e+00
         - -2.1728743778216435e+00
         - -1.2860219618536299e+00
         - -4.1475897731369678e+00
         - -2.4400490983648422e+00
         - 1.6105126298767802e+00
         - -3.2377892399356463e+00
         - -3.1823358988229438e+00
         - -7.8938491498840424e-01
         - -1.8354536633049150e+00
         - 1.8806800940964186e+00
         - 1.0739659423560134e+01
         - 1.8666254037567818e+00
         - 3.6810512932956270e+00
         - 3.7049312845026936e+00
         - -5.8947096323812798e-01
         - 7.8841443533994693e-02
         - -3.1790623392883666e-01
         - 3.2865072056376377e-01
         - -3.2765971769708813e+00
         - 4.7822771411420639e-01
         - 1.1955443034159476e+00
         - -2.5439181617209292e+00
         - -1.8872377990620701e-01
         - -1.9402330996606096e+00
         - 2.8902866180973330e+00
         - 1.3819425208813361e+00
         - -7.4415856026734850e-01
         - -1.2218046618908591e+00
         - -3.4080359448370565e+00
         - -2.6567233943176616e+00
         - 4.7477297573022215e+00
         - 3.6204704378323900e+00
         - 8.1386444837124361e-01
         - -6.3713412912477789e+00
         - -1.3686192251304918e+00
         - 1.9397847670700893e-01
         - 4.0375089966300781e-01
         - 2.5111110235880267e+00
         - 2.0126813172503395e+00
         - -3.0880457105188555e+00
         - -5.2705478884099521e-01
         - -2.9244865160702829e+00
         - 2.1462409789992045e+00
         - -6.6429172245141537e+00
         - 9.3367256092167838e-01
         - 3.9360015771707011e+00
         - 5.4858424414925331e+00
         - 2.5797944376345405e-01
         - -1.4758330978916332e+00
         - -2.9105176775904340e+00
         - -5.2037375789273215e+00
         - -7.7070787301215937e-01
         - 2.2512103250484805e-01
         - 1.2163375379815542e+00
         - -2.3210773896081793e+00
         - -1.4431560823499978e+00
         - -2.6195527232451415e-01
         - -2.1034580635073885e+00
         - -2.0434767724710219e+00
         - 1.3270771933862082e+00
         - -4.7534743157836623e-01
         - 4.0734247710335358e+00
         - 1.2429742798912956e+01
         - -3.0051995417806204e-02
         - -2.2818179143045221e+00
         - -3.4511154423686978e+00
         - -1.4104182185792549e+00
         - -3.8884854070825328e+00
         - -9.6824367857493465e-01
         - -2.2399755512137376e+00
         - 8.7748338668197601e-01
         - -1.5996038145701774e+00
         - -1.6297579233765265e+00
         - -5.7407130681854284e+00
         - -2.1293860979477527e-01
         - -1.2354870319124740e+00
         - 2.6734620919217660e+00
         - 1.7276003096123655e+00
         - -3.9710476725443300e-01
         - 2.6404315924104549e+00
         - 1.8974001938810006e+00
         - 5.1112287466936912e-01
         - 1.4419283742265443e+00
         - -1.9421449477093606e+00
         - 5.0142054039466961e+00
         - -5.1745628971238338e+00
         - -3.6537950654311464e+00
         - 7.7378598429520888e+00
         - 6.9005741557483513e-02
         - 1.2706152023331418e+00
         - 3.7095260905874428e+00
         - 4.5220074395734704e+00
         - 1.7907858560441734e+00
         - 1.3178771801621506e-01
         - 2.0540525922936823e-01
         - 4.2845723480870890e-01
         - -2.5323056656192002e+00
         - -1.3595446632104102e+00
         - -1.2167684336533560e+00
         - -2.4206956913614603e+00
         - -1.3792411379825580e+00
         - -3.1366298743891092e+00
         - -3.9385727367844869e+00
         - -6.4742681961772713e-02
         - 8.0672041928700100e-01
         - -3.6900804782148819e+00
         - 2.9794838642702346e+00
         - 5.3189134399932918e+00
         - 4.0623499244271102e+00
         - 1.7607098603923388e+00
         - -1.9167705083578343e-01
         - -5.3519046646645441e+00
         - -3.6283069417096008e+00
         - -2.9615180393561613e+00
         - 6.9282760315628689e-01
         - 4.7332307643653451e+00
         - -1.5248765417289667e+00
         - 1.5606152852883808e+00
         - -4.3508279015196365e+00
         - 1.1536836582459213e+00
         - -2.2803427087935106e+00
         - -3.0434692530135377e+00
         - -1.9406617985382182e+00
         - 1.9647246121629536e+00
         - 3.1964879316519448e+00
         - -4.5849165570297751e-02
         - -5.7057007037269907e+00
         - 3.7499887359745465e-01
         - -3.1167605524860775e+00
         - -4.6562523809690228e+00
         - 4.1197444681331028e+00
         - -3.5223075196904632e+00
         - -1.7784395900568157e+00
         - -5.0720729412974590e+00
         - -2.9424050593774380e+00
         - 8.5929830844051613e-01
         - 3.5596116767785948e+00
         - -4.9012640653898121e+00
         - 3.9619119239769303e+00
         - -9.4000464135300810e-01
         - -2.7202674449813982e+00
         - 1.6747982961824151e-01
         - 5.5964839869005498e+00
         - -8.6794897824772366e-01
         - 3.8237526086635421e+00
         - 2.3829671167531687e+00
         - 2.5150004499738619e+00
         - -3.1096681484141477e+00
         - 3.0176064981392658e-01
         - -5.3275282521489176e-01
         - 1.0715704532733752e+00
         - 2.3946796554511143e+00
         - 5.9159070297955427e+00
         - 3.5902577523915080e+00
         - 7.8161547959348410e-01
         - -1.3783765050313412e+00
         - -5.3347028222002288e+00
         - 2.9603912305127329e+00
         - 1.2454725326142653e+00
         - -3.5287650270963269e+00
         - -2.5883036458531794e-02
         - 2.2056551780207108e+00
         - 2.6440302353745004e-01
         - 5.5168078277900479e-01
         - 9.5210777725987045e-02
         - -2.3649457125447624e+00
         - 2.4617547248048566e+00
