%YAML:1.0
---
opencv_ml_ann_mlp:
   format: 3
   layer_sizes: [ 21, 100, 100, 1 ]
   activation_function: RELU
   f_param1: 1.
   f_param2: 0.
   min_val: 0.
   max_val: 0.
   min_val1: 0.
   max_val1: 0.
   training_params:
      train_method: RPROP
      dw0: 1.0000000000000000e-02
      dw_plus: 1.2000000000000000e+00
      dw_minus: 5.0000000000000000e-01
      dw_min: 1.0000000000000001e-01
      dw_max: 50.
      term_criteria:
         iterations: 300
   input_scale:
      - 9.6822038743837824e-01
      - -5.0405551615789107e-02
      - 9.4223459517134001e-01
      - -2.2349804533510209e-01
      - 8.0192077442589405e-01
      - -5.1476898221840284e-01
      - 7.0186828607896079e-01
      - -7.7524159717566721e-01
      - 5.8457773609199670e-01
      - -7.7315082458629070e-01
      - 5.4945582419477701e-01
      - -1.1405274276415855e+00
      - 4.7017710315359473e-01
      - -1.2619459412208056e+00
      - 5.5373505569042458e-01
      - -1.4718720813895172e+00
      - 5.9663099477763470e-01
      - -1.6608536344130918e+00
      - 6.9649648843471268e-01
      - -2.1248714890577278e+00
      - 6.2020204570039150e-01
      - -2.0022354796116946e+00
      - 6.5378721143068674e-01
      - -1.9303851984972638e+00
      - 5.9100679197746309e-01
      - -1.5608725802482262e+00
      - 5.5617712611072656e-01
      - -1.4552040837474667e+00
      - 4.8454742915676130e-01
      - -1.2242090772211998e+00
      - 5.5441689270715744e-01
      - -1.0967142282530520e+00
      - 6.1184824017981843e-01
      - -8.3136715176035270e-01
      - 7.0159595087869531e-01
      - -6.3014541964381543e-01
      - 8.4452767596089895e-01
      - -4.8178614716365525e-01
      - 9.1158600824214986e-01
      - -3.0942875597013952e-01
      - 1.0027004181191814e+00
      - 5.5329008152621470e-02
   output_scale:
      - 1.
      - 0.
   inv_output_scale:
      - 1.
      - 0.
   weights:
      -
         - -7.8697150177841277e-02
         - -2.1815851319823845e-02
         - -8.1498460360967417e-02
         - 7.1467333335012970e-02
         - -4.4432578562210327e-02
         - 9.0101811257888992e-02
         - 8.3242411432892238e-02
         - 8.5602212793703086e-02
         - -9.2039778786259692e-03
         - 4.9002983243928482e-02
         - 4.6125707122163566e-02
         - -3.0828031591477876e-02
         - -6.2992326663858553e-02
         - 5.4850993712489910e-03
         - -8.4833826250030522e-03
         - -4.7880268468679113e-02
         - 7.3634374662756019e-02
         - 3.3863287720311872e-02
         - -5.7491118638512272e-02
         - 1.2188566577127226e-02
         - -6.3510232679343442e-02
         - -7.2141462125160413e-02
         - -7.3526406322293167e-02
         - 7.7073855659433768e-02
         - 2.6506474520591433e-02
         - 9.2081039857548369e-02
         - -3.4834673298734646e-03
         - 6.7287080834894347e-02
         - 1.5436598882486443e-02
         - 3.2072883728433511e-02
         - 2.4270409925207365e-02
         - 5.9098700094618192e-02
         - 1.0473223474298218e-01
         - -4.8888912067733090e-02
         - 5.7173594758818870e-02
         - -2.7829054607272495e-02
         - 5.6418504923422097e-02
         - -1.4927750155486158e-03
         - 5.3213616864711558e-02
         - -2.8171204935596439e-02
         - 5.3003409508139178e-02
         - 4.3343594756035712e-02
         - 1.2865509193258875e-02
         - -3.4271673399265103e-02
         - -2.9318459625716869e-02
         - -1.7238260088947924e-02
         - -4.1494769776746702e-02
         - 6.9700113044383366e-02
         - 6.6362634242017132e-02
         - -4.9161341209646499e-02
         - 7.8716911224695749e-02
         - 5.2363977311505518e-03
         - 5.2728421958852219e-03
         - -7.3422257982299871e-02
         - 8.6950587218199496e-02
         - 1.5376709284770855e-02
         - 3.6694989816792152e-02
         - -5.4868248114663835e-02
         - -2.0913929933864008e-02
         - 1.1999937729597837e-02
         - 5.2803732595472039e-02
         - -2.9378779955063626e-02
         - 9.1463565361658439e-03
         - 1.7187132536647647e-02
         - 9.3762331070847860e-02
         - -3.0727348001148021e-02
         - -7.8821177221035821e-02
         - 9.0261951888146556e-03
         - 6.5661647632638875e-02
         - -4.3275564277254354e-02
         - 3.3563436940820209e-02
         - -9.0128589545864779e-02
         - 3.7215809580369782e-02
         - -4.1599083419457318e-02
         - -4.5048584354046043e-03
         - 1.0363895943978481e-01
         - -1.2621753183510821e-02
         - 1.0328545662003301e-02
         - 1.2459077722397703e-03
         - 7.0134873532592235e-02
         - 1.1709412939364115e-02
         - -4.6057904291196078e-02
         - 2.9330427758399644e-02
         - 7.9793398332259166e-02
         - 1.0566497837049321e-01
         - 3.5626592233691148e-02
         - 2.3508884601679176e-02
         - -1.7009383760273600e-02
         - 6.4189926250558721e-02
         - -3.9357640437003509e-02
         - -7.1492751970064022e-02
         - -4.6274456375966250e-02
         - 5.0332136392706894e-02
         - -5.9842034980756242e-02
         - 6.0666960073357819e-02
         - 5.8738243196261454e-02
         - -6.7363306782110485e-02
         - -6.1172797273095797e-02
         - 6.9005221784876711e-02
         - -3.1821994577981169e-02
         - 1.6807541264305816e-02
         - -5.8139703574654505e-02
         - 9.3922437425636648e-02
         - -5.5862712657011468e-02
         - -2.9594291981423080e-02
         - 7.5555523874077851e-02
         - 2.3095162795645618e-02
         - -4.4484559478661680e-03
         - -7.3882641591488760e-02
         - 7.4883696035723757e-02
         - 6.6348530993518853e-02
         - -6.5185920487865034e-02
         - -7.2126776032445480e-02
         - -6.8830428563956630e-02
         - 5.0987503386099753e-02
         - -7.1977427717654308e-02
         - 6.6261823211094459e-02
         - -2.6592016187404439e-02
         - 7.3883960413367186e-02
         - -4.5425741637015710e-02
         - -8.3906423445443995e-02
         - 3.9772924747591074e-02
         - 1.9642605649450223e-02
         - -5.7721982495648985e-02
         - -2.6465808436114992e-02
         - -1.2903033125872302e-03
         - 9.0770044197445623e-02
         - -4.3890010004258968e-02
         - 5.9622489567854056e-05
         - 5.0440806060845868e-02
         - 3.9292028484382784e-02
         - 4.4393523246571247e-02
         - -1.3560877508249181e-02
         - -5.9355332470640752e-02
         - -9.0733918867400704e-02
         - 1.1496345941952611e-01
         - -3.6563458506094645e-02
         - -4.4662337008932115e-02
         - -4.0781326062217307e-02
         - -7.5794482272654479e-02
         - 2.2818395935013343e-02
         - 7.5191569762997290e-02
         - 6.2352922473764956e-02
         - -5.4545405923291046e-02
         - 1.0315626916054127e-01
         - -6.6383601424241545e-02
         - -1.2526201202785912e-02
         - -1.6974123819348735e-02
         - 5.6856523711160893e-02
         - -3.0885180046167243e-03
         - 2.2250261618399134e-02
         - -5.1766086345972535e-04
         - -5.0506824032938415e-02
         - 8.7705105345610254e-02
         - -8.9765046392437653e-02
         - -1.0013906060363724e-01
         - -4.6673435173554011e-02
         - -6.8994018051346306e-02
         - -3.1127491765967203e-02
         - 4.8990590109727068e-02
         - 8.2580548161198655e-02
         - 5.4964717149734846e-02
         - -9.3816400055341045e-02
         - -5.7065185210796567e-03
         - -2.0433865537023775e-02
         - 3.6195709676191418e-03
         - 7.4567780294187549e-02
         - 1.7197932448243091e-02
         - -5.5051088811572377e-02
         - 9.1049826379112821e-03
         - -3.7941797199883963e-02
         - -5.8672249500442862e-03
         - 4.6912439694937545e-02
         - 3.0534327363660213e-02
         - -6.9251241326822963e-02
         - 4.9048932137983912e-02
         - -6.9778921766778801e-03
         - 7.4180925825104438e-02
         - 1.0442841029838525e-01
         - -2.1071757112450264e-02
         - -8.5085167050611546e-02
         - 8.9061523270106399e-02
         - -1.1095108116660623e-02
         - -1.5202039593018033e-02
         - -7.6990110943916806e-02
         - 2.2380998286288391e-02
         - -1.6037559496592684e-03
         - -3.6206867956006202e-02
         - 8.1225285838263717e-02
         - -2.3189446885228913e-02
         - -5.1890460280512245e-02
         - -2.1287655530822385e-02
         - 5.5579861219348166e-02
         - -7.2373427027929505e-03
         - -7.1327510656324488e-03
         - -4.2615553277747624e-02
         - 5.2674439519958963e-03
         - 2.5008470325920146e-02
         - -5.3731829024629696e-02
         - 1.0547826431049899e-01
         - -4.1631050446497959e-02
         - 5.1831528304727044e-02
         - -1.6103885963190276e-02
         - 3.8228081343218999e-02
         - -5.6252119928640112e-02
         - -3.5498288603754681e-02
         - -6.5715554975524244e-03
         - -5.2403301163593242e-02
         - 3.7766047756425898e-02
         - 5.1614150752149771e-02
         - -5.8241220928376670e-02
         - -4.1786800058024008e-02
         - -3.9831864245035008e-02
         - 5.3809908947006956e-02
         - 7.4973277517383322e-02
         - -9.9106141334938825e-03
         - 9.0671963831396196e-02
         - -3.1282826743053750e-03
         - -5.7756192366253600e-03
         - -6.5671235056119368e-02
         - 2.5554686258239558e-02
         - -1.1600227775313684e-02
         - -4.0784934984317893e-02
         - 7.6849154128823399e-02
         - -9.0560216854643841e-02
         - -4.4014166634580992e-02
         - 3.0899442891822889e-02
         - 5.5772839202181471e-02
         - 4.5830825258989821e-02
         - -6.7734654288875470e-02
         - 5.6723228649634611e-02
         - 2.1871217491344411e-02
         - 1.6394052353878683e-02
         - 5.4020268673962849e-03
         - -1.2110951511511845e-02
         - -2.8247916453913981e-02
         - 6.0242088092364005e-02
         - 6.2170159549796863e-02
         - -4.6506350640676063e-02
         - 1.9996016911986193e-03
         - 6.2433384492280815e-02
         - 3.7125679982223554e-02
         - -1.4097732286264509e-02
         - 6.0948946435412751e-02
         - 5.9946403063208420e-02
         - -4.5123215308483483e-02
         - 9.1184073461123019e-02
         - -4.9070623917363054e-02
         - 6.8187317366325412e-02
         - -9.2590183963066425e-02
         - -7.3437807202908198e-02
         - 6.2511518150344766e-02
         - -7.4781578516917496e-02
         - -2.2844748475783709e-02
         - 7.1579678254956855e-02
         - -8.8099066117283149e-03
         - 4.0186875568197396e-02
         - 4.0307148216801571e-02
         - 1.1827092839953902e-01
         - -1.1217052539827918e-02
         - -3.9245748290064351e-02
         - 1.2564627636839604e-02
         - -2.6371240633711407e-02
         - -7.3405116412323723e-02
         - 6.9641378191961853e-02
         - -8.8060815381095676e-03
         - 7.3169153420515817e-02
         - -7.1929738664996773e-02
         - 5.8061213352523414e-02
         - 9.4674355723733131e-02
         - 4.0456131756586217e-02
         - 3.5980500678551464e-02
         - -3.0954266690652490e-03
         - 5.7897822676455227e-02
         - -3.0782099767868647e-02
         - -1.2049102399144090e-02
         - -8.8811509034707414e-02
         - 7.3831637376571724e-02
         - 6.3669920568288152e-03
         - -3.1383431456870649e-02
         - -7.2708783926974285e-04
         - -4.1759005948370655e-02
         - 7.5331788188124610e-02
         - 8.9847256054317856e-02
         - -2.0247980665058157e-02
         - 8.1656319973753222e-02
         - 7.3413756088545001e-02
         - -1.8678013877950782e-02
         - -8.0120038399222493e-02
         - 9.0750852477434821e-02
         - -6.6983431281518444e-02
         - -1.5242496134517615e-02
         - -3.6360661645622593e-02
         - -7.3530508258428884e-02
         - -4.8576071159414570e-02
         - 5.5819021986683662e-02
         - -6.0077779557452839e-02
         - 5.0391910587790432e-02
         - 1.0379743786782152e-03
         - 4.4394155073659090e-02
         - -8.0102493344921172e-02
         - -7.1470060556766357e-02
         - -7.4362342980756932e-02
         - -6.4268492505051192e-02
         - 4.0947518993118777e-02
         - 6.8574897397416013e-02
         - 9.1216169970542424e-02
         - -4.8486037205316510e-02
         - 5.9186301135874857e-02
         - -3.7191261298758750e-02
         - 5.0487901215225922e-02
         - 5.3294052532083802e-02
         - -9.8821702140187151e-02
         - 1.6945349126593928e-02
         - 5.6325857112678013e-02
         - 3.3915943369480610e-02
         - 7.5462665501935339e-02
         - 3.9528109352597891e-03
         - 6.0553553060832134e-02
         - -7.1280208785161114e-02
         - -2.2667334858630324e-02
         - -2.0139275689631708e-02
         - -4.5389310558870195e-02
         - 5.1653819401469174e-02
         - 2.0193183646041404e-02
         - -5.6986172217387979e-03
         - 8.9398909196683113e-02
         - -2.6471632652676949e-02
         - 4.7957481369260695e-02
         - 6.4664728523125367e-02
         - 8.8643907251160517e-02
         - 8.8391114441716503e-02
         - 5.7202627882200860e-02
         - -6.0969141131542448e-02
         - 3.5202233252650143e-02
         - 6.2423506981014350e-02
         - 7.6091972990273413e-02
         - 5.7114758959314303e-02
         - -2.4182628921658799e-02
         - 5.6213067804759077e-02
         - -3.9222332341191539e-02
         - 2.3113529110728091e-02
         - 1.1713418312996089e-02
         - 3.4050138837178677e-04
         - 3.4477899377000680e-02
         - -3.4040580968692780e-02
         - -2.3316461286979978e-02
         - 2.4953119542179093e-02
         - 1.4082361051055248e-02
         - 1.7147584224279224e-02
         - 2.3524134904017897e-02
         - 8.6722909026910044e-02
         - -6.0094540656522026e-02
         - -3.1754212813182053e-02
         - -2.8620603433545787e-02
         - -3.8327733234079897e-02
         - -1.2868576272649637e-02
         - 2.3057376605486891e-02
         - -1.6836335457917163e-02
         - -8.8487175115130559e-02
         - -3.3878065589117178e-02
         - -4.6740355619947646e-02
         - 2.9594505613104501e-02
         - -8.7675257473258487e-03
         - 4.0028503991717729e-02
         - 1.0020754162111793e-02
         - 2.9217055117785141e-02
         - 6.8976249493746672e-02
         - -3.4719209960610571e-02
         - 8.0424497258262645e-02
         - 3.2461869733978327e-02
         - -3.0937985897163504e-02
         - 7.1193179478349121e-03
         - 7.8701295923752065e-02
         - 2.7331479166786438e-02
         - -1.5213990802164510e-02
         - -6.5229544875901185e-02
         - 7.8285160814897586e-02
         - -1.7981407132537607e-02
         - 7.5259209374727604e-02
         - 1.3315440913957883e-02
         - 8.8167614030852409e-02
         - -7.3228623758547417e-03
         - 3.9850145106047750e-02
         - 2.1861228075595762e-02
         - -2.8680862055584285e-02
         - 8.5391828375984913e-02
         - -8.4548943862969295e-02
         - 5.4851423159274736e-02
         - 4.2126373989261882e-02
         - 7.5384146004240621e-02
         - -8.1866308150675263e-02
         - -5.5153516018331558e-02
         - 3.7168889400801780e-03
         - -6.3148681348156516e-02
         - -2.0111801770075554e-02
         - 3.9659314589078690e-02
         - -1.1283704148474927e-01
         - 4.5161498096279888e-02
         - 8.1639749887058743e-02
         - -7.2061597254579515e-02
         - -6.5340251769273411e-02
         - 3.6935796376705389e-02
         - -6.1082686394534146e-02
         - -7.0792107166928131e-02
         - 3.1347720255492199e-02
         - 3.7142484913113318e-02
         - 6.8654098982868755e-02
         - 7.2803170552436361e-02
         - 6.1368282515261163e-02
         - 3.0509978888842354e-02
         - -2.8891344903280488e-03
         - -7.5654594312208334e-02
         - -1.2688336277689376e-02
         - 8.9359529182618816e-02
         - 5.1515334966503463e-02
         - -5.5842104514874494e-02
         - -6.1745125379189726e-02
         - 4.6601835007989943e-02
         - 8.9247337216102327e-02
         - 4.8575301938598827e-03
         - 4.1137368465735319e-02
         - -6.5729942475594022e-02
         - 2.3707768296354133e-02
         - 1.0757616887481047e-01
         - -7.4895253994275629e-02
         - -1.1115967047028174e-02
         - -2.3422070719258961e-02
         - 5.3848439411516359e-05
         - -5.1962426008995422e-02
         - -6.7877687165907682e-02
         - 7.4390087046862799e-02
         - 1.8386381959620380e-02
         - 1.1030292378657217e-01
         - 8.0914970015090668e-02
         - -1.0578111383770869e-01
         - 2.9691520342727326e-04
         - -7.7741475288904419e-02
         - -9.0953563066136056e-02
         - 8.2868605159851824e-02
         - 7.5338723887488857e-02
         - -2.0396549063816487e-02
         - -3.8212410226258875e-02
         - 6.7684210428457903e-02
         - 4.4303527638607600e-02
         - 2.5473748352001443e-02
         - 6.6992366673189072e-02
         - 5.8323114855353186e-02
         - 2.1904713157514494e-02
         - 3.4077877680321195e-02
         - 9.1581997674535037e-02
         - 5.8766392166973443e-02
         - -2.6997802868990910e-03
         - 2.3558845628462541e-02
         - -7.1535024076273393e-02
         - -9.3570552876663604e-02
         - -3.3400517761034539e-02
         - 2.9954553679659473e-02
         - 7.8468398144237159e-02
         - -7.7465139063603583e-02
         - -7.5906640194677577e-02
         - -5.2898011155343455e-02
         - -5.1861400105336622e-03
         - -7.0651618978660360e-02
         - -1.0533925936694591e-02
         - 7.8362563993728554e-02
         - 5.3617665606835264e-02
         - 6.2773148717522251e-02
         - -1.0263674932197027e-02
         - 2.3037567194825807e-02
         - -2.3995142701328132e-02
         - 5.8984607504580143e-02
         - 4.8683074073769740e-02
         - -1.5844902507409792e-02
         - -3.9004585961583231e-02
         - 1.9486556122493070e-02
         - 6.9601212994003084e-02
         - 2.0109559014733960e-02
         - 6.1375083481209486e-03
         - 7.7273198418251407e-02
         - -5.7351735716409030e-02
         - 3.3683405003513640e-02
         - 9.3476358645840474e-02
         - -1.6820853083182524e-02
         - 8.0535137783120075e-02
         - 1.0278935658969471e-01
         - 1.7781870103227900e-02
         - -9.6579166305603481e-02
         - 7.2993230571378354e-02
         - -2.7772669299684489e-02
         - 6.4746602532871497e-02
         - -7.3670566989975109e-02
         - 1.0386061743484448e-02
         - 8.3580164867365914e-02
         - -7.8166248884737874e-02
         - -1.6179050946075007e-02
         - -8.3874509331770000e-02
         - 3.4926121742919404e-02
         - 8.1306955805709624e-02
         - 5.7966371841524873e-02
         - -5.3466043604569094e-02
         - -7.2294966600441199e-02
         - 5.4291842309673016e-02
         - -6.2085794159225952e-02
         - -2.5094120166489233e-02
         - -1.9812286305116462e-02
         - 6.0577218860694261e-02
         - -4.2819421468386749e-02
         - -1.4240614716035273e-02
         - -3.4536190699413663e-03
         - 7.5075778940480578e-02
         - 4.2320845914886216e-03
         - 2.7433533594647955e-02
         - 5.9492131658846641e-02
         - 1.6258451881081257e-02
         - 7.4762608508816717e-03
         - -5.5045716916683404e-02
         - -6.2267883265132294e-02
         - 8.5381327777214994e-02
         - 2.0339423538371731e-02
         - 6.5052288879203626e-02
         - 7.0430325737338428e-03
         - -2.1447526398634151e-02
         - 3.2856720756263065e-02
         - 6.4032983184014167e-02
         - 2.3609557627426121e-02
         - -3.8129487563548788e-02
         - 1.3882563397334983e-02
         - -9.4678328116251667e-02
         - 3.6964843085219107e-02
         - -4.5953673338716111e-02
         - -8.1577936164484943e-02
         - -5.0288576247047384e-02
         - -4.7409656342800380e-02
         - -1.2771995110598200e-02
         - -2.2640666672883138e-02
         - -7.4894457809558529e-02
         - -8.1603178312165667e-02
         - -5.6991942151834903e-02
         - 3.1332761283750635e-02
         - -5.3469641280765916e-02
         - 9.7003071092567929e-03
         - 8.1563225175868906e-02
         - -5.5136183489382972e-03
         - -1.1351306071253249e-01
         - -8.0393210183432387e-02
         - 8.3584427131205372e-03
         - -6.9792135156260524e-02
         - 1.7712887736561753e-02
         - 6.2708520382578944e-02
         - 2.7657431646219560e-02
         - 9.3676782285288571e-02
         - 1.7013935627200650e-02
         - -8.7364755802234809e-02
         - 3.5836493871915183e-02
         - -5.3919757793560461e-03
         - 4.1514212981327556e-02
         - -4.2137927241282215e-02
         - -5.5189820540880216e-02
         - 3.5986967787107964e-02
         - -1.0997219939303573e-02
         - 8.4409710736549404e-02
         - 3.5266099234306479e-02
         - -7.3897295203636235e-02
         - 6.1015173446951440e-02
         - 1.7683999909870303e-02
         - 3.5368292463196664e-02
         - -3.9724987282100332e-02
         - 4.8798243509954653e-02
         - 3.3156541951826449e-02
         - 3.8016587647602552e-02
         - 1.6998790701234119e-02
         - -5.5145429371444649e-02
         - -3.7431137092476696e-02
         - -1.2115993991223720e-02
         - -1.0924071651980180e-01
         - -7.7643602880894322e-02
         - 8.3607349143076617e-02
         - 7.6109204583135054e-02
         - 4.9090275205714379e-02
         - -2.6710206705407974e-03
         - -2.5602163012846006e-02
         - 8.9591307939086068e-02
         - 5.9825200118965118e-02
         - 4.4570238455478854e-02
         - -7.7667790708895332e-02
         - 4.0233116806820970e-02
         - -9.8477677240493555e-03
         - -1.3029597303212763e-02
         - 1.9075002288737209e-03
         - 7.5194985426640423e-02
         - -5.9640889347570683e-02
         - 7.2288673931997338e-02
         - -6.5125106550538547e-02
         - -2.9407657975305097e-02
         - 3.5671674704236038e-02
         - -1.5108324746566360e-02
         - -7.7858771163107410e-02
         - -8.7845130469563312e-02
         - -1.2368207988105508e-02
         - 6.3336256318987108e-02
         - 5.8168662491469340e-02
         - -3.6135548903124010e-02
         - 6.0550256368075789e-02
         - -3.8822937833710339e-02
         - 4.9216180625311197e-02
         - 7.0189283872158115e-02
         - -5.8428444168907710e-02
         - 8.0692642261992334e-05
         - 2.0640401056934415e-02
         - -3.0199103819806093e-02
         - 9.9872179898006161e-02
         - -3.5118512050358467e-03
         - 2.7058494945578229e-02
         - -8.3400165151794450e-02
         - 6.9169487110809807e-02
         - -1.2766129693440778e-02
         - 5.6824378456720767e-02
         - 7.4902683389576521e-02
         - -1.8889657952277691e-02
         - 7.3001783656486838e-02
         - -8.5476331011792556e-02
         - 2.1649616620862441e-02
         - 2.6323523009590261e-02
         - 5.1282605640222099e-02
         - 1.4219634365806059e-02
         - 6.5154443970518207e-03
         - -2.7194504290413909e-02
         - -5.2732337693992166e-02
         - 4.3513990035390686e-02
         - -3.4032473695354885e-02
         - -5.2656541327659893e-02
         - 8.3778365931104715e-02
         - -4.2138013146450062e-02
         - 7.6501506581502260e-02
         - 8.4090006075487847e-02
         - 2.9164080446768825e-03
         - -6.8848276438930350e-02
         - -2.0354863433196990e-02
         - -1.6856791448127423e-02
         - 7.7361210294768182e-02
         - 7.8803312904395142e-02
         - 3.8120014379171618e-02
         - -6.9334260102955167e-02
         - 2.5581416649598423e-02
         - -4.6866891844126735e-02
         - 6.5812092149821269e-04
         - -6.6770992626659486e-03
         - -7.7941500909064149e-03
         - 2.9614561239553944e-02
         - 9.0780722251195142e-02
         - -3.5926657740701265e-02
         - -5.4432168156923590e-05
         - 7.7800565917749264e-03
         - 7.4652313639486392e-02
         - 1.8025185943753165e-02
         - 4.6244605022427235e-02
         - 5.6205531450408491e-02
         - -4.1967213524032376e-02
         - -7.7443382868340405e-02
         - 5.9423812715803159e-02
         - -8.5200789280078723e-02
         - 6.4970825716217040e-02
         - 7.5990643192774834e-02
         - 6.7893775971358442e-02
         - -9.5601231811318743e-02
         - 2.2626948193171192e-02
         - 2.6345160870353837e-02
         - -1.1625064049880042e-02
         - 4.4783736953267574e-02
         - 4.6015645505158922e-02
         - 5.4530580854280138e-03
         - -6.3252586184915069e-02
         - 3.2105416173794879e-02
         - 4.2239572598230642e-02
         - 2.5010928089676955e-02
         - -2.8934598776046636e-02
         - 5.7880287435884983e-02
         - -6.3584116881425568e-02
         - 2.3066632209754218e-02
         - -6.6809361959050156e-02
         - 1.6039240028817740e-02
         - -1.6115728783395556e-02
         - -6.8047894571428166e-02
         - 6.3442066076387282e-03
         - 9.4292195261754860e-03
         - -6.6721797004691052e-02
         - -7.1285729755524163e-02
         - -1.7583362451405172e-02
         - -1.8545184098741872e-02
         - 1.7638063105661069e-02
         - -6.9135369116884504e-02
         - 2.1256370701449340e-02
         - 2.4928173733565595e-02
         - 6.0707898125370016e-02
         - -4.6211963907108827e-02
         - -5.7553836862203327e-02
         - 5.6356092772458909e-03
         - 1.8380067194161114e-02
         - -6.8931517990641400e-02
         - -4.3814857630126477e-02
         - -6.3675406810745572e-02
         - 5.0251394315753602e-02
         - -4.3452325935251175e-02
         - -4.9764094733565439e-02
         - 5.7353412345748811e-02
         - -5.1834622765371589e-02
         - 5.1662781135161880e-02
         - 6.5495660895886210e-03
         - -7.3516337583964406e-02
         - -8.7762524699860470e-02
         - 9.3372391478459008e-02
         - 5.3067211503817310e-02
         - -2.1212153698445351e-02
         - 8.6349538567761341e-02
         - 4.3512554856108450e-02
         - -2.0172587622202413e-02
         - 1.9480648430065663e-02
         - -7.1629075744673434e-02
         - -3.1722161196933565e-02
         - -2.9953923630456603e-03
         - -5.4688181485938861e-02
         - -7.6202420247874769e-02
         - -7.5235530752346999e-02
         - -3.5773121483007146e-02
         - 9.6672325186845307e-02
         - 8.5409058463876794e-02
         - -5.9243331351864520e-02
         - -4.8535673937280026e-02
         - -6.8555272652115584e-02
         - 5.9684794326194043e-02
         - -9.8354286735691850e-03
         - 7.0051756963750364e-02
         - 3.7368558681262237e-02
         - -4.1996943328868198e-02
         - 2.0270621214918678e-03
         - 6.2435742641137826e-02
         - 3.3882346165678201e-02
         - -3.0126370663071850e-02
         - -6.2857008550923826e-02
         - 5.9430090015431709e-02
         - -1.6339484001751531e-02
         - -6.5150677925279316e-02
         - 4.4759882238055104e-02
         - -1.2081605183043782e-02
         - -4.9152985313789498e-02
         - -3.3625060335988478e-02
         - 7.4047526212439596e-02
         - -2.3427065099740491e-02
         - 1.9279423551447364e-02
         - -2.8486419199928455e-02
         - -3.6646586193054671e-02
         - 7.7903170986130879e-02
         - -2.2208119512835328e-02
         - -6.8141869264249061e-02
         - -6.9810721111786571e-03
         - 5.5431700790837847e-02
         - -6.5089721411070757e-03
         - -2.9191164899101955e-02
         - -1.6357769375531517e-02
         - -6.8339178333504239e-02
         - 2.2947881989139916e-02
         - -9.7566172012527833e-02
         - 9.4491261789541505e-03
         - -1.5834861402233988e-02
         - 3.1356528161470436e-02
         - 2.2725217225603365e-02
         - -3.7916530620995648e-02
         - -4.9896194410016005e-02
         - 4.7487550168524477e-03
         - -6.8479167345112307e-02
         - -1.8563656245407064e-02
         - 4.0881139522416114e-02
         - -5.0101262875253051e-02
         - 3.2637934754752948e-02
         - -3.4744881613368230e-02
         - 1.6390995962993569e-02
         - 1.9706291109704416e-02
         - 9.6955078745188050e-02
         - -1.4384002092555259e-03
         - 5.9202652965347886e-02
         - 2.7993369917778572e-02
         - -8.8754608219421133e-02
         - 3.7357332248729128e-02
         - -5.7070921925871716e-02
         - 6.6476919845228605e-02
         - -7.5989905411746564e-02
         - -6.5631783792376566e-02
         - 5.0118653149754097e-02
         - 8.9227090216759522e-02
         - -1.7389483506978599e-02
         - -8.0218042763172279e-02
         - -5.4148157271314730e-02
         - -3.9910743899952472e-02
         - 1.6804670720448556e-02
         - -3.7006462774281289e-02
         - -1.3815696949735052e-02
         - 6.2751816869133795e-02
         - -6.5487809819418277e-02
         - -2.2788640878983980e-03
         - -4.9352187970812228e-02
         - -6.2762513781421322e-02
         - -1.5816723206765644e-02
         - -4.5702520137875166e-02
         - -4.8705201226030302e-02
         - -7.8428237390255340e-02
         - 4.5405975945181240e-02
         - -1.0517570588413945e-01
         - -2.7674650893734193e-02
         - -2.7976373503369369e-02
         - 1.8565491690160849e-02
         - 2.6874728793082361e-04
         - 9.5732016931136203e-03
         - -4.0582931681641114e-02
         - 5.2517162414846781e-02
         - 5.6159230892102972e-02
         - 5.5231166727893938e-02
         - 8.8052136922392832e-02
         - -3.4932658643781818e-02
         - 4.3679108951548931e-02
         - 7.3448817946147243e-02
         - -8.3820081136676369e-02
         - -4.9461478310992561e-02
         - -3.9418026303580475e-02
         - 9.0068495207459007e-02
         - -3.6705891921657005e-02
         - 5.5270059775864210e-02
         - 5.4760466387409473e-02
         - -9.4244806754388372e-02
         - 5.5957584282927644e-02
         - -3.4288966937907985e-02
         - 4.6231858235427317e-02
         - -4.9488312514897083e-02
         - 4.8792785269932533e-02
         - -6.2548976238679180e-02
         - 1.9423589541393456e-02
         - 2.1773638739256116e-02
         - -6.5289190013423426e-02
         - 5.8256890930103049e-02
         - -3.0650402191862738e-02
         - -5.4164460177214942e-02
         - -2.2965264021454969e-02
         - -5.2859232666151439e-02
         - 4.1995760929547016e-02
         - -5.8849220455648082e-02
         - -6.3575749021120259e-02
         - -4.2929410815141719e-02
         - 2.6244610273370855e-02
         - -1.9733622461763189e-02
         - -4.8918979688638876e-02
         - -8.7460583225544022e-02
         - 7.9828078739589761e-02
         - 3.0210211540391226e-02
         - 1.4805841148174580e-02
         - 2.3598157990699441e-02
         - -2.2616239927981924e-02
         - 1.0389515023657540e-01
         - -3.4410964629489588e-02
         - 5.2849791101851132e-02
         - 3.8668573846728727e-02
         - 6.1094900475856372e-03
         - 6.4822824817454522e-02
         - 1.2056963174213463e-01
         - 2.9497146507739939e-02
         - 6.5606401740776255e-02
         - 8.2725027659706241e-02
         - -6.3211993456757640e-02
         - -5.3644331335086670e-02
         - 3.6801463079548638e-02
         - -7.6127103861091706e-03
         - 3.9171093129948972e-02
         - 2.5900399261017368e-02
         - -8.5846459139449147e-02
         - 3.0680094959344661e-02
         - 7.7597553451725282e-02
         - -2.0252691879698397e-02
         - 1.5646584907496923e-02
         - 3.6536336666216085e-02
         - -5.5976662179563902e-02
         - -7.8043367632362512e-02
         - 6.7405196380710256e-02
         - -5.6469692231800921e-02
         - 3.3489776665546742e-02
         - 6.2169800267324653e-02
         - -4.2271210705894423e-02
         - 8.1834726841141001e-02
         - -1.4494179345682381e-02
         - 3.7171281264128817e-02
         - 3.7202150627638604e-02
         - -4.4885216520696249e-02
         - -5.2144820098530315e-04
         - -3.3052852405557720e-02
         - 2.5674145367983892e-02
         - -5.0267003025515830e-02
         - 7.2234965358889888e-02
         - -3.2059021303595977e-03
         - -5.9211178942446159e-02
         - -1.0263920113811621e-01
         - 3.5080703954132798e-02
         - -8.2536945908761025e-02
         - 6.0214154136797017e-02
         - 3.2800381846409384e-02
         - 3.5151664193314447e-02
         - 9.5412490620378192e-03
         - 5.4228903380253282e-02
         - 6.6288200528488439e-02
         - 2.7640845965552739e-02
         - 4.9945142631597716e-02
         - 6.1487299629800068e-02
         - -5.7980118829251359e-02
         - 1.0285774539892337e-02
         - -8.1870333038562240e-02
         - -7.9482009149889371e-02
         - 7.9731890070367753e-02
         - -7.5456582184174462e-02
         - -7.9998549401697164e-02
         - 1.4196618498451758e-02
         - -8.8955591533587799e-02
         - 2.0370133782302662e-02
         - -4.2222607133595803e-02
         - 5.1757424549371080e-02
         - 2.9429526419247221e-02
         - -6.3571963166156029e-02
         - 5.9432610271266742e-02
         - -1.0044878989533262e-01
         - -9.9579285518565250e-02
         - -6.6872195403068616e-02
         - 5.6988492210882792e-02
         - -3.3869995845114964e-02
         - -7.1107176697020810e-02
         - -8.5794937805704977e-02
         - -3.9019159630909954e-02
         - -1.2098113814022912e-01
         - 7.0478790971386263e-04
         - -1.7216113692563925e-02
         - 1.0535708731074878e-01
         - -6.6171518192055800e-02
         - 2.8386339281059905e-02
         - -3.8790095620410969e-02
         - 2.0547190469673651e-02
         - -5.0045573569477121e-02
         - -1.0854485954392531e-02
         - -7.2284794095651125e-02
         - 1.5471069996025023e-02
         - 8.7934346000921898e-02
         - 5.0768910346478999e-02
         - -7.1868306064617637e-02
         - 4.4083962059683179e-02
         - -7.9328873850638207e-02
         - 3.1682530290608135e-02
         - -3.1044194045933074e-02
         - 7.5392409284578701e-02
         - 5.0166887585879109e-02
         - 8.2435768520873101e-02
         - -2.0451433656170852e-02
         - -1.3478992019387074e-02
         - 4.7695520397001416e-02
         - -3.2455330917642557e-02
         - -7.3171656857317097e-03
         - -6.1433008653356151e-02
         - -4.9341091154336693e-02
         - 4.5233065592974742e-03
         - -6.0430360905125921e-02
         - 7.6440704124337358e-02
         - -9.2294954611159233e-02
         - 4.0917770950199821e-02
         - -7.6369734197727426e-02
         - 5.6770481770388181e-02
         - 7.8552160277256089e-02
         - 8.8310831290584438e-02
         - 9.0296158375161834e-02
         - 5.3171927793966005e-02
         - -6.9014479125789313e-02
         - 7.5689530653928153e-02
         - -9.0692369752377378e-02
         - 3.5614762457314791e-02
         - 5.7066909567070050e-02
         - 2.2515094632138903e-02
         - 1.0631126099843481e-01
         - 6.4272327636698101e-02
         - 5.4611955019155188e-02
         - 5.4533116943719893e-02
         - -2.9096885277520374e-02
         - -8.4949576848881131e-02
         - 8.2770384767729219e-03
         - -4.3060998275432423e-02
         - 1.0332357461472097e-02
         - 7.8360231078401843e-02
         - 8.4387457905950564e-02
         - -9.4614432835060741e-02
         - -4.4062180115417661e-02
         - 6.1616385145599591e-02
         - -3.7744792989362452e-02
         - -9.0456413447787321e-02
         - 2.7138157202653477e-02
         - -5.4687697742910962e-02
         - -8.8462993649116112e-02
         - 3.8887837363237622e-02
         - 1.0966380808431060e-01
         - 1.4525283331783451e-02
         - 6.5294518351240657e-02
         - -1.3044361833639644e-02
         - -9.4438571569109467e-02
         - 3.1483202492576245e-02
         - 3.8522385105609368e-02
         - 2.0966342756174254e-02
         - -3.1456383547750148e-02
         - 4.3865464341496380e-02
         - -8.0205814586155250e-02
         - 3.5242011738233206e-03
         - -8.4173076253326456e-02
         - -3.7281730191425250e-02
         - 3.1050001408671094e-02
         - -2.9905018094289405e-02
         - 6.1178273029662646e-02
         - 3.3101493359087614e-03
         - -5.1215895765759356e-02
         - -7.8804821048274687e-02
         - -5.8339937427223744e-02
         - -6.8006036148374333e-02
         - 7.0108661517545204e-02
         - 1.2597136152278518e-02
         - -6.1549799937670402e-02
         - -3.9438952170721783e-02
         - 1.1003420908844087e-02
         - -3.5780512398442064e-02
         - -6.9697940643242737e-02
         - 1.9347252922507021e-02
         - -7.7260516429330628e-02
         - 5.8698974188643650e-02
         - -2.7017028652082539e-02
         - -4.6861996868918308e-02
         - -6.9903211835161475e-02
         - 1.4666873404144166e-02
         - -3.9977300461706493e-02
         - -3.8264268888535617e-02
         - 6.0470833914870813e-02
         - 5.6042476290938982e-02
         - -1.8282722493958427e-02
         - -2.5754828097867662e-02
         - -2.1981095844804767e-02
         - -8.0313471814303344e-02
         - -4.1872328949113830e-02
         - 7.4645565695572264e-02
         - 3.9747116606508349e-02
         - 6.0031980078853728e-02
         - -4.0035263981737769e-02
         - -5.7621994421019507e-02
         - 8.0722427449994402e-02
         - 2.2500934990671278e-02
         - 2.7236035175984811e-04
         - 5.7010749563931026e-02
         - -1.3338449100700934e-02
         - 7.8818178088345528e-02
         - 7.7701230239046546e-03
         - -3.1269964571312751e-02
         - 7.0183820199918645e-02
         - -6.7560348918006746e-02
         - 1.0235882270994305e-02
         - -2.4840666519328904e-02
         - -2.9714076321049523e-02
         - -7.0504738715800125e-02
         - -4.0007406094095609e-02
         - -8.1385151669882069e-02
         - -1.6707717742154609e-02
         - 3.3368133271226064e-02
         - -1.3052197645014489e-02
         - 4.6849409193081996e-02
         - -3.0015920581001911e-02
         - 9.2830020781557526e-02
         - -7.3314889410967032e-02
         - 9.0043823682629448e-02
         - 6.4988188274922962e-02
         - 5.7608456415027327e-02
         - -7.0052686358568650e-02
         - -7.6130509340196481e-02
         - -7.2069723415655235e-02
         - 8.4926726832690480e-02
         - -2.8160260183418571e-02
         - -2.2452397107909201e-02
         - 3.5683966997765437e-02
         - -1.0038271827660917e-02
         - -4.4582297702185164e-02
         - -6.3750164521215666e-02
         - 4.4284659641533795e-02
         - 8.3619568816660300e-02
         - -5.0142567411220161e-02
         - 5.1804412614737130e-02
         - -3.7752414080655328e-02
         - 5.5824878792147328e-02
         - 1.4403056988405103e-02
         - -7.0380020598231285e-02
         - -8.6431999159658698e-02
         - -7.3320971525834319e-02
         - -5.3081516082651124e-02
         - 3.3493644428737895e-02
         - 1.7523987021774844e-02
         - -2.7815490441622778e-02
         - -1.1152525358675764e-02
         - -3.2779604506159104e-03
         - 9.2553611996115687e-03
         - 3.0821259858484669e-02
         - -2.4625106698453633e-02
         - -3.6824631111842823e-02
         - 3.2431613439014011e-02
         - -7.2428649030730615e-03
         - 3.4434055037734293e-02
         - -2.7380911698621366e-02
         - 4.1267556515918902e-02
         - 7.6666014514838636e-03
         - 5.7416541167618761e-02
         - 8.0495164984226306e-02
         - -3.1259018153677764e-02
         - 3.0570971164200843e-02
         - 2.2266767665534069e-02
         - 5.4243818708046607e-02
         - -5.0026708360321463e-02
         - -1.0724563117755390e-02
         - 1.5253064298242424e-02
         - 3.1509568582637003e-02
         - -8.0011863564813851e-02
         - -4.7368583085748900e-02
         - -3.1731531883517745e-02
         - 1.4980974064956866e-02
         - 4.8037355996074782e-02
         - -4.2593619155211525e-03
         - -4.9643884240906913e-04
         - 3.3016005432459111e-02
         - -1.5654473361345154e-02
         - 2.4564045673177361e-02
         - -4.1482034288855475e-02
         - 4.3543161626524218e-02
         - -1.1012274977722009e-01
         - 9.9222349082291592e-02
         - -7.8997721366991028e-02
         - -5.6740475771966510e-02
         - -8.8863109119455257e-03
         - -7.0331468848969861e-02
         - 3.9099833720364727e-02
         - -4.4795285720291775e-02
         - -7.5657200164313265e-02
         - 4.6404471002568476e-02
         - 1.2451881859459278e-02
         - -3.5077916539749648e-02
         - -1.6255532063793269e-02
         - -9.1891234332995547e-03
         - -2.5162418526723317e-02
         - 3.6150385797803102e-02
         - -8.6535078862879630e-02
         - 1.3303606370418561e-02
         - 4.2346164325709146e-02
         - 2.9999148396868906e-02
         - 6.3117341662242976e-02
         - -8.1903940649341839e-02
         - 1.6746352159846937e-02
         - -4.4123085562447546e-02
         - 8.1916075716116244e-03
         - 6.5771645208283783e-02
         - 8.6780334476061427e-02
         - -4.2136658542478285e-02
         - -7.0248969480685458e-02
         - -3.8538601850939970e-02
         - -1.0814693360795888e-01
         - 6.9701631491893928e-02
         - 5.1537244259782379e-02
         - -7.6855533512344434e-02
         - 7.1202421277928377e-02
         - 8.6132033338192859e-02
         - 6.8375341341720422e-02
         - -2.4418820452643146e-02
         - 2.2247278283569426e-03
         - -1.2972656890174194e-02
         - -4.9843573740431489e-02
         - 6.9762651359393343e-02
         - 7.4613780585078726e-02
         - 2.8049645543710255e-02
         - -3.7883236031465629e-02
         - 8.5794208565093982e-02
         - 2.0725284165549047e-02
         - -7.4361730515197899e-02
         - -6.9081365989532351e-02
         - -3.3294971732758374e-02
         - 5.8458024838049738e-02
         - 1.4814100749759215e-02
         - 5.4099487102801540e-02
         - 1.5071903615147784e-03
         - 7.7489072976706222e-02
         - -8.7868209785754117e-02
         - 1.6392066562461258e-02
         - 7.2622434529366661e-02
         - -5.9135922323798482e-02
         - -4.8347882771846047e-02
         - 1.1619840286483949e-02
         - -5.6663631421627308e-02
         - 4.2276823199676711e-02
         - -9.2565664784800397e-02
         - -7.7293940914047371e-02
         - 6.1323492272832214e-03
         - -1.8694410830783482e-02
         - 8.7593884394984903e-02
         - -5.7434673645387284e-02
         - 1.1645002158039810e-02
         - -2.8321696407101988e-02
         - 3.4832584647050156e-02
         - 5.8647867553110293e-02
         - 5.6750255944336379e-02
         - 7.0097461413291845e-02
         - 4.3935733432515139e-02
         - -6.3745280628766415e-02
         - -6.8996466581896149e-02
         - 1.8483602155373615e-02
         - -8.4102321364640978e-02
         - 5.4067478048563475e-02
         - -1.1586202339695927e-01
         - 2.2772843076663243e-02
         - 8.1587365912521845e-02
         - 5.7566504233666826e-02
         - 6.7605739677040907e-02
         - -3.0526487499408755e-02
         - -4.7074563052281774e-03
         - 6.2690767094085095e-02
         - -8.0470181949122005e-02
         - 2.5038499915041475e-02
         - -7.9060432951387326e-03
         - -7.0416771720458668e-02
         - 1.0278059934606515e-02
         - 2.6017531921569477e-02
         - 2.4788049911130372e-02
         - 7.7461372414221935e-02
         - 5.8632625942970910e-02
         - -1.0200777718490341e-02
         - -6.0775816236433133e-02
         - 4.9825062220214079e-02
         - -5.4880311531903710e-02
         - -2.7531873904769150e-02
         - -4.3329844052030740e-02
         - 3.8938932247905865e-02
         - 4.6122700417821169e-02
         - 9.7647974463897974e-02
         - 8.7402108811842572e-02
         - 5.3344383625466743e-02
         - 4.2498538547956641e-02
         - 1.3230441588112662e-02
         - 5.5831691462877177e-02
         - -1.4550929082692622e-02
         - -3.4990260529983518e-02
         - 9.2193358722954158e-02
         - 6.5252822328480287e-02
         - -7.6286518824935909e-02
         - 8.7902186468435173e-02
         - 3.5828570241737391e-02
         - 8.3534038232651979e-03
         - 6.1844469101778828e-02
         - -8.5435545778549296e-02
         - 4.3840260167849109e-02
         - 1.9698620170211671e-02
         - -6.0555442684680785e-02
         - -8.8722671723496196e-02
         - -2.8547455464678718e-02
         - 4.8249881922582782e-02
         - 7.9143589034160008e-02
         - -6.0145781218473582e-02
         - 6.0095697491204532e-02
         - -8.2443016900298580e-02
         - 6.7877067198345062e-02
         - 3.8709374424430038e-02
         - 6.7978847039770834e-02
         - -5.4891378991001737e-02
         - -7.0918481823807666e-02
         - -9.6230239181682262e-02
         - -1.5137907481659585e-03
         - -7.2328989578339720e-02
         - 6.5459093018864142e-02
         - -5.7709759310403085e-02
         - -1.5430105271042608e-02
         - 1.6324164588387240e-02
         - -2.5235139725235427e-02
         - -1.8133246364148068e-02
         - -5.0435653369932651e-02
         - 4.3072621645957099e-02
         - -1.7733277208696940e-02
         - -6.3420021986528810e-02
         - -1.2881941405598986e-02
         - 9.1947249815866883e-03
         - 4.3402004952897533e-02
         - 4.3748673103407472e-02
         - -5.7697450501879792e-02
         - 6.6538217471592470e-02
         - -3.6033942107045899e-02
         - -4.4395395928859403e-02
         - 1.4065242445944873e-02
         - 6.6142521856800904e-02
         - -2.7521668950338689e-02
         - 1.9728289310224835e-02
         - -5.9211908504148918e-02
         - -5.2388583482475305e-02
         - 4.7562729992048990e-02
         - -1.0832459960637958e-01
         - 2.1587505881809955e-02
         - -2.8930020288356558e-02
         - -5.0368455300252822e-02
         - -5.6924165949174453e-02
         - -6.6285015820561705e-02
         - 1.5671223098966590e-02
         - 9.7437406087373502e-02
         - 9.1846646640821442e-02
         - -6.3852320018026695e-02
         - 7.7095839254196205e-02
         - 8.4057706230319315e-02
         - 1.7595858749800551e-03
         - -3.4071494865027384e-02
         - -1.5549731770837474e-02
         - 7.0085960098530228e-02
         - -4.3906408255344954e-02
         - 1.1358088696395156e-02
         - 2.5843542257584912e-02
         - -9.5672498883713514e-02
         - -1.7796843526839450e-02
         - -2.9880520454574497e-02
         - 4.4575680577863028e-02
         - -5.3204123944045681e-03
         - 6.9222658897047193e-02
         - -1.1856133283495801e-02
         - -2.4988312074318585e-02
         - -1.7270725527027539e-03
         - 8.7232169261764782e-03
         - 7.3976899192785897e-02
         - -7.7135986329081134e-03
         - -8.3122460916524102e-03
         - 3.5510981428171523e-02
         - 2.6030925454963355e-02
         - 2.7077562813749519e-02
         - -8.6544228346148722e-03
         - 1.0735061077116603e-01
         - -4.7945105365585522e-02
         - -2.5786382859151549e-02
         - -4.3029796793546030e-02
         - -2.8559420795287050e-02
         - -3.6456070566651094e-02
         - -6.9648341733673902e-02
         - -3.6189567670279664e-02
         - -9.4704822797923638e-02
         - -8.5339087450769610e-02
         - 3.6583939210299954e-02
         - 7.9511703012077398e-02
         - 5.7367932992331824e-02
         - -3.7216755069439618e-02
         - 5.0809066263013972e-02
         - 3.0392606924539889e-03
         - 3.3937141928516414e-02
         - 6.4913125237894539e-02
         - -2.7779553576543447e-02
         - 4.6785886093184549e-02
         - -2.4972870485375217e-02
         - 8.8855531316859179e-02
         - -9.1440825224510094e-02
         - 5.3005878643121167e-02
         - 3.0939460162426668e-02
         - -5.0261910468053062e-02
         - 1.6329907803182620e-03
         - 7.6784850283114756e-02
         - -3.2457593378213995e-02
         - -1.7389214040550479e-03
         - -5.9775113852803652e-02
         - 6.7034881721508802e-02
         - -5.4997885870966115e-02
         - 4.8708638302688262e-02
         - 1.7321548184847151e-02
         - -7.9564598004320780e-02
         - -3.3258116693062278e-02
         - 8.4524652437371728e-02
         - -7.7065947002429733e-02
         - 8.8550665032561815e-02
         - 2.6468452051895949e-02
         - 1.8268251590161808e-02
         - 8.0809645777237357e-02
         - 1.9075588520947866e-02
         - -3.9951041062323882e-02
         - 2.2541446976316774e-02
         - -9.9571124070986471e-03
         - 8.4562128582880577e-02
         - 2.6587632783999015e-02
         - -4.4775740740730784e-02
         - 7.8493838812419364e-02
         - 1.4031507567324955e-02
         - 1.5960259447250352e-02
         - 8.5121891484650686e-02
         - -5.2745930861538476e-02
         - -3.7384044845067195e-02
         - -3.2466483247478042e-02
         - -4.9438748417207606e-02
         - 7.2377154350037165e-02
         - 3.1046014877867366e-02
         - -3.3687790555385913e-02
         - 2.0361932397934494e-02
         - 4.6993138390136073e-02
         - -2.8576816906897177e-02
         - -3.5924245197222864e-02
         - 5.1327816964671161e-02
         - -1.0281474523727989e-01
         - -3.8201325205772636e-02
         - -2.8206996359766569e-02
         - 6.2973878844977252e-02
         - -7.7472474401868469e-02
         - 5.1771085099175898e-02
         - -7.8767174469046200e-02
         - -1.9180524109339857e-02
         - -4.7577262495680436e-03
         - 5.7423786671016483e-02
         - 9.2748085414171802e-02
         - 6.4258787834144362e-02
         - 5.3704064074397116e-02
         - -2.0894847598930583e-02
         - -2.6071196076713776e-02
         - 3.8159147193360242e-02
         - -1.2320119442532923e-02
         - -1.9971632556757810e-02
         - -1.6009203596214269e-02
         - 4.5073290821989825e-02
         - -4.6853114367074941e-02
         - -3.2343087333667329e-02
         - -3.0714327972861118e-02
         - 7.6803527009179681e-02
         - -5.9746458838273363e-02
         - -1.8592331295937434e-02
         - 7.5411332871425166e-02
         - 5.3151452111422741e-02
         - -6.2085197299184873e-02
         - 9.5562291143208883e-02
         - -3.0050311021057270e-02
         - -7.9324961952586065e-02
         - 3.2263430973804623e-02
         - -3.9535685228026946e-02
         - 2.2851364245458049e-02
         - -2.3492638288533693e-02
         - 5.4050830385980457e-02
         - 9.2069391670618506e-02
         - -5.2889088903286294e-02
         - 4.9937900549640063e-02
         - -5.0239938439860403e-02
         - -5.2836616552861419e-02
         - 8.0604660862607716e-02
         - 2.7690798097018229e-02
         - 6.6663785986014190e-02
         - 1.3951172302375239e-03
         - -6.7523926395448561e-02
         - 3.2533180152298356e-02
         - 6.2098829647739412e-02
         - -2.2252630021166262e-02
         - 7.1016008397974312e-02
         - -8.6706047341379669e-02
         - 1.3229605502610611e-02
         - 8.9328919054579514e-02
         - -5.1273679653897801e-03
         - 7.3850351547221416e-02
         - -7.5598356926719248e-02
         - 1.8869003813014817e-02
         - 5.2090872837684106e-02
         - -8.5501089334622735e-02
         - 7.1171578391346496e-02
         - -5.6487900086497865e-02
         - -1.1088652300310855e-02
         - -3.6432194075681233e-02
         - -7.9673608217575395e-02
         - -5.9508969420220749e-02
         - 7.2327044160459791e-02
         - -6.6550539614629214e-02
         - 7.4786395724901797e-02
         - 1.1697345156344104e-02
         - 4.2641116597511436e-03
         - -5.9730181709005702e-02
         - -1.0112120499669097e-01
         - -1.7582654170111733e-02
         - 7.3946028911004463e-02
         - 8.5254661023353426e-02
         - -2.2894844761133588e-02
         - -5.2836108772332122e-02
         - -3.8848639210114652e-02
         - 2.7819881662067635e-02
         - -7.8974163607130374e-02
         - 8.3096821557501546e-02
         - 3.3539370260041584e-02
         - 4.1013396660034701e-02
         - 1.7238359231620953e-02
         - -3.3836875130473058e-02
         - -5.1607475734187475e-02
         - -3.7197408086879148e-03
         - -1.2034175820810525e-02
         - -8.2445204588272453e-02
         - -6.4407740736712557e-02
         - 4.6343946432738724e-02
         - 2.4938918066879003e-03
         - -4.9182711796286131e-02
         - 8.2689174934147305e-02
         - -5.6629745447210389e-02
         - -5.9261499661700912e-02
         - 5.9203274286660480e-02
         - 4.5906828873239786e-03
         - 7.1935364044656544e-02
         - 9.3069583449715814e-03
         - -5.8251370379753857e-02
         - 6.1444119663000001e-02
         - 2.0415335636752401e-02
         - -6.1850902935281220e-02
         - 4.6182466187023097e-02
         - -3.5021670349004407e-02
         - 7.4461565842984370e-02
         - -2.6738906490563905e-02
         - 1.3001135459130604e-02
         - 2.5843247022827899e-03
         - -5.5710343282923763e-02
         - 1.6783870625768086e-02
         - 2.5132586561947452e-03
         - 1.7465706478771983e-03
         - 1.2597437060176199e-02
         - 6.4145836882332748e-03
         - 1.3643647776519207e-02
         - 4.1964674721914223e-02
         - 2.5130832021973117e-02
         - -7.2834595111200176e-02
         - 4.5329534047387120e-02
         - -6.5002424917495555e-02
         - -5.5702072070696114e-02
         - -5.4994166917930326e-02
         - -7.9303505769413377e-02
         - 7.2183191101798216e-02
         - 1.9305351156655735e-02
         - 8.6280664875019550e-02
         - 1.5783168064730076e-02
         - -6.2678974538015714e-02
         - 5.6232383881723184e-02
         - 4.1143616156642845e-02
         - -8.5510070065701622e-03
         - 3.5113936941124829e-02
         - -5.8784676988484193e-03
         - 6.6963312313119139e-02
         - -4.8497265506798982e-02
         - 4.3289464674838650e-02
         - 4.6237914200282254e-02
         - 1.8009064856092608e-02
         - -4.4900706124701907e-02
         - 3.1438294234457834e-02
         - 3.0068339420599222e-02
         - 6.5484556180637490e-02
         - 3.0117874674090880e-02
         - 7.0809893175123526e-02
         - 8.7999718326713092e-02
         - -2.5658759221350309e-02
         - -5.0008562718979112e-02
         - 4.6738545448795597e-02
         - 4.1543630680080795e-02
         - 2.2631388664136099e-02
         - -5.3479094504998520e-02
         - -5.4757266329483814e-02
         - -3.4980248888933724e-02
         - 7.1838989469181089e-02
         - -6.1925688758113044e-02
         - 6.4214965138862379e-02
         - 5.3054791542783933e-02
         - -4.3651446139206310e-02
         - -1.4299267158118101e-02
         - 6.9247143387277776e-02
         - -1.2635293863561095e-02
         - 2.1479082958264218e-02
         - 2.1515918537504758e-02
         - 7.4953497089923424e-02
         - -3.7647823400750194e-02
         - -9.0303275981671496e-02
         - 3.4772283068808522e-02
         - -5.6155510998159075e-02
         - -1.7710921015998693e-02
         - -6.9125240291840917e-02
         - 9.9597787320983705e-02
         - -6.2779196568646084e-02
         - -3.6848343473487227e-02
         - 3.7809443065646729e-02
         - 2.6942434548803362e-02
         - -3.0688924040363750e-02
         - -4.1288041140989405e-02
         - 6.8391542139394634e-02
         - 6.8999281989729142e-02
         - -6.6197974319134739e-02
         - -6.9481096808163750e-02
         - -7.1649776363345533e-02
         - -4.7331245726443129e-02
         - 3.0042773347725864e-02
         - 6.9414205731131301e-02
         - -6.6971901700657421e-02
         - 7.1440856642285708e-02
         - 2.2056496828114919e-03
         - -1.5776849908486962e-02
         - 2.4797062516840024e-02
         - -5.8449081143718322e-02
         - -2.7097428699730218e-02
         - -7.6534875794097360e-02
         - -6.4024971277390041e-02
         - -8.7284004107522420e-03
         - -8.4543946053474595e-02
         - -1.0044798668140664e-01
         - 6.8478520587214320e-02
         - -4.6333710237426162e-02
         - 2.8995468944819615e-02
         - 5.6504877564442127e-02
         - -2.3963617857955206e-02
         - -6.6011396732419000e-02
         - -9.2358417398246857e-03
         - 1.7046762807650457e-02
         - -4.1678763611870491e-03
         - -8.5929545817980291e-02
         - -8.2062945696661893e-02
         - -4.9023924692302635e-02
         - -2.2040433518367784e-02
         - -6.5763115227502930e-02
         - 4.9279407189499379e-02
         - -8.6602274765927037e-02
         - 8.8837562837897732e-02
         - 3.1486227859471791e-02
         - 7.8325864335322765e-02
         - 8.7798314505601979e-02
         - 7.8130798379972180e-02
         - 7.1217366579495692e-02
         - 7.4772549278673966e-02
         - -5.8917898695400331e-02
         - 6.1358588585041972e-02
         - 9.8504188727661611e-03
         - 8.6278145751479074e-02
         - 1.0199207413629205e-01
         - -7.9592793745859439e-02
         - 5.0105473945992393e-02
         - 5.9892856798010687e-02
         - 5.7951509393328715e-02
         - 6.1193724640819631e-02
         - 2.8371154901465200e-02
         - -1.6482589925136373e-02
         - -6.5788454265953922e-02
         - -5.3489318828382246e-02
         - -2.8290128594915191e-02
         - 1.3855966894885368e-02
         - 6.2218954866516997e-03
         - 1.1333950853449858e-02
         - 3.2158971182989190e-03
         - 5.0801319892965754e-02
         - 1.6909657503298533e-02
         - -5.5176470912016676e-02
         - 6.1088921312281268e-02
         - 4.6817213651072732e-03
         - 6.8975260186587686e-02
         - -4.2527464278044887e-02
         - 8.4172639437891189e-02
         - 9.5261031548829700e-02
         - -2.5724771810641964e-02
         - -6.0114571020662207e-02
         - -8.6875634172178196e-02
         - 1.8232637190617761e-02
         - 7.8335658221531781e-02
         - 6.4833618263724788e-02
         - 5.9011696043999591e-02
         - 4.8905563410482820e-02
         - -1.0542108842759735e-02
         - -6.7375840778490320e-02
         - -3.9437549992363714e-02
         - 4.4932325400472595e-02
         - 2.1094497998834595e-02
         - -3.8161805097024264e-02
         - -5.2183891132126667e-02
         - 6.0282268578055555e-02
         - -1.3449548755795088e-02
         - 4.2960570315775611e-02
         - -8.2292379040174279e-02
         - -8.8750167982970807e-02
         - -2.2424461355958339e-02
         - 1.7417654561850651e-02
         - -3.0555167929773235e-02
         - 6.9552327815596490e-02
         - 9.0602373256350524e-03
         - -6.0887749749829231e-02
         - -6.1457732100011368e-02
         - -2.8132935126197380e-03
         - -4.5254068956525131e-02
         - -6.2777943933649716e-02
         - -6.7076838906527825e-02
         - -2.8046385416389184e-02
         - 8.4809413426980201e-02
         - 1.0129692458047249e-02
         - -6.9054813272669449e-02
         - 5.1387011847672755e-02
         - 4.5548277654102597e-02
         - -1.6025739062333216e-02
         - 5.2343518265516004e-02
         - -5.5652736086883745e-02
         - -6.2832910539374634e-02
         - -6.0209732456972573e-02
         - -6.0619248823426765e-02
         - -2.2336961718930411e-02
         - 2.2129252674537265e-02
         - 4.4468943002372663e-03
         - -9.0065076827711942e-03
         - 8.5086110861144117e-03
         - 1.9163499341149158e-02
         - -2.2314308882170494e-02
         - -2.4548760240799567e-03
         - 5.1872898085931263e-02
         - -5.7679670641846023e-02
         - -3.1635947824029946e-02
         - -9.4984947101610012e-02
         - -1.6064587112953804e-02
         - 2.2540535134654354e-02
         - 5.9667485128186697e-02
         - -7.7480208956502955e-02
         - 3.1114121237413778e-02
         - 1.1653613379370499e-02
         - 5.5958843101635833e-02
         - -1.7862031633461828e-03
         - 1.0777188372960851e-01
         - -8.3973648479157614e-02
         - -6.6769927324198702e-02
         - -7.1185317810587664e-02
         - -3.1639241974918415e-02
         - 6.4471946202372711e-03
         - 4.2526454451198799e-02
         - 2.2141619825836057e-03
         - 2.0387973543374766e-02
         - -7.4338861596188202e-02
         - -2.3754730589056580e-03
         - -6.2044968517721566e-03
         - -3.4980935378323773e-02
         - -8.3193121198050321e-02
         - -8.2057575121023699e-02
         - -2.9200935885476897e-03
         - 5.0210573956397629e-02
         - 6.6788179898893213e-02
         - -8.3854396070371276e-02
         - 2.6324467943167743e-02
         - -3.5237839784515619e-02
         - 5.5807068545310264e-02
         - 3.1507236340011006e-03
         - 3.4761207335015511e-02
         - 1.5037442278367444e-02
         - -5.9940971699559850e-02
         - -6.7958556909448561e-02
         - -4.6279563533899726e-02
         - -4.9051970845025321e-02
         - 7.7796542280447800e-02
         - 4.3114803814522276e-02
         - -8.9330309211302000e-02
         - -4.3456832641383301e-02
         - -4.9826349973730526e-02
         - 2.5655431226681246e-02
         - -1.3844597817388527e-02
         - 7.0192927059883448e-02
         - -2.8189808950498489e-02
         - -8.4337741835978125e-04
         - -5.7167874619427378e-02
         - 2.1056109694029317e-02
         - 1.0684696534276070e-02
         - 5.1623077584515821e-02
         - 3.1449684991012921e-03
         - -1.0651556676068562e-02
         - -2.4871578858042129e-02
         - -7.6925508503168760e-02
         - -1.0044131284446199e-02
         - -4.9715587176573948e-02
         - -4.3083244423325902e-02
         - 4.0503466971899505e-03
         - -6.4936690156694912e-02
         - -5.7061426076453016e-02
         - 3.4633556999269018e-02
         - 3.3537011103386666e-02
         - 3.9810365953423021e-02
         - -4.3786920828521515e-02
         - 7.7876748209633778e-02
         - -4.1701000618465905e-02
         - -8.6585595596831641e-03
         - -5.9194325824536292e-02
         - -3.0213094870765778e-02
         - -5.1007374939092943e-02
         - 8.1856989894879217e-02
         - -6.9480289518893873e-02
         - 9.4320347269536808e-02
         - -3.2908840333062489e-02
         - 1.6824040131566062e-02
         - -5.9049618599115672e-02
         - -1.2232188175169748e-02
         - 8.1820820222948912e-02
         - -7.5584201090959549e-02
         - 7.8149253990885237e-02
         - 2.1654512966393639e-02
         - 1.1807430528628978e-02
         - 4.6932968732926478e-03
         - 3.9874183305839854e-02
         - 5.4565865018947300e-02
         - -1.0601623812778247e-02
         - -5.8354578137883611e-02
         - -7.6712345763227677e-02
         - -7.3427551695338336e-02
         - -7.3960641423208032e-02
         - 4.9192845669584900e-02
         - -3.2968843310467927e-02
         - -3.5039203670094984e-02
         - 3.8218918076036092e-02
         - -3.7124458941095458e-02
         - -7.4322544458398754e-02
         - -4.0589401055735663e-02
         - -5.5439447395009465e-02
         - -2.4371385111503278e-02
         - 5.1909079925722648e-02
         - 7.7344446813590373e-02
         - 2.8547781579183452e-03
         - 8.5183925207137454e-02
         - -8.0771207590668623e-02
         - -2.2557159530573398e-03
         - 8.5240219717424820e-02
         - -7.3458199765011764e-02
         - -7.6293432925309337e-02
         - 3.5437890470759160e-03
         - 3.6873624333959562e-02
         - 8.0950152512772461e-03
         - -9.8673340967053769e-02
         - -6.4832023766361435e-02
         - 8.6374367447974873e-02
         - -5.9685868274018748e-02
         - -6.3607654351843304e-02
         - 2.6500257107611334e-03
         - 7.6551589389844590e-02
         - -2.6093220318313771e-02
         - -8.1508700373358542e-02
         - 7.0966743471324242e-02
         - 7.3061743832537843e-02
         - 1.0846182721370361e-01
         - -5.6024187583690731e-02
         - 7.0320497999285081e-02
         - -3.9871519564297048e-02
         - 1.3724308755574750e-02
         - 3.7708406459437294e-02
         - -8.2680118163475126e-03
         - -8.0858021487998810e-02
         - 9.7397886933164646e-02
         - -4.3213318281024773e-02
         - -8.1469258920263118e-02
         - 9.0567611983706789e-02
         - -7.3758173906728577e-02
         - -8.1188392932521294e-02
         - -8.9321301943063064e-02
         - 6.3536386277804599e-02
         - 1.9953564635304084e-02
         - 8.3260794450483816e-02
         - -7.6527253313160570e-02
         - 7.7555643404467259e-02
         - 9.6656550022294188e-02
         - -4.9514960139899089e-02
         - 4.1029741619935035e-02
         - -6.8641047414386994e-02
         - 5.3256259417804659e-02
         - -5.8642930080632073e-02
         - 1.2717840071115956e-02
         - -7.9017601178422534e-02
         - 9.3396884760234541e-02
         - 7.1468220585381798e-02
         - -5.5623943376644676e-02
         - 3.2168728765557805e-02
         - 7.7556101406478201e-02
         - 6.1518658972730490e-02
         - -4.0020322902351566e-02
         - -1.5741539538755265e-02
         - 1.4967909435172438e-02
         - 3.1365947230045481e-02
         - 2.5394593056678103e-02
         - -2.7717139632833541e-02
         - -3.2674857694724620e-02
         - -8.9383601245572639e-02
         - 6.3469042129876446e-02
         - 2.7977570212888433e-02
         - 3.0433704461107138e-02
         - -3.2442899615596925e-02
         - 5.1543133743997056e-02
         - 1.0121551076831915e-01
         - -9.0006666306844840e-02
         - 8.9187445671762927e-02
         - -1.0593728972326132e-01
         - -6.1961594854572095e-02
         - -6.9872500727199527e-02
         - 4.4363847290312911e-02
         - -5.4264262439648228e-02
         - 2.3989636567555539e-02
         - -3.9445095823759296e-02
         - -4.2376109692976366e-02
         - -4.9781483518812564e-02
         - -8.9452145131737701e-02
         - -4.9689286471509067e-02
         - -8.8796220858794975e-02
         - -7.2964662013543277e-02
         - -5.3175967867644062e-03
         - -8.1630388106143342e-02
         - 4.3477643887271288e-02
         - -4.6125310402346055e-02
         - 2.5527457079479173e-02
         - 8.5531455533086401e-02
         - -3.9099355157619031e-02
         - 1.9711190089135546e-02
         - 5.8703885956902027e-02
         - -2.6736120924484175e-02
         - -5.6614352727995511e-02
         - 1.0419405966117274e-02
         - -4.1465031482810610e-02
         - 2.1300610317603538e-02
         - 3.6756911642393336e-02
         - 7.5132226729679924e-02
         - -1.0723662463353138e-01
         - 4.5198755852305761e-02
         - -1.0047445497550851e-01
         - 8.3410050273745651e-02
         - 5.8804687383348132e-02
         - -5.6553085772780468e-02
         - -5.9246210440560498e-02
         - 8.7590718682093692e-03
         - -7.8365095160593617e-02
         - 7.3553091773770660e-02
         - 4.2130343483733020e-02
         - -4.5406526211433096e-02
         - -6.1970367147757291e-02
         - -8.2430559288400262e-02
         - -7.5425023121705001e-02
         - -6.5540041182606465e-02
         - -5.1408165597636502e-02
         - -6.8746492759887645e-02
         - 4.9939392940318225e-02
         - -4.9912318908105890e-03
         - 7.2660282231793438e-02
         - 5.2808849450694320e-02
         - 4.4270192572631794e-03
         - -1.3091529706135399e-03
         - 3.4659896115883194e-02
         - -3.3583160846665586e-02
         - 9.2365412094978130e-02
         - -8.6836373893261709e-02
         - 2.5394770791923849e-03
         - 2.3295893533497560e-02
         - -6.4907811465538007e-02
         - 6.2925123359656346e-02
         - -5.0535257735805868e-02
         - 1.7467426758896256e-02
         - 7.1179980601753429e-02
         - 7.9105945470521119e-02
         - -6.9245352317206424e-02
         - 4.1524044541336486e-02
         - -3.0957293508892234e-02
         - 7.7915738063765713e-02
         - -6.1537193388384114e-02
         - -8.6776103787458522e-02
         - -3.0493325685976968e-02
         - -3.1829417763933422e-02
         - 8.8915397320737458e-02
         - -7.7032220806279181e-02
         - 3.6156464700063305e-02
         - 5.3422626434143632e-02
         - -7.4112922582850446e-02
         - -6.9686563529482118e-02
         - -3.3036177411674389e-02
         - -1.0588017104989045e-01
         - 6.7351244211095770e-02
         - 6.2080452459906017e-02
         - -9.0157017527850922e-02
         - 2.4024444576276109e-02
         - 6.8666647716953438e-02
         - -3.3531261615631906e-02
         - 7.7316672189694069e-02
         - 2.6461880105187022e-02
         - 5.9949904972251208e-02
         - 2.2293093452783422e-02
         - -4.8920880202194391e-03
         - -6.2760932609379261e-02
         - -7.8211713478125222e-02
         - -1.5921504854142770e-02
         - -9.3494331238832135e-03
         - 8.4391536644803811e-02
         - -4.9931731258024178e-02
         - -1.2983145387197725e-02
         - 2.5862111677382180e-03
         - -1.5768745099236089e-02
         - 4.7812723566324843e-02
         - 3.3849135441667677e-02
         - 7.2182339818031224e-02
         - -7.8912559759655401e-02
         - 4.6962740927436478e-02
         - -3.7562837761723686e-02
         - 1.8806318753294669e-02
         - 9.5660457076979219e-02
         - -6.7294870436099578e-03
         - 1.1046236185778720e-02
         - 4.0260669256637571e-02
         - -6.4324370013093574e-02
         - -7.0407790923410762e-02
         - -3.2702157513369134e-02
         - 1.8111655097589486e-02
         - -4.6939127674508155e-02
         - -1.0738260033447387e-01
         - -8.0969754727660076e-02
         - 5.3568190810410340e-04
         - 8.2136518010319431e-02
         - 6.9401269640453137e-02
         - 4.9061797641457579e-02
         - 2.7809502905017894e-02
         - -4.3276943759015300e-02
         - 7.7119484855314543e-02
         - 9.7049632931892806e-03
         - 2.3262065933099822e-02
         - -1.7537986526593618e-02
         - -3.4673052870674195e-02
         - 3.6313211884944257e-03
         - 7.0670781411826256e-02
         - -6.5940837304781869e-02
         - -1.6439257813702406e-02
         - -7.0073761566552345e-02
         - 7.3510153738261710e-02
         - -5.4677209094397335e-02
         - -7.3918539231110469e-02
         - -8.2983085474253992e-03
         - -7.1463202046562674e-02
         - 5.9789842678077743e-02
         - 2.1845513436465871e-02
         - -2.1895803093826733e-02
         - 1.5183075299028601e-02
         - -5.8465403980397290e-02
         - -8.5978284932454588e-02
         - -4.7117065211592112e-02
         - -5.1891074767520112e-02
         - 1.8347139169173524e-02
         - 3.0483844944400061e-02
         - 6.2270169509829394e-02
         - 1.6335084249651907e-02
         - -2.6780440209007269e-02
         - -1.1289312579391961e-02
         - 2.6540444407359143e-02
         - -2.2788168085800243e-02
         - 7.2305781035008357e-02
         - -2.0438816782008089e-03
         - -6.6557647415454738e-02
         - -4.4560005115288591e-02
         - 4.1622686185056677e-02
         - -7.6463939049561225e-02
         - -2.7082147197977129e-02
         - -3.3980299800864686e-02
         - -7.6993738702931205e-02
         - 3.9774202412980249e-02
         - 3.7362679763556735e-02
         - 5.8713088577777531e-02
         - 1.8661490431697819e-02
         - 5.5265981879968382e-02
         - 2.4315481596875219e-02
         - -9.0869811725842117e-02
         - -4.6675898683053586e-02
         - 8.7256365116446855e-02
         - 2.9069647869904340e-02
         - 8.1016977216941080e-02
         - -7.6651038363833917e-03
         - -7.3725510073567188e-02
         - -3.7422861476325085e-02
         - 7.7738446879744655e-02
         - -3.6568494862346888e-02
         - 5.6445858357474454e-02
         - 5.5775854721170273e-03
         - 1.3242895171906586e-02
         - 6.9803311103487170e-02
         - -3.7929228455879350e-02
         - -1.3153276880132649e-02
         - -2.2941340441119524e-02
         - -6.5224936605473557e-02
         - 2.1246576169807935e-02
         - 7.8155373866693661e-02
         - -3.6900859465232860e-02
         - 8.4052622209704567e-02
         - -7.0047458023308112e-02
         - -7.1242940327426285e-02
         - 3.0601595358484515e-02
         - -9.8166479906330095e-02
         - -5.0637858746992233e-02
         - -8.0728630937325435e-02
         - 6.0608786373918595e-02
         - 1.2652432457306760e-02
         - 6.2958571010261538e-03
         - -3.4331611012516319e-02
         - -8.3912531287025485e-02
         - -2.4984226073933660e-02
         - 2.8092648939910862e-02
         - 7.7534219919573322e-02
         - -3.3191580568540352e-02
         - -3.4298888719926555e-02
         - -2.2703180601315851e-02
         - -4.5078007721456440e-02
         - -3.1117200585722683e-02
         - 6.0844873473569670e-02
         - 2.6919700158889177e-02
         - 8.3517933923222654e-02
         - -4.7579726679247640e-02
         - -3.9297894213584969e-02
         - -6.9707532401621003e-02
         - 4.6015901492241149e-02
         - -7.9446617899071467e-02
         - 2.1029805155368723e-03
         - -9.0181731431026053e-03
         - 3.6230376583445065e-02
         - -3.1173969638044512e-02
         - 4.3158979879312220e-02
         - 9.4777346038074726e-03
         - -5.7204418693292618e-02
         - -2.5423645947042082e-02
         - -5.1218980271836183e-02
         - -5.2357462758340377e-02
         - -2.9567029841368764e-02
         - -3.8585630357938272e-02
         - 4.0278210495299879e-02
         - 1.9670995891047458e-03
         - -5.6864135565128978e-03
         - -3.9572309809262116e-02
         - -4.0072433557200226e-03
         - 5.6236547755021881e-03
         - -3.7745876767124348e-02
         - -1.7303347049402052e-02
         - 4.2523471094622185e-02
         - 7.6630884035170299e-03
         - -3.5019554089418134e-02
         - 2.4548113499493641e-02
         - -1.1041911739529895e-02
         - 1.1585967697068341e-02
         - 1.2390728993025837e-02
         - -2.8875760035772271e-02
         - 1.9944404234161099e-02
         - 2.7924453473976096e-02
         - -1.4652604132679143e-02
         - 1.6935691076951934e-02
         - -2.8308695694344493e-02
         - -2.6022044825517133e-03
         - -1.1354063055879320e-02
         - -1.9778966313692761e-02
         - -1.3130468528719857e-02
         - -4.9742901509497728e-03
         - 8.5524896636171837e-03
         - 3.8956636380293079e-03
         - 1.2352091017217145e-02
         - -7.6642647486303917e-03
         - -8.5691158073880830e-04
         - -3.0195014560462970e-03
         - -9.1395343194159498e-03
         - -2.8749674663624859e-03
         - 7.3628530378015873e-03
         - -4.1965497386718701e-03
         - 2.0611135283382202e-03
         - -1.4504177986542379e-03
         - 3.6790580368595218e-04
         - -6.9048062305331721e-04
         - 0.
         - -8.8949950518138520e-04
         - -9.9415844397523438e-04
         - -3.6991154627422349e-03
         - -4.7921399876293801e-03
         - 3.3996741837671656e-03
         - -8.7866524949303353e-03
         - -1.8317786487593113e-03
         - 6.0943302511154212e-03
         - -5.6085049113072270e-03
         - -4.2541813136670976e-03
         - 7.8370134688356529e-03
         - 1.9880132260227119e-02
         - 1.2473385845300318e-02
         - -1.3817560385107529e-02
         - 1.5455442944644087e-02
         - 1.1847856056479589e-03
         - -1.8571382514620458e-02
         - -1.5703752399225460e-02
         - -1.8876515407826144e-02
         - -1.0901229640921025e-02
         - -2.1349887391024207e-02
         - 2.1374715417557037e-02
         - 2.0133138847047077e-02
         - -2.4059254796308632e-02
         - 1.7322248093993381e-02
         - -2.9814174662866351e-02
         - -2.3489968255136669e-02
         - -3.2040729873661321e-02
         - -2.2997383529451787e-03
         - -1.8585982610410008e-02
         - -6.4917459176362961e-03
         - 1.8863251137988368e-02
         - 1.8513185356237402e-02
         - -2.6714287702640390e-02
         - -4.0822612102698858e-02
         - -3.0088952317245600e-02
         - -3.1690403577608189e-02
         - 2.6263797487551262e-02
         - -2.9227642796859535e-02
         - 3.7388890515819304e-04
         - 3.4765959166746574e-02
         - 3.3588073073152230e-02
         - 5.0496462330729602e-02
         - -4.8844577531081158e-02
         - 3.9155513715508593e-02
         - 1.6231290749569517e-03
         - -7.6213720631493662e-02
         - -4.4698320380970359e-02
         - -5.5628605716499767e-02
      -
         - -7.4443709982815257e-03
         - 1.7779111178798237e-02
         - 5.8810283513004288e-03
         - 1.7359187370001090e-02
         - 6.8903539438747328e-03
         - -8.3793982095382753e-03
         - -9.4014868938431810e-06
         - 1.7425876756068555e-03
         - 1.3891828031174183e-02
         - 9.3038543121908204e-03
         - 7.5407714360095192e-03
         - 1.3295012787042272e-02
         - 5.4293912271717280e-03
         - -1.3506527955091623e-02
         - 8.5991427462632844e-03
         - -1.1726431762267659e-02
         - -1.7424875370419479e-02
         - -1.8814593886363369e-02
         - -1.6959552991784161e-02
         - 4.0600276401076387e-03
         - 1.1654693180461098e-02
         - -6.0373149590781669e-03
         - 4.8973550133365427e-03
         - -1.8638831974791303e-03
         - 1.4091209460648750e-02
         - 1.0020723314668460e-02
         - -1.5298747963677418e-03
         - -1.5279700321052012e-02
         - 1.2456660769055468e-02
         - -1.0552317729211849e-02
         - 1.3578802158732131e-02
         - -6.7863356843983228e-03
         - 4.4690240356977514e-03
         - -1.9440908674264817e-03
         - -9.1572435302358819e-03
         - 3.4124530885465531e-03
         - 1.6757749824968540e-02
         - 4.1059050024597468e-03
         - 5.9810631886985759e-03
         - -5.7064019927041167e-03
         - 1.9187580830209678e-02
         - 3.7659775546846426e-03
         - 1.4534662664139081e-02
         - 1.5016719317987998e-02
         - 1.3526832659998603e-02
         - -9.2731771075376182e-03
         - -1.5773679417130335e-04
         - -1.8459344005665126e-04
         - -1.8625477891744367e-02
         - -1.4836337436361081e-02
         - -1.1919703282598072e-02
         - -1.7435446552751904e-02
         - 1.6402866639093013e-02
         - 1.6880513707244024e-02
         - -3.9616316280381902e-03
         - 4.0513206603398806e-03
         - 1.1413165684421760e-03
         - -1.1861575149574763e-02
         - -1.4421106324760078e-02
         - -9.1485675747312624e-03
         - 4.5269079210568429e-03
         - -1.3871832318406980e-02
         - 1.8576117075091596e-02
         - 1.9680317312012238e-02
         - 3.2654431140340828e-03
         - 1.4068327800560266e-02
         - -1.3124203217200344e-02
         - -1.8114401834152333e-02
         - -1.2513165566822845e-02
         - -4.6141852952347809e-03
         - 1.4593205696787678e-02
         - 1.5967221275184580e-02
         - 1.1305114945411893e-02
         - -1.7795057843265696e-02
         - -1.1792641251324176e-02
         - -3.9489381793148901e-03
         - -1.1894249977218045e-02
         - 1.2657196161785499e-02
         - 2.3120322387193194e-03
         - -2.0001966619979453e-02
         - 1.3259304428674119e-03
         - -3.3435360954830501e-03
         - -1.1826089325301862e-02
         - 5.9653946033942310e-03
         - -1.6861638086253600e-02
         - -1.3233152349513553e-02
         - 1.6971923855079441e-02
         - -1.8633995201163423e-02
         - -3.4588447199091965e-03
         - 2.1742671956448988e-02
         - 3.9316735335202333e-03
         - -1.3004409365085793e-02
         - 5.0739327277162143e-03
         - -6.0350628374652073e-03
         - 1.0809015756484918e-02
         - 1.7400257660588347e-02
         - -8.1113924099055264e-03
         - 1.3076815065833554e-02
         - -1.9861572433614440e-02
         - 9.3580195859683541e-03
         - 8.3090499775678056e-04
         - -1.9056708923330654e-02
         - -2.4949610048305133e-04
         - -1.5977638305202539e-02
         - 2.0455793322772318e-03
         - 1.2902199573302122e-02
         - 1.4601510822280757e-02
         - 1.4510955824234039e-02
         - 1.3605878865439720e-02
         - 1.9321283868081365e-03
         - -1.7099958327088872e-02
         - 1.1229090427303984e-02
         - -1.0303295500899434e-02
         - 2.4930830580918361e-03
         - -3.6573396127383546e-04
         - 1.9968179755697243e-02
         - 1.0781389639398948e-02
         - -4.3252560050482071e-03
         - -1.4947273471013925e-02
         - -4.6090304041053503e-04
         - -1.5706284940497413e-03
         - 2.1878728969274331e-02
         - 6.7196679359315826e-03
         - -1.7492770632568794e-02
         - 1.1121355585291252e-02
         - -2.6049546114637408e-03
         - 8.3586391619684172e-03
         - 1.6439932710346578e-02
         - 1.5852768567060450e-02
         - -6.0751423660501394e-03
         - 1.0974606462536047e-02
         - 9.7788860217770009e-03
         - -1.1074074345656760e-02
         - 1.0565888237364388e-02
         - -2.6592813543958181e-03
         - -6.5037599876328787e-03
         - -1.4165200582509169e-02
         - -4.2928728926931075e-03
         - 4.1493773313050408e-03
         - -3.0391276016407199e-03
         - -9.7024943290644177e-04
         - 1.3695491055028019e-02
         - 1.5750814750095106e-02
         - 1.5485808965876973e-04
         - -2.3958782769153814e-03
         - 1.7498171084357396e-02
         - 7.4402929805951349e-03
         - -8.7016449231363500e-03
         - -1.7016928403841544e-02
         - 1.9926063159165824e-02
         - 4.8656864331592196e-03
         - -6.0034679749489187e-03
         - 5.4538525205093547e-04
         - 4.6109507028631539e-03
         - -1.7389408785560057e-02
         - 1.9089067782062902e-02
         - -1.1102671310601647e-02
         - -5.5561148249853214e-03
         - -1.9264068737758749e-02
         - -1.2149133416155047e-02
         - 7.1747107612912496e-03
         - 3.3403901271074838e-03
         - 2.7904820847737067e-03
         - -1.0353891027751879e-02
         - -2.7129472653166405e-03
         - -1.6509023963770127e-03
         - -2.9492821249132656e-03
         - -1.9474153962339161e-02
         - -1.3791831131968205e-02
         - 6.8708073735442594e-03
         - -2.6324072369509916e-03
         - -1.8661950049383799e-02
         - -1.6672734124522585e-02
         - -1.2149586065245292e-02
         - 4.3872645940851007e-03
         - -7.7440876689450818e-03
         - 1.6692791122630130e-02
         - 1.4196870795338977e-03
         - -6.9759879664616697e-03
         - -1.5996741896806766e-02
         - 1.3087696134131169e-02
         - -1.4572471418779145e-02
         - -5.7229009699886558e-03
         - -1.7697022739018298e-02
         - -1.4303111734271361e-02
         - 5.2954275943438373e-03
         - 1.0032878553425557e-02
         - 1.8516796581752128e-02
         - 4.7882864209608592e-03
         - 8.3158156140819145e-03
         - 7.9315505905187440e-03
         - 1.6765972348694549e-02
         - -1.1500652458985074e-02
         - -4.6573168164605978e-03
         - -4.8789472171382542e-04
         - 4.5432207444132504e-03
         - -1.2419738983443626e-02
         - 7.0117112494965791e-03
         - 9.6074478430640108e-03
         - -1.5737893772659342e-02
         - 1.8757434890486792e-02
         - -2.4090495737649955e-03
         - 7.6363825824257462e-03
         - -6.0805789755455763e-03
         - 8.8227400986203450e-05
         - 9.6714907570904559e-03
         - -1.3933787023425535e-02
         - 1.7678301977890499e-03
         - 1.2887481771648574e-02
         - -2.2984443353699416e-03
         - -1.5403751366546365e-02
         - -1.6037188680213708e-03
         - 8.4711207987423626e-03
         - -2.0421232708526965e-03
         - 1.1313600972280666e-02
         - -3.4605248297302862e-03
         - 1.0045042901436664e-02
         - -3.2939269200096743e-03
         - 1.1966626897673811e-02
         - -4.6861953753210197e-03
         - -4.4588842957462866e-03
         - 3.3798549061018197e-03
         - -1.0038405074304249e-02
         - -1.4158620778086176e-02
         - 1.2487295720822056e-02
         - -1.2156305635786393e-02
         - -2.8644456904748723e-03
         - 2.6217933440431879e-03
         - 1.7839902973540551e-02
         - 1.0984564773983626e-02
         - 1.5246786078131638e-02
         - -1.0202634396718348e-02
         - -1.4236309338113477e-02
         - 2.0627065584083067e-02
         - -6.4481120074425002e-04
         - 1.1197282448726007e-02
         - 1.2398918958560578e-02
         - -1.2894857376362248e-02
         - -1.5913953260564811e-02
         - -9.4196347345697415e-03
         - -2.0856309341892431e-02
         - -1.5174640953289516e-02
         - -3.0985053429209023e-03
         - -1.2911775978610021e-02
         - 9.2316608372595213e-03
         - 1.8312076771028224e-02
         - 1.7125396108829370e-02
         - 1.5769338832381886e-02
         - 1.1200192680409062e-02
         - -9.3973738408957546e-03
         - 1.6982194978726925e-02
         - -9.3056549767823651e-03
         - -1.6143931499330286e-02
         - 3.9237101609216965e-03
         - -1.7412633480466760e-02
         - -1.2976071217413798e-02
         - -1.9437300931883380e-03
         - -1.3598874482881562e-02
         - -2.0678012726964970e-02
         - 9.9467722904191449e-03
         - -1.6640102161376239e-02
         - -1.7600098440945466e-02
         - 1.4245248010404965e-02
         - -9.6647778972346540e-03
         - -1.1126717080374354e-02
         - 1.8490524630223906e-02
         - 3.8892035280181868e-03
         - -1.3962154533918504e-02
         - 1.6077104729469192e-02
         - 1.0758072978051800e-02
         - 1.0445058676287597e-02
         - -1.9233378248518274e-02
         - -1.3219371098131674e-02
         - 9.1688674359621334e-03
         - 1.5641868073115173e-02
         - -5.6614663483117765e-03
         - 1.3652301346428043e-02
         - 1.5667131438483830e-02
         - -5.5181789103599093e-03
         - -1.7844880546827709e-02
         - -1.1101743447844989e-02
         - 1.2431489345683038e-02
         - 2.0300750821693154e-02
         - -9.8879881765548232e-03
         - -1.5253182676860088e-02
         - -9.3941823771038629e-03
         - 1.2447555236704886e-02
         - 8.3489302731704369e-03
         - -2.0706815104820413e-02
         - 4.8234745832040531e-03
         - 1.5025258196619084e-02
         - -1.6449395440716580e-02
         - -1.2783565763817671e-02
         - 4.3852882882134403e-03
         - 1.6970442040210459e-02
         - 1.0596451875085596e-02
         - -1.4997145066468553e-02
         - -1.3264721247684432e-02
         - 2.0258842407577683e-02
         - -1.3191626949658634e-02
         - 2.1458818252339689e-03
         - -1.2972041838369390e-02
         - -1.0930881836391279e-02
         - 2.5855916418187829e-03
         - -1.7158378680229687e-02
         - 7.3582610499557926e-03
         - 1.2434275275497552e-02
         - -1.6978430416514697e-02
         - -1.2118272906590977e-02
         - -1.4712072831798220e-02
         - 1.7391926444859391e-02
         - 1.4753597620252126e-02
         - 9.4472308482424720e-03
         - 1.0438791278644825e-02
         - 1.0901765885685520e-02
         - 1.0034053639051784e-04
         - -7.8004881286716158e-04
         - -4.1253507096531842e-03
         - -1.3207682094195115e-02
         - 4.6610226106462834e-03
         - -1.4307312707160021e-02
         - -1.0815872692683541e-02
         - 1.4597018001455981e-02
         - -9.4581571181326894e-03
         - 3.3199222867539633e-03
         - 2.6802984032751735e-03
         - -4.1259501293539743e-03
         - 5.4884839592141627e-03
         - -1.1572202525103426e-02
         - 5.4228539724942605e-03
         - 5.4655860502899160e-03
         - 2.0120234852642445e-03
         - 1.0472516051159467e-02
         - -3.6796605771290030e-03
         - -1.1958206133502326e-02
         - 1.3210995493047840e-02
         - -7.5078430926479962e-03
         - 1.8289664783694440e-02
         - 1.7314339339681704e-02
         - -1.5915441416523457e-02
         - 1.4256689564792788e-02
         - -8.5168083178493326e-03
         - -8.8150847107778263e-03
         - -1.1975139192553278e-02
         - 1.0743159995693476e-02
         - -1.5637851654756764e-02
         - -1.0120220200992753e-02
         - 4.7635919994508712e-03
         - -2.1671685952337118e-03
         - 5.3837634332941364e-03
         - 3.2084842285656041e-03
         - 1.4437224925276083e-02
         - -2.8345014821110743e-03
         - -1.5533257303334524e-02
         - 1.7125887118043952e-02
         - -1.8574590619345313e-02
         - 1.1849120708039737e-02
         - -1.4631236971998751e-02
         - -8.4743235431150223e-03
         - -1.2975878193364376e-02
         - -1.5610281575163037e-03
         - 1.5131039791418985e-02
         - -1.1831511866724180e-02
         - -8.5592458398261045e-03
         - 1.0131742173437569e-02
         - 4.9542698214415342e-04
         - 1.2880354103657581e-02
         - -6.9013367303563614e-03
         - -6.7308027349536883e-03
         - -1.8569659246618887e-02
         - 1.2379569783368858e-02
         - 6.0890830601714706e-03
         - -1.0449629985480808e-02
         - 5.7707394289551748e-03
         - -1.5178464050255311e-02
         - -1.4297588119307888e-02
         - 3.1568939459060029e-03
         - -7.4449177607755915e-03
         - 3.6641082407525474e-03
         - -1.7912554160916458e-02
         - 1.9393591829039134e-02
         - 1.8326526558251094e-02
         - -1.0787294521356336e-02
         - -1.1950727775949707e-02
         - -8.9085829301009944e-03
         - -1.5145814357678875e-02
         - 1.0242171105908346e-02
         - 8.8241560415664236e-03
         - 1.0694341132463030e-02
         - -1.1838301595033253e-02
         - 1.4162653750282439e-02
         - -6.4659809218916425e-03
         - 1.4886392541695081e-02
         - -7.8360683477868166e-03
         - 1.8246094707595761e-02
         - 2.6996587229426313e-03
         - -1.3936161654041586e-02
         - 1.3010397261296332e-02
         - -2.0000480563940815e-02
         - 1.6056582218440998e-02
         - -8.0909676007748406e-03
         - 1.5421387819714116e-02
         - 1.1835629157402279e-02
         - 4.4248051829354441e-03
         - 4.2434101436326194e-04
         - -1.6260255768755475e-04
         - -1.9605962372040178e-02
         - -9.7822768091860544e-03
         - 9.6477444772067270e-03
         - -9.1473469094117063e-03
         - -9.8454145573120214e-03
         - 1.5414995629422779e-02
         - 1.4990173144534095e-02
         - 4.2493933101024201e-03
         - 9.1011529443129377e-04
         - -1.9179550090691069e-02
         - -1.7385755900338265e-02
         - 1.4675522141820403e-02
         - -8.0973000992209058e-03
         - 2.2840533135382885e-03
         - -1.8265576882964228e-02
         - -1.4129241521889536e-03
         - 1.2368584687410224e-02
         - 1.5208158454287163e-02
         - 1.4088560164020156e-03
         - 7.5970078583450108e-03
         - -1.3364724509929893e-02
         - -8.6521289217408384e-03
         - -1.9186678435581573e-02
         - -1.7568556408022649e-02
         - 1.2028877737332116e-02
         - -1.3360185157406725e-02
         - 1.4524000697079412e-02
         - -2.3545754189341263e-03
         - 1.4272583392356745e-03
         - -1.2584729732089647e-02
         - 5.5570844914603398e-03
         - 1.5344407056841433e-02
         - -1.4512908180612740e-02
         - 5.9053063069689389e-03
         - 1.2094312688086997e-02
         - -1.6676100026736706e-02
         - 2.0302350505009593e-02
         - -8.7436685927795611e-03
         - 1.5014864617774119e-02
         - -1.0734585783280863e-02
         - 3.5656149396073979e-03
         - 6.6633999167133549e-03
         - -1.3220371821723673e-02
         - -1.5241932960356039e-02
         - -1.7678387279779023e-02
         - 2.9945613359126434e-03
         - -2.7473735932221201e-04
         - 1.2478941776072994e-02
         - -1.0213821407661847e-02
         - 7.1466965107235521e-03
         - -1.8951811038763217e-02
         - -1.3653173090305989e-02
         - -7.9008576099433899e-03
         - 1.7935793012249790e-02
         - 1.7829016242795436e-03
         - 5.2748524787896061e-03
         - 9.8432661045690598e-03
         - 1.4736954393387108e-02
         - -1.8542306043134575e-03
         - -4.5561782917725221e-03
         - 1.4364230921647909e-02
         - -1.0888660551454630e-02
         - -1.2383281909823943e-02
         - -1.8248638284754034e-02
         - -3.9199996221919954e-03
         - -2.8845215972599261e-03
         - 6.0812660336066211e-03
         - 5.8678495522251082e-03
         - 1.4602033151667519e-02
         - -1.6587017821644165e-02
         - -2.4219618536299808e-03
         - 1.6533746863034274e-02
         - -1.8075225139996608e-02
         - 1.2576629876780409e-02
         - 1.6709960064353675e-02
         - 5.4011123770567031e-03
         - -5.9346749884050653e-03
         - -5.8811833049142769e-03
         - -1.2325345903580346e-02
         - -1.0681156485481487e-02
         - -1.8209284243218365e-02
         - 1.7176093295625097e-02
         - 2.2921044502692656e-02
         - -2.0481446438127521e-02
         - 3.6676835339925144e-03
         - -1.3058233928839215e-02
         - 2.7915205637640641e-03
         - 7.4892230291189604e-03
         - 1.3285141142062164e-03
         - 2.9875290159486301e-03
         - 7.4434120851512211e-03
         - -1.4634691906206901e-02
         - -1.1193099660610833e-02
         - -9.7966587026683746e-03
         - 7.8362808813372056e-03
         - 1.7991199732651300e-02
         - -1.5045621890860898e-02
         - -1.4408306053054418e-02
         - 1.3660605682339450e-02
         - 6.4482930222022755e-04
         - -1.9674842167609622e-02
         - -1.2440582796756359e-02
         - 4.1045455522224191e-03
         - 2.4175748695081127e-03
         - 8.6323007070094326e-03
         - 4.2596996630089113e-03
         - 1.6579823588027058e-02
         - -1.8094919298219316e-03
         - -2.1026776042056772e-02
         - 9.3669711590057478e-03
         - 1.6853157529718277e-02
         - -8.4630210007950128e-03
         - 5.2553233554189175e-03
         - -5.0226326783217624e-03
         - 2.0217871570701231e-02
         - -1.0090605905867828e-02
         - -9.9417768445478720e-03
         - -1.2789897891633099e-02
         - 4.5719505695662865e-03
         - -1.0521946543323212e-02
         - -7.0891850121592983e-03
         - 4.0874325048488123e-03
         - -1.8878462018445306e-02
         - 5.5617174638210179e-03
         - -1.8512882349998414e-02
         - -4.5879888291061963e-03
         - -6.2913550738837249e-04
         - -1.6043172471022132e-02
         - 1.3097058986206923e-02
         - -5.8646642183674694e-03
         - -1.5324269606465320e-02
         - -5.2201652837739233e-03
         - -1.8928155417804977e-02
         - 7.1324856954764707e-03
         - -1.3982002368696291e-02
         - -1.0978884179254238e-02
         - -1.2185093482531282e-02
         - 8.6091014570641756e-03
         - -1.2965170413738370e-02
         - 2.5553866819756294e-03
         - 7.4393854298228420e-03
         - -7.3899386218401969e-03
         - -1.3128859919689562e-02
         - -1.7367937154776296e-02
         - 8.8809680875257552e-03
         - -1.2318456686234986e-02
         - -1.9092170387634260e-02
         - -1.3571327254435540e-02
         - -1.0611607589544714e-02
         - 1.5071438681000688e-02
         - -9.7603861063157496e-04
         - 1.1022543826545573e-02
         - -1.6308736509361859e-02
         - 8.4895639466961645e-03
         - 2.1844406713367169e-03
         - 1.7017734568853755e-02
         - 4.7005244240915850e-03
         - -3.3942584425163619e-03
         - 4.7752023331413930e-03
         - 1.9334090587442843e-02
         - 1.5452537585680375e-02
         - -3.9783039558257943e-03
         - 7.1893180162149167e-03
         - 3.0442992293682435e-03
         - -3.4390861593262406e-03
         - -7.8345335588560026e-03
         - 1.2605736789588672e-02
         - 7.9693737066436291e-03
         - -1.5986220348908863e-02
         - -2.8436979825587905e-03
         - -3.6460797011100910e-03
         - 1.9360703215513357e-02
         - 1.3788518038226843e-02
         - 1.2637219287001476e-02
         - 1.2644001785118850e-02
         - 1.3223856334232358e-02
         - -1.3196000006707950e-02
         - -7.1787078928925233e-03
         - -3.6761783916593399e-03
         - -1.4225884115784593e-02
         - -1.2069480536545852e-02
         - -1.5638018829600982e-02
         - -7.3219945561616836e-03
         - -2.9874368437129094e-03
         - -9.9947076346564752e-03
         - -4.6403817289667375e-03
         - -1.1090442711619625e-02
         - -1.9232920325499531e-02
         - -7.5956006320290950e-03
         - 9.7474052544892636e-03
         - -1.4542558613539347e-02
         - 5.5046014617811251e-03
         - -1.2414007229045433e-02
         - 1.1525108889376938e-02
         - 1.5175986429701813e-02
         - 2.0614669759087486e-02
         - 1.2410174359053640e-02
         - 3.1920516739228273e-03
         - -7.8203809690211845e-03
         - -1.6912200312471565e-02
         - -2.9955196904622576e-03
         - 1.9934937447832544e-03
         - 1.6847880372428462e-02
         - -6.9782962076464956e-03
         - -9.4280915594835042e-03
         - -4.2789344214059282e-03
         - -1.4793418605813307e-02
         - 2.6895266802896205e-03
         - -1.9261601353008757e-02
         - -8.4276677136854126e-03
         - 6.2063705121871773e-03
         - -8.6271810994504334e-03
         - -8.7485102797225361e-03
         - -1.4944991336458583e-02
         - -1.3003264468309256e-03
         - -3.5742700261374065e-03
         - -8.4579084141475774e-03
         - 8.5542498139273108e-03
         - -9.5334972148900833e-03
         - 3.8962132733761099e-03
         - 1.0279655451113834e-02
         - -2.7061414044572039e-03
         - -9.3643660084946848e-03
         - 7.8993528734844221e-03
         - 9.8737349686585183e-03
         - 2.8947457997733628e-03
         - -4.2430094872675690e-03
         - -5.3018673857344678e-03
         - -1.6115427096326802e-02
         - 1.7501923541468407e-02
         - -2.0832340112897732e-03
         - 9.3722753774503290e-03
         - 3.8404915124465046e-03
         - 1.6442777725987363e-02
         - -2.9448339527642893e-03
         - 1.8348404164856946e-02
         - -6.3567727017571690e-03
