%YAML:1.0
---
opencv_ml_ann_mlp:
   format: 3
   layer_sizes: [ 21, 100, 100, 1 ]
   activation_function: IDENTITY
   min_val: 0.
   max_val: 0.
   min_val1: 0.
   max_val1: 0.
   training_params:
      train_method: RPROP
      dw0: 1.0000000000000000e-02
      dw_plus: 1.2000000000000000e+00
      dw_minus: 5.0000000000000000e-01
      dw_min: 1.0000000000000001e-01
      dw_max: 50.
      term_criteria:
         iterations: 300
   input_scale:
      - 9.6822038743837824e-01
      - -5.0405551615789107e-02
      - 9.4223459517134001e-01
      - -2.2349804533510209e-01
      - 8.0192077442589405e-01
      - -5.1476898221840284e-01
      - 7.0186828607896079e-01
      - -7.7524159717566721e-01
      - 5.8457773609199670e-01
      - -7.7315082458629070e-01
      - 5.4945582419477701e-01
      - -1.1405274276415855e+00
      - 4.7017710315359473e-01
      - -1.2619459412208056e+00
      - 5.5373505569042458e-01
      - -1.4718720813895172e+00
      - 5.9663099477763470e-01
      - -1.6608536344130918e+00
      - 6.9649648843471268e-01
      - -2.1248714890577278e+00
      - 6.2020204570039150e-01
      - -2.0022354796116946e+00
      - 6.5378721143068674e-01
      - -1.9303851984972638e+00
      - 5.9100679197746309e-01
      - -1.5608725802482262e+00
      - 5.5617712611072656e-01
      - -1.4552040837474667e+00
      - 4.8454742915676130e-01
      - -1.2242090772211998e+00
      - 5.5441689270715744e-01
      - -1.0967142282530520e+00
      - 6.1184824017981843e-01
      - -8.3136715176035270e-01
      - 7.0159595087869531e-01
      - -6.3014541964381543e-01
      - 8.4452767596089895e-01
      - -4.8178614716365525e-01
      - 9.1158600824214986e-01
      - -3.0942875597013952e-01
      - 1.0027004181191814e+00
      - 5.5329008152621470e-02
   output_scale:
      - 1.
      - 0.
   inv_output_scale:
      - 1.
      - 0.
   weights:
      -
         - -3.3589715017784150e-01
         - -2.7981585131982367e-01
         - -9.2429846036096730e-01
         - 2.7346733333501316e-01
         - -1.7843257856221051e-01
         - 3.1141811257888924e-02
         - 4.8264114328922247e-03
         - 4.2440221279370316e-01
         - 7.1772022121373791e-02
         - -1.5397016756071663e-02
         - 6.5212570712216411e-01
         - -1.0924403159147800e-01
         - -3.6899232666385851e-01
         - 2.5640029937124897e-01
         - 2.1671661737499717e-01
         - -2.2364026846867910e-01
         - 1.4834374662756389e-02
         - -2.8936712279687887e-02
         - -4.4749111863851199e-01
         - 2.5738856657712733e-01
         - -5.0151023267934358e-01
         - -4.5094146212516040e-01
         - -3.3664063222932639e-03
         - 3.9237305565943370e-01
         - 1.1250647452059168e-01
         - -1.0591896014245167e-01
         - 3.3371653267012669e-01
         - -5.0671291916510530e-01
         - 1.0622365988824864e+00
         - 4.8543288372843352e-01
         - 1.3470409925207316e-02
         - -6.2290129990538212e-01
         - -2.7646776525701799e-01
         - 3.2951087932266893e-02
         - -4.0482640524118130e-01
         - 1.7623174539272748e-01
         - -9.0381495076577667e-02
         - 2.4930722498445132e-01
         - -5.1278638313528868e-01
         - -3.6057120493559636e-01
         - 9.1980340950813921e-01
         - -3.6105640524396421e-01
         - 2.4606550919325912e-01
         - 8.3728326600734704e-02
         - -1.7611845962571684e-01
         - -2.4243826008894812e-01
         - -5.2294769776746769e-02
         - 5.8450011304438332e-01
         - 1.8516263424201707e-01
         - 9.6038658790353532e-02
         - 2.6951691122469590e-01
         - 2.3043639773115068e-01
         - -9.6087157804114531e-02
         - 5.2457774201769991e-01
         - 2.1695058721819943e-01
         - -4.8758329071522899e-01
         - -3.3330501018320807e-01
         - 2.0233175188533625e-01
         - 1.8314687006613597e-01
         - 1.5719993772959803e-01
         - -1.5125706740452791e-01
         - -4.8273877995506365e-01
         - -3.2805364346383403e-01
         - -2.1201286746335224e-01
         - 4.0906153107084786e-01
         - 4.3163851998851727e-02
         - 1.0377388227789639e+00
         - 7.5026195188814565e-02
         - -2.4753835236736102e-01
         - 1.8564435722745493e-02
         - 1.8036343694082016e-01
         - -2.7292858954586469e-01
         - -1.4684499041963023e-01
         - -2.5079908341945722e-01
         - -1.5304858435404661e-02
         - -2.0636104056021506e-01
         - 6.0161173254888956e-02
         - 2.3952854566200335e-01
         - -2.4075409222776023e-01
         - -1.7586512646740757e-01
         - -1.3509058706063584e-01
         - 7.9674209570880394e-01
         - -1.1586957224160041e-01
         - 1.4579339833225913e-01
         - -6.7793502162950703e-01
         - -4.1773340776630874e-01
         - 3.7350888460167897e-01
         - -1.0700938376027336e-01
         - 9.0698992625055874e-01
         - 2.7064235956299643e-01
         - -3.5109275197006407e-01
         - -1.1707445637596611e-01
         - 2.0113213639270697e-01
         - -5.8904203498075658e-01
         - 1.8826696007335769e-01
         - -2.9126175680373800e-01
         - 5.2983669321788951e-01
         - -1.8138079727309600e-01
         - 2.7820522178487661e-01
         - -7.0982199457798123e-01
         - 2.7400754126430582e-01
         - -4.3252370357465497e-01
         - 3.7992243742563658e-01
         - -3.1066271265701173e-01
         - 8.0405708018577021e-02
         - 6.3851552387407806e-01
         - 2.2989516279564581e-01
         - 1.3675154405213399e-01
         - -3.4282641591488749e-02
         - 1.9208369603572398e-01
         - -5.3965146900648120e-01
         - 1.4161407951213503e-01
         - 2.5787322396755463e-01
         - 2.3225437143604336e-01
         - -1.7421249661390040e-01
         - -1.2377427717654543e-02
         - 4.8261823211094207e-02
         - 3.6207983812595462e-02
         - -4.0116039586632984e-02
         - -2.9062574163701588e-01
         - 3.5409357655455598e-01
         - -1.0942707525240894e-01
         - 8.9642605649450285e-02
         - 2.5936281750435120e-01
         - -1.1246580843611506e-01
         - 2.4950969668741338e-01
         - -2.2242995580255440e-01
         - 2.1099899957409129e-03
         - -4.9474037751043209e-01
         - -3.7411919393915427e-01
         - 5.0092028484382906e-02
         - 8.2233523246571488e-02
         - 3.9643912249175106e-01
         - -2.3335533247064114e-01
         - 3.7126608113259940e-01
         - 4.8963459419526373e-02
         - 3.3436541493905458e-02
         - -2.7146233700893230e-01
         - 5.2521867393778288e-01
         - 2.0380551772734554e-01
         - -2.8718160406498661e-01
         - 4.0279156976299746e-01
         - -1.9484707752623512e-01
         - -1.2454540592329108e-01
         - 1.7315626916054133e-01
         - 1.5881639857575860e-01
         - -1.7262012027859097e-03
         - 2.5025876180651357e-02
         - 4.4205652371116111e-01
         - -2.0108851800461666e-01
         - -9.1749738381600859e-02
         - -2.2571766086346004e-01
         - -5.9330682403293866e-01
         - 1.7705105345610483e-02
         - 3.8983495360756248e-01
         - 3.2602093939636245e-01
         - 2.9932656482644615e-01
         - -3.2619401805134629e-01
         - -9.7127491765967133e-02
         - -1.4900940989027289e-01
         - 1.4858054816119870e-01
         - 4.7952471714973499e-01
         - -2.6061640005534126e-01
         - -3.3330651852107973e-01
         - 2.9665093446297641e-01
         - 1.5121957096761948e-01
         - -3.8119221970581230e-01
         - -4.8802067551756839e-02
         - 2.5814891118842753e-01
         - -5.2735017362088771e-02
         - -1.0794179719988395e-01
         - -4.5545122495004442e-01
         - 9.2912439694937510e-02
         - 2.3973432736366021e-01
         - -5.8451241326822861e-02
         - -1.6895106786201630e-01
         - 2.9102958138492219e-01
         - -1.3101907417489564e-01
         - -1.8157158970161483e-01
         - -3.0307175711245049e-01
         - -1.5085167050611803e-02
         - -1.7293847672989354e-01
         - 1.8690489188333934e-01
         - -8.1202039593017944e-02
         - 2.0260988905608321e-01
         - 4.4694099828628864e-01
         - 2.0519624405034129e-01
         - -4.9820686795600644e-01
         - -2.0477471416173618e-01
         - 1.9481055311477125e-01
         - 1.7490953971948783e-01
         - -4.8328765553082254e-01
         - -1.4802013878065184e-01
         - 4.1316265729720725e-01
         - -1.3473275106563226e-01
         - -2.4941555327774817e-01
         - -8.7932556048004318e-02
         - 3.9020847032592054e-01
         - -2.6293182902462964e-01
         - 2.7947826431049894e-01
         - 2.1556894955350203e-01
         - -3.2255247169527312e-01
         - 2.6989611403680913e-01
         - -2.1657191865678121e-01
         - 5.3747880071359971e-02
         - 5.2746171139624531e-01
         - 2.0022844450244773e-01
         - 8.8796698836406757e-02
         - 7.7366047756425832e-02
         - 1.6881415075214992e-01
         - -6.6424122092837712e-01
         - 1.6501319994197608e-01
         - 2.9016813575496514e-01
         - 3.5489470894700703e-01
         - -1.5022672248261684e-01
         - 4.9689385866505925e-02
         - 7.2671963831395986e-02
         - 5.9671717325694401e-02
         - -1.1977561923662575e-01
         - -3.1087123505611947e-01
         - 4.6355468625823959e-01
         - -1.6080022777531380e-01
         - 2.9215065015682079e-02
         - 3.9393395412882348e-01
         - -1.7656021685464407e-01
         - 2.0678583336541909e-01
         - -2.8230055710817736e-01
         - 1.0177283920218128e-01
         - -4.4896917474101017e-01
         - -4.9229465428887553e-01
         - 6.7523228649634698e-02
         - 5.9711217491344615e-02
         - 4.2639405235387895e-01
         - -1.6859797313260375e-01
         - 4.4988904848848832e-01
         - -9.4247916453913949e-02
         - 1.3024208809236409e-01
         - -1.6462984045020310e-01
         - 5.1949364935932418e-01
         - 2.8159960169119869e-01
         - -2.4756661550771922e-01
         - 3.6472567998222361e-01
         - -2.7129773228626453e-01
         - -9.0510535645869916e-03
         - 1.2994640306320843e-01
         - 1.8007678469151669e-01
         - 1.0198407346112315e-01
         - -7.0706239173629892e-03
         - 4.5338731736632554e-01
         - -2.9059018396306668e-01
         - -1.8743780720290823e-01
         - -1.6268848184965537e-01
         - -6.1758157851691753e-01
         - -9.2844748475783723e-02
         - 5.5117967825495706e-01
         - 4.1735009338827156e-01
         - 3.8618687556819753e-01
         - -2.1689285178319839e-01
         - 5.2270928399539257e-02
         - -2.0921705253982811e-01
         - 2.6754251709935645e-02
         - 4.3712462763683979e-01
         - -1.9317124063371158e-01
         - -4.0100511641232373e-01
         - 3.8672617819196198e-01
         - 1.3879391846189076e-01
         - -3.8259084657948406e-01
         - -1.3792973866499680e-01
         - 3.7126121335252349e-01
         - 3.2834355723733250e-02
         - -2.9543868243413873e-02
         - -4.1360349932144869e-01
         - 4.2904573330934725e-02
         - 2.6709782267645510e-01
         - -1.9982099767868577e-02
         - -2.3004910239914422e-01
         - 2.0919596452689251e-01
         - -1.3136836262342830e-01
         - -2.7963300794317131e-01
         - -3.1338343145687086e-01
         - 6.9272912160730338e-02
         - -3.0375900594837069e-01
         - 2.7333178818812487e-01
         - 2.3847256054317839e-02
         - 2.5935201933494212e-01
         - 5.0621631997375338e-01
         - 2.8021375608854554e-01
         - -4.8067801387795106e-01
         - -3.6612003839922269e-01
         - 3.0875085247743494e-01
         - 1.5981656871848168e-01
         - -4.7724249613451775e-01
         - -2.3996066164562266e-01
         - 3.4686949174157117e-01
         - -1.7617607115941442e-01
         - -1.5098097801331636e-01
         - -1.5327777955745300e-01
         - 4.1559191058779077e-01
         - -2.0816202562132169e-01
         - 2.1839415507365909e-01
         - 2.0109750665507886e-01
         - 2.1052993944323359e-01
         - 1.8763765701924298e-01
         - -2.6626849250505125e-01
         - -3.7705248100688116e-01
         - -1.2625102602583871e-02
         - 2.6921616997054243e-01
         - -3.8728603720531674e-01
         - 7.4786301135874894e-02
         - 1.0400873870124119e-01
         - -5.1512098784773780e-02
         - 2.3129405253208382e-01
         - -2.7282170214018742e-01
         - -2.0996985087340600e-01
         - 3.3512585711267806e-01
         - 1.4631594336948073e-01
         - 1.1026266550193534e-01
         - 6.6752810935259838e-02
         - -8.2246446939167800e-02
         - -3.1648020878516114e-01
         - 4.3933266514136959e-01
         - -1.6933927568963184e-01
         - 6.1068944112976919e-04
         - -1.5926138059853079e-01
         - 4.3819318364604143e-01
         - 2.6910138277826123e-01
         - 2.5619890919668309e-01
         - 1.9528367347323050e-02
         - -4.4684251863073909e-01
         - 2.8426472852312556e-01
         - 1.2344390725116064e-01
         - 2.6639111444171659e-01
         - -6.5597372117799091e-02
         - -2.1096914113154255e-01
         - -5.4797766747350013e-02
         - 2.0423506981014361e-02
         - 1.4609197299027343e-01
         - -1.6968524104068569e-01
         - -1.4982628921658830e-02
         - -1.6818693219524095e-01
         - 1.5477766765880838e-01
         - 2.9791352911072833e-01
         - -2.4548658168700391e-01
         - -1.4965949861162814e-01
         - 1.0447789937700075e-01
         - -3.1284058096869272e-01
         - 1.1483538713020103e-02
         - 1.1975311954217913e-01
         - -1.2871763894894486e-01
         - -1.3285241577572071e-01
         - -9.0475865095982072e-02
         - 3.6552290902691020e-01
         - -2.2094540656522110e-02
         - -1.0175421281318209e-01
         - -1.0582060343354588e-01
         - 3.8783226676591998e-01
         - -1.4686857627264976e-01
         - -2.5814262339451310e-01
         - -5.8836335457917138e-02
         - -2.3848717511513054e-01
         - 8.1219344108828528e-03
         - -2.6634035561994784e-01
         - -1.3720549438689555e-01
         - -3.1236752574732585e-01
         - -1.7088669600828221e-01
         - 1.3362075416211178e-01
         - -4.2654294488221478e-01
         - 2.9762494937466133e-03
         - 2.7848079003938919e-01
         - 1.8584497258262500e-02
         - -3.7538130266021708e-02
         - 1.7586201410283647e-01
         - 2.9119317947834900e-02
         - 2.6390129592375206e-01
         - 6.2131479166786491e-02
         - 2.7078600919783546e-01
         - -1.6681247131430108e-01
         - -1.2691483918510235e-01
         - -2.7998140713253777e-01
         - 3.2125920937472763e-01
         - 8.3315440913957928e-02
         - -1.7383238596914746e-01
         - 1.4267713762414524e-01
         - -2.6149854893952273e-02
         - 2.2466122807559583e-01
         - -2.4828086205558444e-01
         - 3.1619182837598503e-01
         - 3.4251056137030611e-02
         - -2.5994857684072520e-01
         - -2.4387362601073806e-01
         - -1.7781585399575936e-01
         - 1.2933691849324691e-02
         - -2.5875351601833152e-01
         - -1.5668311105992005e-01
         - -2.4354868134815671e-01
         - -2.5091180177007560e-01
         - -7.4068541092128792e-04
         - 1.9956295851525077e-01
         - -1.4003850190372008e-01
         - 2.5563974988705873e-01
         - 2.0913840274542050e-01
         - 2.1665974823072651e-01
         - 2.9893579637670536e-01
         - -2.6308268639453414e-01
         - -4.8879210716692822e-01
         - -4.9852279744507760e-02
         - 2.1514248491311327e-01
         - -2.7014590101713121e-01
         - 8.8403170552436378e-02
         - 2.0256828251526129e-01
         - -7.1490021111157293e-02
         - 1.7511086550967195e-01
         - -2.4965459431220852e-01
         - -2.3960353627768946e-01
         - 3.6815952918261896e-01
         - 1.6391533496650354e-01
         - -2.1042104514874760e-02
         - 1.0548746208102477e-03
         - -9.6198164992010032e-02
         - -1.5595266278389749e-01
         - 4.6685753019385989e-01
         - -1.0806263153426457e-01
         - -1.9729942475594120e-02
         - -1.8720743170364584e-01
         - 5.2557616887481051e-01
         - 1.9990474600572436e-01
         - 1.5568403295297181e-01
         - 2.2577929280741038e-02
         - -4.9474615156058843e-01
         - 1.6763757399100462e-01
         - -3.3077687165907671e-02
         - 2.5239008704686294e-01
         - -1.0441361804037963e-01
         - -3.9697076213427773e-02
         - -9.0850299849093152e-03
         - -1.4778111383770881e-01
         - 7.0296915203427290e-02
         - -3.0454147528890463e-01
         - -8.1753563066136098e-02
         - -1.4153139484014821e-01
         - 2.6933872388748903e-01
         - 2.5440345093618377e-01
         - -2.9541241022625886e-01
         - -8.2315789571542064e-02
         - 1.1430352763860765e-01
         - -2.5332625164799860e-01
         - 1.0179236667318911e-01
         - 1.5312311485535335e-01
         - -1.2089528684248554e-01
         - -1.1592212231967883e-01
         - -2.2418002325464897e-02
         - 3.3756639216697348e-01
         - 3.5300219713100905e-02
         - -4.6441154371537507e-02
         - -1.4873502407627354e-01
         - 3.3258944712333627e-01
         - -1.6740051776103468e-01
         - -2.5124544632034052e-01
         - 3.6468398144237163e-02
         - -2.2746513906360352e-01
         - -3.3906640194677568e-02
         - -2.7249801115534367e-01
         - -1.7198614001053367e-01
         - -3.7425161897866033e-01
         - -2.2144912593669464e-01
         - 2.0196256399372856e-01
         - -4.0214233439316471e-01
         - -3.2268512824778217e-03
         - 3.0293632506780277e-01
         - -3.8802432805174397e-02
         - -9.3995142701328194e-02
         - 2.6578460750458011e-01
         - 7.0683074073769808e-02
         - 1.6935509749259020e-01
         - -4.2045859615831571e-03
         - 3.0548655612249298e-01
         - -3.1981713444396681e-02
         - -1.8509044098526603e-01
         - -2.5586249165187919e-01
         - 3.2327319841825153e-01
         - 1.2648264283591004e-02
         - -2.2831659499648621e-01
         - 2.4347635864584052e-01
         - -8.2820853083182516e-02
         - 2.8333513778312014e-01
         - -1.1681064341030520e-01
         - 2.4858187010322791e-01
         - 2.2220833694396425e-02
         - -2.4180676942862150e-01
         - -3.1377266929968461e-01
         - -1.8845339746712850e-01
         - 2.1129433010024790e-02
         - -1.9321393825651564e-01
         - -7.6819835132634323e-02
         - -2.5856624888473806e-01
         - -2.4697905094607503e-01
         - -1.2427450933177003e-01
         - 3.4732612174291944e-01
         - -1.0389304419429024e-01
         - 2.3196637184152488e-01
         - 2.2773395639543093e-01
         - 2.0970503339955879e-01
         - 3.1629184230967294e-01
         - -2.6408579415922595e-01
         - -4.4309412016648919e-01
         - -1.0101228630511658e-01
         - 2.3857721886069430e-01
         - -3.8161942146838701e-01
         - 1.3593852839647036e-03
         - 1.3774638093005856e-01
         - -2.6924221059519055e-02
         - 1.8223208459148868e-01
         - -1.4656646640535198e-01
         - -1.6742306834115336e-01
         - 2.9505845188108126e-01
         - 1.1987626085088171e-01
         - -2.0245716916683643e-02
         - 5.3211673486766586e-04
         - -5.7418672222784933e-02
         - -2.2486057646162810e-01
         - 5.2705228887920375e-01
         - -1.4215696742626618e-01
         - 2.4552473601365837e-02
         - -1.7805847924373697e-01
         - 4.8203298318401411e-01
         - 2.9840955762742616e-01
         - 1.2867051243645125e-01
         - 5.9882563397335054e-02
         - -5.8947832811625167e-01
         - 2.5656484308521932e-01
         - -1.1153673338716114e-02
         - 9.6422063835514965e-02
         - -1.7308857624704743e-01
         - -1.9740965634280042e-01
         - -1.0277199511059840e-01
         - -6.4640666672883179e-02
         - -4.8944578095584945e-03
         - -3.0840317831216579e-01
         - -4.7791942151834937e-02
         - -1.9306723871624931e-01
         - 1.4053035871923403e-01
         - 2.8450030710925700e-01
         - -1.7563677482413115e-01
         - -1.5551361834893826e-01
         - -4.3513060712532442e-02
         - -3.5919321018343253e-01
         - 4.3158442713120609e-02
         - 2.5007864843739430e-02
         - -1.2508711226343830e-01
         - -8.7291479617421036e-02
         - -8.6342568353780430e-02
         - 3.7247678228528869e-01
         - 5.5013935627200750e-02
         - -1.5736475580223488e-01
         - -4.1363506128084870e-02
         - 4.2076802422064385e-01
         - -9.2485787018672494e-02
         - -3.2333792724128219e-01
         - -9.7189820540880267e-02
         - -1.1401303221289197e-01
         - 3.1002780060696372e-02
         - -1.3519028926345056e-01
         - -1.3153390076569338e-01
         - -3.7749729520363628e-01
         - -1.4990002655304857e-01
         - 1.4128399990987023e-01
         - -4.2039170753680322e-01
         - -1.0572498728210042e-01
         - 3.6199824350995469e-01
         - -2.8683458048173655e-02
         - -3.1983412352397433e-02
         - 2.2379879070123415e-01
         - -3.3145429371444685e-02
         - 1.4776886290752328e-01
         - 2.2684006008776403e-02
         - 1.7675928348019826e-01
         - -1.7922652931929425e-01
         - -1.2159265085692336e-01
         - -1.8589079541686496e-01
         - 2.9509027520571451e-01
         - 6.7328979329459249e-02
         - -2.8760216301284602e-01
         - 2.3959130793908603e-01
         - -6.1747998810348925e-03
         - 2.4737023845547887e-01
         - -2.9726779070889553e-01
         - 2.7103311680682102e-01
         - 1.0895223227595066e-01
         - -3.2782959730321304e-01
         - -2.8409249977112627e-01
         - -1.7800501457335957e-01
         - 3.5159110652429243e-02
         - -1.3131132606800250e-01
         - -2.2552510655053881e-01
         - -2.0980765797530526e-01
         - -1.9512832529576399e-01
         - -5.5508324746566362e-02
         - 2.3454122883689263e-01
         - -2.7304513046956330e-01
         - 1.6163179201189445e-01
         - 3.4453625631898721e-01
         - 3.4016866249146960e-01
         - 2.2586445109687595e-01
         - -1.4144974363192422e-01
         - -4.5682293783371047e-01
         - -3.1983819374688721e-02
         - 2.4818928387215813e-01
         - -3.9722844416890790e-01
         - 1.5680692642262017e-02
         - 1.6184040105693434e-01
         - -1.3219910381980590e-01
         - 2.7787217989800617e-01
         - -1.7751185120503574e-01
         - -1.9985670505442174e-01
         - 1.9539983484820553e-01
         - 1.8156948711080986e-01
         - 2.2033870306559261e-02
         - 1.1962437845672094e-01
         - -6.7897316610423392e-02
         - -2.6408965795227762e-01
         - 5.3500178365648687e-01
         - -2.3467633101179269e-01
         - 6.7649616620862468e-02
         - -1.8459167699040968e-01
         - 4.6928260564022212e-01
         - 2.8901963436580602e-01
         - 1.7331544439705179e-01
         - 1.8805495709586062e-02
         - -5.4753233769399212e-01
         - 2.6311399003539082e-01
         - 7.6752630464513305e-04
         - 1.2534345867234006e-01
         - -3.9021634068895306e-02
         - -1.9213801314645010e-01
         - -1.3498493418497737e-02
         - 4.2090006075487824e-02
         - 7.2916408044676917e-02
         - -2.9564827643893044e-01
         - -1.1154863433196965e-02
         - -2.4125679144812742e-01
         - 2.7136121029476834e-01
         - 3.5360331290439528e-01
         - -2.1907998562082842e-01
         - -2.1933426010295518e-01
         - 9.5581416649598461e-02
         - -3.2566689184412667e-01
         - 3.5458120921498221e-02
         - 8.8122900737334059e-02
         - -1.5059415009090638e-01
         - -1.2038543876044608e-01
         - -2.3219277748804862e-02
         - 2.4287334225929877e-01
         - 3.7945567831843080e-02
         - -6.2219943408225120e-02
         - -2.5476863605136679e-03
         - 4.4418518594375311e-01
         - -8.7755394977572787e-02
         - -2.2499446854959160e-01
         - -8.3967213524032386e-02
         - -2.2744338286834040e-01
         - 1.0142381271580320e-01
         - -3.0480078928007892e-01
         - -1.0182917428378280e-01
         - -2.2760935680722513e-01
         - -1.4302142402864160e-01
         - 2.7998768188681106e-02
         - -4.3313305180682871e-01
         - -3.9654839129646152e-02
         - 3.0157493595011975e-01
         - -1.7056263046732495e-02
         - -2.3984354494841043e-02
         - 2.1225305808542799e-01
         - -4.1252586184915091e-02
         - 2.1730541617379479e-01
         - 7.7039572598230660e-02
         - 3.1101092808967701e-01
         - -1.3051752521444659e-01
         - -1.4731971256411486e-01
         - -3.2558411688142563e-01
         - 2.6906663220975435e-01
         - 3.1906380409499335e-03
         - -2.4596075997118219e-01
         - 1.3388427121660440e-01
         - -1.3404789457142818e-01
         - 2.0914420660763863e-01
         - -2.1017078047382451e-01
         - 1.6407820299530898e-01
         - 4.7514270244475632e-02
         - -3.3238336245140543e-01
         - -3.0454518409874187e-01
         - -2.3556193689433899e-01
         - 2.5664630883115436e-02
         - -1.8234362929855072e-01
         - -1.3547182626643461e-01
         - -1.1969210187463003e-01
         - -2.7701196390710886e-01
         - -9.7953836862203381e-02
         - 3.1803560927724595e-01
         - -1.6681993280583879e-01
         - 1.0506848200935859e-01
         - 2.3738514236987349e-01
         - 2.1832459318925432e-01
         - 3.1225139431575349e-01
         - -2.4545232593525138e-01
         - -4.6776409473356567e-01
         - -2.3846587654251072e-02
         - 1.2616537723462837e-01
         - -2.8713721886483812e-01
         - 2.2149566089588624e-02
         - 6.7683662416035545e-02
         - -1.8976252469986030e-01
         - 2.7137239147845904e-01
         - -1.2093278849618275e-01
         - -2.4812735369844549e-01
         - 3.6514953856776144e-01
         - 1.5591255485610853e-01
         - 1.4627412377797550e-02
         - 8.2280648430065800e-02
         - -2.1442907574467338e-01
         - -2.7692216119693353e-01
         - 4.5900460763695428e-01
         - -2.0388818148593899e-01
         - -3.0202420247874867e-02
         - -2.8615073075234698e-01
         - 3.8222687851699289e-01
         - 3.7147232518684548e-01
         - 2.5220905846387676e-01
         - -1.3243331351864507e-02
         - -5.4333567393727999e-01
         - 1.5104472734788429e-01
         - 9.4484794326194138e-02
         - 1.6816457132643092e-01
         - -5.2748243036249642e-02
         - -1.1263144131873773e-01
         - -1.3199694332886847e-01
         - -3.9972937878508114e-02
         - 1.3243574264113778e-01
         - -1.9291765383432177e-01
         - -2.0926370663071819e-02
         - -2.8725700855092384e-01
         - 2.5343009001543182e-01
         - 2.5846051599824871e-01
         - -3.2235067792527938e-01
         - -1.0524011776194486e-01
         - 5.7918394816956265e-02
         - -3.2795298531378947e-01
         - 1.1749396640115817e-03
         - 1.6884752621243981e-01
         - -1.6622706509974050e-01
         - -1.3072057644855262e-01
         - -1.4248641919992835e-01
         - 2.4215341380694530e-01
         - 1.1590317098613107e-01
         - -9.2208119512835363e-02
         - -1.4534186926424925e-01
         - 4.1917892788882127e-01
         - -7.8568299209162196e-02
         - -2.8770897214110713e-01
         - -7.1191164899102016e-02
         - -1.6635776937553146e-01
         - -2.6339178333504298e-02
         - -1.9665211801086011e-01
         - -2.6436617201252788e-01
         - -2.9415087382104588e-01
         - -2.2675006140223397e-01
         - 1.5495652816147040e-01
         - -4.3303478277439655e-01
         - -1.0391653062099568e-01
         - 2.6330380558998379e-01
         - -5.7091244983147799e-02
         - -1.3847916734511234e-01
         - 1.8823634375459292e-01
         - 6.2881139522416085e-02
         - 1.3509873712474690e-01
         - 6.7437934754752987e-02
         - 2.5125511838663173e-01
         - -8.5191930475406130e-02
         - -1.8549370889029557e-01
         - -1.6504492125481188e-01
         - 2.4456159979074457e-01
         - 1.2920265296534797e-01
         - -2.3400663008222136e-01
         - 6.1245391780578889e-02
         - -2.8642667751270889e-02
         - 1.4572907807412819e-01
         - -1.5312308015477136e-01
         - 1.5481009458825348e-01
         - 5.3168216207623242e-02
         - -2.6468134685024586e-01
         - -1.9677290978324050e-01
         - -2.7058948350697865e-01
         - 1.4581957236827647e-02
         - -2.5774815727131473e-01
         - -2.0031074389995274e-01
         - -1.6359532927955139e-01
         - -2.6780646277428138e-01
         - -5.4215696949734993e-02
         - 3.7515181686913401e-01
         - -2.5068780981941824e-01
         - 1.7172113591210156e-01
         - -3.2152187970812401e-02
         - -1.7314651378142154e-01
         - 5.1018327679323427e-01
         - 1.6297479862124847e-02
         - -2.0270520122603033e-01
         - 1.0437176260974468e-01
         - -6.4594024054818872e-02
         - -2.0397570588413963e-01
         - -2.5207465089373460e-01
         - -1.5077637350336939e-01
         - -3.4743450830983902e-01
         - -1.0973125271206921e-01
         - 9.9573201693113650e-02
         - -3.4981316816411478e-03
         - 9.1317162414846775e-02
         - 4.3255923089210313e-01
         - 3.3003116672789412e-01
         - 4.1485213692239298e-01
         - 1.3906734135621823e-01
         - 3.8479108951549240e-02
         - 2.4744881794614723e-01
         - 3.0979918863323602e-02
         - 2.6053852168900743e-01
         - 1.3666773696419554e-02
         - 2.6806849520745901e-01
         - -2.5905891921656959e-02
         - -1.7929940224135771e-02
         - 3.6476046638740944e-01
         - -3.2504480675438829e-01
         - 1.1557584282927746e-02
         - 2.4051103306209207e-01
         - -1.7992814176457259e-01
         - 1.2051168748510296e-01
         - 1.6279278526993257e-01
         - 1.1145102376132074e-01
         - -2.8657641045860649e-01
         - 3.3177363873925619e-01
         - -2.8089190013423360e-02
         - 3.0745689093010309e-01
         - -1.5050402191862655e-02
         - -1.0016446017721503e-01
         - -1.2165264021454986e-02
         - -7.0059232666151466e-02
         - -3.4800423907045297e-01
         - 2.5115077954435194e-01
         - -1.0237574902112023e-01
         - 2.3187058918485834e-01
         - -1.9575538972662918e-01
         - 1.0146637753823684e-01
         - 4.1081020311361155e-02
         - -4.4146058322554416e-01
         - 1.1862807873958983e-01
         - -1.9578978845960882e-01
         - -3.1919415885182545e-01
         - 2.3919815799069941e-01
         - 6.4354376007201808e-01
         - 2.0989515023657557e-01
         - -5.1610964629489442e-02
         - -2.5315020889814888e-01
         - 1.2866857384672883e-01
         - 3.1210949004758559e-01
         - 1.0922282481745463e-01
         - 2.1776963174213479e-01
         - -3.4102853492260027e-02
         - 1.1869120174077638e-01
         - -8.6474972340293749e-02
         - -7.8297199345675805e-01
         - 1.2035566866491329e-01
         - 1.1000146307954856e-01
         - -3.3345271038610946e-01
         - -2.7082890687005101e-01
         - -1.5968360073898266e-01
         - 2.0015354086055090e-01
         - -2.4119905040655365e-02
         - 3.5239755345172541e-01
         - 1.7473081203016050e-03
         - 5.7765405846909690e-01
         - 7.1336336666216388e-02
         - -7.7976662179563921e-02
         - -9.6043367632362625e-02
         - 3.7740519638071024e-01
         - -5.4469692231801037e-02
         - -5.6510223334453297e-02
         - 2.3616980026732468e-01
         - -7.9471210705894607e-02
         - 1.2623472684114104e-01
         - -4.7694179345682292e-02
         - -1.0802871873587125e-01
         - 1.5202150627638689e-02
         - -6.6885216520696289e-02
         - -1.3721448200985392e-02
         - -2.3105285240555781e-01
         - 8.6074145367983884e-02
         - 5.3332996974484181e-02
         - -3.7216503464111017e-01
         - 2.9994097869640413e-02
         - 1.4038882105755382e-01
         - -5.4239201138116450e-02
         - 8.9880703954132918e-02
         - 3.3146305409123900e-01
         - 1.1430141541367971e+00
         - 6.5560038184640923e-01
         - 6.3315166419331470e-01
         - 4.4713164906203740e-01
         - 4.0902890338025344e-01
         - 2.7308820052848864e-01
         - 4.8884084596555299e-01
         - 1.0474514263159809e-01
         - -2.8771270037019991e-01
         - -1.6158011882925130e-01
         - 7.2044577453989223e-01
         - 3.7932966696143788e-01
         - 2.7547799085011049e-01
         - -4.6878330992963191e-01
         - 9.5214341781582512e-01
         - 1.4280145059830274e-01
         - 2.4099661849845230e-01
         - -4.4375559153358790e-01
         - 7.0317013378230298e-01
         - -1.7222260713359594e-01
         - 6.7695742454937147e-01
         - -3.6777047358075265e-01
         - 2.2722803683384393e-01
         - -4.2028258972873300e-01
         - -5.9060878989533228e-01
         - -8.0779285518565558e-02
         - 3.9272780459693135e-01
         - -2.0901150778911734e-01
         - -1.3734699958451151e+00
         - -7.7310717669702078e-01
         - 1.1220506219429505e-01
         - 4.7978084036909008e-01
         - 1.9781886185977082e-01
         - -3.4129521209028668e-01
         - 6.0783886307436363e-02
         - 2.7455708731074913e-01
         - -3.0817151819205602e-01
         - 6.5118633928105962e-01
         - -1.8959009562041093e-01
         - -1.1745280953032641e-01
         - -5.7604557356947705e-01
         - -1.0762144859543921e+00
         - -1.0494847940956511e+00
         - -5.3132893000397485e-01
         - -1.5406565399907798e-01
         - -9.7683108965352083e-01
         - 4.9331693935382392e-02
         - -1.1379160379403168e+00
         - 3.7071126149361894e-02
         - -3.1031746970939222e-01
         - 1.9095580595406700e-01
         - 1.1029924092845780e+00
         - 4.2896688758587909e-01
         - -6.5956423147912679e-01
         - 6.5514856634382901e-01
         - -8.4139040193873804e-03
         - 1.4889552039700155e-01
         - -5.3445533091764263e-01
         - 1.6188283431426831e-01
         - -4.0343300865335652e-01
         - -2.1854109115433695e-01
         - 7.0652330655929751e-01
         - 4.6876963909487424e-01
         - 1.9044070412433761e-01
         - -5.7201015461115923e-01
         - 1.3177709501997759e-03
         - -1.7276973419772765e-01
         - 2.7877048177038832e-01
         - 1.9975216027725631e-01
         - 2.4727083129058439e-01
         - 3.3229615837516224e-01
         - 1.1623719277939659e+00
         - -2.5821447912578965e-01
         - 9.7689530653928186e-02
         - 3.0507630247622597e-02
         - 5.7614762457314783e-02
         - 1.7148398312867022e-01
         - -4.6588490536786120e-01
         - 1.1966952609984358e+00
         - 6.5107232763669831e-01
         - -1.8738804498084480e-01
         - 1.0405331169437200e+00
         - 3.1290311472248000e-01
         - 1.3705042315111884e-01
         - -7.1052296152322736e-01
         - 6.5893900172456754e-01
         - -1.2366764253852811e-01
         - 9.4596023107840177e-01
         - 1.0463874579059502e+00
         - -1.1661443283506071e-01
         - 2.6593781988458276e-01
         - 3.6761638514559980e-01
         - -2.5331279298936216e-01
         - -3.6125641344778703e-01
         - 1.4738157202653313e-02
         - 7.9312302257089268e-02
         - -3.2086299364911608e-01
         - 3.9287837363237377e-02
         - 8.7663808084310596e-02
         - 5.0052528333178348e-01
         - 4.4900331835124074e-01
         - -1.1956203618336392e+00
         - -6.4063697156910959e-01
         - -1.3597327975074238e+00
         - -4.0857585489439019e-01
         - 5.9421114275617415e-01
         - 5.8117401645224986e-01
         - 5.3987506434149546e-01
         - -8.4410661458615555e-01
         - -2.1597557988261764e+00
         - -1.1906338762533260e+00
         - 5.7534866980857480e-01
         - -1.6496955985913284e+00
         - -1.1551461809428945e-01
         - -2.3285372697033760e-01
         - -1.6529106506640903e+00
         - 1.0955841042342405e+00
         - -7.9110448756219509e-01
         - -6.2555593742722271e-01
         - 5.8775396385162537e-01
         - 1.0372581015175444e+00
         - 9.7353027352278493e-02
         - 1.0486102000623296e+00
         - -3.2248552170721867e-02
         - -1.5604418229115621e-01
         - -3.0007072398442580e-02
         - -2.6938114064324248e-01
         - -9.9465274707749163e-01
         - 3.6233308357066907e-01
         - -1.3843702581135597e-01
         - -1.1485382865208192e-01
         - 4.6313800313108189e-01
         - 2.0169678816483830e-01
         - -1.0807500865958557e+00
         - 2.4458806195382943e+00
         - 3.4834373111146433e-01
         - 2.2215083391487098e-01
         - 6.3401298509093906e-01
         - 2.9219138950604162e-01
         - -1.2272556280978666e+00
         - -2.8158109584480473e-01
         - 1.7962956818569628e-01
         - 1.2269407105088601e-01
         - 1.6942545256955721e+00
         - 2.0142711660650833e-01
         - 3.5406398007885365e-01
         - -2.1155206398173698e-01
         - 1.2004891935469797e+00
         - 2.8131442744999469e-01
         - -2.5069906500932870e-01
         - 1.3833923603517599e+00
         - -2.3702125043606950e-01
         - -8.0086420910070077e-01
         - 1.9712693780883446e+00
         - 2.8781812302390453e-01
         - -1.3838996457131306e-01
         - -7.6507379800080932e-02
         - -4.5606914891800676e-01
         - 3.9684388227099443e-01
         - -2.9804066651932892e-01
         - -4.1632207632104989e-01
         - 1.2663126128419941e-01
         - -7.0493860609409564e-01
         - -1.1526843516698824e+00
         - -9.5173177421545574e-03
         - 8.2062893327122544e-01
         - 5.5728700235498541e-01
         - -6.9050761956851825e-01
         - -1.2659359205810015e+00
         - 6.6606020781557668e-02
         - -2.3499488941096733e-01
         - 5.7353502368263021e-01
         - -3.8561981172507709e-01
         - 5.2192525641502696e-01
         - -2.4156948635856801e-01
         - 2.1246149065980338e-01
         - 5.6529027658434516e-01
         - -1.7323564731673096e+00
         - 1.4971997398165813e+00
         - 9.4114760289209076e-01
         - 1.9736396699776546e-01
         - -2.8307827182766021e-01
         - 2.2861770229781472e-01
         - -8.0110719328281543e-01
         - 1.9063678596415332e+00
         - 2.8075556881666064e-01
         - 1.5408558325887798e+00
         - 1.3475964126147375e+00
         - -9.9895241408065427e-01
         - -2.3276712120785228e-01
         - -3.4041179101159408e-01
         - 2.5089421940176926e-01
         - -1.9903734417196590e+00
         - 2.9713982847416498e-01
         - -9.0742273131465090e-01
         - -1.5575047555712618e+00
         - -9.1559532978224695e-02
         - -7.6509890441622985e-02
         - -4.7546932535867537e-01
         - 8.6112501078778392e-01
         - -2.8896863880038814e-01
         - 7.8082125985848472e-01
         - -3.3462510669845386e-01
         - 1.9397536888815695e-01
         - -6.0556838656098599e-01
         - -2.8428649030730890e-03
         - 9.4443405503773425e-01
         - 3.8341908830137850e-01
         - -1.0303324434840795e+00
         - 6.6266014514836102e-03
         - 9.6056541167618609e-02
         - 9.9049516498422607e-01
         - 6.5940981846322216e-02
         - -2.9451382883579913e-01
         - 3.7706676766553415e-01
         - 5.2264381870804688e-01
         - -5.3602670836032196e-01
         - 6.1127543688224417e-01
         - 8.3843706429824216e-01
         - -3.1465043141736315e-01
         - 1.4788136435186283e-02
         - 1.0183141691425063e-01
         - -1.5453153188351793e-01
         - -3.2610382593504328e-01
         - 5.2437355996074991e-02
         - -2.5505936191552103e-01
         - 3.4150356115759117e-01
         - -3.6983994567540923e-02
         - 9.8314552663865462e-01
         - -3.7851954326822729e-02
         - 5.8451796571114434e-01
         - 3.6218316162652364e-01
         - -5.4412274977722030e-01
         - 7.2883834908229161e-01
         - -4.1261372136699126e-01
         - 9.2595242280334722e-03
         - -1.3168631091194563e-01
         - 1.5646853115103007e-01
         - -5.2690016627963543e-01
         - -3.4839528572029177e-01
         - 7.6234279983568665e-01
         - 2.5160447100256855e-01
         - 2.1109188185945907e-01
         - -1.1058779165397501e+00
         - -1.3905553206379331e-01
         - -3.6398912343329959e-01
         - 6.0083758147327648e-01
         - -1.3864961420219668e-01
         - -4.7173507886287980e-01
         - 8.2919606370418647e-02
         - 2.0914616432570940e-01
         - 3.8479914839686902e-01
         - 5.8191734166224340e-01
         - 6.4896059350658009e-02
         - -1.0148536478401526e+00
         - -5.2308308556244765e-01
         - -3.3780839242838850e-01
         - 3.6399564520828354e-01
         - 1.5278033447606162e-01
         - 2.7479341457521539e-02
         - -1.3624896948068560e-01
         - 2.3877398149060036e-02
         - 1.8703706639204129e-01
         - -1.8349836850810597e-01
         - -2.8954755574021784e-01
         - -7.8125553351234456e-01
         - 5.2696242127792869e-01
         - 1.2333203333819301e-01
         - 3.4653534134172059e-01
         - -9.7057882045264232e-01
         - 1.2502472782835697e-01
         - 2.8422734310982611e-01
         - -9.5843573740431592e-02
         - -7.7623734864060645e-01
         - 7.0061378058507839e-01
         - -3.0595035445628971e-01
         - 6.1569969040693340e-01
         - 9.0059420856509453e-01
         - -1.9727471583445133e-01
         - 7.3563826948480215e-01
         - -1.9188136598953257e-01
         - 2.3350502826724165e-01
         - -1.1157975161950079e-02
         - 5.2014100749759290e-02
         - -8.3510051289719855e-01
         - 6.3923190361514809e-02
         - -1.0531092702329359e-01
         - -8.1466820978575361e-01
         - 3.0719206656246167e-01
         - 4.0662243452936675e-01
         - 2.9364807767620160e-01
         - 4.1365211722815409e-01
         - -3.1758015971351627e-01
         - 2.6936368578372449e-02
         - -9.6772317680032238e-01
         - 9.0234335215199302e-02
         - 5.9670605908595276e-01
         - -9.6866765077271677e-01
         - 8.2730558916921626e-01
         - -6.7200611560501522e-01
         - -3.3863467364538735e-01
         - -2.7035499784196015e-01
         - -2.9032169640710187e-01
         - 2.3683258464705018e-01
         - 4.7664786755311039e-01
         - 1.3795025594433641e-01
         - -1.0790253858670817e-01
         - 3.8273573343251532e-01
         - -7.9345280628766418e-02
         - -2.1019646658189620e-01
         - 1.2048360215537343e-01
         - -2.6210232136464096e-01
         - 2.2806747804856350e-01
         - 1.1105317660304065e-01
         - -2.5602715692333677e-01
         - -3.0812634087478197e-02
         - 2.2766504233667106e-02
         - 4.8057396770408711e-03
         - 1.1227351250059128e-01
         - 2.4049254369477185e-01
         - -3.9930923290591480e-01
         - 6.8729818050877911e-02
         - -2.0961500084958479e-02
         - 2.0300915670486130e-01
         - -4.8841677172045861e-01
         - -2.6452194006539353e-01
         - -1.4078246807843053e-01
         - -2.1211950088869613e-02
         - 5.7226137241422192e-01
         - -1.6096737405702896e-01
         - -4.5000777718490398e-02
         - -2.3877581623643332e-01
         - 1.7262506222021412e-01
         - 9.5119688468096264e-02
         - 6.2468126095230975e-02
         - -1.3298440520307098e-03
         - -3.1061067752094162e-02
         - 2.7292270041782130e-01
         - 8.8447974463898016e-02
         - 3.1180210881184256e-01
         - -1.4065561637453328e-01
         - -2.3230146145204353e-01
         - 2.7043044158811269e-01
         - 2.0583169146287714e-01
         - -8.4550929082692572e-02
         - 2.4380973947001647e-01
         - 5.7393358722954174e-02
         - -2.9547177671519625e-02
         - 6.6513481175064032e-02
         - 2.3790218646843522e-01
         - 1.4982857024173737e-01
         - -2.7044659617673483e-01
         - 2.3844469101778898e-02
         - -1.5435545778549498e-02
         - 1.2104026016784925e-01
         - -4.0646137982978825e-01
         - 7.3444557315319292e-02
         - 1.9247732827650377e-01
         - 1.3452544535321215e-02
         - 1.9824988192258272e-01
         - 3.7143589034160013e-02
         - 1.5945421878152630e-01
         - 2.2689569749120450e-01
         - 2.2115698309970142e-01
         - 2.7879226719834505e-01
         - -8.4890625575569839e-02
         - 5.2373884703977103e-01
         - 1.1108621008998232e-02
         - -3.8411848182380770e-01
         - -3.4390239181682242e-02
         - 6.8486209251834018e-02
         - -2.7912898957833965e-01
         - 4.3459093018864164e-02
         - -2.4290975931040309e-01
         - -5.0230105271042630e-02
         - -2.6967583541161266e-01
         - 7.6347786713164278e-02
         - 1.8706675363585187e-01
         - 2.1156434663006735e-01
         - -2.0292737835404293e-01
         - -8.7733277208696947e-02
         - 1.9857997801347116e-01
         - -1.6288194140559895e-01
         - 7.5194724981586608e-02
         - -1.5939799504710236e-01
         - 2.6334867310340770e-01
         - -2.8849745050187986e-01
         - -5.2261782528407408e-02
         - 2.7876605789295411e-01
         - 2.4160460407114062e-01
         - 2.6726524244594496e-01
         - -2.8657478143199078e-02
         - 1.7607833104966139e-01
         - 1.8012828931022518e-01
         - 1.2118809149585102e-01
         - 1.7841141651752471e-01
         - 8.7962729992049127e-02
         - -4.2072459960637965e-01
         - 2.0678750588180986e-01
         - -2.0293002028835658e-01
         - -3.3156845530025281e-01
         - -3.3892416594917463e-01
         - -3.2828501582056163e-01
         - 2.1767122309896664e-01
         - 5.1543740608737365e-01
         - 1.7304664664082145e-01
         - -2.4185232001802673e-01
         - 4.1589583925419638e-01
         - 6.8457706230319326e-02
         - -1.3944041412501987e-01
         - 6.7928505134972256e-02
         - -1.9354973177083748e-01
         - 2.4408596009853037e-01
         - 1.8300879174465498e-01
         - -2.6744191130360484e-01
         - -8.6556457742415105e-02
         - -1.3047249888371348e-01
         - -8.0596843526839629e-02
         - 1.1291947954542550e-01
         - 2.8977568057786302e-01
         - -4.6732041239440458e-01
         - 2.1842265889704732e-01
         - -5.7856133283495953e-02
         - 1.8592688792568146e-01
         - -4.1972707255270270e-01
         - -2.6607678307382354e-01
         - -9.2823100807214121e-02
         - -5.3713598632908088e-02
         - 4.8648775390834753e-01
         - -1.8408901857182855e-01
         - -8.7690745450366980e-03
         - -1.5092243718625054e-01
         - 1.1414557716538523e-01
         - 2.5735061077116606e-01
         - 4.2054894634414558e-02
         - 1.6213617140848485e-02
         - -1.1302979679354611e-01
         - 1.9824057920471291e-01
         - -4.5656070566651025e-02
         - 1.5475165826632609e-01
         - -2.3018956767027973e-01
         - -3.6950482279792374e-01
         - 1.7186091254923047e-01
         - 1.8658393921029989e-01
         - 9.5117030120773216e-03
         - 3.3616793299233183e-01
         - -7.2016755069439692e-02
         - -4.3990933736985954e-02
         - 1.4583926069245401e-01
         - 1.8393714192851637e-01
         - 1.7891312523789457e-01
         - -3.0657955357654343e-01
         - 8.7858860931844807e-03
         - 4.5027129514624731e-02
         - 1.6605553131685941e-01
         - -5.1760082522451012e-01
         - 1.8700587864312132e-01
         - 3.1213946016242666e-01
         - -8.2619104680531075e-03
         - 1.5163299078031819e-01
         - 3.4784850283114815e-02
         - 1.8714240662178602e-01
         - 1.6506107859594496e-01
         - 2.4382488614719630e-01
         - 2.7795008172150881e-01
         - -1.7859788587096612e-01
         - 5.0446863830268829e-01
         - 8.3321548184847133e-02
         - -3.9276459800432073e-01
         - 2.8581883306937811e-02
         - 1.5452465243737190e-01
         - -2.8386594700242973e-01
         - 6.6550665032561851e-02
         - -1.5873154794810401e-01
         - -1.6531748409838287e-02
         - -2.0519035422276258e-01
         - 1.2065851495934760e-01
         - 1.6524895893767597e-01
         - 2.8454144697631695e-01
         - -2.5595711240709873e-01
         - 1.4562128582880529e-02
         - 2.8858763278399902e-01
         - -1.9477574074073076e-01
         - 1.4449383881241940e-01
         - -1.8876849243267488e-01
         - 2.3556025944725059e-01
         - -1.4567810851534937e-01
         - -1.7154593086153849e-01
         - 2.7741595515493273e-01
         - 2.5353351675252189e-01
         - 2.0376125158279243e-01
         - -2.2422845649962775e-02
         - 2.3464601487786738e-01
         - 1.2671220944461423e-01
         - 2.0076193239793463e-01
         - 2.7779313839013614e-01
         - 1.1823183093102763e-02
         - -3.4832424519722294e-01
         - 2.3652781696467112e-01
         - -2.7681474523727989e-01
         - -5.5401325205772622e-02
         - 8.2177003640233365e-02
         - -4.6302612115502262e-01
         - -1.3947247440186852e-01
         - 2.0577108509917588e-01
         - -2.6156717446904637e-01
         - 9.0819475890660223e-02
         - 9.4042273750431948e-02
         - 2.8182378667101682e-01
         - 2.1554808541417197e-01
         - 4.3025878783414451e-01
         - 1.6370406407439722e-01
         - -1.1089484759893062e-01
         - -6.3155996076713738e-02
         - -6.4085280663980781e-04
         - -3.8872011944253304e-01
         - -2.9477163255675776e-01
         - -3.4280920359621442e-01
         - -1.2892670917801027e-01
         - -4.1653114367075167e-02
         - -2.0634308733366732e-01
         - -1.4551432797286123e-01
         - -2.3319647299082039e-01
         - -1.1283125883827347e-01
         - -1.9659233129593748e-01
         - 6.4611332871425092e-02
         - 1.2635145211142276e-01
         - -3.7208519729918488e-01
         - 3.2636229114320880e-01
         - 1.4349688978942732e-02
         - -3.5412496195258614e-01
         - 2.5842343097380471e-01
         - -2.0953568522802701e-01
         - -9.1148635754541990e-02
         - -1.9749263828853367e-01
         - 3.6005083038598051e-01
         - -2.1793060832938149e-01
         - -9.0089088903286457e-02
         - -1.9926209945035997e-01
         - -6.5839938439860385e-02
         - -6.8366165528614964e-03
         - 6.9804660862607837e-02
         - 4.4890798097018181e-02
         - 4.5666378598601420e-01
         - -3.0860488276976250e-01
         - -2.8723926395448546e-02
         - -2.4226681984770168e-01
         - 2.8409882964773947e-01
         - -1.4345263002116637e-01
         - -1.8983991602025685e-02
         - 2.6729395265862033e-01
         - -2.5570394497389293e-02
         - 3.1532891905457960e-01
         - 3.2887263203461026e-01
         - -1.4174964845277849e-01
         - -7.4175835692671932e-01
         - -8.7130996186985166e-02
         - 6.9290872837683981e-02
         - 2.2049891066537727e-01
         - -1.8828421608653501e-02
         - -3.6248790008649800e-01
         - -5.5488652300310831e-02
         - -1.3363219407568139e-01
         - -1.6073608217575530e-02
         - -1.1259376942022090e-01
         - 2.4152704416046003e-01
         - 6.5320946038537075e-01
         - -9.9213604275098149e-02
         - -6.1502654843655719e-02
         - 3.3010411165975140e-01
         - 2.5026981829099426e-01
         - 8.4462795003308944e-02
         - -3.0358265417011171e-01
         - 1.2874602891100459e-01
         - -1.8954533897664658e-01
         - -4.4894844761133645e-02
         - -6.1484358233393210e-01
         - -7.3648639210114858e-02
         - 4.9819881662067800e-02
         - -6.0974163607130455e-02
         - -2.2690317844249841e-01
         - 3.1539370260041555e-02
         - 1.3101339666003475e-01
         - -1.5676164076837903e-01
         - 3.3631248695269733e-03
         - -9.6007475734187414e-02
         - 2.9480259191312086e-02
         - 1.3316582417918954e-01
         - -6.0445204588272572e-02
         - -4.2407740736712690e-02
         - 5.9543946432738748e-02
         - 2.0049389180668789e-01
         - -1.0958271179628623e-01
         - -2.0910825065852456e-02
         - 3.8777025455278968e-01
         - -9.2461499661700891e-02
         - -1.4039672571333953e-01
         - -4.3809317112676105e-02
         - 1.7135364044656487e-02
         - -4.0469304165502840e-01
         - -7.5451370379753829e-02
         - 1.7182811966300027e-01
         - -5.0558466436324745e-01
         - -1.2385090293528137e-01
         - 2.0018246618702309e-01
         - -2.1782167034900451e-01
         - 1.8446156584298448e-01
         - 7.2061093509436125e-02
         - 2.3740113545913097e-01
         - 1.2538432470228292e-01
         - 3.1028965671707609e-01
         - 1.2678387062576815e-01
         - -8.7486741343805269e-02
         - -3.5338229352122830e-02
         - -2.6202562939823704e-02
         - -3.6998541631176685e-01
         - -2.6115635222348077e-01
         - -2.8483532527808586e-01
         - -1.4886916797802696e-01
         - -6.7634595111200457e-02
         - -1.2867046595261283e-01
         - -1.7980242491749565e-01
         - -3.6570207207069616e-01
         - -1.0807896691793037e-01
         - -2.5730350576941341e-01
         - 6.1383191101798157e-02
         - 9.2505351156655674e-02
         - -2.2371933512498049e-01
         - 2.4658316806473005e-01
         - -1.8278974538015746e-02
         - -2.1856761611827688e-01
         - 2.6730361615664289e-01
         - -1.7855100700657023e-01
         - -7.8886063058875217e-02
         - -1.7987846769884838e-01
         - 3.7296331231311919e-01
         - -3.5849726550679895e-01
         - 6.0894646748385906e-03
         - -2.0296208579971772e-01
         - 2.4090648560925743e-03
         - 1.0992938752980852e-03
         - 2.0638294234457788e-02
         - 4.7268339420599326e-02
         - 4.5548455618063743e-01
         - -2.7988212532590906e-01
         - 1.0960989317512349e-01
         - -1.8680028167328697e-01
         - 1.9634124077864964e-01
         - -1.7120856271897925e-01
         - -4.3261454551204309e-02
         - 3.9554363068008080e-01
         - -1.6168611335863892e-02
         - 1.7252090549500154e-01
         - 2.7924273367051622e-01
         - -2.5058024888893371e-01
         - -5.9432101053081898e-01
         - -1.6792568875811298e-01
         - 8.1414965138862261e-02
         - 3.5905479154278408e-01
         - -1.3365144613920632e-01
         - -3.2029926715811807e-01
         - 2.4847143387277781e-02
         - -1.0983529386356103e-01
         - 8.5079082958264246e-02
         - -3.1568881462495230e-02
         - 2.4415349708992376e-01
         - 6.8211217659924972e-01
         - -2.6430327598167147e-01
         - -3.8427716931191319e-02
         - 2.6968448900184105e-01
         - 2.9228907898400125e-01
         - 1.1645875970815905e-01
         - -1.8640221267901627e-01
         - -7.9791965686460409e-03
         - -3.1164834347348724e-01
         - 1.5809443065646911e-02
         - -5.3506503901279678e-01
         - -6.5488924040364077e-02
         - -1.9288041140989476e-02
         - 8.6391542139394678e-02
         - -2.4100071801027093e-01
         - -6.8197974319134852e-02
         - 2.0518903191836246e-02
         - -2.4564977636334548e-01
         - -1.0131245726443167e-02
         - -1.4357226652274124e-02
         - 1.0261420573113131e-01
         - 7.8228098299342602e-02
         - 9.3440856642285686e-02
         - 2.4205649682811525e-02
         - -2.5768499084869723e-03
         - 2.2279706251684014e-01
         - -1.1884908114371842e-01
         - -1.3069742869973028e-01
         - 3.6786512420590256e-01
         - -9.7224971277390021e-02
         - -2.0832840041075221e-01
         - -1.3294394605347457e-01
         - -1.5524798668140669e-01
         - -3.4552147941278566e-01
         - -6.3533710237426100e-02
         - 1.3937946894481967e-01
         - -4.6949512243555780e-01
         - -8.5963617857955171e-02
         - 8.7988603267580984e-02
         - -1.9203584173982471e-01
         - 1.2704676280765051e-01
         - 9.4632123638813015e-02
         - 1.3847045418201967e-01
         - 4.0737054303338072e-02
         - 3.1697607530769722e-01
         - 8.7959566481632306e-02
         - -1.5576311522750294e-01
         - 1.2194607189499385e-02
         - -1.2540227476592705e-01
         - -2.8756243716210239e-01
         - -2.4331377214052821e-01
         - -2.4847413566467727e-01
         - -8.6201685494398023e-02
         - 8.3330798379972232e-02
         - -1.0278263342050414e-01
         - -4.0027450721325936e-02
         - -3.6891789869540037e-01
         - 8.2737885850420745e-03
         - -1.6814958112723394e-01
         - 7.5478145751479070e-02
         - 1.7519207413629198e-01
         - -3.8959279374585942e-01
         - 2.8090547394599241e-01
         - 1.0429285679801067e-01
         - -2.1684849060667130e-01
         - 2.8735372464081987e-01
         - -1.4162884509853479e-01
         - -1.3048258992513639e-01
         - -2.3978845426595410e-01
         - 2.5251068117161768e-01
         - -3.3829012859491520e-01
         - -2.3344033105114709e-02
         - -2.4297810451334831e-01
         - -4.2660491465501826e-03
         - 4.9215897118298879e-02
         - 4.0001319892965903e-02
         - 3.4109657503298474e-02
         - 3.3482352908798330e-01
         - -2.4891107868771870e-01
         - 4.3481721365107306e-02
         - -2.0582473981341240e-01
         - 1.7947253572195507e-01
         - -3.7027360562108841e-02
         - 5.2610315488297588e-03
         - 3.2827522818935806e-01
         - -9.8914571020662256e-02
         - 1.3912436582782184e-01
         - 3.5223263719061781e-01
         - -1.3726434177846814e-01
         - -6.0132638173627528e-01
         - -4.6988303956000288e-02
         - 6.6105563410482682e-02
         - 2.9545789115724019e-01
         - -1.5737584077849032e-01
         - -3.4543754999236387e-01
         - 5.3232540047268295e-04
         - -7.6105502001165420e-02
         - 2.5438194902975636e-02
         - -1.0526869113212664e-01
         - 2.2948226857805573e-01
         - 7.0631045124420477e-01
         - -1.3103942968422430e-01
         - -1.5549237904017429e-01
         - 2.3708983201702935e-01
         - 2.8757553864404162e-01
         - 2.0300165456185068e-01
         - -3.1655516792977334e-01
         - 1.2435232781559655e-01
         - -2.6573976267436505e-01
         - -8.2887749749829182e-02
         - -6.2346520566161134e-01
         - -3.7613293512619966e-02
         - -2.3254068956525153e-02
         - -4.4777943933649728e-02
         - -3.7707683890652777e-01
         - -3.0046385416389237e-02
         - 1.7480941342698020e-01
         - -1.6387030754195273e-01
         - -3.1854813272669480e-02
         - 6.9870118476728360e-03
         - 7.8748277654102611e-02
         - 1.2917426093766679e-01
         - 7.4343518265516079e-02
         - -3.3652736086883878e-02
         - -4.9632910539374603e-02
         - 1.3779026754302739e-01
         - -1.2101924882342688e-01
         - -1.2593696171893048e-01
         - 4.6652925267453760e-01
         - -2.8753105699762693e-02
         - -2.0860650768277114e-01
         - -3.9891388913885661e-02
         - -3.5636500658850906e-02
         - -4.3631430888217049e-01
         - -1.9654876024079948e-02
         - 1.6225689808593147e-01
         - -5.8367967064184589e-01
         - -9.3635947824029980e-02
         - 5.9015052898389958e-02
         - -1.9886458711295388e-01
         - 1.3254053513465439e-01
         - 1.5846748512818679e-01
         - 1.4691979104349698e-01
         - 1.5391412123741380e-01
         - 3.7765361337937042e-01
         - 1.6595884310163592e-01
         - -9.1786203163346153e-02
         - 7.0687083729608469e-02
         - -1.2277364847915764e-01
         - -4.4316992732419880e-01
         - -3.4598531781058783e-01
         - -3.5843924197491850e-01
         - -1.6755280537976278e-01
         - 4.7726454451198774e-02
         - -1.7178583801741618e-01
         - -9.4412026456625137e-02
         - -3.8433886159618824e-01
         - -5.5460273058905635e-02
         - -1.8420449685177226e-01
         - -4.5780935378323839e-02
         - -9.9931211980502643e-03
         - -3.9205757512102368e-01
         - 2.2787990641145220e-01
         - 9.4610573956397576e-02
         - -2.0801182010110683e-01
         - 1.4230560392962865e-01
         - -1.4367553205683226e-01
         - -1.4923783978451566e-01
         - -1.1819293145468965e-01
         - 3.0915072363400109e-01
         - -2.7523879266498452e-01
         - -2.2162557721632586e-02
         - -3.0914097169955990e-01
         - -8.3558556909448606e-02
         - -2.7956353389976818e-04
         - -5.9851970845025387e-02
         - 9.4996542280447849e-02
         - 4.3311480381452228e-01
         - -3.9933030921130208e-01
         - -4.6568326413833072e-03
         - -3.2462634997373063e-01
         - 2.4765543122668135e-01
         - -1.3504459781738853e-01
         - -1.9807072940116521e-02
         - 3.2581019104950149e-01
         - -3.9643377418359771e-02
         - 1.6883212538057268e-01
         - 3.5505610969402934e-01
         - -2.0491530346572381e-01
         - -6.1453692241548419e-01
         - -1.0285503150089870e-01
         - 6.5484433239312023e-03
         - 2.8112842114195780e-01
         - -1.6692550850316878e-01
         - -3.1604413128444619e-01
         - -9.4115587176573839e-02
         - -1.4028324442332607e-01
         - 6.7650346697189917e-02
         - -1.1802149015669502e-01
         - 1.1213857392354712e-01
         - 7.5439355699926902e-01
         - -1.4046298889661329e-01
         - -3.3389634046576827e-02
         - 2.8205307917147870e-01
         - 3.8787674820963380e-01
         - 1.4388299938153404e-01
         - -2.9465855955968318e-01
         - -4.3943258245363048e-03
         - -3.0501309487076589e-01
         - -7.3007374939092956e-02
         - -4.8015048366672086e-01
         - -1.0428028951889409e-01
         - 1.1632034726953669e-01
         - -1.4908840333062612e-02
         - -2.9317595986843392e-01
         - -6.1049618599115812e-02
         - 7.7767811824830252e-02
         - -9.2179179777051007e-02
         - -3.8384201090959635e-02
         - 3.3749253990885325e-02
         - 5.4854512966393626e-02
         - 1.5700743052862909e-01
         - 2.6693296873292638e-02
         - 6.1874183305839991e-02
         - 6.7765865018947324e-02
         - 1.8739837618722180e-01
         - -1.1875457813788362e-01
         - -1.8031234576322769e-01
         - 3.7097244830466169e-01
         - -1.0716064142320800e-01
         - -1.5040715433041510e-01
         - -8.1368843310467898e-02
         - -8.9839203670095097e-02
         - -3.7578108192396376e-01
         - -5.4324458941095444e-02
         - 3.6061455541601312e-02
         - -5.6658940105573552e-01
         - -1.1743944739500969e-01
         - 1.2962861488849670e-01
         - -1.3089092007427722e-01
         - 1.8734444681359044e-01
         - 1.0165477815791835e-01
         - 3.0958392520713784e-01
         - 4.2028792409331328e-02
         - 3.6374428404694259e-01
         - 1.9524021971742492e-01
         - -1.6345819976501172e-01
         - -1.1337823292530938e-01
         - -3.5256210952924083e-02
         - -3.3952637566604049e-01
         - -2.6670498474872273e-01
         - -4.2547334096705391e-01
         - -2.3883202376636140e-01
         - 9.1574367447974842e-02
         - -2.3368586827401869e-01
         - -1.7840765435184336e-01
         - -3.0734997428923888e-01
         - 2.3466789389844644e-02
         - -2.0409322031831381e-01
         - -9.2308700373358588e-02
         - 1.4416674347132419e-01
         - -2.3693825616746214e-01
         - 3.3926182721370357e-01
         - -1.1624187583690770e-02
         - -2.0447950200071494e-01
         - 1.8628848043570287e-01
         - -1.5627569124442520e-01
         - -7.6291593540562669e-02
         - -1.8226801181634741e-01
         - 2.2514197851200121e-01
         - -2.1260211306683532e-01
         - -8.0413318281024854e-02
         - -3.3066925892026322e-01
         - 7.4967611983706800e-02
         - -2.7758173906728606e-02
         - -9.1988392932521312e-02
         - -7.2121301943063404e-02
         - 4.5353638627780457e-01
         - -2.9004643536469588e-01
         - 1.2206079445048382e-01
         - -3.5132725331316061e-01
         - 2.9955564340446728e-01
         - -2.4543449977705828e-02
         - -1.3951496013989917e-01
         - 3.9502974161993509e-01
         - -1.0744104741438698e-01
         - 2.7925625941780474e-01
         - 2.7535706991936792e-01
         - -2.0288215992888389e-01
         - -7.4517760117842258e-01
         - -1.2603115239765289e-02
         - 8.8668220585381707e-02
         - 2.5037605662335527e-01
         - -5.7831271234442178e-02
         - -2.2844389859352179e-01
         - 1.7118658972730572e-02
         - -1.3722032290235164e-01
         - 4.7858460461244728e-02
         - -3.8116890564827560e-02
         - 2.0056594723004559e-01
         - 7.4515459305667808e-01
         - -2.0171713963283353e-01
         - -1.0587485769472454e-01
         - 2.3645639875442745e-01
         - 3.7346904212987642e-01
         - 2.1356157021288844e-01
         - -2.5556629553889282e-01
         - 2.2357100384403139e-02
         - -2.2325686625600302e-01
         - 7.9215510768319314e-02
         - -6.5201413986844481e-01
         - 5.4387445671762874e-02
         - -8.3937289723261505e-02
         - -4.3961594854572156e-02
         - -3.7987250072719947e-01
         - 4.2363847290312895e-02
         - 3.5735737560351727e-02
         - -1.5001036343244442e-01
         - -2.2450958237592855e-03
         - -8.6776109692976305e-02
         - -1.6581483518812667e-02
         - 5.5747854868262253e-02
         - -2.7689286471509200e-02
         - -6.6796220858795080e-02
         - -5.9764662013543274e-02
         - 1.9268240321323563e-01
         - -1.4203038810614346e-01
         - -6.0122356112728703e-02
         - 3.9827468959765400e-01
         - -7.6725429205207196e-03
         - -1.1406854446691353e-01
         - -8.7499355157618974e-02
         - -3.5088809910864577e-02
         - -3.5529611404309802e-01
         - -7.6393612092448426e-01
         - -3.8661435272799560e-01
         - -9.3318059403388298e-01
         - 1.3173496851718916e-01
         - -9.3499389682396766e-02
         - 1.4675691164239335e-01
         - -9.8067773270319680e-02
         - -3.7803662463353160e-01
         - 2.0719875585230627e-01
         - -2.3687445497550877e-01
         - -4.6354994972625407e-01
         - -1.1439531261665145e-01
         - -7.3530857727803767e-03
         - 1.7246898955943943e-01
         - -7.0204092813179086e-01
         - -6.1165095160593375e-02
         - 8.6753091773770524e-02
         - 8.0130343483733268e-02
         - -4.1140652621143314e-01
         - -3.2557036714775744e-01
         - -4.9643055928840052e-01
         - 2.8974976878294811e-02
         - -1.1634004118260660e-01
         - 1.6430703440236338e-01
         - -4.6274649275988783e-01
         - 4.5673939294031851e-01
         - -7.0459123189081085e-01
         - 2.1860282231793593e-02
         - 5.9560884945069437e-01
         - -7.2397298074273697e-01
         - 6.4690847029386739e-02
         - 3.6545989611588392e-01
         - 4.1216839153334350e-02
         - 1.7036541209497827e-01
         - 7.5163626106738185e-02
         - 7.3339477079192389e-02
         - -5.1504106466502497e-02
         - -4.2370781146553826e-01
         - 5.0972512335965647e-01
         - 3.2746474226419431e-01
         - 3.5626742675889633e-01
         - 3.0517998060175389e-01
         - 7.9230594547052124e-01
         - -4.5204535231720666e-01
         - -3.3275955458663575e-02
         - 6.7984270649110790e-01
         - 1.4391573806376601e-01
         - -2.2833719338838410e-01
         - 6.0823896212541445e-02
         - 4.7506674314023029e-02
         - 8.6970582236066601e-02
         - -6.2188460267926271e-01
         - -1.6303222080627952e-01
         - 6.1495646470006349e-01
         - -4.0217737356585648e-01
         - -5.0507292258285053e-01
         - 9.3113436470517841e-02
         - 7.0416382258832588e-01
         - -3.5080171049890557e-02
         - 1.4535124421109580e-01
         - -8.7195475400938804e-03
         - 6.3824298247214917e-01
         - 2.6282444457627607e-01
         - -3.6213335228304666e-01
         - 1.8218393838436808e-01
         - -1.7588332781030611e-01
         - 5.2702188010518713e-01
         - 1.3074990497225125e-01
         - 2.1789309345278352e-01
         - 1.2894791197978087e-01
         - 1.2039067390620772e-02
         - -8.7061171347812516e-01
         - -6.6721504854142688e-02
         - -2.9534943312388351e-01
         - 1.5039153664480420e-01
         - -3.6473173125802416e-01
         - 1.8939978105120245e-01
         - 7.8378621116773850e-01
         - -2.0976874509923649e-01
         - 3.3461272356632499e-01
         - -4.0950864558332412e-02
         - -1.2181766018196913e-01
         - -1.5691255975965543e-01
         - 1.1776274092743658e-01
         - 4.9403716223827654e-01
         - 7.4720631875329480e-01
         - 5.4646045707697910e-01
         - -6.3432948704361025e-01
         - -1.3015376381422161e-01
         - 3.5506066925663748e-01
         - -2.4312437001309381e-01
         - -7.1720779092341080e-01
         - -2.8510215751336920e-01
         - 4.8911655097589407e-02
         - 8.1506087232549207e-01
         - -5.5818260033447387e-01
         - 3.9143024527234016e-01
         - 3.1693568190810417e-01
         - 3.6813651801031977e-01
         - -9.9798730359546783e-02
         - -5.0093820235854281e-01
         - 5.6939350290501789e-01
         - 1.6992305624098433e-01
         - 1.6327948485531449e-01
         - -4.1229503670681111e-01
         - -4.2929793406689998e-01
         - -9.4913798652659354e-01
         - 1.1212694712932594e-01
         - 3.8163132118849441e-01
         - -8.5196921858817265e-01
         - 2.8005916269521780e-01
         - -9.4803925781370235e-01
         - 5.5531823843344774e-01
         - -3.5561560626173838e-01
         - -1.6163720909439735e-01
         - -4.0231853923111049e-01
         - -2.5029830854742574e-01
         - -9.9442320204656243e-01
         - -2.0255191732192254e-01
         - 3.1845513436465550e-02
         - -3.4549580309382710e-01
         - 1.0139830752990284e+00
         - -6.2225403980397109e-02
         - -3.1040449324550023e-03
         - 8.1168293478840758e-01
         - -7.2909107476752000e-01
         - 5.4834713916917366e-01
         - 2.2448384494439996e-01
         - 4.3726216950982910e-01
         - 5.7353508424965172e-01
         - -2.7758044020900718e-01
         - 7.6687068742060738e-01
         - 8.6454044440735922e-01
         - -3.1188168085800078e-02
         - -3.0718218964991578e-02
         - 3.7976411832179924e-01
         - 4.5842352584545359e-02
         - -1.6256000511528881e-01
         - -8.3633507381494310e-01
         - 2.5875206095043890e-01
         - 1.1491785280202310e-01
         - 1.0200197001991349e+00
         - 5.2580626129706920e-01
         - -2.7758579758701951e-01
         - 1.4976267976355678e-01
         - 1.6567308857777749e-01
         - -2.8493850956830202e-01
         - 1.4388659818799672e+00
         - -9.6884518403124842e-02
         - -5.5269811725842166e-02
         - 4.1292410131694623e-01
         - -1.9703634883553089e-02
         - -8.0770352130095674e-02
         - -3.6183022783058932e-02
         - -7.5526510383638357e-01
         - -2.0132551007356705e-01
         - -7.7279886147632515e-01
         - 9.9738446879745035e-02
         - 3.4523950513765334e-01
         - 9.2045858357474863e-02
         - -3.7623041452788308e-01
         - -5.4395710482809312e-01
         - -6.6979668889651289e-01
         - -4.4952922845587961e-01
         - 6.9720963119866974e-02
         - 6.1105865955888039e-01
         - -7.2338493660547232e-01
         - -1.7755342383019210e-01
         - -4.3844626133306058e-02
         - -3.9624485946523302e-01
         - -2.8347377790295447e-02
         - 6.2736541976691901e-02
         - -3.8905094032742638e-01
         - 1.7401595358484401e-02
         - -4.0176647990632997e-01
         - -1.2844585874699208e-01
         - -6.1822994293732547e-01
         - 1.1834087863739176e+00
         - 2.9852432457306677e-02
         - -4.3650414289897355e-01
         - 7.8068388987483750e-02
         - -5.7112531287025842e-02
         - -6.0584226073934044e-02
         - -1.7070735106008914e-01
         - -7.9806578008042661e-01
         - -5.9039158056854024e-01
         - -1.5949888871992646e-01
         - -4.5350318060131622e-01
         - 4.9721992278543375e-02
         - 4.6690799414277229e-02
         - -6.7663032652642963e-01
         - -2.8788029984111085e-01
         - 5.2231793392322245e-01
         - -6.7437972667924773e-01
         - -7.1329789421358381e-01
         - 5.5492467598378670e-02
         - -6.0478409850775849e-01
         - 9.5093738210092849e-01
         - 1.5302980515537024e-02
         - 1.0018182685689733e-01
         - 1.4871455765834449e+00
         - -6.6955796963804481e-01
         - -7.7743302012068738e-01
         - 4.2827773460380741e-01
         - 2.8031558130670753e-01
         - -1.0168636459470419e+00
         - -1.3209629802718359e+00
         - -1.1435746275834041e-01
         - -7.3570618144712885e-01
         - 1.4201823696420615e+00
         - -2.3816978950470011e-01
         - -1.2677769004108952e+00
         - 2.8856958644348685e-01
         - 6.6608849019073746e-01
         - 2.1992756644280326e-02
         - -1.7314434522449770e-01
         - -2.1859218767671242e+00
         - -2.1567454704940242e-01
         - 4.8250747109462211e-01
         - 8.3126308840351681e-01
         - 1.9227964591058155e-01
         - 5.4432913499493724e-02
         - 1.8720332882604698e+00
         - 1.3410237089706828e-01
         - -8.0160927100697399e-01
         - -4.8714456003577222e-01
         - -9.2610039576583880e-01
         - -1.3739333538860232e+00
         - 3.7932911538873210e-02
         - 6.8060742227695159e-01
         - 1.7845930430565524e-01
         - 7.7120579551744772e-01
         - 3.8840593694412040e-01
         - 4.2637033686307252e-02
         - 1.4614135314712802e+00
         - 6.6246570984905018e-01
         - 4.6465168966361736e-01
         - -5.2472833636197014e-01
         - -1.2900344689827816e+00
         - 4.6476773525136916e-01
         - 9.6563332841926064e-01
         - 6.3140498543953177e-02
         - -1.5896547343194150e+00
         - -9.6887496746636204e-01
         - 4.6346205303780175e-01
         - -3.0196549738672224e-02
         - 6.8882911352833764e-01
         - 1.0655838222013452e+00
         - -2.0882650541963153e+00
         - -1.4833528062305334e-01
         - -1.3773453055999998e+00
         - 2.5110500494818971e-02
         - -2.4750976764062149e+00
         - -1.2878303154627420e+00
         - -7.4880813998762907e-01
         - 3.9210687418376711e-01
         - -9.0322842452693008e-01
         - -9.7274697864875892e-01
         - 1.1673433025111532e-01
         - -1.5325330491130718e-01
         - -1.1489418131366710e-01
         - -6.5583471773116364e-01
         - -2.7602066773977285e-01
         - 6.6825258584530023e-01
         - 1.0869884281489267e-01
         - -2.7577517055356132e-02
         - 1.1457598588856479e+00
         - 4.9828617485379617e-02
         - 1.5349624760077446e-01
         - 6.9741468459217348e-01
         - -4.6700042964092126e-01
         - 1.4377450246089751e+00
         - -4.5265284582442999e-02
         - 7.7365138847047543e-02
         - 6.6270874520369083e-01
         - -1.0849119919060055e+00
         - 7.7705605819870616e-01
         - 2.6353228317448640e+00
         - -1.7870071298736607e+00
         - 3.6875626164705466e-01
         - 4.3751321738959015e-01
         - 6.2934121408236299e-01
         - 1.6650805113798839e-01
         - 8.6913185356237543e-02
         - -7.8487428770264045e-01
         - -7.0449434330269844e-01
         - 8.8730304768275392e-01
         - -3.8329040357760813e-01
         - 1.1860967574875507e+00
         - 1.0730065972031397e+00
         - -4.6042111094841714e-02
         - -9.6483404083325353e-01
         - -1.5793879269268478e+00
         - 8.4808686233072961e-01
         - -4.1728937753108086e-01
         - -8.7823648628449091e-01
         - -6.3756087092504365e-01
         - 8.6015171936850598e-01
         - -1.0193032038097050e-01
         - 3.6237139428350018e-01
      -
         - -1.4045493099828210e-01
         - -2.6626733688212019e+00
         - -8.9962617164869940e-01
         - -2.4391633262999907e-01
         - -6.3021094269612543e-01
         - -9.0321011820953834e-01
         - -8.9299180148689317e-01
         - 9.6382587675606701e-02
         - -1.1674817196882611e-01
         - 1.9023831943441905e+00
         - 9.0237149143600981e-01
         - 2.7934621278704241e-01
         - -1.8785278477282907e-01
         - 5.0322854532490802e-01
         - -1.4108091439737369e+00
         - -1.5479419497245084e+00
         - 1.0390794702295818e+00
         - -2.8789811388636377e-01
         - 3.0608447008215023e-02
         - 5.8955003468010825e-01
         - 5.5525469318046194e-01
         - -8.7566867495907874e-01
         - 2.0286535501333786e-01
         - -2.3594452319747902e-01
         - 6.6237472946064890e-01
         - 2.0002712331466907e-01
         - 1.6224605252036319e+00
         - -1.6806281803210521e+00
         - 2.3475597596905570e-01
         - 4.0717888227078824e-01
         - -3.8842759784126812e-01
         - 5.3681366431560240e-01
         - 1.5890175040356973e+00
         - -1.7876644876674272e+00
         - -3.6600396353023612e-01
         - -7.6399810691145331e-01
         - -1.9868409701750296e+00
         - -8.7590820059754015e-01
         - 1.9743413400627314e+00
         - 5.9923759800729604e-01
         - 1.2832204483020954e-01
         - 7.8302421755468443e-01
         - -8.8029605733586114e-01
         - -5.7047328772201278e-01
         - 5.6308036865999889e-01
         - 6.8751082289246235e-01
         - 1.1244593000058289e+00
         - 1.7693988655994319e-01
         - 5.3092805810825594e-01
         - 1.4413258385636378e+00
         - 4.9827229671740203e-01
         - -3.5143544655275233e-01
         - -6.2894961720090703e-01
         - -8.7795020629275622e-01
         - 3.3020026277196179e-01
         - 8.0048183586034061e-01
         - 1.5299542216844231e-01
         - 1.7593298485042549e-01
         - 6.9259820395240090e-02
         - 3.7675014448926814e-01
         - -1.4516352680789424e+00
         - -4.9044596679520602e-01
         - -4.5799801740170765e-01
         - -1.5571036826879874e+00
         - -1.3451345568859656e+00
         - 1.8784813263918099e+00
         - 1.4373568207828002e+00
         - -2.8892030059941520e+00
         - 6.1583179443317726e-01
         - 6.4031061470476514e-01
         - 8.2752235769678761e-01
         - 1.5610994127518513e-01
         - 4.4040188225411753e-02
         - -2.2791025784326566e-01
         - 7.7681727874867523e-01
         - 6.0099506182068507e-01
         - -2.4604272997721774e-01
         - 1.4767371961617850e+00
         - 7.9874254743871964e-01
         - 2.6763230666002064e-01
         - 1.3257259304428675e+00
         - -6.0828753609548325e-01
         - -1.8579408932530311e-01
         - 2.1903097402033942e+00
         - -2.5550536380862536e+00
         - -2.0059787523495136e+00
         - -3.9581040497692177e-01
         - 3.7639164047988363e+00
         - -5.2380764471990915e-01
         - -1.7200973280435519e+00
         - -2.3143435264664793e+00
         - 2.6857955906349145e+00
         - -6.3202736391228409e-01
         - 2.1116493716253476e-01
         - -2.4953061842435149e+00
         - -1.3069997423394115e+00
         - 5.7737861463009532e-01
         - -1.8111481116541663e+00
         - -5.3659664571361465e-01
         - 2.4350649958596801e-01
         - -1.1101290950022427e+00
         - 9.6822661907666863e-01
         - -2.2410136509804830e+00
         - -1.7081139583052025e+00
         - 2.0634055793322772e+00
         - -3.1235696714669747e-01
         - 1.4740330628222806e+00
         - -1.4371521635357656e+00
         - 1.5157250724654394e+00
         - 1.0443225283868078e+00
         - 3.0815920839291056e-01
         - -1.6883170957269597e-01
         - -4.0353934715009006e+00
         - -1.3013263601419083e+00
         - 3.1838306603872646e-01
         - -1.0333918202443022e+00
         - -1.5033279223606004e+00
         - -3.9675156560050486e+00
         - -2.2380807347101359e-01
         - -4.4956851840410900e-02
         - -5.2238201025404907e-01
         - -1.7710418316707255e+00
         - -2.7210741240640681e+00
         - -1.6524827226325671e+00
         - 1.9093043955852935e+00
         - -9.9500495461146277e-01
         - -1.2477538728380300e+00
         - 4.2259302071034610e-01
         - -3.3574723143293939e-01
         - -2.0695444352213452e+00
         - 1.0875827344625355e+00
         - -5.1103249573822263e-01
         - -2.2461300743456558e+00
         - 3.2894988823736426e-01
         - 5.7624155192560489e-01
         - 6.5188664001236674e-01
         - 3.6623531141749099e-01
         - 4.8319192710730674e-01
         - 4.9437977733130478e-01
         - -7.3641832760164150e-01
         - 4.0213951056709363e-01
         - 4.5207949105502754e-01
         - -3.0950835196990423e-01
         - 4.4650806889659195e-02
         - 1.5770159617230854e+00
         - 7.0858171084357296e-02
         - 1.3539603058059513e-01
         - -6.7378644492313622e-01
         - 1.5623949115961593e+00
         - -2.0744259368408349e+00
         - -1.1324322079668403e+00
         - -5.1497050797494892e-01
         - 5.8932938525205081e-01
         - -3.2064821601713622e-01
         - 4.6689539121443979e-01
         - -8.3651093221793693e-01
         - 1.6593850086893978e+00
         - 4.0293220517501438e-01
         - 2.7922348112622410e+00
         - -5.6340235581615472e-01
         - 2.1015267107612923e+00
         - 8.0989719012710604e-01
         - 8.0934728208477236e-01
         - 6.6154434897224801e-01
         - -1.1354329472653175e+00
         - -3.1885090239637537e-01
         - 1.8772755115508744e-01
         - 1.5556023260376606e+00
         - -1.0510790247319677e+00
         - 1.3204612073735436e+00
         - -1.3268980072369498e+00
         - -4.6946195004938329e-01
         - -1.8244921773245228e+00
         - -1.2356791860652454e+00
         - -2.6807190212591459e-01
         - -7.4112328766894620e-01
         - -1.3765448877369441e-02
         - 6.4846928707953400e-01
         - -8.6257598796646151e-01
         - -9.1717114189680682e-01
         - 1.1218076961341321e+00
         - 7.1880672858122141e-01
         - 2.7220708910300111e+00
         - 6.1154265726098167e-01
         - 3.1595099386572745e-01
         - 1.5356154275943430e+00
         - -1.2852703150465736e+00
         - -5.1580320341824781e-01
         - -3.1859278237903915e-01
         - -2.1269218438591855e-01
         - -1.2987980494094813e+00
         - 1.2825739723486951e+00
         - 2.0498593475410147e+00
         - 1.3808626831835393e+00
         - -1.0872174947217133e+00
         - -1.1041767792555874e+00
         - -5.6915687783444052e-02
         - -1.1901626887505032e+00
         - 1.3134268910430640e+00
         - 1.4720346227340336e-02
         - 2.1534943489048683e-01
         - 2.3679480192262345e+00
         - 8.6506038258242557e-01
         - -5.1950457897554536e-01
         - -7.8141001259901333e-01
         - 2.5425709075709058e-01
         - -7.4973787023425387e-02
         - 1.3828303019778990e-01
         - -8.4312518228351008e-02
         - 1.5692270289446293e+00
         - -2.3598935136654645e-01
         - -1.0835294788680208e+00
         - 1.1608456928307416e+00
         - 2.5950081167291468e+00
         - -1.3314863990277188e+00
         - -1.4627213248297302e+00
         - -6.7873639709856304e-01
         - 7.9882127307998974e-01
         - -1.3359085731023252e+00
         - 4.2778420462467848e-01
         - 1.6223859157042537e+00
         - -1.2553689450938976e+00
         - -5.8757760507430401e-01
         - -6.2275062077808629e-01
         - 9.1643929572082194e-01
         - 2.3165242703642135e+00
         - 2.9491155430952498e-01
         - -6.3092764665595635e-01
         - 1.3314239029735402e+00
         - 1.9485336477398432e-01
         - 1.0895501460781312e+00
         - 1.6166421656032814e+00
         - -1.9092667093381137e+00
         - -1.2333729344159170e+00
         - 4.8896478879925609e-01
         - -6.4504271755127307e-01
         - 1.9445493189585603e+00
         - 1.1314262363759653e-04
         - -2.9100451326056498e-01
         - 5.8340365265429267e-02
         - -6.4571454934189176e-01
         - 3.4720935904671058e-01
         - 2.4148709465707921e-01
         - -4.4538217597860918e-01
         - -1.2572329791627399e+00
         - 8.4877031677102788e-01
         - -6.9561380389117000e-01
         - 6.9903013883238185e-01
         - -1.2552644473195902e+00
         - -2.6021373840895895e-02
         - 1.4159421949787256e+00
         - -4.2426565497678181e-01
         - 1.2976000685006701e+00
         - 2.4850931016092162e-01
         - 8.7258736651953284e-01
         - -5.8483271217413618e-02
         - -2.3658637300931882e+00
         - 6.4904112551711768e-01
         - -1.3227801272696402e-01
         - -1.2676436277095802e+00
         - -1.6102161376013724e-05
         - 5.3281300159105371e-01
         - 5.6465834804240411e-01
         - -8.4464777897234583e-02
         - 1.4627260829196254e+00
         - -1.5499286753697754e+00
         - -7.6346119647198152e-01
         - -4.7189559453391827e-01
         - 1.5473763047294693e+00
         - 1.4930847297805216e-01
         - -1.4091770412917126e+00
         - 8.5868982175148145e-01
         - 2.0030308689018677e+00
         - 2.1379119074359618e+00
         - -1.6933085319268844e+00
         - 6.2098533651687021e-02
         - -1.2371476986535721e+00
         - -7.2972486856151597e-01
         - -5.1025378910359548e-02
         - -5.6864488054682827e-01
         - -1.4849545434478451e+00
         - -5.5328510654315960e-02
         - 1.1546399508216929e+00
         - -9.3931838817655466e-01
         - -8.4571398267686027e-01
         - 4.4895781762289566e-01
         - 3.2603795523670587e-01
         - -7.9171826972682902e-01
         - -9.7409881510482010e-01
         - 1.6861547458320422e-01
         - 4.1062525819661977e-01
         - 8.0323380455928350e-01
         - -7.9428180576381746e-01
         - 8.0410248288213415e-02
         - 1.2693704420402114e+00
         - 1.4844492518750854e+00
         - 4.1747325493353094e-01
         - -8.6624721247685332e-02
         - -2.5767913975924217e+00
         - 1.2376083730503415e+00
         - 9.1774588182523387e-01
         - 7.0797195816163094e-01
         - 3.0856989153962475e+00
         - 7.2980391942024680e-01
         - -1.0950732433202295e+00
         - -1.2723579645884433e+00
         - -1.4448809247245025e+00
         - 8.4813836958348532e-01
         - -5.3712476967459166e-01
         - 3.0171301516820115e-01
         - 1.2971081520832581e+00
         - 1.0010927976202519e+00
         - 1.1816565108482411e+00
         - 4.3921712446264494e-01
         - 7.1333765885685324e-02
         - 1.7776395405363907e+00
         - -1.0942974888128671e+00
         - 1.0462586492903463e+00
         - 1.8369645547058044e+00
         - -8.0533897738935301e-01
         - 1.4334146553283944e-01
         - 3.0877772730731656e-01
         - -1.3437293819985439e+00
         - -2.2532810178629267e-01
         - 6.1111192228675326e-01
         - -4.6435522159672538e-01
         - -1.5901579501293535e+00
         - 1.1103120001192133e+00
         - -2.2974634025251026e+00
         - -5.0732274602750604e-01
         - -1.4095323019497106e+00
         - 1.5966080172526365e-01
         - -2.3006956394884029e-01
         - 2.0806440002228701e+00
         - -2.2118344317719019e+00
         - -1.6510290045069529e+00
         - 1.5731169073529283e-03
         - -3.0927833521630521e-01
         - 1.9380573793396811e+00
         - -8.2321720141652288e-01
         - -1.2948581750752071e+00
         - 7.5046623168214954e-01
         - -1.2885313103491769e+00
         - 7.9802486080744628e-01
         - -1.2745666640043061e+00
         - -2.0878518604867562e+00
         - -3.1649688602009931e+00
         - 3.0264841526394526e+00
         - -1.2874769925952341e+00
         - -6.9608086888670584e-01
         - 5.0090768422856513e-01
         - 7.3561162492527588e-01
         - -9.7261050148210926e-01
         - -1.2952494829417334e+00
         - -8.0045811288195590e-01
         - -1.8435825906193444e+00
         - -1.0800659257196010e-01
         - -1.5743123697199829e-01
         - -1.8801972035431156e+00
         - -2.1056852388333622e+00
         - 6.9990360416248387e-01
         - -2.4107209819685802e+00
         - -2.4376835336267231e+00
         - -1.6491602058398269e+00
         - 6.5524265417343841e-01
         - -1.0817490530178551e+00
         - -6.5902293626434216e-01
         - 1.0455498632696434e+00
         - -2.1706508027349534e+00
         - -1.3325445924661899e-01
         - 2.1106035697833692e+00
         - 9.5995417106017167e-01
         - 1.1136887031985192e+00
         - 1.4687217942895461e-01
         - -3.0228175441825511e-01
         - -8.2159934811930735e-01
         - -3.4359159066209399e-01
         - -2.5187141965954618e+00
         - -1.8213438917592473e+00
         - -1.3477825061609161e+00
         - -6.4971732017096162e-01
         - 8.2562828655825071e-01
         - 1.3235391054786436e+00
         - -7.1326727775950061e-02
         - -2.2446915893010033e-01
         - -1.4114581435767862e-01
         - 1.6023221711059086e+00
         - 1.3832662680415666e+00
         - -1.9691213421263134e+00
         - 9.3499598436967118e-02
         - 7.2801067167028199e-01
         - -5.1693045708189178e-01
         - -1.0630284720983048e+00
         - 1.0804595348522117e+00
         - 4.3929411262759532e-01
         - 6.7181057072294348e-01
         - -8.2393616165404115e-01
         - 1.7871250852612961e+00
         - -4.4877881374794060e-01
         - 3.6280506682644120e-01
         - 5.2693303239922518e-01
         - -1.7320261218028560e-01
         - -4.4952437084259711e-01
         - -1.8881103481706385e-01
         - 1.4094367134943628e+00
         - -4.4663236255768757e-01
         - 1.1347460376279599e+00
         - -1.5392973405600874e-01
         - 1.0478196638372066e+00
         - -1.2151473469094116e+00
         - 4.3662434544268791e-01
         - 1.1377989956294219e+00
         - -1.3564280668554656e+00
         - -6.3835860668989708e-01
         - -1.9974117791055683e+00
         - 2.2577084990930918e-01
         - 1.5762244441636606e+00
         - -3.8317929578581809e+00
         - -1.6140973000992214e+00
         - -7.1237514668646174e-01
         - -1.0283935768829631e+00
         - 8.8799202944781019e-01
         - -1.5572256553125894e+00
         - -1.5615822415457126e+00
         - -6.6991143983597651e-02
         - -1.7305629921416539e+00
         - 8.0251275490069968e-02
         - 4.2432387107825931e-01
         - 1.2605684156441824e-01
         - 7.7253768359197694e-01
         - 1.2053888777373309e+00
         - -1.0234881851574058e+00
         - 4.5972400069707803e-01
         - 3.8250622458106531e-01
         - 1.4949254983392357e+00
         - 3.6474967026790983e-01
         - 2.6619570844914611e+00
         - 1.3253444070568414e+00
         - 2.3428061318193869e+00
         - -1.5452669369303110e-01
         - 7.2946685168086917e-02
         - -4.9890010002673701e-01
         - -4.2616740949499055e-01
         - 7.0591553140722041e-01
         - 4.1264366461777413e-01
         - -9.6075967378327998e-01
         - 8.5425937493960713e-01
         - 1.7680036879167129e+00
         - 3.8440842817827636e-01
         - -9.1631428112035596e-01
         - -3.6783872797790662e-03
         - 1.8350950413359124e+00
         - -4.9533969735932237e-01
         - -4.3399081822392716e-01
         - -2.5238022140766181e-01
         - -4.9464978348927635e-01
         - 1.0293841889612367e+00
         - -2.3710261090305496e-02
         - 8.5864314239005612e-01
         - -5.1622420698774985e-01
         - 9.0285524978427945e-01
         - 2.7725629247879002e-01
         - 2.8182470610456933e-01
         - 1.4407049543933874e+00
         - -2.3410703060431345e-01
         - 1.2190822217082273e+00
         - 4.9236167092164740e-01
         - -8.2518946055145492e-01
         - -1.6417528190982408e-01
         - 9.2621350827524640e-01
         - -1.3991039996221917e+00
         - 8.5515478402740014e-02
         - -1.0389267339663926e+00
         - 1.1718998495522250e+00
         - -8.6492500684833273e-01
         - -1.7701901782164411e-01
         - -2.2668116185362994e-01
         - 3.4813374686303444e-01
         - -5.1987170513999670e-01
         - -7.6935937012321964e-01
         - 2.2496276006435365e-01
         - 1.6583311237705703e-01
         - 1.5876595650115948e+00
         - -2.0073896633049140e+00
         - 1.1198570540964197e+00
         - 1.5359460435145174e+00
         - 5.0246719575678123e-01
         - 2.1473360932956247e+00
         - 2.1538439245026924e+00
         - -5.9464144643812733e-01
         - 1.8542116835339921e+00
         - -1.4207311939288390e+00
         - 1.4118038930437635e+00
         - 4.4689223029119124e-02
         - 4.7971251411420601e-01
         - -2.0526527098405131e-01
         - -7.0721578791484874e-01
         - -6.1685869190620601e-01
         - 6.3141490033938907e-01
         - 2.1446254129733131e-01
         - -2.0693637191186629e+00
         - -2.0835730882673489e+00
         - 1.0860850901731389e+00
         - 1.9969356939469449e+00
         - 2.4654444568233977e-01
         - 1.9967081305723955e+00
         - -1.9305490821676097e+00
         - -5.9117018279675648e-01
         - -1.4731786544477772e+00
         - 9.3120157486950805e-01
         - -1.9874310005631655e+00
         - 9.7070078766300949e-01
         - 3.9212250203880274e+00
         - 1.4693425080701774e+00
         - -1.1279867760420570e+00
         - -5.9110726884099407e-01
         - 2.3699597175297193e+00
         - 5.6320978999204796e-02
         - -1.3394941166445808e+00
         - 1.5331645750016776e+00
         - 2.0904653109307008e+00
         - 7.1793563409413119e-01
         - 2.7191823631874521e+00
         - -1.4432378978916336e+00
         - 4.5012910569566633e-02
         - 1.4745628534566770e+00
         - -5.6214902501215991e-01
         - -1.3611681194951506e+00
         - 1.2474197779815532e+00
         - 1.4701946774638210e+00
         - -2.1746488490999832e-01
         - 2.0656594505308932e+00
         - 2.7881420644926118e+00
         - -9.9701917247102190e-01
         - -3.8028540022105921e+00
         - -3.6813986421836675e-01
         - -9.7108426960646488e-01
         - 1.0946870347162256e+00
         - -2.3485620754178056e+00
         - -4.4965039814452368e-01
         - 1.3061082376313038e+00
         - 1.1852355158207457e+00
         - 1.9838782077876438e+00
         - -1.5295781062229352e+00
         - -1.4741139704137387e+00
         - 6.6759538668197538e-01
         - 2.1425694001498239e+00
         - 1.2645940613781605e+00
         - -1.4742776599196898e+00
         - -2.3540377715477609e-01
         - -1.6812982319124732e+00
         - -2.7965584566862356e+00
         - 1.0631748888123660e+00
         - 1.9824919740157396e+00
         - 1.0943195924104550e+00
         - 1.7577600786809995e+00
         - 3.0585530602936872e-01
         - -1.5657678561734543e+00
         - -1.8002027797477611e+00
         - -1.4900902760533037e+00
         - 2.2022028067133667e-01
         - -5.2086276053514613e-01
         - -5.3317997067990808e-01
         - -2.5674524984425164e+00
         - -5.1114479766685850e-01
         - -1.5834313494125569e+00
         - -2.3866214771343195e+00
         - 2.4682169604417406e-01
         - -1.2394506819837845e+00
         - -2.5534619407706307e+00
         - 9.7124923640067362e-01
         - -1.4868509355885573e-01
         - 1.5365577367895882e+00
         - 6.4002121370664378e-01
         - 1.2601270728500407e+00
         - -4.5962658182255911e-01
         - -2.0398243120211097e+00
         - 1.3543009912155131e+00
         - 1.7564771580382252e+00
         - 2.6027306592870008e+00
         - 5.5256400178511889e-01
         - 4.7000674017423227e-01
         - -2.7423201400387076e+00
         - 1.3212532921071081e+00
         - -1.6687929783916584e+00
         - 1.8068141158842153e+00
         - 5.9370651946345365e-01
         - -3.5063001882960132e-01
         - 6.4187800544383788e-01
         - 1.8494125631562868e+00
         - -3.2456075076346562e+00
         - 1.0964892182710326e+00
         - 2.2179339728838052e-01
         - -1.0901929203254994e+00
         - -1.9424084006320275e+00
         - -5.3017259474551082e-01
         - 1.5236446490664597e+00
         - -2.7112579853821950e-01
         - -1.4835660072290449e+00
         - 2.0477033412093766e+00
         - -4.5024801357029798e-01
         - -7.8338904224091277e-01
         - 1.3891621743590532e+00
         - -9.2485850832607686e-01
         - 9.2073961903097878e-01
         - -1.9057300031247182e-01
         - -5.8199391969046299e-01
         - -4.3144753332721664e-01
         - -1.3880205996275716e+00
         - 9.1558746379235323e-01
         - 1.6423270844051663e-01
         - -2.6219317442140611e-01
         - -1.7560607773258139e+00
         - 2.4119407266802901e+00
         - 8.2391599864699139e-01
         - -6.6135374771368538e-01
         - 3.5312541051218727e-01
         - -4.1280318109945002e-01
         - -2.8191395027972266e-01
         - -4.3802719549645730e-01
         - 1.1373733529131687e+00
         - -1.6879050250981369e+00
         - 4.0946785158585275e-01
         - 1.4781638498139273e+00
         - -9.9210949721489028e-01
         - -8.4910777502533979e-02
         - 1.3030636554511132e+00
         - -1.8261141414044566e+00
         - 2.0101204339915051e+00
         - -3.9764647126515257e-02
         - 1.4033681349686584e+00
         - 1.1415684251597731e+00
         - -7.0750094872669422e-03
         - -2.2414443072127805e+00
         - 3.1401757729036728e+00
         - -3.1294830908222817e+00
         - -8.9894147401128943e-01
         - -9.0984372462254914e-01
         - -1.7126926848755381e-01
         - 9.8004277772598702e-01
         - 7.0561516604723562e-01
         - 2.2217204164857535e-02
