%YAML:1.0
---
opencv_ml_ann_mlp:
   format: 3
   layer_sizes: [ 21, 100, 100, 1 ]
   activation_function: SIGMOID_SYM
   f_param1: 6.6666666666666663e-01
   f_param2: 1.7159000000000000e+00
   min_val: -9.4999999999999996e-01
   max_val: 9.4999999999999996e-01
   min_val1: -9.7999999999999998e-01
   max_val1: 9.7999999999999998e-01
   training_params:
      train_method: RPROP
      dw0: 1.0000000000000000e-02
      dw_plus: 1.2000000000000000e+00
      dw_minus: 5.0000000000000000e-01
      dw_min: 1.0000000000000001e-01
      dw_max: 50.
      term_criteria:
         iterations: 300
   input_scale:
      - 9.6822038743837824e-01
      - -5.0405551615789107e-02
      - 9.4223459517134001e-01
      - -2.2349804533510209e-01
      - 8.0192077442589405e-01
      - -5.1476898221840284e-01
      - 7.0186828607896079e-01
      - -7.7524159717566721e-01
      - 5.8457773609199670e-01
      - -7.7315082458629070e-01
      - 5.4945582419477701e-01
      - -1.1405274276415855e+00
      - 4.7017710315359473e-01
      - -1.2619459412208056e+00
      - 5.5373505569042458e-01
      - -1.4718720813895172e+00
      - 5.9663099477763470e-01
      - -1.6608536344130918e+00
      - 6.9649648843471268e-01
      - -2.1248714890577278e+00
      - 6.2020204570039150e-01
      - -2.0022354796116946e+00
      - 6.5378721143068674e-01
      - -1.9303851984972638e+00
      - 5.9100679197746309e-01
      - -1.5608725802482262e+00
      - 5.5617712611072656e-01
      - -1.4552040837474667e+00
      - 4.8454742915676130e-01
      - -1.2242090772211998e+00
      - 5.5441689270715744e-01
      - -1.0967142282530520e+00
      - 6.1184824017981843e-01
      - -8.3136715176035270e-01
      - 7.0159595087869531e-01
      - -6.3014541964381543e-01
      - 8.4452767596089895e-01
      - -4.8178614716365525e-01
      - 9.1158600824214986e-01
      - -3.0942875597013952e-01
      - 1.0027004181191814e+00
      - 5.5329008152621470e-02
   output_scale:
      - 1.
      - 0.
   inv_output_scale:
      - 1.
      - 0.
   weights:
      -
         - -3.5656917101778438e+00
         - 4.5305346997201754e+00
         - 5.1806219108390321e+00
         - 3.6876586933350124e+00
         - 1.4085434214377885e+00
         - -5.7647445546258727e+00
         - -2.7192788567108384e-02
         - -8.9520610720629712e-01
         - 2.8247077412137389e-01
         - -3.8805207693842492e-03
         - -5.2437545688458354e+00
         - 3.6622058551285215e+00
         - 4.4184900413361410e+00
         - 4.5924526155312471e+00
         - -2.2817617186250017e+00
         - 1.3597366582513191e+00
         - 4.7160793958744496e-01
         - -1.5342691922796894e+00
         - -8.2879927863851166e-01
         - 2.1824765665771264e+00
         - 7.9997769052065670e-01
         - -3.4693732675651594e+00
         - 7.9133457124749851e-01
         - 7.2225855659433846e-02
         - -6.8936463175434080e+00
         - -7.1916696014245096e-01
         - 8.1539973267012633e-01
         - -1.4282801511651040e+00
         - -3.5945190414375126e+00
         - -5.8060231627156578e-01
         - 8.1307677893207475e-02
         - -1.0557230599053808e+00
         - 1.5907319213989823e+00
         - -1.9620249120677333e+00
         - 2.3089124491588180e+00
         - -2.1360972146072714e+00
         - 1.7028203122834202e+00
         - -2.6251990150155486e+00
         - -3.3445038313528896e-01
         - -1.2188956849355967e+00
         - 2.1948754095081395e+00
         - 2.7763159475603627e-01
         - 1.3386495303161825e+00
         - -2.6510172733992645e+00
         - -2.1897563476257162e+00
         - -2.1371918680894847e-01
         - -3.7511516478474694e-01
         - -1.0465322069556153e+00
         - 1.7259514828885587e+00
         - 5.3343779355903518e+00
         - 3.0973922392246962e+00
         - -9.9840490838084628e-01
         - 3.8281573733958858e+00
         - -6.2168586118229907e-01
         - 5.6413701921820070e-01
         - 3.7168986036847711e+00
         - -4.5216992501832074e+00
         - 6.4250441263621330e+00
         - 7.6405183006613586e-01
         - -1.4166586734704021e+00
         - -4.4148986674045290e+00
         - 4.6780573800449368e+00
         - 7.6802187653616660e-01
         - -1.6886605986633509e+00
         - -4.0932751731104569e+00
         - 2.5893189726514891e+00
         - 3.1050048707789650e+00
         - -7.3435831270180056e+00
         - 4.5579655963263788e-01
         - 1.0929133893227450e+00
         - 4.4622514369408188e+00
         - 3.3007866104541366e+00
         - 6.4150828958037076e-01
         - -1.0261235321055375e+00
         - -4.0985205843540407e-01
         - -5.4284085797602124e+00
         - -6.7367734331835116e+00
         - -4.1094324078638609e+00
         - 2.9936951478362390e+00
         - 7.5724111097259184e-01
         - 5.9389373305732895e-01
         - -1.0012254875231952e+00
         - 1.7679704277583994e+00
         - 4.2903680671322606e+00
         - 2.3526825783704934e+00
         - 6.2208133314336900e+00
         - 1.8305510606016784e+00
         - -1.8099444237602726e+00
         - -5.0991914497494415e+00
         - -1.8708706004370033e+00
         - 2.0623984480299358e+00
         - 4.4933962362403213e-01
         - 4.0617997331927089e+00
         - 2.9925192475792435e+00
         - -5.3544910487586437e+00
         - -8.8945055680373908e-01
         - 3.6531578209982403e+00
         - 7.6530857126903745e-02
         - 2.2467629618168758e+00
         - 8.5877792606201864e-01
         - -2.3303048913756936e+00
         - 2.3149247966133006e+00
         - 2.7958963742563603e-01
         - -2.6515231265701156e-01
         - 2.4727987192185776e+00
         - 1.0452693486420752e+00
         - 8.6470877482764552e-01
         - 4.9113212720521338e+00
         - -2.8314531759914883e+00
         - 6.2089796003723205e-02
         - 3.9576112351925921e+00
         - 1.1698719463829308e+01
         - 4.6309647465275559e+00
         - 1.9615638114360436e+00
         - 2.4965139033860977e+00
         - 2.3847965002183455e+00
         - 2.0173813112110941e+00
         - 1.7810399838125959e+00
         - 8.2099116041336795e-01
         - 2.0816878583629852e+00
         - -1.0676732330454444e+00
         - -1.3723140896524089e+00
         - 2.5461546056494497e+00
         - 2.5962327055043497e+00
         - -3.4107205028361145e+00
         - 4.1875985702264229e+00
         - 8.5172866896544486e-01
         - -1.7713500804042586e+00
         - 4.0781440839756486e+00
         - -3.5972629251391557e+00
         - -2.3787953494356167e+00
         - 5.1583685888465718e+00
         - 1.3875691607637495e+00
         - -1.4579596991064170e-01
         - 3.4035092811326000e+00
         - 2.2874786594195253e+00
         - -8.7150741375460932e+00
         - -1.8300223370089310e+00
         - 1.7776346739377828e+00
         - -4.7178890384326522e+00
         - -1.2494108520649858e+00
         - 1.1962062269099702e-01
         - 4.8248844828496749e+00
         - -3.6285396715232925e+00
         - 9.1477930916054151e-01
         - -9.8255960142424226e-01
         - -2.9213900120278335e-01
         - -3.3554971585774795e-01
         - -2.5834858762888393e+00
         - 6.6946102557394083e+00
         - 3.1150217995383969e+00
         - -4.0614034758345996e-01
         - 2.4650979990070603e+00
         - -9.4243991574622898e-01
         - 6.3594821190475619e+00
         - -8.6513632617384006e-01
         - 2.3436790012244754e-01
         - -2.1359424980513451e+00
         - 2.8754746304740313e+00
         - -1.3505935549027404e-01
         - 1.8376388161198437e-02
         - -4.2021966992226745e-01
         - -2.3794964000553409e+00
         - 1.5003706214469212e+00
         - -1.4137106655370237e+00
         - -9.1760269032381270e-02
         - -7.6649813714581239e-01
         - 3.1718123324482446e+00
         - 3.6858929111884282e+00
         - 3.6027727274059096e+00
         - -3.5534777971998843e+00
         - 6.4973087040995348e-01
         - -1.1385115603050626e+00
         - 2.7244036163659391e-02
         - 2.3272531931317672e-01
         - -1.9373862678620144e+00
         - 1.7283545878233204e+00
         - -4.7043680565649637e-01
         - 2.1339996102983858e+00
         - 1.9144962428875485e+00
         - 1.8729225129493869e+00
         - 8.3473683270106902e-02
         - -2.4465512361166604e+00
         - -3.0763861675930184e+00
         - 1.4348743370560841e+00
         - 5.9015907170702873e+00
         - -1.5865753711816588e+00
         - -2.2163688391560044e+00
         - 3.3818632067240650e+00
         - 1.0852971455694274e+00
         - -1.1202920420246396e+00
         - 9.7601095566917728e-01
         - 3.0168188285153481e+00
         - -3.1035003827027947e+00
         - 1.5337765169023665e+00
         - -4.4941555327774652e-01
         - 2.6029090439519957e+00
         - 2.3740030047259202e+00
         - 7.5626817097537047e-01
         - 4.7652625656327379e+00
         - 1.1355883850735013e+00
         - -1.2560116716952723e+00
         - 1.4585771403680903e-01
         - 9.5447955014321606e-01
         - -1.6142585199286392e+00
         - 1.7457938191093245e-01
         - 4.6722904399346428e+00
         - -1.9066787878835934e+00
         - 2.7079113533564256e+00
         - -9.6293590108785154e-01
         - -1.9559852209283770e+00
         - 1.7521665055419744e+00
         - 2.4698202501869657e+00
         - 2.8150214289470075e+00
         - 4.6236113841559749e+00
         - 2.1570538586650637e-01
         - 1.0852248727459546e-01
         - 9.0716995732569405e-01
         - -1.9580092192366250e+00
         - 9.1236332494388062e-01
         - -1.3397633741760395e-02
         - -2.8166522597753163e+00
         - 3.5349393707968257e-01
         - -3.1159514858711761e+00
         - 1.8169637782291570e+00
         - -4.0371501666345821e+00
         - 2.2537404028918222e+00
         - -1.9485951607978178e+00
         - 4.5781270326189905e+00
         - -5.4014754716149538e+00
         - 2.0947629086496327e+00
         - 6.0730584518240143e+00
         - 1.3218605235387870e-01
         - 9.5252202686739651e-01
         - 1.1083480464848841e-01
         - 3.5268708035460850e+00
         - -1.1389353398756361e+00
         - 2.5468005595497969e+00
         - -8.7383755064067603e-01
         - -4.6937201354080127e-01
         - -1.3874590955077182e+00
         - -3.3203656480177770e+00
         - -3.3354462122862656e+00
         - -6.6619944647645850e+00
         - -2.4626503311345513e+00
         - -3.0195417753084834e+00
         - -6.3109880653887585e-01
         - -2.0716235839173622e+00
         - 4.2319370773663261e+00
         - 1.1549833969315693e-03
         - 6.6419400462370914e+00
         - -1.5459371218496549e+00
         - 7.9171634480430804e+00
         - 1.5504706194602160e+00
         - 1.1338356782549570e+00
         - 8.0244833338827148e-01
         - -3.5902713644318025e+00
         - -5.6855136517831975e+00
         - 2.8317961952001789e+00
         - -1.5123338525398273e+00
         - 2.3310903797099352e+00
         - 1.4550251409168382e+00
         - 3.8726651936628986e-01
         - -8.3781151641232399e-01
         - -4.9065494180804003e-01
         - 3.3223713464298910e+00
         - 1.1590567694205161e+00
         - -7.0928445072899615e-01
         - -1.9615042266474765e+00
         - -7.5523386315626806e-01
         - 4.4281393317565865e+00
         - -1.6705078961214486e+00
         - 2.3286901733309344e+00
         - -5.0965139955533054e+00
         - -2.8757132997678685e+00
         - -5.9870446239914399e-01
         - -8.9043646903470741e-01
         - -3.9041860262342831e-01
         - 2.9180629920568291e+00
         - 5.7698456854312918e-01
         - -1.6784928478392693e+00
         - -1.8637615659483715e+00
         - -2.3083514118118749e+00
         - -1.3802232013768151e-01
         - -1.4530708705562085e+00
         - 4.6156863997375297e-01
         - -4.3914983485232941e+00
         - 6.9984254676204893e-01
         - 2.1473583104007785e+00
         - -2.0234941722086450e+00
         - -2.8813282959675957e+00
         - 1.3928470542642315e+00
         - -2.2239266164562285e-01
         - 2.5327176502156989e-01
         - -2.9241338311594154e+00
         - 3.0384270219866836e+00
         - 3.9791612580916720e+01
         - -2.4389207621802087e+00
         - 3.6524994066986771e+00
         - 6.4141116627365891e-01
         - -1.0257689372233216e+00
         - 3.5582657944323148e-01
         - 9.1505817019244901e-02
         - 6.6168670749494984e-01
         - 2.4043235189931194e+00
         - 3.6850303285654178e+00
         - 3.2301659299705445e+00
         - 2.5614273417696070e+00
         - 4.5747430113587495e-01
         - -2.6191244635669180e+00
         - -3.3805929878477492e-01
         - -8.4904898746791635e-01
         - -2.7847933247313192e+00
         - -8.6748414207340585e-01
         - 1.8885161419126777e+00
         - 9.4110105543347855e-01
         - -9.2805413449806473e-01
         - 4.2752724909352597e+00
         - 3.2128437290608334e+00
         - 5.1168689624148396e+00
         - -1.6555153348586302e+00
         - -3.4544350068896339e+00
         - -8.6588464495887085e-01
         - -2.4452816117665304e+00
         - 2.1644331836460404e+00
         - 1.1837765827782609e+00
         - -3.7912802844033164e+00
         - -2.6747047206526764e+00
         - 2.1617846813692605e+00
         - -5.3986085437968754e+00
         - 8.7197766725116022e-01
         - -2.1840888555828372e-01
         - 1.6108275878821996e+00
         - -1.3554773011315415e+00
         - -1.2315977667473490e+00
         - 7.2584804953253359e+00
         - 7.8045101299027442e-01
         - -1.8495948104068519e-01
         - -2.7498293999921568e+00
         - 8.7869378460475889e-01
         - 1.5020550765880908e-01
         - 1.1468729110728271e-02
         - 1.1858734183129949e+00
         - -2.1080877098116271e+00
         - 1.0791914993770009e+00
         - 3.6163033103130626e-01
         - -2.1177793006034586e+00
         - 2.0337025595421783e+00
         - 2.4187614010510541e+00
         - 3.7664819842242783e+00
         - -4.8148553979189923e-01
         - -5.2635999657308907e-01
         - 3.2060219393434783e+00
         - 1.1189569039868175e+00
         - -1.4751326034335435e+00
         - -6.4193776581533788e+00
         - -1.2202356162726493e+00
         - -1.9765746233945132e+00
         - 5.0561454501420835e+00
         - 2.8258802488486967e-01
         - -4.8531806558911650e-01
         - 1.7605308379800504e+00
         - -2.4269654943868959e+00
         - 1.5030244742526726e+00
         - -3.2760898960082825e+00
         - 6.9329303221621110e+00
         - 4.0860036151177859e+00
         - 9.3616024949374810e-01
         - -4.8800912740061109e-01
         - -5.6159710483417369e+00
         - -2.6671189026602127e-01
         - -1.1869283858971635e+00
         - -8.2623801412165188e-02
         - -7.4157101262228071e+00
         - 2.9954203916678701e-01
         - -1.2902815108021635e+00
         - 1.8808814751560969e+00
         - 1.5180522296916978e+00
         - 2.8003638016994632e+00
         - -2.1733327906252722e+00
         - 6.3158157646595747e-01
         - -1.2972385786091474e+00
         - -1.3168835581838558e+00
         - 7.3129577710604721e-01
         - -1.1203696839244042e+00
         - -2.6273263261195825e+00
         - 8.7458156556788469e-01
         - 7.0477905613703096e-01
         - -3.5499085012072584e-01
         - 8.5033437398925982e-01
         - 5.4018739720423958e-01
         - 1.4077176918493244e+00
         - 3.9717040839816686e+00
         - -3.5574142777799196e+00
         - -7.5074868134815631e-01
         - 2.9472705982299239e+00
         - 2.0677859065890782e+00
         - 4.3293895851525144e-01
         - -3.9997322190372031e-01
         - 6.6111430988705810e-01
         - -3.5210823972545819e+00
         - -9.2876251769273582e-02
         - -2.3364574836232936e+00
         - -5.2708898399453430e-01
         - 1.7571573328330721e+00
         - 1.1475977042554923e+00
         - 2.2764416849131131e+00
         - 4.9711809898286718e-01
         - -1.7212162944756249e-01
         - -4.3239053942847390e+00
         - -3.1416157443495578e+00
         - 1.0647127783416743e+00
         - -3.4616390131937456e+00
         - -3.4748163362776898e+00
         - 3.2492050024626193e+00
         - 1.0795322296650364e-01
         - 2.4272676554851240e+00
         - 4.0522228746208118e+00
         - 4.0811675950079929e+00
         - -1.6303746278389750e-01
         - -2.4872762298061390e+00
         - -6.3597520446226441e-01
         - -7.7656460487559387e-01
         - 1.3566517682963544e+00
         - 1.6198506776748103e+00
         - 1.6908051890909417e+00
         - 1.6078646808889716e+00
         - -4.5728268707192612e+00
         - 1.8785223284394110e+00
         - -2.1476046660089949e+00
         - -2.2286915226756663e+00
         - -1.0360707129531372e+00
         - 2.6707543819596191e+00
         - -2.2992004362134280e+00
         - -2.1684450299849098e+00
         - 2.0489996861622908e+00
         - 3.1763359552034278e+00
         - -1.9217830752889054e+00
         - 6.2873113457338645e+00
         - -2.7191666716401484e+00
         - 5.2390381048897279e+00
         - 4.8193241093618278e-01
         - -1.2823436102262593e+00
         - -2.7059192455715433e+00
         - 8.8310352763860778e-01
         - -7.0770577164799875e-01
         - 5.6933444411318801e-01
         - -1.1268628051446461e+00
         - 3.8717516251575148e+00
         - 1.0910827768032047e-01
         - 1.8503007944745351e+00
         - -7.7770400783302551e-01
         - -1.2424597802868989e+00
         - 1.4917348456284611e+00
         - -2.1829278407627295e-01
         - -1.3534076703166631e+00
         - -1.2903445177610333e+00
         - -4.9482860397353852e+00
         - -2.2307157298557629e+00
         - -2.3690433790636045e+00
         - -1.3057569313946791e+00
         - 1.6594123888446570e+00
         - 4.2723644120534656e+00
         - -1.5481737897866088e-01
         - -1.8139099259366949e+00
         - -3.9103511306226935e-01
         - 5.6791155360683454e-01
         - 9.0134601707975150e+00
         - -3.1138483149321980e+00
         - -3.4948601875295005e+00
         - 2.4549882661516587e+00
         - -2.5481008836954206e+00
         - 8.8988307407376954e-01
         - 1.5232630224845896e+00
         - -3.5308576061215828e+00
         - -6.9046864387750639e-01
         - -2.4366534700599693e-01
         - 2.7732647590147326e+00
         - 5.4819510834812124e-01
         - -3.7633610415817498e+00
         - -2.4231379757164091e+00
         - -3.6859028908454445e+00
         - -4.8838599398173930e+00
         - -2.0521533842831814e+00
         - -4.5133342216880368e-02
         - -1.5945309634103053e+00
         - -4.1324440317677236e-01
         - 4.5909670738910044e+00
         - 3.2811577105713785e+00
         - -2.5478247837316834e+00
         - -3.0663836374671294e+00
         - 9.7093466983718884e+00
         - -2.3390089262885154e+00
         - -3.9289333668809845e+00
         - -2.5275114403957377e+00
         - 2.9050446546539250e+00
         - 2.0636781306682295e+00
         - -1.2127993182570813e+00
         - -2.7335260272342894e+00
         - 1.2460893184152474e-01
         - -1.4395940436045698e+00
         - 6.4657363575595559e+00
         - -1.9344089576903247e+00
         - -9.3710339415922450e-01
         - -2.9104963601664888e+00
         - 3.4035381136948830e+00
         - -1.6337555811393041e+00
         - 1.8694397785316132e+00
         - 2.4595545852839638e+00
         - -4.1780654966548365e+00
         - -2.5723642210595203e+00
         - 1.3410903245914894e+00
         - 2.5532352871946493e+00
         - 4.8175715940588484e+00
         - 5.9255711804105387e+00
         - 8.5559594085088120e-01
         - -2.9176370769166833e+00
         - 3.1237114687988683e+00
         - -7.6029867222278591e-01
         - 1.2331234235383719e+00
         - -2.6895019511207967e+00
         - -7.1157392742626613e-01
         - -3.4961712639863396e-01
         - -3.3094753132917365e+00
         - -4.5105501681598581e-01
         - 3.0024644296914267e+00
         - -1.5952895241203491e+00
         - -4.6064797534026649e+00
         - -5.1987704811625046e-01
         - -4.6296450103547802e+00
         - -1.6388042333387165e+00
         - 1.3527228638355144e+00
         - 1.1846778237529518e+00
         - 1.1594927436571998e+00
         - 2.4938844200419394e+00
         - -2.9820985047037318e+00
         - -1.0881695784495571e+00
         - -1.4584639783121653e+00
         - 5.4166526104816481e-01
         - -1.0475504387162500e+00
         - -9.8765524128076743e-01
         - -5.7322759463307404e+00
         - 2.8658557563758693e+00
         - -5.5213458058433389e+00
         - -1.1392890607125317e+00
         - 3.5843622981656753e-01
         - -1.6011577172868783e+00
         - 3.3075358648437407e+00
         - 2.2895010477365609e+00
         - 6.6879044120945830e+00
         - 9.7279087164622069e-01
         - -2.4855840177147104e+00
         - -2.5057949234079946e-01
         - -2.9512475580223518e-01
         - 2.8971964938719155e+00
         - 2.1702504178206432e+00
         - -2.1976505870186718e+00
         - -2.7392188872412824e+00
         - 3.8152300194591211e+00
         - -2.7113314322128925e+00
         - 2.7603147800606966e+00
         - 1.0908706643365491e+00
         - -1.2412427007656945e+00
         - -1.5164310552036357e+00
         - -2.4043768265530479e+00
         - -7.6483680090131012e-02
         - 3.1644786924631960e+00
         - -6.3167884994833940e+00
         - 1.7706984035099549e+00
         - -3.8064034810881728e+00
         - 3.3503249396476056e+00
         - -2.2408773360187650e+00
         - 2.4041025706285564e+00
         - -1.6282311370924754e+00
         - -1.5903847427912232e+00
         - -2.8246474365198018e+00
         - -6.1045320288089222e-01
         - -1.2412266220569226e+00
         - -1.0924934338486597e-01
         - -2.4025097247942866e+00
         - -1.3785758067054069e-01
         - -1.1468427359408457e+00
         - -6.6672197890669906e+00
         - 6.0533402008696635e-01
         - -9.9779200154452230e-01
         - 4.9461572929110453e-01
         - -4.3521092831931787e+00
         - 4.3863934719876925e+00
         - -9.5458799730321264e-01
         - -4.1936361797711266e+00
         - -1.6821686825413578e+00
         - 5.0368333506524294e+00
         - 3.6303107393199729e-01
         - -4.0112190655053792e-01
         - -1.6079085000184505e+00
         - -9.2080645295764374e-02
         - -2.2827504474656565e-01
         - -7.6065877116310732e-01
         - 1.1727148695304366e+00
         - 1.1013933126518944e+00
         - -2.0478733436810126e+00
         - 1.7185558624914685e+00
         - -3.1257323489031243e+00
         - -2.8359623836319225e+00
         - 1.2468181501662894e+00
         - 1.6684524926893087e+00
         - 1.0616740838721581e+00
         - 1.0191043558310917e+00
         - -1.4972253220777358e+00
         - 2.8565531305693381e-01
         - -3.2079379838198054e+00
         - 3.4170419898005788e-02
         - 3.8328980767496301e-01
         - 1.4530943349455772e+00
         - 2.4134667788482034e+00
         - 3.0173621271108089e+00
         - -5.7771054192107982e+00
         - 5.3451651502967197e+00
         - -1.1897661166104228e+00
         - 1.5646015420477208e+00
         - -3.5630401558527627e+00
         - 6.9194047026820704e-01
         - -1.5727343833791358e+00
         - -1.2668385582704107e+00
         - 1.2190426056402219e+00
         - 1.9662400514332223e+00
         - 6.9953347795865162e-01
         - -1.1849626429041313e-01
         - -1.6357149783339926e+00
         - -7.3726360996460927e-01
         - -4.3647019136953569e+00
         - 1.7632186586723404e+00
         - 1.9997303659311041e+00
         - -2.2531492131464494e+00
         - -8.3058762218497617e-02
         - -3.1621519139245122e+00
         - 3.9030092080446801e+00
         - -1.3835778764389304e+00
         - 6.6614433656680183e-01
         - -1.2350314481276159e-03
         - 3.6754745158947690e+00
         - 1.9107202606299447e+00
         - 3.8194401437916914e-01
         - -2.3802187401029551e+00
         - 2.6098956566495981e+00
         - 1.4141950217558725e+00
         - -6.1221174382464989e+00
         - -9.0931325926266615e-01
         - 4.5813392899090948e+00
         - 1.3663221605995535e+00
         - 4.4264636989372734e+00
         - 2.1696253422592990e+00
         - 1.2126118078318435e+00
         - 7.3622485659177528e-01
         - 2.3712797624714854e+00
         - -3.9249238773266448e+00
         - -1.1889393949775733e+00
         - -1.6045912685495924e+00
         - 9.2517454647596697e-01
         - 1.1422605838516593e+00
         - 1.0498078127158030e+00
         - -8.9211726928007695e-01
         - 1.4764661524362159e+00
         - -4.2233818797128233e+00
         - 1.5211931039713580e+00
         - 3.0192838625886824e+00
         - 4.4701175337931742e+00
         - 8.9026516087035412e-01
         - 1.3717062798211954e-01
         - -2.1680715653281168e-01
         - 5.4709841167622448e+00
         - -2.1374915819145710e+00
         - -5.2769738618491480e-01
         - -2.0665563438262042e+00
         - 8.3773910631983228e-01
         - -1.9577947191032274e-01
         - 5.6777401223953972e-02
         - 4.5186748743588556e-01
         - 4.6793211167313755e+00
         - -2.7933333677902468e+00
         - -4.0561312179590496e+00
         - -1.7177237654111823e+00
         - -2.0217726887833964e+00
         - 5.7349386542857095e-01
         - -3.2668852333923599e+00
         - -3.6487479836738261e+00
         - -5.7438597004690589e-02
         - 4.6527043343724737e+00
         - -1.8315704042353381e-01
         - -1.1108076096987420e+00
         - -4.9310971842543392e+00
         - 3.2160198308831163e+00
         - -2.4190669298550516e-02
         - 4.5848159050851161e+00
         - -3.0124986187463088e-01
         - -6.0924270379318823e-01
         - 2.0661012031377970e+00
         - -2.3969173507227546e+00
         - 7.1942063039416160e-01
         - 5.3962848200935842e-01
         - -2.4726509763012608e-01
         - 4.0854324925812540e+00
         - 1.0819563543157524e+00
         - -1.6132246497752507e+00
         - -5.1539929473356327e-01
         - -6.3395010388542516e+00
         - -3.2068100339653709e+00
         - -1.5306178864838815e-02
         - -1.9075763141157245e+00
         - -2.5241902319839640e+00
         - -2.8878553246998604e+00
         - -1.2166276085215415e+00
         - 8.1297693508958151e+00
         - -7.2211135369844470e-01
         - -2.3965403535027527e+00
         - 8.6953175485610779e-01
         - -3.8340194996222010e+00
         - -3.7875322309299344e+00
         - 3.2437149242553263e+00
         - -1.9480624401423055e+00
         - -4.1929057923630459e+00
         - -3.1167546288459378e+00
         - -7.0865167370478739e+00
         - 5.0582588692476520e+00
         - -4.1679136148300600e-01
         - -4.6990367481315332e-01
         - 1.4833027672638752e+00
         - -5.4022189135186460e-01
         - -5.3819788739372809e+00
         - 1.7760472734788477e-01
         - -4.2104964536738079e+00
         - -4.9375479423201600e+00
         - 3.4059333569637507e+00
         - -3.4131342048387379e+00
         - -2.7989745148886824e-01
         - 7.0532626212149185e-01
         - 1.3245176626411377e+00
         - 1.9436647461656769e+00
         - 2.8229648293369296e+00
         - -2.7583782546488225e+00
         - 2.0084817779514328e+00
         - -2.0843298840017512e+00
         - -9.4307643792527995e-01
         - -2.7835435036470266e+00
         - 1.2360086942089554e+00
         - 5.8842268188462139e+00
         - -3.9057754603359882e+00
         - 2.2550593662124392e+00
         - 1.5268378949002583e+00
         - 5.5127361915514479e+00
         - -1.4138587408851699e+00
         - 2.4082116538069460e+00
         - 3.6170871709861321e+00
         - 5.1392237325191639e+00
         - -4.6287850692642500e+00
         - -1.5350828321111787e+00
         - -1.0056684592091625e+00
         - 1.4088986489788911e+00
         - 1.0389016351008971e+00
         - -5.2644564573755321e+00
         - -1.8381117833350308e-01
         - -1.2345690525579043e+00
         - 3.5528182798747243e-01
         - 1.8848635261789517e+00
         - 3.1300243385977677e+00
         - 1.4896672240974709e+00
         - 7.1989806284256010e+00
         - 2.5884098693790043e+00
         - 4.9190977767899833e+00
         - 1.8103206206168523e+00
         - 2.6928118207303027e+00
         - -1.7594116562454067e+00
         - -2.4422299004775851e+00
         - -1.4250932628752531e+00
         - -5.1707201452452480e+00
         - -4.8404952816133688e+00
         - -3.4691323114587029e+00
         - 5.7057089023097038e+00
         - 2.9922350787451886e+00
         - 1.3660015997907440e+00
         - -7.0285156292746516e+00
         - -4.4920412156822227e+00
         - 5.3018007850058035e-01
         - -9.6734346775127145e-01
         - -4.3114229219258720e+00
         - -2.7142300466827711e+00
         - -1.8577073510437445e+00
         - 6.3308749594094147e+00
         - 2.3746645731497544e+00
         - -1.0331805129832410e+00
         - -5.7736486835069796e+00
         - 3.3000160692368290e+00
         - -1.1449993572713146e+00
         - 4.7794382626408458e+00
         - 1.1263891072044824e-01
         - -3.4365670277428084e-01
         - 1.3743628630502640e+00
         - -2.5590241831308669e+00
         - 3.6823656301805827e+00
         - -1.6380798240878973e+00
         - -5.0390907970812027e-02
         - -1.3955139260873415e+00
         - -2.2238982899267650e+00
         - -5.9241499776472502e+00
         - -3.0338860012260307e+00
         - -2.6120941573902545e+00
         - 1.0121650159451798e+00
         - -2.8440742146841393e+00
         - -6.1521054896777345e+00
         - 3.0401241064966311e+00
         - -5.3968166525064456e+00
         - -1.3830653973480964e+00
         - -2.8960389040288448e-01
         - -2.9395265968164042e-01
         - 1.4911315624148467e+00
         - -3.9573607691078965e+00
         - -9.8635283327210577e-01
         - 1.2135662489223942e+00
         - 8.9613486135621812e-01
         - -5.5787085672084507e+00
         - -3.4495559820538531e+00
         - -6.6672592177667489e-01
         - 7.3497625608900663e-01
         - -3.5404388263035811e+00
         - 1.6161132952074584e+00
         - 4.0525389080783452e+00
         - -6.1599305802241346e+00
         - -2.5081457361259185e-01
         - -7.5903046754387693e-02
         - 4.1865080354829267e+00
         - 1.4790303306209218e-01
         - -3.8717731491245737e+00
         - 5.4542688748510337e-01
         - 3.4251297683099322e+00
         - -1.8827377623867936e-01
         - 8.2823769514139267e-01
         - -2.1898514492607437e+00
         - -2.6935842300134234e+00
         - -5.3728636632136673e-02
         - 1.4938586538081369e+00
         - 1.1019987398227831e+00
         - -4.1579252640214568e+00
         - 8.7798556733384836e-01
         - 3.4841252129546196e-02
         - 3.4830842195443532e+00
         - 3.8470042445788830e+00
         - 1.0372209891848581e+00
         - -4.2326488297266289e+00
         - 5.5707546553823628e-01
         - -1.9678189614102379e+00
         - -2.2251058511935420e+00
         - 4.3126223187395896e+00
         - 4.8268022115403930e+00
         - 1.4476538411481739e+00
         - 9.6246903069913126e-04
         - -3.6219666399279826e+00
         - 2.3213383502365748e+00
         - -4.3492775246294890e+00
         - -3.6177182606101459e+00
         - -9.4463145931576120e-02
         - 3.2921669004758547e-01
         - -3.8755029351825470e+00
         - 4.2379538206701373e+00
         - 4.8991631177077393e+00
         - 5.1324205841407782e+00
         - -5.5666265216369348e+00
         - -2.0103959934567572e+00
         - 1.9959038286649133e+00
         - 5.4076730694006994e+00
         - 4.4433718222189278e-01
         - 7.3081729151593597e+00
         - 1.4749915992610172e+00
         - -1.9993392924194500e+00
         - -1.9703451082406551e+00
         - -4.3973273745482730e+00
         - 1.0012173881203013e+00
         - -5.6895727506050364e-01
         - 2.2816833666621636e-01
         - -8.4133282217956218e-01
         - -1.9683185676323622e+00
         - -1.3629788036192898e+00
         - -3.9957509722318019e+00
         - 7.7471508994554705e-01
         - 1.0826786002673254e+00
         - -3.0436392180519594e+00
         - -6.4730891258769381e+00
         - -4.1974708762210993e+00
         - 7.8117798854241283e+00
         - 2.5868002736364026e-01
         - -2.1801474153046971e+00
         - -7.7921188020098597e-01
         - 5.2310208744440478e-03
         - 1.1573445453679849e+00
         - 1.0993797169744848e+00
         - 1.3888717653588893e+00
         - 7.3465918586963996e-01
         - -2.2408339598704434e+00
         - -2.7536587467381146e+00
         - 7.4309670395413241e-01
         - -2.0041721459087611e+00
         - 2.5316088421367966e+00
         - -5.6499650581535894e+00
         - 7.7046535803533152e+00
         - 1.8930837002620360e+00
         - 3.7430523393733384e+00
         - -3.2961528362715113e+00
         - 2.2893684596555297e-01
         - -5.6499656004084038e+00
         - 5.8487846916579977e-01
         - 3.4899268117074933e-01
         - -1.8261486765065078e+00
         - -4.7722159330385630e+00
         - -6.3999136135254417e+00
         - -2.4905651211296322e+00
         - -2.1971558477758792e+00
         - -3.5402219094016960e+00
         - 1.3626540280344517e+00
         - -3.7778433903175852e+00
         - -3.4769847974176966e+00
         - -2.8262488471335949e+00
         - 4.9910859254937001e-01
         - 1.6938838905792459e+00
         - 2.4441010496363472e-01
         - -1.9423510172873359e-01
         - 4.2946673010466663e-01
         - 6.1318628248143359e-01
         - -1.8509521810670677e+00
         - 4.2143331322108848e+00
         - -2.9692101558451154e+00
         - 6.7249519337029815e+00
         - -1.1176787762697049e+00
         - -4.2456141548309096e+00
         - -5.8890573493402298e+00
         - -1.1827864120902851e+00
         - -2.4995368166218697e+00
         - -3.0567683526892506e+00
         - 2.2641369618079437e+00
         - -8.8267990071893976e-01
         - -4.3540572956204118e+00
         - 3.0407409978296740e+00
         - -2.4395860535694767e+00
         - 2.5081375140456079e+00
         - -2.8255475652956514e+00
         - 4.1829522532280246e+00
         - 1.1431432292009209e+00
         - 4.7385217321064781e+00
         - -4.6225030926461874e-01
         - -7.1223867809803165e+00
         - 1.0741835669813609e+00
         - -1.5657951600773907e+00
         - -4.3970303700459334e+00
         - 5.8843629923245846e+00
         - -2.9400966019501196e+00
         - -2.0022423908391267e+00
         - -9.0877463365617051e-01
         - -4.1190437920193856e+00
         - 1.5615547203970004e+00
         - -5.0196560661770862e-02
         - 8.3415210125826800e-01
         - 5.3780261913466454e+00
         - 7.8939490884566310e-01
         - -5.3152282864007043e+00
         - 3.7475069344548730e+00
         - 4.2659517441243375e+00
         - 9.5925134398218166e+00
         - -4.1968792210498007e+00
         - -1.3623717821977275e+00
         - 3.8017666033703899e+00
         - 6.4869305538772570e+00
         - -4.0117607302941349e-01
         - -1.4800530358648369e+00
         - 1.2256551277939658e+00
         - -5.0248611236389671e+00
         - 1.2755897756459269e+00
         - 2.4475508302476232e+00
         - 1.3543876245731484e-01
         - -1.7679899352329282e+00
         - 9.3880546321390701e-03
         - -5.3666468190015628e+00
         - 1.8292227276366986e+00
         - 3.9661195501915358e-01
         - -1.0708046228423473e-01
         - 2.1587015147224786e+00
         - -4.3074118316185803e+00
         - -1.0374481523226620e-02
         - -6.4684110142754312e+00
         - 4.1971433064024899e-01
         - 1.2808169631182198e+01
         - -7.6951270209404943e-01
         - -1.8484165204530087e-01
         - -3.0839044131979565e-01
         - -2.6930055924544023e+00
         - -6.7849321209893612e+00
         - 3.5967154521522144e+00
         - -2.5883624279734641e-01
         - -6.6492833774291038e-01
         - -1.7713471766891145e+00
         - -3.1825005703676257e-01
         - -4.9222995191568919e-01
         - -3.7015751966682187e+00
         - 6.9788102257432385e+00
         - -5.3877516898336406e+00
         - 3.0541662284308915e+00
         - -1.8018169242274231e+00
         - -2.2546241416143888e+00
         - -3.6700742972438274e+00
         - -2.5282493435477491e+00
         - -4.1453345356585043e+00
         - -3.1987749458615466e-01
         - -2.6383003882617628e-01
         - 6.9668361781796873e-01
         - -2.8774738069914272e+00
         - -3.1405806161913290e+00
         - -1.3987266500942885e+00
         - -1.3470489269703381e+00
         - -5.1996792906640952e+00
         - 2.3173146642342406e+00
         - -3.5521072210482760e+00
         - -1.0855341774272231e+00
         - -5.1978510435083756e+00
         - -9.2010871320245669e-01
         - 4.3845416609522809e+00
         - -3.2828265263014207e+00
         - -2.4834731697072099e-01
         - -2.5860493790911550e+00
         - 1.0499366076015570e+00
         - 1.9759040495675603e-01
         - 3.9127482129225095e+00
         - 1.5960162835706690e+00
         - 6.8739431341886439e+00
         - -1.4590842286520829e+00
         - -2.1975579687089195e+00
         - -5.7684218024630018e+00
         - 4.5598771134041485e+00
         - -2.3231596211017060e+00
         - 2.3486131111464803e-02
         - 2.0131716339148693e+00
         - -4.2601821637090618e+00
         - -3.6800300504939587e+00
         - -2.4499618655378677e+00
         - -8.4571489168480407e-01
         - -1.7038131181430355e-01
         - -2.9289291583891135e+00
         - 2.1784740610555708e+00
         - 2.8164614541158857e+00
         - 3.7025458949588566e+00
         - 7.2520185398308928e-02
         - -4.1365654138130203e+00
         - -5.0686442285500082e+00
         - 1.1117613499067167e-01
         - -3.4774537011343218e+00
         - 2.4716507495639308e+00
         - 6.2946350899300063e-02
         - -4.3872174690365251e-01
         - -8.1674507697609444e-01
         - 9.3251563542868909e-01
         - -4.9481179669917852e+00
         - -2.4363005933980046e+00
         - -3.1316003289290055e+00
         - 1.5284694134806707e+00
         - -2.6105896913662718e+00
         - -5.3625003774998010e+00
         - 4.2707189334538569e+00
         - 1.5073161671294790e+00
         - 7.6280186822578457e+00
         - -2.0202184267287757e+00
         - -2.0210243764501487e-01
         - 3.0519687691930830e+00
         - -1.6358239205810017e+00
         - -2.4558953859384407e+00
         - -9.1939280737320594e-01
         - 2.5110359516826302e+00
         - -3.9748972517250780e+00
         - -1.2083915435849728e+00
         - -1.0161442831585681e+00
         - -1.6613050934019663e-01
         - -6.0926972341565599e-01
         - 3.5586728515455968e+00
         - -4.5168303301891815e+00
         - -7.8487362974790931e-01
         - -5.9511603300223292e-01
         - -2.6356086526276608e+00
         - 1.7469346293781463e-01
         - -8.1821102391321487e-01
         - -3.9928069397184669e+00
         - -2.7376271183339906e-02
         - 1.7738165186687784e+00
         - 5.3089248820245309e+00
         - 1.1940951993593452e+00
         - -4.9431853683153348e-01
         - -1.0459227030115954e+00
         - -1.5075544205982319e+00
         - -3.1530079991596591e+00
         - 5.3684060982643746e+00
         - -2.3160392428026517e+00
         - -9.6025035557126204e-01
         - -1.0205624996110378e+01
         - 2.6947460301983783e+00
         - -3.1588788535867685e-01
         - -3.3152274004506173e+00
         - 4.1741252932316115e+00
         - -1.0864024457415138e+00
         - 2.3733748933015466e+00
         - -1.4318102311118428e+00
         - -6.9837478656098706e-01
         - 2.7624332950969270e+00
         - -3.5695894611222641e+00
         - -6.0938468316986221e+00
         - -1.4109724434840816e+00
         - 9.7550237745148405e-01
         - -5.7734249883238142e-01
         - -1.6104821406157750e+00
         - -2.5952430181536785e+00
         - -9.6333366366664708e-01
         - -4.5345261923344671e+00
         - -5.2935161812919524e+00
         - 2.0616614989996784e+00
         - 1.9356167463222418e+00
         - -3.0276749357017563e+00
         - -4.9883035258173640e+00
         - 1.1499766164351848e+00
         - -1.1923769005257494e+00
         - -8.1719700388351746e-01
         - -3.9991533747350436e+00
         - -2.5976302552423247e+00
         - -4.8570478194752198e-01
         - -7.7608420204240791e-01
         - 9.0620653343245838e-01
         - 1.9414456663865406e-01
         - 8.3579528610331764e+00
         - -1.4043946742888556e+00
         - -5.5190494783734758e+00
         - -5.7447391465772233e+00
         - 7.6075745979142884e+00
         - -4.5266248880869950e+00
         - 2.1577472422803179e-01
         - 2.1070239940698299e+00
         - -5.8788925444896956e-01
         - -1.6005065662796345e+00
         - 1.5512731942797067e+00
         - -3.5886716001643135e+00
         - -5.2332032899743075e-01
         - -2.0161677149405390e+00
         - 6.4819620834602496e+00
         - -2.2340064674677571e-01
         - 1.2837510365666984e+00
         - -2.7659350451635212e+00
         - -6.7853412903621972e+00
         - -6.4581386935828800e+00
         - -1.6859955936295790e+00
         - -9.5489580120011812e+00
         - -2.6739029160313021e-01
         - -5.3722505833775624e-01
         - 3.1852306762019076e+00
         - -4.8098040478401547e+00
         - -4.2012176135624468e+00
         - 3.8760088757161093e-01
         - 6.2553686760828398e-01
         - -1.8714273429639385e+00
         - -4.4406702654247787e-01
         - -5.8553590889046871e+00
         - -7.9449699618509388e+00
         - 6.2259465063920425e+00
         - 1.2991742714918941e+00
         - 2.7780620442597841e+00
         - -2.5951504455123451e+00
         - -1.0946757022420714e+00
         - 2.9398484797100317e+00
         - 4.8884361413417210e+00
         - -2.0370550717264271e-01
         - -7.1615927217164277e-01
         - 1.7035597463098247e+00
         - -4.6564197374043170e-01
         - 6.7366345135939398e-01
         - -1.4273862194149205e+00
         - 9.6697593325187037e-01
         - 2.3215798039685356e+00
         - 2.2165991012370938e+00
         - -4.5208308703445144e-01
         - -4.0402253051519776e-01
         - -2.8331560598953220e-01
         - 1.7261158748234025e+00
         - 6.5592980577674309e+00
         - -4.6712784401782423e+00
         - 1.4646748710280172e-01
         - -2.1325056096384838e+00
         - 5.1530347297670553e-01
         - 2.4259489181502483e+00
         - -1.0801713126375381e+00
         - 4.0182935011934768e+00
         - -1.8398996983237983e+00
         - -2.6808555626796884e+00
         - -8.9331135971351516e-01
         - -2.4063948314216272e+00
         - 2.7642418638396773e+00
         - 4.9198030641519941e-01
         - -2.8791467409140474e+00
         - -2.2172365077271675e-01
         - 2.6962049171692160e+00
         - -3.4253501156050166e+00
         - 1.9614113551546126e+00
         - -2.2438822426419596e+00
         - -3.2984169640710270e-01
         - -8.5182021535295105e-01
         - -1.8457521324468891e+00
         - -3.9317294405566372e-01
         - 3.6384663261329175e-01
         - -7.7744324027594809e+00
         - -2.4712454406287652e+00
         - 4.8303052934181023e+00
         - 1.0069501621553747e+00
         - -6.5506732427342413e+00
         - 9.7537661596856262e-01
         - -4.8442202339695783e-01
         - 3.2176675630766618e+00
         - -6.3767920533340678e+00
         - 2.1522647083936670e+00
         - 1.6202045967704023e-01
         - -2.2133264874994079e+00
         - -3.0635094183711504e+00
         - 4.7231623652232342e+00
         - -4.2621389173932989e-01
         - 1.2243287399150415e+00
         - 2.0771479343048602e+00
         - -3.4472583717204577e+00
         - -2.8295356689357924e+00
         - -1.7769104680784289e+00
         - 8.4972204087278040e+00
         - 4.3864220124142212e+00
         - 2.5949519859429708e+00
         - -1.5678467297184884e+00
         - -5.2875981623643253e-01
         - -5.5207154459397847e+00
         - 4.6180292820680977e+00
         - -1.6850654419047699e+00
         - 8.2779015594796956e-01
         - -1.7963205877520942e+00
         - 6.5921438279954163e+00
         - -4.6905078780578204e+00
         - 8.0486467692758694e+00
         - -1.0136476163745334e+00
         - 1.1564985385479567e+00
         - 3.8409229190281118e+00
         - 7.3118339227588773e+00
         - 7.8156855658308437e+00
         - -1.9094229005299814e+00
         - -4.3487493612770463e+00
         - 4.8836189624848181e-01
         - -6.0432452388249356e+00
         - -2.8272600535315631e+00
         - -2.3879288697582628e+00
         - 2.6482350038232654e+00
         - 7.9003277971017800e+00
         - 8.8723965422145046e-01
         - 2.4066650016784882e-01
         - 1.9000724316132894e-02
         - 4.0064455731531912e-01
         - 6.2242310030850378e-01
         - 1.9047467013353208e+00
         - 1.5020706819225822e+00
         - -4.1920309389658383e+00
         - -1.6784507862264415e+00
         - -2.0799431277800897e+00
         - 2.2684372831317012e+00
         - 2.3902444271983443e+00
         - 1.0219184112244286e+00
         - -1.6227066083202288e+00
         - -1.5853234639830005e+00
         - 1.3322696201619311e-01
         - 3.0497185455904057e+00
         - -4.3617217748668233e+00
         - 5.9534268904600625e+00
         - 8.6872885301886393e-01
         - 4.5533718406895964e+00
         - -2.5234973052710430e+00
         - 3.0519440076603868e+00
         - -7.0829113972523572e-01
         - -4.9180301551641481e+00
         - -7.3058605336993188e-01
         - 1.8348462408459569e+00
         - 1.0569515227913024e+00
         - 7.2508237801347197e-01
         - 5.5325310617200119e-01
         - -3.1130966481964393e+00
         - -3.4538082350471027e+00
         - 2.2096034383408514e-02
         - -7.5725922590898409e-01
         - -6.7677478652727237e+00
         - -1.0801406582670448e+00
         - 1.3770874840711391e+00
         - -4.3335795575540583e+00
         - -3.9134061616529574e+00
         - -5.9097348329790593e+00
         - 6.7822780470574235e+00
         - -4.0219697278961535e+00
         - 5.8613519251752422e-01
         - -2.1646368220079499e+00
         - -7.8787073196063826e+00
         - -3.7603036941181904e+00
         - -4.4030989802883544e+00
         - 6.0417554469974677e-01
         - -3.2928960594917456e-01
         - -1.9203323758205606e+00
         - 3.8584008230989664e+00
         - 1.1208134060873733e+00
         - 3.1262424664082133e-01
         - 6.3765312003485635e+00
         - 4.0906140725419726e-01
         - -1.2107576285383197e+00
         - -3.8518125208499709e+00
         - 4.0704516759909364e+00
         - 6.4975799466756246e-01
         - -1.2962155990146959e-01
         - -3.2830732705913457e+00
         - 3.0210025046963951e+00
         - -1.3065647521424149e+00
         - 2.3774412291162874e+00
         - 5.9907834726331615e+00
         - 4.6581547954542590e-01
         - -1.6293283194221373e+00
         - 3.5052141156055967e+00
         - 1.3986338588970466e+00
         - -8.4878093328349569e-01
         - 1.8218859279256812e+00
         - -4.6240227255270272e-01
         - 3.9143745692617438e-01
         - 3.4247666079927868e+00
         - 1.1427523213670914e+00
         - -1.0517650460916530e+00
         - 3.2394194614281715e+00
         - 1.8259150854549631e+00
         - -3.2622616838625135e-01
         - -2.3360790628346146e+00
         - -4.6810964215488342e+00
         - 4.9458609463441372e-01
         - 1.8553380971408484e+00
         - -1.4689859679354733e-01
         - 1.2105848992047132e+00
         - 8.3266785442534841e-01
         - -9.6001314173367336e-01
         - -1.7005556732702787e+00
         - 5.5723886475321045e+00
         - -1.5753707944229269e+00
         - 1.0578583840103009e+00
         - -2.3043033369879216e+00
         - -1.6559472670076674e+00
         - 3.7277080449305626e+00
         - 1.6345793062630130e+00
         - -2.9956967393075464e+00
         - -1.6498868580714841e+00
         - -4.3225473547621052e+00
         - -5.5915555357654201e-01
         - -6.4351491390681470e-01
         - 1.3159928895146240e+00
         - 4.8399657451685907e-01
         - 5.1388717477548940e-01
         - 3.6344810786431241e+00
         - 1.3543474601624261e+00
         - 3.2298928953194816e-01
         - 6.4416163078031807e-01
         - -4.0754500297168859e+00
         - 2.6710084812662633e+00
         - -8.4779140140405485e-01
         - -2.2586316898528027e+00
         - 1.2043219217215086e+00
         - -4.9924511739093669e+00
         - -4.0386520016973124e+00
         - -9.9877125181515369e-01
         - -6.2358059800432097e-01
         - 3.7078200580269360e+00
         - -2.1752253635626282e+00
         - 3.9194191473975710e+00
         - 2.9830106503256126e-01
         - -1.2954201879481038e+00
         - 4.9817845395901630e+00
         - 3.5627712457772391e+00
         - -5.7247103855105208e-01
         - -3.7487987850623248e+00
         - -2.4031472856956819e+00
         - 7.6549568759290065e-01
         - -6.0374120581711932e-01
         - -6.7906036721600194e-01
         - 5.7916254058279719e+00
         - -7.9896967734758007e-01
         - 4.5025475673247106e-03
         - 3.7305170594472501e+00
         - 3.2561996514846516e+00
         - 2.3903627969846328e-01
         - -2.4987440448450675e+00
         - 2.1343655167525220e+00
         - 2.3367651709427921e+00
         - 5.0669715435003815e-01
         - 1.7267952034858687e+00
         - -2.9800922705553856e+00
         - -7.0819806760206450e-01
         - -7.5222286160986296e-01
         - -6.6157457690689514e-01
         - 4.0491330604027764e+00
         - -1.6354240550353292e+00
         - 1.3088445476272015e-01
         - 2.8681462119059455e+00
         - 5.6641491980023384e-01
         - 1.7026657111649770e+00
         - 6.6727373206701293e+00
         - 7.2455508509917588e-01
         - 6.4821842553095366e-01
         - -1.8370930147077387e+00
         - -6.3396884688956812e-01
         - -4.5629845377790412e-01
         - -2.7605847785858266e+00
         - 6.9926581734341431e+00
         - -1.7870159359256022e+00
         - -2.5361451618389297e+00
         - -7.4667694560651929e+00
         - 1.2690034351933595e+00
         - 3.4423876849346746e-01
         - 1.2482389274432431e+00
         - 1.5209719676037849e+00
         - -1.9982069178009043e-02
         - -4.1196354903030779e+00
         - 3.4504185126663343e+00
         - 4.0053790761871397e+00
         - 1.3884035270091797e+00
         - 9.6422668676172674e-01
         - 2.8933790870406206e-01
         - -6.3053746712857417e-01
         - 4.5051604681007245e+00
         - -2.8359038206718490e-01
         - 2.8217350911432084e+00
         - 2.6518062265789433e+00
         - 2.9418558380474140e+00
         - -1.8386223290261949e+00
         - -7.3928544522802675e-01
         - 2.5475393642454582e+00
         - -1.7250011182885339e+00
         - 2.7235992478598114e-01
         - 1.3352609078306186e+00
         - 3.0203014390967144e+00
         - -1.0172945756103586e+00
         - -6.1365826439861437e-02
         - -2.3387119445528604e+00
         - 4.3808546679650933e+00
         - -1.6010120190298149e-01
         - 1.6285018915860161e+00
         - -1.2222048827697618e+00
         - -2.8697678943954488e+00
         - 1.1927495268209396e+01
         - -6.9096677035225984e-01
         - -3.4766660700211678e+00
         - 8.0024055162997421e-01
         - -3.1890900473413790e+00
         - 7.9341789350261127e-01
         - -1.4806683410491008e+00
         - -5.6362272796538959e-01
         - -1.3144088484527781e+00
         - 2.3541164918412800e+00
         - 3.5685003638130155e+00
         - 1.2874156728376851e+00
         - 1.1202454194653775e+00
         - 4.3041016622313473e+00
         - 2.1179280999135024e+00
         - -1.5012678523003131e+00
         - 2.5857598059243179e+00
         - -9.9764533557757418e-01
         - 1.1224091105797789e+00
         - -2.7381926870395410e+00
         - -3.3545101602226288e+00
         - -3.3194440042750979e+00
         - -3.3627574924365633e-01
         - -3.1328859797896476e+00
         - -2.2976311097090076e+00
         - 1.4976339950033097e+00
         - 6.5016041910988787e-01
         - 3.5626967489110051e+00
         - 1.7928847666233523e+00
         - 7.8493760323886685e-01
         - 3.8373826688276682e+00
         - 6.9068416078988548e-01
         - -4.8924059833793077e-01
         - 2.4788875963928696e+00
         - 7.0524855652473288e+00
         - 5.5504281131818747e+00
         - -2.4511615793399661e+00
         - -2.2495616407683792e+00
         - 4.0049695248695265e+00
         - 1.9788789242658105e+00
         - 3.7519140511913118e+00
         - -7.3563847340697688e+00
         - -1.2273103565882724e+00
         - -1.0828938540167121e+00
         - 1.3547644264327376e+00
         - -2.9206069081933115e+00
         - -6.8309311179628540e-01
         - 1.3480628002912542e+00
         - 1.0562458513527888e+00
         - -2.3649606996617010e+00
         - 1.4439982063468193e+00
         - 1.8426501772873265e+00
         - 2.0737753640446535e+00
         - 2.3398829583449716e+00
         - -1.1091229032350485e+00
         - -4.6785956033699982e-01
         - -2.5335170436324683e-01
         - 2.8845878196247194e+00
         - 2.6252671381870227e+00
         - 2.9495096576509945e+00
         - 1.5123640794045830e+00
         - 6.1729885350943559e-01
         - -3.8308475254086816e-01
         - -3.9843456720977186e+00
         - 3.8359152567170778e+00
         - -1.0877505293742309e+00
         - -2.3231860007358058e+00
         - -7.3729422295212244e-01
         - 3.7188534370601767e+00
         - -3.5482986634952685e-01
         - -3.8604868837153208e+00
         - -6.4813588207808626e-01
         - -3.3613491679780281e+00
         - -6.3050651575120054e-01
         - 6.5225640940473877e+00
         - 1.1673984045225041e+00
         - 2.4032899279293036e+00
         - -3.2151804069179297e+00
         - -9.6708309693741279e-01
         - -4.2280880889820283e-01
         - 1.2739888711566569e+00
         - 3.3594439442350192e+00
         - 3.3894926080647312e+00
         - 1.2664079942939832e+00
         - 7.9432198388172315e-01
         - 3.0961548161566421e+00
         - 2.3959961929934299e+00
         - 1.9033795369411259e+00
         - 4.1766424411011522e+00
         - -9.1075498925280995e-02
         - -1.4708735855067987e+00
         - 5.1157042467483960e-01
         - -3.3100850576771812e-01
         - 3.5088684996183348e+00
         - -2.7673807061247011e+00
         - 3.8633936222344580e+00
         - -1.7067412605794008e+00
         - 7.1164455618063749e-01
         - 2.0805018746740900e+00
         - -2.5376707468248760e+00
         - 1.6533981183267141e+00
         - 5.1347028407786492e+00
         - -3.7351495188789787e+00
         - -2.2936489719912041e+00
         - -1.6985567981199174e+00
         - -3.6638358113358658e+00
         - -3.7099750945049998e+00
         - -3.9307156663294860e+00
         - -1.4955189688893478e-01
         - 1.5371964294691802e+00
         - -9.4947676203811271e-01
         - 1.8018872513886261e-01
         - 2.0553645515427839e+00
         - 3.6298266586079342e-01
         - 7.7586073284188117e-01
         - 9.3421418338727868e-01
         - 1.2298450620043663e-01
         - -2.6758489170417366e+00
         - -1.4756890750927012e+00
         - -8.3866861736940734e+00
         - -3.6039208915146705e+00
         - 3.5796232401832906e-01
         - 1.4418756430688082e+00
         - 1.1621324890018396e+00
         - -5.4400257693031335e+00
         - -7.9727692029184072e-01
         - -1.6535095406790150e+00
         - -2.0406467241462458e+00
         - 3.1356524386065119e+00
         - 4.5059344306564653e-01
         - 5.2716849625488038e+00
         - -3.1901929240403657e+00
         - -1.0704240411409867e+00
         - -1.1998484578606046e+00
         - 3.2223592819897302e+00
         - 6.1905476871208629e+00
         - -7.9351629680816227e-01
         - 1.0104447268599488e+00
         - 3.7402495542735590e+00
         - 2.6327032021477264e+00
         - 3.1650377782111314e+00
         - -1.5369727053265794e-01
         - 1.7415560566422845e+00
         - 1.4189198248595154e+00
         - 4.8571223500915144e+00
         - -2.1790397374831598e+00
         - -1.3949130811437171e+00
         - -9.6543686328484384e+00
         - 1.8754401642059033e+00
         - -7.2122497127738927e-01
         - -3.6116040041075215e-01
         - 4.1218757394652561e-01
         - 3.0480288133185933e+00
         - 3.9022199605872143e+00
         - -3.8713122702374267e+00
         - -2.3551805310551797e+00
         - 1.0117219935539329e-01
         - 3.4965372871020461e+00
         - 2.8425486032675797e+00
         - 2.5136233249801752e+00
         - 4.7063716280765044e-01
         - 6.9013077238812809e-02
         - 4.0209282104296760e+00
         - -2.0855336656966625e+00
         - -1.8193565829707015e+00
         - 1.0911489448163350e-01
         - -1.0211493552275028e+00
         - 1.0857455575894985e+00
         - 3.4545212523407287e-01
         - 3.4863127628378985e+00
         - -8.6871537214052796e-01
         - 7.4518162113532005e-01
         - -7.0034865392543981e+00
         - 1.0874165583799733e+00
         - 9.7638111063964530e+00
         - -1.1490068227533259e+00
         - 2.3570725013045988e+00
         - -3.4340365141495821e-01
         - 1.0770819918647638e+00
         - 6.7848617843755776e-01
         - -1.4417597338637083e+00
         - 1.2341857662541398e+00
         - 1.2313704098819924e+00
         - -3.6730210000198937e-01
         - -1.6821579306066707e+00
         - 1.6998213752008207e+00
         - 3.5275712610146526e-01
         - 4.0565343700748651e+00
         - 2.7994910081340469e+00
         - -1.7937830788283815e+00
         - 4.4146027140508426e-01
         - 2.9745596689488607e-01
         - -1.1559893045133469e+00
         - -1.4639230091465500e+00
         - -2.1425290288170043e-01
         - 3.2920391566929661e+00
         - 1.2925360255032987e+00
         - -1.4369313765120151e+00
         - -1.7549014786877191e+00
         - 1.7874337981651081e+00
         - -1.3010796593261196e+00
         - -2.0007105042780440e+00
         - 2.6312008873994901e+00
         - -4.7656296845116941e-01
         - -2.3953151718106422e+00
         - -1.9191705710206617e+00
         - -5.5770763417217784e-01
         - -3.5983403348413829e+00
         - 8.4508423262535288e+00
         - 1.9088944182637244e+00
         - -1.8844283039560012e+00
         - 4.5897666718884338e+00
         - -1.8422210884275950e-01
         - 4.2482144427367121e+00
         - 3.9238645000763556e-01
         - 6.5452272540047152e-01
         - -1.3796063020011655e+00
         - -3.3968753630311053e+00
         - 1.2719466886787301e-01
         - 1.8395059485780538e+00
         - -1.8673743687237956e+00
         - -1.1368946514442255e+00
         - 4.6889802095982525e-01
         - -4.2849191023829718e+00
         - -3.3409855633847587e+00
         - 1.0513157874514500e+00
         - 1.7564145600702259e+00
         - 3.4417981646155971e+00
         - -1.7066639738743647e+00
         - 1.4737970502501709e+00
         - 6.5801611109998859e-01
         - -2.8342498528726194e+00
         - 7.3412989776347604e-01
         - 2.0908060560663499e+00
         - 1.0090991610934708e+00
         - 3.6201928977836122e+00
         - 3.4195492534269798e+00
         - 6.9547661981686355e+00
         - 6.6950649232733006e-01
         - 4.3473710118476756e+00
         - 3.5187430042396239e+00
         - -5.4597837906233060e-01
         - -4.3542004817344839e+00
         - 1.5242497619508772e+00
         - 1.6054070894606252e+00
         - -2.5987857324569736e+00
         - -8.2181924882342594e-01
         - -3.7152054417189313e+00
         - -8.2574594732546225e-01
         - 2.9348689430023722e-01
         - 1.4307494987172280e+00
         - -6.4992188913885363e-02
         - 3.2161796913411496e+00
         - 7.5769964311782922e-01
         - -2.4857566360240790e+00
         - -2.3691002671406927e-01
         - -1.9351479128184479e-01
         - 2.8960329161759706e+00
         - -2.4520268005416082e+00
         - 2.6435354128870454e+00
         - 2.1106090151346537e+00
         - -2.8101616287181297e-01
         - 1.1390310962062243e+01
         - 1.8089959323741470e-01
         - 4.4214401400993690e+00
         - -3.1153467011822555e+00
         - -2.2921689231633464e+00
         - 1.5289414197296072e+00
         - 5.0068810490103637e+00
         - 6.4798072675801399e-02
         - 6.2741210189410840e-02
         - -5.4267065653669180e+00
         - 4.0816228608986380e+00
         - 1.7678454944511983e+00
         - -3.1223970380174166e+00
         - -5.6599503317662425e-01
         - -6.2108356898144637e+00
         - 1.0203925269410945e+00
         - -6.3497885651772251e-02
         - -2.6001836804028349e+00
         - 2.2305771444019498e+00
         - -4.9560523959747842e+00
         - -4.3085168935885489e+00
         - 4.9560257395639795e-01
         - 2.1972387398988924e+00
         - 2.6975191719296281e+00
         - -9.1988606645683213e-01
         - 4.1064579285548442e-01
         - 6.5546171119373104e+00
         - 1.2916428836340008e+00
         - 2.0012668073350151e+00
         - -2.9056313577216328e+00
         - -8.3299121169955948e-01
         - -2.4876311175494492e+00
         - -4.8577076353389959e-01
         - 3.0390030947549747e+00
         - 2.2699879022804477e+00
         - -3.6038479609854779e+00
         - -1.8417510921130203e-01
         - -1.4038350726413833e+00
         - 1.7902421002626853e-01
         - 1.4130638223946816e+00
         - 1.9163292614082104e+00
         - -2.7249936329401168e+00
         - -1.1542733263904994e+00
         - -6.6553026535436055e-01
         - -2.2404350746194264e+00
         - 8.8805962969402874e-01
         - 7.3783669653427575e-01
         - 3.1629222775845163e+00
         - -1.0423532715008981e+00
         - 7.8251004332393159e-01
         - -2.6695477885804042e-01
         - 1.4080850514968302e+00
         - 3.6258484255155539e+00
         - 5.3660499018082763e+00
         - -4.4903440444233276e+00
         - 7.3238634669718983e-01
         - -4.4171518581075429e+00
         - 4.7343905392354646e-01
         - -5.2494662860073049e-01
         - -2.6653525888966141e+00
         - 2.6307123788814235e+00
         - 3.3387709122645948e+00
         - -1.5203623845770533e+00
         - -3.3639443030184655e+00
         - 4.9308352004403178e+00
         - 3.9176567417546393e-01
         - -5.9781309487076584e-01
         - 1.5684006250609062e+00
         - -1.3681883836598070e+00
         - -3.3663774054647544e-01
         - -3.2609365512904640e+00
         - -4.5640310726530622e+00
         - 1.6141910033315661e+00
         - 3.2377034396106765e+00
         - 8.8721805182483038e-01
         - 4.3150046182294832e-01
         - 7.0233568778456057e-01
         - 3.3979132976276207e+00
         - 3.5768510262463931e+00
         - -6.4149383179513686e+00
         - -2.4385513751267078e+00
         - 2.2520748801378399e+00
         - -3.1230402298105231e-01
         - -8.1200377674489701e+00
         - 3.0571338621170341e-03
         - -6.8661634576322783e-01
         - -3.0033490420249382e+00
         - 8.6731615857679190e-01
         - -1.3287751543304147e+00
         - -7.6616060011046749e-01
         - 2.9557578963619062e+00
         - 1.3010291580760351e+00
         - 5.4397842489890369e-01
         - -3.0318041444583983e+00
         - -2.0099580105573489e-01
         - 1.9902680158753905e+00
         - 4.3222198110484973e+00
         - -2.2393924007427618e-01
         - 1.1438436468135897e+00
         - -7.0326426184208113e-01
         - -1.3412794859928621e+00
         - -2.0521472075906688e+00
         - -8.9427171595305688e-01
         - 1.0994744597174237e+00
         - 2.2050907524298841e-01
         - -2.8794428729253072e+00
         - 4.1486167704707622e-01
         - -7.8117757566603996e-01
         - 5.3703901525127606e-01
         - -3.3392205409670535e+00
         - -3.3827681364063609e+00
         - 2.9404191674479754e+00
         - 1.2999013317259802e+00
         - 1.2653248256481562e+00
         - -1.5824024705723846e-01
         - 1.9726635893898443e+00
         - -1.1850629483183144e+00
         - -3.0022901403733582e+00
         - 2.8129667434713244e+00
         - -8.9087745616746228e-01
         - 9.5862566721370324e-01
         - -1.8969323475836906e+00
         - 2.6147268652312854e+00
         - 1.1261604804357022e+00
         - 1.6058171087555737e+00
         - 1.2294709664594370e+00
         - 7.9345678818365351e-01
         - -2.5389425014879992e+00
         - 2.3136186869331641e+00
         - -3.2696653016410258e+00
         - 1.6135765010797378e+00
         - -1.0431558801629373e-01
         - 5.7044982609327066e-01
         - 5.6668685670674801e+00
         - 4.8503490980569373e+00
         - 2.8316928944580566e-01
         - -1.6091893473646948e+00
         - 3.3075394005048375e-01
         - 2.9316201647496865e+00
         - 2.0818138194044669e+00
         - 2.9273214682229409e-01
         - -2.6378445601398983e+00
         - -2.0321996983800652e+00
         - -3.6856810474143895e+00
         - 9.9573625941780441e-01
         - -2.5321930254406322e+00
         - -2.6454339167288827e+00
         - 3.7234930162839532e+00
         - 2.3536833641202350e+00
         - 1.5077146205853822e+00
         - 1.8264869046233554e+00
         - 5.3477956087655594e+00
         - 5.0862139548464782e+00
         - 7.5477625897273160e-01
         - -1.5135787229023518e+00
         - -5.8366735075387526e+00
         - -4.8224011115573917e-01
         - 2.9191438590937495e+00
         - -8.1123868438332114e-01
         - -2.6921537963283343e-01
         - -2.8360188576947252e+00
         - -1.6838290412455723e+00
         - -2.9614569661901262e+00
         - 1.0469286102128890e+00
         - -4.7119458353889354e-01
         - 1.1289171003844038e+00
         - 6.7957165737439951e+00
         - 1.4824040984031933e-01
         - -1.1489769063068442e+00
         - -2.7576739943282376e+00
         - -2.4017024972326192e-01
         - -1.5270773708545728e+00
         - 2.2460385392727997e+00
         - 5.2653827853830641e+00
         - 4.6273249292501815e+00
         - -4.2166667013524437e+00
         - 1.0663334641762419e+00
         - 5.5543586871070261e+00
         - -5.1435457382388154e+00
         - -8.4580512108565753e-01
         - -3.4142562496715092e+00
         - 5.7839418594056591e-01
         - 1.1295793379864572e+00
         - -2.6274159678676456e-01
         - 1.1348016118938564e+00
         - -3.4561773961127291e+00
         - 1.0708610831976528e+00
         - -3.3438133429205221e+00
         - -2.4255758980669144e+00
         - 5.8722704484238053e-01
         - -1.8788840099108630e+00
         - -2.7843073140430978e+00
         - 5.5385253190755170e+00
         - -1.4180963397215787e-01
         - -1.0244462733938824e+00
         - 2.3475044267955885e+00
         - 7.5246984297096011e+00
         - -1.1257037859576087e+00
         - -2.0893576907103193e+00
         - 1.3616497536646824e-01
         - 3.3446881126523063e+00
         - -5.5077576697550834e-01
         - -3.0866881824558559e+00
         - 3.9760212738334844e-01
         - 8.5235024094721867e-01
         - -3.9034720792405619e+00
         - 1.0792688518362088e+00
         - 2.4984874616394057e+00
         - 7.1843772605769657e-02
         - 6.3731709834837336e+00
         - 1.2373102737885666e+00
         - 3.4204651196213938e+00
         - -1.8032843960884009e+00
         - -2.4989065231927392e+00
         - 4.1559332644173939e+00
         - -1.1277552739135912e+00
         - 3.7267216672401129e+00
         - -6.9947125991236803e+00
         - -8.8142835189081070e-01
         - 1.1887658822317919e+00
         - 3.4822008494506953e+00
         - -4.2032718066714407e+00
         - 2.1686204470293862e+00
         - -1.0671297762600256e+00
         - 1.4518536391533332e+00
         - -1.0109222679050212e+00
         - 1.9462733093067377e+00
         - 2.8790572370791931e+00
         - -3.5429819176665043e+00
         - 4.9022224285344596e+00
         - -2.7104272672372842e-01
         - -6.4680539154766050e+00
         - 3.8244576347588959e+00
         - 4.3823524606017550e+00
         - -3.3395693825294805e+00
         - -6.3478601736291171e+00
         - -2.9360279554586639e+00
         - 2.0174606264911068e+00
         - 1.9539019703837632e+00
         - 3.7787143266116185e+00
         - 3.3829397362125393e+00
         - 3.0617617066340221e+00
         - 7.8410546678977653e+00
         - -2.4660242250792637e+00
         - -3.3559745875262803e+00
         - -4.6534467352999389e+00
         - 8.7335542643414421e-01
         - -5.6987307618285010e-01
         - -1.4092865635294818e+00
         - -1.6013434541297535e+00
         - -4.5276711398818890e+00
         - -3.6836267578890336e-01
         - 5.1564663878199033e+00
         - 4.1764769593041500e+00
         - 1.2927009245762755e+00
         - -3.1017423890830469e+00
         - -3.5070906344156310e+00
         - 5.9217376498536956e+00
         - -1.2118901198948124e+00
         - 1.1807418409722510e+00
         - -2.9187528420608180e+00
         - 3.7633199092484249e-02
         - -5.9756093260937782e-01
         - -1.5536606734781249e+00
         - 3.5090583351458573e+00
         - -8.3200568195588320e-01
         - -3.6299470335519601e-01
         - 3.3036551461819759e+00
         - 1.9372088546128019e+00
         - -2.5833656608322615e+00
         - -8.3498474509923581e-01
         - 5.9091992356632528e-01
         - 2.1060187354416691e+00
         - -7.8094086018196851e-01
         - -2.2982775975965467e-01
         - -5.3390742152325652e+00
         - 1.8474407572360363e+00
         - 2.1426071231052948e+00
         - -1.4901515365230207e+00
         - -5.4282151863367911e+00
         - -8.8007248381422076e-01
         - -2.9657278189353615e+00
         - 2.6329396299869070e+00
         - -3.9044299092340917e-01
         - -1.6238106887133692e+00
         - 5.5635146245244087e+00
         - -3.2307464895450877e-01
         - -3.0723586003344741e+00
         - 2.5570826739904184e+00
         - -2.2837580609189620e-01
         - 3.4776725180103210e+00
         - 5.3466901244915448e+00
         - -1.9026822791585398e+00
         - -2.5950864970949827e+00
         - -6.9881857673110144e+00
         - -5.2586486601398601e+00
         - 1.1647286765731886e+00
         - 4.1773366913309873e-01
         - 7.8300091907340619e-01
         - -2.6426890528706743e+00
         - 3.6408210811884953e+00
         - 5.2966807377392504e+00
         - -1.8753111899447814e+00
         - -6.8540322822847397e+00
         - 8.0927663843344633e-01
         - -1.9716474591170323e+00
         - 4.1224485509056024e+00
         - -1.7709585392311100e+00
         - 3.4116448014003758e-01
         - -2.4410609134065622e+00
         - -3.2565314629219233e+00
         - -1.1147336865635344e+00
         - 4.5868044849061738e+00
         - -3.1623994625928105e+00
         - 3.7583144078596042e+00
         - 9.9550370213954498e-01
         - 2.4749533347884083e+00
         - 1.6614042596324790e+00
         - -2.4904350620314641e+00
         - 1.9691228209443981e+00
         - 2.6423240063098290e+00
         - -8.0759483831034684e-01
         - 3.1069712909909937e+00
         - 1.5377596474206079e+00
         - -6.8939589423457930e+00
         - -2.2208968085800446e-02
         - 1.1359057810350079e+00
         - 2.1009755832179910e-01
         - -5.4782870810154582e+00
         - 2.4072364749271141e-01
         - -4.6530776117494188e-01
         - 2.8539238351043816e-01
         - 2.7385658528020236e+00
         - -2.8999129410808671e+00
         - 4.0238906663722818e-01
         - -2.8144542030679380e+00
         - 3.0701799597635566e+00
         - 2.1173914885777783e+00
         - -5.3235433095683016e+00
         - -1.0965388181200300e+00
         - 1.2525771903968748e+00
         - -1.6182010117258414e+00
         - -1.4357710207400914e-01
         - -1.9489993678948045e+00
         - -2.0495950419897273e+00
         - -1.4592783495030601e+00
         - 1.0876433616361753e-01
         - -2.0494697507135675e+00
         - 5.8589246652367488e-01
         - 4.5541198879744615e-02
         - 2.9542598371696531e+00
         - 1.9800307850774734e+00
         - 7.5356031834241142e+00
         - 5.3754319853190780e-01
         - -2.8488566162478088e+00
         - -6.2145498845588043e-01
         - 3.0071586591198676e+00
         - -2.5077735933691203e+00
         - -3.6137632691980150e+00
         - 5.2003136813140860e-01
         - 1.6191057738666927e+00
         - -4.8570014400629944e+00
         - 1.8470499724020315e+00
         - -1.4482279545711478e+00
         - -1.3176269403274252e+00
         - 8.8585099277157067e+00
         - -2.6150587679063300e+00
         - 4.2824918125300782e-01
         - 6.0280030426626734e+00
         - 5.9480684648783910e-01
         - -5.7715472731426907e+00
         - -2.1529838289897399e-01
         - 7.1658570823276451e+00
         - 1.8660842871297331e-01
         - -4.7369670991393364e-01
         - -2.2072273607061703e+00
         - -2.9477484168804255e+00
         - 5.6339284194314585e+00
         - -3.1782580055199263e+00
         - -1.1411073534013156e+00
         - -3.4499595972145614e-01
         - -9.4183823646279610e+00
         - -1.1007839265264296e+00
         - -1.9165862966411102e+00
         - -5.0232911489076244e+00
         - -5.2182336387432464e+00
         - 4.5452928309457530e-01
         - 2.1177029763983799e+00
         - 3.9659471301027995e+00
         - -1.3275074178990711e+00
         - 1.5081591491553628e-01
         - -1.3989541731431019e+00
         - -2.4623328234165545e+00
         - -2.0970260963804441e-01
         - 5.0565599398793140e+00
         - 8.8208253460380581e-01
         - -1.2089298638867906e+01
         - -5.8895804459470442e+00
         - 3.4717794197281644e+00
         - -2.8118627583404721e-03
         - -1.3370167250733687e+00
         - -1.0492256303579379e+00
         - 2.8599964517752992e+00
         - -4.7444937004108976e+00
         - -4.9663676858765120e+00
         - -1.2793771098092623e+00
         - -1.9568654321557193e+00
         - 3.5985740547755030e+00
         - -5.3259264847671250e+00
         - -7.0506074490139765e+00
         - -1.3309904905657932e+00
         - -1.7873063959648250e-01
         - 1.8597031339105814e+00
         - -6.1992948714605065e+00
         - -2.9872120237395308e+00
         - 1.8148766359050235e+01
         - -3.8653944870069750e+00
         - -5.6771132000357722e+00
         - -5.7453517411738355e+00
         - 6.1408859556819744e+00
         - -5.1551980413267873e-01
         - -7.5852435643049082e-02
         - -8.9418757280143435e+00
         - 4.7592732771174484e+00
         - -9.1676659425587947e-01
         - -2.5479626463136915e+00
         - -6.1478650859648756e+00
         - 7.1639337572090529e+00
         - -2.3208817503363828e+00
         - 7.9824820654300304e+00
         - 3.4344219278172172e+00
         - -4.2282442753470324e+00
         - 1.0971231767821523e+01
         - -2.7256812614560468e+00
         - -3.8178505743194164e+00
         - -1.4352797597863640e+00
         - 4.0249670314968373e+00
         - 9.3610602853972591e-01
         - -1.0332853010715098e+01
         - 1.2161361422013457e+00
         - 2.4850827346036848e+00
         - -4.0467139486550527e+00
         - -4.1290176000000067e-01
         - 7.9532114566548184e+00
         - 4.3182822575560245e+00
         - 7.0455721733692558e+00
         - -4.3421623799876299e+00
         - 8.2895328583768135e-02
         - 4.1470091875050672e+00
         - -2.2249223386487595e+00
         - 1.2937048711973025e+01
         - -5.2758826809113089e+00
         - -1.0139680588715937e+01
         - -8.4921450653116470e-01
         - -3.0902404147564786e+00
         - 4.1902486532215031e+00
         - -1.3744671603851082e+00
         - -5.4101011455357340e-02
         - 1.7140388968376465e+00
         - 3.4562664030853791e+00
         - 1.0475954476007745e+00
         - -2.0472765154078267e+00
         - 9.8483177771907926e-01
         - 2.7452531260897584e-01
         - -4.5799187245824440e+00
         - 6.2770434948417497e+00
         - -9.2707974071722159e+00
         - 1.3833990480939935e+00
         - -4.7918449458628691e+00
         - 2.7057650717448625e+00
         - -6.5094201371366089e-01
         - 1.3940075973369311e+01
         - -4.5671417432504118e+00
         - -4.1079233874971584e+00
         - -8.8633683262011820e-02
         - -2.5354761464376263e-01
         - -4.0973563357026430e+00
         - 7.6065002789730030e-01
         - -2.7358367923172437e+00
         - -2.7581793151360851e-01
         - 2.5380987542875530e+00
         - 2.5839160372031391e+00
         - -9.0345907109484080e-01
         - -1.1265172408332538e+00
         - 2.7182992666731507e+00
         - 1.4152971023307284e+00
         - -5.6648695375310822e+00
         - 1.1339052165958943e+01
         - -3.8385672990850446e+00
         - -1.3508602375914208e+01
         - -1.2431947775663689e+01
         - -7.6306884457164985e+00
      -
         - 1.9291477518325673e+00
         - 1.8317919111787990e+00
         - 4.0076086443513015e+00
         - 3.0551979073700006e+00
         - -5.1085148756311698e+00
         - -3.3523474477314856e+00
         - -3.0542344705428941e+00
         - -2.3573407736043928e+00
         - -2.8955424119688273e+00
         - 4.5076951243025896e+00
         - -5.7910742286279913e+00
         - -6.5313506721295711e-01
         - -6.8158638680283152e+00
         - -5.1652796795509082e-01
         - 1.7824503713568240e+00
         - -2.8900014422321578e+00
         - 3.4613981646295802e+00
         - -2.5160018532783632e+00
         - -1.6418095497917835e+00
         - 4.2018347476401070e+00
         - -4.2563613068195396e+00
         - -7.8081611247510772e+00
         - -1.7587357185482644e+00
         - 6.9347653280251864e-01
         - -6.9261358184254282e+00
         - -1.8690945268533210e-01
         - -1.1430178747963677e+00
         - -2.6199851697610570e+00
         - -1.3506134550294444e-01
         - 4.7016987870787591e-02
         - 7.1852890541907346e+00
         - -2.8786162236843991e+00
         - -1.9583629759643015e+00
         - 2.2869563891325724e+00
         - -1.4427985363143745e+00
         - 9.9530846764982506e-01
         - 2.3369217178249664e+00
         - -9.9421409499753943e-01
         - -2.6431958968113016e+00
         - -5.7371008868311044e+00
         - 6.0301608643020932e-01
         - 3.0551637755468442e-01
         - -7.0121253733586064e-01
         - 4.2700266393179875e+00
         - -7.7349462986800244e-01
         - 5.0073610628924632e+00
         - -2.0147529367941717e+00
         - -9.8215505104005629e-01
         - 2.5196292933082556e+00
         - -8.3220968034157501e+00
         - 3.9128052388526977e+00
         - 7.2005325534472480e+00
         - -6.6604261463529042e+00
         - 1.8356141073072421e+00
         - -2.6415072316280384e+00
         - 2.2140369539403424e+00
         - 6.8156823820461190e+00
         - -1.8625527751495741e+00
         - 8.7149952816365961e-01
         - -2.7109335275747304e+00
         - -1.5552877788448621e+01
         - -2.5597218470384071e+00
         - -1.5542899708609075e+00
         - -9.4974033215998765e-01
         - -1.3180177568859646e+00
         - 8.4802286220056033e-01
         - 2.0606039591891987e+00
         - 1.8509391816584711e-01
         - 1.5880775544331760e+00
         - -3.9755037852952362e+00
         - -3.1713507610232137e+00
         - 1.3825777812751843e+00
         - 2.2127265549454118e+00
         - 2.9614644621567363e+00
         - -1.8848904132833246e+00
         - -3.3679874661793154e+00
         - 3.8409906289684548e+00
         - 2.3796904121617857e+00
         - 1.6840560322387197e+00
         - 8.1850056138002170e-01
         - 1.1159672724286732e-01
         - -3.9655969760954846e+00
         - 3.9276050694586990e+00
         - 2.1554572346033942e+00
         - -7.2864453720679223e-01
         - 8.6961036765048649e-01
         - 1.0767229638550799e+00
         - 1.7082970767988368e+00
         - 7.2455967712800939e+00
         - -7.0185732804355105e-01
         - 6.2522078289255214e+00
         - 1.9044455063491481e-01
         - 7.9470056389571719e-01
         - -6.1414533028374647e+00
         - 2.1098996782048474e-01
         - 4.3224777929949898e+00
         - -1.8814186973699067e+00
         - -1.2469768374141665e+00
         - -1.4514440005936144e+00
         - -5.4145534934227344e+00
         - -7.8708435900112628e+00
         - -2.2517781937233310e+00
         - -3.0674650846982434e+00
         - 5.4696439049479739e-01
         - 3.6932933689073240e+00
         - 1.6186315870113825e+00
         - 4.3037353667827882e-01
         - 2.1224535411682348e+00
         - 7.3282224750543901e-01
         - 2.1884364483868071e+00
         - 3.8490995537369113e+00
         - -2.4883292528430947e+00
         - 4.8655583262591007e+00
         - -2.8971926769419083e+00
         - -2.9143867821033398e+00
         - 6.4368571319563870e+00
         - -2.3803706103606008e+00
         - 4.1976849839949519e+00
         - 8.5053727664649852e+00
         - 1.3623861695958939e-01
         - 7.4047616595059500e+00
         - 3.2157976363612732e+00
         - 3.5911677959359323e+00
         - 1.5363009413135686e+00
         - 2.2997901555852920e+00
         - 3.9376579644746137e+00
         - 1.2458850391619669e+00
         - 1.4156266565503468e+00
         - -1.1286977819609396e+00
         - 6.2201765763394989e-01
         - -5.4337628768448800e+00
         - -1.4043011805382215e+00
         - -1.9040961543456556e+00
         - -3.7994533117626386e+00
         - -3.0618312968679966e+00
         - 1.6775260230523645e+00
         - -5.9933248805825112e+00
         - -2.7396688728926928e+00
         - -1.7287789186046962e+00
         - 6.8019991239835875e-01
         - 1.7548217505670940e+00
         - -2.4484804624971823e-02
         - 5.1287401475009464e-01
         - -1.0458249871034042e-01
         - -3.5661750782769168e+00
         - 2.9053989710843573e+00
         - 4.9364406641805934e+00
         - -1.1384703761615360e+00
         - 2.5466713403961574e+00
         - 8.5651195912825546e+00
         - -7.8217077392308374e+00
         - -3.7354230135749500e+00
         - 3.8172244252520517e+00
         - -2.8907045620267380e+00
         - 2.0902425912144391e+00
         - 5.5012178870377664e+00
         - -4.5597368519186023e+00
         - 3.2688606531750137e+00
         - 5.1758636112622405e+00
         - -3.3927205407761574e+00
         - 8.6069815754529133e-01
         - -2.3589010225437694e+00
         - -1.2804895179152256e+00
         - 1.6349203489722473e+00
         - 3.2218202156668418e-01
         - -2.7575633880386174e+00
         - -4.2105844411567244e+00
         - 4.3406849896566069e-01
         - 7.1014605208680299e+00
         - 2.2432930281735448e+00
         - 8.6532812623950459e+00
         - 9.2954348995061509e-01
         - 2.0475800658754775e+00
         - 3.1550868939347554e+00
         - 3.2731656407860870e+00
         - -4.0232296556689455e+00
         - -7.2768656094136952e-01
         - -2.0504043129204650e+00
         - 4.2930696496036214e-01
         - -4.4222055354968060e+00
         - 5.0538291284541330e+00
         - 5.7614409685812200e+00
         - -2.7922062289699889e+00
         - 3.1250372650033462e+00
         - 3.2270055756257285e+00
         - -6.5314668124056565e+00
         - 1.2165576785534249e+00
         - -6.9231776341824791e-01
         - -1.2422306959790403e+00
         - -3.4066441843859185e+00
         - -3.1485769438478819e+00
         - -1.8792147324193049e+00
         - -3.4200171324589865e+00
         - 8.7268163998353920e-01
         - 3.1081199772782879e+00
         - -1.5148263792555865e+00
         - -3.1905111924234433e+00
         - 2.5341291512494966e+00
         - 5.7291984878430640e+00
         - 4.0656681267009933e+00
         - 4.9067542348904878e+00
         - 2.9264837504262355e+00
         - -1.1787337741757439e-01
         - 1.7269426683844538e+00
         - -2.4451271325990147e+00
         - -2.1922935806029100e+00
         - 3.1914677873765762e+00
         - -8.9135920980221095e-01
         - 3.4994028177164849e-01
         - -4.3279822843353717e+00
         - 2.3251815327345349e-01
         - 4.4672974680442428e+00
         - -3.6073139979212572e+00
         - 1.9094132367291468e+00
         - 4.7803720514262360e-01
         - 3.0798745417826900e-01
         - 5.9495900029014352e+00
         - -9.2684272692001013e-01
         - 2.3907306332976739e+00
         - -1.0776365953753206e+00
         - -4.2565895722957450e+00
         - 4.6548326549061034e+00
         - 1.1659373005256928e+00
         - 3.7412057424859131e+00
         - 8.3526169572082154e-01
         - -3.1317985456357875e+00
         - -3.1529983336904754e+00
         - -2.2883126066559578e+00
         - -3.2651047370264590e+00
         - -1.9851811952260161e+00
         - -1.1543410434826415e+01
         - -7.9316263439671730e-01
         - -5.7737550933811299e-01
         - -2.7451341441591626e-01
         - -5.0276137712007447e+00
         - 4.7172227761984864e+00
         - -8.1176428104144005e-01
         - -1.4779796573763626e+00
         - 2.0750562867394340e+00
         - 6.0912112469943507e+00
         - 4.0408089962581091e+00
         - -3.3957550316129048e-01
         - 6.2167919705707975e-01
         - 2.6168834240213901e+00
         - 2.0422844608372608e+00
         - -7.4643992322897190e-01
         - -2.4986916918911697e+00
         - -7.7003102908892203e+00
         - -2.9845840761195905e+00
         - -2.3794863287208967e+00
         - -1.6075304450212731e+00
         - 1.6006116570232165e+00
         - -2.6690776914993304e+00
         - 2.5704293101609212e+00
         - 6.9725936651953380e-01
         - 4.7584827398158129e+00
         - 6.8270138023936369e+00
         - -4.8570732120288151e-01
         - 9.5625079930503454e-01
         - 2.3728555722904194e+00
         - -1.8533436500858542e+00
         - -1.7221498584409454e+00
         - 2.5930572801040364e-01
         - -1.1630590511772332e+00
         - -3.3999209570803757e+00
         - -2.6263164129697776e+00
         - 7.4811700768801592e-01
         - 3.6896826454660832e+00
         - -4.4656997594904864e+00
         - -5.7102281670219499e+00
         - -6.5910643532783979e+00
         - 5.3564227709482806e+00
         - -5.0109457109813271e-01
         - -2.0643509646280371e+00
         - -7.3177679384676866e+00
         - -1.2374624263483121e+00
         - -3.1323284986535715e+00
         - -3.1989536685615176e+00
         - 2.5680914210896399e+00
         - 2.7663720794531725e+00
         - -5.1708413146478449e+00
         - -1.5866291065431737e-01
         - 2.9266937108216928e+00
         - 2.0170543234309455e+00
         - -2.6265191026768591e+00
         - 3.2218258112228977e+00
         - -1.8751084982877753e+00
         - 2.2366337302731698e+00
         - 2.8504677128951812e+00
         - -4.7908500541679500e-01
         - 1.3284838181966194e+00
         - 6.8538802457080661e-01
         - -4.0661278985638170e+00
         - -3.1593362707517869e+00
         - -2.6114080846797894e+00
         - 2.8796364518750859e+00
         - -2.6680444850984668e+00
         - 2.9388479525443172e+00
         - 2.7613660240757787e-01
         - -3.7911801581496589e+00
         - -4.3867371246387670e+00
         - 2.4829769256163128e-01
         - -3.8449921747899904e+00
         - -1.4244857683581813e+00
         - 2.1113391117447247e+00
         - -2.6225107389413393e+00
         - -5.8930161439245001e+00
         - -1.7752902378867405e-01
         - -2.8521022729065915e+00
         - 2.1842620779831274e+00
         - 5.0745694987968610e+00
         - -6.7239125360271288e+00
         - 2.2409424244482423e+00
         - 3.3616349256786480e+00
         - -2.0074604741143141e+00
         - 3.5880184461363913e+00
         - 1.4816897111871328e+00
         - -6.8330935070965282e-01
         - -1.6388019220941947e+00
         - 3.8178623026106457e+00
         - -2.7186369127071615e+00
         - -4.8472314949268358e-01
         - 1.1639224580014560e+00
         - 8.4985503875002832e-01
         - -7.7907431771324642e-01
         - 2.9764373904327501e-01
         - 1.9503988498706462e+00
         - 6.6713897601192160e+00
         - 2.8842879241948975e+00
         - -3.6350309060275077e+00
         - 1.9800390260502896e+00
         - -2.3082012714694695e+00
         - -9.4491756394884019e-01
         - 1.6373283394228713e+00
         - 3.0762980938984974e+00
         - -4.7469074557069524e+00
         - -7.4783104309264770e-01
         - -3.0057909393763058e+00
         - -6.0227926066031967e-01
         - -5.7965778414165223e+00
         - -5.5794335357715239e+00
         - 9.7751835584215008e-01
         - -2.6403180095107768e+00
         - -8.7729900450485481e+00
         - -2.6093200873643059e+00
         - -2.1831405204547552e+00
         - 1.5007732197990058e+00
         - -1.2697926100664687e+00
         - 2.1515345914047654e+00
         - 1.0815597634332925e+00
         - 2.1098186448685619e+00
         - 1.2463828249252746e+00
         - 9.9657349851788790e-01
         - -2.4093048541033344e+00
         - 1.7360535000460442e+00
         - 4.2276919957056460e+00
         - 1.0482512070803995e-01
         - 4.2621597689902444e+00
         - 1.6925273417521880e+00
         - -4.2676413143533631e+00
         - -4.8381139615751634e-01
         - -1.8579985602085825e+00
         - -1.2734201979706615e+01
         - 1.2887088808801725e+00
         - -5.5383919242585629e+00
         - -5.8875863650178557e+00
         - -2.5213819332563419e+00
         - -5.3555534967303569e+00
         - 3.5810354641450459e+00
         - -2.8315021392466191e+00
         - 1.0200833685673687e+00
         - -5.9999211569398287e+00
         - 1.4268059732145204e+00
         - 6.4532257000689555e+00
         - 1.7499078006793467e+00
         - 1.1225504118806915e+00
         - 4.4311392574047848e-01
         - 4.9775700823032230e+00
         - -6.7036422474712474e+00
         - -2.2056866341609158e+00
         - -4.2477590041389597e+00
         - -1.0973251854417503e+00
         - 5.3885342389186404e+00
         - -2.7119540583236619e+00
         - 4.9939876300618984e+00
         - 3.0863272309824832e+00
         - 2.2166453711059075e+00
         - 1.4902161560415665e+00
         - -4.8987969868675387e+00
         - -2.0063728807950327e+00
         - -7.9229346249717003e-02
         - -3.4608604769218934e+00
         - 5.1520170774169605e-01
         - 1.0792985335532970e+00
         - -2.0479779052924050e+00
         - -2.1886296468770579e+00
         - 3.2121036518742461e+00
         - -5.5644702523847842e+00
         - -1.7885064031239406e+00
         - 2.5085462990691276e+00
         - 1.5062321300722545e-01
         - 2.7917804278197145e+00
         - 2.2239816771574024e+00
         - -8.5060122817063571e-02
         - -7.5740255555150876e-02
         - 3.9435085925146307e+00
         - 8.1786518297593314e-01
         - 5.8082521119081088e-01
         - -2.0867932155227931e+00
         - 2.9832721309058918e-01
         - -1.4014898623373568e+00
         - 1.3118149956294221e+00
         - -3.3499730268554657e+00
         - 1.5523683053101014e+00
         - 3.4351176554823857e+00
         - -2.8739622337069259e-01
         - 2.1719817704636166e+00
         - 1.1031420821418201e+00
         - 4.8377789990077757e-01
         - -8.8279946668646148e-01
         - -5.1985866981629609e+00
         - -2.4400649193438944e+00
         - -9.1199686519214207e-01
         - -3.1226446415457141e+00
         - 8.4131605601640214e-01
         - 2.4768069918583455e+00
         - 9.0783527549007037e-01
         - 9.2085891107825801e-01
         - 1.7264775744924175e+00
         - -1.0124325564080221e+00
         - 4.0644662285649549e+00
         - 1.1469553880086734e+00
         - -9.5015199302921460e-02
         - -7.9055209114189315e+00
         - -5.7701020607913254e+00
         - -2.6550657537320910e+00
         - -8.7845891550853905e-01
         - 2.8572356070568414e+00
         - 2.4450371718193860e+00
         - -4.3530649336930329e+00
         - -1.1737136873119125e+00
         - -1.4651932968267369e+00
         - -4.1427555438949915e+00
         - -8.2426686859277876e-01
         - 2.5297534246177751e+00
         - 4.8741320694487200e+00
         - -3.7808023850603933e+00
         - 8.8639847916713616e-02
         - 5.8544102867382772e+00
         - -3.2031162851244033e+00
         - 2.5403318527202203e+00
         - 3.9505536133591279e-01
         - -2.6868943804686984e+00
         - 2.4869333417760733e+00
         - -4.7780442214076624e+00
         - -1.7336938794892760e+00
         - 4.1673302312756739e+00
         - -7.6740448852439016e+00
         - 2.3566911423900558e+00
         - 5.4279053715817172e-01
         - -3.9846328116557208e+00
         - 2.4065468191987898e+00
         - -1.4606687338954301e+00
         - -3.3222304560661220e-01
         - -6.1707735559631360e-01
         - -6.3539386350574167e+00
         - 6.2200954309216483e+00
         - 2.9987203762485448e+00
         - 4.2219409025017629e-01
         - 3.2313056171524601e-01
         - -3.4026943996221921e+00
         - -2.2028521990372587e+00
         - -4.5201161099663922e+00
         - 5.1125920009552772e-01
         - -3.6674277590682860e+00
         - 4.2810687630821667e+00
         - -2.1789210083239241e+00
         - 1.5237497468630341e+00
         - 5.7028637486000311e-01
         - 2.4847206298767808e+00
         - 8.9308534310435272e-01
         - -1.5331108876229442e+00
         - 1.2782149570115950e+00
         - 1.3425188166950845e+00
         - -1.7875216339035798e+00
         - 6.8248497235145162e+00
         - 2.5733587157567817e+00
         - 2.8341756452956264e+00
         - 1.3049594445026917e+00
         - -3.8094001986580830e+00
         - -2.2636431646600691e-01
         - -1.4176287392883891e-01
         - 2.9973084849157630e+00
         - -7.7401261779308834e+00
         - 1.3835978261142063e+00
         - 6.6534004101594912e-01
         - 2.6370834175398761e+00
         - 8.8376962015779092e-01
         - 4.9656690033938822e-01
         - -7.8607907187560500e+00
         - -4.0405232711186638e+00
         - -1.9101848002673489e+00
         - -3.4958890138908609e+00
         - 2.7577868427469459e+00
         - -1.8900520343176597e+00
         - 4.5558043966622215e+00
         - -6.4517151621676092e+00
         - 2.2693010251392427e+00
         - 2.9302287567522232e+00
         - 4.1475269815895093e+00
         - 3.6673383487070126e+00
         - -6.1106695377698805e-01
         - 1.1128232846335955e+01
         - -1.7159246919298223e+00
         - -6.5743740948260561e+00
         - 4.9033093711590041e+00
         - 6.1544218487297160e+00
         - 9.8549601899920425e-01
         - 2.8058127633554188e+00
         - -2.0555928982783205e+00
         - -1.1219165284292991e+00
         - -1.2050160459058676e+00
         - -8.1590750356454789e-01
         - -2.3200723750011072e+01
         - 3.4245238868947894e+00
         - 1.2943085328166766e+00
         - 7.0933434191478408e+00
         - 1.4893739605048479e+00
         - 9.2163553965415517e+00
         - 5.9607695254638218e+00
         - 2.4154969070900019e+00
         - 4.8427185799568138e+00
         - 2.2767041524286116e+00
         - -1.1649315180710240e+00
         - 2.1670316376381611e+00
         - 1.8062370013148332e-01
         - -2.0717882696064667e+00
         - -5.6998819252837762e+00
         - 2.4076606445821951e+00
         - -7.0712658630452307e-01
         - 1.4277406881913022e+00
         - -2.6911995308905508e+00
         - -1.4410519248425313e+00
         - 3.9978914550268563e+00
         - -2.6066562910537376e+00
         - 1.1339633866819754e+00
         - 1.3036614060378215e+00
         - 6.6420609413781593e+00
         - -1.8647288599196883e+00
         - 1.9616607957732239e+00
         - -4.6997217751247533e-01
         - -4.7320715446862343e+00
         - -1.1519927630276336e+00
         - 3.1615665620255657e+00
         - -1.6727293675895445e+00
         - 2.7218451746499661e-01
         - -2.2255872386106321e+00
         - 8.1062309351024708e-02
         - 1.8791415034906385e+00
         - -1.1981376360533031e+00
         - -4.4438253728662697e-02
         - 1.8964026945688532e+00
         - 1.4542274364240932e+00
         - 2.3321417415574821e+00
         - -2.2429679766685862e-01
         - -6.7332601540205550e+00
         - -1.0975770241431901e-01
         - -6.9284441555827525e-02
         - 3.3102076860162124e+00
         - -1.2627380770631497e-02
         - -5.1070705741593283e+00
         - -1.8636777335588559e+00
         - -1.5000848232104109e+00
         - 2.8504324777066428e+00
         - 1.1239606596510900e+00
         - 2.3595191052174407e+00
         - 2.9434334139502218e+00
         - 2.1806826658753544e+00
         - 3.3016393980382266e+00
         - -1.9040955807129987e+00
         - -1.9610397216165070e+00
         - 2.8410286563342320e+00
         - 6.0253558399329255e-01
         - -2.9386532678928945e+00
         - -2.7328608183916590e+00
         - -2.5259820441157856e+00
         - 8.8197147946345400e-01
         - -1.1026748188296009e+00
         - -3.5015198547033619e+00
         - 2.6486573631562873e+00
         - 1.6802382523653434e+00
         - -2.6189263841504712e-01
         - -2.1128754027116177e+00
         - 2.6818075916745028e+00
         - 2.8535800793679704e+00
         - -4.7671696635455092e+00
         - 1.3173035413544616e+00
         - 1.2214860414617803e+00
         - -3.0350776104290458e+00
         - -7.1516125479573693e+00
         - -4.0099083015702996e+00
         - 1.6784738697590864e+00
         - -3.0955738256409480e+00
         - -3.6886376315260763e+00
         - 4.0891556190309792e+00
         - 2.3305224743598631e+00
         - -2.3052761493961155e-01
         - -1.8434817062552178e+00
         - -1.7749441196275713e+00
         - 2.1827397167203553e+00
         - 2.7104697907777964e+00
         - -2.0789630921686064e+00
         - 6.6889489173941863e+00
         - -4.7169821533197087e+00
         - 1.1745296398629921e+00
         - -1.2489876677136842e+00
         - -1.8430239398878137e+00
         - -4.7646022930907437e+00
         - -1.8712925102797215e+00
         - 6.0613141186354169e-01
         - 1.0663393635474079e+00
         - -4.4087638967750671e+00
         - -7.2991811869254764e-01
         - -4.4786054301860716e+00
         - 9.3631938470510889e-01
         - -5.0542337149462213e-01
         - -7.5593845654888581e-01
         - 1.3149158183902292e+00
         - 4.9332043399150627e-01
         - 2.3407503031348406e-01
         - -4.9940381979593411e+00
         - -3.8114736620022527e-01
         - 1.3705639537127328e+00
         - -3.0098672433857336e+00
         - -2.7998765603333768e+00
         - 5.9684336354146839e-01
         - -6.9376340112897450e-03
         - 9.8615795377450105e-02
