%YAML:1.0
---
opencv_ml_ann_mlp:
   format: 3
   layer_sizes: [ 21, 100, 100, 1 ]
   activation_function: LEAKYRELU
   f_param1: 1.0000000000000000e-02
   f_param2: 0.
   min_val: 0.
   max_val: 0.
   min_val1: 0.
   max_val1: 0.
   training_params:
      train_method: RPROP
      dw0: 1.0000000000000000e-02
      dw_plus: 1.2000000000000000e+00
      dw_minus: 5.0000000000000000e-01
      dw_min: 1.0000000000000001e-01
      dw_max: 50.
      term_criteria:
         iterations: 300
   input_scale:
      - 9.6822038743837824e-01
      - -5.0405551615789107e-02
      - 9.4223459517134001e-01
      - -2.2349804533510209e-01
      - 8.0192077442589405e-01
      - -5.1476898221840284e-01
      - 7.0186828607896079e-01
      - -7.7524159717566721e-01
      - 5.8457773609199670e-01
      - -7.7315082458629070e-01
      - 5.4945582419477701e-01
      - -1.1405274276415855e+00
      - 4.7017710315359473e-01
      - -1.2619459412208056e+00
      - 5.5373505569042458e-01
      - -1.4718720813895172e+00
      - 5.9663099477763470e-01
      - -1.6608536344130918e+00
      - 6.9649648843471268e-01
      - -2.1248714890577278e+00
      - 6.2020204570039150e-01
      - -2.0022354796116946e+00
      - 6.5378721143068674e-01
      - -1.9303851984972638e+00
      - 5.9100679197746309e-01
      - -1.5608725802482262e+00
      - 5.5617712611072656e-01
      - -1.4552040837474667e+00
      - 4.8454742915676130e-01
      - -1.2242090772211998e+00
      - 5.5441689270715744e-01
      - -1.0967142282530520e+00
      - 6.1184824017981843e-01
      - -8.3136715176035270e-01
      - 7.0159595087869531e-01
      - -6.3014541964381543e-01
      - 8.4452767596089895e-01
      - -4.8178614716365525e-01
      - 9.1158600824214986e-01
      - -3.0942875597013952e-01
      - 1.0027004181191814e+00
      - 5.5329008152621470e-02
   output_scale:
      - 1.
      - 0.
   inv_output_scale:
      - 1.
      - 0.
   weights:
      -
         - -1.2982459501778405e+00
         - 1.4258414868017583e-01
         - -9.1751010836096769e-01
         - -1.5693266666498676e-01
         - -1.3260741785622097e+00
         - -6.3098822138211019e-01
         - 1.3148872114328922e+00
         - -4.3977872062970491e-03
         - -1.0052327778786256e+00
         - -4.6014730155607170e-01
         - -9.6352001959783584e-01
         - 1.1732417284085217e+00
         - -1.9588265666638576e+00
         - -1.1044829006287511e+00
         - -5.0584338262500306e-01
         - -6.0172538846867951e-01
         - -2.9473362533724462e-01
         - 3.8591384772031190e-01
         - -5.4657591863851229e-01
         - -8.6490263342287266e-01
         - -6.9130289827934321e-01
         - 3.8628477787483873e-01
         - 9.4970239367770681e-01
         - -1.0076614434056641e-01
         - 9.1769815452059100e-01
         - -5.1210136014245144e-01
         - 7.2454533267012666e-01
         - 5.0327108083489425e-01
         - -5.1671431311751337e-01
         - 8.4783288372843346e-01
         - -1.0480233500747917e+00
         - -1.5810129990538185e-01
         - 5.4543943474298295e-01
         - -3.9349719530613292e-01
         - -5.7641680524118066e-01
         - 2.9162374539272762e-01
         - -9.7493829507657814e-01
         - -9.3702877501554838e-01
         - 3.9921361686471168e-01
         - 4.8662879506440415e-01
         - 9.2300340950813864e-01
         - 4.6214359475603528e-01
         - 5.3772630919325914e-01
         - -2.4821109924392655e+00
         - -1.2494405962571689e-01
         - 2.1262785191105238e-01
         - 3.7544539022325407e-01
         - 1.9331078312438324e-01
         - -6.2344565757982723e-02
         - 8.2627609879035346e-01
         - -1.3591767975753046e+00
         - -2.7063240226884966e-01
         - -1.2624871578041148e+00
         - 6.8282798201770001e-01
         - -5.8384941278180058e-01
         - 2.9744070928477129e-01
         - -3.3426501018320742e-01
         - 1.5292375188533602e-01
         - 1.4491886420981352e+00
         - -5.9576006227040190e-01
         - 1.1226293259547176e-01
         - -1.3246795755506280e-01
         - -3.2247924346383383e-01
         - -5.1456262746335235e-01
         - 6.5347753107084805e-01
         - -7.0008734800114736e-01
         - 2.9752762277896427e-01
         - 6.9400859518881453e-01
         - -1.4629111523673610e+00
         - 5.3982523572274554e-01
         - 1.3498743694082030e-01
         - 8.8053061045413494e-01
         - -5.1024190419630466e-02
         - -1.0020708341945747e-01
         - 8.4824714156459535e-01
         - -3.6761040560215341e-02
         - 7.9464544681648841e-01
         - 3.9117654566200311e-01
         - -4.4407313222776024e-01
         - -4.4664208093780766e-01
         - -1.5523778706063548e-01
         - 3.4220718370880387e-01
         - 1.6432664277583986e+00
         - -1.3260594016677412e+00
         - -1.7956958162950684e-01
         - 5.1241699223369108e-01
         - -1.9638159153983206e+00
         - 3.0179061623972658e-01
         - 1.3992433662505588e+00
         - 8.9144235956299633e-01
         - -8.2208743997006284e-01
         - -2.2188736636975666e+00
         - 2.2996413639270699e-01
         - 9.0103796501924394e-01
         - -4.4931957432664160e-01
         - -2.2333266880373803e-01
         - -7.3342958006211056e-01
         - -1.4317551972730953e+00
         - -8.5525978215123394e-02
         - -1.3899703457798035e-01
         - 1.4771397012643055e+00
         - 1.0983502445853452e+00
         - 1.2792243742563711e-01
         - 9.8812128734298843e-01
         - 1.5551487480185766e+00
         - -1.6613372761259224e+00
         - 3.8509516279564548e-01
         - 2.9678994405213377e-01
         - -1.5479011759914887e+00
         - 2.5978801603572399e-01
         - -3.9213146900648110e-01
         - 6.7324927951213487e-01
         - 1.3612332239675542e+00
         - 6.4151971436042843e-02
         - -3.9437249661390006e-01
         - -9.5557742771765397e-01
         - 4.6800582321109452e-01
         - -9.2695361618740491e-01
         - -2.9373051894663305e-01
         - 4.2553425836298431e-01
         - 7.6990797655455523e-01
         - -1.4420030752524080e+00
         - 3.7016740564945017e-01
         - -1.2287344624956489e+00
         - -3.3413876843611551e-01
         - 7.7168569668741283e-01
         - 2.0301004419744553e-01
         - -3.5522010004258781e-02
         - 8.9815730184956766e-01
         - -8.7623119393915405e-01
         - -9.7130317151561740e-01
         - 5.9551352324657136e-01
         - 1.9100084024917501e+00
         - 7.4184466752935907e-01
         - 5.0109008113259912e-01
         - -9.3135654058047423e-01
         - 3.9576358149390556e-01
         - -5.8075257700893168e-01
         - -1.5279653260622161e+00
         - -1.2108607222726531e+00
         - 5.3274799593501365e-01
         - -9.9574795023700191e-01
         - -8.0440611752623470e-01
         - -7.2713740592329101e-01
         - -5.2985173083945880e-01
         - 6.5219239857575850e-01
         - -1.4034516412027855e+00
         - 1.0867026761806504e+00
         - -8.5058347628883924e-01
         - -1.3205229459290959e+00
         - 5.1839426161839885e-01
         - -7.5532790086346013e-01
         - -8.6662906403293738e-01
         - 7.8514190534561012e-01
         - 1.0241747936075618e+00
         - -6.7088530060363716e-01
         - -1.6860238351735539e+00
         - 7.7510415794865328e-01
         - 8.6360850823403157e-01
         - 7.2035907394972676e-01
         - 2.2794054816119877e-01
         - -9.1983528285026417e-01
         - 7.5784759994465878e-01
         - 3.6189988147891983e-01
         - 1.1719661344629759e+00
         - -4.6190042903238115e-01
         - -1.0707893970581267e-01
         - -1.4718932675517573e+00
         - -2.6135956881157135e-01
         - 9.5974498263791130e-01
         - -1.3681968555294834e+00
         - 2.6429277504995508e-01
         - 1.2932843969493751e-01
         - 8.5123256736366038e-01
         - 6.7280835547317641e-01
         - -1.4254492438620154e+00
         - -2.1856360681766769e+00
         - -1.0829550741748952e+00
         - 1.4998684102983852e+00
         - 1.0232984288754973e-01
         - -1.0690691670506118e+00
         - 8.5639205767010573e-01
         - 1.6168248918833392e+00
         - 9.8650996040698169e-01
         - 8.6993889056082740e-02
         - 6.1740499828628859e-01
         - 8.5035509461034042e-01
         - -4.8814734795600567e-01
         - 4.5858528583826375e-01
         - 4.3994553114771046e-02
         - -8.8611446028051233e-01
         - -7.0565565553082210e-01
         - -2.0534729387806512e+00
         - -4.4850134270279274e-01
         - 1.3293718095743672e+00
         - 6.3286668672225221e-01
         - 1.8943192395199457e-01
         - 1.6683524703259196e+00
         - 8.1558526537536991e-01
         - 3.5954883224649892e-01
         - -1.4805795304464979e+00
         - 1.7818059283047269e+00
         - -8.3312468596318956e-01
         - -2.2927915154567811e+00
         - 1.3140550800713597e+00
         - -1.3725062886037542e+00
         - 7.1211324450244773e-01
         - 1.3558469388364061e+00
         - -4.3212448664357406e-01
         - -2.4026868639849874e-02
         - 2.8017477907162347e-01
         - 1.0674131999419760e+00
         - -1.9148238642450333e+00
         - -3.6759691052994092e-02
         - 1.3685252775173831e+00
         - -1.1469461413349383e-01
         - 6.6501116383139580e-01
         - 9.5186371732569464e-01
         - -1.2927356192366253e+00
         - -2.2576232350561201e+00
         - 8.6123788625823972e-01
         - 1.7572169518726861e+00
         - 8.0841506501568206e-01
         - -2.2457484587117671e-01
         - 4.2729898314535630e-01
         - -5.4350536663458138e-01
         - 1.5657654908918233e+00
         - 5.5569283920218160e-01
         - 1.2708959132589897e+00
         - -4.2256665428887541e-01
         - -1.1907487713503648e+00
         - -2.3200078250865616e-01
         - 1.7318148523538790e+00
         - 7.8436202686739587e-01
         - -5.0616665711151165e-01
         - 2.3238128835460867e+00
         - -1.2499908719076358e+00
         - 4.3160004754979697e-01
         - -3.2412363064067629e-01
         - 1.1147324016911992e+00
         - -1.9873170155077187e+00
         - 7.4030564542222210e-01
         - 4.7518546771373571e-01
         - -7.6025105356458722e-01
         - -1.8328796936791347e-02
         - 4.3447678469151529e-01
         - -9.5393071130687657e-01
         - 1.3807053760826367e+00
         - 6.2676331736632507e-01
         - -7.6308938396306591e-01
         - -9.0446180720290770e-01
         - 1.1581844781503428e+00
         - 1.6380088214830819e+00
         - 7.2595251524216614e-02
         - -9.2386032174504307e-01
         - -5.0220190661172859e-01
         - 1.2146348755681970e+00
         - -1.4873285178319776e-01
         - 3.0267092839953791e-01
         - -3.8617705253982726e-01
         - 7.6583905170993571e-01
         - 8.2409806763683946e-01
         - -1.4253312406337106e+00
         - -6.3134111641232360e-01
         - -1.7309186218080379e+00
         - 5.8679391846189066e-01
         - 3.8577395342051557e-01
         - -2.6529121386649974e+00
         - 1.4136420133525234e+00
         - 1.1683435572373407e-01
         - -2.0253586824341352e-01
         - 1.7931805006785511e+00
         - 1.5193205733309338e+00
         - 4.6288221947645514e-01
         - 2.9281150023213198e-01
         - -5.2449102399144243e-02
         - 7.7818049096529207e-01
         - -8.2124356262342801e-01
         - 2.1543969041208282e+00
         - -1.7308903145687041e-01
         - -8.8512708783926908e-01
         - -2.7912540594837015e-01
         - -8.3283781181187577e-01
         - -1.4601527439456814e+00
         - -1.2086479806650583e+00
         - -1.4975168002624700e-01
         - -1.7883942439114546e+00
         - 1.0675881237220486e+00
         - 4.4165596160077714e-01
         - 1.0207508524774345e+00
         - -1.1273194312815185e+00
         - 1.2010077438654829e+00
         - 1.5016413835437731e-01
         - -1.7663898825842914e-01
         - -2.1114656711594142e+00
         - -1.6768388724133161e+00
         - -6.9484577955745275e-01
         - 6.7308917947790342e-02
         - -1.4128020256213221e+00
         - -9.8944584492634047e-01
         - -3.2770249334492119e-01
         - -5.6867006055676650e-01
         - -1.2509223429807570e+00
         - -1.3496284925050512e+00
         - -8.3465888100688024e-01
         - 1.9878736877974155e+00
         - 9.6201616997054173e-01
         - -1.5799004372053151e+00
         - -6.8169369886412534e-01
         - 2.8360738701240923e-02
         - 5.4407901215225929e-02
         - -7.0305947467916102e-02
         - -1.7772377021401868e+00
         - 7.5110534912659388e-01
         - 1.0909018571126781e+00
         - 8.3671594336948085e-01
         - 1.1501986655019349e+00
         - 4.8137681093525997e-01
         - -5.3443844693916798e-01
         - -5.6185620878516129e-01
         - 1.8188142651413697e+00
         - 1.5165016510303670e+00
         - 5.8278668944112966e-01
         - 6.9461819401469393e-02
         - 7.9899318364604066e-01
         - -1.6134074172217385e+00
         - -1.2901332508033163e+00
         - 1.3831236734732313e-01
         - 6.7779748136926077e-01
         - -1.2266152714768748e+00
         - -2.0236089274883984e-01
         - 1.0926951144417163e+00
         - -1.2556773721177987e+00
         - -2.6933970113154260e-01
         - -1.5303845077934985e-01
         - -8.8597649301898540e-01
         - -6.9302098700972603e-01
         - 8.0471475895931432e-01
         - 7.9423337107834124e-01
         - -1.7629573219524067e-01
         - 1.8574342765880869e-01
         - -7.3766919088927096e-01
         - 8.0929741831299640e-01
         - -4.2367549861162768e-01
         - -3.4889810062299931e-01
         - -1.3268309809686925e+00
         - 3.4509633871301970e-01
         - 5.0733711954217919e-01
         - 4.9301036105105511e-01
         - -1.5178444157757196e+00
         - 1.9391453490401800e-01
         - -1.5148674909730899e+00
         - 4.3992145934347815e-01
         - -4.1855421281318195e-01
         - -3.1862203433545705e-02
         - -6.0451973323407981e-01
         - 1.5532914237273499e+00
         - 3.5145737660548715e-01
         - -1.9663448154579160e+00
         - -3.6664717511513012e-01
         - -5.5292715358911737e-01
         - 1.7008596443800523e+00
         - -1.0501206943868957e+00
         - -4.7801765747325919e-02
         - 4.5322850399171705e-01
         - 2.4820754162111741e-02
         - 8.4878505511778501e-01
         - -8.2982375050625312e-01
         - -3.4727920996060974e-01
         - 5.9173649725826261e-01
         - -3.4338130266021893e-02
         - 2.8786201410283663e-01
         - -3.6806468205216525e-01
         - 8.0966129592375213e-01
         - 3.0229147916678656e-01
         - 5.4598600919783591e-01
         - -1.1457895448759012e+00
         - 1.2272931608148974e+00
         - -8.3981407132537766e-02
         - -4.4635679062527245e-01
         - 3.2439064091395786e-01
         - 7.4967614030852392e-02
         - 2.0702913762414463e-01
         - 3.9367862510604756e-01
         - -6.0957877192440446e-01
         - 1.4277769099764153e+00
         - 3.3043182837598517e-01
         - -2.1134894386296929e-01
         - 9.9781142315927440e-01
         - 5.0275037398926214e-01
         - -2.1467438539957588e+00
         - -1.7705030815067582e-01
         - 1.8528816839816682e+00
         - 1.2360208889400799e+00
         - 2.9929931865184345e-01
         - -1.5944638017700750e+00
         - -1.9231800254429214e+00
         - 8.0139335851525018e-01
         - 6.6188149809627994e-01
         - -1.7420754501129414e+00
         - 1.1714744027454205e+00
         - 1.1702597482307269e+00
         - -5.7610420362329517e-01
         - -6.4601644639453426e-01
         - 6.5951637283307285e-01
         - 2.5668800825549215e-01
         - 6.2794248491311322e-01
         - -1.5080320066171307e+00
         - -5.2967682944756267e-01
         - -3.1795651748473897e-01
         - 1.7602997888884267e-01
         - -2.0500433449032848e-01
         - -3.6320339431220849e-01
         - 8.5011166372231084e-01
         - 1.7601595291826184e+00
         - 3.2493933496650373e-01
         - -1.4024210451487440e-01
         - -1.6694512537918962e-01
         - -8.2598164992010337e-02
         - -1.4565926627838977e+00
         - 9.9063097019385948e-01
         - -1.2659063153426514e-01
         - 8.1100575244056339e-03
         - -9.8248423170364541e-01
         - 3.2173616887481060e-01
         - 7.6086474600572385e-01
         - 1.5721448329529710e+00
         - -1.6974220707192598e+00
         - 9.3713864843940964e-01
         - -8.0388242600899540e-01
         - -2.1039576871659080e+00
         - 3.8194887046862719e-02
         - -1.8988169460403785e+00
         - 6.5942868378657216e-01
         - 2.2691497001509062e-01
         - -4.2181113837708312e-02
         - 1.0898169152034258e+00
         - 8.0944252471109557e-01
         - -1.0160575630661355e+00
         - -4.4731394840148375e-02
         - -1.0588532761125109e+00
         - 9.2697945093618339e-01
         - -1.0122124102262584e+00
         - -1.5236378957154206e-01
         - 2.5407952763860764e-01
         - 1.7418737483520008e+00
         - -1.4950463200468103e+00
         - -1.5014594745846461e+00
         - -1.1000952868424851e+00
         - -2.0053012231967868e-01
         - -1.5281800232546414e-01
         - -3.4077816847302644e-01
         - 2.6650021971310078e-01
         - 8.6875884562846284e-01
         - -1.1551024076273148e-02
         - -6.9432255287666333e-01
         - 1.4156842822389646e+00
         - -2.7524544632034054e-01
         - -5.2849160185576272e-01
         - -2.9453022706360366e-01
         - -1.6251258401946778e+00
         - -3.8697225115534351e-01
         - -1.7935861400105328e+00
         - -9.6353378978660031e-02
         - -4.7630992593669497e-01
         - 5.4551200399372823e-01
         - 3.5740966560683496e-01
         - -1.1870028512824773e+00
         - 5.4552325067802526e-02
         - 4.2535756719482609e-01
         - 1.2050128572986720e+00
         - -4.5319139249541962e-01
         - -1.5506796592623046e-01
         - 4.5669589749258999e-01
         - -3.0870378596158332e-01
         - 1.1278865561224929e+00
         - 3.6504121299400305e-01
         - 1.4427815590147339e+00
         - 3.5332150834812104e-01
         - 1.8525219105825008e-01
         - -1.3595117357164086e+00
         - -4.2911659499648602e-01
         - 2.6043635864584003e-01
         - 8.9129114691681732e-01
         - -1.8970552622168784e+00
         - 3.8632535658969436e-01
         - -1.1542341298967720e+00
         - 1.9113603369439655e-01
         - 5.0523323057137803e-01
         - 1.5614273307003150e+00
         - -1.4797339746712912e-01
         - -1.5974147898997473e-01
         - -4.6505393825651553e-01
         - 9.9886016486736595e-01
         - 4.2559119111526234e-01
         - -7.2953905094607485e-01
         - -1.3230585093317702e+00
         - 2.8423236174291933e-01
         - -2.0033912841942900e+00
         - 3.7528157184152500e-01
         - -7.6327404360456885e-01
         - -2.7989496660044111e-01
         - -1.7894681576903269e+00
         - -2.2119453341272259e+00
         - -1.0281693201664888e+00
         - 4.6987713694883942e-02
         - 4.3537721886069447e-01
         - -1.5125142146838663e-01
         - -6.4824061471603478e-01
         - 1.1168572929300580e+00
         - 1.3513069094048066e-01
         - -1.8256791540851133e-01
         - -6.8519046640535108e-01
         - -4.2330786834115330e-01
         - 2.1083445188108119e-01
         - 4.7868586085088183e-01
         - 8.3111428308331636e-01
         - 2.2037211673486753e-01
         - -7.6381867222278488e-01
         - -1.8946845764616276e+00
         - 3.5372748887920358e-01
         - 1.5955823257373411e-01
         - -8.7247152639863323e-01
         - 1.1325672075626320e-01
         - -3.8224221681598591e-01
         - 1.1469855576274259e+00
         - 5.4807531243645136e-01
         - 4.7387680339733429e-01
         - 7.7068167188374814e-01
         - -8.0730715691478050e-01
         - 4.3513112666128395e-01
         - -2.6079393616448504e-01
         - -2.5329337624704718e-01
         - -6.3420965634279980e-01
         - -3.6677199511059844e-01
         - -4.3424066667288297e-01
         - 1.2473754219044123e-01
         - 5.5367682168783450e-01
         - -7.5595194215183492e-01
         - 8.0628761283751016e-02
         - -1.2220296412807656e+00
         - -6.5729169289074318e-01
         - -8.8629277482413038e-01
         - 6.8144638165106186e-01
         - 1.4010629392874674e+00
         - 2.8390789816567702e-02
         - -1.0367007572868796e+00
         - -7.1460813515626020e-01
         - -3.5491111226343830e-01
         - -4.8924347961742098e-01
         - -2.2554256835378081e-01
         - -9.7916532971471126e-01
         - 1.3121979356272000e+00
         - 6.7687524419776524e-01
         - -1.1632387061280847e+00
         - 8.9259354486064379e-01
         - 6.4751421298132739e-01
         - 1.2174620727587175e+00
         - -1.0510983005408803e+00
         - -3.7081303221289186e-01
         - 3.7500278006069643e-01
         - 1.4585547073654950e-01
         - -6.2033390076569350e-01
         - 9.4090270479636262e-01
         - -8.9948082655304806e-01
         - -6.8766560090130074e-02
         - -6.5447707536803040e-02
         - 3.1305901271789988e-01
         - 7.9905424350995480e-01
         - -7.0372345804817305e-01
         - -2.0730640499239747e-01
         - -8.4681209298765908e-02
         - -2.5592942937144469e-01
         - -1.1689033709247673e-01
         - 3.5068400600877614e-01
         - 1.7191592834801983e+00
         - 9.4363319711910532e-01
         - -1.9167606508569235e+00
         - -7.5661079541686438e-01
         - -7.1412572479428560e-01
         - 5.4202977932945928e-01
         - 2.8439783698715426e-01
         - 1.5041673079390860e+00
         - -1.1112627998810345e+00
         - -1.7887846415445208e+00
         - 7.4524740929110422e-01
         - 1.6642511680682082e-01
         - -1.0677256772404914e-01
         - -2.0981999730321144e-01
         - 3.8253150022887417e-01
         - 3.5380468736379234e-01
         - -1.7314008893475703e+00
         - 3.1268867393199740e-01
         - 1.2144748934494616e+00
         - -1.0415836579753048e+00
         - -1.9310387252957639e+00
         - -1.3702923247465659e+00
         - -1.2499797116310732e-01
         - -4.7208513046956324e-01
         - -1.5060994079881052e+00
         - -3.8647174368101311e-01
         - -3.2863133750853024e-01
         - -8.9013554890312396e-01
         - -5.2880974363192412e-01
         - 4.5518474216628957e-01
         - -1.1918381937468875e-01
         - 1.5385892838721582e+00
         - -3.6561935616890839e-01
         - 8.5280692642261707e-02
         - 6.2511131305693435e-01
         - 4.1646656180193781e-02
         - 1.4708817989800627e-01
         - 2.9424241487949638e+00
         - 7.5705849494557831e-01
         - 1.0320078348482040e+00
         - -2.1341291288918937e-01
         - -1.3977101296934407e+00
         - -2.4625670954327911e-01
         - -1.5422973166104235e+00
         - -4.5551365795227772e-01
         - 8.3055122365648681e-01
         - -1.3136113101179203e-01
         - 1.2612496166208624e+00
         - -3.7455647699040984e-01
         - 6.1890605640221946e-02
         - 4.3621963436580624e-01
         - -1.4076637556029481e+00
         - 1.2279574957095853e+00
         - 1.0598276623060077e+00
         - 2.1252199003539060e-01
         - -2.5705476736953545e+00
         - 8.4539081867233978e-01
         - 6.8129836593110460e-01
         - -1.3633380131464499e+00
         - 9.9450150658150205e-01
         - -1.8635099939245117e+00
         - -3.1866759195532313e-01
         - 9.2476772356106907e-01
         - -1.1753148634331967e+00
         - 7.3515920855187178e-01
         - -8.2527878970523183e-01
         - -1.0070558870956046e+00
         - 2.6884577437917156e-01
         - 1.1734657398970443e+00
         - 9.9997416649598520e-02
         - 9.9433310815587206e-01
         - 6.2528596092149902e-01
         - -5.0787709926266533e-01
         - 6.3494184990909319e-01
         - -1.1261774387604457e+00
         - -4.6289927774880468e-01
         - -6.3141785774070047e-01
         - 6.6274556783184346e-01
         - 9.3458005659177490e-01
         - -3.0842288636051296e-01
         - 4.0146518594375313e-01
         - 2.3498446050224278e+00
         - 8.6076553145040724e-01
         - -7.3212721352403209e-01
         - -1.4104338286834031e-01
         - 4.1010861271580301e-01
         - -4.3769422928007873e-01
         - 2.8046025716216783e-02
         - -9.3648359680722493e-01
         - -4.1970622402864122e-01
         - 2.1935876818868091e-01
         - -1.8286530518068289e+00
         - -1.2044228391296470e+00
         - -2.6981706404987982e-01
         - 1.3143037369532671e+00
         - 8.5216145286515821e-01
         - -2.4982694191457203e-01
         - 9.4818741381508487e-01
         - -6.1819538382620509e-01
         - -3.9722602740176827e-01
         - 5.9426928089677034e-02
         - 7.0842540122395348e-01
         - 1.4219026874358847e+00
         - -1.0490739600814254e+00
         - -1.0233493677902459e+00
         - -2.6514856195905045e-01
         - 4.3986324002881794e-01
         - 9.6626827121660341e-01
         - 6.7856010542857204e-01
         - -1.6147240045923605e+00
         - 3.7590921952617573e-01
         - 2.0878202995309125e-02
         - 7.5749827024447602e-01
         - 3.1961663754859471e-01
         - -2.2512118409874196e-01
         - 2.0835357311142119e-01
         - 4.4169663088311506e-01
         - -1.0065036292985510e+00
         - 1.2928801737335647e+00
         - -7.4060101874630052e-02
         - -1.9434205184310890e-01
         - -1.2205458368622029e+00
         - 4.2965160927724577e-01
         - -3.9832073280583880e-01
         - -1.5336067179906407e+00
         - 4.5197714236987341e-01
         - 1.4329165931892545e+00
         - -9.8973260568424648e-01
         - -9.0161232593525098e-01
         - -8.5368665473356597e-01
         - -8.7207058765425116e-01
         - -5.6679462276537040e-01
         - -4.2080121886483823e-01
         - 1.7135415660895876e+00
         - -1.5916763375839647e+00
         - 5.6638995914013979e-01
         - -4.2748840852154102e-01
         - 1.5510672115038155e+00
         - 1.7310784630155451e-01
         - 1.3779495385677611e+00
         - 2.7431255485610812e-01
         - -5.3273258762220232e-01
         - 1.0365206484300660e+00
         - -1.7426907574467351e-01
         - -5.1679672119693376e-01
         - -3.9744595236304536e-01
         - -5.3737298148593826e-01
         - 3.1139757975212534e-01
         - 1.3008444692476531e+00
         - -1.0811676814830067e+00
         - 2.2280483251868453e+00
         - -3.9350614153612329e-01
         - -7.5968173135186401e-01
         - 4.8824326062720247e-02
         - 2.1223512734788372e-01
         - -1.7456304056738063e+00
         - 5.7542857132643099e-01
         - 1.1819575696375020e-01
         - 7.4976855868126180e-01
         - 7.1097009667113220e-01
         - 6.3746706212149218e-01
         - 1.3415019826411374e+00
         - -6.9013365383432157e-01
         - -1.3133103706630718e+00
         - -2.2601107685509239e+00
         - -8.7200990998456818e-01
         - -8.9757276400175123e-01
         - -1.1208658779252789e+00
         - 1.5867598822380544e+00
         - -2.0066768051830435e+00
         - -7.1073698531378893e-01
         - -9.4732426033598804e-01
         - 9.5030672621243928e-01
         - 1.1674893490025925e-01
         - -1.2693125764485531e+00
         - 8.9513580800071629e-02
         - 4.8194861380694509e-01
         - 7.9350317098613066e-01
         - 4.9115188048716441e-01
         - -3.1159210926424918e-01
         - 4.4150420001196650e-01
         - -4.1952829920916201e-01
         - 1.2776670278588922e+00
         - 1.5601240351008980e+00
         - -5.5195776937553154e-01
         - -7.7379178333504328e-02
         - -4.6431318010860229e-02
         - 1.0804338279874719e+00
         - -1.2941508738210448e+00
         - -4.8621886140223380e-01
         - 4.4515568161470093e-02
         - -9.2530998277439680e-01
         - -9.8892530620995428e-02
         - 1.4969038055899841e+00
         - 3.2066875501685244e-01
         - -2.6194391673451127e+00
         - -2.1712606162454073e+00
         - 1.2713713952241604e-01
         - -1.7971700628752527e+00
         - -2.1522065245247052e-02
         - 1.0624551183866309e+00
         - 1.2551909959629937e+00
         - 1.1731564031097033e+00
         - -9.7064492125481217e-01
         - -2.4721440020925520e-01
         - 8.3640265296534766e-01
         - -4.5378263008222075e-01
         - -1.1135967202194206e+00
         - 2.0815733224872915e-01
         - -7.4227092192587163e-01
         - 1.0270667984522874e-01
         - 2.7270894588253408e-02
         - -6.1499178379237662e-01
         - -8.0788134685024526e-01
         - -1.0031729097832398e+00
         - -8.3996548350697831e-01
         - -9.2061804276317227e-01
         - -3.7054815727131429e-01
         - 5.2948125610004704e-01
         - -7.7389600127955127e-01
         - -5.5667686277428130e-01
         - 1.1994995030502640e+00
         - 8.2408672886913403e-01
         - -1.4154153945874182e+00
         - 1.2772113591210163e-01
         - 5.4419981202918766e-01
         - 2.2830916365857865e-01
         - -4.3461672320676570e-01
         - -1.0888865201378755e+00
         - -2.3198700012260303e+00
         - -4.5018823739025482e-01
         - 6.1399797594518080e-01
         - -1.8698370588413923e-01
         - -6.2887465089373451e-01
         - -7.9317637350336934e-01
         - 6.6891251690160719e-02
         - 2.7214394728793090e-01
         - -3.6417079830688581e-01
         - -1.8658293168164095e-01
         - -2.4263993175851533e+00
         - 1.8159230892102807e-02
         - -1.4884968332721067e+00
         - -6.7794786307760713e-01
         - 9.2787752196421713e-01
         - -2.5832089104845113e-01
         - -1.5261511820538529e+00
         - -6.9503608113667636e-01
         - 9.5630428168900761e-01
         - -7.8663402630358059e-01
         - -2.9704915047925415e+00
         - -2.0702898919216572e+00
         - -3.9152994022413590e-01
         - -1.2952395336125904e+00
         - 6.7569119324561056e-01
         - -1.2009032157170718e+00
         - -7.6833376693790778e-01
         - -1.3778414176457260e-01
         - 3.9811168748510306e-01
         - -3.1992721473006713e-01
         - 2.9609102376132135e-01
         - -1.0139684104586053e+00
         - -1.5710423612607443e+00
         - -8.9668874201342297e-01
         - -6.4374310906989685e-01
         - 7.9349597808136996e-02
         - -8.7505260177215494e-02
         - 4.4687473597854410e-01
         - -8.7641699266615170e-01
         - -8.5600423907045287e-01
         - -6.7924922045564828e-01
         - -3.0077574902112031e-01
         - 1.3920625891848575e+00
         - 1.1900686102733706e+00
         - -1.4483256224617627e+00
         - -5.7808697968863887e-01
         - -1.4339978322554414e-01
         - 5.5618327873958973e-01
         - 1.7518621154039163e-01
         - -2.0959415885182542e-01
         - 5.0559815799069963e-01
         - 3.6424084807201806e-01
         - -3.6626484976342455e-01
         - -1.1106509646294893e+00
         - 1.9203379110185084e-01
         - -1.2900834261532714e+00
         - 5.7094900475854471e-03
         - -2.1397717518254536e-01
         - 6.6165443174213479e-01
         - 6.2013714650774010e-01
         - -1.8919359825922347e-01
         - 2.5547446765970616e-01
         - -1.8065775345675780e-01
         - -7.9222033133508618e-01
         - 1.9183570307954842e-01
         - -2.3927671038610912e-01
         - -3.5889290687005115e-01
         - -1.0575716007389824e+00
         - -1.4802368591394477e+00
         - 2.3954134069593445e+00
         - 8.0409931345172558e-01
         - 4.2997770812030156e-01
         - -9.2070738629250226e-01
         - 6.7672713346621605e-01
         - 3.3722333782043623e-01
         - 1.1535758323676373e+00
         - -7.4259480361928931e-01
         - -3.3302073223180118e-01
         - -1.3419950233344529e+00
         - 7.9963860026732458e-01
         - 2.6132878929410563e-01
         - -1.7360723144388590e+00
         - -7.4658697934568186e-01
         - -8.9138871873587056e-01
         - 2.1440215062763843e-01
         - -1.2776308165206958e+00
         - -3.8652144820098500e-01
         - 3.0714759444178119e-04
         - 7.8341453679840189e-03
         - -1.3410670030255161e+00
         - -3.3539959464111024e-01
         - 1.0504548978696400e+00
         - 6.5733858105755372e-01
         - 3.4987599886188403e-01
         - 7.5394943954132820e-02
         - 2.3687361409123855e-01
         - 1.0120893541367968e+00
         - -5.1620761815359073e-01
         - 9.9142064193314200e-02
         - -3.6720002965796072e-01
         - 3.8395370338025303e-01
         - -4.3479531947151129e-01
         - -2.3339483252344477e+00
         - 1.0227701026315974e+00
         - -5.6371270037019972e-01
         - -1.0198418788292511e+00
         - 6.4652577453989213e-01
         - 1.1254566696143836e-01
         - 1.2458779908501103e+00
         - -3.7410810992963250e-01
         - -7.0522362218417467e-01
         - 1.7064145059830305e-01
         - 4.4938061849845157e-01
         - 6.0607864846641202e-01
         - -1.5644305062176969e+00
         - 1.9113739286640405e-01
         - -7.3363457545062893e-01
         - 1.7638952641924641e-01
         - -9.0767116316615593e-01
         - 1.0822301027126641e-01
         - -2.7333492698953323e+00
         - 8.8075287448143513e-01
         - 5.8251004596930583e-02
         - -4.0142750778911751e-01
         - -8.9633079584511421e-01
         - -9.6845949669702014e-01
         - -2.0657893780570522e-01
         - 1.8940566803690904e+00
         - 6.3364232425977085e-01
         - 1.3741543879097136e+00
         - -2.3918411369256351e-01
         - 7.2328284731074888e-01
         - 2.0664448180794401e-01
         - 1.3185783392810597e+00
         - 4.7266014437958992e-01
         - -1.0698249530326581e-02
         - -2.3875540535694766e+00
         - 1.0125215140456074e+00
         - -8.0474044849565207e-01
         - -5.3948893000397502e-01
         - 1.7697434600092191e-01
         - 4.0965211034647830e-01
         - -1.5963463860646168e+00
         - 9.0581516205968293e-01
         - -1.7247208738506381e+00
         - -5.3041679770939187e-01
         - -6.4347619404593315e-01
         - 4.4378432992457806e-01
         - 2.4782584075858796e+00
         - -3.0644602314791278e+00
         - 4.4615656634382905e-01
         - 1.2810970079806134e+00
         - -1.7514884796029984e+00
         - -7.0389533091764245e-01
         - 3.1896494631426819e-01
         - 4.9576699134664370e-01
         - 4.2737890884566332e-01
         - 8.1719850655929704e-01
         - 1.2925776390948736e+00
         - 1.7527270412433765e-01
         - 4.7566933338884110e-01
         - 3.3695297095019860e-01
         - 1.5488302658022719e+00
         - 1.9426962417703879e+00
         - 3.9016547227725595e-01
         - -2.3672916870941577e-01
         - -1.0571540816248381e+00
         - -5.2470007220603387e-01
         - -1.5342144791257897e+00
         - 1.5724287306539271e+00
         - -8.9802740975237649e-01
         - -1.7634540375426848e+00
         - -7.9853309043292886e-01
         - 7.6995509463213740e-01
         - 2.8312726099843522e-01
         - 6.0963232763669795e-01
         - -7.8482804498084480e-01
         - -3.4746688305628037e-01
         - 2.2729005547224803e+00
         - 8.3735122315111898e-01
         - 5.0536875047677388e-01
         - -2.2916048151383273e-01
         - -9.5487788253852701e-01
         - 6.1715127107840206e-01
         - -3.6728934209404984e-01
         - -1.0349261560298380e+00
         - 1.1835125988458198e-01
         - 1.6653978174655992e+00
         - -6.3023055298936248e-01
         - -1.4366996134477870e+00
         - -7.7889384279734641e-01
         - 5.5755230225708896e-01
         - 8.1537006350884095e-02
         - -9.9992368263676212e-01
         - -9.3550675191568911e-01
         - 5.3426608333178294e-01
         - 1.7422039583512399e+00
         - -9.9684361833639684e-02
         - 2.5102699084308910e+00
         - 3.5423840249257643e-01
         - 3.0705166251056095e+00
         - 1.0951583427561737e+00
         - 6.5237785645224899e-01
         - 1.2890974643414967e+00
         - 3.2303373741384434e-01
         - -2.3715320057024508e-02
         - 2.2810269237466736e+00
         - -2.0234733019142523e-01
         - 1.7116605358086705e+00
         - -1.2257018094289251e-02
         - 8.9579600102966228e-01
         - 5.5811014933590863e-01
         - 4.3166759095424045e-01
         - 2.6341903789517249e+00
         - 6.5646006257277489e-01
         - 9.7490276385162555e-01
         - 2.0053989015175446e+00
         - 2.0637044999922787e+00
         - 1.7241814000623266e+00
         - -1.0084789521707218e+00
         - 1.1557298209088438e+00
         - 2.5801714876015573e+00
         - -6.6141314064324253e-01
         - 2.6697376529225076e+00
         - 1.6842786835706682e+00
         - -1.3900150581135584e-01
         - 7.2022006574791797e-01
         - 9.8042431310818579e-03
         - 1.5620065481648382e+00
         - 7.3378047340414343e-01
         - 1.0830164757605014e+00
         - 1.9187874047114639e+00
         - 1.8208708339148698e+00
         - 2.9440861715784403e+00
         - 1.2630927750604129e-01
         - 1.4211155719021318e+00
         - 4.0523880559519565e-01
         - 4.9893964818569603e-01
         - 2.1230332710508861e+00
         - 3.4019116569557117e-01
         - 1.3353471166065065e+00
         - 5.5899198007885365e-01
         - 1.7488434560182606e+00
         - 8.2895400557898102e-01
         - -1.8090087725500044e+00
         - 1.5051191749906705e+00
         - 1.7086076468285594e+00
         - 5.6900114956393011e-01
         - 3.2077966518272989e+00
         - 9.5474178088344935e-02
         - 1.8610098030239042e+00
         - 6.0609003542868667e-01
         - 1.3780078201999184e+00
         - 3.6508285108199279e-01
         - 2.8644854822709944e+00
         - -9.4551859035932850e-01
         - 1.3405841636789493e+00
         - 3.8292566128419903e-01
         - 2.3275221939059048e+00
         - 2.7352836483301184e+00
         - 2.9805804896178438e+00
         - 3.2797613327122599e-01
         - 1.0224905035498560e-01
         - 2.2027502091930811e+00
         - 8.9258363141899644e-01
         - 1.6192460207815569e+00
         - -3.4439008941096694e-01
         - -3.3939297631737075e-01
         - 1.8378818827492238e-01
         - 3.5489470004611068e+00
         - 1.2841393136414303e+00
         - 2.0237894906598024e+00
         - -1.2199292341565504e-01
         - 9.4342848683269021e-01
         - -4.4685881250341752e-01
         - -5.1896759710790952e-01
         - 2.3208318822617651e+00
         - 1.7319692443323382e+00
         - -1.2420265277418446e-01
         - 1.0761890354787838e+00
         - 2.6188285228153363e-01
         - 1.0520195688166591e+00
         - 1.4723924725887794e+00
         - 1.6195644126147373e+00
         - 7.9281571135934359e-01
         - 8.8638167879214580e-01
         - 1.8668350569884047e+00
         - 1.9824970114401674e+00
         - -1.4280742033196590e+00
         - -5.8907713152583496e-01
         - -1.2718354872826505e+00
         - 8.9805364442873670e-01
         - 1.4982324670217737e+00
         - -5.3179949044162278e-01
         - 1.7137227464132387e-01
         - 2.5509460395493844e+00
         - 9.8892926639612244e-02
         - 5.5693645985848472e-01
         - 2.1351668933015460e+00
         - 3.9331360888815731e-01
         - 1.2425916134390143e+00
         - -1.2830703178310727e+00
         - -1.1479499449622654e+00
         - 4.8114708830137820e-01
         - 1.5945699651591907e-01
         - -2.7675259854851619e-01
         - -8.7795049883238163e-01
         - 1.1449516498422635e-01
         - 2.9266104218463211e+00
         - -1.6461942883579925e-01
         - -3.6869323233446594e-01
         - 1.2261229713480464e+00
         - -6.1020270836032120e-01
         - 7.9124343688224397e-01
         - 8.4621306429824283e-01
         - 1.8874398085826369e+00
         - 3.3505949643518607e-01
         - 6.2411621691425079e-01
         - -4.6262731883518010e-02
         - 1.0785425740649566e+00
         - -1.4228264400392521e-01
         - 9.3887983808447883e-01
         - 6.3921876115759002e-01
         - -3.9229279456754107e-01
         - 9.1414072663865353e-01
         - 7.6496404567317733e-01
         - -6.2665259428885445e-01
         - -3.1269683837347617e-01
         - -3.8341874977722057e-01
         - -3.4343045091770835e-01
         - -2.4394172136699119e-01
         - 7.3501952422803307e-01
         - 1.2527368908805422e-01
         - -8.1400570884896906e-01
         - 1.5604383372036454e-01
         - -5.5491304572029176e-01
         - -2.1639640016431347e-01
         - -1.7464535437174318e+00
         - -1.4363295581405393e+00
         - -3.6494991653974940e-01
         - -6.3969553206379337e-01
         - 2.5036607656670029e-01
         - 1.1855554935372761e+00
         - -1.8369740942021964e+00
         - 7.6464892113711969e-01
         - -5.3897735362958143e-01
         - 1.8161592432570881e-01
         - -1.0104008516031313e+00
         - -7.2707465833775697e-01
         - -1.0047039406493403e+00
         - 7.8846155215984570e-01
         - -5.9328468556244740e-01
         - -4.9796839242838875e-01
         - 1.9645460452082830e+00
         - 1.5969403344760613e+00
         - -1.4575766585424783e+00
         - 5.7826623051931469e-01
         - -1.5373603618509395e+00
         - 5.6825306639204110e-01
         - 8.6546163149189392e-01
         - 1.6747532442597821e+00
         - -8.2941293512344555e-02
         - 9.4616242127792838e-01
         - 9.1277203333819268e-01
         - 7.5883358134171930e-01
         - 9.5404837954735644e-01
         - 4.7607752782835688e-01
         - -1.0694468968901738e+00
         - 3.9708314625956842e-01
         - 6.9336265135939334e-01
         - -1.6009734194149212e+00
         - 7.7488164554371042e-01
         - -5.3505123603146565e-01
         - 1.3816694085650940e+00
         - -3.4367471583445075e-01
         - -2.2749319705151980e+00
         - -7.1565736598953211e-01
         - 3.7453542826724151e-01
         - 1.5513060248380499e+00
         - 9.5080450074975842e-01
         - 2.0920994871028022e+00
         - 8.9749119036151370e-01
         - 7.0566507297670633e-01
         - 4.1829179021424578e-01
         - -1.5175152614375382e+00
         - -1.6094518054706330e+00
         - 2.1339898376762014e+00
         - 5.0165211722815395e-01
         - 9.0515840286483934e-02
         - 1.5554803685783720e+00
         - -6.1339741680032334e-01
         - 9.5762633521520024e-01
         - -1.4192818091404696e-01
         - -5.1216256277271655e-01
         - 1.2551967891692164e+00
         - 4.2849564439498544e-01
         - 4.4075732635461251e-01
         - -1.7915499784196032e-01
         - 4.4763030359289824e-01
         - 8.7123258464704989e-01
         - -1.3377521324468891e+00
         - -4.5035040556648531e-03
         - -1.7418865385867082e+00
         - 1.5433437334325140e+00
         - -1.0253646086287671e+00
         - -5.8609273538189632e-01
         - -9.5551639784462628e-01
         - 8.8281287863535896e-01
         - -6.3574052195143671e-01
         - -9.3756019939695812e-01
         - 2.9834030766632824e-03
         - -9.4121263408747824e-01
         - -1.5812334957663321e+00
         - 2.9605693967704061e-01
         - 1.2122735125005908e+00
         - 1.9151165436947717e+00
         - -1.1000426729059145e+00
         - 4.8861461805087758e-01
         - 4.7923049991504119e-01
         - -5.9435404329513830e-01
         - -1.9641677172045890e-01
         - 3.5627805993460648e-01
         - -7.3278246807843062e-01
         - 6.3078804991113013e-01
         - 6.4220057241422213e-01
         - 4.4143262594297106e-01
         - -1.0540465377184902e+00
         - 7.4068018376356681e-01
         - 9.4456439022021377e-01
         - -6.9688031153190377e-01
         - -5.3513187390476913e-01
         - 7.7268615594796941e-01
         - -1.7494586775209395e-01
         - -1.8481115395821774e+00
         - 4.9804797446389815e-01
         - -8.3498189118815747e-01
         - 1.3621283836254667e+00
         - 1.6256914985479554e+00
         - 5.0684644158811287e-01
         - -2.0568308537122881e-02
         - -7.8512692908269188e-01
         - -8.8259026052998224e-01
         - 1.7134765587229541e+00
         - -1.1373679776715195e+00
         - 1.4491348117506411e-01
         - 1.0307021864684351e+00
         - 1.0374125702417365e+00
         - -6.4545796176734449e-02
         - -2.8446401089822093e-01
         - -8.3105154577854923e-01
         - -2.3708453983215119e-01
         - -9.2370937982978785e-01
         - 1.3184455731531930e-01
         - -4.9968267172349612e-01
         - 1.8121610245353210e+00
         - 8.8064988192258287e-01
         - -1.3899412109658409e+00
         - 1.1507284587815263e+00
         - 8.8011169749120433e-01
         - -4.5134221690029819e-01
         - 2.1166009071983449e+00
         - -5.0505062557556990e-01
         - -1.1041651529602288e+00
         - 1.5392462100899804e-01
         - -3.3918024182380768e-01
         - -4.7576623918168248e-01
         - -1.1526835981081658e+00
         - 3.2551010421660559e-02
         - 2.0326709301886428e-01
         - -5.9819295931040317e-01
         - -3.9365410527104261e-01
         - -2.2744015954116135e+00
         - 7.8938300274764422e-02
         - -3.4096524636414782e-01
         - -6.1616045336993308e-01
         - 4.5227902164595690e-01
         - 9.2826672279130262e-01
         - -2.4278578198652886e-01
         - -6.5881794140559879e-01
         - -9.4832527501841224e-01
         - 1.6757380049528963e+00
         - -1.3616433268965922e+00
         - -1.8751432105018799e+00
         - -4.5393218252840772e-01
         - -1.3857677021070463e+00
         - -6.2079539592885946e-01
         - 2.3496700244594476e-01
         - -1.4446894781431985e+00
         - -9.1016166895033834e-01
         - -1.4995171068977520e-01
         - 6.8258728509585020e-01
         - 1.1320626165175245e+00
         - 1.4967627299920492e+00
         - -2.0800423596063800e+00
         - 9.7337265881810020e-02
         - 1.6170699797116426e+00
         - -1.1894769353002523e+00
         - -1.0659641659491741e+00
         - 3.0771498417943843e-01
         - 3.8647122309896587e-01
         - -2.3287107391262782e-01
         - 2.9723864664082189e-01
         - -1.4385371200180259e+00
         - -4.3493936074580353e-01
         - -7.7893429376968082e-01
         - 8.7623958587497996e-01
         - -2.4343149486502721e-01
         - 2.9364386822916244e-01
         - -1.0989803990147015e-01
         - -6.8206640825534481e-01
         - 4.9747328869639484e-01
         - 3.4663394225758437e-01
         - 1.1621035011162861e+00
         - -4.1352043526839521e-02
         - -1.0548052045457468e-01
         - 4.4759968057786326e-01
         - 2.4330147605595820e-02
         - -4.6576934110295254e-01
         - -3.2505613328349603e-01
         - 1.8377648792568077e-01
         - 7.6630812744729560e-01
         - 7.8614721692617651e-01
         - 1.6889209919278572e-01
         - -4.2827359863290781e-01
         - -1.5207980060916531e+00
         - 1.0041029814281710e+00
         - -7.5841387454503617e-01
         - 6.8733036281374926e-01
         - -1.5939042283461469e-01
         - -1.1930493892288343e+00
         - 3.4365489463441456e-01
         - 6.0181361714084847e-01
         - -7.9753155679354459e-01
         - -3.5977542079528724e-01
         - 1.6255439294333485e+00
         - 2.3791965826632591e-01
         - 1.3811512323297201e+00
         - 1.6543466972020762e+00
         - 9.1860912549230345e-02
         - -3.8420006078969948e-01
         - -5.8024829698792246e-01
         - -2.8632067007668294e-02
         - 9.8166772493055998e-01
         - -3.9839093373698564e-01
         - -2.1153673930754596e-01
         - 9.9605234192851644e-01
         - -4.8988687476210568e-01
         - 3.8330204642345600e-01
         - -1.1894541139068155e+00
         - -2.0605728704853745e+00
         - 3.6154731316859146e-02
         - 7.2438278360748953e-01
         - -2.8419412135687894e-01
         - -3.0322053983757291e-01
         - 8.2602288953194636e-01
         - 4.3723299078031841e-01
         - 6.0038485028311506e-01
         - -7.3199359337821401e-01
         - -1.4884646814040534e+00
         - 2.2500086147196063e-02
         - 2.4999488172150894e-01
         - -3.6387325870966242e-02
         - -1.7585136169731158e-01
         - 1.1773375481848474e+00
         - -8.2956459800432092e-01
         - 6.0648268330693766e-01
         - -1.7895235492262837e-01
         - 7.3405405299757009e-01
         - 1.3791066503256175e-01
         - -2.0638747948104191e-02
         - -1.5617477484098383e+00
         - -4.2759035422276226e-01
         - 6.8888358852094800e-01
         - 2.3356895893767612e-01
         - -5.3854335302368317e-01
         - 6.7165888759290115e-01
         - 1.7421781285828803e+00
         - 4.8260363278399876e-01
         - -1.7815021407407290e+00
         - -3.0926616118758021e-01
         - 5.2380750756732541e-01
         - 1.3119173794472501e+00
         - 8.4808189148465041e-01
         - -2.4716193086153923e-01
         - 2.9760795515493155e-01
         - 5.5753351675252194e-01
         - -4.9124845035435960e-01
         - -3.0615404564996196e-01
         - 2.5624601487786747e-01
         - 2.1791220944461417e-01
         - 1.1201219323979346e+00
         - 1.2241995383901356e+00
         - 8.3662318309310268e-01
         - 5.6619735480277733e-01
         - 7.6852781696467132e-01
         - 1.6785254762719443e-02
         - 7.1990674794227549e-02
         - -9.2159899635976628e-01
         - 1.1809738788449766e+00
         - -1.9563247440186818e-01
         - -1.7202091490082402e-01
         - 1.2160328255309532e+00
         - 3.4338651589066049e-01
         - 1.2690886737504314e+00
         - 1.3043837866710160e+00
         - 7.0341317341417153e-01
         - 3.1825878783414430e-01
         - 1.0474800640743962e+00
         - -2.6289484759893045e-01
         - 3.1240880392328663e-01
         - -1.1705685280663958e-01
         - 1.7927988055746732e-01
         - 6.7262036744324216e-01
         - -8.1209203596215168e-02
         - 3.3651329082198966e-01
         - 1.5471468856329254e+00
         - -5.6550852733366730e-01
         - 1.3891608720271389e+00
         - -1.5599049529908200e+00
         - 5.1285834116172713e-01
         - 8.1515166870406242e-01
         - -5.5177266712857476e-01
         - 1.0351066521114218e+00
         - 4.4151480270081456e-01
         - -7.1992890885679151e-01
         - 6.4574168897894280e-01
         - 9.8359023804741397e-01
         - 1.4863143097380477e-01
         - -2.7534048522802723e-01
         - -4.8654063575454265e-01
         - -9.6348303828853321e-01
         - 1.2986428303859798e+00
         - 2.1608533916706194e+00
         - 1.6150949110967141e+00
         - 5.5129790054964001e-01
         - 1.3915846156013961e-01
         - 1.1453041834471378e+00
         - 4.0198260862608109e-02
         - 7.6660599809701857e-01
         - 1.6254637859860139e+00
         - 5.5619117230237908e-02
         - 8.5927607360455049e-01
         - -4.7519671424770149e-01
         - -1.7263011703522604e+00
         - -1.5842863002116628e-01
         - 8.4634080839797443e-01
         - 3.0493952658620177e-02
         - -1.1100503944973892e+00
         - -7.8787108094542069e-01
         - 1.3578646320346102e+00
         - -3.0856564845277845e-01
         - 7.7737764307328083e-01
         - -6.0754699618698504e-01
         - 1.2539308728376835e+00
         - 3.5583710665377244e-02
         - -2.2100442160865336e-01
         - 1.0920099913501985e-02
         - 4.8915134769968882e-01
         - -1.1375553940756806e+00
         - 6.5272639178242464e-01
         - 5.0491030579779050e-02
         - 7.8061184416045803e-01
         - -9.7254539614629418e-02
         - -5.6820560427509836e-01
         - 1.2916173451563433e+00
         - -1.2758158883402486e+00
         - 9.1869818290994387e-02
         - 1.1544595950033090e+00
         - 1.7009613458298873e+00
         - 5.7050602891100444e-01
         - -6.9674533897664637e-01
         - 1.9656651552388664e+00
         - 1.4541430912276674e+00
         - 5.3981346075788517e-01
         - 8.8077114387006639e-01
         - -3.0551816360713069e-01
         - 3.9480562155750143e-01
         - 1.8651537026004117e-01
         - 6.6781339666003470e-01
         - 1.0197755923162052e-01
         - -4.4425287513047340e-01
         - 2.8255252426581257e-01
         - 1.0301714591913114e+00
         - -3.2763417582081056e-01
         - 6.9875479541172769e-01
         - 4.1519225926328729e-01
         - 5.8091994643273848e-01
         - 1.7075338918066876e+00
         - -4.3358271179628616e-01
         - -7.9486282506585237e-01
         - -1.0459290734472100e+00
         - 1.0009785003382992e+00
         - 9.8219527428666076e-01
         - -7.2397622911267667e-01
         - 2.1021363240446558e+00
         - 4.2506958344971341e-02
         - 2.0838862962024643e-01
         - -2.2116598803369998e+00
         - 4.7828093563675256e-01
         - -1.8696109029352814e+00
         - -1.1017533812976821e-02
         - 8.0377832965099560e-01
         - 9.6846156584298371e-01
         - 8.0233309350943638e-01
         - 4.4236113545913081e-01
         - 1.0858432470228285e-01
         - 1.4289656717076354e-02
         - -3.9280012937423203e-01
         - -7.5418498134380529e-01
         - 3.1142657064787727e-01
         - 5.1557437060176237e-02
         - 1.7977458368823310e-01
         - -4.5139635222348051e-01
         - -3.2483532527808545e-01
         - 9.9817083202197276e-01
         - 6.1165404888799874e-02
         - -1.0722199059526125e+00
         - 5.8598957508250460e-01
         - 1.3955872792930371e-01
         - -2.3011416691793016e-01
         - -3.3189294576941331e-01
         - -1.1461680889820164e-01
         - 4.4770535115665588e-01
         - 4.9164066487501945e-01
         - -1.0383768319352695e+00
         - 1.7449530254619845e+00
         - 3.8840838388172294e-01
         - 1.4708044161566429e+00
         - 6.1840899299342922e-01
         - -1.6034595030588750e+00
         - 8.4121532301151908e-02
         - -5.5935858208688105e-01
         - 7.7708673449320109e-01
         - 1.5918584246748373e+00
         - -3.7016208579971732e-01
         - -4.9240693514390732e-01
         - -8.8946070612470129e-01
         - 5.0335829423445777e-01
         - 4.1846833942059947e-01
         - 1.4706845561806370e+00
         - -1.9498125325909110e-02
         - 3.1722589317512323e-01
         - 5.2462371832671362e-01
         - -7.8673159221350986e-02
         - -5.6808562718978745e-02
         - 9.1742334544879489e-01
         - -1.0525636931991883e-01
         - -1.1405846113358638e+00
         - 5.1720905495001163e-02
         - 1.7242347336705155e+00
         - 9.1019751111066388e-02
         - -3.8988529853081899e-01
         - -2.6114168875811317e-01
         - -2.1977034861137557e-02
         - -3.9412920845721577e-01
         - -3.2851446139206125e-02
         - 1.0133007328418815e+00
         - 1.3000471433872780e+00
         - -1.9125040938635607e+00
         - 4.5586308295826383e-01
         - 3.2473191853750494e-01
         - 2.4036350970899223e+00
         - 1.1200961765992501e+00
         - -2.0606327598167209e-01
         - 1.3391722830688086e+00
         - 1.5875148890018402e+00
         - 4.6451307898400152e-01
         - 2.0380395597081598e+00
         - 2.4454178732098350e-01
         - 1.0554896034313541e+00
         - 3.5235165652651224e-01
         - 1.7820944306564701e-01
         - 2.4139043454880357e-01
         - 1.4971107595963623e-01
         - -3.3183204114098908e-01
         - 8.5439154213939483e-01
         - -4.6340071801027116e-01
         - 5.2460202568086589e-01
         - 9.2291890319183578e-01
         - -7.8867057636334559e-01
         - 4.0068219427355678e-01
         - 1.3146677334772575e-01
         - 1.0570142057311311e+00
         - 2.9326809829934186e-01
         - 4.0144085664228446e-01
         - -3.3899435031718839e-01
         - 3.2360613336191307e-01
         - 1.8883970625168378e+00
         - -4.5244908114371829e-01
         - 7.0690257130026979e-01
         - -3.0810031579409702e-01
         - 1.0054950287226094e+00
         - 2.0534583958924754e-01
         - -1.1765253860534748e+00
         - 1.6616608133185937e+00
         - -1.1432147941278628e-01
         - 6.5266289762573843e-02
         - 1.4139714689448184e+00
         - 9.0468087756444115e-01
         - 5.9753718214204499e-01
         - -7.6122739673241968e-01
         - 1.1646041582601745e+00
         - 7.4944676280765066e-01
         - 1.8632721236388130e+00
         - 4.2784005418201976e-01
         - -3.9686294569666181e-01
         - -1.5183924692302342e-02
         - 8.4994356648163127e-01
         - -5.9512311522750261e-01
         - 2.2095364718949917e-01
         - 1.3483462052340724e+00
         - 2.3883756283789762e-01
         - 3.9575822785947168e-01
         - -1.7007413566467711e-01
         - -4.9882645842557805e-02
         - 2.2813079837997272e-01
         - 2.1804296657949562e-01
         - -6.1881145072132604e-01
         - 6.4228210130459973e-01
         - 1.0453745885850414e+00
         - 5.8423441887276628e-01
         - 1.9691814575147804e-01
         - 2.0223207413629249e-01
         - -3.9192793745859045e-02
         - -1.4838279660540072e+00
         - 7.8052965679801090e-01
         - -2.1226742180667124e-01
         - -3.2045427535918070e-01
         - 8.1853115490146577e-01
         - 1.8087741007486355e-01
         - 1.2178115457340462e+00
         - 2.3129468117161783e-01
         - -3.7215636859491508e-01
         - -8.8368033105114763e-02
         - 1.1411818954866515e+00
         - -5.9288684914655010e-01
         - 1.7826558971182984e+00
         - 1.5713613198929650e+00
         - 1.0868264575032986e+00
         - 1.4581835290879828e+00
         - 6.3348892131228129e-01
         - 1.9922817213651074e+00
         - 7.8377526018658705e-01
         - -1.1389274642780447e+00
         - 1.9871326394378910e+00
         - -3.6306968451170263e-02
         - 8.6849922818935732e-01
         - 2.8923774897933763e-01
         - -2.4567563417217839e-01
         - 7.5143263719061748e-01
         - -2.2224341778468132e-02
         - -2.6568862173627483e-01
         - 2.6112619360439999e+00
         - 2.1986556341048288e-01
         - -1.2381101088427595e+00
         - 6.6816159221509103e-02
         - 7.1360245000763656e-01
         - 5.1093232540047251e-01
         - 8.7707849799883475e-01
         - -6.3280180509702455e-01
         - -1.4282389113212657e-01
         - -1.2576089314219434e+00
         - -8.4441548755794821e-02
         - -6.1161542968422455e-01
         - -1.7400117904017451e-01
         - -8.3070167982971066e-02
         - 1.2180945786440416e+00
         - 7.7155845456185057e-01
         - 2.6062352320702251e+00
         - -1.2552312810164030e+00
         - -1.6741237626743650e+00
         - 3.8111225025017059e-01
         - 9.0659026789998853e-01
         - -8.7258929351262005e-01
         - -6.4291486895652428e-01
         - 4.8861725606635054e-01
         - 6.1231610934719960e-03
         - -1.8776158541638907e-01
         - 2.3178942134269804e+00
         - -1.8062703075419526e+00
         - -1.5178388132726695e+00
         - -1.2927147481523260e+00
         - 4.5676427765410266e-01
         - 2.4213426093766674e-01
         - 1.0092683182655160e+00
         - -4.2507673608688379e-01
         - 3.2716708946062495e-01
         - 4.3179986754302735e-01
         - 5.5938579437657365e-01
         - 2.1616150382810693e+00
         - -4.5523074732546231e-01
         - -3.1153105699762679e-02
         - -8.5995626768277156e-01
         - 1.2529470110861158e+00
         - -1.6992770065885032e-01
         - -8.4290630888217044e-01
         - 1.1954512397592013e-01
         - 4.9597716688593119e-01
         - 3.6576032935815406e-01
         - -2.4963594782403017e-01
         - -1.5289918710160974e-01
         - 1.5622042128870455e+00
         - 6.4054053513465459e-01
         - 1.2715554851281861e+00
         - 2.0021197910434965e+00
         - 5.7114121237413884e-02
         - -1.9560718662062967e-01
         - -3.7260115689836448e-01
         - 1.4620419683665348e-01
         - -1.7495387627039211e-01
         - 9.1370635152084256e-01
         - -2.0176192732419840e-01
         - -2.2274051781058773e-01
         - -7.6643924197491864e-01
         - 1.8355235466202373e+00
         - 9.7806578245119868e-01
         - 1.6579741619825832e+00
         - -2.5368626645662551e-01
         - -1.0113494215961880e+00
         - 2.2644052694109429e-01
         - 3.0597150314822763e-01
         - -2.2178093537832363e-01
         - 1.0196068788019499e+00
         - 3.5194242487897620e-01
         - -5.1948009358854774e-01
         - 5.8962753395639766e-01
         - 4.7370844869889295e-01
         - 2.7163040392962845e-01
         - 9.1244679431677356e-03
         - -1.4699783978451553e-01
         - -6.2760093145468943e-01
         - 8.6225923634000862e-02
         - -7.7661479266498457e-01
         - 1.1125446422783678e+00
         - -1.1715409716995593e+00
         - 6.3264624309055140e-01
         - 1.2490004364660994e+00
         - 5.2174802915497454e-01
         - -5.0157945771955181e-01
         - -5.1648519618547750e-01
         - 2.9506969078869738e-01
         - 5.4734316735861688e-01
         - -7.5745834997372996e-01
         - -2.1224757687733184e+00
         - 9.0363402182611435e-02
         - 1.1234633270598831e+00
         - 8.0165391049501794e-02
         - 8.7944782258163967e-01
         - -7.8294387461942683e-01
         - -4.1214389030597065e-01
         - -5.9253130346572414e-01
         - -1.7667225224154841e+00
         - 7.3944968499101787e-02
         - 6.2990844332393148e-01
         - 6.9806717314195654e-01
         - 1.3867449149683153e-01
         - -2.9899453128444664e-01
         - 2.4637721282342684e-01
         - -1.4545680444233251e+00
         - -1.9550158933028103e+00
         - 8.1223309843305252e-02
         - 1.4410573923547276e-02
         - 5.4679235379926960e-01
         - -4.0260591533501311e-01
         - 1.0459703659534225e+00
         - 7.5092603917147804e-01
         - 1.4262767482096343e+00
         - -1.2568210006184652e+00
         - 1.8085284908031726e-01
         - 6.4785327737546372e-01
         - -6.8965309487076565e-01
         - 2.3766348650609062e+00
         - 1.4790569898948789e+00
         - -5.6760289518893836e-02
         - 8.6260514726953685e-01
         - 2.1924805996669363e+00
         - -1.5939355118684337e+00
         - -9.5420616720711504e-01
         - 6.8279181182483029e-01
         - -7.7275517977705066e-01
         - -1.0164450010909591e+00
         - -1.0401074600911525e-01
         - -1.4283454870336063e+00
         - -2.4683256947137114e-01
         - -5.1650670312670721e-01
         - -8.1434981669416007e-01
         - 6.4158986501894721e-01
         - 3.9379837618722180e-01
         - 3.8303742186211698e-01
         - -1.5166208257632277e+00
         - -5.7302755169533803e-01
         - 4.7231839857679170e-01
         - 1.3751928456695850e+00
         - 1.0536737166895316e+00
         - 1.2599847963299049e+00
         - -4.0858108192396425e-01
         - 3.2951554105890446e-01
         - 9.5187841554160080e-01
         - 2.9107459894426457e-01
         - -1.5038394473950096e+00
         - 1.6320606148884957e+00
         - 5.3283387992572273e-01
         - 7.5214444681359005e-01
         - -1.7033882184208202e-01
         - 2.9743925207137450e-02
         - 1.5532607924093318e+00
         - 4.0454428404694287e-01
         - -2.9531978028257488e-01
         - -9.8027747577057234e-02
         - -4.3381343292530938e-01
         - 2.9552180290470766e+00
         - -1.4505663756660403e+00
         - 1.2860125525127744e-01
         - 4.3491705903294620e-01
         - 3.4302397623363901e-01
         - -8.3817632552025234e-02
         - 4.7495413172598122e-01
         - -9.7200765435184311e-01
         - 8.7331178571076029e-01
         - 1.0273515893898435e+00
         - 9.5906779681686122e-02
         - -3.1126332744535823e-01
         - -4.2220069456675696e-02
         - -4.5716225616746176e-01
         - 1.1929245472137020e+00
         - 8.7557581241630911e-01
         - -2.0593787020007142e+00
         - -8.1449871956429698e-01
         - -7.3591089124442566e-01
         - -5.3491559354056262e-01
         - 1.7651598818365233e-01
         - 2.8244117851200090e-01
         - 1.4195578869331653e+00
         - 7.9992844171897470e-01
         - 6.8530741079736973e-02
         - 1.2797676119837069e+00
         - 2.8816818260932724e+00
         - 4.3242760706747907e-01
         - 6.7535978605693647e-01
         - 1.5677443862778042e+00
         - 9.7262364635303578e-02
         - 2.4686079445048373e-01
         - 1.1897031466868393e+00
         - 1.4323492434044662e+00
         - -7.9414344997770558e-01
         - -3.5521416013989915e-01
         - 5.7852798161993502e-01
         - 4.0609495258561246e-01
         - 4.9925625941780383e-01
         - 1.4434914699193677e+00
         - 1.4073578400711160e+00
         - 1.9327359882157738e-01
         - 8.2416488476023475e-01
         - 9.4317804458538168e-01
         - -1.8813999433766442e+00
         - 6.3336872876555750e-01
         - 2.5144730140647831e-01
         - 9.8895865897273050e-01
         - -9.5703088290235072e-01
         - 3.7137948461244102e-02
         - -1.5676848905648275e+00
         - 6.4120594723004543e-01
         - 4.8163420188867812e-01
         - 3.8349886036716618e-01
         - 5.3451170230527545e-01
         - -1.1436012455712519e-03
         - -1.2379461699021230e+00
         - -5.7914242978711139e-01
         - 5.7400810446110728e-01
         - -6.7931674844759649e-01
         - 2.2211913374399678e-01
         - 4.4207510768319913e-02
         - 1.4510053369315579e-01
         - 4.9179544567176303e-01
         - 9.9526271027673829e-01
         - 5.7331840514542720e-01
         - -5.0413623192719925e-01
         - -2.0525215270968675e-01
         - 7.1735737560351592e-02
         - -1.5718919634324449e+00
         - 6.5413890417624077e-01
         - 5.4873237030702326e-01
         - -8.0655723518811145e-02
         - 1.0143105486826226e-01
         - -5.0992928647150915e-01
         - -4.3095622085879448e-01
         - 4.8737133798645726e-01
         - 5.8164240321323557e-01
         - 1.5915696118938554e+00
         - 4.6067764388727117e-01
         - 9.8984384159765304e-01
         - 7.1525225707947970e-01
         - 9.9393145553308548e-01
         - -3.1604079515761907e-01
         - 1.3219719107291354e+00
         - 1.7779048126769017e+00
         - -1.2542503015324842e+00
         - -1.2023583527279951e+00
         - 2.7015380596611738e-01
         - 1.5994149685171897e+00
         - 5.4459341031760400e-01
         - 3.2480491164239322e-01
         - 3.2843423965768004e-01
         - 1.7994033753664680e+00
         - 7.2319875585230586e-01
         - 7.9508714502449129e-01
         - 2.4461005027374541e-01
         - -1.1079953126166517e+00
         - 4.1280691422721988e-01
         - 1.0095697895594398e+00
         - 2.4555936318682092e+00
         - 1.8287330483940620e-01
         - -1.3047157082262291e+00
         - -4.7179285651626734e-01
         - 1.5218336178856681e-01
         - 3.9809340564767561e+00
         - 3.6054825363959964e-01
         - 3.4462831880782949e+00
         - 8.3543595881739374e-01
         - 7.6120943440236377e-01
         - 1.8762448672401120e+00
         - 8.2497235294031757e-01
         - 1.5271105281091892e+00
         - 1.1905194822317935e+00
         - -6.0489035054930584e-01
         - 1.1176014192572625e+00
         - -1.1832886217706133e+00
         - 1.0422598961158829e+00
         - 8.3257683915333369e-01
         - 1.2879654120949782e+00
         - 1.7295725861067377e+00
         - 1.2556987707919229e-01
         - 1.1529950935334972e+00
         - -1.5402774114655378e+00
         - 2.8062939215965632e-01
         - 6.3291754226419494e-01
         - 8.8677026758896688e-02
         - 9.9589998060175333e-01
         - 1.6603850187505218e+00
         - 1.2892794476827927e+00
         - -3.9823155458663634e-02
         - 8.6365070649110798e-01
         - 8.5816538063765824e-02
         - -1.0533637533883842e+00
         - 1.9828910962125410e+00
         - 5.0046667431402314e-01
         - 7.1638498223606717e-01
         - 3.4015110932073767e-01
         - -3.1850144356056393e+00
         - 5.8421726470006352e-01
         - -4.1894537356585670e-01
         - -1.3631788093028496e+00
         - 2.0257982364705183e+00
         - 1.2390886225883255e+00
         - -8.4347057104989021e-01
         - -4.1208875578890358e-01
         - 1.0664164524599051e+00
         - 1.2719359444014980e-01
         - 1.2768844457627590e-01
         - 1.4396586477169528e+00
         - 4.5326617838436745e-01
         - 9.2073107218969386e-01
         - -6.1215251989481256e-01
         - 6.7810990497225110e-01
         - -5.0873090654721631e-01
         - 3.9937991197978084e-01
         - -5.2197693260937916e-01
         - 1.0638177265218740e+00
         - 1.7070384951458573e+00
         - -7.5808479312388366e-01
         - -3.5315022335519675e-01
         - -3.5795541125802399e-01
         - 7.6472885461280249e-01
         - 3.1426301116773830e-01
         - 9.1957525490076375e-01
         - -3.7335527643367561e-01
         - -3.9413230455833226e-01
         - 4.6134009981803126e-01
         - -1.5249683083676555e+00
         - -1.9207405907256350e-01
         - 5.3455556223827561e-01
         - 1.7776063187532947e+00
         - 9.5785257076978852e-02
         - -3.4075790304360953e-01
         - -2.1923363814221553e-02
         - 8.2260669256637747e-02
         - 5.0178314998690654e-01
         - 7.6282420907658899e-01
         - 1.5651458118437098e-01
         - -3.0724834490241049e-01
         - -4.0997208767450832e-01
         - 2.1844836396655252e+00
         - 1.8702462452723398e+00
         - 7.6368768190810354e-01
         - 1.2517269180103194e+00
         - 1.0051612696404530e+00
         - -1.0582374023585424e+00
         - -1.7275049709498216e-01
         - 1.0795230562409837e+00
         - -1.8096699266558192e-01
         - 1.5694662432931881e+00
         - 1.3745898867330997e+00
         - 6.8400377347340613e-01
         - -2.7566090528706741e+00
         - 4.6497852118849414e-01
         - -2.7411321858817372e-01
         - 5.4709916269521797e-01
         - -7.9284565781370242e-01
         - 1.2043102384334476e+00
         - -1.0541387729817377e+00
         - -7.6502920909439720e-01
         - -1.3293022192311101e+00
         - 7.1493691452574226e-02
         - -2.1176720204656277e-01
         - -5.7954775732192243e-01
         - 6.4494765014281796e-01
         - 3.2992819690617314e-01
         - -1.0332489247009708e+00
         - 1.0828945960196021e+00
         - 3.7841275506754557e-01
         - 4.9639384678840814e-01
         - -3.6698931476752039e-01
         - -1.7145681888308255e+00
         - -3.7135615505559982e-01
         - 6.8347016950982942e-01
         - 7.3451812424965190e-01
         - -2.5672284020900715e-01
         - 4.4869735970016023e-01
         - 1.0364444407359258e-02
         - 2.2254827991420062e-01
         - -2.2649421896499208e-01
         - -6.2580388167820022e-01
         - 1.9193259258454579e-01
         - -1.7075200511528840e-01
         - 4.4230439497481611e-01
         - 2.1386300950438475e-02
         - -2.9609733471979776e+00
         - 6.6025010019913499e-01
         - 6.1745426129706904e-01
         - 5.8459660241297995e-01
         - -2.0927732023644297e-01
         - 2.4617679417777774e-01
         - 8.5191857843169738e-01
         - -1.1721957781200305e+00
         - 1.5934412415968751e+00
         - -5.3446981172584207e-01
         - -5.7763589868305354e-01
         - 7.9309636511644677e-01
         - 1.2529832478699041e+00
         - -1.2583590227830581e+00
         - 8.0363409616361603e-01
         - -2.2522951007356770e-01
         - -1.5051406147632512e-01
         - 3.3740076751974474e-01
         - 5.6562350513765303e-01
         - -1.7579414164252569e-01
         - 6.5416958547211679e-01
         - -9.5566526482809333e-01
         - 6.1644331110348705e-01
         - 1.0204867715441210e+00
         - -5.0018367688013288e-01
         - -4.6756534044111986e-01
         - 2.5220996899452641e-01
         - 9.2767281616980768e-01
         - 7.1131373866693631e-02
         - 6.7853914053476672e-01
         - -1.6062225777902952e+00
         - 1.5994175019766916e+00
         - -8.6860294032742591e-01
         - -4.8551680464151536e-01
         - 3.2542712009366970e-01
         - 1.2433621412530078e+00
         - 4.8447136906267474e-01
         - -2.9865969362608169e-01
         - -6.9384932754269324e-01
         - -7.6930798289897406e-01
         - 1.1905035889874835e+00
         - 8.2600810871297325e-01
         - -2.9185718607393341e-01
         - -3.3029135106008900e-01
         - 5.1710221991957317e-01
         - 2.7872841943145965e-01
         - -2.5408871992696480e-04
         - 1.3582318593986835e+00
         - -1.8687115972145660e-01
         - 7.1054103941427693e-01
         - -1.6510136652643034e-01
         - 8.3851970015888888e-01
         - 3.4965284592322310e-01
         - -1.3548692667924755e-01
         - 8.0099330578641403e-01
         - 5.5677246759837828e-01
         - -4.6792900730775844e-01
         - 1.4886871421009282e+00
         - 9.8851898051553666e-01
         - 1.1132186268568964e+00
         - -6.5993114405655440e-01
         - -3.3413588536394286e+01
         - -3.0996704601206875e+00
         - -4.6114106109961925e+00
         - -9.8040426923398840e+00
         - -2.7867530795470405e+00
         - -1.6794439146460256e+01
         - -4.4983688701183429e+00
         - -4.3356092698413704e+00
         - -8.4799008305217747e+00
         - -5.2858062695047012e+00
         - -2.3246139180108951e+00
         - -5.4268134535565160e+00
         - -3.6600593498092633e+00
         - -1.3723513227157200e+00
         - -3.5688038140244989e+00
         - -3.3109138767671262e+00
         - -3.9601647870494019e+00
         - -3.6280039913053805e+00
         - -5.7996707739964872e+00
         - -6.1619603540894188e+00
         - -3.9518356233325083e+00
         - -3.9660723117395325e+00
         - -4.1634431523029329e+00
         - -1.4112092710069730e+00
         - -3.8530864224357746e+00
         - -1.6222488757658391e+00
         - -1.7864047297580230e+00
         - -1.9046590041326779e+00
         - -1.1786323089230477e+00
         - -7.3362575212943453e+00
         - -7.1475153820825534e+00
         - -3.2492537110558821e+00
         - -5.7624925367369229e-01
         - -5.0032975935207187e+00
         - -5.0618114255109514e+00
         - -9.7363884383363786e+00
         - -6.4965778411299686e+00
         - 6.5216994701721642e-01
         - -6.6292239447486310e+00
         - -1.3502792290361914e+01
         - -2.5724340294560464e+00
         - -4.6632567823194151e+00
         - -9.0723137216463368e+00
         - -3.5181851943221991e+00
         - -9.5192053433386743e+00
         - -2.2848409383116626e+00
         - -5.4089077827906538e+00
         - -1.6752640941963137e+00
         - -2.2736319206230551e+00
         - 3.2414015999999968e-01
         - -1.3297976595051804e+00
         - -4.0151963984439778e+00
         - -1.1893406087622726e+01
         - -1.6712929198762905e-01
         - -5.5627580218162320e+00
         - -5.5077760924949342e+00
         - -5.5168058586487598e+00
         - -2.6615799097488853e+00
         - -9.7010834491130649e-01
         - -7.9831463413136694e+00
         - -4.6211955625311649e+00
         - -6.8475803477397736e+00
         - -5.6334756701546995e+00
         - -1.2696935283851092e+00
         - -6.5413566203897533e+00
         - -5.1305681487943522e+00
         - -2.6894125985146204e+00
         - -4.5280512723992254e+00
         - -6.1016055522078263e+00
         - -1.5787689247767760e+01
         - -5.4675749421110256e+00
         - -3.7538942922244234e-01
         - -9.9644991244233498e+00
         - -5.0630704547963079e+00
         - -1.9084473079532110e+01
         - -5.1560445746628671e+00
         - -6.1850586082551366e+00
         - -5.2718839298736624e+00
         - 4.1500755877550410e-01
         - -4.5923299826104129e+00
         - -6.2526846691560367e+00
         - -9.7758211392620051e+00
         - -2.5325952946437638e+00
         - 2.7086909085263771e+00
         - -7.9026421321027005e+00
         - -2.8082847923172465e+00
         - -1.8356808035776087e+00
         - -2.9433548649124490e+00
         - -3.5227770827968596e+00
         - -1.3035189316644916e+01
         - -1.3397210020865243e+01
         - -3.2078039269268497e+00
         - -3.4497396976692718e+00
         - -3.3757956175310837e+00
         - 3.5881843032350863e-01
         - 6.3775243467495624e-01
         - -1.3611127919379090e+01
         - -2.8602061603809732e+00
         - 2.3080412699954991e+00
      -
         - -8.8208437099828130e-01
         - -8.9942088882120130e-01
         - -2.9585189716486999e+00
         - -2.0312008126299972e+00
         - 1.1320903539438743e+00
         - -1.0056203582095380e+00
         - 9.6535059851310512e-01
         - -2.4750094123243929e+00
         - -2.3994817196882529e-01
         - -1.1934961456878088e+00
         - -4.8261922856398976e-01
         - 1.1694710127870422e+00
         - 1.1074293912271718e+00
         - -2.2811452795509177e-01
         - -2.7660085725373684e-01
         - -4.7372643176226770e-01
         - -1.1942487537041943e-01
         - -1.5344145938863631e+00
         - -2.1941595529917830e+00
         - -1.5829319723598925e+00
         - 1.3255074931804613e+00
         - 6.1612268504092127e-01
         - -1.4260626449866636e+00
         - 1.1420881168025210e+00
         - -6.2891866666650493e+00
         - 4.3058072331466823e-01
         - -2.0123298747963676e+00
         - -1.6987965003210515e+00
         - -1.5108450992309446e+00
         - -1.5419283177292120e+00
         - 9.8357880215873150e-01
         - -1.6939063356843980e+00
         - -2.4197812159643020e+00
         - -4.7137449086742444e-01
         - -2.1375572435302357e+00
         - 1.3066301308854714e-01
         - 1.3514814982496881e-01
         - -2.3722940949975402e+00
         - -8.6081893681130139e-01
         - 1.6733359800729539e-01
         - 2.0795875808302089e+00
         - -5.9834022445315299e-02
         - -3.7946533733586085e-01
         - -3.0447829606820114e+00
         - 4.2208683265999869e-01
         - 5.9672682289246248e-01
         - 1.3788022632058288e+00
         - -3.0481685934400580e+00
         - -7.9646547789174438e-01
         - -2.9200363374363620e+00
         - -4.7519703282597775e-02
         - 1.6111987934472476e+00
         - -1.8575713336090682e-01
         - 1.6048051370724378e-01
         - 6.1917756837196170e-01
         - -2.0461406793396599e+00
         - -2.5272586834315582e+00
         - 8.7391442485042481e-01
         - -3.5201150632475964e-01
         - -2.2837885675747320e+00
         - -1.2166509207894299e-01
         - -2.6622078323184066e+00
         - -1.3567998829249086e+00
         - -1.4415196826879877e+00
         - 1.2625443114034768e-02
         - -2.0855912689994391e+00
         - 4.7127579678279874e-01
         - -6.3931440183415233e-01
         - -9.2480436556682244e-01
         - 2.1578581470476485e-01
         - -2.5179079430321105e-01
         - -2.1779239787248148e+00
         - 1.7221051149454121e+00
         - 5.0378894215673342e-01
         - -9.6711744125132360e-01
         - 2.4828510618206856e+00
         - -4.0147049977217852e-02
         - 1.0104971961617857e+00
         - -1.6128796776128074e-01
         - -8.5096196661997836e-01
         - -7.5647623275713172e-01
         - -1.1743675360954819e+00
         - -7.6568784932530054e-01
         - -6.7603460539660587e-01
         - -1.7110216380862520e+00
         - -4.6339315234951339e-01
         - -9.7366807614492090e-01
         - -9.8287399520116225e-01
         - -2.8454588447199098e+00
         - -3.2064333280435511e+00
         - -1.8118603264664792e+00
         - -1.6616796093650859e+00
         - -1.2841260672722836e+00
         - -1.3264350628374653e+00
         - -2.4706661842435156e+00
         - -2.5636909423394125e+00
         - 1.3410886075900943e+00
         - -1.0219535849341663e+00
         - 8.1813842756638544e-01
         - -1.2347219804140317e+00
         - 2.1057365049977554e+00
         - 3.6896370309325399e+00
         - 2.3628046094995176e+00
         - 4.7082236169479752e-01
         - -1.5575544206677221e+00
         - 3.5425419952132087e+00
         - -1.4857024891777184e+00
         - -2.1383956175764718e-02
         - -6.6903412113456029e-01
         - -7.0914307161319168e-01
         - 1.2719912416729109e+00
         - 6.8746909042730386e-01
         - -1.3550329550089940e-01
         - 1.7803778830580912e+00
         - 1.5352342660387257e+00
         - 3.1943624197556968e+00
         - 2.1271212296393989e+00
         - 2.0379499439949518e+00
         - 2.1032127265289842e+00
         - 3.3712265055995903e+00
         - 1.7774636115059501e+00
         - 3.6511392896927419e-01
         - 2.6199299079359304e+00
         - 2.1062807973674307e+00
         - -2.4576280844147078e+00
         - -2.3555719946114642e+00
         - 5.4615316465219710e+00
         - 2.4299599327103465e+00
         - -7.7347231432940033e-02
         - 2.0641590976339494e+00
         - 1.9016085525745337e+00
         - 1.4871388860217756e+00
         - 1.0628592565434344e-01
         - 4.4872588823736292e-01
         - 2.0603519186456025e+00
         - 6.3325624001236680e-01
         - 1.4626763994174912e+00
         - 4.4842922151073070e+00
         - 8.7938817331304875e-02
         - 3.9085207239835928e-01
         - -2.8159302494329070e+00
         - 9.1387109988702775e-01
         - -1.0758491852499046e+00
         - -1.1256851419103411e+00
         - 2.7249767752091629e+00
         - -2.8295591089156429e+00
         - -1.5650902670194049e+00
         - 3.0428343550768640e+00
         - 1.9439891771961584e+00
         - 2.7317603031591657e+00
         - 3.6426987744331623e+00
         - 2.0427526587450497e+00
         - 1.5787338525205094e-01
         - -5.8439704929713687e-01
         - -6.0185340878555993e-01
         - 4.2318730677820637e+00
         - 3.2907275167213972e+00
         - 5.2380388517501375e-01
         - -2.1993668737758654e-02
         - 3.6306252665838463e+00
         - 4.0651947876129113e-01
         - 3.2235995901271073e+00
         - 1.5454893620847714e+00
         - 7.6596290897224795e-01
         - 1.0456870527346829e+00
         - 1.8558690976036218e+00
         - 6.6929071787508709e-01
         - 2.0945905116376622e+00
         - 2.0314184088680305e+00
         - 4.4743080737354357e-01
         - 1.4432759276304863e-01
         - 6.1149804995061519e-01
         - 2.0426072658754770e+00
         - -1.1267895860652448e+00
         - 3.7052992645940868e+00
         - -3.8000202143889443e+00
         - -5.7689760887737018e-01
         - -6.3498031292046586e-01
         - 8.7408012033537874e-02
         - 2.8887974981031919e+00
         - 1.6134689613413114e-01
         - 1.1006711253812209e+00
         - -1.6932290096998964e-01
         - 3.2970133772609818e+00
         - 2.5476067762657291e+00
         - 2.9571142759434377e-01
         - 3.9967062387367207e+00
         - 5.3163999658175110e-01
         - 5.0458158976593621e+00
         - 4.3957169036140833e+00
         - -1.6585228494094819e+00
         - 1.2309259723486936e+00
         - -2.0844318524589842e+00
         - 3.2871277711835400e+00
         - 5.3218456732782862e+00
         - 2.7181259407444123e+00
         - 9.8006156661655564e-01
         - -2.0444282887505034e+00
         - -7.8144855215693521e-01
         - -2.6769186937726595e+00
         - -3.3140329651095133e+00
         - 5.9909504262349866e-03
         - 7.1123638258242539e-01
         - 8.3191942102445415e-01
         - 1.1069394274009861e+00
         - 1.0416234907570905e+00
         - 6.0917180529657433e-01
         - 2.8287278301977898e+00
         - -8.4511251822835143e-01
         - -1.6406504443353693e+00
         - 2.5939624863345345e-01
         - 2.3848908113197856e-01
         - -1.0039455192012572e+00
         - 8.5835787672914721e-01
         - 1.0131360097228070e-01
         - -8.4416900482973023e-01
         - -5.2235495709856350e-01
         - 2.5454580730799896e+00
         - 5.7476662689767388e-01
         - 2.0809042046246788e+00
         - 2.4241011157042536e+00
         - -4.3031705450938995e+00
         - -1.6449664507430370e-01
         - -4.6705782077808644e-01
         - 9.8576409572082202e-01
         - -2.4505915056357863e+00
         - 2.6607355543095257e+00
         - 1.7421793344042785e-02
         - 1.1581759029735397e+00
         - 2.6916597647739842e+00
         - -1.8438732139218681e+00
         - -4.0038181223967202e+00
         - 1.9704196906618863e+00
         - 8.6521906558408257e-01
         - -1.7762128112007447e+00
         - 7.9135042049365667e-02
         - 8.9090451895856071e-01
         - -4.2241485737636286e-01
         - 1.2644787148994345e+00
         - -2.4854443080145701e+00
         - -3.1093209135018922e+00
         - 3.0053405590467115e+00
         - 5.4846949465707873e-01
         - 1.5468822402139004e-01
         - 3.1208818368372597e+00
         - -9.4663832322897201e-01
         - -1.7972650038911699e+00
         - 2.4169693388323812e+00
         - 8.0000723268040930e-01
         - -1.9299737384089596e-01
         - -1.1662740502127314e-01
         - 9.1464634502321751e-01
         - 8.0297606850066960e-01
         - -2.0916589330390791e+00
         - 1.0477250458795329e+00
         - -2.9984007121741407e-01
         - -2.1754373009318853e-01
         - 6.7346992551711871e-01
         - 1.0372198727303550e-01
         - 2.8906772290418881e-02
         - -9.9053130216137542e-01
         - -1.2036000984409447e+00
         - -3.2535475198959518e-01
         - 1.3954264221027655e+00
         - -1.5780009570803739e+00
         - -8.8933347536977614e-01
         - 6.8905720352801858e-01
         - 9.4557128546608082e-01
         - 1.1865310472946869e-01
         - 6.0475807297805140e-01
         - -1.5367106804371194e-01
         - -2.8847483848518346e-02
         - 8.9998062890186825e-01
         - -3.6875396125640392e+00
         - -2.1713181319268853e+00
         - -1.9878214663483127e+00
         - 1.0214123013464280e+00
         - 6.7142713143848387e-01
         - 4.2517302108963950e-01
         - -4.0975273023068279e+00
         - 5.2708385655215473e-01
         - -1.7540846373743160e+00
         - -3.9234592491783080e+00
         - 4.8399681182344445e-01
         - 1.2276620173231403e+00
         - 3.1146105622895659e-02
         - 1.1571227552367045e+00
         - -2.3909106972683000e-01
         - 1.9530435848951782e+00
         - 9.3962347458320361e-01
         - -8.8111643780338011e-01
         - 1.2469048445592827e+00
         - -5.2838356576381718e-01
         - -1.1433311917117868e+00
         - -1.1786155795979034e-01
         - -4.6854274812491392e-01
         - -1.3611611386664675e+00
         - 1.3801445955231573e-01
         - -1.7327395759242262e-01
         - -2.0491734547765791e-01
         - -2.2409933181747657e+00
         - 2.3942795816163068e-01
         - -1.8241308818363908e+00
         - -1.2981574483581795e+00
         - -9.3111613868022947e-01
         - 1.7672590610499550e+00
         - -2.7083873464845016e+00
         - 4.8451969583486465e-02
         - 3.4748172709340913e-01
         - 7.3457527168201753e-02
         - -2.4607680735551414e+00
         - -7.2016160237974725e-01
         - -2.8812740747517571e+00
         - 1.7330398792786443e+00
         - 3.2695360588568545e-01
         - -6.6872845946360970e-01
         - 1.9851915118713284e-01
         - 2.7867464929034658e-01
         - 4.6015231790580502e-01
         - 5.0065142261064532e-01
         - -1.4939073127071607e+00
         - 1.8737326073073164e+00
         - 4.7626574376145658e-01
         - 1.1323626428818678e+00
         - -2.0313303177132456e+00
         - 4.5791322512327481e-01
         - 2.2685940498706465e+00
         - 5.4208483959214182e-02
         - -1.5533584425251032e+00
         - -1.4719371460275050e+00
         - 1.0560415860502899e+00
         - -1.8287879765147357e+00
         - 6.1424070805115905e-01
         - -5.6743966057712880e-01
         - -2.3867966133502755e-02
         - -2.0841144445069517e+00
         - -4.7846784309264812e-01
         - -2.0187609521630537e-01
         - -1.5041347486603187e+00
         - 1.3534816785834758e+00
         - -2.1110777104352056e+00
         - 2.6553750316821514e+00
         - 2.1204617152892205e+00
         - 1.1755928608074457e+00
         - -1.9207928400043048e+00
         - 3.1039414834524320e-01
         - 8.8350601979900711e-01
         - -9.4939640800054914e-01
         - -5.5179317439091511e+00
         - 4.0024085143329347e-01
         - 2.7375156842285655e+00
         - 1.6209044249252760e+00
         - -1.6790686134821102e+00
         - 1.9675342626966683e+00
         - -9.6065152881955468e-02
         - 6.7405964938065466e-01
         - 1.1462395207080385e+00
         - -1.5091816369719977e+00
         - 9.8144119645688499e-01
         - -3.3879168502253658e+00
         - 1.9757851478424833e+00
         - -3.0351751362085824e+00
         - -1.8215771211359708e+00
         - -2.0776884583982599e-01
         - -9.1906825782656265e-01
         - -1.1216965730178552e+00
         - 1.7559581141036578e+00
         - 1.1237809032696431e+00
         - 4.0858394372650473e+00
         - 2.5269754075338091e-01
         - 8.1547569783367829e-02
         - -1.0575109169398282e+00
         - 2.2419037001451925e-01
         - 1.0575473942895391e-01
         - 8.7562153594974423e-01
         - -2.4622815881193074e+00
         - -1.7406003207740928e+00
         - -8.5705547049037523e-01
         - -3.1229566917592475e+00
         - 1.0828778458390829e+00
         - 2.3157371854903966e-01
         - 5.0763280932782502e+00
         - -3.5951232945213563e+00
         - 3.2262527222404958e-01
         - -1.4357085829301011e+00
         - -1.4357058143576786e+00
         - 1.1920565711059081e+00
         - 1.9404523672415663e+00
         - 8.2645434113246274e-01
         - -7.0247830159503322e-01
         - 1.4700340137502823e+00
         - -9.1947398092189181e-01
         - 1.4431199925416944e+00
         - 2.0145479316522126e+00
         - 2.3922460947075956e+00
         - 2.6378445872294309e-01
         - -7.9888016165404063e-01
         - 1.7240855972612956e+00
         - 2.6285223994360596e+00
         - -3.9953017781559269e-02
         - 2.9214290323992254e+00
         - -1.1952709218028620e-01
         - 2.4210957891574019e+00
         - -5.1877455481706403e-01
         - 2.1137585689823633e+00
         - -6.5622980255768826e-01
         - 9.7434037627961323e-02
         - -1.1802174768091851e+00
         - -4.2956195835227948e+00
         - -3.7485617469094117e+00
         - 5.9676258544268768e-01
         - -5.9063620437057762e-01
         - 2.0609353314453357e-01
         - 4.1523101933101039e+00
         - 9.3057091529443114e-01
         - -7.7285955009069107e-01
         - 3.5263809000996611e+00
         - 4.9554078101418213e+00
         - 1.2564921399007785e+00
         - 1.1457752533135377e+00
         - 2.9744895463170358e+00
         - -4.0421292415218935e-01
         - 8.5997498468741063e-01
         - -3.2873939535457137e+00
         - 2.8357992560164011e+00
         - 6.4178900785834447e-01
         - 3.9251462514900703e+00
         - 3.5961454390782595e+00
         - -1.9181466784355812e+00
         - 3.5456218435919791e+00
         - -3.1707020534626684e+00
         - 1.8660094148425925e+00
         - 2.9504056006970782e+00
         - -1.6741465754189346e+00
         - 6.9773177033923550e-01
         - -4.7757547009320911e+00
         - 9.5635708449146040e-01
         - 1.1751364070568415e+00
         - -1.1386031481806127e+00
         - 7.1948674630696863e-01
         - 7.2422551268808677e-01
         - -1.3132361000267365e+00
         - 7.7670235050500991e-01
         - -9.8731966859277964e-01
         - 1.1863908646177739e+00
         - -6.9673458578328107e-01
         - -3.7442385060392880e-02
         - 5.1501682191167157e+00
         - -2.3276107718217229e+00
         - 3.9927484670396445e+00
         - -1.6434863872797796e+00
         - -2.2841574386640882e+00
         - 1.8780739039206784e+00
         - 1.1327189417760732e+00
         - -3.5412854988476625e+00
         - 6.5378669651072385e-01
         - 1.1817233889612364e+00
         - 2.1315788269096934e+00
         - -2.6366208576099432e+00
         - 4.9675632003722487e+00
         - 1.3279429016242796e+00
         - 2.8608108524787892e+00
         - 3.0262726610456880e-01
         - 2.8939273543933872e+00
         - 3.9952880939568647e-01
         - 2.4164862170822818e-01
         - 4.9608903092164791e-01
         - 5.1463877164054628e-01
         - -1.5079928190982467e-01
         - -4.5963589649425973e+00
         - 5.3900800037780849e-01
         - -1.4088845215972590e+00
         - -2.0335187339663934e+00
         - -4.7311391044777507e-01
         - 2.6810820331516676e+00
         - -1.1483470178216439e+00
         - -3.0582996185363143e-01
         - 7.9133374686303348e-01
         - -1.5843042513999653e-01
         - -1.4285081701232205e+00
         - -6.3498039935645789e-02
         - -1.0624278949829427e+00
         - -3.2055154749884043e+00
         - 5.6118816695086116e-02
         - -1.5848505918357955e-01
         - -8.0948115648548147e-01
         - -1.4117006122432179e+00
         - 1.2870870052956238e+00
         - 2.7486158413026924e+00
         - 2.7608785535618732e+00
         - 1.2126436835339922e+00
         - 1.0401668540711602e+00
         - -1.3645647943623646e-01
         - 2.9078892230291200e+00
         - 9.5345075411420555e-01
         - 2.6249555290159496e+00
         - -2.5954559159148487e+00
         - -1.2702346919062069e+00
         - -3.9690330996606127e+00
         - -2.0826126587026681e+00
         - -1.2216371911866286e-01
         - 7.6056719973265130e-01
         - 1.0807143781091382e+00
         - -1.0671487860530529e+00
         - -2.5856160355976612e+00
         - 1.1036688293022201e+00
         - 8.4510915783239038e-01
         - 1.5983594172032434e+00
         - -3.2253545444777765e-01
         - 2.4553757486950825e-01
         - -3.3467138236499061e-01
         - -1.5854030033699121e-01
         - 5.0452798358802720e-01
         - -1.0060949192982199e-01
         - -2.6418776042057196e-02
         - 1.3449145115900513e-01
         - -6.5946842470281763e-02
         - 6.0172897899920519e-01
         - -8.7274467664457989e-01
         - 1.1208199273216779e+00
         - -3.2105636842929874e-01
         - 7.1678994094132698e-02
         - -3.2863668648445494e+00
         - -3.2054989789163357e-01
         - -2.8718984494304340e+00
         - -2.0138315827417208e+00
         - -1.6896971850121607e+00
         - 2.5568743250484971e-01
         - 5.5032153798155481e-01
         - 1.9017697174638206e+00
         - -1.5331208823499980e+00
         - -1.6724439888291054e+00
         - -7.4826113550738760e-01
         - -1.8332431724710223e+00
         - 7.8390729898620637e-01
         - 7.8923357578163245e-01
         - -1.1671162696064650e+00
         - -3.9262159612517737e+00
         - -1.9032206354178043e+00
         - -3.0687357696184434e+00
         - 1.1440179976313034e+00
         - 1.4670211158207462e+00
         - 1.6664549065174685e+00
         - -1.7927508985429355e+00
         - -7.9029170413737387e-02
         - 2.4142731466819760e+00
         - -1.8766368257701769e+00
         - -3.0721393862183999e-01
         - -1.4144888599196894e+00
         - -1.3185679371547763e+00
         - 6.6569696808752576e-01
         - -3.4951845668623499e-01
         - 1.6991159576123656e+00
         - 1.4434981127455644e+00
         - 9.9908759241045508e-01
         - 1.3062656786810003e+00
         - 1.3945087613893692e+00
         - -7.5266065617345412e-01
         - -1.3410159877093626e+00
         - -3.0043033960533041e+00
         - -6.2096755932866288e-01
         - 9.7181773456885356e-01
         - 1.0777572442409175e-01
         - 1.1763977415574836e+00
         - -1.2965847976668579e+00
         - 2.5081746665874425e+00
         - 9.8465253758568028e-01
         - 4.7542969604417429e-01
         - -1.5268106819837857e+00
         - -1.3433545956878530e+00
         - -1.8570678861593266e+00
         - -9.3863453355885673e-01
         - 1.4297046081388358e+00
         - -4.0076191062933590e+00
         - 1.6428137796510907e+00
         - -3.0474314118255852e-01
         - 2.4191539202988905e+00
         - -2.1877912967844866e+00
         - -3.5221148196177321e-01
         - -1.0579618207129977e+00
         - 1.5333857617851190e+00
         - 2.4189265633423260e-01
         - 6.0080399999329182e-01
         - -4.6876869479696923e+00
         - 2.2119238216083401e+00
         - 9.6057411588421537e-01
         - -8.9006948053654589e-01
         - 2.5584678117039905e-01
         - 2.0211292054438377e+00
         - -2.9566263684371297e-01
         - -1.1599470763465633e-01
         - -1.1826403817289666e+00
         - -1.1102296427116198e+00
         - 8.9403747967450020e-01
         - -1.9067476006320283e+00
         - 9.8454740525448914e-01
         - -1.2784471986135382e+00
         - -2.0091456385382189e+00
         - 2.6713459927709553e+00
         - -1.7215353711106218e+00
         - 8.7774386429701812e-02
         - 6.6635354975908756e-01
         - 1.4960985537510529e+00
         - -2.2639919483260771e+00
         - 2.1088880990309780e+00
         - 4.6902379968752861e-01
         - -1.5422755196904616e+00
         - 1.0239294937447829e+00
         - -1.2731956396275712e+00
         - -1.5308812020764714e-01
         - 2.1115750844051714e-01
         - -3.7478934421406540e-02
         - -1.2027338986058131e+00
         - 1.9517487266802895e+00
         - 1.8933495986469899e+00
         - 2.0545323322863140e+00
         - 2.3064477051218732e-01
         - 1.6760288189005497e+00
         - 8.2589148972027648e-01
         - 2.4945500866354148e-01
         - -2.0956361984468304e+00
         - -1.3734270026136919e-02
         - -1.6688963084141473e+00
         - 3.1676742498139281e+00
         - -1.8968710972148899e+00
         - -3.8218797867266252e+00
         - 2.5058476554511140e+00
         - 2.3378538585955426e+00
         - 9.6143563399150400e-01
         - 1.5050620690334844e+00
         - -2.4538916410313405e+00
         - 1.7010547457997724e+00
         - 2.0513569905127325e+00
         - 9.2039989261426458e-01
         - 7.5448028490367181e-01
         - 2.4894192354146807e-01
         - 1.9034252459887102e+00
         - 4.5167226753774505e+00
         - 5.5311473151244550e-01
         - -2.2852308222740132e+00
         - 1.7380576756705293e+00
         - -4.9549159583514335e-01
         - -4.1635677270175731e-01
         - -6.1525417906101543e-01
         - 2.7526274538512676e+00
