<--simpleied version of coftcascade xml.represintation-->
<?xml version="1.0"?>
<opencv_storage>
<cascade>
  <stageType>BOOST</stageType>
  <featureType>ICF</featureType>
  <octavesNum>5</octavesNum>
  <width>64</width>
  <height>128</height>
  <octaves>
    <_>
      <stageParams>
        </stageParams>
      <featureParams>
        </featureParams>
      <scale>4.</scale>
      <shrinkingFactor>4</shrinkingFactor>
      <stageNum>2</stageNum>
      <stages>
        <_>
          <maxWeakCount>1</maxWeakCount>
          <stageThreshold>-1.0108363814651966e-02</stageThreshold>
          <weakClassifiers>
            <_>
              <internalNodes>
                0 1 0 3543. 0 1 1 4179. 0 1 2 167.</internalNodes>
              <leafValues>
                -1.3159355148673058e-03 1.3159355148673058e-03
                -1.3159355148673058e-03 1.3159355148673058e-03</leafValues></_></weakClassifiers></_>
        <_>
          <maxWeakCount>1</maxWeakCount>
          <stageThreshold>-1.0124363936483860e-02</stageThreshold>
          <weakClassifiers>
            <_>
              <internalNodes>
                0 1 3 30400. 0 1 4 43. 0 1 5 84650.</internalNodes>
              <leafValues>
                -1.1778055923059583e-03 1.1778055923059583e-03
                1.1778055923059583e-03 -1.1778055923059583e-03</leafValues></_></weakClassifiers></_>
      </stages>
      <features>
        <_>
          <channel>8</channel>
          <rect>
            25 21 34 25</rect></_>
        <_>
          <channel>8</channel>
          <rect>
            35 25 41 32</rect></_>
        <_>
          <channel>0</channel>
          <rect>
            17 91 44 103</rect></_>
        <_>
          <channel>9</channel>
          <rect>
            27 55 36 80</rect></_>
        <_>
          <channel>1</channel>
          <rect>
            19 19 39 27</rect></_>
        <_>
          <channel>9</channel>
          <rect>
            19 76 44 101</rect></_>
        </features></_>
</opencv_storage>
