<?xml version="1.0"?>
<!----------------------------------------------------------------------------
  12x20 Left ear (in the image) detector computed with 5000 positive and 15000
  negative samples

//////////////////////////////////////////////////////////////////////////
| Contributors License Agreement
| IMPORTANT: READ BEFORE DOWNLOADING, COPYING, INSTALLING OR USING.
|   By downloading, copying, installing or using the software you agree 
|   to this license.
|   If you do not agree to this license, do not download, install,
|   copy or use the software.
|
| Copyright (c) 2011, Modesto Castrillon-Santana (IUSIANI, Universidad de
| Las Palmas de Gran Canaria, Spain).
|  All rights reserved.
|
| Redistribution and use in source and binary forms, with or without
| modification, are permitted provided that the following conditions are
| met:
|
|    * Redistributions of source code must retain the above copyright
|       notice, this list of conditions and the following disclaimer.
|    * Redistributions in binary form must reproduce the above
|      copyright notice, this list of conditions and the following
|      disclaimer in the documentation and/or other materials provided
|      with the distribution.  
|    * The name of Contributor may not used to endorse or promote products 
|      derived from this software without specific prior written permission.
|
| THIS SOFTWARE IS PROVIDED BY THE COPYRIGHT HOLDERS AND CONTRIBUTORS
| "AS IS" AND ANY EXPRESS OR IMPLIED WARRANTIES, INCLUDING, BUT NOT
| LIMITED TO, THE IMPLIED WARRANTIES OF MERCHANTABILITY AND FITNESS FOR
| A PARTICULAR PURPOSE ARE DISCLAIMED. IN NO EVENT SHALL THE
| CONTRIBUTORS BE LIABLE FOR ANY DIRECT, INDIRECT, INCIDENTAL, SPECIAL,
| EXEMPLARY, OR CONSEQUENTIAL DAMAGES (INCLUDING, BUT NOT LIMITED TO,
| PROCUREMENT OF SUBSTITUTE GOODS OR SERVICES; LOSS OF USE, DATA, OR
| PROFITS; OR BUSINESS INTERRUPTION) HOWEVER CAUSED AND ON ANY THEORY OF
| LIABILITY, WHETHER IN CONTRACT, STRICT LIABILITY, OR TORT (INCLUDING
| NEGLIGENCE OR OTHERWISE) ARISING IN ANY WAY OUT OF THE USE OF THIS
| SOFTWARE, EVEN IF ADVISED OF THE POSSIBILITY OF SUCH DAMAGE.  Back to
| Top
//////////////////////////////////////////////////////////////////////////

RESEARCH USE:
If you are using any of the detectors or involved ideas please cite this paper:

@INPROCEEDINGS{Castrillon11-caepia,
  author =       "Castrill\'on Santana, M. and Lorenzo Navarro, J. and Hern\'andez Sosa, D. ",
  title =        "An Study on Ear Detection and its Applications to Face Detection",
  booktitle =    "Conferencia de la Asociación Española para la Inteligencia Artificial (CAEPIA)",
  year =         "2011",
  month =        "November",
  address =      "La Laguna, Spain",
  file = F
}

More information can be found at http://mozart.dis.ulpgc.es/Gias/modesto.html or in the paper.

COMMERCIAL USE:
If you have any commercial interest in this work please contact 
mcastrillon@iusiani.ulpgc.es
------------------------------------------------------------------------>

<opencv_storage>
<classifier_LeftEarA_trainNew2011_12_20 type_id="opencv-haar-classifier">
  <size>
    12 20</size>
  <stages>
    <_>
      <!-- stage 0 -->
      <trees>
        <_>
          <!-- tree 0 -->
          <_>
            <!-- root node -->
            <feature>
              <rects>
                <_>
                  1 6 8 12 -1.</_>
                <_>
                  1 6 4 6 2.</_>
                <_>
                  5 12 4 6 2.</_></rects>
              <tilted>0</tilted></feature>
            <threshold>1.2798480689525604e-001</threshold>
            <left_val>-7.1108317375183105e-001</left_val>
            <right_val>8.3952748775482178e-001</right_val></_></_>
        <_>
          <!-- tree 1 -->
          <_>
            <!-- root node -->
            <feature>
              <rects>
                <_>
                  0 3 12 2 -1.</_>
                <_>
                  0 4 12 1 2.</_></rects>
              <tilted>0</tilted></feature>
            <threshold>5.0366270443191752e-005</threshold>
            <left_val>-7.7958387136459351e-001</left_val>
            <right_val>4.1161769628524780e-001</right_val></_></_>
        <_>
          <!-- tree 2 -->
          <_>
            <!-- root node -->
            <feature>
              <rects>
                <_>
                  0 18 12 2 -1.</_>
                <_>
                  0 18 6 1 2.</_>
                <_>
                  6 19 6 1 2.</_></rects>
              <tilted>0</tilted></feature>
            <threshold>-1.1398220434784889e-002</threshold>
            <left_val>5.5991190671920776e-001</left_val>
            <right_val>-5.2993881702423096e-001</right_val></_></_>
        <_>
          <!-- tree 3 -->
          <_>
            <!-- root node -->
            <feature>
              <rects>
                <_>
                  6 3 3 6 -1.</_>
                <_>
                  4 5 3 2 3.</_></rects>
              <tilted>1</tilted></feature>
            <threshold>2.8897399082779884e-002</threshold>
            <left_val>-9.6023030579090118e-002</left_val>
            <right_val>1.8446889519691467e-001</right_val></_></_>
        <_>
          <!-- tree 4 -->
          <_>
            <!-- root node -->
            <feature>
              <rects>
                <_>
                  6 3 6 3 -1.</_>
                <_>
                  8 5 2 3 3.</_></rects>
              <tilted>1</tilted></feature>
            <threshold>-5.7543441653251648e-003</threshold>
            <left_val>3.9083909988403320e-001</left_val>
            <right_val>-7.0798218250274658e-001</right_val></_></_>
        <_>
          <!-- tree 5 -->
          <_>
            <!-- root node -->
            <feature>
              <rects>
                <_>
                  0 0 12 16 -1.</_>
                <_>
                  0 8 12 8 2.</_></rects>
              <tilted>0</tilted></feature>
            <threshold>1.2758660130202770e-002</threshold>
            <left_val>-7.6031517982482910e-001</left_val>
            <right_val>2.6452711224555969e-001</right_val></_></_>
        <_>
          <!-- tree 6 -->
          <_>
            <!-- root node -->
            <feature>
              <rects>
                <_>
                  4 0 4 1 -1.</_>
                <_>
                  6 0 2 1 2.</_></rects>
              <tilted>0</tilted></feature>
            <threshold>-4.1698651330079883e-005</threshold>
            <left_val>3.2332289218902588e-001</left_val>
            <right_val>-5.7402020692825317e-001</right_val></_></_></trees>
      <stage_threshold>-1.6897829771041870e+000</stage_threshold>
      <parent>-1</parent>
      <next>-1</next></_>
    <_>
      <!-- stage 1 -->
      <trees>
        <_>
          <!-- tree 0 -->
          <_>
            <!-- root node -->
            <feature>
              <rects>
                <_>
                  1 6 8 12 -1.</_>
                <_>
                  1 6 4 6 2.</_>
                <_>
                  5 12 4 6 2.</_></rects>
              <tilted>0</tilted></feature>
            <threshold>1.7598830163478851e-001</threshold>
            <left_val>-5.9234100580215454e-001</left_val>
            <right_val>7.8493958711624146e-001</right_val></_></_>
        <_>
          <!-- tree 1 -->
          <_>
            <!-- root node -->
            <feature>
              <rects>
                <_>
                  0 0 12 8 -1.</_>
                <_>
                  0 4 12 4 2.</_></rects>
              <tilted>0</tilted></feature>
            <threshold>3.8594089448451996e-002</threshold>
            <left_val>-6.8187582492828369e-001</left_val>
            <right_val>3.8166061043739319e-001</right_val></_></_>
        <_>
          <!-- tree 2 -->
          <_>
            <!-- root node -->
            <feature>
              <rects>
                <_>
                  6 8 6 6 -1.</_>
                <_>
                  4 10 6 2 3.</_></rects>
              <tilted>1</tilted></feature>
            <threshold>1.2052910029888153e-001</threshold>
            <left_val>-3.7438058853149414e-001</left_val>
            <right_val>5.2112519741058350e-001</right_val></_></_>
        <_>
          <!-- tree 3 -->
          <_>
            <!-- root node -->
            <feature>
              <rects>
                <_>
                  4 12 8 8 -1.</_>
                <_>
                  4 12 4 8 2.</_></rects>
              <tilted>0</tilted></feature>
            <threshold>2.1304990351200104e-001</threshold>
            <left_val>9.7819166257977486e-003</left_val>
            <right_val>-6.5798282623291016e-001</right_val></_></_>
        <_>
          <!-- tree 4 -->
          <_>
            <!-- root node -->
            <feature>
              <rects>
                <_>
                  0 12 8 8 -1.</_>
                <_>
                  4 12 4 8 2.</_></rects>
              <tilted>0</tilted></feature>
            <threshold>-1.9179080426692963e-001</threshold>
            <left_val>8.8993859291076660e-001</left_val>
            <right_val>-2.3742930591106415e-001</right_val></_></_>
        <_>
          <!-- tree 5 -->
          <_>
            <!-- root node -->
            <feature>
              <rects>
                <_>
                  6 3 3 6 -1.</_>
                <_>
                  4 5 3 2 3.</_></rects>
              <tilted>1</tilted></feature>
            <threshold>3.7649259902536869e-003</threshold>
            <left_val>-9.2071659862995148e-002</left_val>
            <right_val>1.5995720028877258e-001</right_val></_></_>
        <_>
          <!-- tree 6 -->
          <_>
            <!-- root node -->
            <feature>
              <rects>
                <_>
                  3 4 6 12 -1.</_>
                <_>
                  3 7 6 6 2.</_></rects>
              <tilted>0</tilted></feature>
            <threshold>-7.4397800490260124e-003</threshold>
            <left_val>3.5091850161552429e-001</left_val>
            <right_val>-5.2880358695983887e-001</right_val></_></_>
        <_>
          <!-- tree 7 -->
          <_>
            <!-- root node -->
            <feature>
              <rects>
                <_>
                  8 0 4 18 -1.</_>
                <_>
                  8 0 2 18 2.</_></rects>
              <tilted>0</tilted></feature>
            <threshold>8.1300012767314911e-002</threshold>
            <left_val>4.7027029097080231e-002</left_val>
            <right_val>-4.8141419887542725e-001</right_val></_></_>
        <_>
          <!-- tree 8 -->
          <_>
            <!-- root node -->
            <feature>
              <rects>
                <_>
                  0 0 4 18 -1.</_>
                <_>
                  2 0 2 18 2.</_></rects>
              <tilted>0</tilted></feature>
            <threshold>7.9818956553936005e-002</threshold>
            <left_val>-3.0336898565292358e-001</left_val>
            <right_val>5.7992082834243774e-001</right_val></_></_>
        <_>
          <!-- tree 9 -->
          <_>
            <!-- root node -->
            <feature>
              <rects>
                <_>
                  1 0 10 16 -1.</_>
                <_>
                  1 8 10 8 2.</_></rects>
              <tilted>0</tilted></feature>
            <threshold>3.9260480552911758e-002</threshold>
            <left_val>-6.1189621686935425e-001</left_val>
            <right_val>2.4700529873371124e-001</right_val></_></_>
        <_>
          <!-- tree 10 -->
          <_>
            <!-- root node -->
            <feature>
              <rects>
                <_>
                  0 18 12 2 -1.</_>
                <_>
                  0 18 6 1 2.</_>
                <_>
                  6 19 6 1 2.</_></rects>
              <tilted>0</tilted></feature>
            <threshold>-8.6981123313307762e-003</threshold>
            <left_val>3.0427950620651245e-001</left_val>
            <right_val>-4.3165320158004761e-001</right_val></_></_>
        <_>
          <!-- tree 11 -->
          <_>
            <!-- root node -->
            <feature>
              <rects>
                <_>
                  3 0 6 1 -1.</_>
                <_>
                  3 0 3 1 2.</_></rects>
              <tilted>0</tilted></feature>
            <threshold>5.5766489822417498e-005</threshold>
            <left_val>-5.4995632171630859e-001</left_val>
            <right_val>2.4196259677410126e-001</right_val></_></_></trees>
      <stage_threshold>-1.6203830242156982e+000</stage_threshold>
      <parent>0</parent>
      <next>-1</next></_>
    <_>
      <!-- stage 2 -->
      <trees>
        <_>
          <!-- tree 0 -->
          <_>
            <!-- root node -->
            <feature>
              <rects>
                <_>
                  1 6 8 12 -1.</_>
                <_>
                  1 6 4 6 2.</_>
                <_>
                  5 12 4 6 2.</_></rects>
              <tilted>0</tilted></feature>
            <threshold>1.9991339743137360e-001</threshold>
            <left_val>-5.1076048612594604e-001</left_val>
            <right_val>7.2653311491012573e-001</right_val></_></_>
        <_>
          <!-- tree 1 -->
          <_>
            <!-- root node -->
            <feature>
              <rects>
                <_>
                  8 3 2 4 -1.</_>
                <_>
                  7 4 2 2 2.</_></rects>
              <tilted>1</tilted></feature>
            <threshold>-1.6032690473366529e-004</threshold>
            <left_val>1.1732880026102066e-001</left_val>
            <right_val>-1.9851410388946533e-001</right_val></_></_>
        <_>
          <!-- tree 2 -->
          <_>
            <!-- root node -->
            <feature>
              <rects>
                <_>
                  3 3 4 6 -1.</_>
                <_>
                  3 5 4 2 3.</_></rects>
              <tilted>0</tilted></feature>
            <threshold>6.2459441833198071e-003</threshold>
            <left_val>-6.2454998493194580e-001</left_val>
            <right_val>4.1317841410636902e-001</right_val></_></_>
        <_>
          <!-- tree 3 -->
          <_>
            <!-- root node -->
            <feature>
              <rects>
                <_>
                  0 0 12 12 -1.</_>
                <_>
                  0 6 12 6 2.</_></rects>
              <tilted>0</tilted></feature>
            <threshold>5.5343401618301868e-003</threshold>
            <left_val>-8.2238370180130005e-001</left_val>
            <right_val>2.2600589692592621e-001</right_val></_></_>
        <_>
          <!-- tree 4 -->
          <_>
            <!-- root node -->
            <feature>
              <rects>
                <_>
                  6 8 6 6 -1.</_>
                <_>
                  4 10 6 2 3.</_></rects>
              <tilted>1</tilted></feature>
            <threshold>1.0757610201835632e-001</threshold>
            <left_val>-5.5525738000869751e-001</left_val>
            <right_val>4.3564280867576599e-001</right_val></_></_>
        <_>
          <!-- tree 5 -->
          <_>
            <!-- root node -->
            <feature>
              <rects>
                <_>
                  8 3 1 8 -1.</_>
                <_>
                  6 5 1 4 2.</_></rects>
              <tilted>1</tilted></feature>
            <threshold>-9.9556613713502884e-003</threshold>
            <left_val>2.9808950424194336e-001</left_val>
            <right_val>-3.0220919847488403e-001</right_val></_></_>
        <_>
          <!-- tree 6 -->
          <_>
            <!-- root node -->
            <feature>
              <rects>
                <_>
                  2 0 8 1 -1.</_>
                <_>
                  6 0 4 1 2.</_></rects>
              <tilted>0</tilted></feature>
            <threshold>-4.8354369937442243e-005</threshold>
            <left_val>4.4047379493713379e-001</left_val>
            <right_val>-6.6946560144424438e-001</right_val></_></_>
        <_>
          <!-- tree 7 -->
          <_>
            <!-- root node -->
            <feature>
              <rects>
                <_>
                  11 0 1 8 -1.</_>
                <_>
                  9 2 1 4 2.</_></rects>
              <tilted>1</tilted></feature>
            <threshold>1.9743980374187231e-004</threshold>
            <left_val>-2.5094148516654968e-001</left_val>
            <right_val>1.9814400374889374e-001</right_val></_></_>
        <_>
          <!-- tree 8 -->
          <_>
            <!-- root node -->
            <feature>
              <rects>
                <_>
                  4 3 8 1 -1.</_>
                <_>
                  6 5 4 1 2.</_></rects>
              <tilted>1</tilted></feature>
            <threshold>-4.4098760554334149e-005</threshold>
            <left_val>3.0689230561256409e-001</left_val>
            <right_val>-6.6775608062744141e-001</right_val></_></_>
        <_>
          <!-- tree 9 -->
          <_>
            <!-- root node -->
            <feature>
              <rects>
                <_>
                  8 4 4 13 -1.</_>
                <_>
                  8 4 2 13 2.</_></rects>
              <tilted>0</tilted></feature>
            <threshold>-1.7941730096936226e-002</threshold>
            <left_val>2.7399578690528870e-001</left_val>
            <right_val>-2.9671499133110046e-001</right_val></_></_>
        <_>
          <!-- tree 10 -->
          <_>
            <!-- root node -->
            <feature>
              <rects>
                <_>
                  3 0 1 8 -1.</_>
                <_>
                  3 4 1 4 2.</_></rects>
              <tilted>0</tilted></feature>
            <threshold>5.3291041695047170e-005</threshold>
            <left_val>-6.7100298404693604e-001</left_val>
            <right_val>2.4690890312194824e-001</right_val></_></_>
        <_>
          <!-- tree 11 -->
          <_>
            <!-- root node -->
            <feature>
              <rects>
                <_>
                  0 18 12 2 -1.</_>
                <_>
                  6 18 6 1 2.</_>
                <_>
                  0 19 6 1 2.</_></rects>
              <tilted>0</tilted></feature>
            <threshold>6.4407112076878548e-003</threshold>
            <left_val>-5.2723282575607300e-001</left_val>
            <right_val>2.4782879650592804e-001</right_val></_></_>
        <_>
          <!-- tree 12 -->
          <_>
            <!-- root node -->
            <feature>
              <rects>
                <_>
                  6 11 1 6 -1.</_>
                <_>
                  6 11 1 3 2.</_></rects>
              <tilted>1</tilted></feature>
            <threshold>-4.9925990402698517e-002</threshold>
            <left_val>8.2168322801589966e-001</left_val>
            <right_val>-2.4012729525566101e-001</right_val></_></_>
        <_>
          <!-- tree 13 -->
          <_>
            <!-- root node -->
            <feature>
              <rects>
                <_>
                  8 0 4 17 -1.</_>
                <_>
                  8 0 2 17 2.</_></rects>
              <tilted>0</tilted></feature>
            <threshold>2.4148030206561089e-003</threshold>
            <left_val>-3.8689721375703812e-002</left_val>
            <right_val>1.9318090379238129e-001</right_val></_></_>
        <_>
          <!-- tree 14 -->
          <_>
            <!-- root node -->
            <feature>
              <rects>
                <_>
                  0 0 4 17 -1.</_>
                <_>
                  2 0 2 17 2.</_></rects>
              <tilted>0</tilted></feature>
            <threshold>6.2534123659133911e-002</threshold>
            <left_val>-4.1077169775962830e-001</left_val>
            <right_val>6.0665780305862427e-001</right_val></_></_>
        <_>
          <!-- tree 15 -->
          <_>
            <!-- root node -->
            <feature>
              <rects>
                <_>
                  0 12 12 8 -1.</_>
                <_>
                  0 14 12 4 2.</_></rects>
              <tilted>0</tilted></feature>
            <threshold>8.8917986431624740e-005</threshold>
            <left_val>-6.7601591348648071e-001</left_val>
            <right_val>3.1252190470695496e-001</right_val></_></_>
        <_>
          <!-- tree 16 -->
          <_>
            <!-- root node -->
            <feature>
              <rects>
                <_>
                  2 7 6 2 -1.</_>
                <_>
                  5 7 3 2 2.</_></rects>
              <tilted>0</tilted></feature>
            <threshold>-2.2447909577749670e-004</threshold>
            <left_val>1.8520550429821014e-001</left_val>
            <right_val>-7.7942901849746704e-001</right_val></_></_>
        <_>
          <!-- tree 17 -->
          <_>
            <!-- root node -->
            <feature>
              <rects>
                <_>
                  3 0 7 16 -1.</_>
                <_>
                  3 8 7 8 2.</_></rects>
              <tilted>0</tilted></feature>
            <threshold>1.8156330042984337e-004</threshold>
            <left_val>-6.6956442594528198e-001</left_val>
            <right_val>1.5837380290031433e-001</right_val></_></_>
        <_>
          <!-- tree 18 -->
          <_>
            <!-- root node -->
            <feature>
              <rects>
                <_>
                  0 0 3 2 -1.</_>
                <_>
                  0 1 3 1 2.</_></rects>
              <tilted>0</tilted></feature>
            <threshold>5.0366270443191752e-005</threshold>
            <left_val>-4.6770051121711731e-001</left_val>
            <right_val>2.4539180099964142e-001</right_val></_></_>
        <_>
          <!-- tree 19 -->
          <_>
            <!-- root node -->
            <feature>
              <rects>
                <_>
                  3 8 6 8 -1.</_>
                <_>
                  3 12 6 4 2.</_></rects>
              <tilted>0</tilted></feature>
            <threshold>6.0776848840760067e-005</threshold>
            <left_val>-6.8354898691177368e-001</left_val>
            <right_val>1.8664689362049103e-001</right_val></_></_></trees>
      <stage_threshold>-2.1234118938446045e+000</stage_threshold>
      <parent>1</parent>
      <next>-1</next></_>
    <_>
      <!-- stage 3 -->
      <trees>
        <_>
          <!-- tree 0 -->
          <_>
            <!-- root node -->
            <feature>
              <rects>
                <_>
                  1 7 8 12 -1.</_>
                <_>
                  1 7 4 6 2.</_>
                <_>
                  5 13 4 6 2.</_></rects>
              <tilted>0</tilted></feature>
            <threshold>1.5990820527076721e-001</threshold>
            <left_val>-6.2714368104934692e-001</left_val>
            <right_val>7.2424608469009399e-001</right_val></_></_>
        <_>
          <!-- tree 1 -->
          <_>
            <!-- root node -->
            <feature>
              <rects>
                <_>
                  6 5 2 2 -1.</_>
                <_>
                  6 5 2 1 2.</_></rects>
              <tilted>1</tilted></feature>
            <threshold>7.6372842304408550e-003</threshold>
            <left_val>8.7740488350391388e-002</left_val>
            <right_val>-5.2430278062820435e-001</right_val></_></_>
        <_>
          <!-- tree 2 -->
          <_>
            <!-- root node -->
            <feature>
              <rects>
                <_>
                  5 3 1 6 -1.</_>
                <_>
                  5 5 1 2 3.</_></rects>
              <tilted>0</tilted></feature>
            <threshold>6.0625150799751282e-003</threshold>
            <left_val>-4.3119868636131287e-001</left_val>
            <right_val>4.6857520937919617e-001</right_val></_></_>
        <_>
          <!-- tree 3 -->
          <_>
            <!-- root node -->
            <feature>
              <rects>
                <_>
                  10 11 2 7 -1.</_>
                <_>
                  10 11 1 7 2.</_></rects>
              <tilted>1</tilted></feature>
            <threshold>2.5897640734910965e-002</threshold>
            <left_val>1.5866510570049286e-002</left_val>
            <right_val>-6.5979748964309692e-001</right_val></_></_>
        <_>
          <!-- tree 4 -->
          <_>
            <!-- root node -->
            <feature>
              <rects>
                <_>
                  2 11 7 2 -1.</_>
                <_>
                  2 11 7 1 2.</_></rects>
              <tilted>1</tilted></feature>
            <threshold>5.8885440230369568e-002</threshold>
            <left_val>-2.1157009899616241e-001</left_val>
            <right_val>6.7942970991134644e-001</right_val></_></_>
        <_>
          <!-- tree 5 -->
          <_>
            <!-- root node -->
            <feature>
              <rects>
                <_>
                  2 16 10 4 -1.</_>
                <_>
                  2 16 5 4 2.</_></rects>
              <tilted>0</tilted></feature>
            <threshold>1.1850179731845856e-001</threshold>
            <left_val>-1.0366249829530716e-001</left_val>
            <right_val>7.4645912647247314e-001</right_val></_></_>
        <_>
          <!-- tree 6 -->
          <_>
            <!-- root node -->
            <feature>
              <rects>
                <_>
                  0 17 1 3 -1.</_>
                <_>
                  0 18 1 1 3.</_></rects>
              <tilted>0</tilted></feature>
            <threshold>-1.6655250219628215e-003</threshold>
            <left_val>-6.7015552520751953e-001</left_val>
            <right_val>2.2192029654979706e-001</right_val></_></_>
        <_>
          <!-- tree 7 -->
          <_>
            <!-- root node -->
            <feature>
              <rects>
                <_>
                  11 18 1 2 -1.</_>
                <_>
                  11 19 1 1 2.</_></rects>
              <tilted>0</tilted></feature>
            <threshold>-4.4783479097532108e-005</threshold>
            <left_val>2.5404050946235657e-001</left_val>
            <right_val>-4.9562969803810120e-001</right_val></_></_>
        <_>
          <!-- tree 8 -->
          <_>
            <!-- root node -->
            <feature>
              <rects>
                <_>
                  0 18 1 2 -1.</_>
                <_>
                  0 19 1 1 2.</_></rects>
              <tilted>0</tilted></feature>
            <threshold>-8.3481962792575359e-004</threshold>
            <left_val>-7.3370438814163208e-001</left_val>
            <right_val>2.0266470313072205e-001</right_val></_></_>
        <_>
          <!-- tree 9 -->
          <_>
            <!-- root node -->
            <feature>
              <rects>
                <_>
                  9 7 3 3 -1.</_>
                <_>
                  9 8 3 1 3.</_></rects>
              <tilted>0</tilted></feature>
            <threshold>-9.3157468363642693e-003</threshold>
            <left_val>-7.3412007093429565e-001</left_val>
            <right_val>7.2000503540039063e-002</right_val></_></_>
        <_>
          <!-- tree 10 -->
          <_>
            <!-- root node -->
            <feature>
              <rects>
                <_>
                  6 4 4 3 -1.</_>
                <_>
                  7 5 2 3 2.</_></rects>
              <tilted>1</tilted></feature>
            <threshold>-2.9555149376392365e-002</threshold>
            <left_val>5.1195901632308960e-001</left_val>
            <right_val>-2.5446298718452454e-001</right_val></_></_>
        <_>
          <!-- tree 11 -->
          <_>
            <!-- root node -->
            <feature>
              <rects>
                <_>
                  8 4 4 3 -1.</_>
                <_>
                  8 5 4 1 3.</_></rects>
              <tilted>0</tilted></feature>
            <threshold>-7.9029072076082230e-003</threshold>
            <left_val>-5.3299552202224731e-001</left_val>
            <right_val>8.8295362889766693e-002</right_val></_></_></trees>
      <stage_threshold>-1.4351799488067627e+000</stage_threshold>
      <parent>2</parent>
      <next>-1</next></_>
    <_>
      <!-- stage 4 -->
      <trees>
        <_>
          <!-- tree 0 -->
          <_>
            <!-- root node -->
            <feature>
              <rects>
                <_>
                  4 11 5 4 -1.</_>
                <_>
                  4 11 5 2 2.</_></rects>
              <tilted>1</tilted></feature>
            <threshold>9.8843306303024292e-002</threshold>
            <left_val>-5.0631648302078247e-001</left_val>
            <right_val>6.3027667999267578e-001</right_val></_></_>
        <_>
          <!-- tree 1 -->
          <_>
            <!-- root node -->
            <feature>
              <rects>
                <_>
                  7 4 2 4 -1.</_>
                <_>
                  7 4 2 2 2.</_></rects>
              <tilted>1</tilted></feature>
            <threshold>-4.2210938408970833e-003</threshold>
            <left_val>1.7837150394916534e-001</left_val>
            <right_val>-3.3268490433692932e-001</right_val></_></_>
        <_>
          <!-- tree 2 -->
          <_>
            <!-- root node -->
            <feature>
              <rects>
                <_>
                  5 4 4 2 -1.</_>
                <_>
                  5 4 2 2 2.</_></rects>
              <tilted>1</tilted></feature>
            <threshold>2.9967099428176880e-002</threshold>
            <left_val>-4.5201331377029419e-001</left_val>
            <right_val>4.6473979949951172e-001</right_val></_></_>
        <_>
          <!-- tree 3 -->
          <_>
            <!-- root node -->
            <feature>
              <rects>
                <_>
                  8 9 2 8 -1.</_>
                <_>
                  8 9 2 4 2.</_></rects>
              <tilted>1</tilted></feature>
            <threshold>-1.6702869534492493e-001</threshold>
            <left_val>8.0514347553253174e-001</left_val>
            <right_val>-4.0616780519485474e-002</right_val></_></_>
        <_>
          <!-- tree 4 -->
          <_>
            <!-- root node -->
            <feature>
              <rects>
                <_>
                  4 9 8 2 -1.</_>
                <_>
                  4 9 4 2 2.</_></rects>
              <tilted>1</tilted></feature>
            <threshold>1.9976759329438210e-002</threshold>
            <left_val>2.0976160466670990e-001</left_val>
            <right_val>-7.3149591684341431e-001</right_val></_></_>
        <_>
          <!-- tree 5 -->
          <_>
            <!-- root node -->
            <feature>
              <rects>
                <_>
                  0 0 12 8 -1.</_>
                <_>
                  0 4 12 4 2.</_></rects>
              <tilted>0</tilted></feature>
            <threshold>8.1860616803169250e-002</threshold>
            <left_val>-5.4268407821655273e-001</left_val>
            <right_val>2.1634259819984436e-001</right_val></_></_>
        <_>
          <!-- tree 6 -->
          <_>
            <!-- root node -->
            <feature>
              <rects>
                <_>
                  0 0 8 1 -1.</_>
                <_>
                  2 0 4 1 2.</_></rects>
              <tilted>0</tilted></feature>
            <threshold>1.2709829956293106e-002</threshold>
            <left_val>-2.4989350140094757e-001</left_val>
            <right_val>4.7262668609619141e-001</right_val></_></_>
        <_>
          <!-- tree 7 -->
          <_>
            <!-- root node -->
            <feature>
              <rects>
                <_>
                  0 7 12 4 -1.</_>
                <_>
                  3 7 6 4 2.</_></rects>
              <tilted>0</tilted></feature>
            <threshold>-3.4979879856109619e-002</threshold>
            <left_val>3.0420958995819092e-001</left_val>
            <right_val>-3.5224550962448120e-001</right_val></_></_>
        <_>
          <!-- tree 8 -->
          <_>
            <!-- root node -->
            <feature>
              <rects>
                <_>
                  0 16 1 2 -1.</_>
                <_>
                  0 17 1 1 2.</_></rects>
              <tilted>0</tilted></feature>
            <threshold>-1.3223739806562662e-003</threshold>
            <left_val>-6.9712251424789429e-001</left_val>
            <right_val>1.6912660002708435e-001</right_val></_></_>
        <_>
          <!-- tree 9 -->
          <_>
            <!-- root node -->
            <feature>
              <rects>
                <_>
                  3 16 6 4 -1.</_>
                <_>
                  3 18 6 2 2.</_></rects>
              <tilted>0</tilted></feature>
            <threshold>-2.3282319307327271e-002</threshold>
            <left_val>3.3972018957138062e-001</left_val>
            <right_val>-3.6639729142189026e-001</right_val></_></_>
        <_>
          <!-- tree 10 -->
          <_>
            <!-- root node -->
            <feature>
              <rects>
                <_>
                  0 16 10 4 -1.</_>
                <_>
                  5 16 5 4 2.</_></rects>
              <tilted>0</tilted></feature>
            <threshold>-1.5517599880695343e-001</threshold>
            <left_val>7.3445862531661987e-001</left_val>
            <right_val>-1.8277870118618011e-001</right_val></_></_>
        <_>
          <!-- tree 11 -->
          <_>
            <!-- root node -->
            <feature>
              <rects>
                <_>
                  8 6 4 12 -1.</_>
                <_>
                  8 6 2 12 2.</_></rects>
              <tilted>0</tilted></feature>
            <threshold>-3.9222039282321930e-002</threshold>
            <left_val>3.5923731327056885e-001</left_val>
            <right_val>-1.1233209818601608e-001</right_val></_></_></trees>
      <stage_threshold>-1.3800990581512451e+000</stage_threshold>
      <parent>3</parent>
      <next>-1</next></_>
    <_>
      <!-- stage 5 -->
      <trees>
        <_>
          <!-- tree 0 -->
          <_>
            <!-- root node -->
            <feature>
              <rects>
                <_>
                  0 5 4 11 -1.</_>
                <_>
                  2 5 2 11 2.</_></rects>
              <tilted>0</tilted></feature>
            <threshold>6.2616936862468719e-002</threshold>
            <left_val>-4.8533481359481812e-001</left_val>
            <right_val>6.1538851261138916e-001</right_val></_></_>
        <_>
          <!-- tree 1 -->
          <_>
            <!-- root node -->
            <feature>
              <rects>
                <_>
                  0 18 12 2 -1.</_>
                <_>
                  6 18 6 1 2.</_>
                <_>
                  0 19 6 1 2.</_></rects>
              <tilted>0</tilted></feature>
            <threshold>1.1619539931416512e-002</threshold>
            <left_val>-5.7667458057403564e-001</left_val>
            <right_val>3.8557919859886169e-001</right_val></_></_>
        <_>
          <!-- tree 2 -->
          <_>
            <!-- root node -->
            <feature>
              <rects>
                <_>
                  1 7 8 1 -1.</_>
                <_>
                  5 7 4 1 2.</_></rects>
              <tilted>0</tilted></feature>
            <threshold>-5.7566948235034943e-003</threshold>
            <left_val>2.6634719967842102e-001</left_val>
            <right_val>-8.2090580463409424e-001</right_val></_></_>
        <_>
          <!-- tree 3 -->
          <_>
            <!-- root node -->
            <feature>
              <rects>
                <_>
                  0 0 12 10 -1.</_>
                <_>
                  0 5 12 5 2.</_></rects>
              <tilted>0</tilted></feature>
            <threshold>9.2315487563610077e-003</threshold>
            <left_val>-8.0720931291580200e-001</left_val>
            <right_val>2.0323330163955688e-001</right_val></_></_>
        <_>
          <!-- tree 4 -->
          <_>
            <!-- root node -->
            <feature>
              <rects>
                <_>
                  3 3 6 12 -1.</_>
                <_>
                  3 7 6 4 3.</_></rects>
              <tilted>0</tilted></feature>
            <threshold>-3.3656319137662649e-003</threshold>
            <left_val>2.0334909856319427e-001</left_val>
            <right_val>-7.4802142381668091e-001</right_val></_></_>
        <_>
          <!-- tree 5 -->
          <_>
            <!-- root node -->
            <feature>
              <rects>
                <_>
                  1 0 10 1 -1.</_>
                <_>
                  1 0 5 1 2.</_></rects>
              <tilted>0</tilted></feature>
            <threshold>1.2655390310101211e-004</threshold>
            <left_val>-5.8880287408828735e-001</left_val>
            <right_val>1.7631030082702637e-001</right_val></_></_>
        <_>
          <!-- tree 6 -->
          <_>
            <!-- root node -->
            <feature>
              <rects>
                <_>
                  6 7 6 6 -1.</_>
                <_>
                  4 9 6 2 3.</_></rects>
              <tilted>1</tilted></feature>
            <threshold>1.0345769673585892e-001</threshold>
            <left_val>-4.2211589217185974e-001</left_val>
            <right_val>3.3677190542221069e-001</right_val></_></_>
        <_>
          <!-- tree 7 -->
          <_>
            <!-- root node -->
            <feature>
              <rects>
                <_>
                  7 2 1 8 -1.</_>
                <_>
                  7 4 1 4 2.</_></rects>
              <tilted>0</tilted></feature>
            <threshold>-1.7050839960575104e-004</threshold>
            <left_val>1.8885380029678345e-001</left_val>
            <right_val>-2.6626259088516235e-001</right_val></_></_>
        <_>
          <!-- tree 8 -->
          <_>
            <!-- root node -->
            <feature>
              <rects>
                <_>
                  2 2 8 4 -1.</_>
                <_>
                  2 4 8 2 2.</_></rects>
              <tilted>0</tilted></feature>
            <threshold>1.1793050362030044e-004</threshold>
            <left_val>-7.1056002378463745e-001</left_val>
            <right_val>2.2684849798679352e-001</right_val></_></_>
        <_>
          <!-- tree 9 -->
          <_>
            <!-- root node -->
            <feature>
              <rects>
                <_>
                  0 7 12 7 -1.</_>
                <_>
                  3 7 6 7 2.</_></rects>
              <tilted>0</tilted></feature>
            <threshold>-9.7460933029651642e-002</threshold>
            <left_val>4.2451021075248718e-001</left_val>
            <right_val>-3.9501309394836426e-001</right_val></_></_>
        <_>
          <!-- tree 10 -->
          <_>
            <!-- root node -->
            <feature>
              <rects>
                <_>
                  3 16 6 4 -1.</_>
                <_>
                  3 18 6 2 2.</_></rects>
              <tilted>0</tilted></feature>
            <threshold>-1.7512679100036621e-002</threshold>
            <left_val>3.6552980542182922e-001</left_val>
            <right_val>-3.5724669694900513e-001</right_val></_></_>
        <_>
          <!-- tree 11 -->
          <_>
            <!-- root node -->
            <feature>
              <rects>
                <_>
                  10 2 1 18 -1.</_>
                <_>
                  10 11 1 9 2.</_></rects>
              <tilted>0</tilted></feature>
            <threshold>1.7156290414277464e-004</threshold>
            <left_val>-3.1259360909461975e-001</left_val>
            <right_val>1.1446060240268707e-001</right_val></_></_>
        <_>
          <!-- tree 12 -->
          <_>
            <!-- root node -->
            <feature>
              <rects>
                <_>
                  1 4 1 16 -1.</_>
                <_>
                  1 12 1 8 2.</_></rects>
              <tilted>0</tilted></feature>
            <threshold>8.5574887692928314e-002</threshold>
            <left_val>-2.0559160411357880e-001</left_val>
            <right_val>8.9941620826721191e-001</right_val></_></_>
        <_>
          <!-- tree 13 -->
          <_>
            <!-- root node -->
            <feature>
              <rects>
                <_>
                  4 0 4 18 -1.</_>
                <_>
                  4 9 4 9 2.</_></rects>
              <tilted>0</tilted></feature>
            <threshold>1.1759579647332430e-003</threshold>
            <left_val>-7.5939810276031494e-001</left_val>
            <right_val>2.1389579772949219e-001</right_val></_></_>
        <_>
          <!-- tree 14 -->
          <_>
            <!-- root node -->
            <feature>
              <rects>
                <_>
                  0 0 4 1 -1.</_>
                <_>
                  2 0 2 1 2.</_></rects>
              <tilted>0</tilted></feature>
            <threshold>8.8068292825482786e-005</threshold>
            <left_val>-6.0090541839599609e-001</left_val>
            <right_val>2.5762718915939331e-001</right_val></_></_>
        <_>
          <!-- tree 15 -->
          <_>
            <!-- root node -->
            <feature>
              <rects>
                <_>
                  7 2 1 8 -1.</_>
                <_>
                  7 4 1 4 2.</_></rects>
              <tilted>0</tilted></feature>
            <threshold>2.3003520618658513e-004</threshold>
            <left_val>-4.1466540098190308e-001</left_val>
            <right_val>2.3084460198879242e-001</right_val></_></_>
        <_>
          <!-- tree 16 -->
          <_>
            <!-- root node -->
            <feature>
              <rects>
                <_>
                  6 3 6 2 -1.</_>
                <_>
                  8 5 2 2 3.</_></rects>
              <tilted>1</tilted></feature>
            <threshold>-3.4361891448497772e-004</threshold>
            <left_val>3.2730078697204590e-001</left_val>
            <right_val>-7.4609941244125366e-001</right_val></_></_>
        <_>
          <!-- tree 17 -->
          <_>
            <!-- root node -->
            <feature>
              <rects>
                <_>
                  7 11 2 6 -1.</_>
                <_>
                  7 11 2 3 2.</_></rects>
              <tilted>1</tilted></feature>
            <threshold>1.5595999546349049e-002</threshold>
            <left_val>-3.6050570011138916e-001</left_val>
            <right_val>1.9414800405502319e-001</right_val></_></_>
        <_>
          <!-- tree 18 -->
          <_>
            <!-- root node -->
            <feature>
              <rects>
                <_>
                  4 8 6 4 -1.</_>
                <_>
                  6 10 2 4 3.</_></rects>
              <tilted>1</tilted></feature>
            <threshold>-6.5029867982957512e-005</threshold>
            <left_val>3.4985640645027161e-001</left_val>
            <right_val>-5.5353438854217529e-001</right_val></_></_>
        <_>
          <!-- tree 19 -->
          <_>
            <!-- root node -->
            <feature>
              <rects>
                <_>
                  2 0 8 2 -1.</_>
                <_>
                  2 1 8 1 2.</_></rects>
              <tilted>0</tilted></feature>
            <threshold>8.0799087299965322e-005</threshold>
            <left_val>-4.1298541426658630e-001</left_val>
            <right_val>2.9194280505180359e-001</right_val></_></_>
        <_>
          <!-- tree 20 -->
          <_>
            <!-- root node -->
            <feature>
              <rects>
                <_>
                  0 3 3 7 -1.</_>
                <_>
                  1 3 1 7 3.</_></rects>
              <tilted>0</tilted></feature>
            <threshold>-1.7670560628175735e-002</threshold>
            <left_val>5.6811487674713135e-001</left_val>
            <right_val>-3.0118390917778015e-001</right_val></_></_>
        <_>
          <!-- tree 21 -->
          <_>
            <!-- root node -->
            <feature>
              <rects>
                <_>
                  8 1 4 8 -1.</_>
                <_>
                  8 5 4 4 2.</_></rects>
              <tilted>0</tilted></feature>
            <threshold>5.2467430941760540e-003</threshold>
            <left_val>-3.9970070123672485e-001</left_val>
            <right_val>2.5405979156494141e-001</right_val></_></_>
        <_>
          <!-- tree 22 -->
          <_>
            <!-- root node -->
            <feature>
              <rects>
                <_>
                  0 16 12 4 -1.</_>
                <_>
                  0 17 12 2 2.</_></rects>
              <tilted>0</tilted></feature>
            <threshold>2.7624730137176812e-004</threshold>
            <left_val>-4.6306419372558594e-001</left_val>
            <right_val>2.7200910449028015e-001</right_val></_></_>
        <_>
          <!-- tree 23 -->
          <_>
            <!-- root node -->
            <feature>
              <rects>
                <_>
                  8 1 3 8 -1.</_>
                <_>
                  8 5 3 4 2.</_></rects>
              <tilted>0</tilted></feature>
            <threshold>-7.6283427188172936e-004</threshold>
            <left_val>4.7710940241813660e-001</left_val>
            <right_val>-2.8456479310989380e-001</right_val></_></_>
        <_>
          <!-- tree 24 -->
          <_>
            <!-- root node -->
            <feature>
              <rects>
                <_>
                  3 1 1 8 -1.</_>
                <_>
                  3 5 1 4 2.</_></rects>
              <tilted>0</tilted></feature>
            <threshold>5.4720909247407690e-005</threshold>
            <left_val>-5.9415602684020996e-001</left_val>
            <right_val>2.8456559777259827e-001</right_val></_></_>
        <_>
          <!-- tree 25 -->
          <_>
            <!-- root node -->
            <feature>
              <rects>
                <_>
                  8 0 1 8 -1.</_>
                <_>
                  6 2 1 4 2.</_></rects>
              <tilted>1</tilted></feature>
            <threshold>-5.8523961342871189e-005</threshold>
            <left_val>1.8699720501899719e-001</left_val>
            <right_val>-2.9498028755187988e-001</right_val></_></_>
        <_>
          <!-- tree 26 -->
          <_>
            <!-- root node -->
            <feature>
              <rects>
                <_>
                  4 1 2 7 -1.</_>
                <_>
                  5 1 1 7 2.</_></rects>
              <tilted>0</tilted></feature>
            <threshold>-2.3030990269035101e-004</threshold>
            <left_val>3.1419369578361511e-001</left_val>
            <right_val>-5.2966248989105225e-001</right_val></_></_>
        <_>
          <!-- tree 27 -->
          <_>
            <!-- root node -->
            <feature>
              <rects>
                <_>
                  9 6 3 5 -1.</_>
                <_>
                  10 6 1 5 3.</_></rects>
              <tilted>0</tilted></feature>
            <threshold>1.2743050465360284e-003</threshold>
            <left_val>-3.4386789798736572e-001</left_val>
            <right_val>2.7126389741897583e-001</right_val></_></_>
        <_>
          <!-- tree 28 -->
          <_>
            <!-- root node -->
            <feature>
              <rects>
                <_>
                  0 13 12 6 -1.</_>
                <_>
                  0 15 12 2 3.</_></rects>
              <tilted>0</tilted></feature>
            <threshold>1.1066290317103267e-003</threshold>
            <left_val>-4.5228588581085205e-001</left_val>
            <right_val>2.4860590696334839e-001</right_val></_></_>
        <_>
          <!-- tree 29 -->
          <_>
            <!-- root node -->
            <feature>
              <rects>
                <_>
                  0 0 12 10 -1.</_>
                <_>
                  6 0 6 5 2.</_>
                <_>
                  0 5 6 5 2.</_></rects>
              <tilted>0</tilted></feature>
            <threshold>-1.4225989580154419e-003</threshold>
            <left_val>3.3848088979721069e-001</left_val>
            <right_val>-4.1214609146118164e-001</right_val></_></_>
        <_>
          <!-- tree 30 -->
          <_>
            <!-- root node -->
            <feature>
              <rects>
                <_>
                  0 4 3 7 -1.</_>
                <_>
                  1 4 1 7 3.</_></rects>
              <tilted>0</tilted></feature>
            <threshold>1.8614599481225014e-002</threshold>
            <left_val>-1.9110870361328125e-001</left_val>
            <right_val>6.4115452766418457e-001</right_val></_></_>
        <_>
          <!-- tree 31 -->
          <_>
            <!-- root node -->
            <feature>
              <rects>
                <_>
                  2 2 8 2 -1.</_>
                <_>
                  2 3 8 1 2.</_></rects>
              <tilted>0</tilted></feature>
            <threshold>4.5832890464225784e-005</threshold>
            <left_val>-5.8493572473526001e-001</left_val>
            <right_val>2.5314238667488098e-001</right_val></_></_>
        <_>
          <!-- tree 32 -->
          <_>
            <!-- root node -->
            <feature>
              <rects>
                <_>
                  5 1 1 6 -1.</_>
                <_>
                  5 3 1 2 3.</_></rects>
              <tilted>0</tilted></feature>
            <threshold>-9.9875287560280412e-005</threshold>
            <left_val>3.6051398515701294e-001</left_val>
            <right_val>-5.3231191635131836e-001</right_val></_></_>
        <_>
          <!-- tree 33 -->
          <_>
            <!-- root node -->
            <feature>
              <rects>
                <_>
                  7 5 4 7 -1.</_>
                <_>
                  7 5 2 7 2.</_></rects>
              <tilted>1</tilted></feature>
            <threshold>-1.1277929879724979e-002</threshold>
            <left_val>2.7766379714012146e-001</left_val>
            <right_val>-2.4176590144634247e-001</right_val></_></_>
        <_>
          <!-- tree 34 -->
          <_>
            <!-- root node -->
            <feature>
              <rects>
                <_>
                  0 17 12 3 -1.</_>
                <_>
                  6 17 6 3 2.</_></rects>
              <tilted>0</tilted></feature>
            <threshold>-1.5279600024223328e-001</threshold>
            <left_val>8.3433318138122559e-001</left_val>
            <right_val>-1.8692030012607574e-001</right_val></_></_>
        <_>
          <!-- tree 35 -->
          <_>
            <!-- root node -->
            <feature>
              <rects>
                <_>
                  2 10 8 10 -1.</_>
                <_>
                  6 10 4 5 2.</_>
                <_>
                  2 15 4 5 2.</_></rects>
              <tilted>0</tilted></feature>
            <threshold>-3.6294270306825638e-002</threshold>
            <left_val>3.9919948577880859e-001</left_val>
            <right_val>-4.1119259595870972e-001</right_val></_></_>
        <_>
          <!-- tree 36 -->
          <_>
            <!-- root node -->
            <feature>
              <rects>
                <_>
                  3 0 2 20 -1.</_>
                <_>
                  3 5 2 10 2.</_></rects>
              <tilted>0</tilted></feature>
            <threshold>-4.5436818152666092e-002</threshold>
            <left_val>6.8093067407608032e-001</left_val>
            <right_val>-1.4669400453567505e-001</right_val></_></_></trees>
      <stage_threshold>-2.0749111175537109e+000</stage_threshold>
      <parent>4</parent>
      <next>-1</next></_>
    <_>
      <!-- stage 6 -->
      <trees>
        <_>
          <!-- tree 0 -->
          <_>
            <!-- root node -->
            <feature>
              <rects>
                <_>
                  1 6 8 12 -1.</_>
                <_>
                  1 6 4 6 2.</_>
                <_>
                  5 12 4 6 2.</_></rects>
              <tilted>0</tilted></feature>
            <threshold>1.6328740119934082e-001</threshold>
            <left_val>-6.0435330867767334e-001</left_val>
            <right_val>5.5052411556243896e-001</right_val></_></_>
        <_>
          <!-- tree 1 -->
          <_>
            <!-- root node -->
            <feature>
              <rects>
                <_>
                  0 3 12 2 -1.</_>
                <_>
                  0 4 12 1 2.</_></rects>
              <tilted>0</tilted></feature>
            <threshold>9.7092619398608804e-005</threshold>
            <left_val>-9.0228801965713501e-001</left_val>
            <right_val>2.6281669735908508e-001</right_val></_></_>
        <_>
          <!-- tree 2 -->
          <_>
            <!-- root node -->
            <feature>
              <rects>
                <_>
                  1 5 7 6 -1.</_>
                <_>
                  1 7 7 2 3.</_></rects>
              <tilted>0</tilted></feature>
            <threshold>-2.7205731021240354e-004</threshold>
            <left_val>2.8341010212898254e-001</left_val>
            <right_val>-8.1372922658920288e-001</right_val></_></_>
        <_>
          <!-- tree 3 -->
          <_>
            <!-- root node -->
            <feature>
              <rects>
                <_>
                  0 0 12 14 -1.</_>
                <_>
                  0 7 12 7 2.</_></rects>
              <tilted>0</tilted></feature>
            <threshold>1.8128680530935526e-003</threshold>
            <left_val>-8.3362382650375366e-001</left_val>
            <right_val>2.1307690441608429e-001</right_val></_></_>
        <_>
          <!-- tree 4 -->
          <_>
            <!-- root node -->
            <feature>
              <rects>
                <_>
                  0 18 12 2 -1.</_>
                <_>
                  0 18 6 1 2.</_>
                <_>
                  6 19 6 1 2.</_></rects>
              <tilted>0</tilted></feature>
            <threshold>-8.7052993476390839e-003</threshold>
            <left_val>2.8303650021553040e-001</left_val>
            <right_val>-7.2392731904983521e-001</right_val></_></_>
        <_>
          <!-- tree 5 -->
          <_>
            <!-- root node -->
            <feature>
              <rects>
                <_>
                  10 10 2 4 -1.</_>
                <_>
                  10 10 2 2 2.</_></rects>
              <tilted>1</tilted></feature>
            <threshold>-5.6872398999985307e-005</threshold>
            <left_val>1.3844889402389526e-001</left_val>
            <right_val>-5.0287842750549316e-001</right_val></_></_>
        <_>
          <!-- tree 6 -->
          <_>
            <!-- root node -->
            <feature>
              <rects>
                <_>
                  3 4 2 1 -1.</_>
                <_>
                  3 4 1 1 2.</_></rects>
              <tilted>1</tilted></feature>
            <threshold>3.7435539066791534e-002</threshold>
            <left_val>-1.0564589872956276e-002</left_val>
            <right_val>-1.5556719970703125e+003</right_val></_></_>
        <_>
          <!-- tree 7 -->
          <_>
            <!-- root node -->
            <feature>
              <rects>
                <_>
                  9 7 2 3 -1.</_>
                <_>
                  9 8 2 1 3.</_></rects>
              <tilted>0</tilted></feature>
            <threshold>1.5324270352721214e-002</threshold>
            <left_val>1.3988590240478516e-001</left_val>
            <right_val>-6.1316817998886108e-001</right_val></_></_>
        <_>
          <!-- tree 8 -->
          <_>
            <!-- root node -->
            <feature>
              <rects>
                <_>
                  0 0 10 2 -1.</_>
                <_>
                  0 1 10 1 2.</_></rects>
              <tilted>0</tilted></feature>
            <threshold>2.1410979330539703e-002</threshold>
            <left_val>-2.2393199801445007e-001</left_val>
            <right_val>5.6233572959899902e-001</right_val></_></_>
        <_>
          <!-- tree 9 -->
          <_>
            <!-- root node -->
            <feature>
              <rects>
                <_>
                  7 8 5 4 -1.</_>
                <_>
                  7 9 5 2 2.</_></rects>
              <tilted>0</tilted></feature>
            <threshold>1.9795040134340525e-004</threshold>
            <left_val>-2.3459529876708984e-001</left_val>
            <right_val>1.3877849280834198e-001</right_val></_></_>
        <_>
          <!-- tree 10 -->
          <_>
            <!-- root node -->
            <feature>
              <rects>
                <_>
                  1 7 2 3 -1.</_>
                <_>
                  1 8 2 1 3.</_></rects>
              <tilted>0</tilted></feature>
            <threshold>-5.1461639814078808e-003</threshold>
            <left_val>-8.9666271209716797e-001</left_val>
            <right_val>1.4354419708251953e-001</right_val></_></_>
        <_>
          <!-- tree 11 -->
          <_>
            <!-- root node -->
            <feature>
              <rects>
                <_>
                  6 16 2 2 -1.</_>
                <_>
                  6 16 2 1 2.</_></rects>
              <tilted>1</tilted></feature>
            <threshold>-3.3491749316453934e-002</threshold>
            <left_val>8.1797057390213013e-001</left_val>
            <right_val>-8.1737898290157318e-002</right_val></_></_>
        <_>
          <!-- tree 12 -->
          <_>
            <!-- root node -->
            <feature>
              <rects>
                <_>
                  6 16 2 2 -1.</_>
                <_>
                  6 16 1 2 2.</_></rects>
              <tilted>1</tilted></feature>
            <threshold>-7.3674921877682209e-003</threshold>
            <left_val>-6.5259951353073120e-001</left_val>
            <right_val>1.7211680114269257e-001</right_val></_></_></trees>
      <stage_threshold>-1.8404649496078491e+000</stage_threshold>
      <parent>5</parent>
      <next>-1</next></_>
    <_>
      <!-- stage 7 -->
      <trees>
        <_>
          <!-- tree 0 -->
          <_>
            <!-- root node -->
            <feature>
              <rects>
                <_>
                  0 0 4 16 -1.</_>
                <_>
                  2 0 2 16 2.</_></rects>
              <tilted>0</tilted></feature>
            <threshold>7.3508180677890778e-002</threshold>
            <left_val>-4.6614921092987061e-001</left_val>
            <right_val>5.0694358348846436e-001</right_val></_></_>
        <_>
          <!-- tree 1 -->
          <_>
            <!-- root node -->
            <feature>
              <rects>
                <_>
                  5 0 2 3 -1.</_>
                <_>
                  5 1 2 1 3.</_></rects>
              <tilted>0</tilted></feature>
            <threshold>8.5386466234922409e-003</threshold>
            <left_val>-2.4482139945030212e-001</left_val>
            <right_val>6.0921180248260498e-001</right_val></_></_>
        <_>
          <!-- tree 2 -->
          <_>
            <!-- root node -->
            <feature>
              <rects>
                <_>
                  1 6 8 12 -1.</_>
                <_>
                  1 6 4 6 2.</_>
                <_>
                  5 12 4 6 2.</_></rects>
              <tilted>0</tilted></feature>
            <threshold>2.2265550494194031e-001</threshold>
            <left_val>-2.3087610304355621e-001</left_val>
            <right_val>4.4181710481643677e-001</right_val></_></_>
        <_>
          <!-- tree 3 -->
          <_>
            <!-- root node -->
            <feature>
              <rects>
                <_>
                  6 11 6 9 -1.</_>
                <_>
                  6 11 3 9 2.</_></rects>
              <tilted>0</tilted></feature>
            <threshold>7.4994042515754700e-002</threshold>
            <left_val>1.1506160348653793e-001</left_val>
            <right_val>-5.5417829751968384e-001</right_val></_></_>
        <_>
          <!-- tree 4 -->
          <_>
            <!-- root node -->
            <feature>
              <rects>
                <_>
                  0 11 6 9 -1.</_>
                <_>
                  3 11 3 9 2.</_></rects>
              <tilted>0</tilted></feature>
            <threshold>-1.6755120456218719e-001</threshold>
            <left_val>7.4653017520904541e-001</left_val>
            <right_val>-1.3431079685688019e-001</right_val></_></_>
        <_>
          <!-- tree 5 -->
          <_>
            <!-- root node -->
            <feature>
              <rects>
                <_>
                  9 11 3 5 -1.</_>
                <_>
                  10 12 1 5 3.</_></rects>
              <tilted>1</tilted></feature>
            <threshold>-2.4138720706105232e-002</threshold>
            <left_val>-4.9592089653015137e-001</left_val>
            <right_val>6.2578730285167694e-002</right_val></_></_>
        <_>
          <!-- tree 6 -->
          <_>
            <!-- root node -->
            <feature>
              <rects>
                <_>
                  1 0 3 1 -1.</_>
                <_>
                  2 1 1 1 3.</_></rects>
              <tilted>1</tilted></feature>
            <threshold>1.1620320379734039e-002</threshold>
            <left_val>-1.7977459728717804e-001</left_val>
            <right_val>5.6873577833175659e-001</right_val></_></_>
        <_>
          <!-- tree 7 -->
          <_>
            <!-- root node -->
            <feature>
              <rects>
                <_>
                  9 11 3 5 -1.</_>
                <_>
                  10 12 1 5 3.</_></rects>
              <tilted>1</tilted></feature>
            <threshold>4.8821419477462769e-002</threshold>
            <left_val>4.2774148285388947e-002</left_val>
            <right_val>-6.0440838336944580e-001</right_val></_></_>
        <_>
          <!-- tree 8 -->
          <_>
            <!-- root node -->
            <feature>
              <rects>
                <_>
                  3 11 5 3 -1.</_>
                <_>
                  2 12 5 1 3.</_></rects>
              <tilted>1</tilted></feature>
            <threshold>3.5715501755475998e-002</threshold>
            <left_val>-2.0169410109519958e-001</left_val>
            <right_val>5.1855558156967163e-001</right_val></_></_>
        <_>
          <!-- tree 9 -->
          <_>
            <!-- root node -->
            <feature>
              <rects>
                <_>
                  6 6 1 3 -1.</_>
                <_>
                  5 7 1 1 3.</_></rects>
              <tilted>1</tilted></feature>
            <threshold>-1.7011469230055809e-002</threshold>
            <left_val>-6.6163742542266846e-001</left_val>
            <right_val>4.5137479901313782e-002</right_val></_></_>
        <_>
          <!-- tree 10 -->
          <_>
            <!-- root node -->
            <feature>
              <rects>
                <_>
                  6 6 3 1 -1.</_>
                <_>
                  7 7 1 1 3.</_></rects>
              <tilted>1</tilted></feature>
            <threshold>-1.6027579084038734e-002</threshold>
            <left_val>5.4205197095870972e-001</left_val>
            <right_val>-1.8311430513858795e-001</right_val></_></_>
        <_>
          <!-- tree 11 -->
          <_>
            <!-- root node -->
            <feature>
              <rects>
                <_>
                  7 9 3 2 -1.</_>
                <_>
                  7 10 3 1 2.</_></rects>
              <tilted>0</tilted></feature>
            <threshold>9.6712950617074966e-003</threshold>
            <left_val>3.4085698425769806e-002</left_val>
            <right_val>-3.6544409394264221e-001</right_val></_></_>
        <_>
          <!-- tree 12 -->
          <_>
            <!-- root node -->
            <feature>
              <rects>
                <_>
                  1 18 1 2 -1.</_>
                <_>
                  1 19 1 1 2.</_></rects>
              <tilted>0</tilted></feature>
            <threshold>-1.0325650218874216e-003</threshold>
            <left_val>-7.0559221506118774e-001</left_val>
            <right_val>1.2839829921722412e-001</right_val></_></_>
        <_>
          <!-- tree 13 -->
          <_>
            <!-- root node -->
            <feature>
              <rects>
                <_>
                  10 18 1 2 -1.</_>
                <_>
                  10 19 1 1 2.</_></rects>
              <tilted>0</tilted></feature>
            <threshold>-5.7438347721472383e-004</threshold>
            <left_val>2.0413300395011902e-001</left_val>
            <right_val>-4.6021059155464172e-001</right_val></_></_>
        <_>
          <!-- tree 14 -->
          <_>
            <!-- root node -->
            <feature>
              <rects>
                <_>
                  1 18 1 2 -1.</_>
                <_>
                  1 19 1 1 2.</_></rects>
              <tilted>0</tilted></feature>
            <threshold>1.2579349568113685e-003</threshold>
            <left_val>1.9696569442749023e-001</left_val>
            <right_val>-4.9659618735313416e-001</right_val></_></_>
        <_>
          <!-- tree 15 -->
          <_>
            <!-- root node -->
            <feature>
              <rects>
                <_>
                  7 9 3 2 -1.</_>
                <_>
                  7 10 3 1 2.</_></rects>
              <tilted>0</tilted></feature>
            <threshold>-2.3272659629583359e-002</threshold>
            <left_val>-6.4083862304687500e-001</left_val>
            <right_val>-1.3145440258085728e-002</right_val></_></_>
        <_>
          <!-- tree 16 -->
          <_>
            <!-- root node -->
            <feature>
              <rects>
                <_>
                  2 9 3 2 -1.</_>
                <_>
                  2 10 3 1 2.</_></rects>
              <tilted>0</tilted></feature>
            <threshold>-4.8163738101720810e-003</threshold>
            <left_val>-7.4635922908782959e-001</left_val>
            <right_val>1.1569319665431976e-001</right_val></_></_>
        <_>
          <!-- tree 17 -->
          <_>
            <!-- root node -->
            <feature>
              <rects>
                <_>
                  8 8 4 3 -1.</_>
                <_>
                  8 9 4 1 3.</_></rects>
              <tilted>0</tilted></feature>
            <threshold>2.6880908990278840e-004</threshold>
            <left_val>-1.7020240426063538e-001</left_val>
            <right_val>1.0989090055227280e-001</right_val></_></_>
        <_>
          <!-- tree 18 -->
          <_>
            <!-- root node -->
            <feature>
              <rects>
                <_>
                  0 8 4 3 -1.</_>
                <_>
                  0 9 4 1 3.</_></rects>
              <tilted>0</tilted></feature>
            <threshold>-9.1302618384361267e-003</threshold>
            <left_val>-8.6084252595901489e-001</left_val>
            <right_val>1.0507579892873764e-001</right_val></_></_>
        <_>
          <!-- tree 19 -->
          <_>
            <!-- root node -->
            <feature>
              <rects>
                <_>
                  0 0 12 8 -1.</_>
                <_>
                  0 4 12 4 2.</_></rects>
              <tilted>0</tilted></feature>
            <threshold>1.5290869772434235e-001</threshold>
            <left_val>-3.0442950129508972e-001</left_val>
            <right_val>2.9691061377525330e-001</right_val></_></_></trees>
      <stage_threshold>-1.3563539981842041e+000</stage_threshold>
      <parent>6</parent>
      <next>-1</next></_>
    <_>
      <!-- stage 8 -->
      <trees>
        <_>
          <!-- tree 0 -->
          <_>
            <!-- root node -->
            <feature>
              <rects>
                <_>
                  0 4 8 11 -1.</_>
                <_>
                  2 4 4 11 2.</_></rects>
              <tilted>0</tilted></feature>
            <threshold>1.0870260000228882e-001</threshold>
            <left_val>-3.9208391308784485e-001</left_val>
            <right_val>4.2441639304161072e-001</right_val></_></_>
        <_>
          <!-- tree 1 -->
          <_>
            <!-- root node -->
            <feature>
              <rects>
                <_>
                  9 0 1 3 -1.</_>
                <_>
                  9 1 1 1 3.</_></rects>
              <tilted>0</tilted></feature>
            <threshold>-8.5436011431738734e-005</threshold>
            <left_val>1.1648490279912949e-001</left_val>
            <right_val>-1.2261509895324707e-001</right_val></_></_>
        <_>
          <!-- tree 2 -->
          <_>
            <!-- root node -->
            <feature>
              <rects>
                <_>
                  1 0 2 3 -1.</_>
                <_>
                  1 1 2 1 3.</_></rects>
              <tilted>0</tilted></feature>
            <threshold>8.7897274643182755e-003</threshold>
            <left_val>-2.2223709523677826e-001</left_val>
            <right_val>5.8239942789077759e-001</right_val></_></_>
        <_>
          <!-- tree 3 -->
          <_>
            <!-- root node -->
            <feature>
              <rects>
                <_>
                  0 18 12 2 -1.</_>
                <_>
                  6 18 6 1 2.</_>
                <_>
                  0 19 6 1 2.</_></rects>
              <tilted>0</tilted></feature>
            <threshold>1.9092390313744545e-002</threshold>
            <left_val>-2.8222650289535522e-001</left_val>
            <right_val>3.4780630469322205e-001</right_val></_></_>
        <_>
          <!-- tree 4 -->
          <_>
            <!-- root node -->
            <feature>
              <rects>
                <_>
                  6 3 6 6 -1.</_>
                <_>
                  8 5 2 6 3.</_></rects>
              <tilted>1</tilted></feature>
            <threshold>-1.4692190103232861e-002</threshold>
            <left_val>2.4436180293560028e-001</left_val>
            <right_val>-4.4442260265350342e-001</right_val></_></_>
        <_>
          <!-- tree 5 -->
          <_>
            <!-- root node -->
            <feature>
              <rects>
                <_>
                  10 12 2 6 -1.</_>
                <_>
                  10 12 1 6 2.</_></rects>
              <tilted>1</tilted></feature>
            <threshold>1.7424240708351135e-002</threshold>
            <left_val>3.9642699062824249e-002</left_val>
            <right_val>-5.0866502523422241e-001</right_val></_></_>
        <_>
          <!-- tree 6 -->
          <_>
            <!-- root node -->
            <feature>
              <rects>
                <_>
                  2 12 6 2 -1.</_>
                <_>
                  2 12 6 1 2.</_></rects>
              <tilted>1</tilted></feature>
            <threshold>6.9210886955261230e-002</threshold>
            <left_val>-1.5061080455780029e-001</left_val>
            <right_val>5.4918211698532104e-001</right_val></_></_>
        <_>
          <!-- tree 7 -->
          <_>
            <!-- root node -->
            <feature>
              <rects>
                <_>
                  4 14 8 5 -1.</_>
                <_>
                  4 14 4 5 2.</_></rects>
              <tilted>0</tilted></feature>
            <threshold>1.1516460031270981e-001</threshold>
            <left_val>4.7058542259037495e-003</left_val>
            <right_val>-6.0872167348861694e-001</right_val></_></_>
        <_>
          <!-- tree 8 -->
          <_>
            <!-- root node -->
            <feature>
              <rects>
                <_>
                  0 15 8 3 -1.</_>
                <_>
                  4 15 4 3 2.</_></rects>
              <tilted>0</tilted></feature>
            <threshold>-9.0783968567848206e-002</threshold>
            <left_val>7.6661890745162964e-001</left_val>
            <right_val>-1.1532770097255707e-001</right_val></_></_>
        <_>
          <!-- tree 9 -->
          <_>
            <!-- root node -->
            <feature>
              <rects>
                <_>
                  6 7 6 6 -1.</_>
                <_>
                  8 9 2 6 3.</_></rects>
              <tilted>1</tilted></feature>
            <threshold>9.3459866940975189e-002</threshold>
            <left_val>7.7324211597442627e-002</left_val>
            <right_val>-7.2869849205017090e-001</right_val></_></_>
        <_>
          <!-- tree 10 -->
          <_>
            <!-- root node -->
            <feature>
              <rects>
                <_>
                  6 7 6 6 -1.</_>
                <_>
                  4 9 6 2 3.</_></rects>
              <tilted>1</tilted></feature>
            <threshold>1.4063410460948944e-001</threshold>
            <left_val>-3.0280780792236328e-001</left_val>
            <right_val>2.9996991157531738e-001</right_val></_></_>
        <_>
          <!-- tree 11 -->
          <_>
            <!-- root node -->
            <feature>
              <rects>
                <_>
                  5 4 2 4 -1.</_>
                <_>
                  5 5 2 2 2.</_></rects>
              <tilted>0</tilted></feature>
            <threshold>7.5702848844230175e-003</threshold>
            <left_val>-2.5590381026268005e-001</left_val>
            <right_val>3.4416630864143372e-001</right_val></_></_>
        <_>
          <!-- tree 12 -->
          <_>
            <!-- root node -->
            <feature>
              <rects>
                <_>
                  0 8 3 3 -1.</_>
                <_>
                  0 9 3 1 3.</_></rects>
              <tilted>0</tilted></feature>
            <threshold>8.1542655825614929e-003</threshold>
            <left_val>1.2018810212612152e-001</left_val>
            <right_val>-8.5254168510437012e-001</right_val></_></_>
        <_>
          <!-- tree 13 -->
          <_>
            <!-- root node -->
            <feature>
              <rects>
                <_>
                  8 15 2 3 -1.</_>
                <_>
                  7 16 2 1 3.</_></rects>
              <tilted>1</tilted></feature>
            <threshold>8.7357666343450546e-003</threshold>
            <left_val>-1.2177339941263199e-001</left_val>
            <right_val>8.2226127386093140e-002</right_val></_></_>
        <_>
          <!-- tree 14 -->
          <_>
            <!-- root node -->
            <feature>
              <rects>
                <_>
                  4 15 3 2 -1.</_>
                <_>
                  5 16 1 2 3.</_></rects>
              <tilted>1</tilted></feature>
            <threshold>-6.9444780237972736e-003</threshold>
            <left_val>-6.1111962795257568e-001</left_val>
            <right_val>1.3486449420452118e-001</right_val></_></_>
        <_>
          <!-- tree 15 -->
          <_>
            <!-- root node -->
            <feature>
              <rects>
                <_>
                  9 14 3 3 -1.</_>
                <_>
                  8 15 3 1 3.</_></rects>
              <tilted>1</tilted></feature>
            <threshold>-4.3000229634344578e-003</threshold>
            <left_val>-3.4730020165443420e-001</left_val>
            <right_val>4.4554490596055984e-002</right_val></_></_>
        <_>
          <!-- tree 16 -->
          <_>
            <!-- root node -->
            <feature>
              <rects>
                <_>
                  3 12 5 3 -1.</_>
                <_>
                  2 13 5 1 3.</_></rects>
              <tilted>1</tilted></feature>
            <threshold>4.0720161050558090e-002</threshold>
            <left_val>-1.2618629634380341e-001</left_val>
            <right_val>6.0286152362823486e-001</right_val></_></_>
        <_>
          <!-- tree 17 -->
          <_>
            <!-- root node -->
            <feature>
              <rects>
                <_>
                  0 0 12 2 -1.</_>
                <_>
                  3 0 6 2 2.</_></rects>
              <tilted>0</tilted></feature>
            <threshold>-1.0009969584643841e-002</threshold>
            <left_val>-4.5014089345932007e-001</left_val>
            <right_val>1.8092009425163269e-001</right_val></_></_>
        <_>
          <!-- tree 18 -->
          <_>
            <!-- root node -->
            <feature>
              <rects>
                <_>
                  0 9 3 4 -1.</_>
                <_>
                  0 10 3 2 2.</_></rects>
              <tilted>0</tilted></feature>
            <threshold>1.1742020025849342e-002</threshold>
            <left_val>8.1721372902393341e-002</left_val>
            <right_val>-8.0739098787307739e-001</right_val></_></_>
        <_>
          <!-- tree 19 -->
          <_>
            <!-- root node -->
            <feature>
              <rects>
                <_>
                  8 10 4 6 -1.</_>
                <_>
                  8 12 4 2 3.</_></rects>
              <tilted>0</tilted></feature>
            <threshold>-9.7789859864860773e-004</threshold>
            <left_val>6.6041916608810425e-002</left_val>
            <right_val>-1.4142000675201416e-001</right_val></_></_>
        <_>
          <!-- tree 20 -->
          <_>
            <!-- root node -->
            <feature>
              <rects>
                <_>
                  0 10 4 6 -1.</_>
                <_>
                  0 12 4 2 3.</_></rects>
              <tilted>0</tilted></feature>
            <threshold>3.4487970173358917e-002</threshold>
            <left_val>1.0488150268793106e-001</left_val>
            <right_val>-7.1635431051254272e-001</right_val></_></_>
        <_>
          <!-- tree 21 -->
          <_>
            <!-- root node -->
            <feature>
              <rects>
                <_>
                  6 5 2 3 -1.</_>
                <_>
                  5 6 2 1 3.</_></rects>
              <tilted>1</tilted></feature>
            <threshold>-2.4215620011091232e-002</threshold>
            <left_val>-5.9454482793807983e-001</left_val>
            <right_val>1.2400969862937927e-002</right_val></_></_>
        <_>
          <!-- tree 22 -->
          <_>
            <!-- root node -->
            <feature>
              <rects>
                <_>
                  6 5 3 2 -1.</_>
                <_>
                  7 6 1 2 3.</_></rects>
              <tilted>1</tilted></feature>
            <threshold>-3.7082370370626450e-002</threshold>
            <left_val>6.5830427408218384e-001</left_val>
            <right_val>-1.2158200144767761e-001</right_val></_></_>
        <_>
          <!-- tree 23 -->
          <_>
            <!-- root node -->
            <feature>
              <rects>
                <_>
                  2 0 8 1 -1.</_>
                <_>
                  2 0 4 1 2.</_></rects>
              <tilted>0</tilted></feature>
            <threshold>-4.3632909655570984e-003</threshold>
            <left_val>-6.5290719270706177e-001</left_val>
            <right_val>1.2228529900312424e-001</right_val></_></_>
        <_>
          <!-- tree 24 -->
          <_>
            <!-- root node -->
            <feature>
              <rects>
                <_>
                  0 5 3 2 -1.</_>
                <_>
                  0 6 3 1 2.</_></rects>
              <tilted>0</tilted></feature>
            <threshold>-4.1692638769745827e-003</threshold>
            <left_val>-7.3107779026031494e-001</left_val>
            <right_val>7.7946297824382782e-002</right_val></_></_>
        <_>
          <!-- tree 25 -->
          <_>
            <!-- root node -->
            <feature>
              <rects>
                <_>
                  8 14 2 3 -1.</_>
                <_>
                  7 15 2 1 3.</_></rects>
              <tilted>1</tilted></feature>
            <threshold>6.0636870563030243e-002</threshold>
            <left_val>-1.3061979785561562e-002</left_val>
            <right_val>-8.0408149957656860e-001</right_val></_></_>
        <_>
          <!-- tree 26 -->
          <_>
            <!-- root node -->
            <feature>
              <rects>
                <_>
                  4 14 3 2 -1.</_>
                <_>
                  5 15 1 2 3.</_></rects>
              <tilted>1</tilted></feature>
            <threshold>1.5371589921414852e-002</threshold>
            <left_val>7.9872779548168182e-002</left_val>
            <right_val>-8.5363340377807617e-001</right_val></_></_></trees>
      <stage_threshold>-1.4800649881362915e+000</stage_threshold>
      <parent>7</parent>
      <next>-1</next></_>
    <_>
      <!-- stage 9 -->
      <trees>
        <_>
          <!-- tree 0 -->
          <_>
            <!-- root node -->
            <feature>
              <rects>
                <_>
                  3 2 3 8 -1.</_>
                <_>
                  3 4 3 4 2.</_></rects>
              <tilted>0</tilted></feature>
            <threshold>1.5033720061182976e-002</threshold>
            <left_val>-5.3333657979965210e-001</left_val>
            <right_val>3.4096190333366394e-001</right_val></_></_>
        <_>
          <!-- tree 1 -->
          <_>
            <!-- root node -->
            <feature>
              <rects>
                <_>
                  3 7 8 12 -1.</_>
                <_>
                  7 7 4 6 2.</_>
                <_>
                  3 13 4 6 2.</_></rects>
              <tilted>0</tilted></feature>
            <threshold>-8.9624240994453430e-002</threshold>
            <left_val>1.8991500139236450e-001</left_val>
            <right_val>-2.1448349952697754e-001</right_val></_></_>
        <_>
          <!-- tree 2 -->
          <_>
            <!-- root node -->
            <feature>
              <rects>
                <_>
                  4 6 4 3 -1.</_>
                <_>
                  4 7 4 1 3.</_></rects>
              <tilted>0</tilted></feature>
            <threshold>-5.1495251245796680e-003</threshold>
            <left_val>3.6764401197433472e-001</left_val>
            <right_val>-3.1621339917182922e-001</right_val></_></_>
        <_>
          <!-- tree 3 -->
          <_>
            <!-- root node -->
            <feature>
              <rects>
                <_>
                  3 11 6 8 -1.</_>
                <_>
                  3 13 6 4 2.</_></rects>
              <tilted>0</tilted></feature>
            <threshold>5.6887358427047729e-002</threshold>
            <left_val>-2.7120190858840942e-001</left_val>
            <right_val>3.4590399265289307e-001</right_val></_></_>
        <_>
          <!-- tree 4 -->
          <_>
            <!-- root node -->
            <feature>
              <rects>
                <_>
                  6 12 2 6 -1.</_>
                <_>
                  6 12 2 3 2.</_></rects>
              <tilted>1</tilted></feature>
            <threshold>-1.2673810124397278e-001</threshold>
            <left_val>8.4647309780120850e-001</left_val>
            <right_val>-6.7630723118782043e-002</right_val></_></_>
        <_>
          <!-- tree 5 -->
          <_>
            <!-- root node -->
            <feature>
              <rects>
                <_>
                  4 3 8 16 -1.</_>
                <_>
                  8 3 4 8 2.</_>
                <_>
                  4 11 4 8 2.</_></rects>
              <tilted>0</tilted></feature>
            <threshold>-1.0681120306253433e-001</threshold>
            <left_val>-2.8982621431350708e-001</left_val>
            <right_val>8.3181828260421753e-002</right_val></_></_>
        <_>
          <!-- tree 6 -->
          <_>
            <!-- root node -->
            <feature>
              <rects>
                <_>
                  0 2 8 16 -1.</_>
                <_>
                  0 2 4 8 2.</_>
                <_>
                  4 10 4 8 2.</_></rects>
              <tilted>0</tilted></feature>
            <threshold>1.7475779354572296e-001</threshold>
            <left_val>-3.5948398709297180e-001</left_val>
            <right_val>3.1073129177093506e-001</right_val></_></_>
        <_>
          <!-- tree 7 -->
          <_>
            <!-- root node -->
            <feature>
              <rects>
                <_>
                  9 0 3 2 -1.</_>
                <_>
                  9 1 3 1 2.</_></rects>
              <tilted>0</tilted></feature>
            <threshold>-2.4629090912640095e-003</threshold>
            <left_val>-6.7824071645736694e-001</left_val>
            <right_val>1.1908339709043503e-001</right_val></_></_>
        <_>
          <!-- tree 8 -->
          <_>
            <!-- root node -->
            <feature>
              <rects>
                <_>
                  0 0 3 2 -1.</_>
                <_>
                  0 1 3 1 2.</_></rects>
              <tilted>0</tilted></feature>
            <threshold>6.6053359769284725e-003</threshold>
            <left_val>-2.4560730159282684e-001</left_val>
            <right_val>3.7791371345520020e-001</right_val></_></_>
        <_>
          <!-- tree 9 -->
          <_>
            <!-- root node -->
            <feature>
              <rects>
                <_>
                  9 6 1 2 -1.</_>
                <_>
                  9 6 1 1 2.</_></rects>
              <tilted>1</tilted></feature>
            <threshold>1.0148379806196317e-004</threshold>
            <left_val>-1.0097169876098633e-001</left_val>
            <right_val>8.2711093127727509e-002</right_val></_></_>
        <_>
          <!-- tree 10 -->
          <_>
            <!-- root node -->
            <feature>
              <rects>
                <_>
                  0 1 12 2 -1.</_>
                <_>
                  4 1 4 2 3.</_></rects>
              <tilted>0</tilted></feature>
            <threshold>-1.8523789942264557e-002</threshold>
            <left_val>-4.4592261314392090e-001</left_val>
            <right_val>1.6946080327033997e-001</right_val></_></_>
        <_>
          <!-- tree 11 -->
          <_>
            <!-- root node -->
            <feature>
              <rects>
                <_>
                  9 4 3 5 -1.</_>
                <_>
                  10 4 1 5 3.</_></rects>
              <tilted>0</tilted></feature>
            <threshold>3.6602010950446129e-003</threshold>
            <left_val>-1.0477670282125473e-001</left_val>
            <right_val>9.4992779195308685e-002</right_val></_></_>
        <_>
          <!-- tree 12 -->
          <_>
            <!-- root node -->
            <feature>
              <rects>
                <_>
                  0 3 4 6 -1.</_>
                <_>
                  1 3 2 6 2.</_></rects>
              <tilted>0</tilted></feature>
            <threshold>-1.0257829912006855e-002</threshold>
            <left_val>4.3351659178733826e-001</left_val>
            <right_val>-1.6978879272937775e-001</right_val></_></_>
        <_>
          <!-- tree 13 -->
          <_>
            <!-- root node -->
            <feature>
              <rects>
                <_>
                  11 17 1 2 -1.</_>
                <_>
                  11 18 1 1 2.</_></rects>
              <tilted>0</tilted></feature>
            <threshold>-9.8685777629725635e-005</threshold>
            <left_val>1.7843760550022125e-001</left_val>
            <right_val>-2.6428279280662537e-001</right_val></_></_>
        <_>
          <!-- tree 14 -->
          <_>
            <!-- root node -->
            <feature>
              <rects>
                <_>
                  0 17 1 2 -1.</_>
                <_>
                  0 18 1 1 2.</_></rects>
              <tilted>0</tilted></feature>
            <threshold>-1.2446290347725153e-003</threshold>
            <left_val>-7.2253531217575073e-001</left_val>
            <right_val>1.0615690052509308e-001</right_val></_></_>
        <_>
          <!-- tree 15 -->
          <_>
            <!-- root node -->
            <feature>
              <rects>
                <_>
                  11 17 1 3 -1.</_>
                <_>
                  11 18 1 1 3.</_></rects>
              <tilted>0</tilted></feature>
            <threshold>1.1974680091952905e-004</threshold>
            <left_val>-3.0318620800971985e-001</left_val>
            <right_val>1.4623160660266876e-001</right_val></_></_>
        <_>
          <!-- tree 16 -->
          <_>
            <!-- root node -->
            <feature>
              <rects>
                <_>
                  0 17 1 3 -1.</_>
                <_>
                  0 18 1 1 3.</_></rects>
              <tilted>0</tilted></feature>
            <threshold>1.2079760199412704e-003</threshold>
            <left_val>1.3531659543514252e-001</left_val>
            <right_val>-5.0457692146301270e-001</right_val></_></_>
        <_>
          <!-- tree 17 -->
          <_>
            <!-- root node -->
            <feature>
              <rects>
                <_>
                  0 4 12 12 -1.</_>
                <_>
                  0 8 12 4 3.</_></rects>
              <tilted>0</tilted></feature>
            <threshold>-1.9425910711288452e-001</threshold>
            <left_val>-7.1733701229095459e-001</left_val>
            <right_val>8.0573573708534241e-002</right_val></_></_>
        <_>
          <!-- tree 18 -->
          <_>
            <!-- root node -->
            <feature>
              <rects>
                <_>
                  1 5 3 6 -1.</_>
                <_>
                  2 5 1 6 3.</_></rects>
              <tilted>0</tilted></feature>
            <threshold>1.8599320203065872e-002</threshold>
            <left_val>-1.6972489655017853e-001</left_val>
            <right_val>4.2669999599456787e-001</right_val></_></_>
        <_>
          <!-- tree 19 -->
          <_>
            <!-- root node -->
            <feature>
              <rects>
                <_>
                  6 4 4 3 -1.</_>
                <_>
                  5 5 4 1 3.</_></rects>
              <tilted>1</tilted></feature>
            <threshold>3.0704800039529800e-002</threshold>
            <left_val>3.2838109880685806e-002</left_val>
            <right_val>-7.2923952341079712e-001</right_val></_></_>
        <_>
          <!-- tree 20 -->
          <_>
            <!-- root node -->
            <feature>
              <rects>
                <_>
                  6 4 3 4 -1.</_>
                <_>
                  7 5 1 4 3.</_></rects>
              <tilted>1</tilted></feature>
            <threshold>2.1680949255824089e-002</threshold>
            <left_val>-1.6750890016555786e-001</left_val>
            <right_val>4.4789049029350281e-001</right_val></_></_>
        <_>
          <!-- tree 21 -->
          <_>
            <!-- root node -->
            <feature>
              <rects>
                <_>
                  10 4 2 3 -1.</_>
                <_>
                  10 5 2 1 3.</_></rects>
              <tilted>0</tilted></feature>
            <threshold>5.5604660883545876e-003</threshold>
            <left_val>9.6391409635543823e-002</left_val>
            <right_val>-6.6830247640609741e-001</right_val></_></_>
        <_>
          <!-- tree 22 -->
          <_>
            <!-- root node -->
            <feature>
              <rects>
                <_>
                  0 4 2 3 -1.</_>
                <_>
                  0 5 2 1 3.</_></rects>
              <tilted>0</tilted></feature>
            <threshold>-5.6784078478813171e-003</threshold>
            <left_val>-8.2064878940582275e-001</left_val>
            <right_val>6.2949016690254211e-002</right_val></_></_>
        <_>
          <!-- tree 23 -->
          <_>
            <!-- root node -->
            <feature>
              <rects>
                <_>
                  9 10 3 3 -1.</_>
                <_>
                  8 11 3 1 3.</_></rects>
              <tilted>1</tilted></feature>
            <threshold>-3.0219739302992821e-002</threshold>
            <left_val>3.3288109302520752e-001</left_val>
            <right_val>-8.1444039940834045e-002</right_val></_></_>
        <_>
          <!-- tree 24 -->
          <_>
            <!-- root node -->
            <feature>
              <rects>
                <_>
                  6 10 6 3 -1.</_>
                <_>
                  6 10 3 3 2.</_></rects>
              <tilted>1</tilted></feature>
            <threshold>2.4341929703950882e-002</threshold>
            <left_val>9.3220241367816925e-002</left_val>
            <right_val>-6.9502758979797363e-001</right_val></_></_></trees>
      <stage_threshold>-1.3590339422225952e+000</stage_threshold>
      <parent>8</parent>
      <next>-1</next></_>
    <_>
      <!-- stage 10 -->
      <trees>
        <_>
          <!-- tree 0 -->
          <_>
            <!-- root node -->
            <feature>
              <rects>
                <_>
                  3 2 4 2 -1.</_>
                <_>
                  3 2 2 1 2.</_>
                <_>
                  5 3 2 1 2.</_></rects>
              <tilted>0</tilted></feature>
            <threshold>-3.9169401861727238e-003</threshold>
            <left_val>4.5325928926467896e-001</left_val>
            <right_val>-3.0284589529037476e-001</right_val></_></_>
        <_>
          <!-- tree 1 -->
          <_>
            <!-- root node -->
            <feature>
              <rects>
                <_>
                  6 8 6 6 -1.</_>
                <_>
                  8 10 2 6 3.</_></rects>
              <tilted>1</tilted></feature>
            <threshold>1.0800900310277939e-001</threshold>
            <left_val>3.6738589406013489e-002</left_val>
            <right_val>-7.2782218456268311e-001</right_val></_></_>
        <_>
          <!-- tree 2 -->
          <_>
            <!-- root node -->
            <feature>
              <rects>
                <_>
                  6 8 6 6 -1.</_>
                <_>
                  4 10 6 2 3.</_></rects>
              <tilted>1</tilted></feature>
            <threshold>1.5356090664863586e-001</threshold>
            <left_val>-3.8900190591812134e-001</left_val>
            <right_val>3.1287321448326111e-001</right_val></_></_>
        <_>
          <!-- tree 3 -->
          <_>
            <!-- root node -->
            <feature>
              <rects>
                <_>
                  6 4 1 6 -1.</_>
                <_>
                  4 6 1 2 3.</_></rects>
              <tilted>1</tilted></feature>
            <threshold>8.7726805359125137e-003</threshold>
            <left_val>-1.5705280005931854e-001</left_val>
            <right_val>8.2666940987110138e-002</right_val></_></_>
        <_>
          <!-- tree 4 -->
          <_>
            <!-- root node -->
            <feature>
              <rects>
                <_>
                  6 4 6 1 -1.</_>
                <_>
                  8 6 2 1 3.</_></rects>
              <tilted>1</tilted></feature>
            <threshold>-1.0571720078587532e-002</threshold>
            <left_val>2.4971100687980652e-001</left_val>
            <right_val>-4.7014111280441284e-001</right_val></_></_>
        <_>
          <!-- tree 5 -->
          <_>
            <!-- root node -->
            <feature>
              <rects>
                <_>
                  6 5 3 3 -1.</_>
                <_>
                  5 6 3 1 3.</_></rects>
              <tilted>1</tilted></feature>
            <threshold>2.7240550145506859e-002</threshold>
            <left_val>6.0097638517618179e-002</left_val>
            <right_val>-6.6213667392730713e-001</right_val></_></_>
        <_>
          <!-- tree 6 -->
          <_>
            <!-- root node -->
            <feature>
              <rects>
                <_>
                  6 5 3 3 -1.</_>
                <_>
                  7 6 1 3 3.</_></rects>
              <tilted>1</tilted></feature>
            <threshold>-3.6633450537919998e-002</threshold>
            <left_val>5.1044297218322754e-001</left_val>
            <right_val>-1.7766149342060089e-001</right_val></_></_>
        <_>
          <!-- tree 7 -->
          <_>
            <!-- root node -->
            <feature>
              <rects>
                <_>
                  2 16 10 4 -1.</_>
                <_>
                  2 16 5 4 2.</_></rects>
              <tilted>0</tilted></feature>
            <threshold>1.3806289434432983e-001</threshold>
            <left_val>-4.0644191205501556e-002</left_val>
            <right_val>7.8849452733993530e-001</right_val></_></_>
        <_>
          <!-- tree 8 -->
          <_>
            <!-- root node -->
            <feature>
              <rects>
                <_>
                  0 0 12 10 -1.</_>
                <_>
                  0 5 12 5 2.</_></rects>
              <tilted>0</tilted></feature>
            <threshold>9.4720393419265747e-002</threshold>
            <left_val>-4.3654170632362366e-001</left_val>
            <right_val>1.9054649770259857e-001</right_val></_></_>
        <_>
          <!-- tree 9 -->
          <_>
            <!-- root node -->
            <feature>
              <rects>
                <_>
                  10 0 2 2 -1.</_>
                <_>
                  10 0 1 2 2.</_></rects>
              <tilted>0</tilted></feature>
            <threshold>-3.3387150615453720e-003</threshold>
            <left_val>-6.8457669019699097e-001</left_val>
            <right_val>9.6802540123462677e-002</right_val></_></_>
        <_>
          <!-- tree 10 -->
          <_>
            <!-- root node -->
            <feature>
              <rects>
                <_>
                  0 0 2 2 -1.</_>
                <_>
                  1 0 1 2 2.</_></rects>
              <tilted>0</tilted></feature>
            <threshold>1.1899480159627274e-004</threshold>
            <left_val>-3.5843661427497864e-001</left_val>
            <right_val>2.2279889881610870e-001</right_val></_></_>
        <_>
          <!-- tree 11 -->
          <_>
            <!-- root node -->
            <feature>
              <rects>
                <_>
                  7 15 2 2 -1.</_>
                <_>
                  7 15 2 1 2.</_></rects>
              <tilted>1</tilted></feature>
            <threshold>2.9007149860262871e-003</threshold>
            <left_val>-1.5845039486885071e-001</left_val>
            <right_val>6.6679857671260834e-002</right_val></_></_>
        <_>
          <!-- tree 12 -->
          <_>
            <!-- root node -->
            <feature>
              <rects>
                <_>
                  0 8 2 6 -1.</_>
                <_>
                  0 8 1 3 2.</_>
                <_>
                  1 11 1 3 2.</_></rects>
              <tilted>0</tilted></feature>
            <threshold>1.2376639991998672e-002</threshold>
            <left_val>-1.4206279814243317e-001</left_val>
            <right_val>4.9320921301841736e-001</right_val></_></_>
        <_>
          <!-- tree 13 -->
          <_>
            <!-- root node -->
            <feature>
              <rects>
                <_>
                  10 11 2 4 -1.</_>
                <_>
                  9 12 2 2 2.</_></rects>
              <tilted>1</tilted></feature>
            <threshold>6.0215988196432590e-003</threshold>
            <left_val>-1.4971609413623810e-001</left_val>
            <right_val>2.1797719597816467e-001</right_val></_></_>
        <_>
          <!-- tree 14 -->
          <_>
            <!-- root node -->
            <feature>
              <rects>
                <_>
                  0 16 10 4 -1.</_>
                <_>
                  5 16 5 4 2.</_></rects>
              <tilted>0</tilted></feature>
