<?xml version="1.0"?>
<!----------------------------------------------------------------------------
  12x20 Right ear (in the image) detector computed with 5000 positive and 15000
  negative samples

//////////////////////////////////////////////////////////////////////////
| Contributors License Agreement
| IMPORTANT: READ BEFORE DOWNLOADING, COPYING, INSTALLING OR USING.
|   By downloading, copying, installing or using the software you agree 
|   to this license.
|   If you do not agree to this license, do not download, install,
|   copy or use the software.
|
| Copyright (c) 2011, Modesto Castrillon-Santana (IUSIANI, Universidad de
| Las Palmas de Gran Canaria, Spain).
|  All rights reserved.
|
| Redistribution and use in source and binary forms, with or without
| modification, are permitted provided that the following conditions are
| met:
|
|    * Redistributions of source code must retain the above copyright
|       notice, this list of conditions and the following disclaimer.
|    * Redistributions in binary form must reproduce the above
|      copyright notice, this list of conditions and the following
|      disclaimer in the documentation and/or other materials provided
|      with the distribution.  
|    * The name of Contributor may not used to endorse or promote products 
|      derived from this software without specific prior written permission.
|
| THIS SOFTWARE IS PROVIDED BY THE COPYRIGHT HOLDERS AND CONTRIBUTORS
| "AS IS" AND ANY EXPRESS OR IMPLIED WARRANTIES, INCLUDING, BUT NOT
| LIMITED TO, THE IMPLIED WARRANTIES OF MERCHANTABILITY AND FITNESS FOR
| A PARTICULAR PURPOSE ARE DISCLAIMED. IN NO EVENT SHALL THE
| CONTRIBUTORS BE LIABLE FOR ANY DIRECT, INDIRECT, INCIDENTAL, SPECIAL,
| EXEMPLARY, OR CONSEQUENTIAL DAMAGES (INCLUDING, BUT NOT LIMITED TO,
| PROCUREMENT OF SUBSTITUTE GOODS OR SERVICES; LOSS OF USE, DATA, OR
| PROFITS; OR BUSINESS INTERRUPTION) HOWEVER CAUSED AND ON ANY THEORY OF
| LIABILITY, WHETHER IN CONTRACT, STRICT LIABILITY, OR TORT (INCLUDING
| NEGLIGENCE OR OTHERWISE) ARISING IN ANY WAY OUT OF THE USE OF THIS
| SOFTWARE, EVEN IF ADVISED OF THE POSSIBILITY OF SUCH DAMAGE.  Back to
| Top
//////////////////////////////////////////////////////////////////////////

RESEARCH USE:
If you are using any of the detectors or involved ideas please cite this paper:

@INPROCEEDINGS{Castrillon11-caepia,
  author =       "Castrill\'on Santana, M. and Lorenzo Navarro, J. and Hern\'andez Sosa, D. ",
  title =        "An Study on Ear Detection and its Applications to Face Detection",
  booktitle =    "Conferencia de la Asociación Española para la Inteligencia Artificial (CAEPIA)",
  year =         "2011",
  month =        "November",
  address =      "La Laguna, Spain",
  file = F
}

More information can be found at http://mozart.dis.ulpgc.es/Gias/modesto.html or in the paper.

COMMERCIAL USE:
If you have any commercial interest in this work please contact 
mcastrillon@iusiani.ulpgc.es
------------------------------------------------------------------------>
<opencv_storage>
<classifier_RightEarA_trainNew2011_12_20 type_id="opencv-haar-classifier">
  <size>
    12 20</size>
  <stages>
    <_>
      <!-- stage 0 -->
      <trees>
        <_>
          <!-- tree 0 -->
          <_>
            <!-- root node -->
            <feature>
              <rects>
                <_>
                  2 7 8 12 -1.</_>
                <_>
                  2 7 4 6 2.</_>
                <_>
                  6 13 4 6 2.</_></rects>
              <tilted>0</tilted></feature>
            <threshold>-1.2393590062856674e-001</threshold>
            <left_val>8.2578802108764648e-001</left_val>
            <right_val>-6.7602032423019409e-001</right_val></_></_>
        <_>
          <!-- tree 1 -->
          <_>
            <!-- root node -->
            <feature>
              <rects>
                <_>
                  3 7 8 2 -1.</_>
                <_>
                  5 7 4 2 2.</_></rects>
              <tilted>0</tilted></feature>
            <threshold>9.4228880479931831e-003</threshold>
            <left_val>-1.2722210586071014e-001</left_val>
            <right_val>3.3211699128150940e-001</right_val></_></_>
        <_>
          <!-- tree 2 -->
          <_>
            <!-- root node -->
            <feature>
              <rects>
                <_>
                  6 4 3 4 -1.</_>
                <_>
                  5 5 3 2 2.</_></rects>
              <tilted>1</tilted></feature>
            <threshold>-1.1084940284490585e-002</threshold>
            <left_val>5.6749510765075684e-001</left_val>
            <right_val>-5.6716197729110718e-001</right_val></_></_>
        <_>
          <!-- tree 3 -->
          <_>
            <!-- root node -->
            <feature>
              <rects>
                <_>
                  4 0 8 18 -1.</_>
                <_>
                  4 9 8 9 2.</_></rects>
              <tilted>0</tilted></feature>
            <threshold>-2.0189690589904785e-001</threshold>
            <left_val>-7.6717972755432129e-001</left_val>
            <right_val>1.9637049734592438e-001</right_val></_></_>
        <_>
          <!-- tree 4 -->
          <_>
            <!-- root node -->
            <feature>
              <rects>
                <_>
                  0 18 3 2 -1.</_>
                <_>
                  0 19 3 1 2.</_></rects>
              <tilted>0</tilted></feature>
            <threshold>-4.7402849304489791e-005</threshold>
            <left_val>3.8455748558044434e-001</left_val>
            <right_val>-6.7010718584060669e-001</right_val></_></_>
        <_>
          <!-- tree 5 -->
          <_>
            <!-- root node -->
            <feature>
              <rects>
                <_>
                  11 0 1 10 -1.</_>
                <_>
                  11 5 1 5 2.</_></rects>
              <tilted>0</tilted></feature>
            <threshold>-8.6445426568388939e-003</threshold>
            <left_val>-6.9345837831497192e-001</left_val>
            <right_val>1.0593380033969879e-001</right_val></_></_>
        <_>
          <!-- tree 6 -->
          <_>
            <!-- root node -->
            <feature>
              <rects>
                <_>
                  0 0 10 1 -1.</_>
                <_>
                  5 0 5 1 2.</_></rects>
              <tilted>0</tilted></feature>
            <threshold>5.0770420784829184e-005</threshold>
            <left_val>-6.8352818489074707e-001</left_val>
            <right_val>3.5795739293098450e-001</right_val></_></_></trees>
      <stage_threshold>-1.3802499771118164e+000</stage_threshold>
      <parent>-1</parent>
      <next>-1</next></_>
    <_>
      <!-- stage 1 -->
      <trees>
        <_>
          <!-- tree 0 -->
          <_>
            <!-- root node -->
            <feature>
              <rects>
                <_>
                  2 5 8 14 -1.</_>
                <_>
                  2 5 4 7 2.</_>
                <_>
                  6 12 4 7 2.</_></rects>
              <tilted>0</tilted></feature>
            <threshold>-1.8316349387168884e-001</threshold>
            <left_val>7.8830862045288086e-001</left_val>
            <right_val>-5.8876812458038330e-001</right_val></_></_>
        <_>
          <!-- tree 1 -->
          <_>
            <!-- root node -->
            <feature>
              <rects>
                <_>
                  0 0 12 8 -1.</_>
                <_>
                  0 4 12 4 2.</_></rects>
              <tilted>0</tilted></feature>
            <threshold>2.5380790233612061e-002</threshold>
            <left_val>-7.4764448404312134e-001</left_val>
            <right_val>4.1486009955406189e-001</right_val></_></_>
        <_>
          <!-- tree 2 -->
          <_>
            <!-- root node -->
            <feature>
              <rects>
                <_>
                  2 7 6 10 -1.</_>
                <_>
                  2 12 6 5 2.</_></rects>
              <tilted>0</tilted></feature>
            <threshold>1.4207419939339161e-002</threshold>
            <left_val>-7.8411531448364258e-001</left_val>
            <right_val>2.7354270219802856e-001</right_val></_></_>
        <_>
          <!-- tree 3 -->
          <_>
            <!-- root node -->
            <feature>
              <rects>
                <_>
                  8 2 4 8 -1.</_>
                <_>
                  10 2 2 4 2.</_>
                <_>
                  8 6 2 4 2.</_></rects>
              <tilted>0</tilted></feature>
            <threshold>8.6809601634740829e-003</threshold>
            <left_val>-1.0974329710006714e-001</left_val>
            <right_val>9.4718709588050842e-002</right_val></_></_>
        <_>
          <!-- tree 4 -->
          <_>
            <!-- root node -->
            <feature>
              <rects>
                <_>
                  0 2 4 8 -1.</_>
                <_>
                  0 2 2 4 2.</_>
                <_>
                  2 6 2 4 2.</_></rects>
              <tilted>0</tilted></feature>
            <threshold>-4.1219559498131275e-003</threshold>
            <left_val>3.1739580631256104e-001</left_val>
            <right_val>-5.4334312677383423e-001</right_val></_></_>
        <_>
          <!-- tree 5 -->
          <_>
            <!-- root node -->
            <feature>
              <rects>
                <_>
                  0 18 12 2 -1.</_>
                <_>
                  6 18 6 1 2.</_>
                <_>
                  0 19 6 1 2.</_></rects>
              <tilted>0</tilted></feature>
            <threshold>-1.1700070463120937e-002</threshold>
            <left_val>3.9653539657592773e-001</left_val>
            <right_val>-3.7434050440788269e-001</right_val></_></_>
        <_>
          <!-- tree 6 -->
          <_>
            <!-- root node -->
            <feature>
              <rects>
                <_>
                  0 14 12 6 -1.</_>
                <_>
                  6 14 6 6 2.</_></rects>
              <tilted>0</tilted></feature>
            <threshold>2.8762829303741455e-001</threshold>
            <left_val>-1.7733460664749146e-001</left_val>
            <right_val>8.8516682386398315e-001</right_val></_></_>
        <_>
          <!-- tree 7 -->
          <_>
            <!-- root node -->
            <feature>
              <rects>
                <_>
                  6 12 2 6 -1.</_>
                <_>
                  6 12 2 3 2.</_></rects>
              <tilted>1</tilted></feature>
            <threshold>-4.8463501036167145e-002</threshold>
            <left_val>-6.0947227478027344e-001</left_val>
            <right_val>1.3633400201797485e-001</right_val></_></_>
        <_>
          <!-- tree 8 -->
          <_>
            <!-- root node -->
            <feature>
              <rects>
                <_>
                  6 12 6 2 -1.</_>
                <_>
                  6 12 3 2 2.</_></rects>
              <tilted>1</tilted></feature>
            <threshold>7.6523773372173309e-002</threshold>
            <left_val>-2.9950559139251709e-001</left_val>
            <right_val>6.1522072553634644e-001</right_val></_></_></trees>
      <stage_threshold>-1.4652169942855835e+000</stage_threshold>
      <parent>0</parent>
      <next>-1</next></_>
    <_>
      <!-- stage 2 -->
      <trees>
        <_>
          <!-- tree 0 -->
          <_>
            <!-- root node -->
            <feature>
              <rects>
                <_>
                  6 8 6 6 -1.</_>
                <_>
                  8 10 2 6 3.</_></rects>
              <tilted>1</tilted></feature>
            <threshold>1.1777380108833313e-001</threshold>
            <left_val>-5.8754861354827881e-001</left_val>
            <right_val>6.1994218826293945e-001</right_val></_></_>
        <_>
          <!-- tree 1 -->
          <_>
            <!-- root node -->
            <feature>
              <rects>
                <_>
                  3 6 9 3 -1.</_>
                <_>
                  6 7 3 1 9.</_></rects>
              <tilted>0</tilted></feature>
            <threshold>2.9533330351114273e-002</threshold>
            <left_val>-4.2420691251754761e-001</left_val>
            <right_val>3.6524820327758789e-001</right_val></_></_>
        <_>
          <!-- tree 2 -->
          <_>
            <!-- root node -->
            <feature>
              <rects>
                <_>
                  0 0 1 12 -1.</_>
                <_>
                  0 6 1 6 2.</_></rects>
              <tilted>0</tilted></feature>
            <threshold>6.1603458598256111e-003</threshold>
            <left_val>-7.9607379436492920e-001</left_val>
            <right_val>3.2861700654029846e-001</right_val></_></_>
        <_>
          <!-- tree 3 -->
          <_>
            <!-- root node -->
            <feature>
              <rects>
                <_>
                  6 2 4 5 -1.</_>
                <_>
                  6 2 2 5 2.</_></rects>
              <tilted>1</tilted></feature>
            <threshold>-5.9753831010311842e-005</threshold>
            <left_val>1.0398519784212112e-001</left_val>
            <right_val>-4.5819509029388428e-001</right_val></_></_>
        <_>
          <!-- tree 4 -->
          <_>
            <!-- root node -->
            <feature>
              <rects>
                <_>
                  4 5 4 4 -1.</_>
                <_>
                  4 7 4 2 2.</_></rects>
              <tilted>0</tilted></feature>
            <threshold>-3.6190438549965620e-004</threshold>
            <left_val>5.3506380319595337e-001</left_val>
            <right_val>-6.4719748497009277e-001</right_val></_></_>
        <_>
          <!-- tree 5 -->
          <_>
            <!-- root node -->
            <feature>
              <rects>
                <_>
                  8 0 4 4 -1.</_>
                <_>
                  8 2 4 2 2.</_></rects>
              <tilted>0</tilted></feature>
            <threshold>2.0906500518321991e-002</threshold>
            <left_val>-1.6793949902057648e-001</left_val>
            <right_val>2.4539050459861755e-001</right_val></_></_>
        <_>
          <!-- tree 6 -->
          <_>
            <!-- root node -->
            <feature>
              <rects>
                <_>
                  3 0 3 20 -1.</_>
                <_>
                  3 10 3 10 2.</_></rects>
              <tilted>0</tilted></feature>
            <threshold>8.2527771592140198e-003</threshold>
            <left_val>-8.5986042022705078e-001</left_val>
            <right_val>2.2863869369029999e-001</right_val></_></_>
        <_>
          <!-- tree 7 -->
          <_>
            <!-- root node -->
            <feature>
              <rects>
                <_>
                  9 16 3 4 -1.</_>
                <_>
                  9 17 3 2 2.</_></rects>
              <tilted>0</tilted></feature>
            <threshold>5.9341029264032841e-003</threshold>
            <left_val>-4.6319939196109772e-002</left_val>
            <right_val>-6.0758531093597412e-001</right_val></_></_>
        <_>
          <!-- tree 8 -->
          <_>
            <!-- root node -->
            <feature>
              <rects>
                <_>
                  0 0 4 4 -1.</_>
                <_>
                  0 2 4 2 2.</_></rects>
              <tilted>0</tilted></feature>
            <threshold>1.8554080452304333e-004</threshold>
            <left_val>-5.7996147871017456e-001</left_val>
            <right_val>3.7694430351257324e-001</right_val></_></_>
        <_>
          <!-- tree 9 -->
          <_>
            <!-- root node -->
            <feature>
              <rects>
                <_>
                  9 16 3 4 -1.</_>
                <_>
                  9 17 3 2 2.</_></rects>
              <tilted>0</tilted></feature>
            <threshold>-7.2531788609921932e-003</threshold>
            <left_val>-5.6681227684020996e-001</left_val>
            <right_val>-1.9910290837287903e-002</right_val></_></_>
        <_>
          <!-- tree 10 -->
          <_>
            <!-- root node -->
            <feature>
              <rects>
                <_>
                  0 16 3 4 -1.</_>
                <_>
                  0 17 3 2 2.</_></rects>
              <tilted>0</tilted></feature>
            <threshold>4.0826769691193476e-005</threshold>
            <left_val>-6.2813758850097656e-001</left_val>
            <right_val>4.0546119213104248e-001</right_val></_></_>
        <_>
          <!-- tree 11 -->
          <_>
            <!-- root node -->
            <feature>
              <rects>
                <_>
                  3 7 8 1 -1.</_>
                <_>
                  5 7 4 1 2.</_></rects>
              <tilted>0</tilted></feature>
            <threshold>-1.0268500074744225e-002</threshold>
            <left_val>4.5032399892807007e-001</left_val>
            <right_val>-2.7399060130119324e-001</right_val></_></_>
        <_>
          <!-- tree 12 -->
          <_>
            <!-- root node -->
            <feature>
              <rects>
                <_>
                  0 4 9 6 -1.</_>
                <_>
                  3 6 3 2 9.</_></rects>
              <tilted>0</tilted></feature>
            <threshold>-3.5408639814704657e-003</threshold>
            <left_val>3.4393149614334106e-001</left_val>
            <right_val>-6.7639619112014771e-001</right_val></_></_>
        <_>
          <!-- tree 13 -->
          <_>
            <!-- root node -->
            <feature>
              <rects>
                <_>
                  6 13 6 1 -1.</_>
                <_>
                  8 15 2 1 3.</_></rects>
              <tilted>1</tilted></feature>
            <threshold>-6.9421626627445221e-002</threshold>
            <left_val>6.5173202753067017e-001</left_val>
            <right_val>-7.4326410889625549e-002</right_val></_></_>
        <_>
          <!-- tree 14 -->
          <_>
            <!-- root node -->
            <feature>
              <rects>
                <_>
                  6 13 1 6 -1.</_>
                <_>
                  4 15 1 2 3.</_></rects>
              <tilted>1</tilted></feature>
            <threshold>7.1986039984039962e-005</threshold>
            <left_val>-4.5737218856811523e-001</left_val>
            <right_val>3.0109271407127380e-001</right_val></_></_>
        <_>
          <!-- tree 15 -->
          <_>
            <!-- root node -->
            <feature>
              <rects>
                <_>
                  2 3 9 2 -1.</_>
                <_>
                  2 4 9 1 2.</_></rects>
              <tilted>0</tilted></feature>
            <threshold>6.3741732446942478e-005</threshold>
            <left_val>-5.5820369720458984e-001</left_val>
            <right_val>1.9148319959640503e-001</right_val></_></_>
        <_>
          <!-- tree 16 -->
          <_>
            <!-- root node -->
            <feature>
              <rects>
                <_>
                  0 6 1 4 -1.</_>
                <_>
                  0 8 1 2 2.</_></rects>
              <tilted>0</tilted></feature>
            <threshold>4.4920871005160734e-005</threshold>
            <left_val>-5.7379388809204102e-001</left_val>
            <right_val>2.1276189386844635e-001</right_val></_></_>
        <_>
          <!-- tree 17 -->
          <_>
            <!-- root node -->
            <feature>
              <rects>
                <_>
                  4 8 7 10 -1.</_>
                <_>
                  4 13 7 5 2.</_></rects>
              <tilted>0</tilted></feature>
            <threshold>1.3159319758415222e-001</threshold>
            <left_val>-2.2754240036010742e-001</left_val>
            <right_val>2.8766331076622009e-001</right_val></_></_></trees>
      <stage_threshold>-2.0372869968414307e+000</stage_threshold>
      <parent>1</parent>
      <next>-1</next></_>
    <_>
      <!-- stage 3 -->
      <trees>
        <_>
          <!-- tree 0 -->
          <_>
            <!-- root node -->
            <feature>
              <rects>
                <_>
                  2 7 8 12 -1.</_>
                <_>
                  2 7 4 6 2.</_>
                <_>
                  6 13 4 6 2.</_></rects>
              <tilted>0</tilted></feature>
            <threshold>-1.5496319532394409e-001</threshold>
            <left_val>7.2985649108886719e-001</left_val>
            <right_val>-5.9489607810974121e-001</right_val></_></_>
        <_>
          <!-- tree 1 -->
          <_>
            <!-- root node -->
            <feature>
              <rects>
                <_>
                  6 5 3 3 -1.</_>
                <_>
                  7 6 1 3 3.</_></rects>
              <tilted>1</tilted></feature>
            <threshold>8.4833214059472084e-003</threshold>
            <left_val>1.3606220483779907e-001</left_val>
            <right_val>-4.3773031234741211e-001</right_val></_></_>
        <_>
          <!-- tree 2 -->
          <_>
            <!-- root node -->
            <feature>
              <rects>
                <_>
                  6 5 3 3 -1.</_>
                <_>
                  5 6 3 1 3.</_></rects>
              <tilted>1</tilted></feature>
            <threshold>-3.2831680029630661e-002</threshold>
            <left_val>6.7158091068267822e-001</left_val>
            <right_val>-2.8739199042320251e-001</right_val></_></_>
        <_>
          <!-- tree 3 -->
          <_>
            <!-- root node -->
            <feature>
              <rects>
                <_>
                  5 16 4 4 -1.</_>
                <_>
                  5 18 4 2 2.</_></rects>
              <tilted>0</tilted></feature>
            <threshold>-2.8853790834546089e-002</threshold>
            <left_val>4.5923650264739990e-001</left_val>
            <right_val>-4.9327030777931213e-002</right_val></_></_>
        <_>
          <!-- tree 4 -->
          <_>
            <!-- root node -->
            <feature>
              <rects>
                <_>
                  0 17 12 3 -1.</_>
                <_>
                  6 17 6 3 2.</_></rects>
              <tilted>0</tilted></feature>
            <threshold>1.7052419483661652e-001</threshold>
            <left_val>-1.6527549922466278e-001</left_val>
            <right_val>8.4507262706756592e-001</right_val></_></_>
        <_>
          <!-- tree 5 -->
          <_>
            <!-- root node -->
            <feature>
              <rects>
                <_>
                  0 15 12 3 -1.</_>
                <_>
                  0 15 6 3 2.</_></rects>
              <tilted>0</tilted></feature>
            <threshold>1.0879129916429520e-001</threshold>
            <left_val>-2.8913050889968872e-001</left_val>
            <right_val>5.3111201524734497e-001</right_val></_></_>
        <_>
          <!-- tree 6 -->
          <_>
            <!-- root node -->
            <feature>
              <rects>
                <_>
                  0 0 2 16 -1.</_>
                <_>
                  0 4 2 8 2.</_></rects>
              <tilted>0</tilted></feature>
            <threshold>3.0960019212216139e-003</threshold>
            <left_val>-5.5323868989944458e-001</left_val>
            <right_val>2.6134639978408813e-001</right_val></_></_>
        <_>
          <!-- tree 7 -->
          <_>
            <!-- root node -->
            <feature>
              <rects>
                <_>
                  2 0 8 13 -1.</_>
                <_>
                  2 0 4 13 2.</_></rects>
              <tilted>0</tilted></feature>
            <threshold>-3.3618099987506866e-002</threshold>
            <left_val>2.2911429405212402e-001</left_val>
            <right_val>-5.5924427509307861e-001</right_val></_></_>
        <_>
          <!-- tree 8 -->
          <_>
            <!-- root node -->
            <feature>
              <rects>
                <_>
                  0 0 6 2 -1.</_>
                <_>
                  0 1 6 1 2.</_></rects>
              <tilted>0</tilted></feature>
            <threshold>-1.1074040085077286e-003</threshold>
            <left_val>-6.3096380233764648e-001</left_val>
            <right_val>1.5855440497398376e-001</right_val></_></_>
        <_>
          <!-- tree 9 -->
          <_>
            <!-- root node -->
            <feature>
              <rects>
                <_>
                  7 18 5 2 -1.</_>
                <_>
                  7 19 5 1 2.</_></rects>
              <tilted>0</tilted></feature>
            <threshold>-4.4385627843439579e-003</threshold>
            <left_val>-6.3817399740219116e-001</left_val>
            <right_val>1.2779480218887329e-001</right_val></_></_>
        <_>
          <!-- tree 10 -->
          <_>
            <!-- root node -->
            <feature>
              <rects>
                <_>
                  0 18 5 2 -1.</_>
                <_>
                  0 19 5 1 2.</_></rects>
              <tilted>0</tilted></feature>
            <threshold>-9.4127003103494644e-003</threshold>
            <left_val>3.5108420252799988e-001</left_val>
            <right_val>-3.4738400578498840e-001</right_val></_></_>
        <_>
          <!-- tree 11 -->
          <_>
            <!-- root node -->
            <feature>
              <rects>
                <_>
                  6 15 2 3 -1.</_>
                <_>
                  6 15 1 3 2.</_></rects>
              <tilted>1</tilted></feature>
            <threshold>-3.2499480992555618e-002</threshold>
            <left_val>6.7672997713088989e-001</left_val>
            <right_val>-5.5984470993280411e-002</right_val></_></_>
        <_>
          <!-- tree 12 -->
          <_>
            <!-- root node -->
            <feature>
              <rects>
                <_>
                  6 15 3 2 -1.</_>
                <_>
                  6 15 3 1 2.</_></rects>
              <tilted>1</tilted></feature>
            <threshold>-1.3464169576764107e-002</threshold>
            <left_val>-7.5412607192993164e-001</left_val>
            <right_val>1.5986099839210510e-001</right_val></_></_></trees>
      <stage_threshold>-1.5061739683151245e+000</stage_threshold>
      <parent>2</parent>
      <next>-1</next></_>
    <_>
      <!-- stage 4 -->
      <trees>
        <_>
          <!-- tree 0 -->
          <_>
            <!-- root node -->
            <feature>
              <rects>
                <_>
                  2 7 8 12 -1.</_>
                <_>
                  2 7 4 6 2.</_>
                <_>
                  6 13 4 6 2.</_></rects>
              <tilted>0</tilted></feature>
            <threshold>-1.8050560355186462e-001</threshold>
            <left_val>7.1835839748382568e-001</left_val>
            <right_val>-5.2469527721405029e-001</right_val></_></_>
        <_>
          <!-- tree 1 -->
          <_>
            <!-- root node -->
            <feature>
              <rects>
                <_>
                  5 16 4 4 -1.</_>
                <_>
                  5 18 4 2 2.</_></rects>
              <tilted>0</tilted></feature>
            <threshold>-1.5271560288965702e-002</threshold>
            <left_val>3.2215949892997742e-001</left_val>
            <right_val>-1.5855640172958374e-001</right_val></_></_>
        <_>
          <!-- tree 2 -->
          <_>
            <!-- root node -->
            <feature>
              <rects>
                <_>
                  6 3 6 6 -1.</_>
                <_>
                  4 5 6 2 3.</_></rects>
              <tilted>1</tilted></feature>
            <threshold>-3.4879799932241440e-002</threshold>
            <left_val>3.2105189561843872e-001</left_val>
            <right_val>-5.3338629007339478e-001</right_val></_></_>
        <_>
          <!-- tree 3 -->
          <_>
            <!-- root node -->
            <feature>
              <rects>
                <_>
                  0 16 12 4 -1.</_>
                <_>
                  6 16 6 2 2.</_>
                <_>
                  0 18 6 2 2.</_></rects>
              <tilted>0</tilted></feature>
            <threshold>-3.1743600964546204e-002</threshold>
            <left_val>4.1040870547294617e-001</left_val>
            <right_val>-3.7935909628868103e-001</right_val></_></_>
        <_>
          <!-- tree 4 -->
          <_>
            <!-- root node -->
            <feature>
              <rects>
                <_>
                  0 2 10 4 -1.</_>
                <_>
                  0 4 10 2 2.</_></rects>
              <tilted>0</tilted></feature>
            <threshold>4.8427619040012360e-003</threshold>
            <left_val>-6.9584208726882935e-001</left_val>
            <right_val>2.4080069363117218e-001</right_val></_></_>
        <_>
          <!-- tree 5 -->
          <_>
            <!-- root node -->
            <feature>
              <rects>
                <_>
                  8 9 2 8 -1.</_>
                <_>
                  6 11 2 4 2.</_></rects>
              <tilted>1</tilted></feature>
            <threshold>4.9639631062746048e-002</threshold>
            <left_val>8.0581977963447571e-003</left_val>
            <right_val>-5.4770648479461670e-001</right_val></_></_>
        <_>
          <!-- tree 6 -->
          <_>
            <!-- root node -->
            <feature>
              <rects>
                <_>
                  4 9 8 3 -1.</_>
                <_>
                  6 11 4 3 2.</_></rects>
              <tilted>1</tilted></feature>
            <threshold>1.1154930293560028e-001</threshold>
            <left_val>-2.4036459624767303e-001</left_val>
            <right_val>5.6387817859649658e-001</right_val></_></_>
        <_>
          <!-- tree 7 -->
          <_>
            <!-- root node -->
            <feature>
              <rects>
                <_>
                  6 12 1 6 -1.</_>
                <_>
                  6 12 1 3 2.</_></rects>
              <tilted>1</tilted></feature>
            <threshold>-2.6947790756821632e-002</threshold>
            <left_val>-4.5162969827651978e-001</left_val>
            <right_val>6.0060828924179077e-002</right_val></_></_>
        <_>
          <!-- tree 8 -->
          <_>
            <!-- root node -->
            <feature>
              <rects>
                <_>
                  6 12 6 1 -1.</_>
                <_>
                  6 12 3 1 2.</_></rects>
              <tilted>1</tilted></feature>
            <threshold>-4.9296129494905472e-002</threshold>
            <left_val>8.3912831544876099e-001</left_val>
            <right_val>-1.8871270120143890e-001</right_val></_></_>
        <_>
          <!-- tree 9 -->
          <_>
            <!-- root node -->
            <feature>
              <rects>
                <_>
                  8 1 4 10 -1.</_>
                <_>
                  10 1 2 5 2.</_>
                <_>
                  8 6 2 5 2.</_></rects>
              <tilted>0</tilted></feature>
            <threshold>2.8315439820289612e-002</threshold>
            <left_val>6.9766468368470669e-003</left_val>
            <right_val>1.8534269928932190e-001</right_val></_></_>
        <_>
          <!-- tree 10 -->
          <_>
            <!-- root node -->
            <feature>
              <rects>
                <_>
                  0 0 1 12 -1.</_>
                <_>
                  0 6 1 6 2.</_></rects>
              <tilted>0</tilted></feature>
            <threshold>3.3421538770198822e-002</threshold>
            <left_val>-3.1101679801940918e-001</left_val>
            <right_val>4.0044930577278137e-001</right_val></_></_>
        <_>
          <!-- tree 11 -->
          <_>
            <!-- root node -->
            <feature>
              <rects>
                <_>
                  9 0 2 1 -1.</_>
                <_>
                  9 0 1 1 2.</_></rects>
              <tilted>1</tilted></feature>
            <threshold>-6.2644667923450470e-003</threshold>
            <left_val>-4.4615790247917175e-001</left_val>
            <right_val>6.6276572644710541e-002</right_val></_></_>
        <_>
          <!-- tree 12 -->
          <_>
            <!-- root node -->
            <feature>
              <rects>
                <_>
                  3 0 1 2 -1.</_>
                <_>
                  3 0 1 1 2.</_></rects>
              <tilted>1</tilted></feature>
            <threshold>2.5548560079187155e-003</threshold>
            <left_val>1.3413320481777191e-001</left_val>
            <right_val>-7.4927258491516113e-001</right_val></_></_>
        <_>
          <!-- tree 13 -->
          <_>
            <!-- root node -->
            <feature>
              <rects>
                <_>
                  6 4 3 3 -1.</_>
                <_>
                  7 5 1 3 3.</_></rects>
              <tilted>1</tilted></feature>
            <threshold>2.9710179194808006e-002</threshold>
            <left_val>6.1377300880849361e-004</left_val>
            <right_val>-7.7615362405776978e-001</right_val></_></_>
        <_>
          <!-- tree 14 -->
          <_>
            <!-- root node -->
            <feature>
              <rects>
                <_>
                  6 5 3 3 -1.</_>
                <_>
                  5 6 3 1 3.</_></rects>
              <tilted>1</tilted></feature>
            <threshold>-4.1485700756311417e-002</threshold>
            <left_val>5.9405767917633057e-001</left_val>
            <right_val>-1.6889290511608124e-001</right_val></_></_>
        <_>
          <!-- tree 15 -->
          <_>
            <!-- root node -->
            <feature>
              <rects>
                <_>
                  10 2 2 3 -1.</_>
                <_>
                  10 3 2 1 3.</_></rects>
              <tilted>0</tilted></feature>
            <threshold>1.2231590226292610e-002</threshold>
            <left_val>5.1312480121850967e-002</left_val>
            <right_val>-7.5303572416305542e-001</right_val></_></_>
        <_>
          <!-- tree 16 -->
          <_>
            <!-- root node -->
            <feature>
              <rects>
                <_>
                  0 2 2 3 -1.</_>
                <_>
                  0 3 2 1 3.</_></rects>
              <tilted>0</tilted></feature>
            <threshold>-4.3153190053999424e-003</threshold>
            <left_val>-6.4812111854553223e-001</left_val>
            <right_val>1.3281610608100891e-001</right_val></_></_></trees>
      <stage_threshold>-1.5266020298004150e+000</stage_threshold>
      <parent>3</parent>
      <next>-1</next></_>
    <_>
      <!-- stage 5 -->
      <trees>
        <_>
          <!-- tree 0 -->
          <_>
            <!-- root node -->
            <feature>
              <rects>
                <_>
                  4 8 8 4 -1.</_>
                <_>
                  6 10 4 4 2.</_></rects>
              <tilted>1</tilted></feature>
            <threshold>1.1714699864387512e-001</threshold>
            <left_val>-5.1155489683151245e-001</left_val>
            <right_val>5.4587250947952271e-001</right_val></_></_>
        <_>
          <!-- tree 1 -->
          <_>
            <!-- root node -->
            <feature>
              <rects>
                <_>
                  3 6 9 3 -1.</_>
                <_>
                  6 7 3 1 9.</_></rects>
              <tilted>0</tilted></feature>
            <threshold>5.2537951618432999e-002</threshold>
            <left_val>-2.6988661289215088e-001</left_val>
            <right_val>3.4098041057586670e-001</right_val></_></_>
        <_>
          <!-- tree 2 -->
          <_>
            <!-- root node -->
            <feature>
              <rects>
                <_>
                  0 1 4 10 -1.</_>
                <_>
                  0 1 2 5 2.</_>
                <_>
                  2 6 2 5 2.</_></rects>
              <tilted>0</tilted></feature>
            <threshold>-1.9980749115347862e-002</threshold>
            <left_val>3.5662230849266052e-001</left_val>
            <right_val>-4.4640049338340759e-001</right_val></_></_>
        <_>
          <!-- tree 3 -->
          <_>
            <!-- root node -->
            <feature>
              <rects>
                <_>
                  3 3 8 17 -1.</_>
                <_>
                  5 3 4 17 2.</_></rects>
              <tilted>0</tilted></feature>
            <threshold>-1.2166350334882736e-001</threshold>
            <left_val>4.5662569999694824e-001</left_val>
            <right_val>-6.7647598683834076e-002</right_val></_></_>
        <_>
          <!-- tree 4 -->
          <_>
            <!-- root node -->
            <feature>
              <rects>
                <_>
                  4 0 4 8 -1.</_>
                <_>
                  6 0 2 8 2.</_></rects>
              <tilted>0</tilted></feature>
            <threshold>1.6176940873265266e-002</threshold>
            <left_val>-4.8407769203186035e-001</left_val>
            <right_val>2.5647491216659546e-001</right_val></_></_>
        <_>
          <!-- tree 5 -->
          <_>
            <!-- root node -->
            <feature>
              <rects>
                <_>
                  6 10 6 3 -1.</_>
                <_>
                  6 10 3 3 2.</_></rects>
              <tilted>1</tilted></feature>
            <threshold>-1.2731030583381653e-001</threshold>
            <left_val>7.8568279743194580e-001</left_val>
            <right_val>-7.6182372868061066e-002</right_val></_></_>
        <_>
          <!-- tree 6 -->
          <_>
            <!-- root node -->
            <feature>
              <rects>
                <_>
                  0 18 4 2 -1.</_>
                <_>
                  0 19 4 1 2.</_></rects>
              <tilted>0</tilted></feature>
            <threshold>-3.7296859081834555e-003</threshold>
            <left_val>2.7144059538841248e-001</left_val>
            <right_val>-4.8822438716888428e-001</right_val></_></_>
        <_>
          <!-- tree 7 -->
          <_>
            <!-- root node -->
            <feature>
              <rects>
                <_>
                  6 10 6 3 -1.</_>
                <_>
                  6 10 3 3 2.</_></rects>
              <tilted>1</tilted></feature>
            <threshold>-1.7392159998416901e-001</threshold>
            <left_val>7.3156762123107910e-001</left_val>
            <right_val>-4.0217950940132141e-002</right_val></_></_>
        <_>
          <!-- tree 8 -->
          <_>
            <!-- root node -->
            <feature>
              <rects>
                <_>
                  1 6 9 3 -1.</_>
                <_>
                  4 7 3 1 9.</_></rects>
              <tilted>0</tilted></feature>
            <threshold>-9.4516716897487640e-002</threshold>
            <left_val>4.9297851324081421e-001</left_val>
            <right_val>-2.1850970387458801e-001</right_val></_></_>
        <_>
          <!-- tree 9 -->
          <_>
            <!-- root node -->
            <feature>
              <rects>
                <_>
                  6 10 6 3 -1.</_>
                <_>
                  6 10 3 3 2.</_></rects>
              <tilted>1</tilted></feature>
            <threshold>7.9759500920772552e-002</threshold>
            <left_val>-1.0667549818754196e-001</left_val>
            <right_val>2.1722890436649323e-001</right_val></_></_>
        <_>
          <!-- tree 10 -->
          <_>
            <!-- root node -->
            <feature>
              <rects>
                <_>
                  6 10 3 6 -1.</_>
                <_>
                  6 10 3 3 2.</_></rects>
              <tilted>1</tilted></feature>
            <threshold>2.9159070923924446e-002</threshold>
            <left_val>1.5513190627098083e-001</left_val>
            <right_val>-7.9432719945907593e-001</right_val></_></_>
        <_>
          <!-- tree 11 -->
          <_>
            <!-- root node -->
            <feature>
              <rects>
                <_>
                  0 0 12 10 -1.</_>
                <_>
                  0 5 12 5 2.</_></rects>
              <tilted>0</tilted></feature>
            <threshold>6.8567609414458275e-003</threshold>
            <left_val>-7.7142190933227539e-001</left_val>
            <right_val>1.0970850288867950e-001</right_val></_></_>
        <_>
          <!-- tree 12 -->
          <_>
            <!-- root node -->
            <feature>
              <rects>
                <_>
                  2 0 1 2 -1.</_>
                <_>
                  2 0 1 1 2.</_></rects>
              <tilted>1</tilted></feature>
            <threshold>2.6352910790592432e-003</threshold>
            <left_val>9.6235923469066620e-002</left_val>
            <right_val>-7.4925291538238525e-001</right_val></_></_>
        <_>
          <!-- tree 13 -->
          <_>
            <!-- root node -->
            <feature>
              <rects>
                <_>
                  4 5 4 8 -1.</_>
                <_>
                  4 7 4 4 2.</_></rects>
              <tilted>0</tilted></feature>
            <threshold>-4.1161300614476204e-003</threshold>
            <left_val>1.7448060214519501e-001</left_val>
            <right_val>-4.6480000019073486e-001</right_val></_></_>
        <_>
          <!-- tree 14 -->
          <_>
            <!-- root node -->
            <feature>
              <rects>
                <_>
                  0 0 2 3 -1.</_>
                <_>
                  1 0 1 3 2.</_></rects>
              <tilted>0</tilted></feature>
            <threshold>-2.7307260315865278e-003</threshold>
            <left_val>-5.8561611175537109e-001</left_val>
            <right_val>1.1779639869928360e-001</right_val></_></_>
        <_>
          <!-- tree 15 -->
          <_>
            <!-- root node -->
            <feature>
              <rects>
                <_>
                  0 8 12 4 -1.</_>
                <_>
                  0 9 12 2 2.</_></rects>
              <tilted>0</tilted></feature>
            <threshold>-1.9059289246797562e-002</threshold>
            <left_val>-6.8809962272644043e-001</left_val>
            <right_val>1.0283970087766647e-001</right_val></_></_>
        <_>
          <!-- tree 16 -->
          <_>
            <!-- root node -->
            <feature>
              <rects>
                <_>
                  1 3 1 3 -1.</_>
                <_>
                  1 4 1 1 3.</_></rects>
              <tilted>0</tilted></feature>
            <threshold>-2.9182219877839088e-003</threshold>
            <left_val>-6.6901868581771851e-001</left_val>
            <right_val>8.3721928298473358e-002</right_val></_></_></trees>
      <stage_threshold>-1.4295140504837036e+000</stage_threshold>
      <parent>4</parent>
      <next>-1</next></_>
    <_>
      <!-- stage 6 -->
      <trees>
        <_>
          <!-- tree 0 -->
          <_>
            <!-- root node -->
            <feature>
              <rects>
                <_>
                  4 9 8 2 -1.</_>
                <_>
                  6 11 4 2 2.</_></rects>
              <tilted>1</tilted></feature>
            <threshold>8.1108748912811279e-002</threshold>
            <left_val>-3.9180481433868408e-001</left_val>
            <right_val>5.3625607490539551e-001</right_val></_></_>
        <_>
          <!-- tree 1 -->
          <_>
            <!-- root node -->
            <feature>
              <rects>
                <_>
                  5 3 2 6 -1.</_>
                <_>
                  5 5 2 2 3.</_></rects>
              <tilted>0</tilted></feature>
            <threshold>9.1598061844706535e-003</threshold>
            <left_val>-4.6528929471969604e-001</left_val>
            <right_val>3.3383831381797791e-001</right_val></_></_>
        <_>
          <!-- tree 2 -->
          <_>
            <!-- root node -->
            <feature>
              <rects>
                <_>
                  0 0 1 8 -1.</_>
                <_>
                  0 4 1 4 2.</_></rects>
              <tilted>0</tilted></feature>
            <threshold>8.0795027315616608e-004</threshold>
            <left_val>-7.5230997800827026e-001</left_val>
            <right_val>1.4381100237369537e-001</right_val></_></_>
        <_>
          <!-- tree 3 -->
          <_>
            <!-- root node -->
            <feature>
              <rects>
                <_>
                  2 5 8 14 -1.</_>
                <_>
                  6 5 4 7 2.</_>
                <_>
                  2 12 4 7 2.</_></rects>
              <tilted>0</tilted></feature>
            <threshold>2.4406640231609344e-001</threshold>
            <left_val>-2.2846619784832001e-001</left_val>
            <right_val>5.0088721513748169e-001</right_val></_></_>
        <_>
          <!-- tree 4 -->
          <_>
            <!-- root node -->
            <feature>
              <rects>
                <_>
                  0 6 1 8 -1.</_>
                <_>
                  0 8 1 4 2.</_></rects>
              <tilted>0</tilted></feature>
            <threshold>9.9084907560609281e-005</threshold>
            <left_val>-4.9552011489868164e-001</left_val>
            <right_val>2.3163549602031708e-001</right_val></_></_>
        <_>
          <!-- tree 5 -->
          <_>
            <!-- root node -->
            <feature>
              <rects>
                <_>
                  0 17 12 3 -1.</_>
                <_>
                  0 17 6 3 2.</_></rects>
              <tilted>0</tilted></feature>
            <threshold>-1.6304260492324829e-001</threshold>
            <left_val>8.0807077884674072e-001</left_val>
            <right_val>-1.4503139257431030e-001</right_val></_></_>
        <_>
          <!-- tree 6 -->
          <_>
            <!-- root node -->
            <feature>
              <rects>
                <_>
                  4 0 2 3 -1.</_>
                <_>
                  4 1 2 1 3.</_></rects>
              <tilted>0</tilted></feature>
            <threshold>9.9489316344261169e-003</threshold>
            <left_val>-1.3804569840431213e-001</left_val>
            <right_val>6.0897988080978394e-001</right_val></_></_>
        <_>
          <!-- tree 7 -->
          <_>
            <!-- root node -->
            <feature>
              <rects>
                <_>
                  5 12 6 8 -1.</_>
                <_>
                  5 14 6 4 2.</_></rects>
              <tilted>0</tilted></feature>
            <threshold>7.6701432466506958e-002</threshold>
            <left_val>3.7772629410028458e-002</left_val>
            <right_val>-5.3447282314300537e-001</right_val></_></_>
        <_>
          <!-- tree 8 -->
          <_>
            <!-- root node -->
            <feature>
              <rects>
                <_>
                  3 11 4 9 -1.</_>
                <_>
                  3 14 4 3 3.</_></rects>
              <tilted>0</tilted></feature>
            <threshold>4.7309949994087219e-002</threshold>
            <left_val>-3.6191630363464355e-001</left_val>
            <right_val>2.8269779682159424e-001</right_val></_></_>
        <_>
          <!-- tree 9 -->
          <_>
            <!-- root node -->
            <feature>
              <rects>
                <_>
                  2 0 10 16 -1.</_>
                <_>
                  2 8 10 8 2.</_></rects>
              <tilted>0</tilted></feature>
            <threshold>-2.2022439166903496e-002</threshold>
            <left_val>-5.2068692445755005e-001</left_val>
            <right_val>9.4968706369400024e-002</right_val></_></_>
        <_>
          <!-- tree 10 -->
          <_>
            <!-- root node -->
            <feature>
              <rects>
                <_>
                  5 15 3 2 -1.</_>
                <_>
                  5 15 3 1 2.</_></rects>
              <tilted>1</tilted></feature>
            <threshold>1.3980070129036903e-002</threshold>
            <left_val>1.1217589676380157e-001</left_val>
            <right_val>-6.8278092145919800e-001</right_val></_></_>
        <_>
          <!-- tree 11 -->
          <_>
            <!-- root node -->
            <feature>
              <rects>
                <_>
                  8 15 4 1 -1.</_>
                <_>
                  9 16 2 1 2.</_></rects>
              <tilted>1</tilted></feature>
            <threshold>-6.6961131989955902e-002</threshold>
            <left_val>8.7730789184570313e-001</left_val>
            <right_val>-2.7844179421663284e-002</right_val></_></_>
        <_>
          <!-- tree 12 -->
          <_>
            <!-- root node -->
            <feature>
              <rects>
                <_>
                  4 15 1 4 -1.</_>
                <_>
                  3 16 1 2 2.</_></rects>
              <tilted>1</tilted></feature>
            <threshold>1.1592600494623184e-003</threshold>
            <left_val>-3.4661638736724854e-001</left_val>
            <right_val>2.0498119294643402e-001</right_val></_></_>
        <_>
          <!-- tree 13 -->
          <_>
            <!-- root node -->
            <feature>
              <rects>
                <_>
                  6 14 3 3 -1.</_>
                <_>
                  7 15 1 3 3.</_></rects>
              <tilted>1</tilted></feature>
            <threshold>1.9640380516648293e-002</threshold>
            <left_val>-1.2608189880847931e-001</left_val>
            <right_val>2.8791791200637817e-001</right_val></_></_>
        <_>
          <!-- tree 14 -->
          <_>
            <!-- root node -->
            <feature>
              <rects>
                <_>
                  6 14 3 3 -1.</_>
                <_>
                  5 15 3 1 3.</_></rects>
              <tilted>1</tilted></feature>
            <threshold>-1.0507949627935886e-002</threshold>
            <left_val>-6.1253058910369873e-001</left_val>
            <right_val>1.2488999962806702e-001</right_val></_></_>
        <_>
          <!-- tree 15 -->
          <_>
            <!-- root node -->
            <feature>
              <rects>
                <_>
                  3 6 8 2 -1.</_>
                <_>
                  5 6 4 2 2.</_></rects>
              <tilted>0</tilted></feature>
            <threshold>1.7976740375161171e-002</threshold>
            <left_val>-1.2991739809513092e-001</left_val>
            <right_val>1.4235779643058777e-001</right_val></_></_>
        <_>
          <!-- tree 16 -->
          <_>
            <!-- root node -->
            <feature>
              <rects>
                <_>
                  3 2 6 17 -1.</_>
                <_>
                  5 2 2 17 3.</_></rects>
              <tilted>0</tilted></feature>
            <threshold>-3.1597379595041275e-002</threshold>
            <left_val>3.3326789736747742e-001</left_val>
            <right_val>-2.4774129688739777e-001</right_val></_></_>
        <_>
          <!-- tree 17 -->
          <_>
            <!-- root node -->
            <feature>
              <rects>
                <_>
                  11 0 1 2 -1.</_>
                <_>
                  11 1 1 1 2.</_></rects>
              <tilted>0</tilted></feature>
            <threshold>-1.8917859997600317e-003</threshold>
            <left_val>-5.3087908029556274e-001</left_val>
            <right_val>8.8928163051605225e-002</right_val></_></_>
        <_>
          <!-- tree 18 -->
          <_>
            <!-- root node -->
            <feature>
              <rects>
                <_>
                  6 14 4 2 -1.</_>
                <_>
                  6 14 4 1 2.</_></rects>
              <tilted>1</tilted></feature>
            <threshold>-1.7453400418162346e-002</threshold>
            <left_val>-6.4604520797729492e-001</left_val>
            <right_val>1.1086379736661911e-001</right_val></_></_>
        <_>
          <!-- tree 19 -->
          <_>
            <!-- root node -->
            <feature>
              <rects>
                <_>
                  3 0 8 1 -1.</_>
                <_>
                  3 0 4 1 2.</_></rects>
              <tilted>0</tilted></feature>
            <threshold>1.0619490407407284e-002</threshold>
            <left_val>1.4190349727869034e-002</left_val>
            <right_val>-2.1650099754333496e-001</right_val></_></_>
        <_>
          <!-- tree 20 -->
          <_>
            <!-- root node -->
            <feature>
              <rects>
                <_>
                  0 0 1 2 -1.</_>
                <_>
                  0 1 1 1 2.</_></rects>
              <tilted>0</tilted></feature>
            <threshold>-1.1998750269412994e-003</threshold>
            <left_val>-6.4023351669311523e-001</left_val>
            <right_val>1.0543160140514374e-001</right_val></_></_>
        <_>
          <!-- tree 21 -->
          <_>
            <!-- root node -->
            <feature>
              <rects>
                <_>
                  6 4 3 3 -1.</_>
                <_>
                  7 5 1 3 3.</_></rects>
              <tilted>1</tilted></feature>
            <threshold>9.0056620538234711e-003</threshold>
            <left_val>6.6442847251892090e-002</left_val>
            <right_val>-3.8506388664245605e-001</right_val></_></_>
        <_>
          <!-- tree 22 -->
          <_>
            <!-- root node -->
            <feature>
              <rects>
                <_>
                  6 4 3 3 -1.</_>
                <_>
                  5 5 3 1 3.</_></rects>
              <tilted>1</tilted></feature>
            <threshold>-3.1365811824798584e-002</threshold>
            <left_val>4.9019768834114075e-001</left_val>
            <right_val>-1.3340839743614197e-001</right_val></_></_>
        <_>
          <!-- tree 23 -->
          <_>
            <!-- root node -->
            <feature>
              <rects>
                <_>
                  8 0 4 2 -1.</_>
                <_>
                  10 0 2 1 2.</_>
                <_>
                  8 1 2 1 2.</_></rects>
              <tilted>0</tilted></feature>
            <threshold>8.8146664202213287e-003</threshold>
            <left_val>-7.5805522501468658e-002</left_val>
            <right_val>5.1142227649688721e-001</right_val></_></_>
        <_>
          <!-- tree 24 -->
          <_>
            <!-- root node -->
            <feature>
              <rects>
                <_>
                  0 0 4 2 -1.</_>
                <_>
                  0 0 2 1 2.</_>
                <_>
                  2 1 2 1 2.</_></rects>
              <tilted>0</tilted></feature>
            <threshold>-2.4432060308754444e-003</threshold>
            <left_val>-5.3494578599929810e-001</left_val>
            <right_val>1.3186639547348022e-001</right_val></_></_>
        <_>
          <!-- tree 25 -->
          <_>
            <!-- root node -->
            <feature>
              <rects>
                <_>
                  7 5 3 3 -1.</_>
                <_>
                  8 6 1 3 3.</_></rects>
              <tilted>1</tilted></feature>
            <threshold>3.3595509827136993e-002</threshold>
            <left_val>1.8829340115189552e-002</left_val>
            <right_val>-8.7616902589797974e-001</right_val></_></_></trees>
      <stage_threshold>-1.5588049888610840e+000</stage_threshold>
      <parent>5</parent>
      <next>-1</next></_>
    <_>
      <!-- stage 7 -->
      <trees>
        <_>
          <!-- tree 0 -->
          <_>
            <!-- root node -->
            <feature>
              <rects>
                <_>
                  2 5 8 14 -1.</_>
                <_>
                  2 5 4 7 2.</_>
                <_>
                  6 12 4 7 2.</_></rects>
              <tilted>0</tilted></feature>
            <threshold>-1.9901029765605927e-001</threshold>
            <left_val>4.1589239239692688e-001</left_val>
            <right_val>-4.6403810381889343e-001</right_val></_></_>
        <_>
          <!-- tree 1 -->
          <_>
            <!-- root node -->
            <feature>
              <rects>
                <_>
                  7 7 4 1 -1.</_>
                <_>
                  7 7 2 1 2.</_></rects>
              <tilted>0</tilted></feature>
            <threshold>1.0957729537039995e-003</threshold>
            <left_val>-2.7428150177001953e-001</left_val>
            <right_val>2.1992009878158569e-001</right_val></_></_>
        <_>
          <!-- tree 2 -->
          <_>
            <!-- root node -->
            <feature>
              <rects>
                <_>
                  5 0 1 3 -1.</_>
                <_>
                  5 1 1 1 3.</_></rects>
              <tilted>0</tilted></feature>
            <threshold>3.5783050116151571e-003</threshold>
            <left_val>-2.5449270009994507e-001</left_val>
            <right_val>5.4316788911819458e-001</right_val></_></_>
        <_>
          <!-- tree 3 -->
          <_>
            <!-- root node -->
            <feature>
              <rects>
                <_>
                  8 6 4 1 -1.</_>
                <_>
                  8 6 2 1 2.</_></rects>
              <tilted>1</tilted></feature>
            <threshold>3.5569820553064346e-002</threshold>
            <left_val>4.2951688170433044e-002</left_val>
            <right_val>-6.6588342189788818e-001</right_val></_></_>
        <_>
          <!-- tree 4 -->
          <_>
            <!-- root node -->
            <feature>
              <rects>
                <_>
                  4 6 1 4 -1.</_>
                <_>
                  4 6 1 2 2.</_></rects>
              <tilted>1</tilted></feature>
            <threshold>-3.8403531070798635e-003</threshold>
            <left_val>1.9703429937362671e-001</left_val>
            <right_val>-5.4586201906204224e-001</right_val></_></_>
        <_>
          <!-- tree 5 -->
          <_>
            <!-- root node -->
            <feature>
              <rects>
                <_>
                  3 1 7 9 -1.</_>
                <_>
                  3 4 7 3 3.</_></rects>
              <tilted>0</tilted></feature>
            <threshold>3.9690821431577206e-003</threshold>
            <left_val>-5.1554411649703979e-001</left_val>
            <right_val>2.2360439598560333e-001</right_val></_></_>
        <_>
          <!-- tree 6 -->
          <_>
            <!-- root node -->
            <feature>
              <rects>
                <_>
                  3 9 6 3 -1.</_>
                <_>
                  3 9 3 3 2.</_></rects>
              <tilted>1</tilted></feature>
            <threshold>7.4965478852391243e-003</threshold>
            <left_val>1.5371499955654144e-001</left_val>
            <right_val>-6.1535251140594482e-001</right_val></_></_>
        <_>
          <!-- tree 7 -->
          <_>
            <!-- root node -->
            <feature>
              <rects>
                <_>
                  2 18 10 2 -1.</_>
                <_>
                  7 18 5 1 2.</_>
                <_>
                  2 19 5 1 2.</_></rects>
              <tilted>0</tilted></feature>
            <threshold>-8.9704096317291260e-003</threshold>
            <left_val>1.8355900049209595e-001</left_val>
            <right_val>-2.8429880738258362e-001</right_val></_></_>
        <_>
          <!-- tree 8 -->
          <_>
            <!-- root node -->
            <feature>
              <rects>
                <_>
                  6 13 6 1 -1.</_>
                <_>
                  6 13 3 1 2.</_></rects>
              <tilted>1</tilted></feature>
            <threshold>-5.6080069392919540e-002</threshold>
            <left_val>7.7755087614059448e-001</left_val>
            <right_val>-9.8359443247318268e-002</right_val></_></_>
        <_>
          <!-- tree 9 -->
          <_>
            <!-- root node -->
            <feature>
              <rects>
                <_>
                  8 5 2 3 -1.</_>
                <_>
                  8 5 1 3 2.</_></rects>
              <tilted>1</tilted></feature>
            <threshold>1.0908209718763828e-002</threshold>
            <left_val>6.3484668731689453e-002</left_val>
            <right_val>-6.9791257381439209e-001</right_val></_></_>
        <_>
          <!-- tree 10 -->
          <_>
            <!-- root node -->
            <feature>
              <rects>
                <_>
                  4 5 3 2 -1.</_>
                <_>
                  4 5 3 1 2.</_></rects>
              <tilted>1</tilted></feature>
            <threshold>-9.8930671811103821e-003</threshold>
            <left_val>4.0726318955421448e-001</left_val>
            <right_val>-2.5781801342964172e-001</right_val></_></_>
        <_>
          <!-- tree 11 -->
          <_>
            <!-- root node -->
            <feature>
              <rects>
                <_>
                  0 14 12 5 -1.</_>
                <_>
                  0 14 6 5 2.</_></rects>
              <tilted>0</tilted></feature>
            <threshold>1.8678830564022064e-001</threshold>
            <left_val>-2.7086579799652100e-001</left_val>
            <right_val>3.6147558689117432e-001</right_val></_></_>
        <_>
          <!-- tree 12 -->
          <_>
            <!-- root node -->
            <feature>
              <rects>
                <_>
                  1 0 8 2 -1.</_>
                <_>
                  5 0 4 2 2.</_></rects>
              <tilted>0</tilted></feature>
            <threshold>-9.4373157480731606e-004</threshold>
            <left_val>-5.8118808269500732e-001</left_val>
            <right_val>1.5266190469264984e-001</right_val></_></_>
        <_>
          <!-- tree 13 -->
          <_>
            <!-- root node -->
            <feature>
              <rects>
                <_>
                  6 16 2 2 -1.</_>
                <_>
                  6 16 1 2 2.</_></rects>
              <tilted>1</tilted></feature>
            <threshold>-2.6823019608855247e-002</threshold>
            <left_val>7.3039489984512329e-001</left_val>
            <right_val>-5.7183459401130676e-002</right_val></_></_>
        <_>
          <!-- tree 14 -->
          <_>
            <!-- root node -->
            <feature>
              <rects>
                <_>
                  6 16 2 2 -1.</_>
                <_>
                  6 16 2 1 2.</_></rects>
              <tilted>1</tilted></feature>
            <threshold>-8.4266774356365204e-003</threshold>
            <left_val>-6.9740217924118042e-001</left_val>
            <right_val>1.1783199757337570e-001</right_val></_></_>
        <_>
          <!-- tree 15 -->
          <_>
            <!-- root node -->
            <feature>
              <rects>
                <_>
                  6 9 1 6 -1.</_>
                <_>
                  4 11 1 2 3.</_></rects>
              <tilted>1</tilted></feature>
            <threshold>4.4732030481100082e-002</threshold>
            <left_val>-6.6901608370244503e-003</left_val>
            <right_val>-3.9551690220832825e-001</right_val></_></_>
        <_>
          <!-- tree 16 -->
          <_>
            <!-- root node -->
            <feature>
              <rects>
                <_>
                  6 9 6 1 -1.</_>
                <_>
                  8 11 2 1 3.</_></rects>
              <tilted>1</tilted></feature>
            <threshold>1.9846759736537933e-002</threshold>
            <left_val>-2.5491309165954590e-001</left_val>
            <right_val>2.6959219574928284e-001</right_val></_></_>
        <_>
          <!-- tree 17 -->
          <_>
            <!-- root node -->
            <feature>
              <rects>
                <_>
                  10 17 1 3 -1.</_>
                <_>
                  10 18 1 1 3.</_></rects>
              <tilted>0</tilted></feature>
            <threshold>-1.1466080322861671e-003</threshold>
            <left_val>-4.7784709930419922e-001</left_val>
            <right_val>1.4147639274597168e-001</right_val></_></_>
        <_>
          <!-- tree 18 -->
          <_>
            <!-- root node -->
            <feature>
              <rects>
                <_>
                  1 17 1 3 -1.</_>
                <_>
                  1 18 1 1 3.</_></rects>
              <tilted>0</tilted></feature>
            <threshold>9.8631740547716618e-004</threshold>
            <left_val>-2.9782509803771973e-001</left_val>
            <right_val>2.1989880502223969e-001</right_val></_></_>
        <_>
          <!-- tree 19 -->
          <_>
            <!-- root node -->
            <feature>
              <rects>
                <_>
                  11 2 1 18 -1.</_>
                <_>
                  11 8 1 6 3.</_></rects>
              <tilted>0</tilted></feature>
            <threshold>-1.3526080548763275e-001</threshold>
            <left_val>7.3641002178192139e-001</left_val>
            <right_val>-3.6679711192846298e-002</right_val></_></_>
        <_>
          <!-- tree 20 -->
          <_>
            <!-- root node -->
            <feature>
              <rects>
                <_>
                  0 0 1 20 -1.</_>
                <_>
                  0 5 1 10 2.</_></rects>
              <tilted>0</tilted></feature>
            <threshold>-1.4555889647454023e-003</threshold>
            <left_val>-4.9741968512535095e-001</left_val>
            <right_val>1.4351129531860352e-001</right_val></_></_>
        <_>
          <!-- tree 21 -->
          <_>
            <!-- root node -->
            <feature>
              <rects>
                <_>
                  4 0 6 2 -1.</_>
                <_>
                  7 0 3 1 2.</_>
                <_>
                  4 1 3 1 2.</_></rects>
              <tilted>0</tilted></feature>
            <threshold>-1.3439180329442024e-002</threshold>
            <left_val>4.4307011365890503e-001</left_val>
            <right_val>-6.1504751443862915e-002</right_val></_></_>
        <_>
          <!-- tree 22 -->
          <_>
            <!-- root node -->
            <feature>
              <rects>
                <_>
                  0 5 2 3 -1.</_>
                <_>
                  0 6 2 1 3.</_></rects>
              <tilted>0</tilted></feature>
            <threshold>5.8535612188279629e-003</threshold>
            <left_val>8.6272820830345154e-002</left_val>
            <right_val>-6.9572478532791138e-001</right_val></_></_>
        <_>
          <!-- tree 23 -->
          <_>
            <!-- root node -->
            <feature>
              <rects>
                <_>
                  8 0 2 1 -1.</_>
                <_>
                  8 0 1 1 2.</_></rects>
              <tilted>1</tilted></feature>
            <threshold>-3.6728219129145145e-003</threshold>
            <left_val>-2.4009980261325836e-001</left_val>
            <right_val>7.2359912097454071e-002</right_val></_></_>
        <_>
          <!-- tree 24 -->
          <_>
            <!-- root node -->
            <feature>
              <rects>
                <_>
                  2 3 4 2 -1.</_>
                <_>
                  3 4 2 2 2.</_></rects>
              <tilted>1</tilted></feature>
            <threshold>2.8104060329496861e-003</threshold>
            <left_val>-2.8405401110649109e-001</left_val>
            <right_val>2.0643989741802216e-001</right_val></_></_></trees>
      <stage_threshold>-1.5198639631271362e+000</stage_threshold>
      <parent>6</parent>
      <next>-1</next></_>
    <_>
      <!-- stage 8 -->
      <trees>
        <_>
          <!-- tree 0 -->
          <_>
            <!-- root node -->
            <feature>
              <rects>
                <_>
                  6 5 2 2 -1.</_>
                <_>
                  6 5 2 1 2.</_></rects>
              <tilted>1</tilted></feature>
            <threshold>1.6374010592699051e-002</threshold>
            <left_val>-3.7089619040489197e-001</left_val>
            <right_val>5.0737190246582031e-001</right_val></_></_>
        <_>
          <!-- tree 1 -->
          <_>
            <!-- root node -->
            <feature>
              <rects>
                <_>
                  0 12 12 5 -1.</_>
                <_>
                  3 12 6 5 2.</_></rects>
              <tilted>0</tilted></feature>
            <threshold>9.4187058508396149e-002</threshold>
            <left_val>-3.1576469540596008e-001</left_val>
            <right_val>4.0862488746643066e-001</right_val></_></_>
        <_>
          <!-- tree 2 -->
          <_>
            <!-- root node -->
            <feature>
              <rects>
                <_>
                  0 18 10 2 -1.</_>
                <_>
                  0 18 5 1 2.</_>
                <_>
                  5 19 5 1 2.</_></rects>
              <tilted>0</tilted></feature>
            <threshold>1.1773589998483658e-002</threshold>
            <left_val>-3.5064500570297241e-001</left_val>
            <right_val>3.1217798590660095e-001</right_val></_></_>
        <_>
          <!-- tree 3 -->
          <_>
            <!-- root node -->
            <feature>
              <rects>
                <_>
                  3 3 8 13 -1.</_>
                <_>
                  5 3 4 13 2.</_></rects>
              <tilted>0</tilted></feature>
            <threshold>1.0922340303659439e-001</threshold>
            <left_val>-1.2247060239315033e-001</left_val>
            <right_val>2.5683128833770752e-001</right_val></_></_>
        <_>
          <!-- tree 4 -->
          <_>
            <!-- root node -->
            <feature>
              <rects>
                <_>
                  1 3 8 13 -1.</_>
                <_>
                  3 3 4 13 2.</_></rects>
              <tilted>0</tilted></feature>
            <threshold>-6.6653150133788586e-003</threshold>
            <left_val>2.3083719611167908e-001</left_val>
            <right_val>-4.8135739564895630e-001</right_val></_></_>
        <_>
          <!-- tree 5 -->
          <_>
            <!-- root node -->
            <feature>
              <rects>
                <_>
                  11 0 1 4 -1.</_>
                <_>
                  11 0 1 2 2.</_></rects>
              <tilted>1</tilted></feature>
            <threshold>-4.5095751993358135e-003</threshold>
            <left_val>1.6601459681987762e-001</left_val>
            <right_val>-1.2917369604110718e-001</right_val></_></_>
        <_>
          <!-- tree 6 -->
          <_>
            <!-- root node -->
            <feature>
              <rects>
                <_>
                  0 1 10 2 -1.</_>
                <_>
                  0 1 5 1 2.</_>
                <_>
                  5 2 5 1 2.</_></rects>
              <tilted>0</tilted></feature>
            <threshold>-1.1136589571833611e-002</threshold>
            <left_val>3.8687920570373535e-001</left_val>
            <right_val>-2.2618110477924347e-001</right_val></_></_>
        <_>
          <!-- tree 7 -->
          <_>
            <!-- root node -->
            <feature>
              <rects>
                <_>
                  4 11 8 5 -1.</_>
                <_>
                  4 11 4 5 2.</_></rects>
              <tilted>0</tilted></feature>
            <threshold>-1.5101970732212067e-001</threshold>
            <left_val>7.8407418727874756e-001</left_val>
            <right_val>-5.6705389171838760e-002</right_val></_></_>
        <_>
          <!-- tree 8 -->
          <_>
            <!-- root node -->
            <feature>
              <rects>
                <_>
                  0 0 1 14 -1.</_>
                <_>
                  0 7 1 7 2.</_></rects>
              <tilted>0</tilted></feature>
            <threshold>3.5842441022396088e-002</threshold>
            <left_val>-3.3353409171104431e-001</left_val>
            <right_val>2.6884201169013977e-001</right_val></_></_>
        <_>
          <!-- tree 9 -->
          <_>
            <!-- root node -->
            <feature>
              <rects>
                <_>
                  8 10 4 6 -1.</_>
                <_>
                  6 12 4 2 3.</_></rects>
              <tilted>1</tilted></feature>
            <threshold>6.0237798839807510e-002</threshold>
            <left_val>6.6777043044567108e-002</left_val>
            <right_val>-5.8397102355957031e-001</right_val></_></_>
        <_>
          <!-- tree 10 -->
          <_>
            <!-- root node -->
            <feature>
              <rects>
                <_>
                  4 10 6 4 -1.</_>
                <_>
                  6 12 2 4 3.</_></rects>
              <tilted>1</tilted></feature>
            <threshold>6.8902626633644104e-002</threshold>
            <left_val>-3.2930138707160950e-001</left_val>
            <right_val>2.3172050714492798e-001</right_val></_></_>
        <_>
          <!-- tree 11 -->
          <_>
            <!-- root node -->
            <feature>
              <rects>
                <_>
                  0 17 12 2 -1.</_>
                <_>
                  0 17 6 2 2.</_></rects>
              <tilted>0</tilted></feature>
            <threshold>-1.1977110058069229e-001</threshold>
            <left_val>7.2716677188873291e-001</left_val>
            <right_val>-1.0525380074977875e-001</right_val></_></_>
        <_>
          <!-- tree 12 -->
          <_>
            <!-- root node -->
            <feature>
              <rects>
                <_>
                  5 6 3 3 -1.</_>
                <_>
                  4 7 3 1 3.</_></rects>
              <tilted>1</tilted></feature>
            <threshold>1.8936740234494209e-002</threshold>
            <left_val>-1.3431450724601746e-001</left_val>
            <right_val>5.6203877925872803e-001</right_val></_></_>
        <_>
          <!-- tree 13 -->
          <_>
            <!-- root node -->
            <feature>
              <rects>
                <_>
                  6 9 6 4 -1.</_>
                <_>
                  6 9 3 4 2.</_></rects>
              <tilted>1</tilted></feature>
            <threshold>8.3808198571205139e-002</threshold>
            <left_val>-4.9557849764823914e-002</left_val>
            <right_val>1.0450640320777893e-001</right_val></_></_>
        <_>
          <!-- tree 14 -->
          <_>
            <!-- root node -->
            <feature>
              <rects>
                <_>
                  6 9 4 6 -1.</_>
                <_>
                  6 9 4 3 2.</_></rects>
              <tilted>1</tilted></feature>
            <threshold>3.3902268856763840e-002</threshold>
            <left_val>9.9094279110431671e-002</left_val>
            <right_val>-7.6239812374114990e-001</right_val></_></_>
        <_>
          <!-- tree 15 -->
          <_>
            <!-- root node -->
            <feature>
              <rects>
                <_>
                  10 0 2 1 -1.</_>
                <_>
                  10 0 1 1 2.</_></rects>
              <tilted>1</tilted></feature>
            <threshold>-8.1007126718759537e-003</threshold>
            <left_val>-4.3555849790573120e-001</left_val>
            <right_val>2.2304659709334373e-002</right_val></_></_>
        <_>
          <!-- tree 16 -->
          <_>
            <!-- root node -->
            <feature>
              <rects>
                <_>
                  2 0 1 2 -1.</_>
                <_>
                  2 0 1 1 2.</_></rects>
              <tilted>1</tilted></feature>
            <threshold>2.4974169209599495e-003</threshold>
            <left_val>9.3714617192745209e-002</left_val>
            <right_val>-6.8376600742340088e-001</right_val></_></_>
        <_>
          <!-- tree 17 -->
          <_>
            <!-- root node -->
            <feature>
              <rects>
                <_>
                  8 9 3 2 -1.</_>
                <_>
                  9 9 1 2 3.</_></rects>
              <tilted>0</tilted></feature>
            <threshold>1.0426550172269344e-002</threshold>
            <left_val>-1.1307760328054428e-001</left_val>
            <right_val>4.3951630592346191e-001</right_val></_></_>
        <_>
          <!-- tree 18 -->
          <_>
            <!-- root node -->
            <feature>
              <rects>
                <_>
                  0 0 2 4 -1.</_>
                <_>
                  1 0 1 4 2.</_></rects>
              <tilted>0</tilted></feature>
            <threshold>-2.4919810239225626e-003</threshold>
            <left_val>-4.9109318852424622e-001</left_val>
            <right_val>1.2399309873580933e-001</right_val></_></_>
        <_>
          <!-- tree 19 -->
          <_>
            <!-- root node -->
            <feature>
              <rects>
                <_>
                  8 9 3 2 -1.</_>
                <_>
                  9 9 1 2 3.</_></rects>
              <tilted>0</tilted></feature>
            <threshold>-4.4614528305828571e-003</threshold>
            <left_val>3.4285509586334229e-001</left_val>
            <right_val>-1.3288980722427368e-001</right_val></_></_>
        <_>
          <!-- tree 20 -->
          <_>
            <!-- root node -->
            <feature>
              <rects>
                <_>
                  1 9 3 2 -1.</_>
                <_>
                  2 9 1 2 3.</_></rects>
              <tilted>0</tilted></feature>
            <threshold>-6.9255861453711987e-003</threshold>
            <left_val>4.0674179792404175e-001</left_val>
            <right_val>-1.4747169613838196e-001</right_val></_></_>
        <_>
          <!-- tree 21 -->
          <_>
            <!-- root node -->
            <feature>
              <rects>
                <_>
                  8 1 4 1 -1.</_>
                <_>
                  9 2 2 1 2.</_></rects>
              <tilted>1</tilted></feature>
            <threshold>1.4747819863259792e-002</threshold>
            <left_val>-1.7921010032296181e-002</left_val>
            <right_val>1.5927059948444366e-001</right_val></_></_>
        <_>
          <!-- tree 22 -->
          <_>
            <!-- root node -->
            <feature>
              <rects>
                <_>
                  4 1 1 4 -1.</_>
                <_>
                  3 2 1 2 2.</_></rects>
              <tilted>1</tilted></feature>
            <threshold>9.8200701177120209e-003</threshold>
            <left_val>8.6944580078125000e-002</left_val>
            <right_val>-6.7220121622085571e-001</right_val></_></_></trees>
      <stage_threshold>-1.2744859457015991e+000</stage_threshold>
      <parent>7</parent>
      <next>-1</next></_>
    <_>
      <!-- stage 9 -->
      <trees>
        <_>
          <!-- tree 0 -->
          <_>
            <!-- root node -->
            <feature>
              <rects>
                <_>
                  0 2 12 4 -1.</_>
                <_>
                  0 4 12 2 2.</_></rects>
              <tilted>0</tilted></feature>
            <threshold>3.0345980077981949e-002</threshold>
            <left_val>-5.6813991069793701e-001</left_val>
            <right_val>2.7571758627891541e-001</right_val></_></_>
        <_>
          <!-- tree 1 -->
          <_>
            <!-- root node -->
            <feature>
              <rects>
                <_>
                  8 9 3 8 -1.</_>
                <_>
                  6 11 3 4 2.</_></rects>
              <tilted>1</tilted></feature>
            <threshold>-4.5385681092739105e-002</threshold>
            <left_val>-5.6568390130996704e-001</left_val>
            <right_val>4.2446270585060120e-002</right_val></_></_>
        <_>
          <!-- tree 2 -->
          <_>
            <!-- root node -->
            <feature>
              <rects>
                <_>
                  2 6 8 14 -1.</_>
                <_>
                  2 6 4 7 2.</_>
                <_>
                  6 13 4 7 2.</_></rects>
              <tilted>0</tilted></feature>
            <threshold>-2.4006670713424683e-001</threshold>
            <left_val>3.9162129163742065e-001</left_val>
            <right_val>-3.0378338694572449e-001</right_val></_></_>
        <_>
          <!-- tree 3 -->
          <_>
            <!-- root node -->
            <feature>
              <rects>
                <_>
                  11 18 1 2 -1.</_>
                <_>
                  11 19 1 1 2.</_></rects>
              <tilted>0</tilted></feature>
            <threshold>-1.0817600414156914e-003</threshold>
            <left_val>-7.0329940319061279e-001</left_val>
            <right_val>1.1626099795103073e-001</right_val></_></_>
        <_>
          <!-- tree 4 -->
          <_>
            <!-- root node -->
            <feature>
              <rects>
                <_>
                  0 18 2 2 -1.</_>
                <_>
                  0 19 2 1 2.</_></rects>
              <tilted>0</tilted></feature>
            <threshold>-1.6060429625213146e-003</threshold>
            <left_val>2.2388499975204468e-001</left_val>
            <right_val>-4.8557040095329285e-001</right_val></_></_>
        <_>
          <!-- tree 5 -->
          <_>
            <!-- root node -->
            <feature>
              <rects>
                <_>
                  6 3 6 3 -1.</_>
                <_>
                  8 5 2 3 3.</_></rects>
              <tilted>1</tilted></feature>
            <threshold>-1.0570240020751953e-001</threshold>
            <left_val>-7.4889171123504639e-001</left_val>
            <right_val>2.8992230072617531e-002</right_val></_></_>
        <_>
          <!-- tree 6 -->
          <_>
            <!-- root node -->
            <feature>
              <rects>
                <_>
                  4 6 4 4 -1.</_>
                <_>
                  4 7 4 2 2.</_></rects>
              <tilted>0</tilted></feature>
            <threshold>-2.3500300012528896e-003</threshold>
            <left_val>2.3428779840469360e-001</left_val>
            <right_val>-4.2647179961204529e-001</right_val></_></_>
        <_>
          <!-- tree 7 -->
          <_>
            <!-- root node -->
            <feature>
              <rects>
                <_>
                  8 0 2 3 -1.</_>
                <_>
                  7 1 2 1 3.</_></rects>
              <tilted>1</tilted></feature>
            <threshold>-6.1817590147256851e-002</threshold>
            <left_val>-8.9189022779464722e-001</left_val>
            <right_val>-1.0216370224952698e-002</right_val></_></_>
        <_>
          <!-- tree 8 -->
          <_>
            <!-- root node -->
            <feature>
              <rects>
                <_>
                  4 0 3 2 -1.</_>
                <_>
                  5 1 1 2 3.</_></rects>
              <tilted>1</tilted></feature>
            <threshold>5.4469848982989788e-003</threshold>
            <left_val>-2.6281470060348511e-001</left_val>
            <right_val>3.1677961349487305e-001</right_val></_></_>
        <_>
          <!-- tree 9 -->
          <_>
            <!-- root node -->
            <feature>
              <rects>
                <_>
                  11 7 1 2 -1.</_>
                <_>
                  11 8 1 1 2.</_></rects>
              <tilted>0</tilted></feature>
            <threshold>-6.7602698691189289e-003</threshold>
            <left_val>-7.9144752025604248e-001</left_val>
            <right_val>1.2072199955582619e-002</right_val></_></_>
        <_>
          <!-- tree 10 -->
          <_>
            <!-- root node -->
            <feature>
              <rects>
                <_>
                  0 7 1 2 -1.</_>
                <_>
                  0 8 1 1 2.</_></rects>
              <tilted>0</tilted></feature>
            <threshold>7.8887082054279745e-005</threshold>
            <left_val>-4.4443818926811218e-001</left_val>
            <right_val>1.9887650012969971e-001</right_val></_></_>
        <_>
          <!-- tree 11 -->
          <_>
            <!-- root node -->
            <feature>
              <rects>
                <_>
                  4 0 8 8 -1.</_>
                <_>
                  6 0 4 8 2.</_></rects>
              <tilted>0</tilted></feature>
            <threshold>6.4817398786544800e-002</threshold>
            <left_val>-2.3440040647983551e-001</left_val>
            <right_val>2.8372839093208313e-001</right_val></_></_>
        <_>
          <!-- tree 12 -->
          <_>
            <!-- root node -->
            <feature>
              <rects>
                <_>
                  0 12 12 7 -1.</_>
                <_>
                  6 12 6 7 2.</_></rects>
              <tilted>0</tilted></feature>
            <threshold>2.9690501093864441e-001</threshold>
            <left_val>-1.1379630118608475e-001</left_val>
            <right_val>8.4734469652175903e-001</right_val></_></_>
        <_>
          <!-- tree 13 -->
          <_>
            <!-- root node -->
            <feature>
              <rects>
                <_>
                  8 0 2 1 -1.</_>
                <_>
                  8 0 1 1 2.</_></rects>
              <tilted>1</tilted></feature>
            <threshold>-1.2669449672102928e-002</threshold>
            <left_val>-5.3791618347167969e-001</left_val>
            <right_val>5.0364010035991669e-002</right_val></_></_>
        <_>
          <!-- tree 14 -->
          <_>
            <!-- root node -->
            <feature>
              <rects>
                <_>
                  4 0 1 2 -1.</_>
                <_>
                  4 0 1 1 2.</_></rects>
              <tilted>1</tilted></feature>
            <threshold>3.2963419798761606e-003</threshold>
            <left_val>9.5009326934814453e-002</left_val>
            <right_val>-6.9295811653137207e-001</right_val></_></_>
        <_>
          <!-- tree 15 -->
          <_>
            <!-- root node -->
            <feature>
              <rects>
                <_>
                  6 10 2 6 -1.</_>
                <_>
                  4 12 2 2 3.</_></rects>
              <tilted>1</tilted></feature>
            <threshold>8.1940039992332458e-002</threshold>
            <left_val>6.4861620776355267e-003</left_val>
            <right_val>-4.8242160677909851e-001</right_val></_></_>
        <_>
          <!-- tree 16 -->
          <_>
            <!-- root node -->
            <feature>
              <rects>
                <_>
                  0 4 1 3 -1.</_>
                <_>
                  0 5 1 1 3.</_></rects>
              <tilted>0</tilted></feature>
            <threshold>4.5874840579926968e-003</threshold>
            <left_val>7.4269242584705353e-002</left_val>
            <right_val>-8.5056728124618530e-001</right_val></_></_>
        <_>
          <!-- tree 17 -->
          <_>
            <!-- root node -->
            <feature>
              <rects>
                <_>
                  9 8 3 4 -1.</_>
                <_>
                  10 8 1 4 3.</_></rects>
              <tilted>0</tilted></feature>
            <threshold>1.3228190131485462e-002</threshold>
            <left_val>-1.8141390383243561e-001</left_val>
            <right_val>5.5488282442092896e-001</right_val></_></_>
        <_>
          <!-- tree 18 -->
          <_>
            <!-- root node -->
            <feature>
              <rects>
                <_>
                  0 6 1 2 -1.</_>
                <_>
                  0 7 1 1 2.</_></rects>
              <tilted>0</tilted></feature>
            <threshold>8.3280639955773950e-005</threshold>
            <left_val>-3.5342589020729065e-001</left_val>
            <right_val>1.6182580590248108e-001</right_val></_></_>
        <_>
          <!-- tree 19 -->
          <_>
            <!-- root node -->
            <feature>
              <rects>
                <_>
                  4 4 6 12 -1.</_>
                <_>
                  4 7 6 6 2.</_></rects>
              <tilted>0</tilted></feature>
            <threshold>9.3232236802577972e-002</threshold>
            <left_val>3.6166220903396606e-002</left_val>
            <right_val>-3.9560291171073914e-001</right_val></_></_>
        <_>
          <!-- tree 20 -->
          <_>
            <!-- root node -->
            <feature>
              <rects>
                <_>
                  3 16 4 4 -1.</_>
                <_>
                  3 18 4 2 2.</_></rects>
              <tilted>0</tilted></feature>
            <threshold>-1.7989000305533409e-002</threshold>
            <left_val>1.8585060536861420e-001</left_val>
            <right_val>-2.9997050762176514e-001</right_val></_></_>
        <_>
          <!-- tree 21 -->
          <_>
            <!-- root node -->
            <feature>
              <rects>
                <_>
                  6 3 3 6 -1.</_>
                <_>
                  7 4 1 6 3.</_></rects>
              <tilted>1</tilted></feature>
            <threshold>8.5582181811332703e-002</threshold>
            <left_val>-2.3212260566651821e-003</left_val>
            <right_val>-7.5706237554550171e-001</right_val></_></_>
        <_>
          <!-- tree 22 -->
          <_>
            <!-- root node -->
            <feature>
              <rects>
                <_>
                  6 3 6 3 -1.</_>
                <_>
                  5 4 6 1 3.</_></rects>
              <tilted>1</tilted></feature>
            <threshold>1.4874819666147232e-002</threshold>
            <left_val>-2.1825970709323883e-001</left_val>
            <right_val>2.7366569638252258e-001</right_val></_></_>
        <_>
          <!-- tree 23 -->
          <_>
            <!-- root node -->
            <feature>
              <rects>
                <_>
                  7 5 3 3 -1.</_>
                <_>
                  8 6 1 3 3.</_></rects>
              <tilted>1</tilted></feature>
            <threshold>2.0184369757771492e-002</threshold>
            <left_val>3.5116590559482574e-002</left_val>
            <right_val>-4.5619380474090576e-001</right_val></_></_>
        <_>
          <!-- tree 24 -->
          <_>
            <!-- root node -->
            <feature>
              <rects>
                <_>
                  5 5 3 3 -1.</_>
                <_>
                  4 6 3 1 3.</_></rects>
              <tilted>1</tilted></feature>
            <threshold>1.4273890294134617e-002</threshold>
            <left_val>-1.2478730082511902e-001</left_val>
            <right_val>6.1065578460693359e-001</right_val></_></_>
        <_>
          <!-- tree 25 -->
          <_>
            <!-- root node -->
            <feature>
              <rects>
                <_>
                  11 0 1 6 -1.</_>
                <_>
                  11 3 1 3 2.</_></rects>
              <tilted>0</tilted></feature>
            <threshold>2.6945620775222778e-002</threshold>
            <left_val>-5.6217260658740997e-002</left_val>
            <right_val>4.3960160017013550e-001</right_val></_></_>
        <_>
          <!-- tree 26 -->
          <_>
            <!-- root node -->
            <feature>
              <rects>
                <_>
                  0 4 6 16 -1.</_>
                <_>
                  0 12 6 8 2.</_></rects>
              <tilted>0</tilted></feature>
            <threshold>-1.4722250401973724e-002</threshold>
            <left_val>-7.0504772663116455e-001</left_val>
            <right_val>8.9823968708515167e-002</right_val></_></_>
        <_>
          <!-- tree 27 -->
          <_>
            <!-- root node -->
            <feature>
              <rects>
                <_>
                  11 0 1 6 -1.</_>
                <_>
                  11 3 1 3 2.</_></rects>
              <tilted>0</tilted></feature>
            <threshold>-3.9676232263445854e-003</threshold>
            <left_val>-2.0258559286594391e-001</left_val>
            <right_val>2.4594809859991074e-002</right_val></_></_>
        <_>
          <!-- tree 28 -->
          <_>
            <!-- root node -->
            <feature>
              <rects>
                <_>
                  6 12 6 1 -1.</_>
                <_>
                  6 12 3 1 2.</_></rects>
              <tilted>1</tilted></feature>
            <threshold>-6.9255158305168152e-002</threshold>
            <left_val>7.7862018346786499e-001</left_val>
            <right_val>-8.2329802215099335e-002</right_val></_></_></trees>
      <stage_threshold>-1.3562519550323486e+000</stage_threshold>
      <parent>8</parent>
      <next>-1</next></_>
    <_>
      <!-- stage 10 -->
      <trees>
        <_>
          <!-- tree 0 -->
          <_>
            <!-- root node -->
            <feature>
              <rects>
                <_>
                  0 13 12 3 -1.</_>
                <_>
                  3 13 6 3 2.</_></rects>
              <tilted>0</tilted></feature>
            <threshold>4.2280860245227814e-002</threshold>
            <left_val>-4.3323940038681030e-001</left_val>
            <right_val>3.1084230542182922e-001</right_val></_></_>
        <_>
          <!-- tree 1 -->
          <_>
            <!-- root node -->
            <feature>
              <rects>
                <_>
                  4 6 8 2 -1.</_>
                <_>
                  6 6 4 2 2.</_></rects>
              <tilted>0</tilted></feature>
            <threshold>3.2466039061546326e-002</threshold>
            <left_val>-2.5457349419593811e-001</left_val>
            <right_val>2.8453230857849121e-001</right_val></_></_>
        <_>
          <!-- tree 2 -->
          <_>
            <!-- root node -->
            <feature>
              <rects>
                <_>
                  4 2 4 2 -1.</_>
                <_>
                  4 2 2 1 2.</_>
                <_>
                  6 3 2 1 2.</_></rects>
              <tilted>0</tilted></feature>
            <threshold>3.9204079657793045e-003</threshold>
            <left_val>-2.4197019636631012e-001</left_val>
            <right_val>3.8850378990173340e-001</right_val></_></_>
        <_>
          <!-- tree 3 -->
          <_>
            <!-- root node -->
            <feature>
              <rects>
                <_>
                  10 0 2 6 -1.</_>
                <_>
                  10 3 2 3 2.</_></rects>
              <tilted>0</tilted></feature>
            <threshold>1.4881529845297337e-002</threshold>
            <left_val>-2.0224849879741669e-001</left_val>
            <right_val>2.0803029835224152e-001</right_val></_></_>
        <_>
          <!-- tree 4 -->
          <_>
            <!-- root node -->
            <feature>
              <rects>
                <_>
                  0 4 4 4 -1.</_>
                <_>
                  0 4 2 2 2.</_>
                <_>
                  2 6 2 2 2.</_></rects>
              <tilted>0</tilted></feature>
            <threshold>-4.8258059541694820e-004</threshold>
            <left_val>2.0644129812717438e-001</left_val>
            <right_val>-4.6135428547859192e-001</right_val></_></_>
        <_>
          <!-- tree 5 -->
          <_>
            <!-- root node -->
            <feature>
              <rects>
                <_>
                  10 0 2 6 -1.</_>
                <_>
                  10 3 2 3 2.</_></rects>
              <tilted>0</tilted></feature>
            <threshold>1.0871110111474991e-001</threshold>
            <left_val>-1.1968149803578854e-002</left_val>
            <right_val>-8.3505737781524658e-001</right_val></_></_>
        <_>
          <!-- tree 6 -->
          <_>
            <!-- root node -->
            <feature>
              <rects>
                <_>
                  0 0 2 6 -1.</_>
                <_>
                  0 3 2 3 2.</_></rects>
              <tilted>0</tilted></feature>
            <threshold>1.1553530202945694e-004</threshold>
            <left_val>-6.2181282043457031e-001</left_val>
            <right_val>1.2894719839096069e-001</right_val></_></_>
        <_>
          <!-- tree 7 -->
          <_>
            <!-- root node -->
            <feature>
              <rects>
                <_>
                  11 18 1 2 -1.</_>
                <_>
                  11 19 1 1 2.</_></rects>
              <tilted>0</tilted></feature>
            <threshold>1.9984820391982794e-003</threshold>
            <left_val>1.2071420252323151e-001</left_val>
            <right_val>-5.1865231990814209e-001</right_val></_></_>
        <_>
          <!-- tree 8 -->
          <_>
            <!-- root node -->
            <feature>
              <rects>
                <_>
                  0 18 1 2 -1.</_>
                <_>
                  0 19 1 1 2.</_></rects>
              <tilted>0</tilted></feature>
            <threshold>-1.9442409393377602e-004</threshold>
            <left_val>1.5316960215568542e-001</left_val>
            <right_val>-4.6682178974151611e-001</right_val></_></_>
        <_>
          <!-- tree 9 -->
          <_>
            <!-- root node -->
            <feature>
              <rects>
                <_>
                  6 13 1 6 -1.</_>
                <_>
                  6 13 1 3 2.</_></rects>
              <tilted>1</tilted></feature>
            <threshold>3.4691508859395981e-002</threshold>
            <left_val>5.2325479686260223e-002</left_val>
            <right_val>-5.6493771076202393e-001</right_val></_></_>
        <_>
          <!-- tree 10 -->
          <_>
            <!-- root node -->
            <feature>
              <rects>
                <_>
                  0 17 12 3 -1.</_>
                <_>
                  6 17 6 3 2.</_></rects>
              <tilted>0</tilted></feature>
            <threshold>1.2708869576454163e-001</threshold>
            <left_val>-1.1623410135507584e-001</left_val>
            <right_val>6.6390967369079590e-001</right_val></_></_>
        <_>
          <!-- tree 11 -->
          <_>
            <!-- root node -->
            <feature>
              <rects>
                <_>
                  0 13 12 6 -1.</_>
                <_>
                  0 13 6 6 2.</_></rects>
              <tilted>0</tilted></feature>
            <threshold>1.8425850570201874e-001</threshold>
            <left_val>-2.9410699009895325e-001</left_val>
            <right_val>2.7760609984397888e-001</right_val></_></_>
        <_>
          <!-- tree 12 -->
          <_>
            <!-- root node -->
            <feature>
              <rects>
                <_>
                  0 5 8 4 -1.</_>
                <_>
                  0 5 4 2 2.</_>
                <_>
                  4 7 4 2 2.</_></rects>
              <tilted>0</tilted></feature>
            <threshold>-1.0079169645905495e-002</threshold>
            <left_val>2.0110170543193817e-001</left_val>
            <right_val>-3.7747490406036377e-001</right_val></_></_>
        <_>
          <!-- tree 13 -->
          <_>
            <!-- root node -->
            <feature>
              <rects>
                <_>
                  1 0 10 3 -1.</_>
                <_>
                  1 1 10 1 3.</_></rects>
              <tilted>0</tilted></feature>
            <threshold>2.3211309686303139e-002</threshold>
            <left_val>-1.5770949423313141e-001</left_val>
            <right_val>4.1628879308700562e-001</right_val></_></_>
        <_>
          <!-- tree 14 -->
          <_>
            <!-- root node -->
            <feature>
              <rects>
                <_>
                  0 2 12 6 -1.</_>
                <_>
                  0 5 12 3 2.</_></rects>
              <tilted>0</tilted></feature>
            <threshold>-8.5837738588452339e-003</threshold>
            <left_val>-6.4297300577163696e-001</left_val>
            <right_val>9.1064400970935822e-002</right_val></_></_>
        <_>
          <!-- tree 15 -->
          <_>
            <!-- root node -->
            <feature>
              <rects>
                <_>
