<?xml version="1.0"?>
<!--
  22x5 Eye pair detector computed with 7000 positive samples

//////////////////////////////////////////////////////////////////////////
| Contributors License Agreement
| IMPORTANT: READ BEFORE DOWNLOADING, COPYING, INSTALLING OR USING.
|   By downloading, copying, installing or using the software you agree 
|   to this license.
|   If you do not agree to this license, do not download, install,
|   copy or use the software.
|
| Copyright (c) 2006, Modesto Castrillon-Santana (IUSIANI, University of
| Las Palmas de Gran Canaria, Spain).
|  All rights reserved.
|
| Redistribution and use in source and binary forms, with or without
| modification, are permitted provided that the following conditions are
| met:
|
|    * Redistributions of source code must retain the above copyright
|       notice, this list of conditions and the following disclaimer.
|    * Redistributions in binary form must reproduce the above
|      copyright notice, this list of conditions and the following
|      disclaimer in the documentation and/or other materials provided
|      with the distribution.  
|    * The name of Contributor may not used to endorse or promote products 
|      derived from this software without specific prior written permission.
|
| THIS SOFTWARE IS PROVIDED BY THE COPYRIGHT HOLDERS AND CONTRIBUTORS
| "AS IS" AND ANY EXPRESS OR IMPLIED WARRANTIES, INCLUDING, BUT NOT
| LIMITED TO, THE IMPLIED WARRANTIES OF MERCHANTABILITY AND FITNESS FOR
| A PARTICULAR PURPOSE ARE DISCLAIMED. IN NO EVENT SHALL THE
| CONTRIBUTORS BE LIABLE FOR ANY DIRECT, INDIRECT, INCIDENTAL, SPECIAL,
| EXEMPLARY, OR CONSEQUENTIAL DAMAGES (INCLUDING, BUT NOT LIMITED TO,
| PROCUREMENT OF SUBSTITUTE GOODS OR SERVICES; LOSS OF USE, DATA, OR
| PROFITS; OR BUSINESS INTERRUPTION) HOWEVER CAUSED AND ON ANY THEORY OF
| LIABILITY, WHETHER IN CONTRACT, STRICT LIABILITY, OR TORT (INCLUDING
| NEGLIGENCE OR OTHERWISE) ARISING IN ANY WAY OUT OF THE USE OF THIS
| SOFTWARE, EVEN IF ADVISED OF THE POSSIBILITY OF SUCH DAMAGE.  Back to
| Top
//////////////////////////////////////////////////////////////////////////

RESEARCH USE:
If you are using any of the detectors or involved ideas please cite one of these papers:

@ARTICLE{Castrillon07-jvci,
  author =       "Castrill\'on Santana, M. and D\'eniz Su\'arez, O. and Hern\'andez Tejera, M. and Guerra Artal, C.",
  title =        "ENCARA2: Real-time Detection of Multiple Faces at Different Resolutions in Video Streams",
  journal =      "Journal of Visual Communication and Image Representation",
  year =         "2007",
  vol =          "18",
  issue =        "2",
  month =        "April",
  pages =        "130-140"
}

@INPROCEEDINGS{Castrillon07-swb,
  author =       "Castrill\'on Santana, M. and D\'eniz Su\'arez, O. and Hern\'andez Sosa, D. and Lorenzo Navarro, J. ",
  title =        "Using Incremental Principal Component Analysis to Learn a Gender Classifier Automatically",
  booktitle =    "1st Spanish Workshop on Biometrics",
  year =         "2007",
  month =        "June",
  address =      "Girona, Spain",
  file = F
}

A comparison of this and other face related classifiers can be found in:

@InProceedings{Castrillon08a-visapp,
 'athor =       "Modesto Castrill\'on-Santana and O. D\'eniz-Su\'arez, L. Ant\'on-Canal\'{\i}s and J. Lorenzo-Navarro",
  title =        "Face and Facial Feature Detection Evaluation"
  booktitle =    "Third International Conference on Computer Vision Theory and Applications, VISAPP08"
  year =         "2008",
  month =        "January"
}

More information can be found at http://mozart.dis.ulpgc.es/Gias/modesto_eng.html or in the papers.

COMMERCIAL USE:
If you have any commercial interest in this work please contact 
mcastrillon@iusiani.ulpgc.es
-->
<opencv_storage>
<cascade type_id="opencv-cascade-classifier"><stageType>BOOST</stageType>
  <featureType>HAAR</featureType>
  <height>22</height>
  <width>5</width>
  <stageParams>
    <maxWeakCount>133</maxWeakCount></stageParams>
  <featureParams>
    <maxCatCount>0</maxCatCount></featureParams>
  <stageNum>17</stageNum>
  <stages>
    <_>
      <maxWeakCount>7</maxWeakCount>
      <stageThreshold>-1.7232350111007690e+00</stageThreshold>
      <weakClassifiers>
        <_>
          <internalNodes>
            0 -1 0 2.5266629457473755e-01</internalNodes>
          <leafValues>
            -7.7110642194747925e-01 8.0833798646926880e-01</leafValues></_>
        <_>
          <internalNodes>
            0 -1 1 5.6097120977938175e-03</internalNodes>
          <leafValues>
            -7.3824870586395264e-01 3.8851681351661682e-01</leafValues></_>
        <_>
          <internalNodes>
            0 -1 2 1.5298590064048767e-01</internalNodes>
          <leafValues>
            -5.5244392156600952e-01 6.4289671182632446e-01</leafValues></_>
        <_>
          <internalNodes>
            0 -1 3 -4.1561521589756012e-02</internalNodes>
          <leafValues>
            4.6287709474563599e-01 -5.3415888547897339e-01</leafValues></_>
        <_>
          <internalNodes>
            0 -1 4 4.0643951296806335e-01</internalNodes>
          <leafValues>
            1.7092859372496605e-02 -4.6732509765625000e+03</leafValues></_>
        <_>
          <internalNodes>
            0 -1 5 2.9633469879627228e-02</internalNodes>
          <leafValues>
            -4.4348448514938354e-01 5.0703012943267822e-01</leafValues></_>
        <_>
          <internalNodes>
            0 -1 6 1.0285720054525882e-04</internalNodes>
          <leafValues>
            -6.6466391086578369e-01 3.0207848548889160e-01</leafValues></_></weakClassifiers></_>
    <_>
      <maxWeakCount>7</maxWeakCount>
      <stageThreshold>-1.4015640020370483e+00</stageThreshold>
      <weakClassifiers>
        <_>
          <internalNodes>
            0 -1 7 3.3425179123878479e-01</internalNodes>
          <leafValues>
            -6.5658462047576904e-01 7.2224652767181396e-01</leafValues></_>
        <_>
          <internalNodes>
            0 -1 8 3.4681979566812515e-02</internalNodes>
          <leafValues>
            -6.5526360273361206e-01 5.4633998870849609e-01</leafValues></_>
        <_>
          <internalNodes>
            0 -1 9 -5.3489811718463898e-02</internalNodes>
          <leafValues>
            4.9894320964813232e-01 -5.0774151086807251e-01</leafValues></_>
        <_>
          <internalNodes>
            0 -1 10 1.0272119939327240e-01</internalNodes>
          <leafValues>
            -2.8445309400558472e-01 4.0494489669799805e-01</leafValues></_>
        <_>
          <internalNodes>
            0 -1 11 1.4077969535719603e-04</internalNodes>
          <leafValues>
            -7.9020249843597412e-01 3.4440949559211731e-01</leafValues></_>
        <_>
          <internalNodes>
            0 -1 12 2.3227030038833618e-01</internalNodes>
          <leafValues>
            -1.3018049299716949e-01 4.3139758706092834e-01</leafValues></_>
        <_>
          <internalNodes>
            0 -1 13 8.0413393676280975e-02</internalNodes>
          <leafValues>
            -4.6376779675483704e-01 4.8824951052665710e-01</leafValues></_></weakClassifiers></_>
    <_>
      <maxWeakCount>14</maxWeakCount>
      <stageThreshold>-1.9015949964523315e+00</stageThreshold>
      <weakClassifiers>
        <_>
          <internalNodes>
            0 -1 14 3.5276851058006287e-01</internalNodes>
          <leafValues>
            -6.3080090284347534e-01 6.5199118852615356e-01</leafValues></_>
        <_>
          <internalNodes>
            0 -1 15 7.3224060237407684e-02</internalNodes>
          <leafValues>
            -5.9558337926864624e-01 4.8831069469451904e-01</leafValues></_>
        <_>
          <internalNodes>
            0 -1 16 -2.2634120658040047e-02</internalNodes>
          <leafValues>
            4.1987290978431702e-01 -5.6545442342758179e-01</leafValues></_>
        <_>
          <internalNodes>
            0 -1 17 2.2298170626163483e-01</internalNodes>
          <leafValues>
            -3.1860861182212830e-01 4.8772248625755310e-01</leafValues></_>
        <_>
          <internalNodes>
            0 -1 18 1.8357429653406143e-02</internalNodes>
          <leafValues>
            -4.0862768888473511e-01 3.9951491355895996e-01</leafValues></_>
        <_>
          <internalNodes>
            0 -1 19 1.2711199815385044e-04</internalNodes>
          <leafValues>
            -4.7230800986289978e-01 2.0521849393844604e-01</leafValues></_>
        <_>
          <internalNodes>
            0 -1 20 1.0834160260856152e-02</internalNodes>
          <leafValues>
            1.3318300247192383e-01 -7.7914947271347046e-01</leafValues></_>
        <_>
          <internalNodes>
            0 -1 21 -7.9301595687866211e-03</internalNodes>
          <leafValues>
            -5.9789812564849854e-01 4.9372468143701553e-02</leafValues></_>
        <_>
          <internalNodes>
            0 -1 22 2.9459610581398010e-01</internalNodes>
          <leafValues>
            -9.9943317472934723e-03 -3.9346069335937500e+03</leafValues></_>
        <_>
          <internalNodes>
            0 -1 23 2.3979870602488518e-02</internalNodes>
          <leafValues>
            6.5359488129615784e-02 -5.0484991073608398e-01</leafValues></_>
        <_>
          <internalNodes>
            0 -1 24 1.0285720054525882e-04</internalNodes>
          <leafValues>
            -6.2231910228729248e-01 1.3749890029430389e-01</leafValues></_>
        <_>
          <internalNodes>
            0 -1 25 1.3282659649848938e-01</internalNodes>
          <leafValues>
            -3.4161621332168579e-01 2.7172261476516724e-01</leafValues></_>
        <_>
          <internalNodes>
            0 -1 26 -3.7376780062913895e-02</internalNodes>
          <leafValues>
            -7.4671339988708496e-01 1.1474339663982391e-01</leafValues></_>
        <_>
          <internalNodes>
            0 -1 27 7.3414398357272148e-03</internalNodes>
          <leafValues>
            -3.4962359070777893e-01 1.2929069995880127e-01</leafValues></_></weakClassifiers></_>
    <_>
      <maxWeakCount>21</maxWeakCount>
      <stageThreshold>-1.8471280336380005e+00</stageThreshold>
      <weakClassifiers>
        <_>
          <internalNodes>
            0 -1 28 3.5913649201393127e-01</internalNodes>
          <leafValues>
            -5.8520388603210449e-01 5.8315628767013550e-01</leafValues></_>
        <_>
          <internalNodes>
            0 -1 29 -9.2016262933611870e-03</internalNodes>
          <leafValues>
            2.3378680646419525e-01 -5.2131319046020508e-01</leafValues></_>
        <_>
          <internalNodes>
            0 -1 30 -1.5467359684407711e-02</internalNodes>
          <leafValues>
            3.3575141429901123e-01 -5.4084789752960205e-01</leafValues></_>
        <_>
          <internalNodes>
            0 -1 31 1.5523830056190491e-01</internalNodes>
          <leafValues>
            -4.6488308906555176e-01 4.3957579135894775e-01</leafValues></_>
        <_>
          <internalNodes>
            0 -1 32 -1.0378899984061718e-02</internalNodes>
          <leafValues>
            2.2855420410633087e-01 -4.7472599148750305e-01</leafValues></_>
        <_>
          <internalNodes>
            0 -1 33 -7.5254109688103199e-03</internalNodes>
          <leafValues>
            3.0168649554252625e-01 -2.8491249680519104e-01</leafValues></_>
        <_>
          <internalNodes>
            0 -1 34 -1.2629480625037104e-04</internalNodes>
          <leafValues>
            2.2317290306091309e-01 -3.9811360836029053e-01</leafValues></_>
        <_>
          <internalNodes>
            0 -1 35 1.2507449719123542e-04</internalNodes>
          <leafValues>
            -3.6723288893699646e-01 1.3852049410343170e-01</leafValues></_>
        <_>
          <internalNodes>
            0 -1 36 -9.0782120823860168e-03</internalNodes>
          <leafValues>
            -6.8277508020401001e-01 1.0983029752969742e-01</leafValues></_>
        <_>
          <internalNodes>
            0 -1 37 -4.9800768494606018e-02</internalNodes>
          <leafValues>
            -7.1183747053146362e-01 9.5877766609191895e-02</leafValues></_>
        <_>
          <internalNodes>
            0 -1 38 1.0729680210351944e-01</internalNodes>
          <leafValues>
            -1.9828429445624352e-02 -2.6988120117187500e+03</leafValues></_>
        <_>
          <internalNodes>
            0 -1 39 -2.9545628931373358e-03</internalNodes>
          <leafValues>
            -5.9663408994674683e-01 1.4378489553928375e-01</leafValues></_>
        <_>
          <internalNodes>
            0 -1 40 1.2507449719123542e-04</internalNodes>
          <leafValues>
            -4.2198759317398071e-01 1.2654370069503784e-01</leafValues></_>
        <_>
          <internalNodes>
            0 -1 41 5.0712730735540390e-02</internalNodes>
          <leafValues>
            3.6825660616159439e-02 -7.2819608449935913e-01</leafValues></_>
        <_>
          <internalNodes>
            0 -1 42 1.4936710067559034e-04</internalNodes>
          <leafValues>
            -5.3859847784042358e-01 1.2984189391136169e-01</leafValues></_>
        <_>
          <internalNodes>
            0 -1 43 2.4373650550842285e-01</internalNodes>
          <leafValues>
            5.6961510330438614e-02 -7.1023291349411011e-01</leafValues></_>
        <_>
          <internalNodes>
            0 -1 44 -6.0015019029378891e-02</internalNodes>
          <leafValues>
            2.4694560468196869e-01 -2.5020390748977661e-01</leafValues></_>
        <_>
          <internalNodes>
            0 -1 45 8.7412662804126740e-02</internalNodes>
          <leafValues>
            5.8552309870719910e-02 -2.8725269436836243e-01</leafValues></_>
        <_>
          <internalNodes>
            0 -1 46 -9.0919047594070435e-02</internalNodes>
          <leafValues>
            -6.8815648555755615e-01 8.8074482977390289e-02</leafValues></_>
        <_>
          <internalNodes>
            0 -1 47 1.4819550514221191e-01</internalNodes>
          <leafValues>
            -8.3346709609031677e-02 5.1286262273788452e-01</leafValues></_>
        <_>
          <internalNodes>
            0 -1 48 2.1776199340820312e-01</internalNodes>
          <leafValues>
            -1.1302039772272110e-01 4.8981839418411255e-01</leafValues></_></weakClassifiers></_>
    <_>
      <maxWeakCount>23</maxWeakCount>
      <stageThreshold>-1.7498610019683838e+00</stageThreshold>
      <weakClassifiers>
        <_>
          <internalNodes>
            0 -1 49 2.4087640643119812e-01</internalNodes>
          <leafValues>
            -5.4511332511901855e-01 4.9997121095657349e-01</leafValues></_>
        <_>
          <internalNodes>
            0 -1 50 9.1455027461051941e-02</internalNodes>
          <leafValues>
            -5.4530072212219238e-01 3.6511918902397156e-01</leafValues></_>
        <_>
          <internalNodes>
            0 -1 51 6.2960892915725708e-02</internalNodes>
          <leafValues>
            -4.5040848851203918e-01 3.1278419494628906e-01</leafValues></_>
        <_>
          <internalNodes>
            0 -1 52 -4.4865939766168594e-02</internalNodes>
          <leafValues>
            3.8191598653793335e-01 -4.0314820408821106e-01</leafValues></_>
        <_>
          <internalNodes>
            0 -1 53 -1.3774819672107697e-02</internalNodes>
          <leafValues>
            2.5567761063575745e-01 -5.2795022726058960e-01</leafValues></_>
        <_>
          <internalNodes>
            0 -1 54 3.0930969864130020e-02</internalNodes>
          <leafValues>
            -3.2184159755706787e-01 3.2615759968757629e-01</leafValues></_>
        <_>
          <internalNodes>
            0 -1 55 2.8891479596495628e-03</internalNodes>
          <leafValues>
            -5.8948808908462524e-01 1.3433440029621124e-01</leafValues></_>
        <_>
          <internalNodes>
            0 -1 56 8.0474298447370529e-03</internalNodes>
          <leafValues>
            1.3132849335670471e-01 -6.8602150678634644e-01</leafValues></_>
        <_>
          <internalNodes>
            0 -1 57 9.5555791631340981e-03</internalNodes>
          <leafValues>
            9.8187282681465149e-02 -6.7927527427673340e-01</leafValues></_>
        <_>
          <internalNodes>
            0 -1 58 -3.1676879152655602e-03</internalNodes>
          <leafValues>
            1.1390289664268494e-01 -2.3203469812870026e-01</leafValues></_>
        <_>
          <internalNodes>
            0 -1 59 -1.6496120020747185e-02</internalNodes>
          <leafValues>
            2.5697690248489380e-01 -2.6603409647941589e-01</leafValues></_>
        <_>
          <internalNodes>
            0 -1 60 -9.6434041857719421e-02</internalNodes>
          <leafValues>
            -6.8036687374114990e-01 2.6103440672159195e-02</leafValues></_>
        <_>
          <internalNodes>
            0 -1 61 -1.0129880160093307e-02</internalNodes>
          <leafValues>
            2.6537680625915527e-01 -2.8654828667640686e-01</leafValues></_>
        <_>
          <internalNodes>
            0 -1 62 3.5491649759933352e-04</internalNodes>
          <leafValues>
            -4.5001238584518433e-01 1.5570540726184845e-01</leafValues></_>
        <_>
          <internalNodes>
            0 -1 63 -1.0879360139369965e-02</internalNodes>
          <leafValues>
            2.8526028990745544e-01 -2.2041590511798859e-01</leafValues></_>
        <_>
          <internalNodes>
            0 -1 64 -1.3320960104465485e-02</internalNodes>
          <leafValues>
            -6.2863361835479736e-01 7.5602389872074127e-02</leafValues></_>
        <_>
          <internalNodes>
            0 -1 65 9.1701131314039230e-03</internalNodes>
          <leafValues>
            1.0672529786825180e-01 -5.6462252140045166e-01</leafValues></_>
        <_>
          <internalNodes>
            0 -1 66 -1.7562079429626465e-01</internalNodes>
          <leafValues>
            6.0234647989273071e-01 -1.1059260368347168e-01</leafValues></_>
        <_>
          <internalNodes>
            0 -1 67 3.4105561673641205e-02</internalNodes>
          <leafValues>
            1.3363470137119293e-01 -4.9567678570747375e-01</leafValues></_>
        <_>
          <internalNodes>
            0 -1 68 -6.4384371042251587e-02</internalNodes>
          <leafValues>
            -5.8806449174880981e-01 3.2023940235376358e-02</leafValues></_>
        <_>
          <internalNodes>
            0 -1 69 -4.6032480895519257e-02</internalNodes>
          <leafValues>
            -6.1432898044586182e-01 9.9403113126754761e-02</leafValues></_>
        <_>
          <internalNodes>
            0 -1 70 -3.8402248173952103e-02</internalNodes>
          <leafValues>
            1.6040940582752228e-01 -1.8730519711971283e-01</leafValues></_>
        <_>
          <internalNodes>
            0 -1 71 -4.7098070383071899e-01</internalNodes>
          <leafValues>
            -8.1419098377227783e-01 6.2802910804748535e-02</leafValues></_></weakClassifiers></_>
    <_>
      <maxWeakCount>26</maxWeakCount>
      <stageThreshold>-1.6923429965972900e+00</stageThreshold>
      <weakClassifiers>
        <_>
          <internalNodes>
            0 -1 72 4.0789580345153809e-01</internalNodes>
          <leafValues>
            -2.1667710097972304e-04 4.0943940429687500e+03</leafValues></_>
        <_>
          <internalNodes>
            0 -1 73 2.2189030051231384e-01</internalNodes>
          <leafValues>
            -5.7190257310867310e-01 3.1764110922813416e-01</leafValues></_>
        <_>
          <internalNodes>
            0 -1 74 -6.7908123135566711e-02</internalNodes>
          <leafValues>
            4.2148721218109131e-01 -4.6982499957084656e-01</leafValues></_>
        <_>
          <internalNodes>
            0 -1 75 8.1082796677947044e-03</internalNodes>
          <leafValues>
            1.2259560078382492e-01 -4.1368159651756287e-01</leafValues></_>
        <_>
          <internalNodes>
            0 -1 76 1.7519680783152580e-02</internalNodes>
          <leafValues>
            -3.8625329732894897e-01 3.0897051095962524e-01</leafValues></_>
        <_>
          <internalNodes>
            0 -1 77 8.1193387508392334e-02</internalNodes>
          <leafValues>
            -6.3750207424163818e-01 3.8393190503120422e-01</leafValues></_>
        <_>
          <internalNodes>
            0 -1 78 1.4751380681991577e-01</internalNodes>
          <leafValues>
            -4.6316000819206238e-01 2.4519099295139313e-01</leafValues></_>
        <_>
          <internalNodes>
            0 -1 79 -4.6391459181904793e-03</internalNodes>
          <leafValues>
            2.8011339902877808e-01 -3.1145840883255005e-01</leafValues></_>
        <_>
          <internalNodes>
            0 -1 80 -2.5532179279252887e-04</internalNodes>
          <leafValues>
            2.1388280391693115e-01 -4.4669920206069946e-01</leafValues></_>
        <_>
          <internalNodes>
            0 -1 81 3.5182538628578186e-01</internalNodes>
          <leafValues>
            2.3929810151457787e-02 -8.2447677850723267e-01</leafValues></_>
        <_>
          <internalNodes>
            0 -1 82 7.2416856884956360e-02</internalNodes>
          <leafValues>
            -3.8994240760803223e-01 1.8486149609088898e-01</leafValues></_>
        <_>
          <internalNodes>
            0 -1 83 -1.2314420193433762e-02</internalNodes>
          <leafValues>
            1.1694400012493134e-01 -1.6245290637016296e-01</leafValues></_>
        <_>
          <internalNodes>
            0 -1 84 4.2064491659402847e-02</internalNodes>
          <leafValues>
            1.0999520123004913e-01 -7.1583980321884155e-01</leafValues></_>
        <_>
          <internalNodes>
            0 -1 85 1.4708960056304932e-01</internalNodes>
          <leafValues>
            6.4720317721366882e-02 -7.2780632972717285e-01</leafValues></_>
        <_>
          <internalNodes>
            0 -1 86 -8.5739437490701675e-03</internalNodes>
          <leafValues>
            -6.5120697021484375e-01 6.4630962908267975e-02</leafValues></_>
        <_>
          <internalNodes>
            0 -1 87 2.4884249432943761e-04</internalNodes>
          <leafValues>
            -3.8540419936180115e-01 1.0373640060424805e-01</leafValues></_>
        <_>
          <internalNodes>
            0 -1 88 3.0264389351941645e-04</internalNodes>
          <leafValues>
            -3.5174098610877991e-01 1.3352109491825104e-01</leafValues></_>
        <_>
          <internalNodes>
            0 -1 89 -3.9636630564928055e-02</internalNodes>
          <leafValues>
            3.2420659065246582e-01 -1.9590090215206146e-01</leafValues></_>
        <_>
          <internalNodes>
            0 -1 90 3.9922460913658142e-02</internalNodes>
          <leafValues>
            -1.1895609647035599e-01 4.4634771347045898e-01</leafValues></_>
        <_>
          <internalNodes>
            0 -1 91 -1.4249280095100403e-01</internalNodes>
          <leafValues>
            5.6414389610290527e-01 -6.4507760107517242e-02</leafValues></_>
        <_>
          <internalNodes>
            0 -1 92 3.6157241463661194e-01</internalNodes>
          <leafValues>
            -1.6855439543724060e-01 3.4748959541320801e-01</leafValues></_>
        <_>
          <internalNodes>
            0 -1 93 4.0057301521301270e-02</internalNodes>
          <leafValues>
            5.9359360486268997e-02 -5.1402068138122559e-01</leafValues></_>
        <_>
          <internalNodes>
            0 -1 94 3.2065549748949707e-04</internalNodes>
          <leafValues>
            -5.2019292116165161e-01 1.0447859764099121e-01</leafValues></_>
        <_>
          <internalNodes>
            0 -1 95 7.5918599963188171e-02</internalNodes>
          <leafValues>
            5.9021171182394028e-02 -6.0396432876586914e-01</leafValues></_>
        <_>
          <internalNodes>
            0 -1 96 8.8088903576135635e-03</internalNodes>
          <leafValues>
            -3.0517879128456116e-01 1.9598659873008728e-01</leafValues></_>
        <_>
          <internalNodes>
            0 -1 97 -1.1505999602377415e-02</internalNodes>
          <leafValues>
            -6.9035482406616211e-01 9.5966316759586334e-02</leafValues></_></weakClassifiers></_>
    <_>
      <maxWeakCount>30</maxWeakCount>
      <stageThreshold>-1.6187490224838257e+00</stageThreshold>
      <weakClassifiers>
        <_>
          <internalNodes>
            0 -1 98 8.9942701160907745e-02</internalNodes>
          <leafValues>
            -5.5803191661834717e-01 3.1510511040687561e-01</leafValues></_>
        <_>
          <internalNodes>
            0 -1 99 1.4116680622100830e-01</internalNodes>
          <leafValues>
            -3.5455980896949768e-01 3.4234490990638733e-01</leafValues></_>
        <_>
          <internalNodes>
            0 -1 100 -4.9074299633502960e-02</internalNodes>
          <leafValues>
            2.8429248929023743e-01 -4.7629681229591370e-01</leafValues></_>
        <_>
          <internalNodes>
            0 -1 101 8.8981233537197113e-02</internalNodes>
          <leafValues>
            2.1262410283088684e-01 -5.9201169013977051e-01</leafValues></_>
        <_>
          <internalNodes>
            0 -1 102 4.5736131072044373e-01</internalNodes>
          <leafValues>
            -3.4110060334205627e-01 3.1832331418991089e-01</leafValues></_>
        <_>
          <internalNodes>
            0 -1 103 -2.0847789710387588e-04</internalNodes>
          <leafValues>
            9.2047147452831268e-02 -1.9282439351081848e-01</leafValues></_>
        <_>
          <internalNodes>
            0 -1 104 -2.5638268562033772e-04</internalNodes>
          <leafValues>
            1.8027019500732422e-01 -5.0077557563781738e-01</leafValues></_>
        <_>
          <internalNodes>
            0 -1 105 -4.3627548962831497e-02</internalNodes>
          <leafValues>
            -7.0934057235717773e-01 2.6141040027141571e-02</leafValues></_>
        <_>
          <internalNodes>
            0 -1 106 -1.2148039968451485e-04</internalNodes>
          <leafValues>
            1.7804700136184692e-01 -3.8742861151695251e-01</leafValues></_>
        <_>
          <internalNodes>
            0 -1 107 6.6614202223718166e-03</internalNodes>
          <leafValues>
            9.5236569643020630e-02 -6.4199751615524292e-01</leafValues></_>
        <_>
          <internalNodes>
            0 -1 108 1.0133580304682255e-02</internalNodes>
          <leafValues>
            4.5362278819084167e-02 -7.3915910720825195e-01</leafValues></_>
        <_>
          <internalNodes>
            0 -1 109 -7.4527491815388203e-03</internalNodes>
          <leafValues>
            3.4663969278335571e-01 -4.1097310185432434e-01</leafValues></_>
        <_>
          <internalNodes>
            0 -1 110 1.8654769659042358e-01</internalNodes>
          <leafValues>
            4.6516291797161102e-02 -7.6239591836929321e-01</leafValues></_>
        <_>
          <internalNodes>
            0 -1 111 3.4887841343879700e-01</internalNodes>
          <leafValues>
            4.4766940176486969e-02 -3.7297439575195312e-01</leafValues></_>
        <_>
          <internalNodes>
            0 -1 112 9.0129990130662918e-03</internalNodes>
          <leafValues>
            9.2422701418399811e-02 -5.6183439493179321e-01</leafValues></_>
        <_>
          <internalNodes>
            0 -1 113 -7.8636936843395233e-02</internalNodes>
          <leafValues>
            4.5786789059638977e-01 -1.6657710075378418e-01</leafValues></_>
        <_>
          <internalNodes>
            0 -1 114 1.2116239964962006e-01</internalNodes>
          <leafValues>
            -8.3181731402873993e-02 5.2312797307968140e-01</leafValues></_>
        <_>
          <internalNodes>
            0 -1 115 1.8915069522336125e-03</internalNodes>
          <leafValues>
            -4.3309900164604187e-01 1.2311600148677826e-01</leafValues></_>
        <_>
          <internalNodes>
            0 -1 116 3.4766089171171188e-02</internalNodes>
          <leafValues>
            -3.8780850172042847e-01 1.3191400468349457e-01</leafValues></_>
        <_>
          <internalNodes>
            0 -1 117 5.2351798862218857e-02</internalNodes>
          <leafValues>
            -7.4684523046016693e-02 4.7566229104995728e-01</leafValues></_>
        <_>
          <internalNodes>
            0 -1 118 -3.0340079218149185e-02</internalNodes>
          <leafValues>
            1.9884179532527924e-01 -2.3101469874382019e-01</leafValues></_>
        <_>
          <internalNodes>
            0 -1 119 6.8641840480268002e-03</internalNodes>
          <leafValues>
            -8.9482538402080536e-02 2.9374399781227112e-01</leafValues></_>
        <_>
          <internalNodes>
            0 -1 120 -7.1418210864067078e-02</internalNodes>
          <leafValues>
            -5.8315718173980713e-01 8.2432016730308533e-02</leafValues></_>
        <_>
          <internalNodes>
            0 -1 121 -8.4603831171989441e-02</internalNodes>
          <leafValues>
            -7.1703827381134033e-01 4.6565640717744827e-02</leafValues></_>
        <_>
          <internalNodes>
            0 -1 122 -5.9493448585271835e-02</internalNodes>
          <leafValues>
            3.4731200337409973e-01 -1.1965610086917877e-01</leafValues></_>
        <_>
          <internalNodes>
            0 -1 123 1.0994940251111984e-01</internalNodes>
          <leafValues>
            -7.9890703782439232e-03 3.4111711382865906e-01</leafValues></_>
        <_>
          <internalNodes>
            0 -1 124 4.9111388623714447e-02</internalNodes>
          <leafValues>
            -1.0241589695215225e-01 4.6818280220031738e-01</leafValues></_>
        <_>
          <internalNodes>
            0 -1 125 3.6367809772491455e-01</internalNodes>
          <leafValues>
            -8.3159081637859344e-02 3.7145859003067017e-01</leafValues></_>
        <_>
          <internalNodes>
            0 -1 126 -1.5865339338779449e-01</internalNodes>
          <leafValues>
            5.0474298000335693e-01 -8.3462662994861603e-02</leafValues></_>
        <_>
          <internalNodes>
            0 -1 127 -2.5151360780000687e-02</internalNodes>
          <leafValues>
            -4.5326530933380127e-01 7.8059017658233643e-02</leafValues></_></weakClassifiers></_>
    <_>
      <maxWeakCount>33</maxWeakCount>
      <stageThreshold>-1.6774560213088989e+00</stageThreshold>
      <weakClassifiers>
        <_>
          <internalNodes>
            0 -1 128 1.6495940089225769e-01</internalNodes>
          <leafValues>
            -6.3327008485794067e-01 2.1666599810123444e-01</leafValues></_>
        <_>
          <internalNodes>
            0 -1 129 -4.3875761330127716e-02</internalNodes>
          <leafValues>
            3.2398268580436707e-01 -5.3654092550277710e-01</leafValues></_>
        <_>
          <internalNodes>
            0 -1 130 9.6001587808132172e-03</internalNodes>
          <leafValues>
            -5.3273487091064453e-01 1.8380840122699738e-01</leafValues></_>
        <_>
          <internalNodes>
            0 -1 131 7.8705519437789917e-02</internalNodes>
          <leafValues>
            -3.8046509027481079e-01 8.5777603089809418e-02</leafValues></_>
        <_>
          <internalNodes>
            0 -1 132 -9.9123762920498848e-03</internalNodes>
          <leafValues>
            3.0974680185317993e-01 -3.0242699384689331e-01</leafValues></_>
        <_>
          <internalNodes>
            0 -1 133 2.1423709392547607e-01</internalNodes>
          <leafValues>
            -1.3076549768447876e-01 1.5465900301933289e-01</leafValues></_>
        <_>
          <internalNodes>
            0 -1 134 3.8553290069103241e-02</internalNodes>
          <leafValues>
            -4.1129979491233826e-01 2.2162139415740967e-01</leafValues></_>
        <_>
          <internalNodes>
            0 -1 135 2.4947660858742893e-04</internalNodes>
          <leafValues>
            -3.9588528871536255e-01 1.8671679496765137e-01</leafValues></_>
        <_>
          <internalNodes>
            0 -1 136 -2.3194089590106159e-04</internalNodes>
          <leafValues>
            2.2963899374008179e-01 -2.8851020336151123e-01</leafValues></_>
        <_>
          <internalNodes>
            0 -1 137 1.0282140225172043e-02</internalNodes>
          <leafValues>
            7.1141071617603302e-02 -7.4978381395339966e-01</leafValues></_>
        <_>
          <internalNodes>
            0 -1 138 1.9899800419807434e-02</internalNodes>
          <leafValues>
            -3.7339100241661072e-01 1.4279870688915253e-01</leafValues></_>
        <_>
          <internalNodes>
            0 -1 139 9.1035827994346619e-02</internalNodes>
          <leafValues>
            7.0756226778030396e-02 -6.6389507055282593e-01</leafValues></_>
        <_>
          <internalNodes>
            0 -1 140 3.9384838193655014e-02</internalNodes>
          <leafValues>
            -2.2626769542694092e-01 2.4647849798202515e-01</leafValues></_>
        <_>
          <internalNodes>
            0 -1 141 1.0999630205333233e-02</internalNodes>
          <leafValues>
            -2.6254078745841980e-01 1.1630869656801224e-01</leafValues></_>
        <_>
          <internalNodes>
            0 -1 142 -5.1808681339025497e-02</internalNodes>
          <leafValues>
            -5.9614032506942749e-01 8.5982881486415863e-02</leafValues></_>
        <_>
          <internalNodes>
            0 -1 143 -7.3788218200206757e-02</internalNodes>
          <leafValues>
            2.5938460230827332e-01 -1.0419789701700211e-01</leafValues></_>
        <_>
          <internalNodes>
            0 -1 144 4.6990741044282913e-02</internalNodes>
          <leafValues>
            -1.3505549728870392e-01 4.3088319897651672e-01</leafValues></_>
        <_>
          <internalNodes>
            0 -1 145 -9.7187450155615807e-03</internalNodes>
          <leafValues>
            -6.8422812223434448e-01 1.0987590253353119e-01</leafValues></_>
        <_>
          <internalNodes>
            0 -1 146 -3.5397530882619321e-04</internalNodes>
          <leafValues>
            1.4434379339218140e-01 -3.2492259144783020e-01</leafValues></_>
        <_>
          <internalNodes>
            0 -1 147 1.4243640005588531e-02</internalNodes>
          <leafValues>
            2.5580020621418953e-02 -7.0051062107086182e-01</leafValues></_>
        <_>
          <internalNodes>
            0 -1 148 -1.3059009611606598e-01</internalNodes>
          <leafValues>
            4.8231971263885498e-01 -9.7855798900127411e-02</leafValues></_>
        <_>
          <internalNodes>
            0 -1 149 -1.7721720039844513e-02</internalNodes>
          <leafValues>
            -7.6230561733245850e-01 3.1668808311223984e-02</leafValues></_>
        <_>
          <internalNodes>
            0 -1 150 -9.2830806970596313e-03</internalNodes>
          <leafValues>
            -5.6193757057189941e-01 7.6575733721256256e-02</leafValues></_>
        <_>
          <internalNodes>
            0 -1 151 2.4865049635991454e-04</internalNodes>
          <leafValues>
            -4.1249978542327881e-01 1.3300099968910217e-01</leafValues></_>
        <_>
          <internalNodes>
            0 -1 152 -1.4796050265431404e-02</internalNodes>
          <leafValues>
            -6.9817942380905151e-01 5.2536390721797943e-02</leafValues></_>
        <_>
          <internalNodes>
            0 -1 153 1.4459720253944397e-01</internalNodes>
          <leafValues>
            8.0330166965723038e-03 -8.6757528781890869e-01</leafValues></_>
        <_>
          <internalNodes>
            0 -1 154 1.5795610845088959e-02</internalNodes>
          <leafValues>
            -2.9273110628128052e-01 1.3636249303817749e-01</leafValues></_>
        <_>
          <internalNodes>
            0 -1 155 1.3104810379445553e-02</internalNodes>
          <leafValues>
            -2.2310920059680939e-01 5.7727438211441040e-01</leafValues></_>
        <_>
          <internalNodes>
            0 -1 156 2.2301739454269409e-01</internalNodes>
          <leafValues>
            -9.3301281332969666e-02 4.9452948570251465e-01</leafValues></_>
        <_>
          <internalNodes>
            0 -1 157 -4.9664869904518127e-02</internalNodes>
          <leafValues>
            -5.1878559589385986e-01 3.4580491483211517e-02</leafValues></_>
        <_>
          <internalNodes>
            0 -1 158 -4.5947611331939697e-02</internalNodes>
          <leafValues>
            -6.5967637300491333e-01 5.8844711631536484e-02</leafValues></_>
        <_>
          <internalNodes>
            0 -1 159 -1.0404409840703011e-02</internalNodes>
          <leafValues>
            2.6226308941841125e-01 -1.8617649376392365e-01</leafValues></_>
        <_>
          <internalNodes>
            0 -1 160 2.9125370085239410e-02</internalNodes>
          <leafValues>
            -1.8833640217781067e-01 2.1089859306812286e-01</leafValues></_></weakClassifiers></_>
    <_>
      <maxWeakCount>43</maxWeakCount>
      <stageThreshold>-1.5980160236358643e+00</stageThreshold>
      <weakClassifiers>
        <_>
          <internalNodes>
            0 -1 161 -2.7601189911365509e-02</internalNodes>
          <leafValues>
            2.8599020838737488e-01 -4.1096940636634827e-01</leafValues></_>
        <_>
          <internalNodes>
            0 -1 162 3.7857651710510254e-02</internalNodes>
          <leafValues>
            -4.5894971489906311e-01 1.3157080113887787e-01</leafValues></_>
        <_>
          <internalNodes>
            0 -1 163 8.7851449847221375e-02</internalNodes>
          <leafValues>
            -4.6392178535461426e-01 2.6767331361770630e-01</leafValues></_>
        <_>
          <internalNodes>
            0 -1 164 -6.6995318047702312e-03</internalNodes>
          <leafValues>
            3.4441629052162170e-01 -3.5756340622901917e-01</leafValues></_>
        <_>
          <internalNodes>
            0 -1 165 -2.1192200074438006e-04</internalNodes>
          <leafValues>
            2.8535151481628418e-01 -2.5099050998687744e-01</leafValues></_>
        <_>
          <internalNodes>
            0 -1 166 7.3331758379936218e-02</internalNodes>
          <leafValues>
            -5.1049250364303589e-01 2.0841999351978302e-01</leafValues></_>
        <_>
          <internalNodes>
            0 -1 167 7.0513516664505005e-02</internalNodes>
          <leafValues>
            -2.9435500502586365e-01 2.4908310174942017e-01</leafValues></_>
        <_>
          <internalNodes>
            0 -1 168 2.4877820396795869e-04</internalNodes>
          <leafValues>
            -4.5301368832588196e-01 1.1060699820518494e-01</leafValues></_>
        <_>
          <internalNodes>
            0 -1 169 -3.4712569322437048e-03</internalNodes>
          <leafValues>
            2.8186500072479248e-01 -2.2025389969348907e-01</leafValues></_>
        <_>
          <internalNodes>
            0 -1 170 2.4717900669202209e-04</internalNodes>
          <leafValues>
            -2.4565899372100830e-01 8.6443759500980377e-02</leafValues></_>
        <_>
          <internalNodes>
            0 -1 171 1.2986420188099146e-04</internalNodes>
          <leafValues>
            -3.5027301311492920e-01 1.4678439497947693e-01</leafValues></_>
        <_>
          <internalNodes>
            0 -1 172 6.9045290350914001e-02</internalNodes>
          <leafValues>
            3.0464420095086098e-02 -6.0509628057479858e-01</leafValues></_>
        <_>
          <internalNodes>
            0 -1 173 2.7935361140407622e-04</internalNodes>
          <leafValues>
            -6.0390001535415649e-01 8.6118496954441071e-02</leafValues></_>
        <_>
          <internalNodes>
            0 -1 174 -1.4282229542732239e-01</internalNodes>
          <leafValues>
            -5.7246452569961548e-01 7.2643920779228210e-02</leafValues></_>
        <_>
          <internalNodes>
            0 -1 175 -3.6195218563079834e-02</internalNodes>
          <leafValues>
            1.4508500695228577e-01 -2.9879340529441833e-01</leafValues></_>
        <_>
          <internalNodes>
            0 -1 176 -3.0662279576063156e-02</internalNodes>
          <leafValues>
            2.2187960147857666e-01 -1.6560579836368561e-01</leafValues></_>
        <_>
          <internalNodes>
            0 -1 177 4.1992411017417908e-02</internalNodes>
          <leafValues>
            -1.0774009674787521e-01 4.8182308673858643e-01</leafValues></_>
        <_>
          <internalNodes>
            0 -1 178 -7.9941511154174805e-02</internalNodes>
          <leafValues>
            -4.7171419858932495e-01 3.7495650351047516e-02</leafValues></_>
        <_>
          <internalNodes>
            0 -1 179 -6.4027868211269379e-02</internalNodes>
          <leafValues>
            -6.4578139781951904e-01 7.0583656430244446e-02</leafValues></_>
        <_>
          <internalNodes>
            0 -1 180 -2.1864910377189517e-04</internalNodes>
          <leafValues>
            1.4576619863510132e-01 -2.6793161034584045e-01</leafValues></_>
        <_>
          <internalNodes>
            0 -1 181 -1.4113999903202057e-02</internalNodes>
          <leafValues>
            -7.7310252189636230e-01 4.3031539767980576e-02</leafValues></_>
        <_>
          <internalNodes>
            0 -1 182 -2.7583390474319458e-02</internalNodes>
          <leafValues>
            -4.6052241325378418e-01 1.2541879899799824e-02</leafValues></_>
        <_>
          <internalNodes>
            0 -1 183 3.2080090045928955e-01</internalNodes>
          <leafValues>
            3.8655929267406464e-02 -8.0620688199996948e-01</leafValues></_>
        <_>
          <internalNodes>
            0 -1 184 3.5831309854984283e-02</internalNodes>
          <leafValues>
            -6.6294170916080475e-02 3.2638838887214661e-01</leafValues></_>
        <_>
          <internalNodes>
            0 -1 185 -7.9818010330200195e-02</internalNodes>
          <leafValues>
            4.1679659485816956e-01 -9.1265693306922913e-02</leafValues></_>
        <_>
          <internalNodes>
            0 -1 186 -2.6545161381363869e-04</internalNodes>
          <leafValues>
            1.1011809855699539e-01 -1.5701800584793091e-01</leafValues></_>
        <_>
          <internalNodes>
            0 -1 187 -2.4198470055125654e-04</internalNodes>
          <leafValues>
            1.3520300388336182e-01 -2.4126259982585907e-01</leafValues></_>
        <_>
          <internalNodes>
            0 -1 188 6.9970320910215378e-03</internalNodes>
          <leafValues>
            6.1209369450807571e-02 -4.9959999322891235e-01</leafValues></_>
        <_>
          <internalNodes>
            0 -1 189 1.8720689415931702e-01</internalNodes>
          <leafValues>
            5.6549020111560822e-02 -5.1141732931137085e-01</leafValues></_>
        <_>
          <internalNodes>
            0 -1 190 2.5392429903149605e-02</internalNodes>
          <leafValues>
            1.2943379580974579e-02 -5.7294350862503052e-01</leafValues></_>
        <_>
          <internalNodes>
            0 -1 191 1.9598169252276421e-02</internalNodes>
          <leafValues>
            -8.1028573215007782e-02 4.1770109534263611e-01</leafValues></_>
        <_>
          <internalNodes>
            0 -1 192 -3.0563350766897202e-02</internalNodes>
          <leafValues>
            -7.7354127168655396e-01 1.7834499478340149e-02</leafValues></_>
        <_>
          <internalNodes>
            0 -1 193 -1.7510980367660522e-02</internalNodes>
          <leafValues>
            -5.8982509374618530e-01 5.1176030188798904e-02</leafValues></_>
        <_>
          <internalNodes>
            0 -1 194 8.0173909664154053e-03</internalNodes>
          <leafValues>
            -8.8888056576251984e-02 2.5149890780448914e-01</leafValues></_>
        <_>
          <internalNodes>
            0 -1 195 3.0078329145908356e-02</internalNodes>
          <leafValues>
            -5.1423519849777222e-02 6.0266208648681641e-01</leafValues></_>
        <_>
          <internalNodes>
            0 -1 196 1.2652520090341568e-02</internalNodes>
          <leafValues>
            5.2874740213155746e-02 -6.8241232633590698e-01</leafValues></_>
        <_>
          <internalNodes>
            0 -1 197 1.2671189324464649e-04</internalNodes>
          <leafValues>
            -3.3524969220161438e-01 8.1200607120990753e-02</leafValues></_>
        <_>
          <internalNodes>
            0 -1 198 1.8680329620838165e-01</internalNodes>
          <leafValues>
            -5.4362770169973373e-02 5.2354782819747925e-01</leafValues></_>
        <_>
          <internalNodes>
            0 -1 199 1.7570440471172333e-01</internalNodes>
          <leafValues>
            -5.7003289461135864e-02 6.1373281478881836e-01</leafValues></_>
        <_>
          <internalNodes>
            0 -1 200 1.0384310483932495e+00</internalNodes>
          <leafValues>
            5.5142719298601151e-02 -6.1898940801620483e-01</leafValues></_>
        <_>
          <internalNodes>
            0 -1 201 -3.6805290728807449e-03</internalNodes>
          <leafValues>
            -3.4223210811614990e-01 8.9690372347831726e-02</leafValues></_>
        <_>
          <internalNodes>
            0 -1 202 -1.5596579760313034e-02</internalNodes>
          <leafValues>
            -6.7402267456054688e-01 2.3316940292716026e-02</leafValues></_>
        <_>
          <internalNodes>
            0 -1 203 7.3065250180661678e-03</internalNodes>
          <leafValues>
            -3.3753579854965210e-01 8.1490926444530487e-02</leafValues></_></weakClassifiers></_>
    <_>
      <maxWeakCount>49</maxWeakCount>
      <stageThreshold>-1.5710469484329224e+00</stageThreshold>
      <weakClassifiers>
        <_>
          <internalNodes>
            0 -1 204 1.8058590590953827e-01</internalNodes>
          <leafValues>
            -5.3006607294082642e-01 3.0238381028175354e-01</leafValues></_>
        <_>
          <internalNodes>
            0 -1 205 -1.4102189801633358e-02</internalNodes>
          <leafValues>
            3.6992278695106506e-01 -3.2417449355125427e-01</leafValues></_>
        <_>
          <internalNodes>
            0 -1 206 -1.0875849984586239e-02</internalNodes>
          <leafValues>
            2.5693210959434509e-01 -3.2424819469451904e-01</leafValues></_>
        <_>
          <internalNodes>
            0 -1 207 1.9429029896855354e-02</internalNodes>
          <leafValues>
            -2.1578429639339447e-01 2.5954779982566833e-01</leafValues></_>
        <_>
          <internalNodes>
            0 -1 208 -3.3504539169371128e-04</internalNodes>
          <leafValues>
            1.5259739756584167e-01 -4.9001759290695190e-01</leafValues></_>
        <_>
          <internalNodes>
            0 -1 209 1.4867480099201202e-01</internalNodes>
          <leafValues>
            -2.5198081135749817e-01 2.3439890146255493e-01</leafValues></_>
        <_>
          <internalNodes>
            0 -1 210 -1.9672799855470657e-02</internalNodes>
          <leafValues>
            2.4085490405559540e-01 -2.0880240201950073e-01</leafValues></_>
        <_>
          <internalNodes>
            0 -1 211 2.9412939329631627e-04</internalNodes>
          <leafValues>
            -2.0930929481983185e-01 8.3217248320579529e-02</leafValues></_>
        <_>
          <internalNodes>
            0 -1 212 -4.9362171441316605e-02</internalNodes>
          <leafValues>
            1.7945680022239685e-01 -2.6339888572692871e-01</leafValues></_>
        <_>
          <internalNodes>
            0 -1 213 2.6121780276298523e-02</internalNodes>
          <leafValues>
            2.5723719969391823e-02 -7.1571451425552368e-01</leafValues></_>
        <_>
          <internalNodes>
            0 -1 214 2.5359389837831259e-04</internalNodes>
          <leafValues>
            -3.6208280920982361e-01 1.4229419827461243e-01</leafValues></_>
        <_>
          <internalNodes>
            0 -1 215 2.3524250835180283e-02</internalNodes>
          <leafValues>
            1.3082559406757355e-01 -3.1331199407577515e-01</leafValues></_>
        <_>
          <internalNodes>
            0 -1 216 2.8964199009351432e-04</internalNodes>
          <leafValues>
            -2.9553139209747314e-01 1.6127729415893555e-01</leafValues></_>
        <_>
          <internalNodes>
            0 -1 217 -5.6771971285343170e-03</internalNodes>
          <leafValues>
            -5.3372818231582642e-01 3.7908848375082016e-02</leafValues></_>
        <_>
          <internalNodes>
            0 -1 218 2.7393171330913901e-04</internalNodes>
          <leafValues>
            -3.8743188977241516e-01 1.0680560022592545e-01</leafValues></_>
        <_>
          <internalNodes>
            0 -1 219 -4.9558758735656738e-02</internalNodes>
          <leafValues>
            2.5248089432716370e-01 -1.9702939689159393e-01</leafValues></_>
        <_>
          <internalNodes>
            0 -1 220 -3.1284131109714508e-02</internalNodes>
          <leafValues>
            -5.4901629686355591e-01 8.3271853625774384e-02</leafValues></_>
        <_>
          <internalNodes>
            0 -1 221 5.1301490515470505e-02</internalNodes>
          <leafValues>
            5.6439649313688278e-02 -3.9528268575668335e-01</leafValues></_>
        <_>
          <internalNodes>
            0 -1 222 -6.5874107182025909e-02</internalNodes>
          <leafValues>
            -6.6007608175277710e-01 5.1039341837167740e-02</leafValues></_>
        <_>
          <internalNodes>
            0 -1 223 -4.2836990207433701e-02</internalNodes>
          <leafValues>
            -4.6951889991760254e-01 2.4805689230561256e-02</leafValues></_>
        <_>
          <internalNodes>
            0 -1 224 -3.9816949516534805e-02</internalNodes>
          <leafValues>
            -5.3903067111968994e-01 6.2565587460994720e-02</leafValues></_>
        <_>
          <internalNodes>
            0 -1 225 9.6334350109100342e-01</internalNodes>
          <leafValues>
            7.0093147456645966e-02 -5.0512290000915527e-01</leafValues></_>
        <_>
          <internalNodes>
            0 -1 226 -9.0300403535366058e-02</internalNodes>
          <leafValues>
            -6.0602772235870361e-01 4.7844190150499344e-02</leafValues></_>
        <_>
          <internalNodes>
            0 -1 227 1.1647170037031174e-01</internalNodes>
          <leafValues>
            3.7802059203386307e-02 -4.2558151483535767e-01</leafValues></_>
        <_>
          <internalNodes>
            0 -1 228 1.4104600250720978e-01</internalNodes>
          <leafValues>
            5.3307779133319855e-02 -6.4774441719055176e-01</leafValues></_>
        <_>
          <internalNodes>
            0 -1 229 -2.2453929483890533e-01</internalNodes>
          <leafValues>
            -7.4235057830810547e-01 3.9420530200004578e-02</leafValues></_>
        <_>
          <internalNodes>
            0 -1 230 1.2207459658384323e-02</internalNodes>
          <leafValues>
            4.1159488260746002e-02 -6.2470448017120361e-01</leafValues></_>
        <_>
          <internalNodes>
            0 -1 231 -1.2989179790019989e-01</internalNodes>
          <leafValues>
            -5.0202441215515137e-01 5.0608549267053604e-02</leafValues></_>
        <_>
          <internalNodes>
            0 -1 232 -1.3367730379104614e-01</internalNodes>
          <leafValues>
            -5.9807258844375610e-01 5.1502179354429245e-02</leafValues></_>
        <_>
          <internalNodes>
            0 -1 233 -2.7120931190438569e-04</internalNodes>
          <leafValues>
            9.4227276742458344e-02 -1.8693520128726959e-01</leafValues></_>
        <_>
          <internalNodes>
            0 -1 234 -1.0169100016355515e-01</internalNodes>
          <leafValues>
            3.2843610644340515e-01 -8.7932407855987549e-02</leafValues></_>
        <_>
          <internalNodes>
            0 -1 235 -1.0269139707088470e-01</internalNodes>
          <leafValues>
            3.6913949251174927e-01 -9.3921191990375519e-02</leafValues></_>
        <_>
          <internalNodes>
            0 -1 236 -1.0396800003945827e-02</internalNodes>
          <leafValues>
            2.7350321412086487e-01 -1.0995180159807205e-01</leafValues></_>
        <_>
          <internalNodes>
            0 -1 237 -2.1686570718884468e-02</internalNodes>
          <leafValues>
            -5.4310798645019531e-01 3.5409461706876755e-02</leafValues></_>
        <_>
          <internalNodes>
            0 -1 238 -1.0991159826517105e-02</internalNodes>
          <leafValues>
            3.3133411407470703e-01 -9.4798907637596130e-02</leafValues></_>
        <_>
          <internalNodes>
            0 -1 239 3.3094190061092377e-02</internalNodes>
          <leafValues>
            -6.7603901028633118e-02 3.7596800923347473e-01</leafValues></_>
        <_>
          <internalNodes>
            0 -1 240 1.1286569759249687e-02</internalNodes>
          <leafValues>
            5.9782750904560089e-02 -5.1132440567016602e-01</leafValues></_>
        <_>
          <internalNodes>
            0 -1 241 -2.7613660320639610e-02</internalNodes>
          <leafValues>
            -1.4082999527454376e-01 2.7692280709743500e-02</leafValues></_>
        <_>
          <internalNodes>
            0 -1 242 -2.4939039722084999e-02</internalNodes>
          <leafValues>
            -3.9404359459877014e-01 7.4676387012004852e-02</leafValues></_>
        <_>
          <internalNodes>
            0 -1 243 -2.0524069666862488e-02</internalNodes>
          <leafValues>
            -3.6042830348014832e-01 7.4041247367858887e-02</leafValues></_>
        <_>
          <internalNodes>
            0 -1 244 -7.4007459916174412e-03</internalNodes>
          <leafValues>
            2.8367879986763000e-01 -1.0147889703512192e-01</leafValues></_>
        <_>
          <internalNodes>
            0 -1 245 6.7080897092819214e-01</internalNodes>
          <leafValues>
            4.5882590115070343e-02 -3.3616951107978821e-01</leafValues></_>
        <_>
          <internalNodes>
            0 -1 246 -3.9679888635873795e-02</internalNodes>
          <leafValues>
            -5.2566331624984741e-01 5.4599281400442123e-02</leafValues></_>
        <_>
          <internalNodes>
            0 -1 247 -8.7327197194099426e-02</internalNodes>
          <leafValues>
            1.6750040650367737e-01 -4.3622560799121857e-02</leafValues></_>
        <_>
          <internalNodes>
            0 -1 248 6.4611792564392090e-02</internalNodes>
          <leafValues>
            -7.3659181594848633e-02 3.8314640522003174e-01</leafValues></_>
        <_>
          <internalNodes>
            0 -1 249 -2.2105389833450317e-01</internalNodes>
          <leafValues>
            1.0447829961776733e-01 -1.7116640508174896e-01</leafValues></_>
        <_>
          <internalNodes>
            0 -1 250 5.3933750838041306e-02</internalNodes>
          <leafValues>
            -2.9619699716567993e-01 9.6287600696086884e-02</leafValues></_>
        <_>
          <internalNodes>
            0 -1 251 -2.7547979727387428e-02</internalNodes>
          <leafValues>
            1.2633620202541351e-01 -1.4370830357074738e-01</leafValues></_>
        <_>
          <internalNodes>
            0 -1 252 -7.9627260565757751e-02</internalNodes>
          <leafValues>
            -6.7207431793212891e-01 4.2808510363101959e-02</leafValues></_></weakClassifiers></_>
    <_>
      <maxWeakCount>56</maxWeakCount>
      <stageThreshold>-1.5772149562835693e+00</stageThreshold>
      <weakClassifiers>
        <_>
          <internalNodes>
            0 -1 253 3.9984458684921265e-01</internalNodes>
          <leafValues>
            -4.9297308921813965e-01 2.7820569276809692e-01</leafValues></_>
        <_>
          <internalNodes>
            0 -1 254 -1.1940109543502331e-02</internalNodes>
          <leafValues>
            2.9590839147567749e-01 -2.9935190081596375e-01</leafValues></_>
        <_>
          <internalNodes>
            0 -1 255 8.0412777606397867e-04</internalNodes>
          <leafValues>
            -5.1374572515487671e-01 1.4820599555969238e-01</leafValues></_>
        <_>
          <internalNodes>
            0 -1 256 -6.8827301263809204e-02</internalNodes>
          <leafValues>
            3.2834580540657043e-01 -2.1098789572715759e-01</leafValues></_>
        <_>
          <internalNodes>
            0 -1 257 -2.6670019142329693e-03</internalNodes>
          <leafValues>
            1.6911430656909943e-01 -3.8614910840988159e-01</leafValues></_>
        <_>
          <internalNodes>
            0 -1 258 1.7666140571236610e-02</internalNodes>
          <leafValues>
            -2.7672740817070007e-01 2.1801890432834625e-01</leafValues></_>
        <_>
          <internalNodes>
            0 -1 259 7.4831801466643810e-03</internalNodes>
          <leafValues>
            -3.8488918542861938e-01 1.6186140477657318e-01</leafValues></_>
        <_>
          <internalNodes>
            0 -1 260 -1.6251010820269585e-02</internalNodes>
          <leafValues>
            -4.6217259764671326e-01 4.9147199839353561e-02</leafValues></_>
        <_>
          <internalNodes>
            0 -1 261 3.9933170774020255e-04</internalNodes>
          <leafValues>
            -4.5336130261421204e-01 1.0460279881954193e-01</leafValues></_>
        <_>
          <internalNodes>
            0 -1 262 -1.5297180041670799e-02</internalNodes>
          <leafValues>
            -1.4113479852676392e-01 1.1434920132160187e-01</leafValues></_>
        <_>
          <internalNodes>
            0 -1 263 -6.3068820163607597e-03</internalNodes>
          <leafValues>
            1.6264270246028900e-01 -3.1081709265708923e-01</leafValues></_>
        <_>
          <internalNodes>
            0 -1 264 -1.2744629755616188e-02</internalNodes>
          <leafValues>
            -6.6173952817916870e-01 6.7844212055206299e-02</leafValues></_>
        <_>
          <internalNodes>
            0 -1 265 -1.0559420287609100e-01</internalNodes>
          <leafValues>
            -5.1333832740783691e-01 7.1062602102756500e-02</leafValues></_>
        <_>
          <internalNodes>
            0 -1 266 2.1958440542221069e-02</internalNodes>
          <leafValues>
            1.3662010431289673e-02 -5.3517282009124756e-01</leafValues></_>
        <_>
          <internalNodes>
            0 -1 267 1.6034189611673355e-02</internalNodes>
          <leafValues>
            -3.5287639498710632e-01 1.0490509867668152e-01</leafValues></_>
        <_>
          <internalNodes>
            0 -1 268 -6.5577318891882896e-03</internalNodes>
          <leafValues>
            2.1489949524402618e-01 -1.9894179701805115e-01</leafValues></_>
        <_>
          <internalNodes>
            0 -1 269 -1.1923479847609997e-02</internalNodes>
          <leafValues>
            -5.2076560258865356e-01 6.7639470100402832e-02</leafValues></_>
        <_>
          <internalNodes>
            0 -1 270 8.6674906313419342e-02</internalNodes>
          <leafValues>
            5.8022700250148773e-02 -5.6969362497329712e-01</leafValues></_>
        <_>
          <internalNodes>
            0 -1 271 -2.3583239817526191e-04</internalNodes>
          <leafValues>
            1.6676810383796692e-01 -2.1293079853057861e-01</leafValues></_>
        <_>
          <internalNodes>
            0 -1 272 2.2656060173176229e-04</internalNodes>
          <leafValues>
            -1.0723900049924850e-01 8.0340780317783356e-02</leafValues></_>
        <_>
          <internalNodes>
            0 -1 273 -3.8619268685579300e-02</internalNodes>
          <leafValues>
            -4.8281979560852051e-01 6.4317606389522552e-02</leafValues></_>
        <_>
          <internalNodes>
            0 -1 274 -3.6343471147119999e-03</internalNodes>
          <leafValues>
            1.6469269990921021e-01 -1.2586009502410889e-01</leafValues></_>
        <_>
          <internalNodes>
            0 -1 275 -1.3567389547824860e-01</internalNodes>
          <leafValues>
            6.8711781501770020e-01 -4.5401938259601593e-02</leafValues></_>
        <_>
          <internalNodes>
            0 -1 276 -5.9284181334078312e-03</internalNodes>
          <leafValues>
            -4.4602438807487488e-01 7.7744297683238983e-02</leafValues></_>
        <_>
          <internalNodes>
            0 -1 277 -3.8721960037946701e-02</internalNodes>
          <leafValues>
            -7.9545962810516357e-01 2.7273029088973999e-02</leafValues></_>
        <_>
          <internalNodes>
            0 -1 278 2.7111990493722260e-04</internalNodes>
          <leafValues>
            -6.1464820057153702e-02 8.6636051535606384e-02</leafValues></_>
        <_>
          <internalNodes>
            0 -1 279 -8.9391563087701797e-03</internalNodes>
          <leafValues>
            3.2042619585990906e-01 -9.4426132738590240e-02</leafValues></_>
        <_>
          <internalNodes>
            0 -1 280 4.0600231289863586e-01</internalNodes>
          <leafValues>
            -1.4507249929010868e-02 4.0071460604667664e-01</leafValues></_>
        <_>
          <internalNodes>
            0 -1 281 3.5274639725685120e-01</internalNodes>
          <leafValues>
            -4.8782840371131897e-02 5.8633488416671753e-01</leafValues></_>
        <_>
          <internalNodes>
            0 -1 282 -2.6537929079495370e-04</internalNodes>
          <leafValues>
            1.6140839457511902e-01 -2.1041369438171387e-01</leafValues></_>
        <_>
          <internalNodes>
            0 -1 283 -1.2319950386881828e-02</internalNodes>
          <leafValues>
            -5.9739661216735840e-01 4.0629621595144272e-02</leafValues></_>
        <_>
          <internalNodes>
            0 -1 284 -1.3849560171365738e-02</internalNodes>
          <leafValues>
            -6.8779480457305908e-01 2.8297599405050278e-02</leafValues></_>
        <_>
          <internalNodes>
            0 -1 285 -3.0354750924743712e-04</internalNodes>
          <leafValues>
            1.1384069919586182e-01 -2.1501390635967255e-01</leafValues></_>
        <_>
          <internalNodes>
            0 -1 286 -3.9106961339712143e-02</internalNodes>
          <leafValues>
            -2.2600589692592621e-01 3.9526809006929398e-02</leafValues></_>
        <_>
          <internalNodes>
            0 -1 287 -2.8095500543713570e-02</internalNodes>
          <leafValues>
            -3.5950079560279846e-01 7.4736073613166809e-02</leafValues></_>
        <_>
          <internalNodes>
            0 -1 288 -2.1256110072135925e-01</internalNodes>
          <leafValues>
            -7.1098762750625610e-01 4.1869599372148514e-02</leafValues></_>
        <_>
          <internalNodes>
            0 -1 289 -7.9028336331248283e-03</internalNodes>
          <leafValues>
            3.0954331159591675e-01 -8.6424186825752258e-02</leafValues></_>
        <_>
          <internalNodes>
            0 -1 290 1.1795709840953350e-02</internalNodes>
          <leafValues>
            2.5133460760116577e-02 -6.6756761074066162e-01</leafValues></_>
        <_>
          <internalNodes>
            0 -1 291 -1.0672540403902531e-02</internalNodes>
          <leafValues>
            -5.7254207134246826e-01 3.8454119116067886e-02</leafValues></_>
        <_>
          <internalNodes>
            0 -1 292 1.9260150194168091e-01</internalNodes>
          <leafValues>
            4.5295011252164841e-02 -3.5983958840370178e-01</leafValues></_>
        <_>
          <internalNodes>
            0 -1 293 2.7458968758583069e-01</internalNodes>
          <leafValues>
            3.7602171301841736e-02 -6.7104452848434448e-01</leafValues></_>
        <_>
          <internalNodes>
            0 -1 294 -2.9315929859876633e-02</internalNodes>
          <leafValues>
            -5.7990521192550659e-01 3.4113410860300064e-02</leafValues></_>
        <_>
          <internalNodes>
            0 -1 295 -3.4563058614730835e-01</internalNodes>
          <leafValues>
            -7.7321988344192505e-01 2.6545749977231026e-02</leafValues></_>
        <_>
          <internalNodes>
            0 -1 296 1.0821919888257980e-01</internalNodes>
          <leafValues>
            2.6538049802184105e-02 -5.1272237300872803e-01</leafValues></_>
        <_>
          <internalNodes>
            0 -1 297 1.5225330367684364e-02</internalNodes>
          <leafValues>
            -2.8461378812789917e-01 9.5019251108169556e-02</leafValues></_>
        <_>
          <internalNodes>
            0 -1 298 -1.3128579594194889e-02</internalNodes>
          <leafValues>
            2.4167710542678833e-01 -9.8213009536266327e-02</leafValues></_>
        <_>
          <internalNodes>
            0 -1 299 3.9482329040765762e-02</internalNodes>
          <leafValues>
            -8.4126733243465424e-02 3.1721648573875427e-01</leafValues></_>
        <_>
          <internalNodes>
            0 -1 300 2.0438270270824432e-01</internalNodes>
          <leafValues>
            -9.0963877737522125e-02 2.7314299345016479e-01</leafValues></_>
        <_>
          <internalNodes>
            0 -1 301 -2.1871099306736141e-04</internalNodes>
          <leafValues>
            1.2994079291820526e-01 -1.9457989931106567e-01</leafValues></_>
        <_>
          <internalNodes>
            0 -1 302 -9.3532271683216095e-02</internalNodes>
          <leafValues>
            4.6456810832023621e-01 -6.9762058556079865e-02</leafValues></_>
        <_>
          <internalNodes>
            0 -1 303 2.3594809696078300e-02</internalNodes>
          <leafValues>
            -1.6312980651855469e-01 1.5879690647125244e-01</leafValues></_>
        <_>
          <internalNodes>
            0 -1 304 2.3572299629449844e-02</internalNodes>
          <leafValues>
            3.4230828285217285e-02 -3.9106941223144531e-01</leafValues></_>
        <_>
          <internalNodes>
            0 -1 305 -2.8218850493431091e-02</internalNodes>
          <leafValues>
            4.9798300862312317e-01 -5.4106999188661575e-02</leafValues></_>
        <_>
          <internalNodes>
            0 -1 306 -4.6584788709878922e-02</internalNodes>
          <leafValues>
            -4.2779120802879333e-01 4.1826229542493820e-02</leafValues></_>
        <_>
          <internalNodes>
            0 -1 307 1.1646820232272148e-02</internalNodes>
          <leafValues>
            6.8037100136280060e-02 -3.5714611411094666e-01</leafValues></_>
        <_>
          <internalNodes>
            0 -1 308 -1.9526390731334686e-01</internalNodes>
          <leafValues>
            2.1971330046653748e-01 -1.0934519767761230e-01</leafValues></_></weakClassifiers></_>
    <_>
      <maxWeakCount>70</maxWeakCount>
      <stageThreshold>-1.5406730175018311e+00</stageThreshold>
      <weakClassifiers>
        <_>
          <internalNodes>
            0 -1 309 -6.0963228344917297e-02</internalNodes>
          <leafValues>
            2.6233229041099548e-01 -3.9964640140533447e-01</leafValues></_>
        <_>
          <internalNodes>
            0 -1 310 3.1858150032348931e-04</internalNodes>
          <leafValues>
            -1.8744090199470520e-01 1.2887619435787201e-01</leafValues></_>
        <_>
          <internalNodes>
            0 -1 311 -1.7338279634714127e-02</internalNodes>
          <leafValues>
            1.5848200023174286e-01 -4.1080018877983093e-01</leafValues></_>
        <_>
          <internalNodes>
            0 -1 312 1.9554449617862701e-01</internalNodes>
          <leafValues>
            -4.1255399584770203e-01 1.6843290627002716e-01</leafValues></_>
        <_>
          <internalNodes>
            0 -1 313 -1.6848340630531311e-02</internalNodes>
          <leafValues>
            1.5632760524749756e-01 -4.2258378863334656e-01</leafValues></_>
        <_>
          <internalNodes>
            0 -1 314 6.7765302956104279e-02</internalNodes>
          <leafValues>
            8.8457070291042328e-02 -4.5746278762817383e-01</leafValues></_>
        <_>
          <internalNodes>
            0 -1 315 -2.1593479439616203e-02</internalNodes>
          <leafValues>
            4.3105560541152954e-01 -1.1188620328903198e-01</leafValues></_>
        <_>
          <internalNodes>
            0 -1 316 2.2325530648231506e-02</internalNodes>
          <leafValues>
            -1.7106969654560089e-01 1.1900480091571808e-01</leafValues></_>
        <_>
          <internalNodes>
            0 -1 317 4.1217468678951263e-02</internalNodes>
          <leafValues>
            1.1528480052947998e-01 -4.2701280117034912e-01</leafValues></_>
        <_>
          <internalNodes>
            0 -1 318 -2.0137800311204046e-04</internalNodes>
          <leafValues>
            1.7593939602375031e-01 -2.0617599785327911e-01</leafValues></_>
        <_>
          <internalNodes>
            0 -1 319 2.0204859902150929e-04</internalNodes>
          <leafValues>
            -5.6596899032592773e-01 8.9145816862583160e-02</leafValues></_>
        <_>
          <internalNodes>
            0 -1 320 -3.0921408534049988e-01</internalNodes>
          <leafValues>
            3.4555140137672424e-01 -1.0850270092487335e-01</leafValues></_>
        <_>
          <internalNodes>
            0 -1 321 -6.1448230408132076e-03</internalNodes>
          <leafValues>
            1.8596710264682770e-01 -2.0050209760665894e-01</leafValues></_>
        <_>
          <internalNodes>
            0 -1 322 -1.2021329998970032e-01</internalNodes>
          <leafValues>
            -3.4771358966827393e-01 5.4678130894899368e-02</leafValues></_>
        <_>
          <internalNodes>
            0 -1 323 -1.4376080036163330e-01</internalNodes>
          <leafValues>
            -5.4118317365646362e-01 6.1214160174131393e-02</leafValues></_>
        <_>
          <internalNodes>
            0 -1 324 -1.2037059664726257e-01</internalNodes>
          <leafValues>
            -6.1475539207458496e-01 1.6389599069952965e-02</leafValues></_>
        <_>
          <internalNodes>
            0 -1 325 4.2673919349908829e-02</internalNodes>
          <leafValues>
            6.1599899083375931e-02 -4.8987519741058350e-01</leafValues></_>
        <_>
          <internalNodes>
            0 -1 326 2.0105950534343719e-01</internalNodes>
          <leafValues>
            1.9135080277919769e-02 -4.4107690453529358e-01</leafValues></_>
        <_>
          <internalNodes>
            0 -1 327 2.0882239937782288e-01</internalNodes>
          <leafValues>
            6.1363980174064636e-02 -5.6655067205429077e-01</leafValues></_>
        <_>
          <internalNodes>
            0 -1 328 3.4317639074288309e-04</internalNodes>
          <leafValues>
            -3.7903869152069092e-01 8.0770552158355713e-02</leafValues></_>
        <_>
          <internalNodes>
            0 -1 329 1.1899280361831188e-02</internalNodes>
          <leafValues>
            5.1373660564422607e-02 -5.1244020462036133e-01</leafValues></_>
        <_>
          <internalNodes>
            0 -1 330 -1.5274089761078358e-02</internalNodes>
          <leafValues>
            -6.5564781427383423e-01 3.1176609918475151e-02</leafValues></_>
        <_>
          <internalNodes>
            0 -1 331 2.0450940355658531e-02</internalNodes>
          <leafValues>
            -1.1008310317993164e-01 2.4426600337028503e-01</leafValues></_>
        <_>
          <internalNodes>
            0 -1 332 1.0915989987552166e-02</internalNodes>
          <leafValues>
            -3.0113309621810913e-01 8.4650352597236633e-02</leafValues></_>
        <_>
          <internalNodes>
            0 -1 333 6.5979440696537495e-03</internalNodes>
          <leafValues>
            -2.3539529740810394e-01 1.1103770136833191e-01</leafValues></_>
        <_>
          <internalNodes>
            0 -1 334 7.4403129518032074e-02</internalNodes>
          <leafValues>
            2.6583429425954819e-02 -5.2900832891464233e-01</leafValues></_>
        <_>
          <internalNodes>
            0 -1 335 9.6808141097426414e-03</internalNodes>
          <leafValues>
            -3.1914350390434265e-01 9.1770917177200317e-02</leafValues></_>
        <_>
          <internalNodes>
            0 -1 336 2.9621220892295241e-04</internalNodes>
          <leafValues>
            -2.4492859840393066e-01 2.6193821430206299e-01</leafValues></_>
        <_>
          <internalNodes>
            0 -1 337 9.8016488552093506e-01</internalNodes>
          <leafValues>
            4.3550208210945129e-02 -5.0767660140991211e-01</leafValues></_>
        <_>
          <internalNodes>
            0 -1 338 -3.1622480601072311e-02</internalNodes>
          <leafValues>
            -8.4246248006820679e-01 3.8115619681775570e-03</leafValues></_>
        <_>
          <internalNodes>
            0 -1 339 -2.3534629493951797e-02</internalNodes>
          <leafValues>
            -4.1606828570365906e-01 5.6047659367322922e-02</leafValues></_>
        <_>
          <internalNodes>
            0 -1 340 -2.7265268727205694e-04</internalNodes>
          <leafValues>
            7.3260016739368439e-02 -1.2437839806079865e-01</leafValues></_>
        <_>
          <internalNodes>
            0 -1 341 3.2802440226078033e-02</internalNodes>
          <leafValues>
            4.6918708831071854e-02 -5.4838627576828003e-01</leafValues></_>
        <_>
          <internalNodes>
            0 -1 342 2.9037919011898339e-04</internalNodes>
          <leafValues>
            -7.6424241065979004e-02 7.5254246592521667e-02</leafValues></_>
        <_>
          <internalNodes>
            0 -1 343 -2.0024979487061501e-02</internalNodes>
          <leafValues>
            -6.4532381296157837e-01 3.3612970262765884e-02</leafValues></_>
        <_>
          <internalNodes>
            0 -1 344 -2.7752740425057709e-04</internalNodes>
          <leafValues>
            8.7540581822395325e-02 -9.9770903587341309e-02</leafValues></_>
        <_>
          <internalNodes>
            0 -1 345 7.7714829239994287e-04</internalNodes>
          <leafValues>
            -1.1906430125236511e-01 2.0813730359077454e-01</leafValues></_>
        <_>
          <internalNodes>
            0 -1 346 -3.3943509333766997e-04</internalNodes>
          <leafValues>
            1.0715380311012268e-01 -3.6650410294532776e-01</leafValues></_>
        <_>
          <internalNodes>
            0 -1 347 -3.1033109873533249e-02</internalNodes>
          <leafValues>
            -3.9916810393333435e-01 8.1188216805458069e-02</leafValues></_>
        <_>
          <internalNodes>
            0 -1 348 -1.7289260402321815e-02</internalNodes>
          <leafValues>
            3.8013750314712524e-01 -6.0977298766374588e-02</leafValues></_>
        <_>
          <internalNodes>
            0 -1 349 -1.5011649578809738e-02</internalNodes>
          <leafValues>
            -3.3468168973922729e-01 6.8933099508285522e-02</leafValues></_>
        <_>
          <internalNodes>
            0 -1 350 6.4567357301712036e-02</internalNodes>
          <leafValues>
            6.5394707024097443e-02 -4.7988981008529663e-01</leafValues></_>
        <_>
          <internalNodes>
            0 -1 351 1.2624289840459824e-02</internalNodes>
          <leafValues>
            -2.0736390352249146e-01 1.0337830334901810e-01</leafValues></_>
        <_>
          <internalNodes>
            0 -1 352 2.3402009159326553e-02</internalNodes>
          <leafValues>
            1.9422940909862518e-02 -2.9609990119934082e-01</leafValues></_>
        <_>
          <internalNodes>
            0 -1 353 1.0855530202388763e-01</internalNodes>
          <leafValues>
            3.5537008196115494e-02 -5.5214291810989380e-01</leafValues></_>
        <_>
          <internalNodes>
            0 -1 354 4.5320361852645874e-02</internalNodes>
          <leafValues>
            5.1564838737249374e-02 -2.5036799907684326e-01</leafValues></_>
        <_>
          <internalNodes>
            0 -1 355 -5.7765920646488667e-03</internalNodes>
          <leafValues>
            -3.6300620436668396e-01 6.0400400310754776e-02</leafValues></_>
        <_>
          <internalNodes>
            0 -1 356 4.2834520339965820e-02</internalNodes>
          <leafValues>
            -1.0816460102796555e-01 5.9968799352645874e-02</leafValues></_>
        <_>
          <internalNodes>
            0 -1 357 -6.7743198014795780e-03</internalNodes>
          <leafValues>
            2.1504840254783630e-01 -9.3404106795787811e-02</leafValues></_>
        <_>
          <internalNodes>
            0 -1 358 1.1993249878287315e-02</internalNodes>
          <leafValues>
            1.7558900639414787e-02 -7.4426478147506714e-01</leafValues></_>
        <_>
          <internalNodes>
            0 -1 359 -7.5555630028247833e-03</internalNodes>
          <leafValues>
            -3.8360419869422913e-01 4.8056539148092270e-02</leafValues></_>
        <_>
          <internalNodes>
            0 -1 360 5.1661770790815353e-02</internalNodes>
          <leafValues>
            -4.0535770356655121e-02 2.7973321080207825e-01</leafValues></_>
        <_>
          <internalNodes>
            0 -1 361 -3.4890910610556602e-03</internalNodes>
          <leafValues>
            1.1065530031919479e-01 -1.8241560459136963e-01</leafValues></_>
        <_>
          <internalNodes>
            0 -1 362 -1.7821760475635529e-01</internalNodes>
          <leafValues>
            4.6676158905029297e-01 -4.5715868473052979e-02</leafValues></_>
        <_>
          <internalNodes>
            0 -1 363 -3.9882469922304153e-02</internalNodes>
          <leafValues>
            -3.6969459056854248e-01 6.6279433667659760e-02</leafValues></_>
        <_>
          <internalNodes>
            0 -1 364 8.6848186329007149e-03</internalNodes>
          <leafValues>
            -9.0845301747322083e-02 2.9390209913253784e-01</leafValues></_>
        <_>
          <internalNodes>
            0 -1 365 -9.8893903195858002e-03</internalNodes>
          <leafValues>
            -5.9415078163146973e-01 3.5158470273017883e-02</leafValues></_>
        <_>
          <internalNodes>
            0 -1 366 1.2979790568351746e-01</internalNodes>
          <leafValues>
            -6.3968099653720856e-02 3.1669330596923828e-01</leafValues></_>
        <_>
          <internalNodes>
            0 -1 367 -2.2091900929808617e-02</internalNodes>
          <leafValues>
            -7.3574930429458618e-01 3.4748189151287079e-02</leafValues></_>
        <_>
          <internalNodes>
            0 -1 368 6.3688866794109344e-02</internalNodes>
          <leafValues>
            -4.8844788223505020e-02 1.8822559714317322e-01</leafValues></_>
        <_>
          <internalNodes>
            0 -1 369 -2.8462480986490846e-04</internalNodes>
          <leafValues>
            1.4634150266647339e-01 -1.2434139847755432e-01</leafValues></_>
        <_>
          <internalNodes>
            0 -1 370 8.7389163672924042e-03</internalNodes>
          <leafValues>
            -8.8357016444206238e-02 3.6513170599937439e-01</leafValues></_>
        <_>
          <internalNodes>
            0 -1 371 -8.5483584553003311e-03</internalNodes>
          <leafValues>
            -3.7375131249427795e-01 4.9242861568927765e-02</leafValues></_>
        <_>
          <internalNodes>
            0 -1 372 -4.8324568197131157e-03</internalNodes>
          <leafValues>
            3.0512019991874695e-01 -8.7134227156639099e-02</leafValues></_>
        <_>
          <internalNodes>
            0 -1 373 9.0768225491046906e-03</internalNodes>
          <leafValues>
            5.4005049169063568e-02 -3.6545351147651672e-01</leafValues></_>
        <_>
          <internalNodes>
            0 -1 374 -4.1476011276245117e-02</internalNodes>
          <leafValues>
            -2.6398089528083801e-01 3.6431320011615753e-02</leafValues></_>
        <_>
          <internalNodes>
            0 -1 375 -1.7926920205354691e-02</internalNodes>
          <leafValues>
            -2.0585890114307404e-01 9.5735296607017517e-02</leafValues></_>
        <_>
          <internalNodes>
            0 -1 376 1.3466989621520042e-02</internalNodes>
          <leafValues>
            4.0114641189575195e-02 -2.6507300138473511e-01</leafValues></_>
        <_>
          <internalNodes>
            0 -1 377 -1.0521490126848221e-02</internalNodes>
          <leafValues>
            3.3944410085678101e-01 -6.2721483409404755e-02</leafValues></_>
        <_>
          <internalNodes>
            0 -1 378 9.0459967032074928e-03</internalNodes>
          <leafValues>
            -1.1153969913721085e-01 3.6552271246910095e-01</leafValues></_></weakClassifiers></_>
    <_>
      <maxWeakCount>77</maxWeakCount>
      <stageThreshold>-1.5132089853286743e+00</stageThreshold>
      <weakClassifiers>
        <_>
          <internalNodes>
            0 -1 379 2.9219689965248108e-01</internalNodes>
          <leafValues>
            -3.0517441034317017e-01 3.1100711226463318e-01</leafValues></_>
        <_>
          <internalNodes>
            0 -1 380 4.8884529620409012e-02</internalNodes>
          <leafValues>
            -4.3176358938217163e-01 9.0919703245162964e-02</leafValues></_>
        <_>
          <internalNodes>
            0 -1 381 -8.6104847490787506e-02</internalNodes>
          <leafValues>
            2.3504100739955902e-01 -2.4588750302791595e-01</leafValues></_>
        <_>
          <internalNodes>
            0 -1 382 -3.7824749946594238e-02</internalNodes>
          <leafValues>
            1.1865279823541641e-01 -1.6027280688285828e-01</leafValues></_>
        <_>
          <internalNodes>
            0 -1 383 5.1638111472129822e-03</internalNodes>
          <leafValues>
            -3.0879729986190796e-01 1.6927860677242279e-01</leafValues></_>
        <_>
          <internalNodes>
            0 -1 384 1.0608089715242386e-01</internalNodes>
          <leafValues>
            -3.2493358850479126e-01 2.0097799599170685e-01</leafValues></_>
        <_>
          <internalNodes>
            0 -1 385 -1.7758550122380257e-02</internalNodes>
          <leafValues>
            1.1281190067529678e-01 -3.5320740938186646e-01</leafValues></_>
        <_>
          <internalNodes>
            0 -1 386 -4.9341689795255661e-02</internalNodes>
          <leafValues>
            1.4547340571880341e-01 -2.6537749171257019e-01</leafValues></_>
        <_>
          <internalNodes>
            0 -1 387 2.5910969823598862e-02</internalNodes>
          <leafValues>
            1.2290839850902557e-01 -4.1275170445442200e-01</leafValues></_>
        <_>
          <internalNodes>
            0 -1 388 5.6900721974670887e-03</internalNodes>
          <leafValues>
            -4.1842108964920044e-01 9.8855160176753998e-02</leafValues></_>
        <_>
          <internalNodes>
            0 -1 389 -1.0024379938840866e-01</internalNodes>
          <leafValues>
            3.8681399822235107e-01 -9.5526076853275299e-02</leafValues></_>
        <_>
          <internalNodes>
            0 -1 390 -2.0592489454429597e-04</internalNodes>
          <leafValues>
            1.0861500352621078e-01 -1.1460640281438828e-01</leafValues></_>
        <_>
          <internalNodes>
            0 -1 391 -2.4438640684820712e-04</internalNodes>
          <leafValues>
            1.3918270170688629e-01 -2.2799800336360931e-01</leafValues></_>
        <_>
          <internalNodes>
            0 -1 392 -2.2062960488256067e-04</internalNodes>
          <leafValues>
            2.0565949380397797e-01 -2.7677100896835327e-01</leafValues></_>
        <_>
          <internalNodes>
            0 -1 393 -9.5974102616310120e-02</internalNodes>
          <leafValues>
            3.0785810947418213e-01 -1.1823830008506775e-01</leafValues></_>
        <_>
          <internalNodes>
            0 -1 394 -1.5439930558204651e-01</internalNodes>
          <leafValues>
            4.4712421298027039e-01 -1.7546219751238823e-02</leafValues></_>
        <_>
          <internalNodes>
            0 -1 395 6.2385208904743195e-02</internalNodes>
          <leafValues>
            -1.2762880325317383e-01 2.6652419567108154e-01</leafValues></_>
        <_>
          <internalNodes>
            0 -1 396 -2.1663220599293709e-02</internalNodes>
          <leafValues>
            -5.5112272500991821e-01 7.8566007316112518e-02</leafValues></_>
        <_>
          <internalNodes>
            0 -1 397 2.4211770296096802e-01</internalNodes>
          <leafValues>
            -8.1605702638626099e-02 4.1426479816436768e-01</leafValues></_>
        <_>
          <internalNodes>
            0 -1 398 4.3407708406448364e-02</internalNodes>
          <leafValues>
            2.9027709737420082e-02 -6.5751147270202637e-01</leafValues></_>
        <_>
          <internalNodes>
            0 -1 399 -2.5835740962065756e-04</internalNodes>
          <leafValues>
            1.4794899523258209e-01 -1.8168459832668304e-01</leafValues></_>
        <_>
          <internalNodes>
            0 -1 400 -2.0531630143523216e-02</internalNodes>
          <leafValues>
            -3.0385929346084595e-01 5.8148749172687531e-02</leafValues></_>
        <_>
          <internalNodes>
            0 -1 401 -3.5120129585266113e-02</internalNodes>
          <leafValues>
            -7.7284640073776245e-01 3.3544670790433884e-02</leafValues></_>
        <_>
          <internalNodes>
            0 -1 402 9.0519672632217407e-01</internalNodes>
          <leafValues>
            5.8951519429683685e-02 -4.0955621004104614e-01</leafValues></_>
        <_>
          <internalNodes>
            0 -1 403 -2.9139410704374313e-02</internalNodes>
          <leafValues>
            -4.9474939703941345e-01 4.9022089689970016e-02</leafValues></_>
        <_>
          <internalNodes>
            0 -1 404 -8.9205689728260040e-03</internalNodes>
          <leafValues>
            1.7033359408378601e-01 -1.2763510644435883e-01</leafValues></_>
        <_>
          <internalNodes>
            0 -1 405 -6.8206740543246269e-03</internalNodes>
          <leafValues>
            -4.4272041320800781e-01 6.4747646450996399e-02</leafValues></_>
        <_>
          <internalNodes>
            0 -1 406 -1.1916610412299633e-02</internalNodes>
          <leafValues>
            -4.2080488801002502e-01 1.4589769765734673e-02</leafValues></_>
        <_>
          <internalNodes>
            0 -1 407 1.4910879544913769e-02</internalNodes>
          <leafValues>
            -2.6192238926887512e-01 9.8739542067050934e-02</leafValues></_>
        <_>
          <internalNodes>
            0 -1 408 -3.9695478975772858e-02</internalNodes>
          <leafValues>
            -5.7163047790527344e-01 1.5096279792487621e-02</leafValues></_>
        <_>
          <internalNodes>
            0 -1 409 -2.1801660477649420e-04</internalNodes>
          <leafValues>
            1.2833200395107269e-01 -2.1621960401535034e-01</leafValues></_>
        <_>
          <internalNodes>
            0 -1 410 -4.5885100960731506e-02</internalNodes>
          <leafValues>
            -5.8307892084121704e-01 2.3085020482540131e-02</leafValues></_>
        <_>
          <internalNodes>
            0 -1 411 -3.7609770894050598e-02</internalNodes>
          <leafValues>
            -4.7697749733924866e-01 4.9783270806074142e-02</leafValues></_>
        <_>
          <internalNodes>
            0 -1 412 -7.9078450798988342e-03</internalNodes>
          <leafValues>
            2.8025069832801819e-01 -8.0540910363197327e-02</leafValues></_>
        <_>
          <internalNodes>
            0 -1 413 3.9813838899135590e-02</internalNodes>
          <leafValues>
            -6.3936218619346619e-02 4.0940278768539429e-01</leafValues></_>
        <_>
          <internalNodes>
            0 -1 414 4.4679851271212101e-03</internalNodes>
          <leafValues>
            -6.8359166383743286e-02 1.8522049486637115e-01</leafValues></_>
        <_>
          <internalNodes>
            0 -1 415 -7.4347038753330708e-03</internalNodes>
          <leafValues>
            2.9873400926589966e-01 -9.6865907311439514e-02</leafValues></_>
        <_>
          <internalNodes>
            0 -1 416 -2.6862850063480437e-04</internalNodes>
          <leafValues>
            8.8527821004390717e-02 -1.4215320348739624e-01</leafValues></_>
        <_>
          <internalNodes>
            0 -1 417 -1.6553189605474472e-02</internalNodes>
          <leafValues>
            -4.9239259958267212e-01 4.9005638808012009e-02</leafValues></_>
        <_>
          <internalNodes>
            0 -1 418 9.2472568154335022e-02</internalNodes>
          <leafValues>
            3.3866059035062790e-02 -4.1273859143257141e-01</leafValues></_>
        <_>
          <internalNodes>
            0 -1 419 2.5774519890546799e-02</internalNodes>
          <leafValues>
            -2.2871309518814087e-01 1.2359119951725006e-01</leafValues></_>
        <_>
          <internalNodes>
            0 -1 420 -2.7509099245071411e-01</internalNodes>
          <leafValues>
            -6.7499440908432007e-01 3.4330759197473526e-02</leafValues></_>
        <_>
          <internalNodes>
            0 -1 421 7.1902588009834290e-02</internalNodes>
          <leafValues>
            4.1956070810556412e-02 -4.7635290026664734e-01</leafValues></_>
        <_>
          <internalNodes>
            0 -1 422 3.1190859153866768e-02</internalNodes>
          <leafValues>
            2.7266679331660271e-02 -3.0001860857009888e-01</leafValues></_>
        <_>
          <internalNodes>
            0 -1 423 -1.7863180488348007e-02</internalNodes>
          <leafValues>
            -3.7337848544120789e-01 6.1663690954446793e-02</leafValues></_>
        <_>
          <internalNodes>
            0 -1 424 1.5114569664001465e-01</internalNodes>
          <leafValues>
            5.1791738718748093e-02 -2.1886229515075684e-01</leafValues></_>
        <_>
          <internalNodes>
            0 -1 425 2.1793439984321594e-01</internalNodes>
          <leafValues>
            6.1016459017992020e-02 -4.1775038838386536e-01</leafValues></_>
        <_>
          <internalNodes>
            0 -1 426 1.1218019761145115e-02</internalNodes>
          <leafValues>
            3.4812860190868378e-02 -5.2636182308197021e-01</leafValues></_>
        <_>
          <internalNodes>
            0 -1 427 -1.8883459270000458e-01</internalNodes>
          <leafValues>
            5.2004408836364746e-01 -4.3031368404626846e-02</leafValues></_>
        <_>
          <internalNodes>
            0 -1 428 -1.4107990078628063e-02</internalNodes>
          <leafValues>
            -6.1068981885910034e-01 4.0028609335422516e-02</leafValues></_>
        <_>
          <internalNodes>
            0 -1 429 -1.8044840544462204e-02</internalNodes>
          <leafValues>
            -2.6319840550422668e-01 7.3012411594390869e-02</leafValues></_>
        <_>
          <internalNodes>
            0 -1 430 6.5544890239834785e-03</internalNodes>
          <leafValues>
            -8.5429012775421143e-02 2.2411470115184784e-01</leafValues></_>
        <_>
          <internalNodes>
            0 -1 431 -1.2311659753322601e-02</internalNodes>
          <leafValues>
            -4.4297298789024353e-01 4.6654261648654938e-02</leafValues></_>
        <_>
          <internalNodes>
            0 -1 432 -7.6358742080628872e-03</internalNodes>
          <leafValues>
            1.9960640370845795e-01 -5.2228130400180817e-02</leafValues></_>
        <_>
          <internalNodes>
            0 -1 433 -1.9270919263362885e-02</internalNodes>
          <leafValues>
            -7.6859807968139648e-01 2.4350909516215324e-02</leafValues></_>
        <_>
          <internalNodes>
            0 -1 434 9.6641881391406059e-03</internalNodes>
          <leafValues>
            -1.3469670712947845e-01 1.3244539499282837e-01</leafValues></_>
        <_>
          <internalNodes>
            0 -1 435 -1.2020190246403217e-02</internalNodes>
          <leafValues>
            3.5538628697395325e-01 -5.2558019757270813e-02</leafValues></_>
        <_>
          <internalNodes>
            0 -1 436 -2.2079790011048317e-02</internalNodes>
          <leafValues>
            -6.7542260885238647e-01 1.2419540435075760e-02</leafValues></_>
        <_>
          <internalNodes>
            0 -1 437 -3.0078861163929105e-04</internalNodes>
          <leafValues>
            1.2276499718427658e-01 -1.7497499287128448e-01</leafValues></_>
        <_>
          <internalNodes>
            0 -1 438 -3.7308711558580399e-02</internalNodes>
          <leafValues>
            1.8548089265823364e-01 -9.7975112497806549e-02</leafValues></_>
        <_>
          <internalNodes>
            0 -1 439 4.5999120920896530e-02</internalNodes>
          <leafValues>
            1.1436489969491959e-01 -2.4614730477333069e-01</leafValues></_>
        <_>
          <internalNodes>
            0 -1 440 8.2224510610103607e-02</internalNodes>
          <leafValues>
            -2.4108020588755608e-02 2.6900330185890198e-01</leafValues></_>
        <_>
          <internalNodes>
            0 -1 441 8.1898719072341919e-02</internalNodes>
          <leafValues>
            -3.9654031395912170e-02 5.0478577613830566e-01</leafValues></_>
        <_>
          <internalNodes>
            0 -1 442 4.6143731474876404e-01</internalNodes>
          <leafValues>
            -4.4239178299903870e-02 4.1229158639907837e-01</leafValues></_>
        <_>
          <internalNodes>
            0 -1 443 2.5755251408554614e-04</internalNodes>
          <leafValues>
            -1.7785720527172089e-01 1.2050230056047440e-01</leafValues></_>
        <_>
          <internalNodes>
            0 -1 444 1.5665199607610703e-02</internalNodes>
          <leafValues>
            -4.8571150749921799e-02 8.1546753644943237e-02</leafValues></_>
        <_>
          <internalNodes>
            0 -1 445 4.9880009144544601e-02</internalNodes>
          <leafValues>
            4.2151898145675659e-02 -5.3030568361282349e-01</leafValues></_>
        <_>
          <internalNodes>
            0 -1 446 -2.7810079045593739e-03</internalNodes>
          <leafValues>
            1.1986789852380753e-01 -1.9060449302196503e-01</leafValues></_>
        <_>
          <internalNodes>
            0 -1 447 -1.7600769177079201e-02</internalNodes>
          <leafValues>
            1.8970359861850739e-01 -8.8979102671146393e-02</leafValues></_>
        <_>
          <internalNodes>
            0 -1 448 5.0103738903999329e-03</internalNodes>
          <leafValues>
            -3.1680819392204285e-01 6.1706308275461197e-02</leafValues></_>
        <_>
          <internalNodes>
            0 -1 449 5.5831652134656906e-03</internalNodes>
          <leafValues>
            -2.0722299814224243e-01 8.9394062757492065e-02</leafValues></_>
        <_>
          <internalNodes>
            0 -1 450 1.0134370066225529e-02</internalNodes>
          <leafValues>
            -7.0040181279182434e-02 4.8694871366024017e-02</leafValues></_>
        <_>
          <internalNodes>
            0 -1 451 1.7011690139770508e-01</internalNodes>
          <leafValues>
            2.5866439566016197e-02 -7.2743201255798340e-01</leafValues></_>
        <_>
          <internalNodes>
            0 -1 452 1.2832039967179298e-02</internalNodes>
          <leafValues>
            -3.2375771552324295e-02 2.8207421302795410e-01</leafValues></_>
        <_>
          <internalNodes>
            0 -1 453 -2.1063549502287060e-04</internalNodes>
          <leafValues>
            9.8073638975620270e-02 -1.7797160148620605e-01</leafValues></_>
        <_>
          <internalNodes>
            0 -1 454 -1.5745580196380615e-02</internalNodes>
          <leafValues>
            -3.9818260073661804e-01 2.1284950897097588e-02</leafValues></_>
        <_>
          <internalNodes>
            0 -1 455 5.3099099546670914e-02</internalNodes>
          <leafValues>
            4.7397170215845108e-02 -3.5792729258537292e-01</leafValues></_></weakClassifiers></_>
    <_>
      <maxWeakCount>67</maxWeakCount>
      <stageThreshold>-1.5654580593109131e+00</stageThreshold>
      <weakClassifiers>
        <_>
          <internalNodes>
            0 -1 456 -1.2607829645276070e-02</internalNodes>
          <leafValues>
            3.2892930507659912e-01 -2.8717321157455444e-01</leafValues></_>
        <_>
          <internalNodes>
            0 -1 457 6.9764256477355957e-02</internalNodes>
          <leafValues>
            -2.1456170082092285e-01 2.6850989460945129e-01</leafValues></_>
        <_>
          <internalNodes>
            0 -1 458 -4.1743788868188858e-02</internalNodes>
          <leafValues>
            1.5136370062828064e-01 -3.8764739036560059e-01</leafValues></_>
        <_>
          <internalNodes>
            0 -1 459 1.0303430259227753e-01</internalNodes>
          <leafValues>
            -2.8481671214103699e-01 1.2986589968204498e-01</leafValues></_>
        <_>
          <internalNodes>
            0 -1 460 -9.6640773117542267e-02</internalNodes>
          <leafValues>
            -5.2456647157669067e-01 1.0953909903764725e-01</leafValues></_>
        <_>
          <internalNodes>
            0 -1 461 8.0958474427461624e-03</internalNodes>
          <leafValues>
            5.1381088793277740e-02 -2.6674580574035645e-01</leafValues></_>
        <_>
          <internalNodes>
            0 -1 462 -2.2447129595093429e-04</internalNodes>
          <leafValues>
            2.0919109880924225e-01 -2.4358089268207550e-01</leafValues></_>
        <_>
          <internalNodes>
            0 -1 463 1.2414649873971939e-01</internalNodes>
          <leafValues>
            -3.0061379075050354e-01 1.5729129314422607e-01</leafValues></_>
        <_>
          <internalNodes>
            0 -1 464 4.7367930412292480e-02</internalNodes>
          <leafValues>
            -8.4176316857337952e-02 4.1426560282707214e-01</leafValues></_>
        <_>
          <internalNodes>
            0 -1 465 -1.9609710201621056e-02</internalNodes>
          <leafValues>
            3.4175410866737366e-01 -1.6074979305267334e-01</leafValues></_>
        <_>
          <internalNodes>
            0 -1 466 3.4829009324312210e-02</internalNodes>
          <leafValues>
            7.5592942535877228e-02 -4.5084610581398010e-01</leafValues></_>
        <_>
          <internalNodes>
            0 -1 467 3.1012278795242310e-01</internalNodes>
          <leafValues>
            -3.9134029299020767e-02 1.4436219632625580e-01</leafValues></_>
        <_>
          <internalNodes>
            0 -1 468 2.9249370098114014e-01</internalNodes>
          <leafValues>
            -6.4225807785987854e-02 4.3533229827880859e-01</leafValues></_>
        <_>
          <internalNodes>
            0 -1 469 -2.3114589974284172e-02</internalNodes>
          <leafValues>
            3.0709230899810791e-01 -8.9011840522289276e-02</leafValues></_>
        <_>
          <internalNodes>
            0 -1 470 2.7578460867516696e-04</internalNodes>
          <leafValues>
            -3.0701848864555359e-01 9.3834467232227325e-02</leafValues></_>
        <_>
          <internalNodes>
            0 -1 471 4.5587219297885895e-02</internalNodes>
          <leafValues>
            3.8235291838645935e-02 -3.3477979898452759e-01</leafValues></_>
        <_>
          <internalNodes>
            0 -1 472 -2.4057110771536827e-02</internalNodes>
          <leafValues>
            -4.4573658704757690e-01 6.7070230841636658e-02</leafValues></_>
        <_>
          <internalNodes>
            0 -1 473 1.3616659678518772e-02</internalNodes>
          <leafValues>
            -6.1480499804019928e-02 4.2142671346664429e-01</leafValues></_>
        <_>
          <internalNodes>
            0 -1 474 -2.2992959246039391e-02</internalNodes>
          <leafValues>
            3.6616420745849609e-01 -8.7241843342781067e-02</leafValues></_>
        <_>
          <internalNodes>
