<?xml version="1.0"?>
<opencv_storage>
<my_nn type_id="opencv-ml-ann-mlp">
  <layer_sizes type_id="opencv-matrix">
    <rows>1</rows>
    <cols>4</cols>
    <dt>i</dt>
    <data>
      21 100 100 3</data></layer_sizes>
  <activation_function>SIGMOID_SYM</activation_function>
  <f_param1>6.6666666666666663e-01</f_param1>
  <f_param2>1.7159000000000000e+00</f_param2>
  <min_val>-9.4999999999999996e-01</min_val>
  <max_val>9.4999999999999996e-01</max_val>
  <min_val1>-9.7999999999999998e-01</min_val1>
  <max_val1>9.7999999999999998e-01</max_val1>
  <training_params>
    <train_method>RPROP</train_method>
    <dw0>1.0000000000000001e-01</dw0>
    <dw_plus>1.2000000000000000e+00</dw_plus>
    <dw_minus>5.0000000000000000e-01</dw_minus>
    <dw_min>1.0000000000000001e-01</dw_min>
    <dw_max>50.</dw_max>
    <term_criteria><epsilon>1.1920928955078125e-07</epsilon>
      <iterations>300</iterations></term_criteria></training_params>
  <input_scale>
    1.0387715651441962e+00 5.7444064681911572e-02 9.3120351873470497e-01
    -2.8398603276215068e-01 8.3941680548214248e-01
    -5.7424503617294742e-01 6.9653302155108221e-01
    -6.4842580719905751e-01 6.0502200758390789e-01
    -7.4581063031993999e-01 5.4084603402048048e-01
    -1.0458520056457956e+00 5.0931004935471624e-01
    -1.3810960601201443e+00 5.8581031057314725e-01
    -1.5343543643979660e+00 5.8231822671735078e-01
    -1.6138561422043793e+00 6.6131061187835127e-01
    -2.0050717302631353e+00 5.7656392530303013e-01
    -1.9834183382810895e+00 6.6272529630526678e-01
    -2.1027831864011231e+00 6.1941745678357685e-01
    -1.6673685556356557e+00 5.8891364769523458e-01
    -1.5511985500388368e+00 4.8986634907976417e-01
    -1.2577155222322824e+00 5.4229513973255983e-01
    -1.0739793686466359e+00 5.8767818162448038e-01
    -7.3830009903233318e-01 6.9744234704576713e-01
    -6.4778445154776787e-01 8.3275860933730750e-01
    -5.3560257888786544e-01 9.5145056769371528e-01
    -1.7157825257967690e-01 1.0405404513599223e+00
    -5.3206301506647742e-02</input_scale>
  <output_scale>
    5.2631578947368418e-01 4.9999999999999994e-01 5.2631578947368418e-01
    4.9999999999999994e-01 5.2631578947368418e-01 4.9999999999999994e-01</output_scale>
  <inv_output_scale>
    1.8999999999999999e+00 -9.4999999999999996e-01
    1.8999999999999999e+00 -9.4999999999999996e-01
    1.8999999999999999e+00 -9.4999999999999996e-01</inv_output_scale>
  <weights>
    <_>
      8.9176802016509293e-02 -5.6727458937815589e+00
      -1.9576751256816958e+00 -2.5102867433915823e+00
      -6.2405184728712815e-01 -4.1448467869332744e+00
      2.4539994505117715e+00 -1.7305360096869704e+00
      1.8887257941223720e-01 -8.4577836695633701e-01
      1.9765672673937575e+00 3.3328281363588736e+00
      -1.6291426892092089e+00 -2.5169293124037990e+00
      -1.2153398870842316e+00 -3.7260364894835858e+00
      -3.7878597582979188e+00 8.3387469690212135e-01
      2.3070493855532970e+00 9.1410018466154719e-01
      2.5371997858367612e+00 -8.4539909807716129e-01
      -2.1002426735057789e+00 -1.2856535993941565e+00
      2.0900722123981867e+00 -1.8141287878415955e+00
      -2.0660410592167477e+00 -4.0935575775061954e+00
      2.4461254699491453e-01 1.2248995368520352e+00
      2.0705830411323056e+00 -9.9325431705505363e-01
      1.9159171593710003e+00 -2.1774516033436901e+00
      -3.7833013965430207e-01 3.1710900365946850e+00
      2.8034922073689348e+00 3.4379096954173436e+00
      -5.7175699343801378e+00 1.2797603299245317e+00
      1.3949788121719078e+00 -2.3488991498859524e+00
      1.1270307148097496e+00 5.7691667741356083e+00
      1.0938428578047459e+00 7.6224689966968762e-01
      8.8221172271552217e-01 1.2794855240881389e+00
      1.6633149536072898e+00 1.7599746079325245e+00
      -1.6206133342128495e+00 2.6945808930986725e-01
      -2.2750007122921110e+00 -4.0898385939781978e-01
      -3.0865900461006179e-01 -5.0377977336729751e-01
      2.8323498713409752e+00 3.0231719341797167e+00
      -2.1573549893397912e+00 -4.0881448569881869e+00
      -4.4438306218577450e-01 3.0642825642360130e+00
      -1.7513339438363676e-01 3.2552053659761382e-01
      -2.3232146296082630e+00 -3.2246215468363175e+00
      2.7820611895682914e+00 -2.5849074017608205e+00
      2.0223360903422236e+00 -1.8512561655598549e+00
      3.2866721011557885e+00 2.3326832549616561e+00
      7.9117380504288426e-01 -2.6070586105082225e+00
      -3.7114259340535698e+00 -4.9271748557411224e+00
      9.4265559688936806e-01 -1.7371553143525984e+00
      -9.7763818480059828e-01 -1.7207902378127224e-01
      -2.9911151976164621e+00 -2.2592520932199918e+00
      -5.3677246329092387e+00 -2.0153049780879555e+00
      -1.5151734110573398e+00 1.2150902755011042e+00
      1.3141082126470152e+00 6.2325991967868644e-01
      -5.4415582729327845e+00 4.0342256332154101e+00
      1.6246064536383091e+00 -4.6024723998555073e-01
      6.6098548841995841e-01 -3.5367163915479782e+00
      9.3966413683289873e-01 5.5962765540210597e+00
      -2.8778240822320306e-02 -1.9060613092245071e+00
      5.0410068335122382e-01 7.0821241487899682e+00
      7.5824041066316472e-01 1.3056309655222933e+00
      4.4682271877167459e+00 -2.1631996817404620e+00
      -6.9190928891208026e-01 5.6273563071943489e-01
      2.3010262418410671e-02 4.7683006787430604e-01
      4.2660708728091046e-01 1.3679473129423667e+00
      3.0551299788406321e+00 -9.8096928791258897e-01
      -1.5754156374894581e+00 -3.5552768595634001e+00
      1.4718069738241939e+00 4.3711571878217859e+00
      -1.2893296874033777e+00 -2.6563771439511363e+00
      2.1569436874502887e+00 -1.8952531123366670e-01
      2.4352551450516429e+00 -1.3240848294818273e+00
      1.2742929020114575e+00 -3.3838560319862121e+00
      -3.0998720269868523e+00 2.6167838360126916e-01
      2.6759737917028037e-01 -1.4577643327558576e+00
      1.3415743028160176e+00 -2.3281534224052978e+00
      -4.4909233529172017e+00 2.9042552777575326e-01
      8.0973219101592497e-01 1.2830374321937488e-01
      3.1304260648700692e+00 -2.9267288508480140e+00
      4.1671875733213370e-01 2.9771037287173669e+00
      -1.3558634456260696e+00 7.4186177420058508e+00
      3.2135337871800109e+00 4.1959737191587889e+00
      3.1000303502751478e+00 9.4386044258563062e-01
      7.7649674063389096e+00 -1.1949376249480936e+00
      1.6402961795351247e+00 -2.4566219415136996e+00
      -2.5733651757510856e-01 -2.0830252098989255e+00
      6.1862137827409489e+00 1.0161528329825054e+00
      3.6929195095090739e+00 -1.9349826287262968e+00
      4.9565507972689193e+00 -6.6551708407477927e-01
      -4.1618490842569313e+00 -2.4744041755612596e+00
      -1.2078371105227588e+00 -6.1681147806669410e+00
      1.4700323195199175e-01 -9.6767360903917254e-01
      3.8364038229127875e+00 -3.2228037245209817e+00
      -4.7955302874749972e-01 -5.9245834039089518e+00
      -2.9544987813493790e+00 -3.6688513385562533e+00
      1.7136090269611117e+00 7.5146392002510065e-01
      -4.6338633751000474e-01 1.3575534299862664e+00
      1.6278405441523766e-01 -5.0259623346699049e+00
      -1.4422657633588476e-01 1.1213512084443862e+00
      1.2467530305004859e+00 2.4545306576060441e-01
      -1.9463502118679408e+00 7.8452898342027055e-01
      3.7852479469328659e+00 -1.5710914738435486e+00
      -7.5584602857325383e+00 -1.5448242456514250e+00
      -1.4411456075193707e+00 3.3752540452694193e+00
      5.3233517937995156e-01 -3.9302843698567980e-01
      -4.5063017852804608e+00 3.1296534602966979e+00
      8.3930706583559045e-01 4.4732684464535861e+00
      -4.4979062703033312e+00 2.6323994336402587e+00
      2.9065129337217561e+00 -4.0057185954977843e+00
      1.3367209088263734e+00 2.3908412934839500e+00
      4.3095355425217710e+00 1.7184168523430674e+00
      -1.0544842062851119e+00 -2.1300667883145876e+00
      -1.8342045677771679e+00 -1.5183191844492430e+00
      -2.0596501033059118e+00 2.3487378122166862e+00
      -2.9199972396198333e+00 8.0511594408396681e-01
      1.3371517790015752e+00 -3.5196573621796096e-02
      1.1639415706116174e+00 -3.3177949799293414e+00
      8.0662437173605839e-01 1.6221234052272808e+00
      2.1018665461983739e+00 -2.1864498324122095e+00
      -1.0208918044498734e+00 1.6495651884517759e+00
      3.7768861588154774e+00 4.0585811798806697e+00
      6.1793367934361951e+00 -4.4968428549122095e+00
      3.6265718912297960e+00 -1.2001617269219791e+00
      -2.2197332776187411e+00 -2.7748371377383436e+00
      5.7861742248178736e+00 -2.0896227298931542e+00
      2.7049582132128065e+00 -3.8083334064685985e+00
      1.6436940644630718e+00 -1.5374960893867660e+00
      -2.6148627453062350e+00 -5.6164776640826179e+00
      4.3818334049462382e-01 2.9450606729638760e+00
      -4.4471100963776893e+00 1.5290425710016287e-01
      -2.0267614912792928e+00 -1.5752486205999131e-01
      -2.3385554539236142e+00 -1.3793946252818863e+00
      1.9511205995895961e-01 -6.9338219995385275e+00
      2.0726044173615241e+00 -5.3545605672571721e+00
      -1.0860740175186618e+00 7.1617990803106313e-01
      -2.2348359915891609e+00 -3.9326328204698560e+00
      -3.3487378347290675e+00 -7.6871967629233184e-01
      2.0745633299088628e+00 -4.3594707812620781e-01
      2.7509953033968668e+00 -3.1314919838408568e+00
      -1.7328489335885586e+00 -1.6270999100468428e+00
      -4.4743585120822811e+00 1.0090467876142806e+00
      8.8815512814210396e-01 -2.4915945864695637e+00
      1.3601673651363780e-01 -3.4999759190309572e+00
      1.8073046009586391e+00 3.5555162546622232e+00
      -1.9455712057037498e+00 6.6806349087330463e-01
      -3.1533611180503227e+00 -2.3617228193098065e+00
      -4.7888870155018006e+00 -2.1062622885799636e+00
      -2.4638765244895469e+00 -1.9015036186711487e+00
      -3.5313794123954589e+00 7.9891446142533407e-01
      1.4049114155568121e+00 -1.1601160442223968e+00
      2.5210008207862402e+00 3.0403358227225494e+00
      8.5733563909909294e-01 3.3683124788748882e+00
      1.2399833830476030e+00 5.4182840759021689e-01
      3.7684803580949495e+00 -2.0006856211977708e+00
      3.4824368055544686e-01 -2.1212628273581045e+00
      -4.8157667269365856e-01 -2.8664652610097243e+00
      -3.7572162282926649e+00 -3.1178939692428709e-01
      2.6197889754506760e+00 -4.2237413378512856e-01
      -4.0489533638286668e+00 -2.3615505249718600e+00
      4.4843826162681575e+00 3.5706497535284694e+00
      -1.8402513033929691e+00 2.1214304674475315e+00
      -1.4806141510178226e+00 -3.3671283086875339e+00
      6.1151037395542707e-01 -1.3507044110759499e+00
      -3.8896067578226956e-01 3.4909024188288598e+00
      -1.0713462843103649e+00 -4.1781541700444225e-01
      -1.3506831975480309e+00 -3.7445886275417106e-01
      -4.8219228261508054e+00 1.3659319652409612e+00
      2.7246723782869631e-02 2.5056649960947928e+00
      2.3892409125586505e+00 -1.2937840127103304e+00
      5.2713970317908210e-01 -3.2846327083388163e+00
      -1.9628175300711161e+00 1.9695877533725763e+00
      5.6092387821483820e+00 2.2780808185885126e+00
      -2.9246823361215872e+00 -4.4761966566552136e+00
      -5.2282311672581310e+00 6.4523212792140183e-01
      4.4454367765043621e+00 -1.0451782494849011e+01
      2.5693013491577847e+00 3.2364870759861231e+00
      -9.6023692950118644e-02 -9.3648708245332724e-01
      -1.8481428289435686e+00 1.0539407510130456e+00
      9.8617040603316919e-01 4.3974214771542164e-01
      -8.3949843791592949e-01 -2.6723605910809280e+00
      1.1582126084963646e+00 -1.7872683553838131e+00
      -2.2700697134509835e+00 -1.8690303048753134e+00
      1.3137911750924576e+00 -5.4663491136565256e-01
      1.3637377321058821e+00 -2.3200766295612332e+00
      -1.4038297324483662e+00 -1.7636446358795312e+00
      -1.2965866215632691e+00 -4.4651401761295988e+00
      2.7535171657848023e+00 3.2111182825289211e+00
      2.9367801065363399e+00 -8.2601068262931399e-01
      -9.4558508801668839e-01 6.5041953331932820e+00
      -3.9524292009548869e+00 -2.1155148060615288e+00
      -2.7262166106662495e+00 9.8742115288472387e-01
      -1.0867464195290888e+00 6.9148947980270836e-01
      -7.6979964002447965e-01 -3.2459512420696141e-02
      -1.8992599870503581e+00 6.5325772866452947e-01
      -4.4475663282842026e+00 -6.1328956682808500e-01
      -2.0760230806252777e+00 4.9538111046465716e-01
      -5.0790826621263996e-02 -2.4915708940287478e+00
      1.0930888087554980e+00 -6.8754910404982633e-02
      -1.6290786460782500e+00 2.2498612195998238e+00
      2.3798193118538360e+00 1.0418126452566554e+00
      8.6074215164218126e-01 6.8632985760400400e-01
      -1.1799115083678791e+00 1.0301929003279378e+00
      -9.0226941727166976e-01 -5.7463963578453630e+00
      4.4725130331496343e-01 -2.3314469377976788e+00
      -1.9281080331631031e+00 -2.0860698916943883e+00
      1.8239606976118541e+00 1.9603987121931001e+00
      4.8619313903570625e+00 4.2852039987676633e+00
      -5.4736297729902439e-01 1.3553054601821499e-01
      -1.7934030822122391e+00 -7.9821409932161125e-01
      1.1365281679293018e+00 -1.2736347349199768e+00
      2.8533186694630683e+00 1.7271857589763255e+00
      -5.2744013012243265e+00 -2.8898471712884239e+00
      6.3719228016019513e-01 -5.8423142600345912e+00
      -2.4725126670980924e+00 4.7586760062843831e+00
      3.9956748249113505e+00 -2.1599633879501021e+00
      -2.8641787822253901e+00 3.9005999783251895e+00
      -3.2283413360512458e+00 2.4975487355035053e+00
      -1.7859764346005429e+00 1.0408516123090388e+00
      1.1870365061251698e+00 4.2069658572612321e+00
      -5.7624527419476355e+00 -1.5986484908794107e+00
      3.5644023396261981e+00 -5.6073928023883934e-01
      1.7153437206272284e+00 -1.8919964898123589e+00
      -1.5552217648286251e+00 -3.8723110203431981e+00
      1.1912675466906535e+00 1.3341476126811773e+00
      -5.6405609797798242e+00 -3.1081004435331789e+00
      3.6417263829629625e+00 -8.5915698852749567e-01
      3.6101918949982110e+00 -1.8276575029055069e+00
      -1.7041376194153615e+00 -4.3842660719811732e-01
      -3.9788728596738041e+00 -8.7608172257861328e-01
      -1.4109979776295243e+00 5.3478333663812005e+00
      2.5288791172728429e+00 -2.1131958366949664e+00
      2.5006019077639312e+00 1.1622871895407760e+00
      3.1693641345480490e+00 -7.9178047798362328e-01
      3.7918712516599005e+00 -9.3653936025424656e-01
      -3.0008018228807991e+00 4.9734618610845800e+00
      2.3129430170554151e+00 -1.2797216317596580e+00
      5.1947796153139443e+00 2.7495306989487682e+00
      1.2892285301053691e-01 -1.2003539648252097e+00
      -2.9897934828589925e+00 5.9251056299015490e+00
      -4.6490651919812978e+00 -1.3953558003933639e+00
      -4.4203627555823699e+00 -1.7901341970011457e+00
      -8.1026458921508238e-01 3.0708565391711082e+00
      1.3091286850901924e+00 2.6361029970337562e+00
      -1.2798295819750132e+00 7.0611125601699254e-01
      -1.4939293293496958e+00 5.4673375149895720e-01
      5.5878997019374443e-01 7.5229782502327658e-01
      -1.9302065545962588e+00 6.2224924813911742e-01
      2.1367605716327320e+00 -2.3177806528115328e+00
      -3.3852165737845468e+00 2.0285184079290981e+00
      -2.6838400127781994e+00 1.1723551511829808e+00
      2.0828892658959446e+00 3.0926255572197521e+00
      -2.1560988996128163e+00 2.1237066927640895e+00
      -1.7993321658728925e+00 1.7232153049311933e+00
      2.2259809282584446e+00 -1.5694929051865814e-01
      2.9376652808538641e+00 5.2328409858509539e-01
      9.8420819246334712e-01 3.6871306413857949e+00
      6.8793120326997910e+00 1.5294978884937560e+00
      1.4046851911937783e+00 1.1775415172847921e+00
      -2.1425862117130778e+00 1.1274177503887950e+00
      2.3567720384256536e+00 -7.1725382114670055e-01
      4.2825255672067195e+00 -1.8843274288077971e-02
      -3.5778917300644588e+00 -4.5556398154981075e+00
      -1.1947047301886462e+00 -5.6711508703236535e-01
      -6.5958469335807806e+00 1.8195986202430090e+00
      2.3171768537431151e-01 -4.6509636756812860e+00
      -2.5378832076948710e+00 6.0817229148026382e+00
      -4.5306706243830046e+00 8.0061609947722712e-01
      9.0350671408523142e-01 4.6565794640919984e+00
      -1.5853292681248751e-01 5.3725496161620784e-02
      -2.3686671841452323e+00 -1.4515567861010770e+00
      1.8393996048010788e+00 -1.2229708340147383e+00
      3.6011933259067122e+00 1.8477036609650772e+00
      -1.9624542193356125e+00 2.7340852869320298e-01
      2.3708995373877628e-01 1.7734992059380155e+00
      3.3534767421767686e+00 -1.2072772414223829e+00
      -2.3058585122296118e+00 -1.5774763120112072e+00
      -1.8794126308367500e+00 1.2253243678583259e+00
      -9.8120492290726624e-01 -1.6674807847475170e+00
      7.7805258990895110e-01 5.4237634471745988e-01
      -4.0774626369944471e+00 3.5987976398174282e+00
      4.5549399577980110e-01 -1.0850329430139158e+00
      2.5435219489621792e+00 1.2046687996732499e+00
      1.4885107296920119e+00 -1.9708185958842674e+00
      -2.2143405411402557e+00 1.6014702422028884e-01
      -3.6937957688602641e+00 -1.3281166877209016e+00
      4.7390983199299974e+00 -5.0251016844887717e+00
      1.6925065777569486e+00 7.0833189349240178e-01
      1.1567944144250804e+00 -7.2040422522050038e+00
      -1.1418665901465850e+00 4.1864081948519187e+00
      -4.9410975048126735e+00 3.9412812499911259e-01
      -1.3779835785383172e+00 -3.8818201870963320e-01
      -3.0875780681251404e+00 8.2910367980361055e-01
      2.7426554898734419e+00 7.6346661518944048e-01
      3.3621154139261566e-01 2.7694784924225752e-02
      -2.3015807299777249e+00 1.5912285345173633e+00
      1.2604897285091186e+00 -1.7342269884813548e+00
      -1.3011765704545688e+00 -5.9046918386198188e-01
      2.7949603765348723e+00 1.8389788411785057e-01
      -2.9732079782128400e+00 3.7090411669393220e+00
      1.4339570216601529e+00 -3.6839854131789884e-01
      -6.5851957323184440e-01 9.6785432844010122e-01
      -3.5037965212109856e-01 -1.0954268182901998e+00
      1.5009268855923463e+00 2.9771037224746992e+00
      6.0197594862676862e+00 -8.8303747856449955e-01
      -3.9268759708438865e+00 -4.1260261955355020e+00
      -1.4611992946664067e+00 2.3007676027737323e-01
      7.4614684249628804e-01 -7.7716317686155523e-01
      -1.1252211966835068e-01 1.8992904936309416e+00
      -1.4206869007450276e+00 -3.6513189152990555e-01
      3.2442138600169010e+00 -4.3030896810198904e-01
      1.5867934256055174e+00 1.8902667125060528e+00
      -8.4134983665792955e+00 9.4862474345611214e-01
      -2.2099780196378316e-02 4.4758567105461899e-01
      -1.4873298439459197e+00 -6.7093974967536441e-01
      3.2467604269056789e+00 -4.0587802990347184e+00
      -6.1559144268247667e+00 4.1712112696919981e+00
      -2.0748560022445819e+00 2.3409985279672294e+00
      -1.1139281859132888e+00 9.1488764806126388e-01
      7.0521983357035110e+00 -6.7197468562827212e-02
      -2.4700187133836105e+00 -3.1482383464900607e+00
      -2.9445754006807978e-01 6.0751606657683010e-01
      8.1636332121201982e-01 2.8095434886498514e+00
      1.4663499744667408e-01 -5.7646988703062929e-01
      3.5682079707589369e+00 -5.1893871653392774e+00
      6.6793319193259864e+00 -1.9809330276413695e+00
      7.3855915933421503e+00 -3.8105144136821878e-01
      4.3588220962127222e+00 6.7494399476347644e-01
      -5.6351978993835647e+00 1.2929509659885703e+00
      -3.2797391313730095e-01 2.1036587062277081e+00
      -6.1704949201613299e+00 2.6554017485506152e+00
      2.0366754336592474e+00 2.6721616737150788e+00
      5.4047003817956707e+00 1.3414505481646284e+00
      -4.2701684511597426e-01 -1.3713293468741370e+00
      1.7204317351459983e-01 -6.1660636484374631e-01
      -4.1257329607037549e+00 7.5831299447473277e-01
      -1.1062687690458356e-01 -1.0345812463634398e+00
      3.8976685365226076e+00 3.5468426636240378e+00
      5.4034618550211966e-01 1.9769956027150679e+00
      2.5332530543706877e-02 -4.9208647282651630e-01
      -1.5322659324305499e+00 -1.9738501483968816e+00
      -8.4117448458771160e-01 -2.4993230609576651e+00
      -3.7563381936808593e+00 -1.6879426214507751e+00
      -1.1590485140811890e+00 -4.5894509731427435e-01
      1.1533338632577985e+00 -3.6383011936453848e+00
      -1.8995199826760807e+00 1.1017620418572124e-01
      1.2398429724064017e-01 -1.3336162271593170e+00
      -9.4827500407127885e-01 1.7587946006732916e-01
      -1.5058373190608063e+00 -1.1380206254450020e-01
      -3.1059012903647649e+00 8.5610041725009212e-01
      -9.7609241016295578e-01 1.2542592811248936e+00
      -2.0945882432843534e+00 1.6340108710689665e+00
      7.3908990500119481e-02 -4.2048504620498084e-01
      5.6447787347482115e-01 -4.2745046384961061e-01
      1.4625305564768680e+00 -2.1559045742467204e+00
      -9.8207541548314161e+00 1.6581316028081050e-01
      -4.2474147045817923e-01 -1.1819719222280169e+00
      1.2098890316726028e+00 1.3716598731269194e-01
      7.2719719063063992e-01 7.8080641171414000e-02
      -2.6837344009142181e+00 -1.8838811331365322e+00
      2.3796836055815058e+00 -1.5242676278817484e+00
      1.7279338911720397e+00 -9.2186730252312110e-01
      -3.0212520829032443e+00 2.1639776403734540e-01
      1.7327198334864831e+00 -2.6800914828104307e+00
      -6.1409073021900051e-01 -2.8699378243800839e+00
      3.6174647765020849e+00 -4.7007200475939168e+00
      -3.8789546787453228e+00 4.5049008789220615e+00
      -7.0794838815937799e-01 2.3590271284839881e+00
      1.9469154632212513e-01 5.2685482312426068e-01
      2.3024191207449309e+00 6.6202727362543590e-01
      -2.0148052329357498e+00 -1.5143647060317171e+00
      3.0267578420317083e+00 9.7138994109688659e-01
      -1.4064590773383889e+00 3.9392000786594497e+00
      -1.0240343697182761e+00 -5.7829884759365315e+00
      -3.8287795607490738e+00 1.4143900627793822e+00
      5.4192984316945436e+00 -6.6031039581873952e-01
      3.7111375039777239e-01 4.7861391701531275e-01
      4.3744511694137902e+00 1.4128740450047164e+00
      -1.9455013097149323e+00 -2.7692251700748631e+00
      -4.3245399358593517e-01 4.5626438037412989e+00
      -3.5736135683637960e+00 4.5868797794672300e-01
      1.7772949397184956e+00 1.2895015984852076e+00
      2.3483856279794444e+00 1.8335481762080724e-01
      7.7087694591582379e-02 3.0573516382172283e-01
      9.2320006034532931e-01 -2.3680717964690947e+00
      -5.2014303060891498e+00 3.3283670342927918e-01
      6.5219011941936929e+00 -1.2006241190433427e+00
      -5.4341576154900184e-01 -1.3468445872691366e+00
      -6.0274078559546718e-01 -4.8580675816788563e+00
      -9.5635428666439737e-01 -1.2983415170716011e+00
      -2.1921997910517779e+00 -9.2730096764582803e-01
      -2.3153990271214493e+00 -4.4295715531707778e+00
      -3.8674012115085321e+00 1.1555488531291807e+00
      -4.0658761995753523e-01 -2.3372109941685930e+00
      1.4036527730548265e-01 1.8208030380015880e+00
      -1.2696546141000864e+00 -7.6853054607235227e-01
      -1.3756566693845649e+00 2.0193683869735443e-01
      -8.2829318526157913e-01 2.8320449492242838e+00
      7.1417124059498305e-01 -2.8536922186444964e+00
      1.6708068931462674e+00 1.0605842245373062e-01
      8.2840759582686685e-01 1.0577128244184462e+00
      -5.1213705092722321e+00 -1.2072984250110852e+00
      3.7943014712231062e+00 7.1338194393694176e-01
      -3.5228121188796324e-01 -2.2015006637872778e+00
      6.6054660609963065e+00 7.9677684411532468e-01
      -4.8573763167721067e+00 -5.9343444110477863e+00
      -4.7626207554413058e-01 2.0668685546810992e+00
      1.5837073193129116e+00 1.9771992607291819e-01
      -9.4267013452041382e-01 -9.0149848555454881e-01
      -2.5557963547403402e+00 5.4798598762337880e-01
      -3.8010397366677140e-01 -2.0411525059628541e+00
      2.2194899589512209e+00 -4.4794545297611936e+00
      6.9786596811572932e-01 3.2765371496947822e+00
      2.3863515062314535e+00 2.1420175228096623e+00
      1.6459507424376945e+00 -2.8164643904582833e+00
      2.6950860641983247e+00 3.3977439831709633e-01
      1.5090025102262812e+00 -8.6451578162740073e-01
      9.0084758190348418e-02 2.4845785441357320e+00
      -4.8290415778044515e+00 2.7625628877727113e+00
      -2.8049871360080025e-01 -2.9044367721715032e+00
      -1.4924065839361114e+00 1.0264929644064298e+00
      -3.0369515110276946e-01 4.7099445598117322e+00
      -1.8929708450278393e-01 4.6482712450918893e+00
      -1.7856502248746031e+00 6.9520874801058319e-01
      -3.9798218017551652e+00 -9.9340935299801147e-01
      1.2921032763543747e-01 -9.0033478841887560e-01
      3.9694638254424968e+00 2.9215584218842343e+00
      1.9973246826006947e+00 3.4533212246621496e+00
      -3.4330867354119552e+00 -3.3689501506486450e+00
      -1.3943048718052249e+00 1.7846659414393677e+00
      1.8414420138349419e+00 1.5692161922073031e+00
      3.4587182167317758e+00 3.3716205243126978e+00
      3.6448469365263620e+00 3.3570742199599685e-02
      -3.2388383719898122e+00 2.5654520514153720e+00
      -1.6683833600415261e+00 -2.8424711969541705e-01
      1.1410479755175991e+00 -4.2293314594073450e-01
      -3.4793973998294279e+00 4.8178658793021745e-01
      -3.5114950879280675e+00 1.5063283518449109e+00
      -2.2501380543673348e+00 -2.7031438224862838e+00
      -3.1816001916664063e+00 -2.2823435969756996e+00
      3.5501247802670199e-01 -3.4919531226600836e-01
      -6.5820175195402264e+00 -1.9043902130208967e+00
      -1.4496813329323790e+00 1.8216555531407219e+00
      -2.5871273945925644e-01 -1.4738315146355821e-01
      -4.0614015299669060e+00 -1.2450612824902778e+00
      -5.4018628560985871e-01 -8.9193476841146180e-01
      -2.5199911578796208e-01 6.6769375010069911e+00
      -5.2961910007008868e+00 3.6147674778534569e+00
      3.0981081480675599e+00 2.2671665082543049e+00
      3.1313021316789857e+00 4.3147728366490445e-01
      -3.1153327770211425e-01 5.5343536404375531e+00
      1.2471677164143782e+00 -3.6845231642357863e+00
      -7.4781474281708149e-01 -9.8684826828086458e-01
      -1.1587749465623269e+00 -3.1899678681916326e+00
      -8.2589455621213004e-02 3.9842016895592098e+00
      9.1163849491968130e-01 -1.5801642148190886e+00
      -2.5650694731652739e+00 1.0631382778461376e+00
      5.2062615729318984e-01 -1.8893930346655927e+00
      -2.0341795769733659e+00 2.9468023360890920e+00
      -4.3032795360689713e+00 3.7371914824731816e+00
      -2.7628309278378262e+00 3.2644498699848978e+00
      1.0954606629403099e+00 -3.0720649791975911e+00
      2.7329773298767042e+00 5.9958179116243189e+00
      -2.5820696089870410e-01 6.3109452293146973e-01
      2.7232491275753632e+00 -2.4552393899159153e+00
      3.3306890614675677e-01 1.5939937095782926e+00
      -3.8918050111496572e-01 -3.0684194315089992e+00
      2.6768677256721887e+00 7.2018506605614725e+00
      -4.0128597006397477e+00 -1.7313780357722957e+00
      9.9688460003165502e-02 1.9105887473449346e-01
      4.9638400871018784e-02 3.1856949243500434e+00
      -3.4575427722218546e+00 2.2613563159547945e+00
      -2.0508522395186142e+00 -7.0023105434412025e-01
      -9.8766163724472449e+00 4.9602312455689590e-01
      5.0077110960210769e-01 -3.0140950416667707e+00
      -3.9671590627540874e+00 -3.7362624786029954e+00
      2.8295230407563932e-01 5.7422764183785375e+00
      1.4703432363455209e+00 3.7734773703133828e+00
      1.1422393779312177e+00 5.1044226351504092e+00
      -4.8213194881082710e+00 1.4184206534490529e+00
      1.4043025130641618e+00 -2.5110447009292196e+00
      -8.5537661045328756e-02 -5.1016666461774278e+00
      -3.1120512405859850e+00 3.9417350507835081e-01
      1.6853821443595299e-01 5.6384745651480692e+00
      -1.7817532677674948e+00 -4.4750136790811004e+00
      -5.1771270213111031e-01 7.2933553236001120e-02
      2.6759410652957960e-01 3.6553228341871891e+00
      -6.7255742742701741e-01 2.7919541407358612e+00
      2.1761473952527483e-01 -1.2407026103219640e-01
      -9.1852069186441572e+00 8.2688709625981427e-01
      -1.6855639659520949e-01 -1.3538635297862576e+00
      1.8000024013051623e+00 4.9222993552512211e+00
      5.3005521988890492e-01 5.2234632233157996e-01
      1.9405399660811831e+00 -1.1842000075408703e+00
      -4.5243504265224868e+00 -6.9517753238214697e+00
      1.2621593623197174e+00 -1.3086427760720891e+00
      2.7232933267327146e+00 7.5698034709346977e+00
      4.0613128225348061e-01 3.3630426804268942e-01
      2.0037426616132117e+00 4.4635391915321043e-01
      -9.9401793722648457e-02 2.5282590156094580e+00
      -3.7942441713655173e+00 5.6423778049776141e-01
      -2.2277587249975470e+00 -4.3255741472398066e+00
      -3.2135591065047970e+00 3.8186777715910054e+00
      8.1756954049995445e-02 -4.9479381787124908e+00
      -7.3399004032363324e-02 2.7895254423875242e+00
      -1.6074048919112979e-01 3.2081808525550541e+00
      -6.4150442601778279e-01 -2.3223419629668260e+00
      1.8123970916551194e-01 -2.1591958990204163e+00
      -4.8703534890591431e+00 -1.3578110389062950e+00
      -5.5802823278859863e+00 -1.5152537271107444e-01
      -2.6815465766173201e+00 2.0538185055559106e+00
      -1.3680915551623030e+00 -2.0254257402311735e+00
      1.8078348685854293e+00 4.7154789485350852e+00
      1.4098919811356594e+00 2.3565542586761383e+00
      2.5068402494096995e+00 -1.4155943141586786e+00
      -1.3333238648543420e+00 -1.0760223264759698e+00
      -1.7891564067169350e+00 8.3084957756202293e-01
      1.6655108280290473e-01 3.0703408176956506e+00
      -3.1966637153998292e+00 3.8216180726069178e+00
      -1.2860506983686215e+00 -3.2674520771254145e+00
      8.7846830261286035e-01 -1.5391812191597869e+00
      -3.1589670208008860e+00 -3.0782069024149252e+00
      1.9155318889892383e+00 4.1850505012678019e+00
      -2.3983836065013260e+00 -2.0874238287047149e+00
      -3.8681292396649114e-01 2.1756244372919133e+00
      -2.8635175707709810e+00 -1.2099858807748037e-01
      -2.8756871168163549e+00 4.1688082357452849e+00
      5.2736059153017933e-01 3.2112602261304972e+00
      -1.4951657562383514e+00 3.4353921001738539e+00
      -1.9960260286722036e+00 1.1647014899277766e-01
      2.3488762189293833e+00 -1.8046759763837189e-01
      1.1928440796829659e-01 -2.4760657438709206e+00
      1.1059798393216689e+00 5.5323658609059763e+00
      1.4817205824330315e+00 2.5671779404219848e+00
      2.6326990366474616e+00 -4.0380185387191769e+00
      -8.7249943874258551e-01 7.7282951518222587e-01
      -1.4532106770112589e+00 -1.0027218719619040e+00
      -1.6120904472826965e+00 -2.3970761334404767e+00
      1.4379637628245248e+00 8.4759869051398218e-01
      -2.2879927563887650e+00 -8.2715504184633848e-01
      -9.1008649983706269e-01 6.9160871843485128e-01
      -6.0405742272726648e-01 4.2443844318968427e-01
      2.1916457060132126e+00 -3.7579268721902026e-01
      4.7482048857125241e+00 4.9228586113292785e+00
      -3.9733441431374019e+00 -4.3608162020266872e-01
      1.0669445272234102e-01 3.9614895473919975e-01
      -1.9678404490549943e+00 5.4141900740173883e+00
      3.0045409264994567e+00 -4.1494936806431131e+00
      2.9018642424007721e+00 -5.0533946437182309e-01
      2.5279599476983412e+00 2.2789236671751358e+00
      -3.8528891897000539e-01 1.3921851052075183e+00
      2.7534607257180523e+00 -4.9837046831790985e+00
      -4.9029008718388338e+00 3.7490169116361036e+00
      3.8680580195090384e+00 -3.0431012948486833e+00
      4.5726595300593231e-01 4.2579577983679373e+00
      -5.5563647878993661e-01 -2.2908330707372073e+00
      1.8580982356128714e-01 -2.3172961628121258e+00
      -7.4711271906426535e-01 2.4817156647361949e-02
      -4.7761531549590392e+00 2.2818857658785894e+00
      -7.3547475876378987e-01 1.7863255432120924e+00
      4.3123451524816003e-01 3.1927038677263040e+00
      -6.5064386793767504e-01 -3.6430797881348473e+00
      2.7753084098994791e+00 -3.0504874516622209e+00
      1.4884045527148522e+00 1.4118447678278101e+00
      9.3552026099748176e+00 -3.4915033299097584e+00
      -1.4440259148570272e-01 -5.4550027928873812e-03
      -3.6836735596944281e-01 -1.1642129271444785e+00
      3.4860954504296817e+00 1.3574215527008886e+00
      -4.4327779047154892e-01 1.8704828846862958e+00
      1.3430068976812470e-01 -1.0549358496140129e+00
      7.4399356452600891e+00 5.5839525079208174e-01
      -6.0798223725097138e+00 -3.7123189167188393e+00
      -6.0400007231526773e+00 1.6220368409547570e+00
      -1.4054960913378718e+00 1.6649076252261850e+00
      -8.0657597659051700e-02 -5.9463538030463758e-01
      -2.0716035169309945e+00 2.1449395934772593e+00
      -6.1592786938440032e+00 2.4101392127977932e+00
      3.5716615377123215e+00 9.3955341423001248e-01
      4.4432529855981837e+00 3.1377960184639240e+00
      -4.9292945952638592e+00 -2.6762419192083935e+00
      1.5815532308128386e+00 -5.5103582839524625e+00
      -2.2630730556137930e+00 -8.2841052207762733e-01
      -4.2260281524874159e+00 -6.0429792461989718e-01
      -4.0902152418842670e+00 -4.1075043883256529e-02
      -2.2719311267149447e+00 -4.5273649852521070e+00
      2.3352130338066543e-01 1.1916054805473821e+00
      -1.8333423140359519e+00 1.0738638296145402e+00
      -1.2482820753939767e+00 -1.6605359728441074e+00
      2.3231425304797204e+00 3.3446651598162713e+00
      -2.7352684356420860e+00 -6.0656876430842777e-01
      2.8188009384389789e-01 2.8564373587858167e+00
      3.6159322342151032e+00 1.6708997806998886e+00
      7.9988276993800622e-01 -3.4924406362824267e-01
      -1.6382848197425377e+00 -2.6758091701253162e+00
      -2.5971534059632071e+00 -1.0953612399397872e+00
      1.2691129001177444e+00 2.9145581508996543e-01
      -6.0711692476342327e-01 1.6726493627277896e+00
      5.5112843040643522e+00 -4.4772299980804053e+00
      1.5749687786721005e+00 1.4141163617107513e-01
      3.0001619662442036e+00 8.2306468550652290e-01
      -2.1405209926826552e+00 -1.9093139097999252e+00
      -2.4974069010055461e-01 -1.6147313164118389e+00
      9.7451084808548816e-01 -1.7189134661148258e+00
      5.5340210808521215e+00 -7.9685512890967591e-01
      -5.5190639316302059e-01 5.3097953584176443e+00
      9.8687346460574765e-01 1.8174700602975495e+00
      -8.6241864652838285e-01 -4.5280321380927475e+00
      -3.7210509426343203e+00 -3.8267698512855857e+00
      -1.8553214546854542e+00 -6.1822368841302335e+00
      -2.5137995977571013e+00 1.1387071228447743e+00
      -5.8254700535372428e-01 2.5665092533891753e+00
      -3.6708197156747460e+00 -3.9421086035989203e+00
      2.2511571193274249e+00 5.8313209536204091e-01
      1.5034624038083859e+00 4.5975971336025099e+00
      3.4444564562163991e+00 -1.3676524701409967e+00
      -4.7832997949588085e+00 4.9098590438809238e+00
      2.4138103182074788e+00 2.9308372606950128e-03
      7.1948672032068623e+00 -6.8872427115812840e-01
      -1.2204551821793477e+00 -3.7160186405501476e+00
      -2.6557860214196221e+00 -2.9096385556082134e+00
      3.4068521223064163e+00 -8.3266319475200534e-01
      7.0133361054735288e-01 1.7090454111971833e+00
      -6.0318034202307702e+00 -1.0437793202351180e+00
      -9.6669058210739067e-02 2.6799649625223849e+00
      3.5486098844527518e+00 3.5185756747725705e+00
      -1.5351915618873331e+00 3.8244596753379843e+00
      -1.8602593749193153e+00 2.2439040209598540e+00
      1.9745172949196307e-01 -3.2814273610828906e+00
      4.7514910092674445e-01 -5.6590015742496735e-01
      2.7730801041835651e-01 -1.4942924833682742e+00
      2.5769406976086366e+00 -4.7575646290183671e-01
      9.6137600498264331e-01 -3.9124119119793090e+00
      -1.8706837558739804e+00 -1.6649981630987609e+00
      -3.6854846882663908e+00 2.4090662439757073e+00
      -8.4838220862421682e-02 -1.8990930252056102e+00
      3.6178525440883251e+00 -8.9139460697002393e-01
      -1.8032757251350811e+00 3.3289281326011655e+00
      2.0809939359090119e+00 -3.3088719944474687e+00
      -5.4231926334425395e-01 3.8219020778259489e+00
      -8.8732620550492836e-01 -1.1130142412001858e+00
      2.7029193384019945e+00 -1.4065690601097964e+00
      3.8595249101223552e+00 1.2495929167264669e-01
      -8.1812874870598806e-01 -2.8776478069183038e+00
      -4.3749805351531368e+00 -1.8561386510782083e+00
      -2.6879392456621476e-01 3.6781934684720583e+00
      5.2265629190341283e+00 1.4983664032480148e-01
      1.0271851937488794e+00 -5.6873745371061168e-01
      -1.3995285645680133e+00 -1.2544103895082472e+00
      -1.3454754695543110e+00 9.8782215108861449e-01
      1.8386032684432456e+00 -1.8186383758229403e+00
      -7.1709198252740576e+00 1.3407448399910482e+00
      2.3351634122609437e+00 -1.4435121692248787e+00
      1.2380126048094084e-01 -1.0659105117517558e+00
      1.7685491563289557e+00 -1.6711078640823169e+00
      -2.1293237058564243e+00 8.2413691380206516e-02
      -2.6166247821532496e+00 4.1174812154422744e+00
      3.8698216490811830e+00 -2.8587560759981590e+00
      -2.1539071824359159e+00 -7.2488367321719571e-01
      -1.2283637496759199e+00 -6.6847264014128149e-01
      -1.1517619076839549e+00 2.8958976969333983e-01
      -1.2090582273064920e+00 2.3639738814992910e+00
      -1.8004143616284061e+00 1.6331357675380671e+00
      4.6606901983117455e+00 3.5577495885146195e+00
      -1.5381630353029825e+00 5.0283251199879575e-01
      6.1331192997237700e+00 2.4778703457555116e+00
      -7.7869376323260964e-01 4.0568978196446892e+00
      8.9300630936861936e+00 -2.7099198816251904e+00
      7.5293748432363727e-01 -1.7520257204793324e-01
      1.5408290676854916e-01 1.5608246965474077e+00
      -4.2643033525092413e+00 -3.0149259201954859e-01
      -1.0356207279843836e+00 -1.0797520151329079e+00
      5.5872260598215917e-01 3.1473723113270506e+00
      -3.1239365369460974e+00 -3.6242264252030165e+00
      -7.5799709737164567e-01 5.2131046652854875e+00
      4.9365542315606503e-01 2.0498948683655827e+00
      -3.0036727677476929e+00 -2.3555660579544520e+00
      -5.2168219368306694e+00 -5.4662135010839241e-01
      -2.6602764829097025e-01 -7.9938677759251542e-01
      1.6327433118806924e+00 -1.4236869490480883e+00
      2.3112809892428925e+00 -2.6177082640929856e+00
      1.8930913280205994e+00 -4.8867972980285339e+00
      -1.1257370962221673e+00 1.1121616479020210e-01
      -2.8331574703815794e+00 -1.2828278694271567e+00
      -1.6808837332584501e+00 1.9094650840417537e-01
      -1.8622494947286488e+00 -9.7287710192391497e-01
      4.1152969291060808e+00 -3.8861520910186149e+00
      -1.9038273799900740e+00 6.5368240590657123e-01
      -1.4680415294617468e+00 -3.8816317830000417e+00
      -2.7312310362814212e+00 2.2270837118393114e+00
      1.4500546673139243e+00 -1.5768621183763372e+00
      -3.2523900780151438e-03 -2.8275277268988677e+00
      -3.0485755726429384e+00 3.8654986330892931e+00
      5.6528133655131105e+00 -3.0901045954090796e+00
      -6.7164892489155748e-01 -3.2456787259935038e+00
      1.0806820725172066e+00 1.8413965688445548e+00
      1.0477703047767282e+00 -1.5387784070236714e+00
      1.4730635441784903e+00 -5.9622268178711813e-01
      1.9875123483904191e+00 -2.0074315884858942e+00
      9.2173166860575406e-01 2.5885342322371883e+00
      1.9170903651326952e+00 -8.7753603786220635e-01
      1.7494244448013065e+00 1.1669758184584582e+00
      5.1607084929260330e+00 8.9345263981618772e-01
      1.7034679412779916e+00 -1.3566031923741004e+00
      2.7264387185182071e+00 -6.0020697396304357e-01
      -2.7473161204729579e+00 1.1514503814012742e+00
      3.4224628307331035e+00 3.0658371497957657e+00
      1.4580513552386176e+00 -3.5719185976197245e+00
      -1.1893153933205545e+00 -9.9528336080393187e-01
      1.4294452617490765e+00 -2.5228564424406956e+00
      -4.6426038823462878e-01 7.7727274601583340e-01
      -5.0623269376133706e+00 3.5532981585539303e+00
      5.0672987248035417e-01 1.9591513490131116e+00
      4.8197044119687815e+00 2.3958439008581367e+00
      -2.2361936216575629e+00 -1.2689626364724127e-01
      1.0448694129851535e+00 -1.2328864131464969e+00
      1.9283549529321728e-01 5.8895578499284698e+00
      5.6972067279028558e+00 -4.2445649028051076e+00
      -2.4235823030942609e+00 -3.6211937934734255e+00
      7.3787500922659577e-01 -4.1418648709302186e-01
      -4.4328435683076017e-01 3.8202752418199459e-01
      1.6713070268571735e+00 9.4503855353488153e-01
      -4.8189343996436618e-01 -3.3933070499263140e-01
      -7.2673198435006219e+00 -3.6055249045933135e+00
      2.6313430825438000e-01 -2.4072176360488098e-01
      5.8387125492699765e-01 -2.7311652896558958e-01
      -3.4271189432269202e+00 2.1050658494309911e+00
      4.6742781609315809e-01 -2.6969835358054746e+00
      -2.5140113831043234e+00 -2.5435048095278066e+00
      3.2673700355392241e+00 2.9564034072018153e-01
      2.8617776798958788e-01 -2.8777006492607624e+00
      6.0140953387497023e+00 -4.6712362135011432e-01
      -2.7277646602271863e+00 1.8005902961768667e+00
      -2.4039981675402089e+00 4.4946928458162372e-01
      -1.7553238703721621e+00 -2.3734164921120812e-01
      2.5501717540052344e+00 -6.4880923839560312e-01
      4.1090503658393134e+00 1.4967928461913602e+00
      -4.2174230364708052e+00 -1.2216196705257676e+00
      2.4209911397374975e+00 -2.2777377359063027e+00
      9.5495959628284732e-01 7.6735159541976836e+00
      8.0234498550823830e-01 3.1885236745646051e+00
      8.7184184155784739e-01 7.7493083599783552e-01
      -1.1005590087403685e+00 -1.1453261276375608e+00
      1.6840448539430080e+00 -2.5015728904156886e+00
      1.0694991227016968e+00 -2.7804263555170463e+00
      -5.9314273776593940e-01 -1.5239841718606035e+00
      -9.4968208985413605e-01 -1.0755946312846676e+00
      -1.2016824048061916e+00 -1.3080067735894454e+00
      1.0561933971406037e+00 -1.9485990633208674e+00
      -3.6343471971025014e+00 1.3485885477081541e+00
      2.8843018676276766e+00 -3.5115185465273746e+00
      -5.6453137358502739e+00 -9.6878728781873562e+00
      3.9271686375429296e+00 9.0381349566873848e-01
      -3.9793656132805837e+00 1.0275497012164838e+00
      4.4689534054536051e-01 6.2998037859313938e-01
      -2.4896636761948687e+00 1.8871538936793473e+00
      6.1899984812916111e+00 3.8436111147441823e+00
      3.2953099856821013e+00 -4.7923464365139234e-01
      -6.7658761530916678e-01 1.5768267877567133e+00
      1.8560827477864064e+00 2.6592724223132542e+00
      2.8314094691869895e+00 -2.3535109688869946e+00
      -6.6543897041526157e-01 2.8268805809288429e+00
      6.1824607602744452e-01 1.3913106560749016e+00
      -9.6531077713497337e-01 1.6639090896471664e+00
      -2.8631512001621808e+00 1.6902848837853754e+00
      -2.0796842822472414e+00 4.5841859606418789e-02
      -1.5060323633798145e+00 2.5483118930842150e+00
      -3.1929475394955209e+00 -3.7982526773117331e+00
      2.1813927645825959e-03 -1.6757711754556228e+00
      2.4016146732348451e+00 -1.0503347416833697e+00
      2.0563862803514915e-01 2.2435837016770228e+00
      -2.1669159631253374e-01 -1.9537483223111303e+00
      1.3921678837357345e+00 1.9418630032901456e+00
      7.8447803904144742e-02 -3.7036969977758081e+00
      1.8557056366329086e+00 2.2937859061055845e+00
      3.3738915693761253e+00 -2.5365251037610137e+00
      -7.1282249420910093e-01 1.3383847027285549e+00
      -1.0548167583310222e+00 -1.7695951129398368e+00
      -4.1567576395805272e-01 -6.9231834467179008e+00
      -2.0874605950195468e-02 -2.2594367487566664e+00
      -8.5134388031922026e-01 4.2959386811495248e-03
      6.3616496352048890e-01 -1.1300219056699050e+00
      6.1290475184352899e-01 -5.8318974683846447e-01
      -1.8987395434917093e-02 9.9167443806252287e-01
      -1.2349132245451322e-01 -4.3943252217997388e+00
      1.5182380593010176e+00 9.1562867207407073e-01
      3.4169644502756804e+00 7.9348892204398913e-01
      1.8815569037674909e-01 3.7763491182743620e+00
      -4.1399968344635585e-01 -2.5623138562759133e+00
      5.4300551861166713e-01 -1.1070709766788807e+00
      1.5750991738165514e+00 1.6555005356602162e+00
      -9.2401022149847789e-01 8.6114415147505685e-01
      3.1722109862361640e+00 -8.9787889033030910e-01
      6.0674906880468782e-01 -3.7027741172579383e+00
      9.2415404770936904e-01 5.2394034156341629e-01
      8.5223991034174396e-01 8.3833544982672670e-01
      -7.3678206855457140e-01 -3.9223458393113435e+00
      -3.8308695450926096e+00 -1.8533425030275150e+00
      4.5350397197141561e+00 -1.7085634271844777e-01
      -4.5674251722315713e+00 2.7407115481602434e-02
      4.7110920227374571e+00 8.3193265435916930e-02
      -5.9497075184375192e-01 -5.5281680776651649e+00
      -5.8832753059578480e-01 1.9452692359636798e+00
      -1.0685948244559711e+00 2.3413029842755853e+00
      -4.2205557295193297e-01 1.1295239737731694e-02
      1.1788155992735412e+00 -2.7828750474020487e+00
      2.8041062502098861e+00 -3.2931386607277036e+00
      -1.3313247728843460e+00 -1.3509256057812866e+00
      -8.9270500818377463e-01 5.2587410186058070e-01
      1.7377276312359546e+00 -5.5626671255378468e-01
      5.9840243604278411e+00 -2.9780066734870714e-01
      -3.8887800568839404e+00 9.3908273052209223e-03
      1.0465354744503510e+00 1.7120407011170529e+00
      1.1227406536212785e+00 -1.0578689127135714e+00
      -1.0736813549998090e+00 -2.1686405002242966e+00
      -1.0622930032192954e+00 1.4642318589809395e+00
      -2.3078962709254733e-01 4.9592441605691508e+00
      5.2530083779513417e+00 -3.7437547184965752e+00
      -2.0430939660324023e+00 -4.6402207794874926e+00
      4.3923950760690982e+00 -2.6024452098315365e+00
      -3.8656395260462979e+00 3.0015391351016580e+00
      5.8745858094705927e-01 3.0725274683394215e+00
      1.9587349500011381e-01 1.7167206607706991e+00
      2.0761790074104676e+00 -2.1701566849627238e+00
      3.8926271073866783e+00 2.7734837885416934e+00
      3.4844163070266956e+00 9.5692118763084411e-01
      4.6391866805109483e-01 -1.1433229530408746e+00
      1.7323355024618400e-01 -3.9030484761151940e+00
      -7.2265831516852330e-01 -3.0979833276061362e+00
      1.9269439713950958e+00 -2.7622870148249903e+00
      7.1294476160719822e-01 -5.5669504177451170e+00
      1.3579512199944799e+00 -5.2511811410949261e-01
      4.7913566591089811e+00 1.4091521378952124e-01
      -7.8639435842979943e-02 8.8107725294935446e-01
      -1.9787673975286832e+00 -1.7208087600702564e+00
      1.8284541376671348e+00 3.1793163532018537e-01
      7.1883842079386246e+00 3.7630787206584149e-01
      -6.8750251936479865e+00 2.0921115032277218e-01
      2.4322012963502577e+00 -1.8080695674682432e+00
      -2.1285132668207327e-01 2.6167437668489959e+00
      -4.1369594710235957e-01 9.3843899526430052e-01
      -1.3809731807100902e+00 1.3871678502380482e+00
      3.3327061787767737e-01 -2.4643912325482722e+00
      3.6474029565265722e+00 -2.0738858661291526e+00
      -2.0136157762460947e+00 -3.1324845687124716e+00
      4.6801073894110683e+00 -1.5563297613145122e+00
      3.1897978565516738e-01 1.3015201805294141e+00
      8.1813615254217842e-01 -2.7469596054828020e+00
      -4.0374429300967274e-01 -6.9939850905375300e-01
      -2.9525158694923466e+00 7.7027557131413360e-01
      -7.4326173918276450e-02 2.3682784295560952e-01
      1.7143107977172458e+00 -7.1275025394718323e+00
      5.6002522837748803e+00 -1.8547229884108243e+00
      3.4987919773747524e+00 2.7449732122705415e+00
      2.6599439438845671e+00 -2.1527343830219858e-01
      -1.7947047237623970e+00 1.3144501268435702e+00
      8.0426374222223700e+00 2.3592536251196656e+00
      2.4259234533016314e+00 6.0213611009791301e-01
      -6.8477524330521433e-01 1.7543030027523887e+00
      2.4137471231868677e+00 1.0093865133910298e+00
      1.6537751747748963e+00 4.8724781123417882e-01
      -1.6062568006507436e-01 -5.1517558277071884e-02
      3.2232471333181163e+00 6.3265067535206365e-01
      1.0449352264814313e+00 8.9843154387070301e-01
      -3.9899641264707171e+00 -9.0877000962345422e-01
      9.3795891981095181e-01 4.7632091422972582e+00
      2.5181892431789894e+00 2.3348144600616960e+00
      2.1854963557542724e+00 5.8005469194235348e-01
      -1.1163518202857694e+00 8.4652221594250765e-01
      2.7098185182275056e+00 -1.3025140570629632e+00
      -2.0665845948276433e+00 6.3382412330435556e-01
      3.1910153459819104e+00 2.2501361147144534e+00
      -1.9696157592864840e+00 -2.2976549555104828e+00
      -1.7926620838992955e+00 -8.8657564624110397e-01
      -7.3205223713388556e-01 -1.9886700175415977e+00
      1.3605747416154559e-01 -2.7686453707302905e-01
      -3.4960654334200911e+00 -2.8455538674234226e-01
      1.7944202710598458e+00 -9.3575935701383905e-01
      -3.2339917308991057e+00 -2.6785891458553439e+00
      3.4826067043437620e-01 6.2569252448618717e-01
      2.2875124699755029e+00 -2.7243233069848998e+00
      -2.5201932283060873e+00 2.0525363663951492e+00
      -9.6998367227445770e-01 -7.1779772179091550e-01
      -7.6485790497779316e-01 6.3169939034266032e-01
      1.5313539920391277e+00 -1.2049710781970999e+00
      3.8082957403828899e+00 -5.7173721835129143e-01
      4.1574428703252080e+00 2.5050990856934074e+00
      -2.4445764737571141e+00 1.0742993031312642e+00
      -6.4155625139313066e-01 -1.7234200571593450e+00
      3.9864991005078863e+00 2.9853234555641390e+00
      1.8794415008538403e+00 -1.8590520974298643e+00
      -1.5545372747910953e+00 -3.2992925091378140e+00
      3.2056715780185612e+00 -1.9060954422927079e+00
      3.1635093372787679e+00 -3.9313765936035234e+00
      -1.0914437806760149e+00 3.1817311375575201e+00
      -1.5612356196227517e-01 -1.4742242648906903e+00
      -1.7060006076328622e+00 -1.1799011147954617e+00
      3.9628105661944533e+00 1.7606281599995894e+00
      2.1381943897495845e-01 -3.6038368703634562e+00
      -5.1392661843542227e+00 -1.3926968665978485e+00
      8.5069837730535669e-01 4.6395138490423671e-01
      -1.0980105256836166e+00 -2.6070970791256061e+00
      2.9420520287653091e+00 1.4677250982948458e+00
      1.9243829671372151e-01 6.8670872977000952e-01
      -3.6987333508781255e+00 -2.2952708093080196e+00
      -2.9144591980232328e+00 -6.5397061407798462e+00
      2.2433648397203982e+00 2.4795287504561383e+00
      1.9986027538745372e+00 -9.0322854108074502e-02
      8.3977276891979047e-01 4.5628302417364641e-01
      7.8905079753252627e-01 1.1297361214568316e+00
      -6.2427575321272488e-01 -3.1686922829161257e+00
      -5.5014912177439230e+00 -3.5871941126082971e+00
      7.1194033223019015e-01 2.3120268958680796e+00
      -1.5638149375217707e+00 -1.4512002543095208e+00
      8.3246154153673357e-01 -4.4344648720904072e+00
      -2.0560131121065814e+00 -2.1448985029225405e+00
      5.0654998328321454e+00 2.0163346609169319e+00
      -7.0443102658448198e-01 -3.2748193777518200e+00
      2.4947029651943127e+00 -1.3296671636405537e+00
      1.1606795478126142e+00 -6.7802670933099041e+00
      -6.2602281528194881e-01 -5.6280192064354306e-01
      -1.9244368882018459e+00 2.0748458088506818e+00
      3.8550208684731122e+00 -2.1835755824662888e+00
      3.0246820177464637e+00 -1.8634811678187009e+00
      -4.8021735087724327e-01 1.5990227461723736e-01
      1.5640324918487762e+00 -2.3347125727206941e+00
      8.5936240153161936e-01 1.5626823808602677e+00
      -7.8287543994731768e-01 -5.1821644016141599e-01
      -1.2979122790545339e+00 -4.7774031681597160e+00
      1.0534834263356370e+00 -2.2446704020807502e+00
      7.9297426689982708e-01 6.6428468879733327e-01
      1.3869810212252531e-01 1.6368895397764816e-01
      5.1251152375664546e+00 1.4721078589014580e+00
      -7.3315773104824589e-01 1.8018464740204652e+00
      2.9968505742217735e+00 -2.7799550472089840e-01
      1.4411544881224375e-01 -1.8162747885102197e+00
      3.0177082466788780e+00 5.9186664935445976e-01
      2.0657937770705876e+00 1.9558382841938404e+00
      -8.1711528112280050e+00 1.0256762101737296e+00
      -4.6333111141563588e-01 -3.3201105913865385e+00
      -5.5710541125214863e-01 -1.6712454904414806e+00
      -4.2155741971616600e-01 -3.2097965527713277e+00
      2.8325361545766099e+00 -2.9307019201396138e+00
      1.6936560986251152e+00 6.6403269427510221e+00
      2.2449328358430392e+00 2.5877953768830517e+00
      4.1097069192198434e+00 -1.8409056503310106e+00
      7.8288646087174651e-01 -7.3380556757624738e-01
      4.5454547495779801e-01 -6.2178030023860964e-02
      -3.5224703204026966e+00 1.7744704826686097e+00
      -4.0260901540920457e+00 -4.4329986032113711e+00
      7.3784322535926206e-01 4.6512887331081725e+00
      3.2936075031666312e-01 -1.5865246885237423e+00
      1.9144421467049130e-01 -1.0166749855470285e+00
      3.3090754697779525e+00 1.0245866107236630e+00
      1.8322776384881254e+00 4.4922848380937550e+00
      -9.1652317299725639e-01 -1.9016650532691708e+00
      3.3614774365228253e+00 2.3691026503809073e-01
      1.2937343670475188e+00 1.9013726907117952e+00
      -2.2937223154652249e+00 -2.4260726511317063e+00
      2.5755762501039281e-01 1.0464353361407458e-01
      1.6794312284771833e+00 3.4164595700138478e+00
      3.5349569820312774e+00 -2.8097508676434004e+00
      -1.0926548538686152e+00 -2.0171664911772766e+00
      -3.9172936194639685e-01 1.5858514268693120e+00
      -2.7948047516545915e+00 -1.1745058269120432e+00
      1.0775238095271744e+00 2.3108443092702133e-01
      2.1574655379599363e+00 9.7414765773666656e-01
      6.0166419853087110e+00 -1.4189779463548113e-01
      3.6200177769239255e+00 -1.1940909383205387e+00
      -3.0311734153920167e+00 5.1074942691761227e-01
      -1.7864486543821696e+00 -5.0631723847558314e+00
      -1.8660571583673410e-01 -4.8065087100283566e-01
      -1.4819226355209383e+00 5.1695249758182227e-01
      5.0422966866157520e-02 4.5273898597151083e+00
      -1.2754049808151795e+00 1.3349429731348452e+00
      5.6881331307475502e-01 -1.3108508140013071e+00
      -2.7951967120175958e+00 3.2409119419575267e+00
      -3.9378789766368349e+00 1.5005168972077274e+00
      -3.1100257013886909e+00 1.1713382574038875e+00
      1.2326397761724781e+00 -5.4164815672289990e+00
      -2.7324686389620516e+00 1.0109333473243034e+00
      2.5757255026298409e-01 -6.4394768201468711e-01
      2.7238012536529213e+00 6.9210793642470569e-01
      -1.0070901407363226e+00 8.2071298914936697e-01
      -2.0565537167749897e+00 5.8313634696368333e-01
      2.6889532866529520e-01 8.5468600033631814e-01
      2.6378974493878160e-01 1.2423207174139312e+00
      2.6365311763835719e-03 2.4596890663773952e+00
      -2.3423316281610331e+00 -3.1792090574026748e+00
      1.4216298350528250e-01 2.2542638610305654e+00
      1.6376081295773610e+00 -2.5315378975655918e+00
      -1.1938308080750657e+00 -1.6552581886279263e+00
      5.2838799651779986e+00 -1.1806283438150194e+00
      4.6808522189273871e+00 3.6479233988124911e+00
      -8.8636506591474007e-01 -7.4414188336995291e-01
      7.4634163643937468e-01 2.7598112012606060e+00
      1.2490198771192462e+00 -6.8213963298108149e-01
      2.9071777946009316e+00 2.7386159643367050e+00
      1.9386271434905822e-01 1.1707248442490195e+00
      2.5563907684827103e+00 -1.0241416923571371e+00
      5.4090305070459677e-01 3.0592292582214275e-01
      -1.0676054505840646e-01 -4.2284834706949059e+00
      -2.4875936587048901e+00 5.5343184507267935e+00
      2.1306206287965712e+00 -3.3637046360757883e+00
      2.6819937184072633e+00 1.1333816916069970e+00
      -3.6540351693969755e+00 -2.4709316080246859e+00
      -2.5079341223630562e+00 3.4095558296682968e+00
      1.9229010174968284e+00 2.3437698434591794e+00
      -5.3444027102191138e-01 -3.6094827449848904e-02
      3.9467267359320632e+00 -2.4337831309356397e+00
      3.0067300085434785e+00 2.0242844103999669e-01
      8.5242868054006216e-01 5.9766882524432297e-02
      -8.0811172147967969e-01 -2.8042858054581377e+00
      -5.7084213024294583e-01 1.6819281818235532e+00
      2.3735718823985295e+00 1.8396781797930353e+00
      3.5815402947689550e+00 -6.7677179058297221e-01
      -2.7725320985062227e+00 -1.0713119393777251e+00
      -1.4491240839271591e+00 1.7057715100936108e+00
      -5.0081933790385924e-01 -6.7560708413571191e-01
      3.7558947523429087e-01 -5.8465923018298283e-01
      -1.0086982407331455e-01 -3.5069718749142096e+00
      -5.0424664834336108e-01 4.3089688486495836e+00
      3.4688363187985488e-02 -5.4251726161961882e+00
      9.9084654290257801e-01 4.2391436659864867e-01
      2.6681069874034633e+00 3.2411822252606042e+00
      -1.2310459991079958e+00 -1.2660123891048489e+00
      9.6941075223540840e-01 -1.7195704971137138e+00
      1.0840233439440267e-02 -2.6821328152919501e+00
      3.1974098689091548e+00 -2.0551420227031083e+00
      6.4473599431353863e+00 -4.5833518952945951e-01
      -2.0832601756208811e+00 1.1307078764144272e+00
      -1.2012976365493730e+00 -4.2689775892135238e+00
      -4.5796537079575437e+00 -3.4904152231762815e+00
      1.7941731235878531e+00 -8.3523444735867547e-01
      -6.0366086751697337e+00 -1.8992356191389690e+00
      -2.5299267845874112e+00 1.6920606384326842e+00
      -2.3370174683571845e+00 4.7494350643394458e+00
      9.1871448615942175e-01 -4.2826756332530769e+00
      1.2611699207165146e+00 -2.6447894183341067e+00
      4.4595441905657598e+00 -3.3258168755149367e+00
      -2.5278694573503753e+00 -2.9994495264370720e+00
      -3.6337156491615827e+00 -3.6398190648669995e+00
      -3.2976945919006924e+00 -1.8098055214567603e+00
      -2.9433931100160602e+00 -3.2070529650093449e+00
      1.6302399731804402e+00 -4.5119513521075882e+00
      4.9203250847554791e+00 -1.2548258068198108e+00
      -4.9099390655805148e+00 3.4390334123451072e+00
      -1.2321886588887718e+00 -3.0970511118457500e+00
      1.4583536405456743e-01 1.4489126106317844e+00
      9.6443821511021266e-02 1.4757438251123189e+00
      3.3983013353619658e+00 -2.4921170644267794e+00
      1.0063795545648127e+00 3.8850419333154487e+00
      -5.8682210701832427e-01 1.0831066608971631e+00
      -4.7857036122620320e+00 7.5998793588683311e-01
      4.6909249809819409e+00 -2.3950310237258662e-01
      2.3984224948714217e+00 -3.8444620640742821e-01
      1.1613805847179828e+00 4.4932762920590996e-01
      1.5416541698235661e-01 -7.9493248158262864e-01
      -1.8119653402524374e+00 -1.9367947888315633e+00
      2.3336194320017647e+00 3.1615586975696752e-01
      -9.4315393640398681e-01 4.8592632504626669e+00
      -3.7460426655228494e+00 -4.2170713378041524e+00
      -4.2385186912469281e+00 2.3441790493626886e+00
      3.6033785038135306e+00 8.9999231764016896e-01
      -2.7177348289596703e-01 -3.4871791662888474e+00
      -3.4377159263099366e+00 6.4709550883714053e+00
      2.8844619388597574e+00 7.2609496008384594e-02
      -8.1389180409265294e-01 -4.4232236650590850e-01
      -7.2173843488345280e-01 8.7646032697728826e-01
      3.6664276363348880e-01 6.3465958466999162e+00
      -6.8092322699793495e-01 -6.1399945445592308e-01
      -7.1877828118175802e-01 -2.5971659085870731e+00
      4.1495221557151645e+00 4.2584000427489554e+00
      -6.0634012966186903e+00 -3.2356851982718471e+00
      6.9180889656990796e-01 2.2656538940950020e+00
      1.2329323499449920e+00 6.4322598854202582e+00
      -4.1048312130718454e+00 -3.1653117900999543e+00
      1.6090834537724421e+00 3.9231214363742053e+00
      -3.1769599675787137e+00 -2.4476289886875007e+00
      -2.9352994582623243e-01 -4.5872057362532939e+00
      9.4494240343810310e-01 1.8781914049114885e+00
      4.6360888522752193e+00 1.5754815322050557e+00
      -3.1627744074465984e+00 -2.4034105771328234e+00
      -2.2375451645707995e+00 -7.4630202932136926e+00
      -5.5279599714547674e+00 4.4386302335338501e-01
      5.7102344998157735e+00 3.9594017427350963e+00
      -1.0777318375684215e+00 -7.6539552303578553e+00
      -1.3623788009554871e+00 3.8638432779612422e+00
      -4.3933901926400001e+00 -3.8715856772665376e+00
      -7.6610503645497507e+00 -5.3627648146516965e-02
      -8.5226882584666985e-02 -1.2230481067719803e+00
      -1.3313377542734524e+00 -2.7320145581719967e+01
      -2.1812314714922905e+00 -1.5120966271059102e+00
      -2.3199221595709998e-01 4.9207841730115511e+00
      -9.4244718488961947e+00 1.0518112941821880e+00
      1.0489554918426349e+00 6.5786003595859981e+00
      -3.1935224795699666e+00 8.2742965891219153e+00
      -6.2503228309467591e+00 -5.9296845065947212e-01
      4.5922607535909998e+00 1.1137388720432108e+01
      -4.4841073014071444e+00 -5.0758333770265196e+00
      6.7686805875906284e+00 -5.0980901263080636e+00
      -5.9362395266384338e-01 -2.9865979426154428e+00
      7.3906883920347555e-01 -2.1141109544959455e+00
      9.6354300059372289e+00 -9.1723002598767689e+00
      1.6148691524035588e+00 -7.1662366420280366e+00
      -1.6820477882381355e+00 3.0287525256935621e-01
      -5.2033654372734883e-01 2.7394976258903809e+00
      7.3519678383093785e+00 1.0320267149038957e+00
      -4.9895621131361576e+00 -3.8106282822364446e-01
      -2.7075285717756619e+00 4.9327000820160540e+00
      6.4560609543263023e+00 2.5667398654359173e+00
      -4.3062875102492770e-01 -4.9215376469284209e+00
      2.4623133984715415e+00 -3.5014371605363968e+00</_>
    <_>
      3.3160974954138585e+00 6.2023055226602897e-01
      -1.9346062551579410e+00 -1.5892665649898081e+00
      -3.0895988477925385e+00 -2.8365391439048597e+00
      2.2654979572757004e+00 2.2152744533797253e+00
      3.9543657118481303e+00 2.0857790944572869e+00
      -5.8376222134922395e+00 -3.6379227571973320e+00
      -2.5179575646830692e+00 -1.9344487293602457e+00
      -7.1722865700383787e-01 -1.3463094003074263e+00
      1.2155175248664594e+00 2.3544597796203637e+00
      -4.2008802944608759e+00 2.6528340704473441e-01
      -9.9182530136760128e-01 1.0127607692119596e+00
      -1.0946645491647846e+00 3.3596648118874359e+00
      3.7827505662245664e-01 3.1404579243010793e+00
      -2.7220410858155764e-01 5.2215429690148785e-01
      -5.2874229193393285e-01 3.5260184653992410e+00
      -2.1860950357256788e+00 2.9726145711246592e+00
      -7.9830869304004115e-01 4.1903143694823912e+00
      4.8819540927405314e-02 1.9337584374482319e+00
      1.5700433946451398e+00 -1.1179609551397363e+00
      -4.5589969136824298e+00 7.2806030297932534e-01
      1.5610117395090786e+00 2.1474177534605207e-01
      9.7146719536913340e-02 -8.9694280020048900e-01
      -3.0831755513398580e+00 -4.3734331744578370e+00
      1.0635443724544200e+00 -7.9103091722992289e+00
      -6.6875422700027443e-01 2.0716882827107144e+00
      5.5627393157414735e+00 7.1530146217011827e+00
      3.3111352606436619e+00 -6.3759695494862789e-01
      4.6109227859619828e-01 -7.2733954615052832e-01
      1.5293167983299665e+00 -5.5170979620152649e-01
      -2.5922292632773769e-01 2.7942720956733007e+00
      3.0932021132111158e+00 -1.7003330332747406e+00
      -1.9546705829589301e+00 -1.3355688028272221e+00
      -7.9610612649440782e-01 3.8823205444977060e+00
      -3.1536571192873772e+00 2.7281582057602505e-01
      5.8624814314543017e-01 -1.0841567394684932e+00
      1.0068193614887990e+00 -2.8162719145921304e+00
      -1.8508001588549330e+00 -4.2794835967139102e+00
      -1.3298630138481922e+00 -6.1132097686483122e-01
      -1.1315151285851952e+00 8.8278429136028314e-01
      -6.5308962690625885e+00 2.0302721507462622e+00
      -1.8282179387807720e+00 -4.6405358493188081e-02
      1.2471020894586218e+00 -4.2282975850056745e+00
      -4.1795152014048487e+00 6.7192655628097029e+00
      -4.0455216120052642e+00 1.5823171033773540e+00
      -1.4295079585323758e+00 1.0487192297765850e+00
      2.6286046911745236e+00 -1.1468988187347591e+00
      -2.7355645736404988e+00 3.5235467865989962e+00
      -1.8633454973463879e+00 6.9339901418969674e-01
      -2.0937548589022259e+00 2.0408526923574182e+00
      1.6893142615107894e+00 2.7885413194333757e+00
      4.0266605663333188e-01 1.9626093096241126e-01
      -2.7909736838194110e-01 -7.9521164594360902e+00
      8.8882678239862040e-02 -4.8072728503307998e+00
      2.2358352303815754e+00 6.3058443396696591e+00
      -4.2060017928513771e+00 -2.5660579442435192e+00
      1.0567484891425127e+00 7.2228802797286003e+00
      -1.7828295163424466e+00 3.4162775447220208e+00
      4.2037880076721412e-01 4.5536422369363372e+00
      -1.2131502952561499e+00 2.5655665963918939e-01
      1.0799287021693338e+00 7.8650463388420688e-01
      4.4880718084143467e+00 2.7492067146492425e+00
      -7.7609135741630482e+00 -2.0719216320119109e+00
      2.7969801204956934e+00 1.0554997081995632e+00
      4.5098352150886067e-01 4.0599753073929552e+00
      -2.3574522918296505e+00 -3.8015785122030357e+00
      7.8486799750968061e-01 -1.8778497822541838e+00
      -4.0700479564129770e+00 2.0453205332074980e+00
      3.5912548660950443e+00 -3.2676383651246663e+00
      -2.1602180465199414e-01 4.8502923136301224e+00
      -5.2485439953517581e+00 -3.0237896021337094e+00
      -2.9753203502184999e+00 -2.1859245018960998e+00
      4.9067329539948830e+00 -3.5744872735626125e+00
      -1.6645278636492968e+00 -2.4205154846833535e-01
      -2.9799437509872244e+00 -2.1993087213457478e+00
      -8.1997864369635420e-01 3.4360488662421078e+00
      4.3507453852165368e+00 2.9257482575082414e+00
      -2.9921013144336683e+00 3.4650479482180740e-01
      2.7955292535359328e+00 1.3220592709551888e+00
      -5.8985262932178459e+00 2.3096897255473157e+00
      -3.9241991544904615e+00 1.7178418131727802e+00
      -5.7656885555673365e-01 -1.7892244206870265e+00
      -3.2722368346650321e+00 -3.0194346353075665e+00
      1.4640947910702700e+00 -7.2742881966524142e-01
      -3.5855957737638531e+00 -5.8667845553864399e+00
      2.8526836374604175e-01 -4.1810891851260301e+00
      -3.2278125088783022e-01 -1.1648627255318764e+00
      -1.4691051056906059e+00 -2.8277756625486044e+00
      4.3456714585169278e+00 -3.4991763608234088e+00
      5.1033877667888792e+00 -3.0834737895056321e+00
      -4.5233485856562261e+00 8.3243609251343365e-01
      1.3736675024269933e+00 -5.2969943971992928e+00
      -6.5875554145680262e+00 -2.0242869419798604e+00
      -4.6500216831982790e+00 3.6293570444518091e+00
      2.9393058829692791e+00 -5.2780065406280556e+00
      -1.0660957112573486e+00 1.5291819862378337e+00
      8.7241113529003975e+00 2.1603530478676882e+00
      6.2745806930890669e-01 1.3910873679869153e+00
      -1.8227586191792395e+00 -2.7296944064251241e+00
      -2.7105445873763667e+00 1.2353442557332834e+00
      -1.1075180229484332e+00 -2.7138790322002069e+00
      6.1337104252338948e-01 -8.9203697669978477e-01
      5.6167980888767364e+00 -9.5741821707510388e-01
      -2.0837091854502965e-01 -1.5492766635366193e+00
      -9.9426667883471054e-01 -1.2940288416822932e-02
      -2.0748566381838858e+00 -2.9376228599860945e+00
      2.9800345970230208e-02 2.0476864189141115e+00
      4.4220579913837277e+00 -3.4107095495518402e+00
      -4.0889370045487299e+00 5.7870948049597715e+00
      1.1723352900110453e+00 -1.9129922432402239e+01
      -1.3276152223984936e+00 -4.4025349664586766e-01
      6.5399072997374947e+00 1.5362936736662249e+00
      -2.0017573395466317e+00 -4.0692169816599799e+00
      -2.0925492231639340e+00 9.1097359673073641e-01
      2.7303423590693918e+00 9.1152250043609506e-01
      -1.4747168530871344e+00 -2.9105845960914549e+00
      6.5325791717852200e+00 3.3225610177850662e+00
      -3.1230755802173799e-02 -1.4272393415450240e+00
      -6.0427532597570099e+00 -4.6262536422699698e+00
      -1.6540657218044461e+00 3.2388309183006396e+00
      -3.7681713878347853e+00 -9.8348909266431717e-01
      -5.3897051605917543e+00 -1.4503977804301569e+00
      2.3418383186525844e+00 3.8027727856321170e-01
      -1.4734358513661932e+00 -2.2317786307633525e-01
      -3.4895730833206751e-01 1.6715556902829394e+00
      -2.9129906351073260e+00 -2.1404327700769685e+00
      -3.8321567377452612e+00 -1.5002784706628347e+00
      -3.0216505517021042e+00 -7.3548177882078203e-01
      2.5082653603325933e+00 6.0857902682170399e+00
      -3.9251345975680043e+00 4.5367291164246044e+00
      -5.0683373330730863e-02 3.1128529916292502e-02
      -3.0962754950316207e-01 3.6257576692081663e+00
      -1.8907168832232042e+00 -6.3481310199187044e+00
      9.8212953902001543e-01 -2.3075617916605680e+00
      -1.2293194769448368e-01 5.4494454577253117e+00
      -8.3984704893480844e-01 7.6926656754789913e-01
      -1.0440279357159574e+00 -2.4479357700868398e+00
      -1.0079030236667255e+00 4.7382321180513520e-01
      -2.6358527427457146e-01 1.1014064515408404e+00
      6.0279350114190420e+00 -1.2605986824728221e+00
      -1.1041902230471856e+00 7.2710248572909475e-02
      -1.9955549388041922e+00 -5.5984936124400644e+00
      -4.4972869107470792e-01 -3.1261904216438481e+00
      2.4082926306240435e+00 -1.8122883513561727e+00
      2.0728238858156343e+00 -1.2839078089917977e+00
      -9.2142441026211841e-01 -3.5849692016783374e-01
      7.6743929367633426e+00 -2.9057043413695272e-01
      4.7818923353938714e-01 3.0417016726186163e-01
      -1.4310416410205851e+00 4.7512026785971190e-02
      -4.3268670222549552e+00 1.9644032352593626e+00
      -1.5306538874095394e+00 -2.6224701930839847e+00
      -4.7953117137684442e-01 3.8166216379835605e-01
      -6.7423403562906934e+00 -1.4277770214560603e+00
      2.9257924936416106e+00 -3.2409796000738424e+00
      1.0595913775502630e+00 -2.2352234231628079e+00
      -5.5859732643532478e-01 -2.8041237700872617e+00
      -1.8153697616255654e-01 5.8036993926783822e+00
      -3.2419964066228060e+00 -1.6147225134528504e+00
      -1.3033042778934101e-01 3.2474409562268818e+00
      -2.2212990434246311e+00 4.3488991461268141e+00
      -5.6724550136956553e-01 1.0992817174375147e+00
      2.9106427208757468e-01 -4.4604019853652566e-01
      -2.2476789294972841e+00 5.9787086363660458e-01
      -1.6528530268816231e+00 -1.1585499350729692e-01
      -6.0167080377788569e+00 1.8270522535585032e-02
      4.0920415338013392e+00 -1.6974926075073216e+00
      -1.6493254848591035e-01 -2.8637079779632630e+00
      -2.1522727197618932e+00 2.4735251666194098e+00
      1.9929671781622624e+00 -2.3179402661850372e+00
      7.0934809576793487e+00 1.4011762556360745e+00
      -3.6459341075250875e+00 3.5578065342734833e-01
      -1.1286972706682059e+00 2.2541359154889280e+00
      5.5549876001522653e+00 -3.3871233660242424e+00
      -2.2658994999373485e+00 -1.4471197947539043e+00
      -1.0263070773620082e+00 -4.1917759080922830e+00
      1.9979044643771755e+00 5.2903528639158388e+00
      1.6337887674621181e+00 2.2048335878511049e+00
      -1.0204747622729986e+00 3.5012227371730908e+00
      2.9568443008632461e-01 -1.5942528986693045e+00
      -5.1305722834914613e+00 5.2594633909834387e-01
      -3.4424288717556193e+00 1.3119734198816246e+00
      1.2343609790567442e-01 -5.2607602918338525e+00
      5.4842563227991059e-01 -1.2989573244111687e+00
      2.3765287510976636e+00 3.6355142273903769e+00
      2.7551756494967578e-02 -6.9994533285866123e-01
      -1.1936347224441698e-01 -3.2438805824485073e-01
      -1.9409690727903046e+00 -6.9728842047678334e+00
      -1.4089124701582773e-01 -2.3105064101910802e-01
      6.9027155943895624e-01 -3.8312123461555867e+00
      4.9755404502488554e-01 2.1633402168173030e-01
      -6.1948954977680835e+00 -7.1387365477465337e-01
      -3.9418539250057827e+00 -2.6932062558749403e+00
      -2.9076814295371629e+00 1.1375187864458980e+00
      -7.8016915301201334e-02 -4.8559271602068650e+00
      -3.4375172552551569e-01 -2.0655394555711548e-01
      -4.2197620213290410e+00 -9.9362838262459707e-01
      9.2654840057996635e-01 5.7625428391822875e-01
      -1.1852000293139939e+00 2.0764351550044133e+00
      -4.0430897219491833e+00 -4.6659728187529170e+00
      -8.3931997764689792e-01 4.8288280742396408e+00
      3.6023310404001694e+00 -6.6201026966580090e-01
      9.2494151737738461e-01 8.2804811688342528e-01
      -5.8398287431127152e+00 -6.7065648692592923e+00
      -4.2559408517488784e-01 -1.0370374003365017e+00
      1.2140282650299978e+00 -2.6847313313200405e+00
      1.4883373503534783e+00 -1.9171629089685487e+00
      8.7353548717347673e-01 1.8778071313765672e+00
      -2.7005324844882077e+00 -1.9277560146775914e+00
      2.9705996379690058e-01 8.0119907618873409e-01
      -3.3411100485411525e+00 4.1141462030798133e+00
      -3.7668151770464213e+00 -8.8165451299769881e-01
      -5.5568915379690409e-01 -3.1965787467401385e-01
      -1.8249845864937035e+00 -8.4119519618247707e-01
      -1.3062217790028940e-01 2.0842598467797822e+00
      -4.7757240614731309e+00 -2.2100928235650157e+00
      1.5841667026460295e+00 -1.6443634259728672e+00
      -1.7744289261023547e+00 -3.4842463893270246e+00
      -9.7502903678825659e-01 3.4440776472819263e+00
      2.9397352922826627e+00 -1.1645592506680982e+00
      5.0719027703390536e+00 1.7857538844914722e+00
      -6.5312378702621148e+00 -3.7329293986381107e-01
      -1.2876960649678748e+00 -1.2022656949070759e-02
      6.1186416322261827e+00 -1.2377306493724676e+00
      2.4742970331025615e-01 -3.5360442804729479e+00
      -2.0741038428765539e+00 -5.7899721836313569e+00
      1.8926729702543077e+00 5.6473716936207252e-01
      5.1703893457316683e+00 1.6088130664335636e+00
      1.4091965386661307e+00 1.1583551564729602e+00
      1.3533865512062422e+00 -5.0614225316457118e-01
      -7.0700693765339881e+00 9.4389220989844447e-01
      -7.7037286813152273e-01 -2.2980031580523281e+00
      6.6984054473676469e-01 -1.6206508834873627e+00
      6.4635157571774149e-01 -1.4108550993404292e+00
      8.4059322649694690e-01 3.8550827289711180e+00
      -1.1959846127218319e+00 -2.7624271008369328e+00
      1.0384495518722754e+00 -1.4197132305671083e+00
      -4.7843626515131330e+00 -4.5236989865380393e+00
      -3.2104051461089202e+00 -9.1098559181017624e-01
      5.5525161040836535e-01 -2.1583481309826031e+00
      8.0675751379375404e-01 -4.3127784501826782e-01
      -6.5259566265654829e+00 2.5167325628954469e+00
      -9.4523462583848872e-01 -5.5196834074128089e+00
      -2.4255243518982059e+00 -1.7306713791525865e+00
      -5.2212690099232946e+00 -2.9280054013368124e+00
      -1.4367152019130858e-02 -5.5132518658077379e-01
      -1.5235355748537796e+00 1.2833718996870782e+00
      4.6039202207659013e-01 1.5840819591974304e+00
      -3.8231589427528634e-01 3.0499180216467643e+00
      -1.6336307438394539e+00 -5.1516033459784882e-01
      -1.0193390137490543e+00 4.6090037895999423e+00
      1.3250191235976732e+00 -2.1193041878512680e+00
      -1.7779526075103005e+00 -1.6679834042398336e+00
      2.6053303767551936e+00 8.8175154667916134e-01
      2.2062719275691145e+00 -9.7558333535080066e-01
      9.6216856233999648e-01 2.7971904804789998e+00
      -1.6797460606650700e+00 -7.1478304918711821e-01
      -4.0689213665330726e-01 -4.3943451336556016e-01
      6.7210009601369913e-02 -2.7349823960382809e+00
      3.7634593191068255e+00 4.0359991485686286e-01
      -2.2007420301360314e+00 -4.4964045512259707e+00
      4.2687689691889474e+00 -1.9588131423504893e+00
      4.1230871794042416e+00 -6.7010088086749580e+00
      6.9739841560121418e-01 3.1112362944577932e+00
      2.4271402574297181e+00 1.2374117871046056e-01
      -1.6113596519077469e+00 -2.5659890796416494e+00
      1.3577999316722884e+00 -4.6148210522726174e-01
      -7.6379361758952600e+00 -3.3614421551000344e+00
      3.2645314135563939e+00 3.8616536128700050e+00
      -4.9585114500679337e+00 5.2560670633886168e+00
      -3.3873468299566873e+00 4.4308488337061407e+00
      -9.1272784254011530e+00 -2.8055590759216993e+00
      -1.8540310133982394e+00 -4.7346233950851415e+00
      1.5723652981796228e+00 1.7507880952180127e-01
      2.5856360601133264e+00 3.6431308125393760e+00
      2.1430176393084477e-01 3.9125351295477557e+00
      -1.5908595247796522e+00 3.0152511227358549e+00
      -1.9381606752836968e+00 3.6462440772708198e+00
      4.3024664366339342e+00 -5.0797573072440025e+00
      3.4966414392585636e+00 7.0861474614084330e-01
      4.0361059071596594e-01 -1.0639537634142771e+00
      2.3380966588983725e+00 3.1899175701541189e+00
      2.4562274436516356e+00 4.7087550009303127e+00
      3.8201596216763862e+00 -4.0273127858756554e+00
      3.9770404497265166e+00 2.1113117089896827e+00
      -6.6678224133440045e+00 1.1783050168910048e+01
      2.5994375354595713e+00 7.8234344994205918e-01
      5.6599813109926060e+00 -4.2485755040477657e-01
      -7.7376626185734776e-01 6.6637769230092203e-01
      -4.4099826469252550e+00 8.5461563878369362e-01
      2.5093257984485806e+00 1.6906000762357973e+00
      -9.7945079046736849e-01 8.3145595956540352e-01
      1.9183106227509950e+00 6.9816411318966791e+00
      2.0637183713627363e+00 -2.7318841329586334e+00
      7.4788575462201701e+00 5.4250886268342198e+00
      3.2693021585347544e+00 3.7641225122877406e+00
      1.4482609252911085e+00 7.4531375865557714e-01
      -1.2865014933674970e+00 1.0664781905470563e-01
      5.4843969677486548e-01 2.9707900060533809e+00
      3.8163277018211639e-01 1.9024089860367850e+00
      -2.8908635805403954e-02 -3.9067276691556820e+00
      -2.6583293394274348e+00 1.3876495289131055e-01
      -1.4664637423444133e+00 3.1403777987409125e+00
      -2.1207864385894135e-01 3.7029550100186572e+00
      -1.1154461178820583e+00 -2.7388022440936246e+00
      -1.4473274800467966e+00 -5.3473518622174343e-01
      2.7383084113829486e+00 -1.8061563176381370e+00
      4.1581309199634022e+00 -8.9190186898825861e+00
      2.8696380766684682e-01 -1.8373938068714444e+00
      1.7182067864227322e+00 5.3469261247824501e-02
      -2.7379725080651984e+00 -1.5487450508851601e+00
      5.1849796389685898e-01 1.4017125865320064e+00
      -5.1492443993352621e-01 -9.8312267190047514e-02
      1.1493408458141707e+00 3.8243624968989058e+00
      2.1625494651611983e+00 1.7026922250471224e+00
      1.4169194475822355e-01 9.8025365734114756e-01
      -1.6555937781952843e+00 -3.0513203298273223e-01
      3.5397823064093572e+00 -9.0624896543609612e-02
      1.1934295687416137e+00 -1.8845419431062531e+00
      1.2228086949253808e-01 4.6642282232260595e+00
      -3.1401067254233830e+00 2.6772187334720199e+00
      1.9188928264294169e+00 2.8847701373141792e+00
      1.0796725556732496e+00 3.6590775859385363e+00
      -5.6086753694184353e+00 -3.8890129590651923e-01
      -3.5000619214369362e+00 -4.5643604251379527e-01
      3.1945384379637334e+00 1.2663141677347496e+00
      1.8357670570316440e+00 -1.0458093906229209e+00
      -3.3174564072807584e+00 -2.4198527975298076e+00
      -9.7522552983606792e-02 -9.2576021671619446e-01
      -1.8553865383476034e-01 -1.4592014823308601e+00
      5.3077906791296838e+00 1.2394733395108946e+00
      -2.0738106523484432e+00 2.0366480152463573e-01
      2.5710881353445003e-01 4.4063095462856685e+00
      3.0356429936672953e+00 2.2065537596076896e+00
      -4.6499736878037181e+00 -9.2190546906052584e-01
      -1.2598660553368772e+00 1.1391483453504332e+00
      -2.5881669015178401e+00 1.4733237582147842e+00
      3.9104413855971019e+00 3.7028637928718724e+00
      -1.3141287587746524e+00 3.3348289491284699e+00
      -1.1563567229473315e+00 1.2067284612332050e+00
      -8.7793304179771259e-01 3.4996248824207510e-01
      6.9574530321961312e+00 2.4273930893906486e+00
      -2.5011835004744749e+00 9.6154965210260013e-01
      4.3735472124721753e-01 6.2048403586594123e+00
      1.0520594724383951e+00 -8.8907472273054355e-01
      -3.4816838155339442e+00 1.1160597441467850e+00
      -3.0091346591016306e+00 -4.8058525138716846e-01
      -9.2387856663877710e-01 -9.6969688884138094e-01
      2.8339016803159922e-01 -7.7918708125476268e+00
      5.6850745447563078e+00 -8.7660291786685640e-01
      -8.2373011296720078e-01 2.5836941170827070e+00
      2.9475896947765974e+00 1.3998735183427475e+00
      2.3669768973200056e+00 1.3397715548921980e+00
      -1.9072033980121610e+00 3.6679200951336643e-01
      -1.9455606311702458e+00 -1.7328880923397723e+00
      1.4445676101065548e+00 2.2559936033465514e-01
      4.5107203113776073e+00 1.5758292773342333e+00
      -5.5933395759283977e+00 1.0889076525399553e+00
      -1.5028938804727736e+00 3.9390620262595277e-01
      -1.3967226779911592e+00 -1.9937823583004424e+00
      -2.1804022543267640e-01 3.1973275735582103e+00
      1.8312188355540719e+00 -9.8765322848848414e-01
      -1.9996365532652072e+00 1.9989244856650739e+00
      1.4066882047527829e-01 2.9770838791035636e+00
      -3.1426883993017345e+00 4.3844776336483724e+00
      -1.2846431489950256e+00 4.4679068356587204e-01
      4.3290911562551848e+00 2.9694545222076019e+00
      -1.1413214193015415e+00 4.9017998398389171e+00
      -1.0455194440521183e+00 3.3958092525719696e-01
      -2.1139750932223109e-01 1.1711452372045754e+00
      4.8511547429792246e-01 1.3411802872065792e-01
      2.5324392259023747e+00 1.9540535333088624e+00
      -5.8365860104753386e-01 -7.9758841932662494e-01
      1.6363159455846126e+00 7.0368881604368001e+00
      -1.8648798266084150e+00 -2.0143728501974572e+00
      8.0569946446128626e-01 -2.9962102863828313e+00
      -9.9804515188872944e-01 -9.5607364804141215e-01
      9.9740666936245637e-01 1.6041039689692727e+00
      4.1081926216436004e+00 -1.7687765884245776e+00
      -8.2303868163426080e-02 1.1064519521771436e+00
      -1.6610803344302101e+00 -1.6551918268040775e+00
      -7.3204870459680471e-01 -1.8613520227407754e-01
      2.7703074101009135e+00 1.3895676611381944e+00
      7.2253791722842364e-01 -2.7687264652912011e+00
      -6.5269008901991632e-01 4.2909185374008576e+00
      -2.6002199961457433e+00 2.1608276859946149e-01
      -1.7807740591643151e-01 -1.0305964537261252e+00
      1.1376052499651959e+00 -3.1026193930906127e+00
      2.3490644505027780e+00 -5.3612511530339475e+00
      -8.7523053495006631e-01 -5.6386692383100223e-01
      -1.5157610161085768e+00 1.1428097583620289e+00
      -1.8416892457006493e+00 2.5380088748172964e+00
      -3.4112369649076468e-01 1.4762925393325306e+00
      8.8059046226159376e-01 -6.0020428119688312e+00
      6.6325421116756406e-02 6.4221845971048968e+00
      -3.7232400082759480e+00 4.2678996211829903e+00
      8.5810317619391574e-01 5.1964263721423809e-01
      -4.0492325930919648e+00 1.3575024114392631e-01
      1.0943402828594868e+00 7.7502560394945847e+00
      -1.8597287275009773e+00 -2.8779318976830703e+00
      -8.7516724657238110e-01 1.4397855891927358e+00
      1.5297964234583241e+00 2.8639988146254312e+00
      4.0019620655249586e+00 2.5900661610591040e+00
      -4.6901056496714832e-03 5.6566455195901744e-01
      -3.4890494490366395e+00 1.2415070782309763e+00
      8.1743939595543647e-01 -9.2016072553003825e-01
      3.4317178455921220e+00 1.4668690777094884e+00
      -5.0358388676615649e+00 -3.0810249745525775e+00
      -2.4958306056792656e+00 -1.4513988095246970e+00
      -3.7808159373247805e+00 -3.5528450373475318e-01
      -4.8995482974473825e-01 4.1300378207560207e-01
      -6.8979999114000714e+00 1.2348806181502576e+00
      -2.2929286080259597e+00 3.2248985811959949e+00
      8.7351521861901843e-02 2.8296459069882971e+00
      -3.2157862642122934e+00 4.6279489281166253e+00
      -3.3675884130013398e+00 2.8436061345979105e+00
      1.8298819653984137e+00 2.9075681693394935e+00
      -3.4360204674647741e+00 2.5639401052214321e+00
      9.5890089789905053e-01 -2.4705053181443382e+00
      2.1332212384879423e-02 1.5171843183812033e+00
      -1.6965696093652327e+00 -2.4534607523213667e+00
      5.6086967295867431e+00 1.4482451904927847e+00
      1.6611172132977952e+01 1.3838783427719414e+00
      -1.7322747586096108e+00 1.5428886724314070e+00
      -1.1599309581437317e-02 8.3011927628765225e-01
      7.8206479066847958e+00 -2.5585699652814249e+00
      -4.8154556100003774e+00 6.6520116923643957e-01
      1.3449849473613227e+00 3.7011433031515795e-01
      9.4507281975574742e+00 -1.8869772562809215e+00
      1.3514066434225702e-02 4.8807785859649577e-01
      -3.4473469160208592e-01 -2.0003563722389353e-01
      1.3804340234595149e+00 -1.9982024585003189e+00
      4.1537316563028988e+00 4.0592870013081295e-01
      -2.6792496168703686e+00 -2.9608729567448884e+00
      -1.5165715196512173e+00 3.9023040039935193e+00
      2.3447421669719746e+00 1.3824542676281644e+00
      -1.2924859837592492e-01 -1.0213184906382873e+00
      6.8511158268415802e+00 -4.5577143673142171e+00
      1.7087797564670064e+00 -8.1679147420539753e+00
      3.0994405095291222e-03 -1.4327801980240107e+00
      2.0177106070305788e+00 3.2284601396209305e+00
      -2.3103409760937637e+00 -1.8162107533104185e-01
      -1.5297578131528857e+00 -1.3818669534512904e+00
      2.6597982140114795e+00 -4.8797840980100569e+00
      3.6681145752277522e-01 5.1875547320912876e+00
      -5.2403595508098162e+00 2.5279362400203897e-02
      2.2244396914995879e-01 4.2615561319583284e+00
      1.2460927747330839e+00 -7.4077546799955624e-02
      -2.5911982088806762e+00 -7.6187989008795198e-01
      -1.0080006746870829e+00 -5.5247629766211741e+00
      2.8255486763391944e+00 -1.3509148246715619e+00
      7.0773170499694826e-01 8.0198100129834571e-01
      -1.7321324428710032e+00 -1.3326995522660872e+00
      4.3599255269233463e+00 -7.2426498845582210e-01
      -4.9173962846503194e-01 1.4793325536767181e+00
      1.5717120979331582e+00 -1.6637719765570658e+00
      -3.9929171815181284e+00 -2.6723734458282951e+00
      3.1842412815654582e+00 -4.8867678588694974e-01
      -3.6703335655164493e-01 3.5797458001675531e-01
      2.1534654096658077e+00 -4.1884979105933962e-01
      4.9109360965920068e-01 1.7636608821515951e-01
      -5.6228377762637771e-01 3.5249718870184292e+00
      5.2128592832425857e-01 -2.3117540610746241e+00
      -3.8244976564291604e+00 -2.1928296846140389e+00
      6.4886691402652619e-01 -1.4569544120497651e+00
      1.4204554213213862e+00 -2.2060921102571229e+00
      -2.1548012874740250e+00 -2.1909472840395190e+00
      2.9167958637738916e+00 -3.1077938182156082e+00
      1.0374997611762780e+00 -5.1833313845051503e+00
      2.2844450393620727e-01 4.7866216632224362e-01
      2.1626343953716387e-01 -1.0820257955886960e+00
      -1.2960784826493157e-01 -1.1179487589394288e+00
      -2.5846168105672696e-02 -3.9479990932212994e-01
      -1.2072092799222267e+00 2.5279077193602384e+00
      2.1620064922169311e+00 5.6153505199391489e+00
      -3.2898222588007666e+00 4.8128419061462093e+00
      -7.0852266774753558e-01 -1.3843241438018357e+00
      -3.2453122832186687e+00 -6.7757082354131830e+00
      -8.9628085001072861e+00 -4.3507004182322073e-01
      1.3635067631905259e-01 3.9493758915792632e+00
      6.7912147056628436e-01 1.3338089249115950e+00
      9.6988458418789347e-01 -2.8488850844476943e+00
      -2.9941581502288188e+00 9.6189749786063250e-01
      1.7779947602320170e+00 2.9101256798026802e+00
      -2.2771682615093605e+00 -4.2998700266054222e+00
      4.3795943090018696e-01 1.4449817867457931e-01
      2.2225155016011540e+00 1.9336436940949673e+00
      2.1766465967310129e+00 3.1980971627187329e+00
      -2.0240267005952033e+00 4.2081204926961151e+00
      -4.2378140439473655e-01 5.1449109500780688e-01
      4.8139454995340074e+00 -4.6252128617788246e-01
      3.9654085758859270e+00 -1.5005516328358517e+00
      1.4504493213143446e+00 1.3775342851377503e-01
      -6.1730592985055260e-02 8.6783550871322159e+00
      2.8822919866954080e+00 -8.2713057960207834e+00
      1.5940712714173144e+00 -3.9310443457420754e+00
      9.2982182340961672e-02 -2.0942232790241402e+00
      3.1808679769214550e+00 7.9277275165801930e-01
      1.6036338710851012e+00 -7.1756576447724756e+00
      1.3022236452975684e+00 -1.4586123589181910e+00
      -9.0812390017530187e-01 1.8899278657027938e+00
      -6.2763700419962190e+00 -3.6412595308343270e+00
      -1.9026001431104307e+00 -2.4720292732174030e+00
      -6.7573865150597019e+00 -5.2718506234054558e+00
      1.9799249844750793e+00 -4.4699854761471762e+00
      6.5444406112890379e+00 4.3173807060524725e+00
      -2.6466914941245678e-01 -2.0296346199240523e+00
      2.3511861026136902e+00 2.0337043976723774e+00
      -3.7998851866064509e+00 4.1566925735741052e+00
      3.8781560469108376e+00 7.8455763648351007e-01
      -7.5105242124917160e+00 3.0057446156045673e+00
      -2.2354080990309968e+00 -1.2290151410857892e+00
      9.2266934974319026e-01 2.8940030715813587e+00
      -6.1274813920320892e-01 -6.2375911405645601e-01
      -2.3245934241303048e+00 -9.9568182920340131e-01
      -1.0318741534367599e+00 -1.2691100482181521e+00
      1.9732857044396503e+00 -2.7793028262402322e+00
      2.9651500868028315e+00 3.1063795535524952e-01
      -5.2563992401214108e+00 1.8675910424485647e+00
      8.4324239310407467e+00 -4.5781637172500993e+00
      4.1962266460714854e+00 -1.3517126113055669e-01
      -7.5242336175605091e+00 -6.6992762965607593e+00
      5.8368491745100970e-01 4.9514888114041433e-01
      4.5930931408918703e+00 -2.6792748768264119e+00
      -2.6505803553542249e+00 -2.0780690985946437e+00
      -2.5987422601498262e+00 -3.4365089955023507e+00
      3.8154207178720529e+00 4.1941869978035762e-01
      3.0505336055475438e+00 -1.5415723874186420e+00
      6.2185621769533075e+00 -1.6870296599732166e+00
      -2.1983776012268499e+00 -4.5579505363089101e-01
      -6.6254838295190233e+00 1.5459417182519231e+00
      -4.0359818166818506e+00 2.7203398953858837e+00
      2.0861144788620067e+00 -1.5095520070460764e+00
      2.6216602882874547e+00 -8.7561789534830115e-01
      5.7696770529001311e+00 2.6545645655344043e+00
      -1.5759698327578704e+00 -8.2370082223218477e-01
      1.1480316328418882e+00 -1.4320310976649426e+00
      3.9398740387230169e-01 -3.3414648431553235e+00
      -2.8186273883439004e+00 -1.9867768162512522e+00
      2.9889960166357357e+00 -6.4602898584446222e-01
      -1.1621492604593187e+00 4.2263215245116437e-01
      -1.2058923504383303e+00 7.8337231243054717e-01
      -2.9483535191046530e+00 -4.8587832932698847e+00
      -7.1801256751723628e+00 -1.0539177032523313e+00
      -4.7228901271377319e+00 1.7185412552952690e+00
      8.5460533423864105e-01 -8.7252768836380623e-01
      -8.7020197252095635e+00 5.6211381831732208e+00
      -2.2881787964185420e+00 -2.0053391282139934e+00
      -1.7604582732080051e-01 -1.1401571894105857e+00
      -3.0271705808597882e+00 -4.6705680181796438e+00
      -3.6331716568485004e+00 3.1591823150832585e+00
      7.3264667329373365e+00 -1.1311375525706480e+00
      8.8923838730154359e-01 -3.3668680130466728e+00
      -3.1451901651976373e+00 -2.8750433273261827e-01
      -6.3123656117092741e-01 -1.3507604005261915e+00
      4.0347143766172646e+00 6.3591872687261670e+00
      -2.8316989677428892e+00 -5.3242972287408756e+00
      3.0656067675390792e+00 6.6992307773884905e+00
      -9.9322027270241808e-01 3.8657384325259700e+00
      -1.3612246524566110e+00 -7.4930326488985122e-01
      -9.4720504020033724e-01 -7.5172805967872880e-01
      -1.6395002984194509e+00 -2.4435610165947717e+00
      6.2963434623349741e+00 3.1031033903280116e+00
      -7.9102191804467670e-01 -4.7274496681032643e+00
      -6.6950677550607307e-01 -5.2316589681206294e+00
      -1.9394993098123359e+00 -3.3581582250931281e+00
      -4.1491338674505951e-01 -3.6554167591922573e+00
      3.7558975945756297e+00 -2.4463278573175620e+00
      -3.9185972059880023e+00 1.9555237694836904e+00
      1.7578416138821096e+00 -6.3579496218080533e-01
      4.3875670538446592e+00 5.1397338431603572e+00
      -3.6025349028771667e+00 -4.1100198891666206e+00
      5.5961743936291688e+00 -1.2572871643529895e+00
      3.3348367046313965e+00 -2.7744245736025070e+00
      2.7729650065586391e+00 -2.5346602261827726e+00
      -1.9172302043342508e+00 -1.0422131535676671e+00
      2.0791104423347981e+00 6.5394992125041440e-01
      1.8788934600064784e+00 4.8263459832592108e+00
      -4.6030890572308421e+00 -2.8979285579429521e+00
      3.2531171841084645e+00 -3.9306502250165654e+00
      1.7153487805246481e-01 4.8332237693226023e+00
      -4.3611614738786182e+00 1.9659483662313904e+00
      -4.2484664043018627e+00 1.2327294380280227e+00
      1.2489089545692922e+00 -9.2369283820813564e-01
      4.0100916057119482e+00 -4.8485615876191196e-01
      -5.8271855828675863e+00 -8.2744326183578440e+00
      1.3372148064374376e+00 -3.3000040225252087e+00
      -9.4905472941795725e+00 2.5432352136952159e+00
      -2.9407455635517477e+00 2.0730242209410910e+00
      2.8103037704736935e+00 -1.9302755489699237e+00
      7.2086624709530174e+00 -9.0729050626572523e+00
      -1.8789104773123997e+00 1.6239949364547174e-02
      -6.8389558395595618e-01 -4.3038949213842361e+00
      -4.2596039873065523e+00 9.4586500212427218e+00
      -3.9983282494190373e+00 8.5210130369255482e-02
      5.5776039401583528e+00 -1.7162550932047760e+00
      -5.6538021551724471e-01 2.1732808164509452e+00
      8.4069139933589465e+00 -4.4086019482370178e+00
      7.2098863069745853e+00 1.1628097076119659e+00
      2.7654061504758842e-01 -5.7603572472431157e+00
      -4.3849056788055609e+00 3.5392878334129563e+00
      1.0529861680999286e+00 -2.9121072639934464e+00
      1.1436022464049327e+00 2.9669002590331104e+00
      4.4763740755060430e+00 4.0715440599166177e+00
      -2.1020852336628502e+00 1.3128333915612078e+00
      -1.4680920874298060e+00 -5.0452093504689275e+00
      3.6098334293745218e+00 2.4247043517522529e+00
      -2.6135005424183650e+00 1.1151073062143797e+00
      -1.9371120452820634e-02 -1.3174410575606836e+00
      -1.6587200303575567e+00 -3.7794362007459814e-01
      5.2819803348577432e-01 -8.0171334488540746e-04
      -2.0827254520588753e-01 3.5204700638883972e+00
      -4.8212738956819416e+00 -2.1191869969284944e+00
      2.3259921579029665e+00 3.1825784461568354e+00
      1.7010562911859057e+00 3.7086215968202696e+00
      1.3653830052832254e+00 3.9478702571831565e+00
      1.0729817554780652e+01 7.5900909936277907e+00
      -3.9875266116211754e+00 5.2232023201288671e+00
      6.5322173957516725e+00 1.2408965366184366e+00
      -1.3725769035245601e+00 4.3630301671057437e+00
      3.8128433336372258e-01 -5.6526502148824482e+00
      -5.9910196800659621e-01 3.2799682659096430e+00
      -2.3211126080653726e+00 5.7855244359849578e-01
      -2.1728486251072896e+00 3.0979988843360515e+00
      7.4625191756889497e-01 1.1477600535528394e+00
      3.4074202539069818e+00 -1.8456832802323175e-01
      -3.9369628427256536e+00 -5.4961910417660709e-01
      -3.7614639914887338e-01 -3.1966885663636799e+00
      3.6137950966743748e+00 1.6665596236167923e-02
      1.4407378264538568e+00 1.8390315636303582e+00
      8.9334433418601344e-01 -4.0310129686892902e+00
      3.6705147240491365e+00 -4.1205274853241391e+00
      2.6823650176305560e+00 2.2763461551031250e-01
      -5.8236351426283628e-01 -7.2827501014037010e-02
      -4.9438836398124701e+00 -2.8788038602235133e+00
      1.7743052782994553e+00 4.5007650007268953e+00
      -5.0644542897345861e+00 1.0270961172203639e+00
      5.4330796942879296e+00 -2.7439871515590242e+00
      4.7022524923684790e+00 -2.0720066975202331e+00
      -7.6588800966026527e-01 4.3465998599033240e+00
      -3.9264451911766058e+00 3.1024734442994224e+00
      2.3251358839671949e+00 -2.1464257236056299e+00
      -1.3042398007524769e+00 4.0824841783853696e+00
      6.6629312388492163e+00 -8.3070223913403662e+00
      2.4325198332888878e+00 1.6587151789850290e+00
      -2.6828699925346933e+00 9.2773659331353259e-02
      2.3167190673442084e+00 -1.9352686446366958e+00
      -6.2553574776934271e+00 2.8814884004158392e+00
      -1.5932291829783267e+00 -6.6043896899696475e-02
      -1.9739079992539277e+00 4.6590285809646215e+00
      -7.0949251421655612e-01 -3.4301915045623907e+00
      -2.0125030493487936e+00 5.2768214759325884e+00
      -3.9853995948818879e+00 -1.4748399260317004e+00
      -4.5504053168384440e+00 3.3239438395530652e-01
      4.6310985244617751e+00 6.3810130432497676e+00
      6.1463821503838520e+00 -6.9530774903688430e-01
      1.6466727865798001e+00 -3.1369742130421634e+00
      4.2855350879911649e+00 -2.4355846621273869e-01
      -1.1584989803307115e+00 -4.1953754086869051e+00
      4.8043476844299349e+00 2.9730708044168273e+00
      1.5188759146778541e+00 1.0334080609369642e+00
      -9.4506621368733251e-02 -3.8120515274995688e+00
      2.6607514010306907e+00 -5.7014330432000788e+00
      2.7614090166229337e+00 -6.4540139947709996e+00
      5.5903375911131912e+00 -4.0321934760293523e+00
      -1.2947600324543611e+00 -4.2360185126780525e+00
      -8.8001224070816708e-01 5.4571123771159719e-02
      2.8800603185535034e+00 1.6766595685130918e+00
      4.8289155183486976e-02 -9.6694288073963375e-01
      -3.2673153883547599e+00 -1.3499711425374517e-01
      1.9149723285911500e+00 6.3076393968747198e+00
      -5.7388175983612622e-01 -3.6834177687754375e+00
      4.7081764603377596e-01 1.4983647642986904e+00
      4.0428026750415558e-01 -1.5452306048723483e+00
      -3.5977597816583162e+00 5.2982569875419910e-02
      -3.2406138002319120e+00 -8.8949057672125842e-01
      4.8283997433523460e+00 4.5022514439135479e+00
      -3.9249866817370567e+00 1.9622912709096565e+00
      -5.7926418637440424e-01 -4.8575681510977793e+00
      1.6964840399419396e+00 -3.3234682775477067e+00
      -2.4619777258321420e+00 -4.6574374754021675e-01
      -2.2898359861257784e+00 -2.2107544341893446e+00
      -3.9816731965945151e+00 4.1051285658832626e+00
      2.7557158471018393e+00 -3.5729638896548095e+00
      -3.9291128275226082e+00 3.9573682214690087e-01
      2.9453202641164098e+00 3.1387395658284589e+00
      2.7957556494948532e+00 1.8819628182167478e+00
      -5.3387317372291454e+00 -1.4766547167740500e+00
      -4.2609564260944817e+00 5.3281963013961189e+00
      7.1809142579449348e-01 6.9744361144952716e-01
      3.6523227907675624e+00 -1.2569447931942734e+00
      6.5409926556609432e-01 2.6326718489152809e+00
      -4.4387499236700236e+00 3.9540979885814944e+00
      1.8351075680341711e+00 7.8095293962338088e+00
      3.5105842444756314e+00 -1.1618355099340789e+00
      3.0085829871646075e+00 3.3302077742569223e+00
      4.2237406181830206e-01 -2.7849886806026680e-01
      6.1586842875156051e+00 -4.1587319159438954e+00
      3.0124714517410944e+00 -2.2021730189805289e+00
      -2.3145465179617402e+00 -5.6366475762840915e+00
      -3.1978634846071983e+00 3.1722525905102317e+00
      -1.6945218338431052e+00 -4.3181799409851136e+00
      5.1674191633843147e-01 -2.9389850934879482e+00
      1.7102064511942907e+00 -1.1899386417423181e+00
      2.9553878750464198e+00 -2.1156599851513611e-01
      -4.9232873289577472e-01 -5.2917544700476582e-01
      -3.2062100425285043e+00 8.3126203682086924e-02
      3.0327786327701194e+00 -6.7849364240676252e-02
      -1.5575429703392563e+00 2.2096775389698529e+00
      1.1236359514581933e+00 6.6934809553427665e-01
      2.0663983536370374e+00 -1.4671987410341469e+00
      4.1213178863336752e+00 2.1992191651584614e+00
      3.1516098334291325e+00 -1.5474907295779214e+00
      2.5120093439074584e+00 -7.7397842661550831e-01
      3.0503400609873510e+00 -4.1888429266611951e+00
      8.5283072515485003e-02 -7.4905590563261470e-01
      -3.7667755179628823e+00 -2.8836376861975630e+00
      2.8502983803771849e+00 -4.4419214241309390e+00
      1.2515124507512936e+00 -1.8721429128637697e+00
      5.1538790696444237e-01 -2.1824676036663893e+00
      -4.7265187666599195e-01 -2.1706213502066656e+00
      -2.6373164829460625e+00 4.5458756878926443e-01
      -9.6865458262131554e-01 -9.3567674970314185e-01
      2.3775293954057952e+00 -1.6550156267167067e+00
      6.9867312607183951e-01 3.2505718538503783e+00
      -6.3118847553204436e+00 3.1956219841358413e+00
      2.6022224422776081e+00 8.4906494800318255e-01
      -2.9815476446363620e+00 -4.2276653684675978e+00
      -4.4298185435192279e+00 1.4834386065597831e+00
      -2.2352354910988370e+00 1.7440111154254816e+00
      4.8798365099805363e-01 1.3940506324930870e+00
      2.9807846107999403e+00 -1.1491475682184813e+00
      -1.9674326381172076e+00 -9.0133584631607844e-01
      2.1312641113929207e-01 3.8410266941260076e+00
      3.3939145620766746e+00 -4.1768866935337154e+00
      1.4006215229106338e+00 -2.5316628899384419e+00
      4.4246735802503945e-01 1.1838599480030254e+00
      -1.6276169438941130e+00 4.5257229230258487e+00
      -7.8081795027699658e-02 2.4450434762716631e+00
      5.6464773692699588e-01 2.4284495369388578e-01
      5.1277908399516792e-01 -3.8869139725245927e-01
