<?xml version="1.0"?>
<opencv_storage>
<my_nb type_id="opencv-ml-bayesian">
  <var_count>21</var_count>
  <var_all>22</var_all>
  <var_idx type_id="opencv-matrix">
    <rows>1</rows>
    <cols>21</cols>
    <dt>i</dt>
    <data>
      0 1 2 3 4 5 6 7 8 9 10 11 12 13 14 15 16 17 18 19 20</data></var_idx>
  <cls_labels type_id="opencv-matrix">
    <rows>1</rows>
    <cols>3</cols>
    <dt>i</dt>
    <data>
      0 1 2</data></cls_labels>
  <count>
    <_ type_id="opencv-matrix">
      <rows>1</rows>
      <cols>21</cols>
      <dt>i</dt>
      <data>
        90 90 90 90 90 90 90 90 90 90 90 90 90 90 90 90 90 90 90 90 90</data></_>
    <_ type_id="opencv-matrix">
      <rows>1</rows>
      <cols>21</cols>
      <dt>i</dt>
      <data>
        112 112 112 112 112 112 112 112 112 112 112 112 112 112 112 112
        112 112 112 112 112</data></_>
    <_ type_id="opencv-matrix">
      <rows>1</rows>
      <cols>21</cols>
      <dt>i</dt>
      <data>
        98 98 98 98 98 98 98 98 98 98 98 98 98 98 98 98 98 98 98 98 98</data></_></count>
  <sum>
    <_ type_id="opencv-matrix">
      <rows>1</rows>
      <cols>21</cols>
      <dt>d</dt>
      <data>
        -1.4699998702853918e+00 5.1889999751001596e+01
        9.3879999442026019e+01 1.3314999930188060e+02
        1.7586000073328614e+02 2.3152999939583242e+02
        2.8519000104069710e+02 2.2038000080548227e+02
        1.7159999912977219e+02 1.7649000019766390e+02
        1.8151000013947487e+02 1.8670000058040023e+02
        1.7899000006914139e+02 2.1474000016227365e+02
        2.6265000007860363e+02 2.1077999941632152e+02
        1.7548999952897429e+02 1.3276999996975064e+02
        8.1130000216886401e+01 2.2419999869540334e+01
        2.1350000306963921e+01</data></_>
    <_ type_id="opencv-matrix">
      <rows>1</rows>
      <cols>21</cols>
      <dt>d</dt>
      <data>
        -3.5699996035546064e+00 4.4080000149086118e+01
        1.0336000032536685e+02 1.4596000038832426e+02
        2.0609000054374337e+02 3.1753000126779079e+02
        4.1972999852523208e+02 4.2222999948263168e+02
        4.6086999905109406e+02 4.4936999893188477e+02
        4.6903999835252762e+02 3.6372000105679035e+02
        2.2709999950602651e+02 1.8507999907806516e+02
        1.1828000006452203e+02 7.7829999711364508e+01
        -3.5899998545646667e+00 -9.0499999914318323e+00
        1.3100000122562051e+01 -6.4400000218302011e+00
        -7.4800002761185169e+00</data></_>
    <_ type_id="opencv-matrix">
      <rows>1</rows>
      <cols>21</cols>
      <dt>d</dt>
      <data>
        -1.1549999697133899e+01 -4.4800000078976154e+00
        7.9900000691413879e+00 1.7000016756355762e-01
        -1.2140000497922301e+01 3.1060000145807862e+01
        1.0859000001288950e+02 1.4314999917149544e+02
        1.9896000082604587e+02 2.8373000029660761e+02
        3.8147000028192997e+02 4.0145999968051910e+02
        4.0145999956130981e+02 3.9038000178337097e+02
        3.8930999976396561e+02 3.0551999944262207e+02
        2.0499000004865229e+02 1.5491999985463917e+02
        9.8719999654218554e+01 3.8120000217109919e+01
        1.4699999000877142e+00</data></_></sum>
  <productsum>
    <_ type_id="opencv-matrix">
      <rows>21</rows>
      <cols>21</cols>
      <dt>d</dt>
      <data>
        8.3279499439589713e+01 1.8747700289297093e+01
        -1.0179999296367203e+01 -3.6080002477094730e+00
        -2.0137007223546526e+00 -1.4415400984669496e+01
        -1.8986398599656653e+01 5.3200007745250133e-01
        5.6427001939110397e+00 -6.5473984210215708e+00
        -1.8366099940830463e+01 -1.4558799229589114e+01
        -2.4218996024266000e+00 -2.5799909096953977e-01
        1.0969899616560362e+01 -2.5190699654038248e+01
        1.1504100470954185e+01 -1.4595993503086357e+00
        -1.4489991978406911e+00 -1.2551300312400601e+01
        -2.5487600053565174e+01 1.8747700289297093e+01
        1.3861130015010841e+02 5.0067099175555256e+01
        8.7078400287105111e+01 1.0335749980136745e+02
        1.4965769744773877e+02 1.8477439995584487e+02
        1.4012020063558140e+02 1.2318059802340865e+02
        1.0453890005207286e+02 8.0992699025306081e+01
        9.8988199479992730e+01 9.4501799008172782e+01
        1.3083999940361826e+02 1.2970709775944204e+02
        1.0070579947149456e+02 9.4947899465440244e+01
        7.3236999463468777e+01 5.3454399557536846e+01
        1.2872099534561491e+01 1.6172199740621430e+01
        -1.0179999296367203e+01 5.0067099175555256e+01
        2.2211059744855925e+02 1.9989759817290840e+02
        2.5086530084711762e+02 3.5671619904806028e+02
        4.1450070083247800e+02 3.2820750003272656e+02
        2.5746959852333140e+02 2.2252309824849073e+02
        1.9495319945387840e+02 1.4691859798719506e+02
        1.2124809846109301e+02 1.3213749879872432e+02
        1.4703079897647797e+02 1.0950789654881733e+02
        9.8910797854513675e+01 9.8743598269572118e+01
        4.5199999129846702e+01 1.6829912858157980e-01
        2.9806299907591931e+01 -3.6080002477094730e+00
        8.7078400287105111e+01 1.9989759817290840e+02
        3.5939149764387321e+02 3.6811749898763367e+02
        4.7201959649822624e+02 5.7617690004402243e+02
        4.4274819990359538e+02 3.4341169657485489e+02
        3.1696849953876449e+02 2.5413509903775298e+02
        2.2561309886655366e+02 1.7737249881960449e+02
        2.1468859893969596e+02 2.2983539724183305e+02
        1.9567039844519493e+02 1.7429280013025996e+02
        1.4123980002720359e+02 7.4417699098154131e+01
        -1.0439998924955715e+01 3.4134899554962665e+01
        -2.0137007223546526e+00 1.0335749980136745e+02
        2.5086530084711762e+02 3.6811749898763367e+02
        5.4307260672611926e+02 5.9623590307196434e+02
        7.4396970670197834e+02 5.7728360807217086e+02
        4.3921260081436282e+02 4.2057600260408208e+02
        3.4079700195172040e+02 3.0574310187956826e+02
        2.4115369891923964e+02 2.7080189989735783e+02
        2.9272059762839746e+02 2.4193890140008779e+02
        2.2989619905219524e+02 1.6416739952368880e+02
        1.0281680060803592e+02 1.6049999683685627e+01
        4.0734100204446889e+01 -1.4415400984669496e+01
        1.4965769744773877e+02 3.5671619904806028e+02
        4.7201959649822624e+02 5.9623590307196434e+02
        8.8204729567207869e+02 9.6343610191694791e+02
        7.6432540125913033e+02 5.7541029814788419e+02
        5.4566399941038731e+02 4.4585759999325290e+02
        3.9602410018792540e+02 3.0891389716972270e+02
        3.8771989791481042e+02 4.2619719781954512e+02
        3.2056129678367517e+02 2.8291419646605777e+02
        2.2980589783672093e+02 1.3011210054798948e+02
        -5.9020249118579571e-01 6.8714400158463420e+01
        -1.8986398599656653e+01 1.8477439995584487e+02
        4.1450070083247800e+02 5.7617690004402243e+02
        7.4396970670197834e+02 9.6343610191694791e+02
        1.2742535101834837e+03 9.1453761022129834e+02
        6.9834090152989916e+02 6.7581360385335370e+02
        5.5347950282509623e+02 5.2035590236469932e+02
        4.0418219964663245e+02 4.6774240005882677e+02
        5.2536640126227076e+02 4.1717019925791323e+02
        3.8075489948744178e+02 2.9963240030395093e+02
        1.6116420111497789e+02 -8.2703504036475195e-02
        6.4859102166911214e+01 5.3200007745250133e-01
        1.4012020063558140e+02 3.2820750003272656e+02
        4.4274819990359538e+02 5.7728360807217086e+02
        7.6432540125913033e+02 9.1453761022129834e+02
        8.1904460817960080e+02 5.3489670180207031e+02
        5.0365290277156095e+02 4.2962970288547422e+02
        3.8284430210454099e+02 2.9749349918024240e+02
        3.7175350105501337e+02 4.1350310010625566e+02
        3.3177379867398071e+02 2.7458099967850001e+02
        2.2106919990362525e+02 1.2034360029363411e+02
        7.7740984544731457e+00 5.2136499928779898e+01
        5.6427001939110397e+00 1.2318059802340865e+02
        2.5746959852333140e+02 3.4341169657485489e+02
        4.3921260081436282e+02 5.7541029814788419e+02
        6.9834090152989916e+02 5.3489670180207031e+02
        4.9290539687625215e+02 3.8719009895732410e+02
        3.2778829812450419e+02 2.9618219864445479e+02
        2.4611499729327855e+02 2.9553599640408163e+02
        3.4174529490771977e+02 2.4913569583822346e+02
        2.4416649599327144e+02 1.8913959583603739e+02
        9.1637598231898238e+01 -7.8642018318727764e+00
        4.0507299839355795e+01 -6.5473984210215708e+00
        1.0453890005207286e+02 2.2252309824849073e+02
        3.1696849953876449e+02 4.2057600260408208e+02
        5.4566399941038731e+02 6.7581360385335370e+02
        5.0365290277156095e+02 3.8719009895732410e+02
        4.7094450095794372e+02 3.4964670101029714e+02
        3.4001400175460049e+02 2.8294459878974556e+02
        3.2937870031478923e+02 4.0576419870965088e+02
        3.1227790024523659e+02 2.7036300004572422e+02
        2.1705679926575803e+02 1.3042629961139411e+02
        1.5704300004427125e+01 4.1095200836896147e+01
        -1.8366099940830463e+01 8.0992699025306081e+01
        1.9495319945387840e+02 2.5413509903775298e+02
        3.4079700195172040e+02 4.4585759999325290e+02
        5.5347950282509623e+02 4.2962970288547422e+02
        3.2778829812450419e+02 3.4964670101029714e+02
        4.7348750204473748e+02 3.9582760080819719e+02
        3.6171820020560472e+02 4.5807979962941698e+02
        5.4886950031639230e+02 4.3396369857900879e+02
        3.9443459963762172e+02 2.7964529982478609e+02
        1.7381080160267720e+02 5.9329498302984959e+01
        2.6528401365409039e+01 -1.4558799229589114e+01
        9.8988199479992730e+01 1.4691859798719506e+02
        2.2561309886655366e+02 3.0574310187956826e+02
        3.9602410018792540e+02 5.2035590236469932e+02
        3.8284430210454099e+02 2.9618219864445479e+02
        3.4001400175460049e+02 3.9582760080819719e+02
        4.9407620399159509e+02 4.3338730125520817e+02
        5.1789440176533014e+02 6.5085820231257298e+02
        5.3526359949327400e+02 4.3029390039314183e+02
        3.1354909987103343e+02 1.9288710146381476e+02
        5.9858000702921288e+01 3.3870100381241748e+01
        -2.4218996024266000e+00 9.4501799008172782e+01
        1.2124809846109301e+02 1.7737249881960449e+02
        2.4115369891923964e+02 3.0891389716972270e+02
        4.0418219964663245e+02 2.9749349918024240e+02
        2.4611499729327855e+02 2.8294459878974556e+02
        3.6171820020560472e+02 4.3338730125520817e+02
        5.3706330341441640e+02 5.4449390171029268e+02
        6.9845110114756392e+02 5.7936510036295067e+02
        4.4612349931707251e+02 3.4693660131797350e+02
        2.2995260095914608e+02 8.1649201043079799e+01
        3.7515700194745513e+01 -2.5799909096953977e-01
        1.3083999940361826e+02 1.3213749879872432e+02
        2.1468859893969596e+02 2.7080189989735783e+02
        3.8771989791481042e+02 4.6774240005882677e+02
        3.7175350105501337e+02 2.9553599640408163e+02
        3.2937870031478923e+02 4.5807979962941698e+02
        5.1789440176533014e+02 5.4449390171029268e+02
        7.4356560216958235e+02 8.4679770010023901e+02
        6.9821989808606202e+02 5.5638449718876939e+02
        4.1077510108606657e+02 2.6413510100429664e+02
        9.0589699409200989e+01 5.2726199871666005e+01
        1.0969899616560362e+01 1.2970709775944204e+02
        1.4703079897647797e+02 2.2983539724183305e+02
        2.9272059762839746e+02 4.2619719781954512e+02
        5.2536640126227076e+02 4.1350310010625566e+02
        3.4174529490771977e+02 4.0576419870965088e+02
        5.4886950031639230e+02 6.5085820231257298e+02
        6.9845110114756392e+02 8.4679770010023901e+02
        1.1664496992423644e+03 8.8798019714554277e+02
        7.1794649824813371e+02 5.3097139972016805e+02
        3.2871770213022381e+02 1.1732440022985861e+02
        5.9369501493379509e+01 -2.5190699654038248e+01
        1.0070579947149456e+02 1.0950789654881733e+02
        1.9567039844519493e+02 2.4193890140008779e+02
        3.2056129678367517e+02 4.1717019925791323e+02
        3.3177379867398071e+02 2.4913569583822346e+02
        3.1227790024523659e+02 4.3396369857900879e+02
        5.3526359949327400e+02 5.7936510036295067e+02
        6.9821989808606202e+02 8.8798019714554277e+02
        8.2666519358921369e+02 5.7506659601487377e+02
        4.4361929769906851e+02 2.6264029861183167e+02
        1.1590990088526381e+02 5.5665000132471349e+01
        1.1504100470954185e+01 9.4947899465440244e+01
        9.8910797854513675e+01 1.7429280013025996e+02
        2.2989619905219524e+02 2.8291419646605777e+02
        3.8075489948744178e+02 2.7458099967850001e+02
        2.4416649599327144e+02 2.7036300004572422e+02
        3.9443459963762172e+02 4.3029390039314183e+02
        4.4612349931707251e+02 5.5638449718876939e+02
        7.1794649824813371e+02 5.7506659601487377e+02
        5.5222809769521064e+02 3.4008109869326813e+02
        2.3543620038208667e+02 7.7874199928640607e+01
        5.6143399530014392e+01 -1.4595993503086357e+00
        7.3236999463468777e+01 9.8743598269572118e+01
        1.4123980002720359e+02 1.6416739952368880e+02
        2.2980589783672093e+02 2.9963240030395093e+02
        2.2106919990362525e+02 1.8913959583603739e+02
        2.1705679926575803e+02 2.7964529982478609e+02
        3.1354909987103343e+02 3.4693660131797350e+02
        4.1077510108606657e+02 5.3097139972016805e+02
        4.4361929769906851e+02 3.4008109869326813e+02
        3.2740549823907037e+02 1.4904939992250354e+02
        6.6633000489052364e+01 2.8749200573339323e+01
        -1.4489991978406911e+00 5.3454399557536846e+01
        4.5199999129846702e+01 7.4417699098154131e+01
        1.0281680060803592e+02 1.3011210054798948e+02
        1.6116420111497789e+02 1.2034360029363411e+02
        9.1637598231898238e+01 1.3042629961139411e+02
        1.7381080160267720e+02 1.9288710146381476e+02
        2.2995260095914608e+02 2.6413510100429664e+02
        3.2871770213022381e+02 2.6264029861183167e+02
        2.3543620038208667e+02 1.4904939992250354e+02
        1.9173750043321405e+02 3.6702600419276941e+01
        3.1495300350312892e+01 -1.2551300312400601e+01
        1.2872099534561491e+01 1.6829912858157980e-01
        -1.0439998924955715e+01 1.6049999683685627e+01
        -5.9020249118579571e-01 -8.2703504036475195e-02
        7.7740984544731457e+00 -7.8642018318727764e+00
        1.5704300004427125e+01 5.9329498302984959e+01
        5.9858000702921288e+01 8.1649201043079799e+01
        9.0589699409200989e+01 1.1732440022985861e+02
        1.1590990088526381e+02 7.7874199928640607e+01
        6.6633000489052364e+01 3.6702600419276941e+01
        1.1836300194994368e+02 -3.6140999953277486e+00
        -2.5487600053565174e+01 1.6172199740621430e+01
        2.9806299907591931e+01 3.4134899554962665e+01
        4.0734100204446889e+01 6.8714400158463420e+01
        6.4859102166911214e+01 5.2136499928779898e+01
        4.0507299839355795e+01 4.1095200836896147e+01
        2.6528401365409039e+01 3.3870100381241748e+01
        3.7515700194745513e+01 5.2726199871666005e+01
        5.9369501493379509e+01 5.5665000132471349e+01
        5.6143399530014392e+01 2.8749200573339323e+01
        3.1495300350312892e+01 -3.6140999953277486e+00
        8.4580100062394180e+01</data></_>
    <_ type_id="opencv-matrix">
      <rows>21</rows>
      <cols>21</cols>
      <dt>d</dt>
      <data>
        1.1134369833783363e+02 9.5098000043116588e+00
        -4.9153999490946525e+00 -6.4619997970498879e+00
        2.7880056078432958e-01 5.0281998584821839e+00
        -6.2212989253074227e+00 5.0073005788817735e+00
        -2.2735990842558014e+00 4.6190175303668290e-01
        -3.2095498744871492e+01 -3.5504799113911410e+01
        -2.5198898614930368e+01 -2.1381899676541231e+01
        1.6269999606646596e+01 -1.4889989083297501e+00
        7.5533995524778943e+00 1.0444300001130250e+01
        1.8298994640469530e+00 -1.7997699775616823e+01
        1.6190999973095948e+01 9.5098000043116588e+00
        1.3080739951050140e+02 4.8979800279871355e+01
        9.9812499877344806e+01 1.0098609976067542e+02
        1.7543910106653490e+02 2.0406639942590741e+02
        1.8347169911216869e+02 1.9489269991430928e+02
        1.7226280012249273e+02 1.5987210011894780e+02
        1.1484830212839019e+02 4.0466300677628048e+01
        2.2132000490698946e+01 4.5605699531867366e+01
        2.5910600512368223e+01 2.5953400243183978e+01
        2.9833001334413982e+00 5.0755987287178641e+00
        -2.0830099262518434e+01 -1.5686599719190593e+01
        -4.9153999490946525e+00 4.8979800279871355e+01
        2.5112880202500975e+02 1.8961299990092220e+02
        2.7037300257981587e+02 3.6400550146289925e+02
        4.5630180175093642e+02 4.2244539940529523e+02
        4.2786489883396985e+02 3.7847890118810017e+02
        3.6447240179110543e+02 2.7024240376644065e+02
        1.4477900054356459e+02 1.3055390201116577e+02
        7.4014000274468245e+01 4.6617400359159689e+01
        1.0642100809691120e+01 -3.7435990576013793e+00
        1.8073299889211345e+01 -5.4004993434325037e+00
        -1.3529600345333655e+01 -6.4619997970498879e+00
        9.9812499877344806e+01 1.8961299990092220e+02
        4.0583220333090742e+02 4.0764270243552966e+02
        5.5073460363727975e+02 6.6433329918515028e+02
        6.1839200269545631e+02 6.1629990467092284e+02
        5.2659750206541275e+02 4.9407159748425852e+02
        3.7712330184035079e+02 1.8237769753599096e+02
        1.5007489970505458e+02 8.2070199865768828e+01
        6.1484200017786790e+01 1.2137800632671258e+01
        -4.5660301434968453e+01 5.1996992474674988e+00
        -1.2280000360924756e+01 -2.2655400438150775e+01
        2.7880056078432958e-01 1.0098609976067542e+02
        2.7037300257981587e+02 4.0764270243552966e+02
        6.4742310276652279e+02 7.5666570423037103e+02
        9.1797150145350372e+02 8.7713920196970867e+02
        8.5524500227311603e+02 7.3840700081882301e+02
        7.0068719929028975e+02 5.2480510366232829e+02
        2.8841750110493973e+02 2.1762000244846575e+02
        1.3500409968907169e+02 9.4985499631211155e+01
        4.2979000398613536e+00 -3.9737199091824884e+01
        -2.9724005063645524e+00 -3.0106098951467860e+01
        -1.9823199586852645e+01 5.0281998584821839e+00
        1.7543910106653490e+02 3.6400550146289925e+02
        5.5073460363727975e+02 7.5666570423037103e+02
        1.1457279092191818e+03 1.3215443013937740e+03
        1.2875843032463617e+03 1.3339716020574804e+03
        1.2011245044511854e+03 1.1752240015510320e+03
        8.7721240830654540e+02 5.1467489976758338e+02
        4.0605390355792508e+02 2.6955550087771189e+02
        1.8317460012323193e+02 1.3986902508395161e+01
        -6.0801701005212237e+01 1.0704900756480525e+01
        -2.0093299775794897e+01 -3.3730900777446514e+01
        -6.2212989253074227e+00 2.0406639942590741e+02
        4.5630180175093642e+02 6.6433329918515028e+02
        9.1797150145350372e+02 1.3215443013937740e+03
        1.8391452850644414e+03 1.6562316926558128e+03
        1.7265935889397879e+03 1.6101688894745023e+03
        1.5912462894310695e+03 1.2473429005373926e+03
        7.1744579427247936e+02 5.7600889568590219e+02
        3.5138550004887207e+02 2.4387760000031221e+02
        1.4862301192381278e+01 -4.1943399016743854e+01
        4.3725099292097212e+01 -2.2731298126437515e+01
        -3.2398601153226153e+01 5.0073005788817735e+00
        1.8347169911216869e+02 4.2244539940529523e+02
        6.1839200269545631e+02 8.7713920196970867e+02
        1.2875843032463617e+03 1.6562316926558128e+03
        1.7307986976206780e+03 1.7452070966646913e+03
        1.6606069936983583e+03 1.7037214917007682e+03
        1.2910935022198555e+03 7.8535809505148382e+02
        6.3190579743368619e+02 4.2077229794694557e+02
        2.6579069913979913e+02 2.2580199317424764e+01
        -4.0000200258377198e+01 3.5654801370785350e+01
        -1.4883099652440844e+01 -3.8984101130982559e+01
        -2.2735990842558014e+00 1.9489269991430928e+02
        4.2786489883396985e+02 6.1629990467092284e+02
        8.5524500227311603e+02 1.3339716020574804e+03
        1.7265935889397879e+03 1.7452070966646913e+03
        2.0209792912323003e+03 1.8376620918551921e+03
        1.9293470914898157e+03 1.5008915019265414e+03
        9.3705599415121208e+02 7.5539919432373642e+02
        4.8436549938224999e+02 3.1563009848205161e+02
        -9.2579995600208633e+00 -3.6824199104475994e+01
        5.7015201441138132e+01 -4.9997600721435262e+01
        -2.2493103531045438e+01 4.6190175303668290e-01
        1.7226280012249273e+02 3.7847890118810017e+02
        5.2659750206541275e+02 7.3840700081882301e+02
        1.2011245044511854e+03 1.6101688894745023e+03
        1.6606069936983583e+03 1.8376620918551921e+03
        1.9446384869947437e+03 1.9494257873122215e+03
        1.5259732004077018e+03 9.6584449460099631e+02
        7.8861379358219813e+02 5.2122919953606959e+02
        3.1904679835606078e+02 -2.8925599202984550e+01
        -2.4995502354193484e+01 6.2952600660712960e+01
        -2.4583300528862306e+01 -1.8736803322114785e+01
        -3.2095498744871492e+01 1.5987210011894780e+02
        3.6447240179110543e+02 4.9407159748425852e+02
        7.0068719929028975e+02 1.1752240015510320e+03
        1.5912462894310695e+03 1.7037214917007682e+03
        1.9293470914898157e+03 1.9494257873122215e+03
        2.2297583806601519e+03 1.6430969991521831e+03
        1.0777583951082806e+03 9.0418619050153620e+02
        5.7493890035639174e+02 3.7204439701651620e+02
        -6.7539976633562802e+00 1.0309999552126961e+01
        5.0411598024965826e+01 -3.3798399496672971e+01
        -1.9964301706977952e+01 -3.5504799113911410e+01
        1.1484830212839019e+02 2.7024240376644065e+02
        3.7712330184035079e+02 5.2480510366232829e+02
        8.7721240830654540e+02 1.2473429005373926e+03
        1.2910935022198555e+03 1.5008915019265414e+03
        1.5259732004077018e+03 1.6430969991521831e+03
        1.4140076077627182e+03 8.4907889903072839e+02
        6.9423349472863208e+02 4.3670490044690899e+02
        2.9788250058440497e+02 -4.3506899792211506e+01
        -1.0453299427275343e+01 6.1756602069941891e+01
        -2.8074800091222649e+01 -9.1117020655416407e+00
        -2.5198898614930368e+01 4.0466300677628048e+01
        1.4477900054356459e+02 1.8237769753599096e+02
        2.8841750110493973e+02 5.1467489976758338e+02
        7.1744579427247936e+02 7.8535809505148382e+02
        9.3705599415121208e+02 9.6584449460099631e+02
        1.0777583951082806e+03 8.4907889903072839e+02
        6.6914979742382184e+02 4.9145609478100539e+02
        2.8173680098399223e+02 1.9332189886167126e+02
        -2.6389200589860998e+01 -2.0602498303428266e+01
        3.5005001388806825e+01 -1.0600008443556757e+00
        -1.0832500612810271e+01 -2.1381899676541231e+01
        2.2132000490698946e+01 1.3055390201116577e+02
        1.5007489970505458e+02 2.1762000244846575e+02
        4.0605390355792508e+02 5.7600889568590219e+02
        6.3190579743368619e+02 7.5539919432373642e+02
        7.8861379358219813e+02 9.0418619050153620e+02
        6.9423349472863208e+02 4.9145609478100539e+02
        5.3151699197414541e+02 2.5289369773312586e+02
        1.9165419721726255e+02 -1.7547798822273307e+01
        2.9709004862405326e+00 3.1244600043212586e+01
        -1.2068993514165127e+00 -1.6810009178297847e-01
        1.6269999606646596e+01 4.5605699531867366e+01
        7.4014000274468245e+01 8.2070199865768828e+01
        1.3500409968907169e+02 2.6955550087771189e+02
        3.5138550004887207e+02 4.2077229794694557e+02
        4.8436549938224999e+02 5.2122919953606959e+02
        5.7493890035639174e+02 4.3670490044690899e+02
        2.8173680098399223e+02 2.5289369773312586e+02
        2.8062479884405155e+02 1.0085069917880294e+02
        -1.4574700527384110e+01 3.7562999172218099e+00
        2.0640600262494409e+01 -9.3665986451893897e+00
        9.3162989604182727e+00 -1.4889989083297501e+00
        2.5910600512368223e+01 4.6617400359159689e+01
        6.1484200017786790e+01 9.4985499631211155e+01
        1.8317460012323193e+02 2.4387760000031221e+02
        2.6579069913979913e+02 3.1563009848205161e+02
        3.1904679835606078e+02 3.7204439701651620e+02
        2.9788250058440497e+02 1.9332189886167126e+02
        1.9165419721726255e+02 1.0085069917880294e+02
        1.7145189931427532e+02 -1.6006300228060070e+01
        -6.4993548803253809e-03 1.2531399854334417e+01
        -1.5399900259061146e+01 7.7410998347528164e+00
        7.5533995524778943e+00 2.5953400243183978e+01
        1.0642100809691120e+01 1.2137800632671258e+01
        4.2979000398613536e+00 1.3986902508395161e+01
        1.4862301192381278e+01 2.2580199317424764e+01
        -9.2579995600208633e+00 -2.8925599202984550e+01
        -6.7539976633562802e+00 -4.3506899792211506e+01
        -2.6389200589860998e+01 -1.7547798822273307e+01
        -1.4574700527384110e+01 -1.6006300228060070e+01
        1.2319130013543075e+02 -1.0164699854317320e+01
        -3.4621005995847085e+00 -1.4436992986790971e+00
        -2.6733299965970950e+01 1.0444300001130250e+01
        2.9833001334413982e+00 -3.7435990576013793e+00
        -4.5660301434968453e+01 -3.9737199091824884e+01
        -6.0801701005212237e+01 -4.1943399016743854e+01
        -4.0000200258377198e+01 -3.6824199104475994e+01
        -2.4995502354193484e+01 1.0309999552126961e+01
        -1.0453299427275343e+01 -2.0602498303428266e+01
        2.9709004862405326e+00 3.7562999172218099e+00
        -6.4993548803253809e-03 -1.0164699854317320e+01
        1.6087310131272824e+02 -3.8940065917967992e-01
        -8.0546996127694790e+00 1.2826699719167497e+01
        1.8298994640469530e+00 5.0755987287178641e+00
        1.8073299889211345e+01 5.1996992474674988e+00
        -2.9724005063645524e+00 1.0704900756480525e+01
        4.3725099292097212e+01 3.5654801370785350e+01
        5.7015201441138132e+01 6.2952600660712960e+01
        5.0411598024965826e+01 6.1756602069941891e+01
        3.5005001388806825e+01 3.1244600043212586e+01
        2.0640600262494409e+01 1.2531399854334417e+01
        -3.4621005995847085e+00 -3.8940065917967992e-01
        1.3290219957726748e+02 -1.9275006774254111e+00
        9.0085001788996113e+00 -1.7997699775616823e+01
        -2.0830099262518434e+01 -5.4004993434325037e+00
        -1.2280000360924756e+01 -3.0106098951467860e+01
        -2.0093299775794897e+01 -2.2731298126437515e+01
        -1.4883099652440844e+01 -4.9997600721435262e+01
        -2.4583300528862306e+01 -3.3798399496672971e+01
        -2.8074800091222649e+01 -1.0600008443556757e+00
        -1.2068993514165127e+00 -9.3665986451893897e+00
        -1.5399900259061146e+01 -1.4436992986790971e+00
        -8.0546996127694790e+00 -1.9275006774254111e+00
        1.1550899915980553e+02 -1.7373399618043013e+01
        1.6190999973095948e+01 -1.5686599719190593e+01
        -1.3529600345333655e+01 -2.2655400438150775e+01
        -1.9823199586852645e+01 -3.3730900777446514e+01
        -3.2398601153226153e+01 -3.8984101130982559e+01
        -2.2493103531045438e+01 -1.8736803322114785e+01
        -1.9964301706977952e+01 -9.1117020655416407e+00
        -1.0832500612810271e+01 -1.6810009178297847e-01
        9.3162989604182727e+00 7.7410998347528164e+00
        -2.6733299965970950e+01 1.2826699719167497e+01
        9.0085001788996113e+00 -1.7373399618043013e+01
        1.0842599899755420e+02</data></_>
    <_ type_id="opencv-matrix">
      <rows>21</rows>
      <cols>21</cols>
      <dt>d</dt>
      <data>
        8.4317500285245501e+01 4.3774998264014595e+00
        1.2788400186689941e+01 -1.3165099597422028e+01
        -3.4209987291098509e-01 8.8554001633733392e+00
        -1.5679999273326239e+01 -2.7207599996903532e+01
        -2.4060000200197109e+01 -3.2558401290363065e+01
        -5.0912699752799405e+01 -4.8501099165299529e+01
        -4.7179798375186287e+01 -5.1948897175385028e+01
        -4.0148598752556012e+01 -4.6939399969889244e+01
        -2.7856699767335520e+01 -2.4382999526046234e+01
        -2.2563500277787451e+01 -4.1714000462241385e+00
        -5.2284997242465625e+00 4.3774998264014595e+00
        1.0444759937373703e+02 5.8676999684564741e+00
        -1.5731992107100869e+00 -1.7359997287169127e+00
        9.2327997313559003e+00 -1.8360699771012371e+01
        -1.6012015526659731e+00 -6.3849941856785897e-01
        -1.2265003643222236e+00 -3.1852401534470189e+01
        -2.6699801039513908e+01 -2.6008098232769964e+01
        -4.4712976868346423e+00 -7.0119830970760511e-01
        -1.9430999758221162e+01 -1.1398099459563937e+01
        -1.1154899457527678e+01 -9.0083992920800942e+00
        -1.7416299251847708e+01 3.3537001149460748e+00
        1.2788400186689941e+01 5.8676999684564741e+00
        9.2919500184759514e+01 7.1761999270424237e+00
        1.8737500045076008e+01 4.5266994520828225e+00
        5.5117000176191340e+00 -2.9340003176256801e+00
        6.1465994101032795e+00 1.9460600454179204e+01
        2.5667600908575210e+01 3.2349098680207192e+01
        3.8966900578285042e+01 3.6882100009759569e+01
        4.9745898918750143e+01 1.8615800095722829e+01
        3.1125501108624071e+01 1.1295100500208893e+01
        -1.1427700210060179e+01 -9.0366004459761111e+00
        -4.7800999294757798e+00 -1.3165099597422028e+01
        -1.5731992107100869e+00 7.1761999270424237e+00
        1.1312229877882153e+02 -2.8955003375261992e+00
        -8.9547001176394616e+00 -2.8433300013449770e+01
        -2.6607998469851895e+00 -1.8924998894631852e+01
        7.6659977233184406e-01 2.6284014543876069e+00
        -6.9416999529667365e+00 2.8469921436829537e-01
        1.3697398076190105e+01 -1.0490999354958511e+01
        1.7464299761743085e+01 1.6585498706426463e+01
        5.0809006260506848e+00 1.3824200799576214e+01
        4.8335998916007448e+00 -1.1507600575031361e+01
        -3.4209987291098509e-01 -1.7359997287169127e+00
        1.8737500045076008e+01 -2.8955003375261992e+00
        8.4925600124286163e+01 -1.3399700516264138e+01
        -9.4951009183541046e+00 -2.0366400564691425e+01
        -2.7022400421446566e+01 -2.1032902353713673e+01
        -4.3674800618761033e+01 -3.3979101867956679e+01
        -4.4044300314967352e+01 -6.2938102467605475e+01
        -4.8122901831316170e+01 -3.4964100516346875e+01
        -1.7851600188484049e+01 -2.9827101075900362e+01
        -2.9867701106402297e+01 -2.3732001292549114e+00
        -1.3246799718008194e+01 8.8554001633733392e+00
        9.2327997313559003e+00 4.5266994520828225e+00
        -8.9547001176394616e+00 -1.3399700516264138e+01
        1.1961260059872430e+02 3.6664200894664219e+01
        6.0897899449626379e+01 8.5498500577803711e+01
        1.2260199957727650e+02 1.3770620124916653e+02
        1.3928880035337872e+02 1.3062860002338289e+02
        1.0689530153916478e+02 1.2013639960695663e+02
        5.4912201217047127e+01 4.6147901314208710e+01
        2.2279499254684875e+01 3.1651799267825496e+01
        3.4392000996127803e+00 -7.9792999741777741e+00
        -1.5679999273326239e+01 -1.8360699771012371e+01
        5.5117000176191340e+00 -2.8433300013449770e+01
        -9.4951009183541046e+00 3.6664200894664219e+01
        2.4912589955963045e+02 2.2466510023729654e+02
        3.1784060164416724e+02 3.9483380072479025e+02
        5.1318050033262739e+02 4.9007530055598625e+02
        4.4069300121503704e+02 3.9642940211582419e+02
        3.3909659925501921e+02 2.8570160027157658e+02
        1.6973060004897940e+02 1.3836969915891740e+02
        6.8473400034660813e+01 1.9155699797480548e+01
        -7.5178004137359533e+00 -2.7207599996903532e+01
        -1.6012015526659731e+00 -2.9340003176256801e+00
        -2.6607998469851895e+00 -2.0366400564691425e+01
        6.0897899449626379e+01 2.2466510023729654e+02
        3.8241209750079531e+02 4.2679540041108646e+02
        5.2550829691227591e+02 7.0026109900920983e+02
        6.6357499679103444e+02 5.8994029373781109e+02
        5.2291180007092350e+02 4.5164409697424787e+02
        3.3755829659679989e+02 1.7498369995447916e+02
        1.5281099915567415e+02 1.0967929931685032e+02
        1.9241400927758214e+01 2.7271992154114058e+00
        -2.4060000200197109e+01 -6.3849941856785897e-01
        6.1465994101032795e+00 -1.8924998894631852e+01
        -2.7022400421446566e+01 8.5498500577803711e+01
        3.1784060164416724e+02 4.2679540041108646e+02
        6.7507720768618174e+02 7.3784930216965904e+02
        9.7992210599883424e+02 9.1334330594049879e+02
        8.2220870016989431e+02 7.4864600833905513e+02
        6.2978850364923119e+02 4.4625580290881982e+02
        2.3833739957278823e+02 2.1029749998230486e+02
        1.0694570053309501e+02 2.3973099932564086e+01
        -7.5466995877765157e+00 -3.2558401290363065e+01
        -1.2265003643222236e+00 1.9460600454179204e+01
        7.6659977233184406e-01 -2.1032902353713673e+01
        1.2260199957727650e+02 3.9483380072479025e+02
        5.2550829691227591e+02 7.3784930216965904e+02
        1.0282417008036928e+03 1.2609384034036088e+03
        1.2349741994430301e+03 1.1753553005262584e+03
        1.0800427091687689e+03 1.0080699990285559e+03
        7.4776610122881232e+02 4.7973590271066712e+02
        3.5417949898393078e+02 2.1529170016080059e+02
        6.5268701899509182e+01 -5.3199141494154389e-02
        -5.0912699752799405e+01 -3.1852401534470189e+01
        2.5667600908575210e+01 2.6284014543876069e+00
        -4.3674800618761033e+01 1.3770620124916653e+02
        5.1318050033262739e+02 7.0026109900920983e+02
        9.7992210599883424e+02 1.2609384034036088e+03
        1.7494283054460413e+03 1.6636023039530628e+03
        1.5650867988885161e+03 1.4602867082007408e+03
        1.3505088005142927e+03 1.0190237979345851e+03
        6.4566480044713671e+02 5.0708569766935256e+02
        3.0960849969174330e+02 1.0249100078602882e+02
        -8.7125997357792997e+00 -4.8501099165299529e+01
        -2.6699801039513908e+01 3.2349098680207192e+01
        -6.9416999529667365e+00 -3.3979101867956679e+01
        1.3928880035337872e+02 4.9007530055598625e+02
        6.6357499679103444e+02 9.1334330594049879e+02
        1.2349741994430301e+03 1.6636023039530628e+03
        1.7952205936163905e+03 1.6405961953485491e+03
        1.5530245047419073e+03 1.4994894989221102e+03
        1.1726122962810896e+03 7.5519319976503323e+02
        5.6428090160718023e+02 3.6595139689824197e+02
        1.1184680177420071e+02 -1.0879599681431046e+01
        -4.7179798375186287e+01 -2.6008098232769964e+01
        3.8966900578285042e+01 2.8469921436829537e-01
        -4.4044300314967352e+01 1.3062860002338289e+02
        4.4069300121503704e+02 5.8994029373781109e+02
        8.2220870016989431e+02 1.1753553005262584e+03
        1.5650867988885161e+03 1.6405961953485491e+03
        1.7494825923251155e+03 1.6014198038734917e+03
        1.5978544975827936e+03 1.2538398966911088e+03
        8.4541680139224684e+02 6.2245509883977240e+02
        4.0911099744276692e+02 1.4950950171149523e+02
        2.5944497576497504e+01 -5.1948897175385028e+01
        -4.4712976868346423e+00 3.6882100009759569e+01
        1.3697398076190105e+01 -6.2938102467605475e+01
        1.0689530153916478e+02 3.9642940211582419e+02
        5.2291180007092350e+02 7.4864600833905513e+02
        1.0800427091687689e+03 1.4602867082007408e+03
        1.5530245047419073e+03 1.6014198038734917e+03
        1.6713080142612466e+03 1.6082966056719067e+03
        1.2685490019224621e+03 8.6637420133111937e+02
        6.5537790188713984e+02 4.0726219995981739e+02
        1.6718730196770730e+02 2.6082998865123816e+01
        -4.0148598752556012e+01 -7.0119830970760511e-01
        4.9745898918750143e+01 -1.0490999354958511e+01
        -4.8122901831316170e+01 1.2013639960695663e+02
        3.3909659925501921e+02 4.5164409697424787e+02
        6.2978850364923119e+02 1.0080699990285559e+03
        1.3505088005142927e+03 1.4994894989221102e+03
        1.5978544975827936e+03 1.6082966056719067e+03
        1.7806522977783206e+03 1.3606277985812842e+03
        9.6102800093374026e+02 7.0315739960894211e+02
        4.4956989806473484e+02 1.9924950012590003e+02
        1.6315799880605919e+01 -4.6939399969889244e+01
        -1.9430999758221162e+01 1.8615800095722829e+01
        1.7464299761743085e+01 -3.4964100516346875e+01
        5.4912201217047127e+01 2.8570160027157658e+02
        3.3755829659679989e+02 4.4625580290881982e+02
        7.4776610122881232e+02 1.0190237979345851e+03
        1.1726122962810896e+03 1.2538398966911088e+03
        1.2685490019224621e+03 1.3606277985812842e+03
        1.1986343946759539e+03 7.9381820313453966e+02
        5.9784189808928829e+02 3.6655299764725191e+02
        1.6986260117416984e+02 2.5468991372496217e+00
        -2.7856699767335520e+01 -1.1398099459563937e+01
        3.1125501108624071e+01 1.6585498706426463e+01
        -1.7851600188484049e+01 4.6147901314208710e+01
        1.6973060004897940e+02 1.7498369995447916e+02
        2.3833739957278823e+02 4.7973590271066712e+02
        6.4566480044713671e+02 7.5519319976503323e+02
        8.4541680139224684e+02 8.6637420133111937e+02
        9.6102800093374026e+02 7.9381820313453966e+02
        6.6671210068021878e+02 4.0577510100973558e+02
        2.6784119811139180e+02 1.2080950061868131e+02
        -5.3453012935749999e+00 -2.4382999526046234e+01
        -1.1154899457527678e+01 1.1295100500208893e+01
        5.0809006260506848e+00 -2.9827101075900362e+01
        2.2279499254684875e+01 1.3836969915891740e+02
        1.5281099915567415e+02 2.1029749998230486e+02
        3.5417949898393078e+02 5.0708569766935256e+02
        5.6428090160718023e+02 6.2245509883977240e+02
        6.5537790188713984e+02 7.0315739960894211e+02
        5.9784189808928829e+02 4.0577510100973558e+02
        3.8726579933503740e+02 1.8091239946056379e+02
        8.5691900134100038e+01 -1.2671200214895629e+01
        -2.2563500277787451e+01 -9.0083992920800942e+00
        -1.1427700210060179e+01 1.3824200799576214e+01
        -2.9867701106402297e+01 3.1651799267825496e+01
        6.8473400034660813e+01 1.0967929931685032e+02
        1.0694570053309501e+02 2.1529170016080059e+02
        3.0960849969174330e+02 3.6595139689824197e+02
        4.0911099744276692e+02 4.0726219995981739e+02
        4.4956989806473484e+02 3.6655299764725191e+02
        2.6784119811139180e+02 1.8091239946056379e+02
        2.3205579915450977e+02 6.1080400250396117e+01
        1.4992399808431399e+01 -4.1714000462241385e+00
        -1.7416299251847708e+01 -9.0366004459761111e+00
        4.8335998916007448e+00 -2.3732001292549114e+00
        3.4392000996127803e+00 1.9155699797480548e+01
        1.9241400927758214e+01 2.3973099932564086e+01
        6.5268701899509182e+01 1.0249100078602882e+02
        1.1184680177420071e+02 1.4950950171149523e+02
        1.6718730196770730e+02 1.9924950012590003e+02
        1.6986260117416984e+02 1.2080950061868131e+02
        8.5691900134100038e+01 6.1080400250396117e+01
        1.0728120237116826e+02 7.0759000560812577e+00
        -5.2284997242465625e+00 3.3537001149460748e+00
        -4.7800999294757798e+00 -1.1507600575031361e+01
        -1.3246799718008194e+01 -7.9792999741777741e+00
        -7.5178004137359533e+00 2.7271992154114058e+00
        -7.5466995877765157e+00 -5.3199141494154389e-02
        -8.7125997357792997e+00 -1.0879599681431046e+01
        2.5944497576497504e+01 2.6082998865123816e+01
        1.6315799880605919e+01 2.5468991372496217e+00
        -5.3453012935749999e+00 -1.2671200214895629e+01
        1.4992399808431399e+01 7.0759000560812577e+00
        8.4857099151434042e+01</data></_></productsum>
  <avg>
    <_ type_id="opencv-matrix">
      <rows>1</rows>
      <cols>21</cols>
      <dt>d</dt>
      <data>
        -1.6333331892059908e-02 5.7655555278890658e-01
        1.0431111049114001e+00 1.4794444366875621e+00
        1.9540000081476239e+00 2.5725555488425824e+00
        3.1687777893410787e+00 2.4486666756164697e+00
        1.9066666569974688e+00 1.9610000021962657e+00
        2.0167777793274984e+00 2.0744444508933357e+00
        1.9887777785460155e+00 2.3860000018030405e+00
        2.9183333342067068e+00 2.3419999935146834e+00
        1.9498888836552699e+00 1.4752222218861182e+00
        9.0144444685429337e-01 2.4911110966155928e-01
        2.3722222563293244e-01</data></_>
    <_ type_id="opencv-matrix">
      <rows>1</rows>
      <cols>21</cols>
      <dt>d</dt>
      <data>
        -3.1874996460308988e-02 3.9357142990255461e-01
        9.2285714576220401e-01 1.3032142891814666e+00
        1.8400892905691373e+00 2.8350892970338464e+00
        3.7475892725467150e+00 3.7699107096663544e+00
        4.1149107058133394e+00 4.0122321333204001e+00
        4.1878571281475683e+00 3.2475000094356283e+00
        2.0276785670180937e+00 1.6524999917684389e+00
        1.0560714291475182e+00 6.9491071170861163e-01
        -3.2053570130041668e-02 -8.0803571352069933e-02
        1.1696428680858974e-01 -5.7500000194912512e-02
        -6.6785716751058183e-02</data></_>
    <_ type_id="opencv-matrix">
      <rows>1</rows>
      <cols>21</cols>
      <dt>d</dt>
      <data>
        -1.1785713976667243e-01 -4.5714285794873626e-02
        8.1530612950422326e-02 1.7346955873832411e-03
        -1.2387755610124797e-01 3.1693877699803941e-01
        1.1080612246213215e+00 1.4607142772601576e+00
        2.0302040900616927e+00 2.8952040846592615e+00
        3.8925510232849998e+00 4.0965306089848887e+00
        4.0965306077684671e+00 3.9834694059527651e+00
        3.9725510179996490e+00 3.1175510147206333e+00
        2.0917346943740029e+00 1.5808163250473386e+00
        1.0073469352471280e+00 3.8897959405214205e-01
        1.4999998980486880e-02</data></_></avg>
  <inv_eigen_values>
    <_ type_id="opencv-matrix">
      <rows>1</rows>
      <cols>21</cols>
      <dt>d</dt>
      <data>
        4.0699645759794283e-02 5.4255390804672843e-01
        5.8909898898019353e-01 6.4031637338696934e-01
        6.5219027043729760e-01 7.0665722403006626e-01
        7.3420289090860635e-01 8.0556582633006790e-01
        8.4822055030094612e-01 9.6367556749046812e-01
        1.0144758862129954e+00 1.0765369681552506e+00
        1.3487955462459293e+00 1.4218513020526948e+00
        1.7384741651015361e+00 1.8114357744759397e+00
        1.9430090471026280e+00 2.0704481131091157e+00
        2.2396303034150593e+00 2.5772196969557650e+00
        4.0020051179675642e+00</data></_>
    <_ type_id="opencv-matrix">
      <rows>1</rows>
      <cols>21</cols>
      <dt>d</dt>
      <data>
        8.3169751236163894e-02 5.1471213581772068e-01
        5.6601565788700048e-01 6.2140803541691092e-01
        6.4172980772818455e-01 6.8021406143148311e-01
        7.6152378265185405e-01 8.6057039101277932e-01
        8.8002455488768649e-01 9.8299663314734942e-01
        1.0283272128900369e+00 1.0726540438266807e+00
        1.1117932920776419e+00 1.1817263691048969e+00
        1.3357337016411572e+00 1.4154430659529247e+00
        1.6023892597380336e+00 1.8300961432668279e+00
        2.0987805450121360e+00 2.1308277726777742e+00
        2.3148327610653165e+00</data></_>
    <_ type_id="opencv-matrix">
      <rows>1</rows>
      <cols>21</cols>
      <dt>d</dt>
      <data>
        7.2085654457836407e-02 5.3438920712349558e-01
        5.8056311449170583e-01 6.4298690099069422e-01
        6.8848798707744585e-01 7.3523045776713192e-01
        8.1095127287106528e-01 8.5839386051839228e-01
        1.0263772278762033e+00 1.0624475799921012e+00
        1.1158765136224478e+00 1.2043153811022134e+00
        1.3338814278879392e+00 1.4016063688612979e+00
        1.5341520422653676e+00 1.7445125075337622e+00
        1.7831239228167157e+00 2.0211947635899965e+00
        2.3579175654452498e+00 2.8400490094547570e+00
        3.1964765286809129e+00</data></_></inv_eigen_values>
  <cov_rotate_mats>
    <_ type_id="opencv-matrix">
      <rows>21</rows>
      <cols>21</cols>
      <dt>d</dt>
      <data>
        -3.5804280900441532e-03 2.0082714212306570e-02
        1.5548184841161394e-01 1.9019293911145632e-01
        2.4354556995996088e-01 3.1133609761676323e-01
        3.6367847572161621e-01 2.8727155149761402e-01
        2.0271290462830638e-01 1.3921376933043147e-01
        -3.0187744599417178e-02 -1.2263455098653574e-01
        -2.1898351167802166e-01 -2.6886935366895170e-01
        -3.9076979745000839e-01 -3.3504499085049194e-01
        -2.4031090514294451e-01 -1.6661069675152304e-01
        -1.2050540900821953e-01 -8.0923808946958428e-02
        1.1954699555133293e-03 -4.3694632773554681e-01
        -4.9996908454357564e-01 8.4190151528254847e-02
        -1.7752057770134198e-02 1.3627067790012351e-01
        -7.4908966758530246e-02 1.4791538110014948e-01
        4.9080092921640360e-02 -2.9054383955337948e-01
        9.5785325115898351e-02 3.5108891463967334e-01
        2.0855589552413320e-01 2.8253924538968300e-02
        -1.4677682384215965e-01 -1.6317599992896928e-01
        2.9891427752865540e-01 -9.5465460435703794e-02
        4.3023038868106274e-02 -1.0819001071437040e-01
        2.8312614706190442e-01 -4.1704876274418295e-02
        1.3740479403155262e-01 -7.4713209528987148e-02
        -1.2558301681884496e-01 -6.6972662595996976e-02
        2.2937779095815283e-01 -2.7459888579985869e-01
        1.1938607613932364e-01 -4.0348253359737640e-01
        2.5025964211108406e-02 1.7961557690714008e-01
        3.5376725406939352e-01 8.2383014335655827e-02
        -4.1481327724413652e-02 -1.5371098854152829e-01
        -7.9355292889029497e-02 -4.3028169127083588e-01
        4.0834041963722445e-01 -1.6320734625135561e-01
        2.4471758413522687e-01 -2.5528320541128854e-02
        -1.2116493064700314e-01 5.4513416590651655e-02
        -2.4481642070912060e-01 2.6146794462814976e-01
        -1.8242370156975299e-01 -2.1606154831905328e-01
        2.5724986135651445e-01 -3.4577271704659268e-01
        2.4327900444140357e-01 5.6120000624169185e-02
        -1.7277376406983516e-01 4.9226775591082045e-01
        -1.4770892085422585e-01 -3.0063713305714856e-01
        1.5501650801620231e-01 1.9482140556619540e-01
        -2.7259189630870895e-01 9.0889305211365845e-02
        -5.8114402023016064e-02 -8.1624480767478039e-02
        1.7188551944584478e-04 -4.1531044104714289e-02
        -1.2806434758600035e-01 -4.3092653338851605e-03
        7.3037516137265140e-02 3.7492677067153851e-01
        -1.2494971136088692e-01 1.1058568428490886e-01
        3.5931565264888465e-01 3.2305062800052180e-02
        2.0273933522132290e-01 6.8682197149911930e-02
        1.9546881758129850e-01 2.4934195081448848e-01
        -1.1979472622326641e-01 1.7506496534370355e-01
        1.8581211256836389e-01 2.2611853778451807e-01
        3.6506355994841838e-01 1.5429714635046415e-01
        -3.0553512654368672e-02 -4.6445588518662972e-01
        1.7057963232561998e-01 -2.7358171402300918e-01
        2.2941968012799827e-01 1.4099758823059812e-02
        1.0617429249463189e-01 1.3638729845926381e-01
        1.7085035825529449e-01 -1.3730144029763144e-01
        5.8135569824613403e-02 -1.4035002312174130e-01
        -1.4503307639237908e-01 6.6383813551707416e-02
        -1.6174597407215818e-01 -4.3524817452423724e-02
        2.1774741247707205e-01 -3.0995970616484098e-01
        7.8318351328743846e-02 2.2289949752800325e-01
        -1.8175495798907637e-01 4.8770529859361550e-01
        1.8173570305096307e-01 4.6325296072201527e-01
        2.7594627952307976e-01 2.6489074223930265e-01
        -2.3280806958913186e-01 1.4515395626041092e-01
        2.4127852848629086e-01 -2.5306418195137309e-01
        6.2957396228631987e-02 4.7633291238803316e-01
        -2.2751365438103612e-02 -2.1612379172445442e-01
        1.8817645247977710e-01 1.1661237569754357e-01
        -1.4909330784534983e-01 2.0603049338320675e-01
        -1.1230443027488524e-01 1.7966979940366257e-01
        1.7921895590931231e-01 -2.6698238527515173e-02
        -1.3514127674084980e-01 2.3444552081601344e-01
        -3.3680387854837746e-01 -2.1290178062366230e-02
        1.0640000962553642e-01 3.6542063908504313e-01
        2.2050859134407216e-01 4.9283097375118406e-02
        -1.0597919138262435e-01 -3.5019459070755529e-02
        -3.0552828756903067e-01 4.0547313300616528e-01
        -2.2729584203903827e-01 1.1860161102369685e-01
        -2.8061344452169862e-01 1.0715931317732101e-01
        -8.8142376507430620e-02 -1.5456756897177212e-01
        5.1571932349142355e-02 1.0938941584887910e-01
        4.3468322369374923e-01 -1.7749532144511343e-01
        3.3191231423751533e-01 -2.3751803964337213e-02
        1.6300395163473108e-01 -5.0160276517129432e-01
        -7.7564508606515856e-02 2.9434360053289982e-01
        3.3881792112068954e-01 -1.6056267934704380e-01
        -3.2000733652888963e-01 1.4871715894763024e-01
        7.9147482230418495e-02 -1.2103568579096780e-01
        -2.3515739692474164e-01 -2.5042589444782559e-01
        -3.3032157479900973e-02 -2.7045871433243984e-01
        1.0823848081808428e-01 1.5752775804303606e-01
        1.9756580654370262e-01 -1.0743451120751203e-01
        1.2999117446734494e-03 -1.9179864216553352e-01
        1.6435327218234932e-01 -1.2034977418914834e-01
        1.0848775818323150e-01 -3.0479717369507686e-01
        -7.1996311818760178e-02 1.5504883691869331e-02
        6.0103500281701250e-02 -8.1589527409601056e-02
        -2.3495854047100520e-01 1.5603166041712998e-02
        2.4919357588428864e-01 -1.3676846270441190e-01
        -5.4916635736621845e-02 -6.4327085411647023e-01
        -4.0557463322296115e-02 8.4477498122465730e-02
        8.0908238977328045e-02 1.4246833011808932e-01
        4.8925851380155153e-03 -4.0206008652167341e-01
        2.5796104894280814e-01 2.1964001940888023e-01
        -1.9704071643399557e-01 -1.2289862044976849e-01
        -1.0788567665400860e-01 -2.2272898227170507e-01
        2.0004990775881200e-02 -1.2714230914881008e-01
        8.5375724134825456e-02 -2.2530256943090510e-01
        2.1124404319272794e-01 -5.9051847852400341e-01
        -7.0985081763155933e-02 1.3982018604101917e-01
        1.1612472605625315e-04 2.1017976540119554e-01
        -2.6169306116015956e-01 -3.9263878066147249e-02
        -4.4091089466701733e-02 -3.4653576555118304e-01
        -3.1762512755310751e-01 -2.2367125890922712e-01
        7.1672728644964753e-02 -3.9484571098734753e-02
        9.7996846234758211e-02 1.9238855634169394e-01
        -4.6173638602082528e-01 -9.5727329210151382e-02
        -2.3489025881257028e-01 3.2102317406381409e-01
        3.4968656256529485e-01 8.3375594909213119e-02
        -1.4779044183803844e-01 -1.2302007308395600e-01
        2.4059989530801074e-02 2.4335293886493060e-02
        -3.9141230717185282e-01 2.1820895651312272e-01
        -2.2122559958767159e-02 2.8595110855281569e-01
        3.7802916362351326e-03 2.6340597552857326e-02
        1.4778773267098455e-01 3.1341021557253118e-01
        8.9952791827416584e-02 -1.1582813629269878e-01
        -4.0511304103281534e-02 -1.4100053287755276e-02
        -3.1391049848170616e-01 -3.8238800659515343e-01
        2.4150331248247300e-01 1.8963594795911750e-02
        -3.6851316724397321e-01 -4.5756559207964037e-02
        1.3058735763470474e-02 -4.7668474508340436e-01
        -2.5659249508467946e-01 1.1225196838918901e-01
        -2.9035934308774430e-01 -3.4607252674436352e-02
        -6.5899355895260289e-02 2.7105487997172323e-01
        4.2153676510521862e-02 -2.4888461177074328e-01
        4.9331854940100041e-02 1.0729107770440607e-01
        -1.3575494195838150e-01 -1.0452627717179293e-01
        3.3153157621287038e-01 -2.0770382243032004e-01
        3.3430294406011601e-01 3.2916534448231033e-01
        -1.7087796382916509e-01 -3.3967087611300739e-01
        -4.2375568603993519e-01 -1.5299754037171415e-01
        -2.9226948838748563e-02 -6.7964524801424073e-03
        -1.3033616649067489e-01 2.3026905908058171e-01
        -1.5031965039208492e-01 1.4295625522313785e-01
        -1.0605691198681080e-01 2.6319316458895806e-02
        3.0977859341786629e-01 -1.2872691149285734e-01
        -3.5297592431987540e-01 1.9131050858682075e-01
        -9.6200452288206909e-02 2.3054181282064001e-01
        -3.4078957519429859e-01 -2.5591114723123781e-01
        -1.0328403140792561e-01 6.8609037393583469e-03
        2.3674667336546390e-01 -7.8230980813517786e-02
        1.2959856653109067e-01 -1.0017333794779075e-01
        -2.1026052313161295e-01 -3.6178580425051660e-01
        1.2624267496915845e-01 1.4016043836221220e-01
        -2.0506488573211684e-01 -3.1103660458255850e-01
        2.6430096853516638e-01 -3.5146307899246006e-02
        -2.7293900420063472e-01 3.3894729690516007e-01
        2.3765023045681715e-02 2.7781134840150756e-01
        -2.6191154952566481e-01 -9.3663657906759595e-02
        2.7476338105773573e-01 -2.1436597968315235e-02
        -1.9273209746184319e-01 -5.3864914714030564e-02
        -1.1468587896839805e-03 -4.6057789847826297e-02
        3.3693525828938718e-02 -1.8117291974549302e-01
        -2.1981220534825482e-01 -3.1348130440682798e-01
        5.2370651684021530e-01 2.0142343905668633e-01
        -1.6278744323587729e-01 1.0697889031614463e-01
        -1.2690745235266834e-01 -2.4987923209320140e-01
        2.3327632727057936e-02 3.1577795391442687e-01
        -1.0373517110649282e-01 1.4132710003311630e-01
        -9.9339440484207606e-02 4.8489501642967031e-02
        -3.1668297606597079e-01 1.9051311605496911e-02
        -3.4824836560176520e-01 -1.4627757405210143e-01
        2.3986222070083763e-01 2.0482071773549360e-01
        1.5948124529747479e-01 -4.6567045701934262e-01
        -1.9070454773154380e-01 -1.1033380398890386e-01
        5.4214489915232304e-02 1.3068945374480753e-01
        -3.1724745617388422e-01 -2.4291806787202833e-01
        2.0851041924247266e-01 9.3710703942001913e-02
        3.2264067648401215e-02 5.4609653406013292e-01
        2.1506929246403136e-01 6.2896672154148445e-02
        -3.1819401228417471e-01 -1.2614080741039213e-01
        -7.8479960986937741e-02 -1.9561980929249634e-01
        -7.3245083629716379e-02 -2.2722417795154079e-01
        4.5918524343104927e-01 -3.6758622892351256e-01
        8.0884363417334404e-02 3.7966379168111172e-02
        -1.5340093968924964e-01 -1.6365980311710893e-01
        -3.1391019088094461e-02 9.1157955855294126e-02
        4.4990539821019762e-02 8.7029618731197078e-02
        -1.3701605660623087e-01 -5.1028942786226092e-02
        -2.5050560817536160e-01 -2.0332727875256792e-01
        2.4437126268192316e-01 1.8760735815890783e-01
        -4.1465324399040063e-02 6.0436325050649276e-03
        8.3853839886607801e-02 -3.1599653600881633e-01
        -6.9213221764258454e-02 1.9941170673287095e-01
        -2.9321775556630331e-01 -1.4831599275240193e-01
        3.6525904513081612e-03 -6.4555417076095745e-02
        -1.1195942032677866e-01 5.6976369115317982e-01
        3.6807725486597126e-01 -1.3841755511821552e-01
        -1.4985394825209730e-01 -5.3613894471208103e-02
        2.8417114458432635e-01 1.8386182123231481e-01
        -9.6529153938898202e-02 5.0745114443585160e-01
        1.7086872716164464e-02 1.6105766649946390e-01
        -1.8162802679602580e-01 -2.6622208125602803e-01
        -1.3157651048232252e-01 2.2313610450431137e-01
        -3.1502066713182342e-01 -4.7587016061610254e-02
        -7.5964050880365404e-03 4.2815646642806848e-01
        1.5569918242519593e-01 -2.1468056999665922e-01
        -1.0327343048641936e-01 -8.1900986384564917e-02
        -2.1402084312862751e-01 -1.2638995151200146e-02
        4.9786939654068013e-01 -9.3616885308019704e-02
        -1.9805111568286637e-01 2.8870125010169934e-02
        -7.5628844365064563e-02 -2.0032692423526482e-02
        1.3353648121048711e-01 -1.0842615287687282e-01
        1.9831000680121308e-01 -7.8703043050721538e-02
        3.4034783426234433e-01 1.2356816035930976e-01
        -4.4638576612739712e-02 -6.1776921997922313e-02
        4.1034289477265597e-02 1.7756074979000924e-01
        -4.3852368639095146e-01 -2.9668603497727063e-02
        1.4324577810179262e-01 1.4938587354041441e-01
        4.6468142795979323e-01</data></_>
    <_ type_id="opencv-matrix">
      <rows>21</rows>
      <cols>21</cols>
      <dt>d</dt>
      <data>
        2.5070067032189385e-02 8.6310590034340468e-02
        1.6249517740612898e-01 2.9201138556298917e-01
        3.7257689027497959e-01 3.5643582734143531e-01
        3.4272691396787719e-01 1.8798888267017921e-01
        1.9007523074151954e-02 -1.6598419261457167e-01
        -3.5140482867103895e-01 -3.0467626569581047e-01
        -2.9712699388368774e-01 -2.8296509762048350e-01
        -1.7079485176342243e-01 -1.0948085819753982e-01
        5.1186623185200633e-02 -5.6302582292084562e-02
        -3.2896838649050492e-02 -6.5473399134121264e-03
        -3.0565829859542665e-02 -3.5923246753929428e-01
        -3.4915301585843123e-01 1.9175483591707371e-02
        4.9577262623361408e-02 5.6483123969198273e-02
        -1.0579603702146505e-01 1.0832953492045604e-01
        -1.8919079269401437e-01 -1.9096661505156579e-01
        -1.6678415685753825e-01 -2.9032700748565038e-01
        1.3465941846352383e-01 2.6134683200355702e-01
        1.5997511601608483e-01 -3.7258676408796515e-01
        1.1434401334532805e-02 -2.0248773505131173e-01
        -4.0120190075685014e-01 4.5623482753004728e-02
        2.6473637990310578e-01 -1.0306275628955841e-01
        8.7516502112064631e-02 4.4087169911336745e-02
        2.0800724313180981e-02 -1.1102089860232803e-01
        -1.2337435619682499e-01 -2.5487863523724241e-01
        3.5798032440945077e-01 -2.2947226058147790e-01
        -5.3473065063840447e-02 1.4000892442923807e-01
        -3.1301112123393815e-01 3.2888894711154676e-01
        -1.8946224497621034e-01 -2.7076548026433039e-01
        -5.0431019053364952e-02 -3.3248471664289611e-02
        -3.2255157329879774e-01 2.9164466746246959e-01
        3.2572358574805577e-01 -1.3341044731515436e-01
        2.4938395136453476e-01 -1.4422781645859484e-01
        -1.7564246513570203e-01 3.7431412485343191e-01
        -1.1522956061075447e-01 1.1275231103164229e-01
        -1.3235220948730364e-01 2.2402453589552837e-01
        5.1217420033641901e-02 -1.7452210787459363e-01
        -2.2866841942007413e-01 2.2829998694659345e-01
        -1.4112384058180974e-01 -5.6782450989893249e-02
        3.4061682361667800e-01 -1.7893735548840628e-01
        7.4939255437711155e-02 7.0789918053214704e-02
        6.1969130474835499e-01 -6.0627171057439352e-02
        8.6882782899958419e-02 1.8355716159360361e-03
        1.1473585321859282e-01 -1.7997407051297620e-01
        6.0052210382766397e-02 9.2986005101005131e-02
        3.2809852166136366e-01 1.8730650365697396e-01
        -2.1566916623534982e-01 -9.0493399071591041e-02
        3.2545651037727968e-01 -1.5811370325967145e-01
        -6.8581696154487920e-02 3.1267740857878888e-02
        7.0697230801875732e-02 2.8120137040955284e-01
        4.2993066218505453e-02 2.9763072424972581e-01
        -3.9069026127180090e-01 5.9180157587131440e-03
        -3.6757217614652331e-02 -3.5341995092709572e-01
        3.9334376723920883e-01 2.4982565632128570e-01
        -2.8771093171533552e-01 5.8893727527792192e-02
        -3.4766916742630988e-01 7.8229333288243483e-02
        3.0138687714891078e-02 -1.5239903411953606e-01
        9.7693436559690081e-02 -3.8549806143722337e-01
        1.8811148742695250e-01 -2.3754959797504749e-01
        -3.9374316353531219e-01 -3.4559284356809467e-02
        9.3798317107454884e-03 3.5724684489775199e-01
        -8.8010311523102971e-02 -2.5554268455387974e-01
        -3.1259474451781170e-02 -1.4794607979797312e-02
        2.7378488043288085e-01 1.3077351569475237e-01
        1.5213821327475902e-01 8.1469212077214512e-02
        3.5876085011416203e-01 1.5823178789968768e-02
        -2.2011337007211015e-01 5.4132353684516084e-02
        1.0931336919756900e-01 -1.3264999398586575e-02
        1.3733841024631965e-01 1.1187168052753417e-02
        -1.3699382784223277e-01 -1.2840170718251953e-01
        -1.3996608498198154e-02 3.8411430443216754e-01
        1.2939359042115539e-01 1.3539540908385092e-01
        2.9023514228708824e-01 -2.4469677678684248e-01
        6.2912196600424419e-01 2.5659353733620438e-02
        1.1402142938127652e-02 1.9555990019398209e-01
        1.1968226097353789e-01 -5.0061023805830296e-01
        -1.0234724375510153e-01 -1.3768208123729214e-01
        1.1187213251741436e-02 4.2446986329706127e-01
        -1.6532531826065468e-03 -2.2214928505810780e-01
        -1.1454941906656917e-01 -1.0531108384718807e-01
        -8.7083249778993871e-02 -9.0907794661750599e-02
        2.6507070288168316e-01 -1.4950106378378578e-02
        4.7814042808467555e-01 1.2758204906868231e-01
        -9.7413974238371726e-02 -2.4800263639061659e-01
        -4.8627907016026414e-02 9.4536198384938513e-02
        -2.5460241757395463e-01 2.4370686350182688e-01
        1.3694943510781207e-01 4.7458488243457714e-01
        -7.6729030537355122e-02 8.1708226073344367e-02
        -1.9629677097779807e-01 -1.6200529148548917e-01
        -3.9649104618513786e-01 1.3504715451753027e-01
        5.8445165716535331e-02 1.1095855984289331e-01
        -4.1258515779802041e-01 1.6125814385226100e-01
        2.2242995745447650e-01 2.1726446918049813e-01
        -2.3265881014862530e-01 -8.1425101597335167e-03
        -4.3147701147071234e-02 1.0825443383583791e-01
        -5.0985990059906616e-02 -1.5517034561482920e-01
        2.0906180316132714e-01 1.5780613241400723e-01
        -4.3546157568818400e-01 -7.2527135227549749e-02
        7.0179311999305369e-02 -2.2081598417172552e-01
        -4.0397076941181198e-01 -9.4338811992399171e-02
        -4.0855484047703389e-01 -7.5556719460192864e-02
        -2.1688126025321769e-01 -6.4354409920540034e-02
        -2.8073733208872736e-01 1.2076779085283909e-02
        2.2773666931781991e-01 -1.1857910744858832e-02
        -4.6329382602532311e-02 1.7973912565049200e-02
        -2.5739359268340400e-01 -2.5131429064825700e-01
        1.4763437089400698e-02 -1.6638156312607816e-01
        8.0638649611397620e-02 -3.2805357807955972e-03
        3.6170618092932727e-01 -3.5041493888301650e-01
        -2.0116779984760708e-02 1.7264358005688935e-01
        -4.2646800685192665e-01 -3.1424562891383741e-02
        1.9360863910664156e-01 1.4829985929911788e-01
        -1.2320141661164323e-01 -9.6877275062394783e-02
        4.9820312552378322e-02 -2.8176875429113341e-03
        2.7657847461277474e-01 -3.0972424121597375e-01
        1.1695314822854622e-01 -4.5703562682296073e-01
        1.3181655537774595e-01 -1.6057084658492074e-01
        -4.4925194196603242e-02 -4.8088674042432694e-01
        8.8276490667969054e-02 9.1556583975605080e-02
        -2.2531657918218088e-02 -1.7609741810941798e-01
        2.6871910270832294e-01 -1.9377664982704785e-02
        -4.1084797542983753e-01 1.0911210063197217e-01
        -6.4916525977674375e-02 -5.6712505733477477e-02
        -1.3753609695203881e-01 8.1688807547108389e-02
        1.0846559771796770e-01 -8.5602970533101397e-02
        1.7681208708897178e-01 5.4965248602897299e-01
        2.2974077148267266e-01 4.1144154423444074e-02
        -1.4091453261018766e-01 -6.4837340888614869e-02
        1.8064001916366343e-01 -1.9946351635883550e-01
        1.3851024248823665e-02 -2.4131107823633421e-02
        1.5772566177828620e-01 2.3385331790075675e-01
        2.2378169989446547e-01 -3.4350570972105254e-01
        -1.3756780276428660e-01 4.6486906322827992e-01
        -1.6716302806231187e-01 -7.8506829157559029e-03
        5.2730278234456773e-01 2.1920832447655213e-02
        5.0453917183512186e-02 -1.0775218708903926e-01
        -2.3405264801139819e-01 2.0839030325257105e-01
        -3.4410236238383143e-02 2.1233297892142777e-01
        7.5605356100842958e-02 5.7122198883359697e-02
        -1.1050273594292380e-01 2.2760942661698946e-01
        8.2936343625675257e-02 -2.4204220590406467e-01
        3.1350063135291645e-01 -9.9438479587917072e-02
        2.2489571301446909e-01 -3.0422705982538700e-01
        3.3830752261766756e-01 1.1486525984614039e-01
        1.0967443077038697e-02 -1.9555819891031082e-01
        3.8215921594886010e-01 3.7228786740532302e-02
        2.0242407359166825e-01 7.3905126498974863e-02
        1.0716762458552123e-02 -4.5294558463344625e-01
        1.4176735006143354e-01 -5.6444168026787873e-02
        -2.4486379041895240e-01 1.8907790612349273e-01
        1.3557191248416767e-01 -2.5707807150342660e-01
        4.4104963139215509e-03 -2.0820762357416786e-01
        5.0668923981121369e-02 -1.4472422814957758e-01
        -2.6006643778969951e-01 -7.9126324418176117e-02
        -5.3176592070007418e-02 3.3831096179094389e-01
        2.5648633900679302e-01 -3.7860296830255730e-01
        -3.6649650586440631e-02 1.4572862477076678e-01
        4.9387428959533934e-03 -2.5552886948505238e-01
        -4.9137938444721296e-01 5.1785092509821695e-01
        -3.2762368188485430e-01 1.2542021748771856e-01
        2.3895397304700283e-01 -3.2034550251825977e-01
        -2.4522366075671306e-01 -2.3361324933614658e-01
        -2.4270688405949661e-02 7.8438856845641655e-02
        -2.8625264375460774e-01 2.1254654211689678e-02
        1.4345863900198657e-02 -3.1688107783687980e-01
        -1.6296598265329088e-01 -2.4571542199800689e-01
        1.0890368284079273e-01 1.8940754674542062e-02
        -5.8942278507885984e-02 -1.3310603386275782e-01
        1.4919143530796647e-01 -4.4465263936504962e-02
        3.2162085862171208e-01 3.0224207267110842e-01
        1.7426684844276386e-01 3.0186696204690533e-01
        5.5393103851697663e-02 -5.4737491724474022e-02
        7.9113391740467054e-02 -9.4286907797427350e-02
        -2.7290020322063413e-01 -3.0633477124073216e-01
        4.6838318477229442e-03 6.8165079479231283e-02
        6.2440594999638444e-01 -1.5441289699138500e-01
        2.0248546189998753e-01 2.5611471234620480e-04
        -1.7300963397560022e-02 7.3729047690849397e-02
        -3.9487787885935696e-02 1.2336533056509635e-01
        1.1081308829126882e-01 9.7282282528806021e-03
        -2.5913453701026331e-03 -1.3209317751909352e-01
        -5.8672205174329389e-02 3.5647427115628912e-02
        2.8124623980985441e-01 -3.2314525959393464e-01
        -2.5778430957983106e-01 -1.7753494062212771e-01
        -1.1145612038028219e-01 -2.9864913842999491e-01
        2.5618565901567253e-01 -9.7031960574727336e-02
        1.3640131513500181e-01 -1.0970363447814332e-01
        -2.6380662451267717e-01 4.9397413179356670e-01
        1.8144235596512276e-01 -3.2198234311833392e-02
        9.7143480353785117e-02 3.6324041336110707e-01
        3.2086552718440170e-01 -1.2205545916302424e-01
        -6.3710703660886742e-02 -1.3456783827091331e-01
        3.3290782064354596e-01 3.4469974798867092e-01
        2.1391473767857694e-01 -4.0118301819592694e-01
        -2.6605605635692441e-02 2.4426456089597280e-02
        4.5957995217468706e-01 2.3447096894993039e-01
        -1.3207199623480914e-01 -5.7785200799279528e-03
        1.5758742163531247e-02 -3.9274852700309545e-02
        -5.9327215091024205e-02 -1.0025328592322655e-01
        1.6121420327900784e-01 2.2704537053607771e-01
        -2.1390457327791071e-01 2.1608772309413452e-02
        3.8699178429648357e-01 -3.1140040345809224e-03
        -8.8199155786629554e-02 4.5076891471959857e-01
        -5.1827161920745179e-01 -1.1099791236755148e-01
        -1.8440015674249649e-01 2.5587177927163396e-01
        9.3035963300065527e-02 -4.9885814980415770e-02
        -1.3541982486662324e-01 -1.3376708477644786e-01
        5.0239540729870649e-02 -8.5767134915018237e-02
        1.0211318564069491e-01 8.3642209310371890e-02
        -9.0852349519742512e-02 -6.0007747071101999e-02
        3.9099992408544215e-01 1.3774477400327567e-01
        -1.7270974031861919e-01 -4.3870032267149717e-01
        -3.7524031588456477e-02 2.4178831868940384e-01
        8.4660088894850410e-02 -4.6148804167769869e-02
        7.1259906220213040e-02 -3.1147578100838230e-01
        1.3378049060802485e-01 2.3915238551695606e-01
        -1.0070617929822206e-01 -1.2125373927630084e-01
        1.3365705756049476e-01 -2.9785442407644980e-01
        2.9856028788870659e-01 3.7914535833364310e-01
        3.6099871117331628e-01 1.8180040947693518e-01
        -6.5727128054833229e-03 4.2710550173507590e-02
        -4.2502906761755950e-02</data></_>
    <_ type_id="opencv-matrix">
      <rows>21</rows>
      <cols>21</cols>
      <dt>d</dt>
      <data>
        1.3514494600534411e-03 -2.0104139074188596e-03
        -1.3154955798752208e-02 -2.2324367699734903e-02
        8.3851654113468836e-03 5.1525043694430769e-02
        1.7765622304803602e-01 2.7495531618129931e-01
        3.9857150886069687e-01 3.1114794296515064e-01
        3.8638459852736129e-01 2.0939680352891613e-01
        4.6386045353721365e-03 -1.2410408243896838e-01
        -3.3587060835648885e-01 -3.4762099386033612e-01
        -3.3312002054926781e-01 -2.1448348548279161e-01
        -1.5077141665815910e-01 -1.0786740729267415e-01
        -1.4517555822512213e-02 -2.0455473007616448e-01
        -3.5618197271492569e-01 -1.6542257575341654e-01
        1.4887018374530550e-01 6.8135231471295160e-02
        -4.0228902695046082e-01 3.1620847568143207e-01
        9.3697747810170331e-02 -4.3217433501762034e-02
        -1.2744452265781336e-01 1.6286021280467927e-01
        1.4938178903365171e-01 -1.3629613935730051e-01
        -1.3119434036946998e-01 -3.3974041051998277e-01
        3.9833477567614645e-01 8.4578980080990754e-02
        2.7435893346341755e-01 -1.7616499357871386e-02
        7.6658180394914635e-02 -2.0266885870765358e-01
        1.7177303732445301e-01 7.6041385091778921e-02
        3.7875785350751329e-01 -1.6964088666909438e-01
        3.4405747513261220e-01 1.9916275222230308e-02
        2.1784942182413750e-01 -2.0063300375119858e-01
        8.5960409150316469e-02 2.1871105746482097e-01
        2.0829261891828068e-02 1.0236590224873010e-01
        -5.9963364988812572e-03 -8.2784991246147049e-02
        1.8955040246219274e-01 1.1475367726392258e-01
        3.0871220700605428e-01 8.0356269784112130e-02
        -5.2089675938157520e-01 -1.1765427442244464e-01
        -2.7736666394895343e-01 -3.7100057203426025e-02
        1.8836963659852737e-01 -7.9348350197357281e-02
        -1.6226794124588828e-01 -2.0595202600701754e-01
        -2.6731423729920051e-01 9.5469634561562669e-02
        -3.0006961050891959e-02 3.4157161100979949e-01
        -4.6472086703557222e-02 2.9895076982654402e-02
        -3.6087742660800809e-01 -8.8618166273844876e-02
        4.5625748217266737e-01 7.9662023818474467e-02
        8.4779121570125765e-02 -2.6225879326358886e-01
        3.3745809389402531e-01 -3.4113935790413491e-01
        5.5381536156153807e-02 1.5814530438255764e-01
        1.9891112410457112e-01 -1.1186349960219302e-01
        -1.8662759078395452e-01 -6.9202458979486381e-01
        -7.6480580798094944e-02 1.5991563584186605e-01
        2.1262117916039347e-01 -3.3533958691934658e-02
        -3.2593220710813262e-02 -2.5034741654993276e-01
        -2.0165928925331036e-01 1.0918393682882571e-01
        -2.5315450218130731e-01 -3.2225419406335709e-01
        3.7819786572938788e-02 -3.2192185878948919e-02
        -2.4277208191496549e-01 7.7891435690815580e-02
        3.3620705088533730e-02 5.0727910558570975e-02
        -3.1686411972856161e-02 -1.1527937173283423e-01
        -1.4921552628121679e-01 -1.6824362464952008e-01
        -3.1446031101808014e-01 2.5886491464223164e-02
        9.0220572993977878e-03 3.2405949938091877e-01
        1.5064605697759131e-01 7.0907629883881412e-02
        2.8717987356214675e-01 4.6822109826628648e-02
        -1.5173489265464379e-01 5.5478481234638188e-01
        -1.7197073245538461e-02 1.5497915986632080e-01
        2.1300223144625582e-01 2.4521307721981578e-01
        -1.3099165947789759e-01 1.4442322219326928e-01
        1.0601331820416666e-01 3.3048804971738094e-01
        -1.1132079521415046e-01 3.6141601435410697e-01
        -2.7407724800448541e-01 1.1410080682129045e-01
        -2.1242527246910728e-01 4.0798506091510855e-01
        1.6095528382517893e-01 2.3320761167527279e-01
        5.7546877086907908e-02 2.9171582973864052e-01
        9.0562864128647211e-02 -1.3967664981911171e-01
        -3.2542701411536873e-01 -8.8339764926397848e-02
        1.5929553132992025e-01 1.6893548787845172e-01
        2.0547640492392430e-01 1.8939323314782455e-01
        1.6406003603234806e-01 -6.3347156257476250e-03
        -2.9697146546176612e-01 -1.8148714753971620e-01
        4.7931237119483544e-01 -3.3821959364002765e-03
        -1.0082638102433762e-01 1.0857839446967475e-01
        -2.1533335345641635e-01 -4.2609370777258404e-02
        2.7624338900182682e-01 -2.9316497520318133e-03
        -5.4473508801861477e-02 -2.4659061475348770e-01
        4.7716731780093602e-01 5.6011493259547289e-02
        5.8541096554271102e-02 6.2852636173269014e-02
        3.1611445523916165e-01 -1.3493368034915804e-01
        -7.4189470232881832e-02 5.6748045629624086e-02
        -3.8542815777089767e-01 1.1601684844557754e-01
        5.7863905684096731e-02 1.1922601409095721e-01
        7.0553724375389273e-02 -6.5215072512852870e-02
        -2.8891644422799906e-01 -9.3063142796916826e-04
        3.7565243626732647e-01 -2.3305572142926514e-01
        -8.9320710123276498e-02 -1.8728340416454600e-02
        -1.9058760195960534e-01 -6.1726754954133919e-02
        -4.3247256964761616e-02 2.1090677370709074e-01
        -4.9600930479450667e-01 -2.0540026115636686e-01
        3.5821775486758151e-01 -4.8385014457345187e-02
        1.1409269430478861e-01 -4.0051969624362999e-01
        8.4730728469916444e-02 -1.3740277298459030e-01
        2.2357829394978473e-01 -1.1563563701844563e-01
        -7.4210450426587124e-02 3.2158883983638570e-01
        -3.5551434330989429e-01 6.9179061227134631e-02
        -2.6870673388944138e-02 -1.3130809233488708e-01
        2.1476690168279963e-01 -1.0217921268181725e-01
        -1.5254719778277406e-01 -4.8350132995605916e-01
        -4.8889059344703195e-02 -4.2828995570300690e-02
        -1.5426963724167403e-01 1.3595879581793846e-01
        -3.6672951827426059e-01 -2.9225546252478309e-03
        3.4741203044251501e-01 2.1067234496001133e-01
        2.1976826826676746e-01 2.0683572664541405e-01
        5.6610759031109237e-02 2.0420693826286601e-01
        1.1059864782900415e-01 -1.6389598472081757e-02
        7.3962963409704083e-02 7.1148877967118412e-02
        -2.0082639853964551e-01 2.0876362112802893e-01
        -3.4351176410014395e-01 -3.9508530836435696e-01
        2.3408819270472633e-01 -4.0325560441781966e-01
        -3.0092157569663347e-01 1.2524798796513867e-01
        -3.4803757030595178e-01 1.6843670751374901e-01
        -9.5982563770665594e-02 -5.4193546760115787e-03
        2.4077726658160919e-02 -9.6749209378543297e-02
        8.2027845636940711e-02 4.6753487324547344e-01
        -1.5249963107589615e-01 3.9536603483629397e-02
        -2.4792180034183248e-01 7.7895141568070939e-02
        3.2884885778023809e-01 -1.6385684099246400e-01
        -1.6755843481469260e-01 3.2994508901636527e-01
        -2.7822970415538351e-01 -5.0345666911927503e-02
        -1.9254960408292926e-01 1.8753524244004985e-01
        -2.5489820479192982e-01 4.4860450108250897e-02
        2.4282885211516489e-01 2.8883082219405676e-01
        -1.9633803190223989e-01 3.0417786709436772e-02
        -6.0093485902012256e-01 4.1181430537756636e-02
        -3.0837245620201809e-01 -1.5000773838638870e-01
        1.9945913886019684e-01 -2.8032461211048944e-02
        -2.1780925962561212e-01 -3.3481066332854204e-01
        7.5277515928521041e-02 3.0558652292271157e-02
        -4.8960907740384758e-02 -1.2568322818752609e-01
        1.8665161481111367e-01 -2.0753631263355807e-01
        -3.2190163865665797e-02 -2.8504158233623350e-01
        1.0386805611624297e-02 1.8854499183270068e-01
        -5.2488996779392304e-02 -2.4522589051397262e-01
        -1.8957769481234443e-01 5.1604167812570068e-01
        2.7188078931839388e-01 -3.3966607270851373e-01
        -4.6144801462418422e-02 -1.2107650723966976e-01
        -4.3663825258957795e-01 -2.1169739237046040e-01
        -1.0807138829005125e-01 1.7673200606250997e-01
        -7.1732841197991740e-02 2.2416831768523024e-01
        -9.7263069219787925e-03 1.9042639961035326e-01
        -2.0599912502501189e-01 1.8695646184866788e-02
        -2.7836505465456005e-02 2.3206062668683780e-01
        -5.6852683856540388e-02 1.1546591293416117e-01
        -1.9908491137603717e-02 -2.0763084377680738e-01
        -4.8308557858929825e-02 2.7095233254728668e-01
        1.5147617750276207e-01 -4.6496639835975878e-02
        3.7442721927897493e-01 1.7430226531021009e-01
        1.7401876450243628e-01 -1.6126599629298407e-02
        3.1459379352979183e-01 -3.7736226176567023e-01
        -4.2110354861888556e-02 -9.6244268890153570e-02
        1.9084766707830089e-01 1.9715883256452318e-01
        -2.2449722863321059e-01 3.6761931488174929e-02
        -3.3263359326145249e-02 -9.0142788489905507e-02
        3.0779946081453141e-01 3.3615892960183669e-01
        -3.1874184573660880e-01 -6.6188120018806487e-02
        2.2658797507674761e-01 -1.2092117083014398e-01
        -1.2998582037882742e-01 -2.8646704539322804e-02
        2.1298798342810207e-01 -1.8453166259413770e-01
        3.3404306066951717e-01 -3.0083534901045278e-01
        -3.1146567656075158e-01 1.9083722647356785e-01
        3.0818969401668381e-02 1.4107288661426917e-01
        -1.9472103617047376e-02 -2.9175169788258903e-01
        -7.2565654047278050e-02 2.8773374045093297e-01
        7.1002056404876918e-02 -4.8156269951276209e-01
        2.1172400247789130e-01 1.4432220594296571e-01
        -2.7898712409668319e-01 1.5017567140400270e-01
        2.4898609438269237e-01 1.6392644673721249e-01
        -4.1955140398792423e-01 -3.8941914619033628e-03
        1.0574296594027024e-01 -2.2566354925840015e-01
        2.8835400595212307e-01 -2.7234439141414452e-01
        1.5985090946660837e-02 -3.4009822715744077e-02
        -8.2548971777310493e-03 -4.8203931118283982e-01
        8.5697460224317817e-02 1.7265753851774487e-01
        4.1025626422532088e-02 -2.8234592301749639e-01
        -1.4877330629755195e-01 1.1646018641419158e-01
        1.6488824392693799e-01 -5.4382084506977534e-02
        -2.5849036703897516e-01 -3.6845414443444622e-03
        1.3285199885676155e-02 -1.5136460652719819e-01
        -1.6618836800864745e-01 -5.6056955930751481e-02
        5.0160485600205340e-01 1.9703973648337786e-01
        -8.0833632440593980e-02 -5.0167142175023527e-01
        -1.7987827158510655e-01 2.9085805561911277e-02
        1.7168321284655522e-02 9.1078940723222909e-02
        -1.8055475111328428e-01 1.7448741011714489e-01
        -2.3245802574728119e-01 -1.7702548431363693e-01
        -5.4399343145419957e-02 -3.6681118513830258e-01
        1.0009051403769831e-01 -1.5266916741340281e-01
        -1.5223916141801000e-01 -3.1622792331743952e-04
        3.0641390948473746e-01 1.8396542799865961e-01
        -1.2402430130701131e-01 4.7857995211593507e-02
        1.1989900041459023e-01 -2.3647690862418919e-01
        1.9563146356235253e-01 -4.1178587364246977e-01
        -2.0837878433255125e-01 -1.4135083718461462e-02
        -6.2024947370436172e-02 3.3242300412271997e-01
        1.1521408233453741e-02 -3.1992123210643197e-01
        -6.1730324578121998e-02 -4.8761075773166951e-01
        1.3388320574519574e-01 1.5463342235977987e-01
        -4.1327132799533532e-02 -1.4926087015817951e-01
        3.0610584445103700e-01 2.8034629187829740e-01
        8.8067066628372492e-02 1.1978851301694821e-01
        9.4322949576846518e-02 3.8138737889456292e-01
        -1.7421146840135565e-01 -2.1481336927698808e-01
        1.4564339326652226e-01 -7.9411477387204138e-02
        -1.6358649834370476e-01 1.1053084419535164e-01
        -2.5639910366935365e-01 2.3464454452861450e-01
        3.7713509725917760e-01 2.6822235254858010e-02
        -2.5569062997285504e-02 4.4266897657146898e-01
        1.8571008187940326e-02 9.0854318177518475e-02
        -2.9799871596255406e-01 2.8654164614152694e-01
        5.9135841527577275e-02 -2.5269686366628134e-02
        5.2521242618179187e-01 -4.8677247270490408e-02
        -3.2438407417231707e-01 -2.7043730771162200e-01
        1.0086293463008146e-01 -1.6801760144993674e-03
        1.4681962987217181e-01 7.7785202195709210e-02
        3.6404313030078533e-01 -2.2652545577171518e-01
        -2.0778559643051578e-01 -1.9833264654258892e-01
        -1.7529948736393919e-01 -1.0089584082808005e-01
        -1.2137656898634758e-01</data></_></cov_rotate_mats>
  <c type_id="opencv-matrix">
    <rows>1</rows>
    <cols>3</cols>
    <dt>d</dt>
    <data>
      -1.2885966981433908e-01 1.1713922089195707e+00
      -1.0530450156331741e+00</data></c></my_nb>
</opencv_storage>
