<?xml version="1.0"?>
<opencv_storage>
<my_svm type_id="opencv-ml-svm">
  <svm_type>NU_SVR</svm_type>
  <kernel><type>RBF</type>
    <gamma>2.2499999999999998e-03</gamma></kernel>
  <C>6.2500000000000000e+01</C>
  <nu>2.9999999999999999e-02</nu>
  <term_criteria><epsilon>1.1920928955078125e-07</epsilon>
    <iterations>1000</iterations></term_criteria>
  <var_all>49</var_all>
  <var_count>48</var_count>
  <var_idx type_id="opencv-matrix">
    <rows>1</rows>
    <cols>48</cols>
    <dt>i</dt>
    <data>
      0 1 2 3 4 5 6 7 8 9 10 11 12 13 14 15 16 17 18 19 20 21 22 23 24
      25 26 27 28 29 30 31 32 33 34 35 36 37 38 39 40 41 42 43 44 45 46
      47</data></var_idx>
  <sv_total>1028</sv_total>
  <support_vectors>
    <_>
      110. 100. 100. 100. 13. 126. 89. 72. 94. 0. 0. 0. 0. 0. 0. 0. 0.
      0. 0. 0. 22. 37. 0. 0. 0. 0. 2. 0. 0. 0. 0. 0. 0. 0. 0. 0. 0. 0.
      0. 0. 0. 0. 0. 0. 0. 0. 0. 0.</_>
    <_>
      110. 100. 100. 100. 50. 113. 100. 143. 94. 0. 0. 0. 0. 0. 0. 0. 0.
      5. 72. 0. 0. 0. 0. 0. 0. 0. 8. 60. 0. 0. 0. 0. 0. 0. 0. 0. 0. 0.
      0. 0. 0. 0. 0. 0. 0. 0. 0. 0.</_>
    <_>
      110. 100. 100. 100. 81. 110. 77. 72. 94. 0. 0. 0. 0. 0. 0. 56. 6.
      0. 0. 43. 1. 0. 0. 0. 0. 0. 0. 1. 0. 0. 0. 0. 0. 0. 0. 0. 0. 0. 0.
      0. 0. 0. 0. 0. 0. 0. 0. 0.</_>
    <_>
      110. 100. 100. 100. 44. 96. 76. 71. 94. 0. 0. 0. 1. 1. 2. 3. 1.
      11. 34. 0. 0. 0. 0. 0. 0. 0. 0. 0. 0. 0. 0. 0. 0. 0. 0. 0. 0. 0.
      0. 0. 0. 0. 0. 0. 0. 0. 0. 0.</_>
    <_>
      110. 100. 100. 100. 87. 77. 91. 113. 94. 0. 0. 0. 0. 79. 0. 0. 0.
      0. 0. 0. 0. 0. 0. 0. 0. 0. 5. 34. 0. 0. 0. 0. 0. 0. 0. 0. 0. 0. 0.
      0. 0. 0. 0. 0. 0. 0. 0. 0.</_>
    <_>
      110. 100. 100. 100. 56. 83. 79. 71. 94. 0. 0. 0. 0. 0. 0. 37. 9.
      0. 0. 0. 1. 8. 0. 0. 0. 0. 0. 0. 0. 0. 0. 0. 0. 0. 0. 0. 0. 0. 0.
      0. 0. 0. 0. 0. 0. 0. 0. 0.</_>
    <_>
      110. 100. 100. 100. 70. 125. 84. 71. 94. 0. 0. 0. 0. 2. 0. 0. 45.
      18. 0. 0. 26. 25. 0. 0. 0. 0. 0. 0. 0. 0. 0. 0. 0. 0. 0. 0. 0. 0.
      0. 0. 0. 0. 0. 0. 0. 0. 0. 0.</_>
    <_>
      110. 100. 100. 100. 74. 77. 76. 71. 94. 0. 0. 0. 31. 31. 0. 2. 1.
      0. 0. 0. 0. 0. 0. 0. 0. 0. 0. 0. 0. 0. 0. 0. 0. 0. 0. 0. 0. 0. 0.
      0. 0. 0. 0. 0. 0. 0. 0. 0.</_>
    <_>
      110. 100. 100. 100. 60. 107. 104. 98. 94. 0. 0. 0. 0. 0. 3. 0. 0.
      32. 45. 0. 0. 0. 0. 0. 0. 8. 32. 0. 0. 0. 0. 0. 0. 0. 0. 0. 0. 0.
      0. 0. 0. 0. 0. 0. 0. 0. 0. 0.</_>
    <_>
      110. 100. 100. 100. 54. 77. 76. 71. 94. 0. 0. 0. 0. 0. 0. 16. 28.
      0. 0. 0. 0. 0. 0. 0. 0. 0. 0. 0. 0. 0. 0. 0. 0. 0. 0. 0. 0. 0. 0.
      0. 0. 0. 0. 0. 0. 0. 0. 0.</_>
    <_>
      110. 100. 100. 100. 70. 77. 76. 71. 94. 0. 0. 0. 2. 10. 3. 46. 0.
      0. 0. 0. 0. 0. 0. 0. 0. 0. 0. 0. 0. 0. 0. 0. 0. 0. 0. 0. 0. 0. 0.
      0. 0. 0. 0. 0. 0. 0. 0. 0.</_>
    <_>
      110. 100. 100. 100. 46. 102. 116. 128. 94. 0. 0. 0. 0. 0. 0. 0. 0.
      19. 42. 0. 0. 0. 0. 0. 1. 1. 54. 15. 0. 0. 0. 0. 0. 0. 0. 0. 0. 0.
      0. 0. 0. 0. 0. 0. 0. 0. 0. 0.</_>
    <_>
      110. 100. 100. 100. 89. 77. 76. 71. 94. 0. 0. 0. 0. 0. 16. 66. 0.
      0. 0. 0. 0. 0. 0. 0. 0. 0. 0. 0. 0. 0. 0. 0. 0. 0. 0. 0. 0. 0. 0.
      0. 0. 0. 0. 0. 0. 0. 0. 0.</_>
    <_>
      110. 100. 100. 100. 59. 80. 110. 91. 94. 0. 0. 0. 5. 42. 0. 0. 0.
      0. 5. 1. 0. 0. 0. 0. 0. 27. 14. 0. 0. 0. 0. 0. 0. 0. 0. 0. 0. 0.
      0. 0. 0. 0. 0. 0. 0. 0. 0. 0.</_>
    <_>
      110. 100. 100. 100. 55. 86. 76. 71. 94. 0. 0. 0. 0. 0. 5. 4. 7.
      39. 0. 0. 0. 0. 0. 0. 0. 0. 0. 0. 0. 0. 0. 0. 0. 0. 0. 0. 0. 0. 0.
      0. 0. 0. 0. 0. 0. 0. 0. 0.</_>
    <_>
      110. 100. 100. 100. 138. 112. 76. 71. 94. 0. 0. 0. 0. 37. 25. 0.
      18. 34. 55. 0. 0. 0. 0. 0. 0. 0. 0. 0. 0. 0. 0. 0. 0. 0. 0. 0. 0.
      0. 0. 0. 0. 0. 0. 0. 0. 0. 0. 0.</_>
    <_>
      110. 100. 100. 100. 59. 94. 76. 71. 94. 0. 0. 0. 0. 0. 0. 1. 3.
      52. 9. 0. 0. 0. 0. 0. 0. 0. 0. 0. 0. 0. 0. 0. 0. 0. 0. 0. 0. 0. 0.
      0. 0. 0. 0. 0. 0. 0. 0. 0.</_>
    <_>
      110. 100. 100. 100. 74. 77. 82. 71. 94. 0. 0. 0. 0. 2. 1. 19. 43.
      0. 0. 0. 0. 0. 0. 2. 3. 0. 0. 0. 0. 0. 0. 0. 0. 0. 0. 0. 0. 0. 0.
      0. 0. 0. 0. 0. 0. 0. 0. 0.</_>
    <_>
      110. 100. 100. 100. 106. 134. 76. 71. 94. 0. 0. 0. 0. 0. 0. 0. 9.
      64. 84. 1. 0. 0. 0. 0. 0. 0. 0. 0. 0. 0. 0. 0. 0. 0. 0. 0. 0. 0.
      0. 0. 0. 0. 0. 0. 0. 0. 0. 0.</_>
    <_>
      110. 100. 100. 100. 35. 77. 76. 71. 94. 0. 0. 0. 0. 6. 15. 2. 0.
      0. 0. 0. 0. 0. 0. 0. 0. 0. 0. 0. 0. 0. 0. 0. 0. 0. 0. 0. 0. 0. 0.
      0. 0. 0. 0. 0. 0. 0. 0. 0.</_>
    <_>
      110. 100. 100. 100. 59. 89. 83. 75. 94. 0. 0. 0. 0. 0. 0. 0. 10.
      52. 0. 0. 0. 0. 0. 0. 0. 6. 3. 0. 0. 0. 0. 0. 0. 0. 0. 0. 0. 0. 0.
      0. 0. 0. 0. 0. 0. 0. 0. 0.</_>
    <_>
      110. 100. 100. 100. 105. 88. 78. 71. 94. 0. 0. 0. 23. 23. 2. 0.
      15. 47. 0. 0. 0. 0. 0. 0. 1. 0. 0. 0. 0. 0. 0. 0. 0. 0. 0. 0. 0.
      0. 0. 0. 0. 0. 0. 0. 0. 0. 0. 0.</_>
    <_>
      110. 100. 100. 100. 123. 86. 76. 71. 94. 0. 0. 0. 0. 1. 46. 19.
      24. 38. 0. 0. 0. 0. 0. 0. 0. 0. 0. 0. 0. 0. 0. 0. 0. 0. 0. 0. 0.
      0. 0. 0. 0. 0. 0. 0. 0. 0. 0. 0.</_>
    <_>
      110. 100. 100. 100. 120. 77. 76. 71. 94. 0. 0. 0. 34. 48. 32. 0.
      0. 0. 0. 0. 0. 0. 0. 0. 0. 0. 0. 0. 0. 0. 0. 0. 0. 0. 0. 0. 0. 0.
      0. 0. 0. 0. 0. 0. 0. 0. 0. 0.</_>
    <_>
      110. 100. 100. 100. 16. 96. 76. 71. 94. 0. 0. 0. 0. 0. 2. 1. 0. 0.
      0. 0. 19. 0. 0. 0. 0. 0. 0. 0. 0. 0. 0. 0. 0. 0. 0. 0. 0. 0. 0. 0.
      0. 0. 0. 0. 0. 0. 0. 0.</_>
    <_>
      110. 100. 100. 100. 74. 81. 76. 71. 94. 0. 0. 0. 0. 0. 0. 0. 62.
      1. 2. 4. 0. 0. 0. 0. 0. 0. 0. 0. 0. 0. 0. 0. 0. 0. 0. 0. 0. 0. 0.
      0. 0. 0. 0. 0. 0. 0. 0. 0.</_>
    <_>
      110. 100. 100. 100. 60. 93. 76. 73. 102. 0. 0. 0. 1. 2. 0. 0. 1.
      60. 3. 0. 0. 0. 0. 0. 0. 0. 0. 0. 0. 0. 0. 4. 1. 0. 0. 0. 0. 0. 0.
      0. 0. 0. 0. 0. 0. 0. 0. 0.</_>
    <_>
      110. 100. 100. 100. 156. 94. 76. 71. 94. 0. 0. 0. 46. 28. 18. 0.
      5. 72. 0. 0. 0. 0. 0. 0. 0. 0. 0. 0. 0. 0. 0. 0. 0. 0. 0. 0. 0. 0.
      0. 0. 0. 0. 0. 0. 0. 0. 0. 0.</_>
    <_>
      110. 100. 100. 100. 81. 77. 76. 71. 94. 0. 0. 0. 0. 0. 39. 34. 0.
      0. 0. 0. 0. 0. 0. 0. 0. 0. 0. 0. 0. 0. 0. 0. 0. 0. 0. 0. 0. 0. 0.
      0. 0. 0. 0. 0. 0. 0. 0. 0.</_>
    <_>
      110. 100. 100. 100. 110. 116. 76. 71. 94. 0. 0. 0. 0. 0. 39. 39.
      1. 3. 25. 35. 0. 0. 0. 0. 0. 0. 0. 0. 0. 0. 0. 0. 0. 0. 0. 0. 0.
      0. 0. 0. 0. 0. 0. 0. 0. 0. 0. 0.</_>
    <_>
      110. 100. 100. 100. 94. 103. 104. 71. 94. 0. 0. 0. 9. 37. 0. 0.
      22. 24. 0. 0. 0. 0. 41. 2. 0. 0. 0. 0. 0. 0. 0. 0. 0. 0. 0. 0. 0.
      0. 0. 0. 0. 0. 0. 0. 0. 0. 0. 0.</_>
    <_>
      110. 100. 100. 100. 59. 77. 76. 81. 95. 0. 0. 0. 0. 42. 6. 1. 0.
      0. 0. 0. 0. 0. 0. 0. 0. 0. 0. 0. 4. 4. 0. 0. 0. 0. 0. 0. 0. 0. 0.
      0. 0. 0. 0. 0. 0. 0. 0. 0.</_>
    <_>
      110. 100. 100. 100. 75. 116. 76. 71. 94. 0. 0. 0. 0. 44. 19. 0. 0.
      0. 0. 16. 29. 0. 0. 0. 0. 0. 0. 0. 0. 0. 0. 0. 0. 0. 0. 0. 0. 0.
      0. 0. 0. 0. 0. 0. 0. 0. 0. 0.</_>
    <_>
      110. 100. 100. 100. 22. 115. 82. 71. 94. 0. 0. 0. 0. 0. 0. 6. 3.
      0. 0. 0. 26. 18. 0. 0. 0. 0. 0. 0. 0. 0. 0. 0. 0. 0. 0. 0. 0. 0.
      0. 0. 0. 0. 0. 0. 0. 0. 0. 0.</_>
    <_>
      110. 100. 100. 100. 61. 88. 89. 72. 94. 0. 0. 0. 0. 0. 0. 0. 44.
      10. 0. 0. 0. 0. 18. 1. 0. 0. 0. 0. 0. 1. 0. 0. 0. 0. 0. 0. 0. 0.
      0. 0. 0. 0. 0. 0. 0. 0. 0. 0.</_>
    <_>
      110. 100. 100. 100. 104. 114. 80. 71. 94. 0. 0. 0. 0. 5. 4. 0. 48.
      31. 19. 28. 0. 0. 0. 0. 2. 0. 0. 0. 0. 0. 0. 0. 0. 0. 0. 0. 0. 0.
      0. 0. 0. 0. 0. 0. 0. 0. 0. 0.</_>
    <_>
      110. 100. 100. 100. 87. 109. 111. 71. 94. 0. 0. 0. 47. 32. 0. 0.
      0. 0. 0. 0. 0. 12. 46. 2. 0. 0. 0. 0. 0. 0. 0. 0. 0. 0. 0. 0. 0.
      0. 0. 0. 0. 0. 0. 0. 0. 0. 0. 0.</_>
    <_>
      110. 100. 100. 100. 152. 98. 76. 73. 95. 0. 0. 0. 55. 42. 28. 0.
      0. 1. 44. 0. 0. 0. 0. 0. 0. 0. 0. 0. 0. 1. 1. 0. 0. 0. 0. 0. 0. 0.
      0. 0. 0. 0. 0. 0. 0. 0. 0. 0.</_>
    <_>
      110. 100. 100. 100. 145. 77. 76. 71. 94. 0. 0. 0. 50. 12. 32. 47.
      0. 0. 0. 0. 0. 0. 0. 0. 0. 0. 0. 0. 0. 0. 0. 0. 0. 0. 0. 0. 0. 0.
      0. 0. 0. 0. 0. 0. 0. 0. 0. 0.</_>
    <_>
      110. 100. 100. 100. 73. 77. 129. 74. 94. 0. 0. 0. 0. 12. 50. 0. 0.
      2. 1. 0. 0. 0. 0. 0. 35. 9. 0. 0. 0. 0. 0. 0. 0. 0. 0. 0. 0. 0. 0.
      0. 0. 0. 0. 0. 0. 0. 0. 0.</_>
    <_>
      110. 100. 100. 100. 104. 90. 76. 71. 94. 0. 0. 0. 1. 2. 0. 32. 22.
      54. 0. 0. 0. 0. 0. 0. 0. 0. 0. 0. 0. 0. 0. 0. 0. 0. 0. 0. 0. 0. 0.
      0. 0. 0. 0. 0. 0. 0. 0. 0.</_>
    <_>
      110. 100. 100. 100. 43. 105. 78. 75. 94. 0. 0. 0. 0. 0. 0. 0. 0.
      5. 56. 0. 0. 0. 0. 0. 0. 0. 2. 3. 0. 0. 0. 0. 0. 0. 0. 0. 0. 0. 0.
      0. 0. 0. 0. 0. 0. 0. 0. 0.</_>
    <_>
      110. 100. 100. 100. 60. 94. 78. 71. 94. 0. 0. 0. 0. 0. 0. 0. 8.
      54. 2. 3. 0. 1. 2. 0. 0. 0. 0. 0. 0. 0. 0. 0. 0. 0. 0. 0. 0. 0. 0.
      0. 0. 0. 0. 0. 0. 0. 0. 0.</_>
    <_>
      110. 100. 100. 100. 33. 77. 110. 91. 94. 0. 0. 0. 12. 8. 0. 0. 0.
      0. 0. 0. 0. 0. 0. 0. 0. 27. 14. 0. 0. 0. 0. 0. 0. 0. 0. 0. 0. 0.
      0. 0. 0. 0. 0. 0. 0. 0. 0. 0.</_>
    <_>
      110. 100. 100. 100. 77. 77. 80. 73. 94. 0. 0. 0. 0. 1. 5. 25. 37.
      0. 0. 0. 0. 0. 0. 0. 0. 3. 1. 0. 0. 0. 0. 0. 0. 0. 0. 0. 0. 0. 0.
      0. 0. 0. 0. 0. 0. 0. 0. 0.</_>
    <_>
      110. 100. 100. 100. 71. 77. 85. 139. 100. 0. 0. 0. 0. 0. 0. 19.
      43. 0. 0. 0. 0. 0. 0. 0. 0. 0. 0. 28. 16. 13. 0. 0. 0. 0. 0. 0. 0.
      0. 0. 0. 0. 0. 0. 0. 0. 0. 0. 0.</_>
    <_>
      110. 100. 100. 100. 105. 101. 83. 72. 94. 0. 0. 0. 0. 44. 19. 0.
      0. 21. 40. 0. 0. 0. 0. 0. 2. 4. 0. 0. 0. 0. 0. 0. 0. 0. 0. 0. 0.
      0. 0. 0. 0. 0. 0. 0. 0. 0. 0. 0.</_>
    <_>
      110. 100. 100. 100. 18. 77. 125. 75. 94. 0. 0. 0. 1. 0. 0. 1. 2.
      1. 0. 0. 0. 0. 0. 0. 29. 12. 0. 0. 0. 0. 0. 0. 0. 0. 0. 0. 0. 0.
      0. 0. 0. 0. 0. 0. 0. 0. 0. 0.</_>
    <_>
      110. 100. 100. 100. 59. 77. 143. 96. 94. 0. 0. 0. 0. 0. 2. 38. 9.
      0. 0. 0. 0. 0. 0. 0. 3. 67. 0. 0. 0. 0. 0. 0. 0. 0. 0. 0. 0. 0. 0.
      0. 0. 0. 0. 0. 0. 0. 0. 0.</_>
    <_>
      110. 100. 100. 100. 27. 111. 88. 126. 94. 0. 0. 0. 0. 0. 0. 4. 1.
      0. 0. 36. 9. 0. 0. 0. 0. 0. 0. 36. 10. 0. 0. 0. 0. 0. 0. 0. 0. 0.
      0. 0. 0. 0. 0. 0. 0. 0. 0. 0.</_>
    <_>
      110. 100. 100. 100. 26. 122. 76. 123. 100. 0. 0. 0. 0. 0. 0. 0. 0.
      0. 0. 57. 3. 0. 0. 0. 0. 0. 0. 0. 26. 13. 0. 0. 0. 0. 0. 0. 0. 0.
      0. 0. 0. 0. 0. 0. 0. 0. 0. 0.</_>
    <_>
      110. 100. 100. 100. 97. 77. 76. 76. 97. 0. 0. 0. 40. 40. 1. 1. 8.
      0. 0. 0. 0. 0. 0. 0. 0. 0. 0. 0. 0. 3. 2. 0. 0. 0. 0. 0. 0. 0. 0.
      0. 0. 0. 0. 0. 0. 0. 0. 0.</_>
    <_>
      110. 100. 100. 100. 59. 79. 76. 81. 113. 0. 0. 0. 23. 23. 1. 1. 0.
      0. 0. 0. 2. 0. 0. 0. 0. 0. 0. 0. 0. 0. 9. 7. 0. 0. 0. 0. 0. 0. 0.
      0. 0. 0. 0. 0. 0. 0. 0. 0.</_>
    <_>
      110. 100. 100. 100. 65. 78. 82. 71. 94. 0. 0. 0. 0. 8. 1. 46. 0.
      0. 0. 0. 0. 0. 1. 5. 0. 0. 0. 0. 0. 0. 0. 0. 0. 0. 0. 0. 0. 0. 0.
      0. 0. 0. 0. 0. 0. 0. 0. 0.</_>
    <_>
      110. 100. 100. 100. 36. 77. 76. 91. 138. 0. 0. 0. 0. 1. 2. 20. 2.
      0. 0. 0. 0. 0. 0. 0. 0. 0. 0. 0. 0. 0. 18. 19. 0. 0. 0. 0. 0. 0.
      0. 0. 0. 0. 0. 0. 0. 0. 0. 0.</_>
    <_>
      110. 100. 100. 100. 40. 105. 76. 80. 96. 0. 0. 0. 0. 0. 3. 7. 3.
      1. 19. 26. 0. 0. 0. 0. 0. 0. 0. 0. 3. 5. 0. 0. 0. 0. 0. 0. 0. 0.
      0. 0. 0. 0. 0. 0. 0. 0. 0. 0.</_>
    <_>
      110. 100. 100. 100. 62. 80. 88. 87. 94. 0. 0. 0. 0. 28. 18. 1. 2.
      0. 6. 1. 0. 0. 0. 1. 1. 0. 11. 7. 0. 0. 0. 0. 0. 0. 0. 0. 0. 0. 0.
      0. 0. 0. 0. 0. 0. 0. 0. 0.</_>
    <_>
      110. 100. 100. 100. 57. 77. 119. 82. 94. 0. 0. 0. 1. 0. 5. 41. 0.
      0. 0. 0. 0. 0. 0. 0. 11. 30. 0. 0. 0. 0. 0. 0. 0. 0. 0. 0. 0. 0.
      0. 0. 0. 0. 0. 0. 0. 0. 0. 0.</_>
    <_>
      110. 100. 100. 100. 74. 79. 79. 126. 94. 0. 0. 0. 19. 44. 2. 0. 0.
      0. 0. 2. 1. 0. 0. 0. 0. 0. 0. 8. 31. 0. 0. 0. 0. 0. 0. 0. 0. 0. 0.
      0. 0. 0. 0. 0. 0. 0. 0. 0.</_>
    <_>
      110. 100. 100. 100. 59. 93. 76. 71. 94. 0. 0. 0. 10. 10. 0. 0. 0.
      23. 22. 0. 0. 0. 0. 0. 0. 0. 0. 0. 0. 0. 0. 0. 0. 0. 0. 0. 0. 0.
      0. 0. 0. 0. 0. 0. 0. 0. 0. 0.</_>
    <_>
      110. 100. 100. 100. 77. 77. 76. 71. 94. 0. 0. 0. 1. 0. 18. 30. 19.
      0. 0. 0. 0. 0. 0. 0. 0. 0. 0. 0. 0. 0. 0. 0. 0. 0. 0. 0. 0. 0. 0.
      0. 0. 0. 0. 0. 0. 0. 0. 0.</_>
    <_>
      110. 100. 100. 100. 97. 99. 76. 71. 94. 0. 0. 0. 2. 1. 1. 32. 31.
      0. 43. 2. 0. 0. 0. 0. 0. 0. 0. 0. 0. 0. 0. 0. 0. 0. 0. 0. 0. 0. 0.
      0. 0. 0. 0. 0. 0. 0. 0. 0.</_>
    <_>
      110. 100. 100. 100. 74. 77. 118. 83. 94. 0. 0. 0. 0. 0. 0. 8. 56.
      0. 0. 0. 0. 0. 0. 0. 9. 32. 0. 0. 0. 0. 0. 0. 0. 0. 0. 0. 0. 0. 0.
      0. 0. 0. 0. 0. 0. 0. 0. 0.</_>
    <_>
      110. 100. 100. 100. 107. 89. 76. 71. 94. 0. 0. 0. 0. 8. 57. 1. 2.
      39. 6. 0. 0. 0. 0. 0. 0. 0. 0. 0. 0. 0. 0. 0. 0. 0. 0. 0. 0. 0. 0.
      0. 0. 0. 0. 0. 0. 0. 0. 0.</_>
    <_>
      110. 100. 100. 100. 77. 99. 76. 94. 137. 0. 0. 0. 18. 28. 0. 0. 0.
      0. 45. 0. 0. 0. 0. 0. 0. 0. 0. 0. 0. 0. 25. 13. 0. 0. 0. 0. 0. 0.
      0. 0. 0. 0. 0. 0. 0. 0. 0. 0.</_>
    <_>
      110. 100. 100. 100. 92. 99. 76. 74. 100. 0. 0. 0. 0. 0. 25. 37. 0.
      0. 45. 0. 0. 0. 0. 0. 0. 0. 0. 0. 0. 0. 2. 3. 0. 0. 0. 0. 0. 0. 0.
      0. 0. 0. 0. 0. 0. 0. 0. 0.</_>
    <_>
      110. 100. 100. 100. 104. 91. 81. 71. 94. 0. 0. 0. 0. 0. 0. 46. 16.
      47. 0. 0. 0. 0. 4. 2. 0. 0. 0. 0. 0. 0. 0. 0. 0. 0. 0. 0. 0. 0. 0.
      0. 0. 0. 0. 0. 0. 0. 0. 0.</_>
    <_>
      110. 100. 100. 100. 115. 93. 109. 71. 94. 0. 0. 0. 0. 42. 29. 37.
      0. 0. 0. 0. 0. 0. 22. 20. 0. 0. 0. 0. 0. 0. 0. 0. 0. 0. 0. 0. 0.
      0. 0. 0. 0. 0. 0. 0. 0. 0. 0. 0.</_>
    <_>
      110. 100. 100. 100. 74. 80. 79. 71. 94. 0. 0. 0. 25. 37. 1. 2. 0.
      0. 0. 0. 0. 2. 4. 0. 0. 0. 0. 0. 0. 0. 0. 0. 0. 0. 0. 0. 0. 0. 0.
      0. 0. 0. 0. 0. 0. 0. 0. 0.</_>
    <_>
      110. 100. 100. 100. 15. 101. 99. 102. 125. 0. 0. 0. 0. 0. 2. 0. 0.
      0. 0. 0. 0. 14. 29. 0. 0. 0. 0. 0. 0. 11. 27. 0. 0. 0. 0. 0. 0. 0.
      0. 0. 0. 0. 0. 0. 0. 0. 0. 0.</_>
    <_>
      110. 100. 100. 100. 102. 104. 76. 71. 94. 0. 0. 0. 31. 31. 0. 0.
      0. 10. 51. 0. 0. 0. 0. 0. 0. 0. 0. 0. 0. 0. 0. 0. 0. 0. 0. 0. 0.
      0. 0. 0. 0. 0. 0. 0. 0. 0. 0. 0.</_>
    <_>
      110. 100. 100. 100. 46. 104. 78. 73. 94. 0. 0. 0. 0. 0. 0. 1. 1.
      8. 52. 0. 0. 0. 0. 0. 0. 0. 2. 0. 0. 0. 0. 0. 0. 0. 0. 0. 0. 0. 0.
      0. 0. 0. 0. 0. 0. 0. 0. 0.</_>
    <_>
      110. 100. 100. 100. 13. 166. 128. 71. 94. 0. 0. 0. 0. 0. 0. 0. 0.
      0. 0. 0. 0. 99. 34. 0. 0. 0. 0. 0. 0. 0. 0. 0. 0. 0. 0. 0. 0. 0.
      0. 0. 0. 0. 0. 0. 0. 0. 0. 0.</_>
    <_>
      110. 100. 100. 100. 53. 152. 82. 71. 94. 0. 0. 0. 0. 2. 1. 0. 22.
      24. 0. 0. 58. 18. 0. 0. 0. 0. 0. 0. 0. 0. 0. 0. 0. 0. 0. 0. 0. 0.
      0. 0. 0. 0. 0. 0. 0. 0. 0. 0.</_>
    <_>
      110. 100. 100. 100. 78. 82. 76. 71. 94. 0. 0. 0. 0. 42. 5. 0. 21.
      1. 1. 6. 0. 0. 0. 0. 0. 0. 0. 0. 0. 0. 0. 0. 0. 0. 0. 0. 0. 0. 0.
      0. 0. 0. 0. 0. 0. 0. 0. 0.</_>
    <_>
      110. 100. 100. 100. 85. 82. 76. 71. 94. 0. 0. 0. 0. 14. 6. 0. 39.
      23. 0. 0. 0. 0. 0. 0. 0. 0. 0. 0. 0. 0. 0. 0. 0. 0. 0. 0. 0. 0. 0.
      0. 0. 0. 0. 0. 0. 0. 0. 0.</_>
    <_>
      110. 100. 100. 100. 200. 77. 76. 71. 94. 0. 0. 0. 24. 62. 56. 37.
      25. 0. 0. 0. 0. 0. 0. 0. 0. 0. 0. 0. 0. 0. 0. 0. 0. 0. 0. 0. 0. 0.
      0. 0. 0. 0. 0. 0. 0. 0. 0. 0.</_>
    <_>
      110. 100. 100. 100. 57. 78. 77. 72. 94. 0. 0. 0. 0. 0. 0. 0. 43.
      3. 2. 0. 0. 0. 0. 0. 0. 0. 1. 1. 0. 0. 0. 0. 0. 0. 0. 0. 0. 0. 0.
      0. 0. 0. 0. 0. 0. 0. 0. 0.</_>
    <_>
      110. 100. 100. 100. 16. 79. 76. 88. 142. 0. 0. 0. 0. 1. 2. 0. 0.
      0. 0. 0. 3. 0. 0. 0. 0. 0. 0. 0. 0. 0. 10. 27. 0. 0. 0. 0. 0. 0.
      0. 0. 0. 0. 0. 0. 0. 0. 0. 0.</_>
    <_>
      110. 100. 100. 100. 63. 104. 95. 108. 94. 0. 0. 0. 0. 0. 1. 2. 0.
      45. 32. 0. 0. 0. 0. 0. 0. 0. 20. 20. 0. 0. 0. 0. 0. 0. 0. 0. 0. 0.
      0. 0. 0. 0. 0. 0. 0. 0. 0. 0.</_>
    <_>
      110. 100. 100. 100. 55. 95. 76. 71. 94. 0. 0. 0. 0. 0. 0. 0. 0.
      53. 10. 2. 0. 0. 0. 0. 0. 0. 0. 0. 0. 0. 0. 0. 0. 0. 0. 0. 0. 0.
      0. 0. 0. 0. 0. 0. 0. 0. 0. 0.</_>
    <_>
      110. 100. 100. 100. 64. 88. 77. 103. 125. 0. 0. 0. 0. 0. 21. 0. 0.
      44. 2. 0. 0. 0. 0. 0. 0. 0. 0. 1. 0. 11. 27. 0. 0. 0. 0. 0. 0. 0.
      0. 0. 0. 0. 0. 0. 0. 0. 0. 0.</_>
    <_>
      110. 100. 100. 100. 80. 77. 83. 89. 94. 0. 0. 0. 31. 31. 0. 0. 9.
      0. 0. 0. 0. 0. 0. 0. 0. 0. 4. 14. 0. 0. 0. 0. 0. 0. 0. 0. 0. 0. 0.
      0. 0. 0. 0. 0. 0. 0. 0. 0.</_>
    <_>
      110. 100. 100. 100. 53. 79. 78. 78. 94. 0. 0. 0. 0. 0. 0. 0. 35.
      11. 0. 0. 0. 0. 0. 0. 0. 0. 0. 4. 1. 0. 0. 0. 0. 0. 0. 0. 0. 0. 0.
      0. 0. 0. 0. 0. 0. 0. 0. 0.</_>
    <_>
      110. 100. 100. 100. 21. 87. 87. 71. 94. 0. 0. 0. 1. 1. 1. 3. 2. 0.
      0. 0. 0. 4. 15. 0. 0. 0. 0. 0. 0. 0. 0. 0. 0. 0. 0. 0. 0. 0. 0. 0.
      0. 0. 0. 0. 0. 0. 0. 0.</_>
    <_>
      110. 100. 100. 100. 78. 90. 114. 73. 94. 0. 0. 0. 60. 10. 0. 0. 0.
      0. 0. 0. 0. 0. 11. 31. 0. 0. 1. 2. 0. 0. 0. 0. 0. 0. 0. 0. 0. 0.
      0. 0. 0. 0. 0. 0. 0. 0. 0. 0.</_>
    <_>
      110. 100. 100. 100. 78. 77. 76. 71. 94. 0. 0. 0. 14. 35. 17. 4. 0.
      0. 0. 0. 0. 0. 0. 0. 0. 0. 0. 0. 0. 0. 0. 0. 0. 0. 0. 0. 0. 0. 0.
      0. 0. 0. 0. 0. 0. 0. 0. 0.</_>
    <_>
      110. 100. 100. 100. 17. 80. 92. 111. 94. 0. 0. 0. 0. 2. 1. 0. 0.
      0. 0. 5. 0. 0. 0. 0. 0. 0. 11. 29. 0. 0. 0. 0. 0. 0. 0. 0. 0. 0.
      0. 0. 0. 0. 0. 0. 0. 0. 0. 0.</_>
    <_>
      110. 100. 100. 100. 105. 130. 76. 72. 98. 0. 0. 0. 0. 0. 0. 43.
      19. 33. 12. 18. 26. 0. 0. 0. 0. 0. 0. 0. 0. 1. 0. 0. 2. 0. 0. 0.
      0. 0. 0. 0. 0. 0. 0. 0. 0. 0. 0. 0.</_>
    <_>
      110. 100. 100. 100. 48. 141. 107. 71. 94. 0. 0. 0. 0. 0. 3. 2. 0.
      1. 61. 2. 0. 19. 39. 0. 0. 0. 0. 0. 0. 0. 0. 0. 0. 0. 0. 0. 0. 0.
      0. 0. 0. 0. 0. 0. 0. 0. 0. 0.</_>
    <_>
      110. 100. 100. 100. 99. 77. 76. 72. 97. 0. 0. 0. 0. 0. 0. 55. 37.
      0. 0. 0. 0. 0. 0. 0. 0. 0. 0. 0. 0. 0. 0. 2. 0. 0. 0. 0. 0. 0. 0.
      0. 0. 0. 0. 0. 0. 0. 0. 0.</_>
    <_>
      110. 100. 100. 100. 79. 117. 77. 81. 94. 0. 0. 0. 62. 0. 1. 3. 0.
      0. 0. 10. 34. 0. 0. 0. 0. 0. 0. 3. 5. 0. 0. 0. 0. 0. 0. 0. 0. 0.
      0. 0. 0. 0. 0. 0. 0. 0. 0. 0.</_>
    <_>
      110. 100. 100. 100. 81. 96. 76. 71. 94. 0. 0. 0. 0. 1. 0. 28. 18.
      11. 34. 0. 0. 0. 0. 0. 0. 0. 0. 0. 0. 0. 0. 0. 0. 0. 0. 0. 0. 0.
      0. 0. 0. 0. 0. 0. 0. 0. 0. 0.</_>
    <_>
      110. 100. 100. 100. 36. 98. 119. 84. 94. 0. 0. 0. 0. 0. 0. 0. 0.
      7. 38. 0. 0. 0. 2. 1. 5. 37. 0. 0. 0. 0. 0. 0. 0. 0. 0. 0. 0. 0.
      0. 0. 0. 0. 0. 0. 0. 0. 0. 0.</_>
    <_>
      110. 100. 100. 100. 95. 119. 98. 71. 95. 0. 0. 0. 0. 27. 56. 0. 0.
      4. 2. 0. 0. 47. 11. 0. 0. 0. 0. 0. 0. 0. 0. 0. 1. 0. 0. 0. 0. 0.
      0. 0. 0. 0. 0. 0. 0. 0. 0. 0.</_>
    <_>
      110. 100. 100. 100. 80. 146. 76. 71. 94. 0. 0. 0. 0. 0. 12. 8. 0.
      35. 11. 76. 0. 0. 0. 0. 0. 0. 0. 0. 0. 0. 0. 0. 0. 0. 0. 0. 0. 0.
      0. 0. 0. 0. 0. 0. 0. 0. 0. 0.</_>
    <_>
      110. 100. 100. 100. 66. 87. 76. 71. 94. 0. 0. 0. 0. 0. 0. 19. 28.
      0. 18. 2. 0. 0. 0. 0. 0. 0. 0. 0. 0. 0. 0. 0. 0. 0. 0. 0. 0. 0. 0.
      0. 0. 0. 0. 0. 0. 0. 0. 0.</_>
    <_>
      110. 100. 100. 100. 37. 77. 77. 72. 94. 0. 0. 0. 15. 11. 0. 0. 0.
      0. 0. 0. 0. 0. 0. 0. 0. 0. 1. 0. 0. 0. 0. 0. 0. 0. 0. 0. 0. 0. 0.
      0. 0. 0. 0. 0. 0. 0. 0. 0.</_>
    <_>
      110. 100. 100. 100. 91. 92. 76. 79. 94. 0. 0. 0. 0. 0. 0. 41. 5.
      43. 10. 0. 0. 0. 0. 0. 0. 0. 0. 0. 5. 1. 0. 0. 0. 0. 0. 0. 0. 0.
      0. 0. 0. 0. 0. 0. 0. 0. 0. 0.</_>
    <_>
      110. 100. 100. 100. 61. 77. 76. 73. 97. 0. 0. 0. 1. 38. 9. 2. 1.
      0. 0. 0. 0. 0. 0. 0. 0. 0. 0. 0. 0. 1. 1. 2. 0. 0. 0. 0. 0. 0. 0.
      0. 0. 0. 0. 0. 0. 0. 0. 0.</_>
    <_>
      110. 100. 100. 100. 74. 108. 90. 71. 94. 0. 0. 0. 2. 20. 44. 0. 0.
      0. 0. 0. 0. 42. 1. 0. 0. 0. 0. 0. 0. 0. 0. 0. 0. 0. 0. 0. 0. 0. 0.
      0. 0. 0. 0. 0. 0. 0. 0. 0.</_>
    <_>
      110. 100. 100. 100. 76. 77. 76. 71. 94. 0. 0. 0. 1. 2. 0. 26. 39.
      0. 0. 0. 0. 0. 0. 0. 0. 0. 0. 0. 0. 0. 0. 0. 0. 0. 0. 0. 0. 0. 0.
      0. 0. 0. 0. 0. 0. 0. 0. 0.</_>
    <_>
      110. 100. 100. 100. 111. 114. 79. 75. 94. 0. 0. 0. 0. 0. 0. 0. 4.
      125. 13. 0. 0. 0. 0. 0. 0. 0. 3. 2. 0. 0. 0. 0. 0. 0. 0. 0. 0. 0.
      0. 0. 0. 0. 0. 0. 0. 0. 0. 0.</_>
    <_>
      110. 100. 100. 100. 24. 77. 80. 124. 94. 0. 0. 0. 0. 0. 0. 4. 8.
      0. 0. 0. 0. 0. 0. 0. 0. 0. 0. 11. 28. 0. 0. 0. 0. 0. 0. 0. 0. 0.
      0. 0. 0. 0. 0. 0. 0. 0. 0. 0.</_>
    <_>
      110. 100. 100. 100. 79. 93. 76. 71. 94. 0. 0. 0. 1. 12. 5. 0. 4.
      62. 1. 0. 0. 0. 0. 0. 0. 0. 0. 0. 0. 0. 0. 0. 0. 0. 0. 0. 0. 0. 0.
      0. 0. 0. 0. 0. 0. 0. 0. 0.</_>
    <_>
      110. 100. 100. 100. 41. 95. 76. 108. 119. 0. 0. 0. 0. 0. 2. 0. 0.
      17. 29. 0. 0. 0. 0. 0. 0. 0. 0. 0. 0. 24. 13. 0. 0. 0. 0. 0. 0. 0.
      0. 0. 0. 0. 0. 0. 0. 0. 0. 0.</_>
    <_>
      110. 100. 100. 100. 73. 106. 76. 71. 94. 0. 0. 0. 32. 14. 0. 2. 0.
      0. 15. 30. 0. 0. 0. 0. 0. 0. 0. 0. 0. 0. 0. 0. 0. 0. 0. 0. 0. 0.
      0. 0. 0. 0. 0. 0. 0. 0. 0. 0.</_>
    <_>
      110. 100. 100. 100. 13. 83. 148. 91. 94. 0. 0. 0. 0. 0. 0. 0. 0.
      0. 0. 0. 6. 1. 1. 0. 16. 55. 0. 0. 0. 0. 0. 0. 0. 0. 0. 0. 0. 0.
      0. 0. 0. 0. 0. 0. 0. 0. 0. 0.</_>
    <_>
      110. 100. 100. 100. 98. 119. 115. 71. 94. 0. 0. 0. 0. 4. 70. 16.
      0. 0. 0. 0. 0. 25. 49. 0. 0. 0. 0. 0. 0. 0. 0. 0. 0. 0. 0. 0. 0.
      0. 0. 0. 0. 0. 0. 0. 0. 0. 0. 0.</_>
    <_>
      110. 100. 100. 100. 134. 79. 84. 88. 94. 0. 0. 0. 6. 106. 12. 0.
      0. 2. 4. 0. 0. 0. 0. 0. 0. 0. 8. 10. 0. 0. 0. 0. 0. 0. 0. 0. 0. 0.
      0. 0. 0. 0. 0. 0. 0. 0. 0. 0.</_>
    <_>
      110. 100. 100. 100. 175. 77. 76. 71. 94. 0. 0. 0. 57. 21. 59. 37.
      0. 0. 0. 0. 0. 0. 0. 0. 0. 0. 0. 0. 0. 0. 0. 0. 0. 0. 0. 0. 0. 0.
      0. 0. 0. 0. 0. 0. 0. 0. 0. 0.</_>
    <_>
      110. 100. 100. 100. 178. 87. 76. 71. 94. 0. 0. 0. 0. 14. 103. 8.
      18. 44. 0. 0. 0. 0. 0. 0. 0. 0. 0. 0. 0. 0. 0. 0. 0. 0. 0. 0. 0.
      0. 0. 0. 0. 0. 0. 0. 0. 0. 0. 0.</_>
    <_>
      110. 100. 100. 100. 84. 130. 83. 74. 95. 0. 0. 0. 0. 0. 0. 0. 49.
      5. 19. 58. 0. 0. 0. 0. 2. 4. 0. 0. 0. 1. 1. 0. 0. 0. 0. 0. 0. 0.
      0. 0. 0. 0. 0. 0. 0. 0. 0. 0.</_>
    <_>
      110. 100. 100. 100. 88. 78. 126. 71. 94. 0. 0. 0. 24. 55. 1. 0. 0.
      0. 0. 0. 0. 0. 0. 7. 34. 0. 0. 0. 0. 0. 0. 0. 0. 0. 0. 0. 0. 0. 0.
      0. 0. 0. 0. 0. 0. 0. 0. 0.</_>
    <_>
      110. 100. 100. 100. 106. 78. 77. 71. 94. 0. 0. 0. 3. 7. 0. 14. 71.
      7. 0. 0. 0. 0. 0. 0. 0. 1. 0. 0. 0. 0. 0. 0. 0. 0. 0. 0. 0. 0. 0.
      0. 0. 0. 0. 0. 0. 0. 0. 0.</_>
    <_>
      110. 100. 100. 100. 91. 77. 97. 106. 94. 0. 0. 0. 0. 4. 41. 37. 0.
      0. 0. 0. 0. 0. 0. 0. 0. 0. 26. 14. 0. 0. 0. 0. 0. 0. 0. 0. 0. 0.
      0. 0. 0. 0. 0. 0. 0. 0. 0. 0.</_>
    <_>
      110. 100. 100. 100. 71. 119. 98. 96. 94. 0. 0. 0. 6. 56. 0. 0. 0.
      0. 0. 0. 0. 52. 7. 1. 0. 0. 0. 2. 16. 0. 0. 0. 0. 0. 0. 0. 0. 0.
      0. 0. 0. 0. 0. 0. 0. 0. 0. 0.</_>
    <_>
      110. 100. 100. 100. 142. 77. 76. 71. 94. 0. 0. 0. 9. 37. 28. 64.
      0. 0. 0. 0. 0. 0. 0. 0. 0. 0. 0. 0. 0. 0. 0. 0. 0. 0. 0. 0. 0. 0.
      0. 0. 0. 0. 0. 0. 0. 0. 0. 0.</_>
    <_>
      110. 100. 100. 100. 45. 95. 76. 71. 94. 0. 0. 0. 0. 3. 5. 0. 0.
      14. 31. 0. 0. 0. 0. 0. 0. 0. 0. 0. 0. 0. 0. 0. 0. 0. 0. 0. 0. 0.
      0. 0. 0. 0. 0. 0. 0. 0. 0. 0.</_>
    <_>
      110. 100. 100. 100. 67. 77. 76. 71. 94. 0. 0. 0. 14. 32. 0. 12. 0.
      0. 0. 0. 0. 0. 0. 0. 0. 0. 0. 0. 0. 0. 0. 0. 0. 0. 0. 0. 0. 0. 0.
      0. 0. 0. 0. 0. 0. 0. 0. 0.</_>
    <_>
      110. 100. 100. 100. 190. 77. 76. 71. 94. 0. 0. 0. 50. 92. 33. 14.
      0. 0. 0. 0. 0. 0. 0. 0. 0. 0. 0. 0. 0. 0. 0. 0. 0. 0. 0. 0. 0. 0.
      0. 0. 0. 0. 0. 0. 0. 0. 0. 0.</_>
    <_>
      110. 100. 100. 100. 94. 89. 76. 71. 94. 0. 0. 0. 0. 0. 0. 0. 47.
      52. 0. 0. 0. 0. 0. 0. 0. 0. 0. 0. 0. 0. 0. 0. 0. 0. 0. 0. 0. 0. 0.
      0. 0. 0. 0. 0. 0. 0. 0. 0.</_>
    <_>
      110. 100. 100. 100. 113. 113. 76. 71. 94. 0. 0. 0. 0. 17. 4. 37.
      9. 8. 69. 0. 0. 0. 0. 0. 0. 0. 0. 0. 0. 0. 0. 0. 0. 0. 0. 0. 0. 0.
      0. 0. 0. 0. 0. 0. 0. 0. 0. 0.</_>
    <_>
      110. 100. 100. 100. 78. 123. 101. 71. 94. 0. 0. 0. 0. 46. 0. 0. 0.
      1. 44. 0. 0. 12. 31. 0. 0. 1. 0. 0. 0. 0. 0. 0. 0. 0. 0. 0. 0. 0.
      0. 0. 0. 0. 0. 0. 0. 0. 0. 0.</_>
    <_>
      110. 100. 100. 100. 98. 143. 87. 71. 94. 0. 0. 0. 23. 23. 0. 0. 0.
      53. 8. 0. 26. 33. 0. 0. 0. 0. 0. 0. 0. 0. 0. 0. 0. 0. 0. 0. 0. 0.
      0. 0. 0. 0. 0. 0. 0. 0. 0. 0.</_>
    <_>
      110. 100. 100. 100. 56. 77. 76. 114. 111. 0. 0. 0. 42. 5. 0. 0. 0.
      0. 0. 0. 0. 0. 0. 0. 0. 0. 0. 0. 2. 36. 0. 0. 0. 0. 0. 0. 0. 0. 0.
      0. 0. 0. 0. 0. 0. 0. 0. 0.</_>
    <_>
      110. 100. 100. 100. 177. 106. 76. 72. 95. 0. 0. 0. 0. 2. 1. 8.
      103. 63. 28. 0. 0. 0. 0. 0. 0. 0. 0. 0. 0. 0. 1. 0. 0. 0. 0. 0. 0.
      0. 0. 0. 0. 0. 0. 0. 0. 0. 0. 0.</_>
    <_>
      110. 100. 100. 100. 22. 158. 112. 71. 94. 0. 0. 0. 0. 2. 1. 0. 0.
      0. 0. 27. 33. 2. 56. 0. 0. 0. 0. 0. 0. 0. 0. 0. 0. 0. 0. 0. 0. 0.
      0. 0. 0. 0. 0. 0. 0. 0. 0. 0.</_>
    <_>
      110. 100. 100. 100. 101. 86. 76. 71. 94. 0. 0. 0. 0. 23. 23. 1.
      17. 39. 0. 0. 0. 0. 0. 0. 0. 0. 0. 0. 0. 0. 0. 0. 0. 0. 0. 0. 0.
      0. 0. 0. 0. 0. 0. 0. 0. 0. 0. 0.</_>
    <_>
      110. 100. 100. 100. 148. 94. 79. 72. 94. 0. 0. 0. 0. 2. 47. 95. 0.
      0. 0. 0. 12. 7. 0. 0. 0. 0. 0. 1. 0. 0. 0. 0. 0. 0. 0. 0. 0. 0. 0.
      0. 0. 0. 0. 0. 0. 0. 0. 0.</_>
    <_>
      110. 100. 100. 100. 73. 131. 83. 71. 94. 0. 0. 0. 0. 0. 0. 56. 6.
      1. 1. 0. 40. 20. 0. 0. 0. 0. 0. 0. 0. 0. 0. 0. 0. 0. 0. 0. 0. 0.
      0. 0. 0. 0. 0. 0. 0. 0. 0. 0.</_>
    <_>
      110. 100. 100. 100. 56. 118. 78. 71. 94. 0. 0. 0. 0. 0. 0. 41. 5.
      0. 0. 0. 38. 6. 0. 0. 0. 0. 0. 0. 0. 0. 0. 0. 0. 0. 0. 0. 0. 0. 0.
      0. 0. 0. 0. 0. 0. 0. 0. 0.</_>
    <_>
      110. 100. 100. 100. 56. 77. 87. 71. 94. 0. 0. 0. 28. 18. 0. 0. 0.
      0. 0. 0. 0. 0. 0. 0. 8. 0. 0. 0. 0. 0. 0. 0. 0. 0. 0. 0. 0. 0. 0.
      0. 0. 0. 0. 0. 0. 0. 0. 0.</_>
    <_>
      110. 100. 100. 100. 148. 77. 77. 79. 94. 0. 0. 0. 16. 64. 58. 6.
      0. 0. 0. 0. 0. 0. 0. 0. 0. 0. 0. 2. 3. 0. 0. 0. 0. 0. 0. 0. 0. 0.
      0. 0. 0. 0. 0. 0. 0. 0. 0. 0.</_>
    <_>
      110. 100. 100. 100. 94. 116. 76. 71. 94. 0. 0. 0. 0. 0. 1. 65. 17.
      0. 0. 16. 28. 0. 0. 0. 0. 0. 0. 0. 0. 0. 0. 0. 0. 0. 0. 0. 0. 0.
      0. 0. 0. 0. 0. 0. 0. 0. 0. 0.</_>
    <_>
      110. 100. 100. 100. 56. 128. 104. 71. 94. 0. 0. 0. 0. 0. 0. 9. 37.
      0. 0. 0. 0. 60. 14. 0. 0. 0. 0. 0. 0. 0. 0. 0. 0. 0. 0. 0. 0. 0.
      0. 0. 0. 0. 0. 0. 0. 0. 0. 0.</_>
    <_>
      110. 100. 100. 100. 63. 81. 123. 71. 94. 0. 0. 0. 0. 42. 7. 5. 0.
      0. 0. 0. 0. 0. 0. 20. 22. 0. 0. 0. 0. 0. 0. 0. 0. 0. 0. 0. 0. 0.
      0. 0. 0. 0. 0. 0. 0. 0. 0. 0.</_>
    <_>
      110. 100. 100. 100. 56. 77. 76. 129. 97. 0. 0. 0. 0. 37. 9. 0. 0.
      0. 0. 0. 0. 0. 0. 0. 0. 0. 0. 0. 37. 2. 1. 1. 0. 0. 0. 0. 0. 0. 0.
      0. 0. 0. 0. 0. 0. 0. 0. 0.</_>
    <_>
      110. 100. 100. 100. 99. 124. 77. 74. 94. 0. 0. 0. 0. 0. 0. 0. 0.
      86. 54. 0. 0. 0. 0. 0. 0. 0. 0. 0. 2. 0. 0. 0. 0. 0. 0. 0. 0. 0.
      0. 0. 0. 0. 0. 0. 0. 0. 0. 0.</_>
    <_>
      110. 100. 100. 100. 150. 99. 76. 71. 94. 0. 0. 0. 0. 0. 62. 0. 23.
      76. 9. 0. 0. 0. 0. 0. 0. 0. 0. 0. 0. 0. 0. 0. 0. 0. 0. 0. 0. 0. 0.
      0. 0. 0. 0. 0. 0. 0. 0. 0.</_>
    <_>
      110. 100. 100. 100. 108. 85. 76. 71. 94. 0. 0. 0. 0. 0. 0. 25. 50.
      35. 0. 0. 0. 0. 0. 0. 0. 0. 0. 0. 0. 0. 0. 0. 0. 0. 0. 0. 0. 0. 0.
      0. 0. 0. 0. 0. 0. 0. 0. 0.</_>
    <_>
      110. 100. 100. 100. 78. 77. 76. 71. 94. 0. 0. 0. 0. 40. 25. 0. 4.
      1. 0. 0. 0. 0. 0. 0. 0. 0. 0. 0. 0. 0. 0. 0. 0. 0. 0. 0. 0. 0. 0.
      0. 0. 0. 0. 0. 0. 0. 0. 0.</_>
    <_>
      110. 100. 100. 100. 61. 77. 76. 78. 95. 0. 0. 0. 0. 0. 2. 21. 28.
      0. 0. 0. 0. 0. 0. 0. 0. 0. 0. 0. 2. 4. 0. 0. 0. 0. 0. 0. 0. 0. 0.
      0. 0. 0. 0. 0. 0. 0. 0. 0.</_>
    <_>
      110. 100. 100. 100. 100. 93. 76. 71. 94. 0. 0. 0. 0. 0. 0. 0. 56.
      42. 13. 0. 0. 0. 0. 0. 0. 0. 0. 0. 0. 0. 0. 0. 0. 0. 0. 0. 0. 0.
      0. 0. 0. 0. 0. 0. 0. 0. 0. 0.</_>
    <_>
      110. 100. 100. 100. 48. 90. 76. 71. 94. 0. 0. 0. 0. 0. 0. 0. 1.
      46. 4. 0. 0. 0. 0. 0. 0. 0. 0. 0. 0. 0. 0. 0. 0. 0. 0. 0. 0. 0. 0.
      0. 0. 0. 0. 0. 0. 0. 0. 0.</_>
    <_>
      110. 100. 100. 100. 20. 115. 82. 71. 94. 0. 0. 0. 0. 5. 3. 0. 0.
      0. 0. 0. 27. 17. 0. 0. 0. 0. 0. 0. 0. 0. 0. 0. 0. 0. 0. 0. 0. 0.
      0. 0. 0. 0. 0. 0. 0. 0. 0. 0.</_>
    <_>
      110. 100. 100. 100. 140. 140. 76. 71. 94. 0. 0. 0. 0. 56. 6. 0. 0.
      24. 109. 5. 0. 0. 0. 0. 0. 0. 0. 0. 0. 0. 0. 0. 0. 0. 0. 0. 0. 0.
      0. 0. 0. 0. 0. 0. 0. 0. 0. 0.</_>
    <_>
      110. 100. 100. 100. 117. 105. 76. 73. 95. 0. 0. 0. 71. 8. 0. 0. 0.
      5. 56. 0. 0. 0. 0. 0. 0. 0. 0. 0. 0. 1. 1. 0. 0. 0. 0. 0. 0. 0. 0.
      0. 0. 0. 0. 0. 0. 0. 0. 0.</_>
    <_>
      110. 100. 100. 100. 88. 103. 76. 73. 121. 0. 0. 0. 0. 0. 0. 31.
      31. 0. 26. 19. 0. 0. 0. 0. 0. 0. 0. 0. 0. 0. 0. 6. 10. 0. 0. 0. 0.
      0. 0. 0. 0. 0. 0. 0. 0. 0. 0. 0.</_>
    <_>
      110. 100. 100. 100. 83. 82. 76. 71. 94. 0. 0. 0. 0. 7. 3. 12. 50.
      0. 5. 4. 0. 0. 0. 0. 0. 0. 0. 0. 0. 0. 0. 0. 0. 0. 0. 0. 0. 0. 0.
      0. 0. 0. 0. 0. 0. 0. 0. 0.</_>
    <_>
      110. 100. 100. 100. 81. 84. 91. 71. 94. 0. 0. 0. 0. 2. 7. 31. 31.
      1. 0. 0. 0. 0. 10. 9. 0. 0. 0. 0. 0. 0. 0. 0. 0. 0. 0. 0. 0. 0. 0.
      0. 0. 0. 0. 0. 0. 0. 0. 0.</_>
    <_>
      110. 100. 100. 100. 28. 155. 105. 71. 94. 0. 0. 0. 0. 0. 0. 0. 0.
      0. 4. 57. 0. 24. 34. 0. 0. 0. 0. 0. 0. 0. 0. 0. 0. 0. 0. 0. 0. 0.
      0. 0. 0. 0. 0. 0. 0. 0. 0. 0.</_>
    <_>
      110. 100. 100. 100. 92. 106. 76. 71. 94. 0. 0. 0. 0. 0. 5. 41. 7.
      3. 58. 0. 0. 0. 0. 0. 0. 0. 0. 0. 0. 0. 0. 0. 0. 0. 0. 0. 0. 0. 0.
      0. 0. 0. 0. 0. 0. 0. 0. 0.</_>
    <_>
      110. 100. 100. 100. 19. 93. 125. 71. 94. 0. 0. 0. 0. 0. 0. 0. 0.
      0. 5. 15. 0. 0. 0. 11. 31. 0. 0. 0. 0. 0. 0. 0. 0. 0. 0. 0. 0. 0.
      0. 0. 0. 0. 0. 0. 0. 0. 0. 0.</_>
    <_>
      110. 100. 100. 100. 168. 99. 76. 71. 94. 0. 0. 0. 0. 24. 55. 40.
      25. 0. 42. 3. 0. 0. 0. 0. 0. 0. 0. 0. 0. 0. 0. 0. 0. 0. 0. 0. 0.
      0. 0. 0. 0. 0. 0. 0. 0. 0. 0. 0.</_>
    <_>
      110. 100. 100. 100. 93. 77. 76. 71. 94. 0. 0. 0. 0. 17. 43. 27. 0.
      0. 0. 0. 0. 0. 0. 0. 0. 0. 0. 0. 0. 0. 0. 0. 0. 0. 0. 0. 0. 0. 0.
      0. 0. 0. 0. 0. 0. 0. 0. 0.</_>
    <_>
      110. 100. 100. 100. 89. 77. 78. 168. 94. 0. 0. 0. 1. 1. 16. 63. 0.
      0. 0. 0. 0. 0. 0. 0. 0. 0. 0. 4. 62. 0. 0. 0. 0. 0. 0. 0. 0. 0. 0.
      0. 0. 0. 0. 0. 0. 0. 0. 0.</_>
    <_>
      110. 100. 100. 100. 93. 77. 76. 71. 94. 0. 0. 0. 15. 6. 56. 7. 2.
      0. 0. 0. 0. 0. 0. 0. 0. 0. 0. 0. 0. 0. 0. 0. 0. 0. 0. 0. 0. 0. 0.
      0. 0. 0. 0. 0. 0. 0. 0. 0.</_>
    <_>
      110. 100. 100. 100. 66. 141. 76. 83. 159. 0. 0. 0. 0. 0. 0. 0. 0.
      28. 47. 46. 0. 0. 0. 0. 0. 0. 0. 0. 0. 0. 0. 32. 9. 0. 0. 0. 0. 0.
      0. 0. 0. 0. 0. 0. 0. 0. 0. 0.</_>
    <_>
      110. 100. 100. 100. 59. 96. 76. 71. 94. 0. 0. 0. 15. 6. 2. 1. 0.
      11. 34. 0. 0. 0. 0. 0. 0. 0. 0. 0. 0. 0. 0. 0. 0. 0. 0. 0. 0. 0.
      0. 0. 0. 0. 0. 0. 0. 0. 0. 0.</_>
    <_>
      110. 100. 100. 100. 58. 91. 77. 73. 94. 0. 0. 0. 0. 0. 0. 1. 4.
      58. 0. 0. 0. 0. 0. 0. 0. 0. 1. 1. 0. 0. 0. 0. 0. 0. 0. 0. 0. 0. 0.
      0. 0. 0. 0. 0. 0. 0. 0. 0.</_>
    <_>
      110. 100. 100. 100. 74. 85. 78. 71. 94. 0. 0. 0. 0. 0. 1. 27. 37.
      0. 0. 0. 5. 4. 1. 0. 0. 0. 0. 0. 0. 0. 0. 0. 0. 0. 0. 0. 0. 0. 0.
      0. 0. 0. 0. 0. 0. 0. 0. 0.</_>
    <_>
      110. 100. 100. 100. 61. 77. 77. 82. 94. 0. 0. 0. 0. 0. 0. 23. 27.
      0. 0. 0. 0. 0. 0. 0. 0. 0. 0. 1. 7. 0. 0. 0. 0. 0. 0. 0. 0. 0. 0.
      0. 0. 0. 0. 0. 0. 0. 0. 0.</_>
    <_>
      110. 100. 100. 100. 68. 88. 84. 71. 94. 0. 0. 0. 4. 2. 0. 0. 19.
      45. 0. 0. 0. 0. 0. 0. 6. 0. 0. 0. 0. 0. 0. 0. 0. 0. 0. 0. 0. 0. 0.
      0. 0. 0. 0. 0. 0. 0. 0. 0.</_>
    <_>
      110. 100. 100. 100. 181. 77. 76. 71. 94. 0. 0. 0. 0. 58. 42. 63.
      16. 0. 0. 0. 0. 0. 0. 0. 0. 0. 0. 0. 0. 0. 0. 0. 0. 0. 0. 0. 0. 0.
      0. 0. 0. 0. 0. 0. 0. 0. 0. 0.</_>
    <_>
      110. 100. 100. 100. 76. 79. 79. 71. 94. 0. 0. 0. 0. 0. 2. 32. 33.
      0. 0. 0. 0. 2. 3. 0. 0. 0. 0. 0. 0. 0. 0. 0. 0. 0. 0. 0. 0. 0. 0.
      0. 0. 0. 0. 0. 0. 0. 0. 0.</_>
    <_>
      110. 100. 100. 100. 61. 94. 79. 72. 94. 0. 0. 0. 0. 0. 3. 23. 23.
      0. 0. 7. 12. 0. 0. 0. 0. 2. 0. 0. 0. 0. 0. 0. 0. 0. 0. 0. 0. 0. 0.
      0. 0. 0. 0. 0. 0. 0. 0. 0.</_>
    <_>
      110. 100. 100. 100. 60. 77. 76. 71. 94. 0. 0. 0. 0. 14. 34. 1. 0.
      0. 0. 0. 0. 0. 0. 0. 0. 0. 0. 0. 0. 0. 0. 0. 0. 0. 0. 0. 0. 0. 0.
      0. 0. 0. 0. 0. 0. 0. 0. 0.</_>
    <_>
      110. 100. 100. 100. 76. 89. 77. 71. 94. 0. 0. 0. 8. 58. 0. 0. 0.
      0. 0. 9. 4. 3. 0. 0. 0. 0. 0. 0. 0. 0. 0. 0. 0. 0. 0. 0. 0. 0. 0.
      0. 0. 0. 0. 0. 0. 0. 0. 0.</_>
    <_>
      110. 100. 100. 100. 53. 82. 80. 72. 97. 0. 0. 0. 0. 1. 1. 0. 23.
      23. 0. 0. 0. 0. 0. 0. 3. 0. 0. 0. 0. 0. 0. 2. 0. 0. 0. 0. 0. 0. 0.
      0. 0. 0. 0. 0. 0. 0. 0. 0.</_>
    <_>
      110. 100. 100. 100. 106. 101. 76. 72. 96. 0. 0. 0. 0. 12. 50. 0.
      0. 24. 37. 0. 0. 0. 0. 0. 0. 0. 0. 0. 0. 0. 1. 1. 0. 0. 0. 0. 0.
      0. 0. 0. 0. 0. 0. 0. 0. 0. 0. 0.</_>
    <_>
      110. 100. 100. 100. 39. 100. 124. 74. 94. 0. 0. 0. 0. 0. 0. 0. 0.
      21. 25. 0. 0. 0. 0. 25. 17. 0. 4. 1. 0. 0. 0. 0. 0. 0. 0. 0. 0. 0.
      0. 0. 0. 0. 0. 0. 0. 0. 0. 0.</_>
    <_>
      110. 100. 100. 100. 99. 93. 77. 74. 94. 0. 0. 0. 44. 19. 0. 0. 0.
      24. 22. 0. 0. 0. 0. 0. 0. 0. 0. 2. 0. 0. 0. 0. 0. 0. 0. 0. 0. 0.
      0. 0. 0. 0. 0. 0. 0. 0. 0. 0.</_>
    <_>
      110. 100. 100. 100. 63. 78. 76. 71. 94. 0. 0. 0. 6. 3. 0. 0. 41.
      5. 0. 0. 0. 0. 0. 0. 0. 0. 0. 0. 0. 0. 0. 0. 0. 0. 0. 0. 0. 0. 0.
      0. 0. 0. 0. 0. 0. 0. 0. 0.</_>
    <_>
      110. 100. 100. 100. 87. 77. 76. 119. 119. 0. 0. 0. 0. 0. 0. 79. 0.
      0. 0. 0. 0. 0. 0. 0. 0. 0. 0. 0. 0. 39. 6. 0. 0. 0. 0. 0. 0. 0. 0.
      0. 0. 0. 0. 0. 0. 0. 0. 0.</_>
    <_>
      110. 100. 100. 100. 29. 171. 88. 71. 94. 0. 0. 0. 0. 1. 1. 0. 0.
      0. 0. 58. 24. 37. 0. 0. 0. 0. 0. 0. 0. 0. 0. 0. 0. 0. 0. 0. 0. 0.
      0. 0. 0. 0. 0. 0. 0. 0. 0. 0.</_>
    <_>
      110. 100. 100. 100. 56. 77. 76. 73. 95. 0. 0. 0. 0. 0. 46. 0. 0.
      0. 0. 0. 0. 0. 0. 0. 0. 0. 0. 0. 0. 1. 1. 0. 0. 0. 0. 0. 0. 0. 0.
      0. 0. 0. 0. 0. 0. 0. 0. 0.</_>
    <_>
      110. 100. 100. 100. 66. 84. 76. 71. 94. 0. 0. 0. 0. 0. 2. 0. 32.
      30. 0. 0. 0. 0. 0. 0. 0. 0. 0. 0. 0. 0. 0. 0. 0. 0. 0. 0. 0. 0. 0.
      0. 0. 0. 0. 0. 0. 0. 0. 0.</_>
    <_>
      110. 100. 100. 100. 134. 102. 76. 71. 94. 0. 0. 0. 0. 0. 19. 44.
      42. 7. 36. 9. 0. 0. 0. 0. 0. 0. 0. 0. 0. 0. 0. 0. 0. 0. 0. 0. 0.
      0. 0. 0. 0. 0. 0. 0. 0. 0. 0. 0.</_>
    <_>
      110. 100. 100. 100. 77. 77. 76. 71. 94. 0. 0. 0. 0. 34. 31. 1. 1.
      0. 0. 0. 0. 0. 0. 0. 0. 0. 0. 0. 0. 0. 0. 0. 0. 0. 0. 0. 0. 0. 0.
      0. 0. 0. 0. 0. 0. 0. 0. 0.</_>
    <_>
      110. 100. 100. 100. 89. 77. 76. 71. 94. 0. 0. 0. 0. 55. 24. 1. 1.
      0. 0. 0. 0. 0. 0. 0. 0. 0. 0. 0. 0. 0. 0. 0. 0. 0. 0. 0. 0. 0. 0.
      0. 0. 0. 0. 0. 0. 0. 0. 0.</_>
    <_>
      110. 100. 100. 100. 74. 77. 76. 71. 94. 0. 0. 0. 44. 20. 2. 0. 0.
      0. 0. 0. 0. 0. 0. 0. 0. 0. 0. 0. 0. 0. 0. 0. 0. 0. 0. 0. 0. 0. 0.
      0. 0. 0. 0. 0. 0. 0. 0. 0.</_>
    <_>
      110. 100. 100. 100. 90. 118. 96. 71. 95. 0. 0. 0. 0. 63. 17. 2. 0.
      0. 0. 0. 0. 53. 5. 0. 0. 0. 0. 0. 0. 0. 0. 1. 0. 0. 0. 0. 0. 0. 0.
      0. 0. 0. 0. 0. 0. 0. 0. 0.</_>
    <_>
      110. 100. 100. 100. 57. 81. 95. 71. 94. 0. 0. 0. 0. 0. 0. 23. 23.
      1. 0. 0. 0. 0. 0. 17. 2. 0. 0. 0. 0. 0. 0. 0. 0. 0. 0. 0. 0. 0. 0.
      0. 0. 0. 0. 0. 0. 0. 0. 0.</_>
    <_>
      110. 100. 100. 100. 100. 98. 76. 71. 94. 0. 0. 0. 31. 36. 0. 0. 0.
      9. 38. 0. 0. 0. 0. 0. 0. 0. 0. 0. 0. 0. 0. 0. 0. 0. 0. 0. 0. 0. 0.
      0. 0. 0. 0. 0. 0. 0. 0. 0.</_>
    <_>
      110. 100. 100. 100. 46. 105. 76. 72. 94. 0. 0. 0. 0. 0. 1. 1. 0.
      7. 54. 0. 0. 0. 0. 0. 0. 0. 0. 0. 0. 1. 0. 0. 0. 0. 0. 0. 0. 0. 0.
      0. 0. 0. 0. 0. 0. 0. 0. 0.</_>
    <_>
      110. 100. 100. 100. 14. 114. 122. 91. 149. 0. 0. 0. 0. 0. 0. 0. 0.
      0. 2. 0. 0. 1. 73. 0. 0. 0. 0. 0. 0. 0. 13. 29. 0. 0. 0. 0. 0. 0.
      0. 0. 0. 0. 0. 0. 0. 0. 0. 0.</_>
    <_>
      110. 100. 100. 100. 74. 102. 76. 71. 94. 0. 0. 0. 0. 28. 18. 0. 0.
      0. 29. 15. 0. 0. 0. 0. 0. 0. 0. 0. 0. 0. 0. 0. 0. 0. 0. 0. 0. 0.
      0. 0. 0. 0. 0. 0. 0. 0. 0. 0.</_>
    <_>
      110. 100. 100. 100. 110. 150. 76. 71. 94. 0. 0. 0. 0. 10. 72. 0.
      0. 0. 44. 1. 51. 0. 0. 0. 0. 0. 0. 0. 0. 0. 0. 0. 0. 0. 0. 0. 0.
      0. 0. 0. 0. 0. 0. 0. 0. 0. 0. 0.</_>
    <_>
      110. 100. 100. 100. 45. 136. 113. 71. 94. 0. 0. 0. 0. 0. 0. 4. 1.
      26. 20. 0. 0. 31. 43. 0. 0. 0. 0. 0. 0. 0. 0. 0. 0. 0. 0. 0. 0. 0.
      0. 0. 0. 0. 0. 0. 0. 0. 0. 0.</_>
    <_>
      110. 100. 100. 100. 107. 127. 76. 71. 94. 0. 0. 0. 0. 0. 0. 0. 18.
      89. 17. 28. 0. 0. 0. 0. 0. 0. 0. 0. 0. 0. 0. 0. 0. 0. 0. 0. 0. 0.
      0. 0. 0. 0. 0. 0. 0. 0. 0. 0.</_>
    <_>
      110. 100. 100. 100. 56. 122. 112. 76. 94. 0. 0. 0. 0. 37. 9. 0. 0.
      0. 0. 0. 0. 38. 36. 0. 0. 0. 0. 3. 1. 0. 0. 0. 0. 0. 0. 0. 0. 0.
      0. 0. 0. 0. 0. 0. 0. 0. 0. 0.</_>
    <_>
      110. 100. 100. 100. 92. 77. 76. 71. 94. 0. 0. 0. 1. 19. 64. 0. 0.
      0. 0. 0. 0. 0. 0. 0. 0. 0. 0. 0. 0. 0. 0. 0. 0. 0. 0. 0. 0. 0. 0.
      0. 0. 0. 0. 0. 0. 0. 0. 0.</_>
    <_>
      110. 100. 100. 100. 16. 78. 98. 137. 115. 0. 0. 0. 3. 0. 0. 0. 0.
      0. 0. 0. 0. 0. 0. 6. 13. 0. 0. 0. 27. 14. 14. 0. 0. 0. 0. 0. 0. 0.
      0. 0. 0. 0. 0. 0. 0. 0. 0. 0.</_>
    <_>
      110. 100. 100. 100. 56. 78. 76. 74. 104. 0. 0. 0. 23. 23. 0. 0. 0.
      0. 0. 0. 1. 0. 0. 0. 0. 0. 0. 0. 0. 0. 1. 6. 0. 0. 0. 0. 0. 0. 0.
      0. 0. 0. 0. 0. 0. 0. 0. 0.</_>
    <_>
      110. 100. 100. 100. 59. 77. 76. 71. 94. 0. 0. 0. 0. 0. 14. 33. 2.
      0. 0. 0. 0. 0. 0. 0. 0. 0. 0. 0. 0. 0. 0. 0. 0. 0. 0. 0. 0. 0. 0.
      0. 0. 0. 0. 0. 0. 0. 0. 0.</_>
    <_>
      110. 100. 100. 100. 101. 78. 76. 71. 94. 0. 0. 0. 0. 3. 0. 18. 68.
      5. 0. 0. 0. 0. 0. 0. 0. 0. 0. 0. 0. 0. 0. 0. 0. 0. 0. 0. 0. 0. 0.
      0. 0. 0. 0. 0. 0. 0. 0. 0.</_>
    <_>
      110. 100. 100. 100. 130. 77. 116. 126. 94. 0. 0. 0. 8. 71. 37. 9.
      0. 0. 0. 0. 0. 0. 0. 0. 0. 0. 58. 11. 0. 0. 0. 0. 0. 0. 0. 0. 0.
      0. 0. 0. 0. 0. 0. 0. 0. 0. 0. 0.</_>
    <_>
      110. 100. 100. 100. 148. 79. 76. 71. 94. 0. 0. 0. 16. 65. 4. 0.
      54. 8. 0. 0. 0. 0. 0. 0. 0. 0. 0. 0. 0. 0. 0. 0. 0. 0. 0. 0. 0. 0.
      0. 0. 0. 0. 0. 0. 0. 0. 0. 0.</_>
    <_>
      110. 100. 100. 100. 15. 77. 85. 147. 129. 0. 0. 0. 0. 0. 0. 1. 1.
      0. 0. 0. 0. 0. 0. 0. 0. 0. 0. 27. 12. 2. 35. 0. 0. 0. 0. 0. 0. 0.
      0. 0. 0. 0. 0. 0. 0. 0. 0. 0.</_>
    <_>
      110. 100. 100. 100. 59. 77. 76. 114. 111. 0. 0. 0. 3. 14. 32. 0.
      0. 0. 0. 0. 0. 0. 0. 0. 0. 0. 0. 0. 3. 36. 0. 0. 0. 0. 0. 0. 0. 0.
      0. 0. 0. 0. 0. 0. 0. 0. 0. 0.</_>
    <_>
      110. 100. 100. 100. 16. 94. 81. 71. 94. 0. 0. 0. 0. 0. 0. 0. 0. 2.
      3. 0. 4. 15. 0. 0. 0. 0. 0. 0. 0. 0. 0. 0. 0. 0. 0. 0. 0. 0. 0. 0.
      0. 0. 0. 0. 0. 0. 0. 0.</_>
    <_>
      110. 100. 100. 100. 100. 152. 76. 71. 94. 0. 0. 0. 23. 23. 0. 0.
      25. 23. 0. 17. 59. 0. 0. 0. 0. 0. 0. 0. 0. 0. 0. 0. 0. 0. 0. 0. 0.
      0. 0. 0. 0. 0. 0. 0. 0. 0. 0. 0.</_>
    <_>
      110. 100. 100. 100. 21. 167. 114. 71. 94. 0. 0. 0. 0. 5. 0. 0. 0.
      0. 0. 13. 38. 27. 47. 0. 0. 0. 0. 0. 0. 0. 0. 0. 0. 0. 0. 0. 0. 0.
      0. 0. 0. 0. 0. 0. 0. 0. 0. 0.</_>
    <_>
      110. 100. 100. 100. 77. 77. 78. 72. 94. 0. 0. 0. 0. 17. 36. 14. 0.
      2. 0. 0. 0. 0. 0. 0. 0. 1. 1. 0. 0. 0. 0. 0. 0. 0. 0. 0. 0. 0. 0.
      0. 0. 0. 0. 0. 0. 0. 0. 0.</_>
    <_>
      110. 100. 100. 100. 63. 80. 77. 71. 94. 0. 0. 0. 0. 0. 7. 1. 42.
      3. 0. 1. 2. 1. 0. 0. 0. 0. 0. 0. 0. 0. 0. 0. 0. 0. 0. 0. 0. 0. 0.
      0. 0. 0. 0. 0. 0. 0. 0. 0.</_>
    <_>
      110. 100. 100. 100. 102. 79. 76. 71. 94. 0. 0. 0. 0. 0. 3. 12. 72.
      10. 0. 0. 0. 0. 0. 0. 0. 0. 0. 0. 0. 0. 0. 0. 0. 0. 0. 0. 0. 0. 0.
      0. 0. 0. 0. 0. 0. 0. 0. 0.</_>
    <_>
      110. 100. 100. 100. 50. 120. 103. 71. 94. 0. 0. 0. 0. 0. 0. 0. 21.
      25. 0. 0. 0. 36. 23. 1. 1. 0. 0. 0. 0. 0. 0. 0. 0. 0. 0. 0. 0. 0.
      0. 0. 0. 0. 0. 0. 0. 0. 0. 0.</_>
    <_>
      110. 100. 100. 100. 73. 79. 144. 71. 94. 0. 0. 0. 0. 31. 31. 1. 0.
      0. 0. 0. 0. 0. 0. 9. 48. 0. 0. 0. 0. 0. 0. 0. 0. 0. 0. 0. 0. 0. 0.
      0. 0. 0. 0. 0. 0. 0. 0. 0.</_>
    <_>
      110. 100. 100. 100. 90. 77. 103. 101. 94. 0. 0. 0. 0. 42. 40. 0.
      0. 0. 0. 0. 0. 0. 0. 0. 0. 4. 37. 0. 1. 0. 0. 0. 0. 0. 0. 0. 0. 0.
      0. 0. 0. 0. 0. 0. 0. 0. 0. 0.</_>
    <_>
      110. 100. 100. 100. 73. 92. 86. 75. 94. 0. 0. 0. 0. 0. 0. 1. 16.
      62. 0. 0. 0. 0. 0. 1. 2. 4. 4. 0. 0. 0. 0. 0. 0. 0. 0. 0. 0. 0. 0.
      0. 0. 0. 0. 0. 0. 0. 0. 0.</_>
    <_>
      110. 100. 100. 100. 58. 78. 76. 71. 94. 0. 0. 0. 37. 9. 0. 0. 0.
      0. 2. 0. 0. 0. 0. 0. 0. 0. 0. 0. 0. 0. 0. 0. 0. 0. 0. 0. 0. 0. 0.
      0. 0. 0. 0. 0. 0. 0. 0. 0.</_>
    <_>
      110. 100. 100. 100. 77. 102. 117. 71. 94. 0. 0. 0. 0. 2. 47. 19.
      0. 0. 0. 0. 0. 0. 44. 14. 0. 0. 0. 0. 0. 0. 0. 0. 0. 0. 0. 0. 0.
      0. 0. 0. 0. 0. 0. 0. 0. 0. 0. 0.</_>
    <_>
      110. 100. 100. 100. 168. 97. 76. 71. 94. 0. 0. 0. 0. 28. 18. 0.
      58. 82. 0. 0. 0. 0. 0. 0. 0. 0. 0. 0. 0. 0. 0. 0. 0. 0. 0. 0. 0.
      0. 0. 0. 0. 0. 0. 0. 0. 0. 0. 0.</_>
    <_>
      110. 100. 100. 100. 66. 91. 76. 71. 94. 0. 0. 0. 2. 4. 1. 0. 6.
      57. 0. 0. 0. 0. 0. 0. 0. 0. 0. 0. 0. 0. 0. 0. 0. 0. 0. 0. 0. 0. 0.
      0. 0. 0. 0. 0. 0. 0. 0. 0.</_>
    <_>
      110. 100. 100. 100. 41. 103. 76. 71. 94. 0. 0. 0. 2. 0. 0. 0. 0.
      17. 28. 2. 6. 0. 0. 0. 0. 0. 0. 0. 0. 0. 0. 0. 0. 0. 0. 0. 0. 0.
      0. 0. 0. 0. 0. 0. 0. 0. 0. 0.</_>
    <_>
      110. 100. 100. 100. 75. 77. 76. 71. 94. 0. 0. 0. 0. 17. 4. 37. 9.
      0. 0. 0. 0. 0. 0. 0. 0. 0. 0. 0. 0. 0. 0. 0. 0. 0. 0. 0. 0. 0. 0.
      0. 0. 0. 0. 0. 0. 0. 0. 0.</_>
    <_>
      110. 100. 100. 100. 76. 77. 76. 71. 94. 0. 0. 0. 2. 0. 1. 37. 25.
      1. 0. 0. 0. 0. 0. 0. 0. 0. 0. 0. 0. 0. 0. 0. 0. 0. 0. 0. 0. 0. 0.
      0. 0. 0. 0. 0. 0. 0. 0. 0.</_>
    <_>
      110. 100. 100. 100. 54. 99. 92. 152. 94. 0. 0. 0. 0. 0. 0. 3. 3.
      30. 31. 0. 0. 0. 0. 0. 0. 0. 0. 51. 17. 0. 0. 0. 0. 0. 0. 0. 0. 0.
      0. 0. 0. 0. 0. 0. 0. 0. 0. 0.</_>
    <_>
      110. 100. 100. 100. 73. 77. 76. 76. 102. 0. 0. 0. 6. 56. 0. 1. 1.
      0. 0. 0. 0. 0. 0. 0. 0. 0. 0. 0. 0. 0. 5. 2. 0. 0. 0. 0. 0. 0. 0.
      0. 0. 0. 0. 0. 0. 0. 0. 0.</_>
    <_>
      110. 100. 100. 100. 76. 102. 76. 71. 94. 0. 0. 0. 37. 11. 0. 0. 0.
      0. 29. 15. 0. 0. 0. 0. 0. 0. 0. 0. 0. 0. 0. 0. 0. 0. 0. 0. 0. 0.
      0. 0. 0. 0. 0. 0. 0. 0. 0. 0.</_>
    <_>
      110. 100. 100. 100. 82. 77. 76. 71. 94. 0. 0. 0. 0. 0. 15. 56. 2.
      1. 0. 0. 0. 0. 0. 0. 0. 0. 0. 0. 0. 0. 0. 0. 0. 0. 0. 0. 0. 0. 0.
      0. 0. 0. 0. 0. 0. 0. 0. 0.</_>
    <_>
      110. 100. 100. 100. 78. 87. 76. 71. 94. 0. 0. 0. 0. 0. 0. 46. 19.
      0. 9. 2. 4. 0. 0. 0. 0. 0. 0. 0. 0. 0. 0. 0. 0. 0. 0. 0. 0. 0. 0.
      0. 0. 0. 0. 0. 0. 0. 0. 0.</_>
    <_>
      110. 100. 100. 100. 71. 77. 94. 109. 94. 0. 0. 0. 0. 19. 44. 0. 0.
      0. 0. 0. 0. 0. 0. 0. 0. 0. 17. 23. 0. 0. 0. 0. 0. 0. 0. 0. 0. 0.
      0. 0. 0. 0. 0. 0. 0. 0. 0. 0.</_>
    <_>
      110. 100. 100. 100. 148. 87. 78. 71. 94. 0. 0. 0. 23. 23. 6. 56.
      5. 41. 0. 0. 0. 0. 0. 1. 1. 0. 0. 0. 0. 0. 0. 0. 0. 0. 0. 0. 0. 0.
      0. 0. 0. 0. 0. 0. 0. 0. 0. 0.</_>
    <_>
      110. 100. 100. 100. 54. 81. 76. 71. 94. 0. 0. 0. 0. 0. 0. 3. 28.
      18. 0. 0. 0. 0. 0. 0. 0. 0. 0. 0. 0. 0. 0. 0. 0. 0. 0. 0. 0. 0. 0.
      0. 0. 0. 0. 0. 0. 0. 0. 0.</_>
    <_>
      110. 100. 100. 100. 54. 81. 76. 93. 99. 0. 0. 0. 0. 0. 0. 2. 27.
      20. 0. 0. 0. 0. 0. 0. 0. 0. 0. 0. 7. 10. 0. 0. 0. 0. 0. 0. 0. 0.
      0. 0. 0. 0. 0. 0. 0. 0. 0. 0.</_>
    <_>
      110. 100. 100. 100. 72. 139. 90. 71. 94. 0. 0. 0. 25. 37. 0. 0. 0.
      0. 0. 0. 31. 44. 0. 0. 0. 0. 0. 0. 0. 0. 0. 0. 0. 0. 0. 0. 0. 0.
      0. 0. 0. 0. 0. 0. 0. 0. 0. 0.</_>
    <_>
      110. 100. 100. 100. 61. 77. 83. 71. 94. 0. 0. 0. 2. 3. 0. 41. 5.
      0. 0. 0. 0. 0. 0. 4. 3. 0. 0. 0. 0. 0. 0. 0. 0. 0. 0. 0. 0. 0. 0.
      0. 0. 0. 0. 0. 0. 0. 0. 0.</_>
    <_>
      110. 100. 100. 100. 80. 77. 76. 71. 94. 0. 0. 0. 9. 0. 0. 12. 50.
      0. 0. 0. 0. 0. 0. 0. 0. 0. 0. 0. 0. 0. 0. 0. 0. 0. 0. 0. 0. 0. 0.
      0. 0. 0. 0. 0. 0. 0. 0. 0.</_>
    <_>
      110. 100. 100. 100. 76. 77. 76. 71. 94. 0. 0. 0. 2. 15. 50. 0. 0.
      0. 0. 0. 0. 0. 0. 0. 0. 0. 0. 0. 0. 0. 0. 0. 0. 0. 0. 0. 0. 0. 0.
      0. 0. 0. 0. 0. 0. 0. 0. 0.</_>
    <_>
      110. 100. 100. 100. 81. 103. 76. 71. 94. 0. 0. 0. 5. 42. 0. 0. 0.
      0. 51. 1. 0. 0. 0. 0. 0. 0. 0. 0. 0. 0. 0. 0. 0. 0. 0. 0. 0. 0. 0.
      0. 0. 0. 0. 0. 0. 0. 0. 0.</_>
    <_>
      110. 100. 100. 100. 59. 77. 77. 105. 123. 0. 0. 0. 0. 46. 0. 0. 2.
      0. 0. 0. 0. 0. 0. 0. 0. 0. 0. 1. 0. 15. 22. 0. 0. 0. 0. 0. 0. 0.
      0. 0. 0. 0. 0. 0. 0. 0. 0. 0.</_>
    <_>
      110. 100. 100. 100. 111. 85. 76. 71. 94. 0. 0. 0. 0. 0. 9. 41. 28.
      34. 0. 0. 0. 0. 0. 0. 0. 0. 0. 0. 0. 0. 0. 0. 0. 0. 0. 0. 0. 0. 0.
      0. 0. 0. 0. 0. 0. 0. 0. 0.</_>
    <_>
      110. 100. 100. 100. 148. 77. 76. 71. 94. 0. 0. 0. 16. 64. 2. 56.
      6. 0. 0. 0. 0. 0. 0. 0. 0. 0. 0. 0. 0. 0. 0. 0. 0. 0. 0. 0. 0. 0.
      0. 0. 0. 0. 0. 0. 0. 0. 0. 0.</_>
    <_>
      110. 100. 100. 100. 55. 178. 85. 71. 94. 0. 0. 0. 0. 0. 1. 2. 0.
      12. 65. 0. 47. 28. 0. 0. 0. 0. 0. 0. 0. 0. 0. 0. 0. 0. 0. 0. 0. 0.
      0. 0. 0. 0. 0. 0. 0. 0. 0. 0.</_>
    <_>
      110. 100. 100. 100. 72. 120. 77. 71. 94. 0. 0. 0. 0. 0. 0. 37. 25.
      0. 2. 0. 41. 3. 0. 0. 0. 0. 0. 0. 0. 0. 0. 0. 0. 0. 0. 0. 0. 0. 0.
      0. 0. 0. 0. 0. 0. 0. 0. 0.</_>
    <_>
      110. 100. 100. 100. 19. 98. 121. 125. 98. 0. 0. 0. 0. 0. 0. 0. 7.
      0. 0. 0. 0. 0. 30. 28. 0. 0. 0. 0. 30. 9. 0. 0. 0. 0. 0. 0. 0. 0.
      0. 0. 0. 0. 0. 0. 0. 0. 0. 0.</_>
    <_>
      110. 100. 100. 100. 75. 77. 76. 74. 121. 0. 0. 0. 0. 1. 1. 64. 1.
      0. 0. 0. 0. 0. 0. 0. 0. 0. 0. 0. 0. 0. 0. 8. 8. 0. 0. 0. 0. 0. 0.
      0. 0. 0. 0. 0. 0. 0. 0. 0.</_>
    <_>
      110. 100. 100. 100. 13. 111. 108. 106. 94. 0. 0. 0. 0. 0. 0. 0. 0.
      0. 0. 0. 10. 34. 0. 0. 0. 0. 26. 14. 0. 0. 0. 0. 0. 0. 0. 0. 0. 0.
      0. 0. 0. 0. 0. 0. 0. 0. 0. 0.</_>
    <_>
      110. 100. 100. 100. 13. 85. 99. 104. 94. 0. 0. 0. 0. 0. 0. 0. 0.
      0. 0. 1. 7. 0. 0. 0. 0. 0. 30. 10. 0. 0. 0. 0. 0. 0. 0. 0. 0. 0.
      0. 0. 0. 0. 0. 0. 0. 0. 0. 0.</_>
    <_>
      110. 100. 100. 100. 98. 144. 84. 71. 94. 0. 0. 0. 0. 0. 71. 14. 1.
      0. 0. 20. 36. 23. 0. 0. 0. 0. 0. 0. 0. 0. 0. 0. 0. 0. 0. 0. 0. 0.
      0. 0. 0. 0. 0. 0. 0. 0. 0. 0.</_>
    <_>
      110. 100. 100. 100. 52. 90. 76. 71. 94. 0. 0. 0. 0. 1. 2. 3. 4.
      35. 10. 0. 0. 0. 0. 0. 0. 0. 0. 0. 0. 0. 0. 0. 0. 0. 0. 0. 0. 0.
      0. 0. 0. 0. 0. 0. 0. 0. 0. 0.</_>
    <_>
      110. 100. 100. 100. 17. 80. 76. 118. 106. 0. 0. 0. 0. 0. 0. 3. 0.
      0. 0. 5. 0. 0. 0. 0. 0. 0. 0. 0. 12. 26. 0. 0. 0. 0. 0. 0. 0. 0.
      0. 0. 0. 0. 0. 0. 0. 0. 0. 0.</_>
    <_>
      110. 100. 100. 100. 41. 102. 76. 71. 94. 0. 0. 0. 0. 0. 0. 0. 0.
      8. 46. 0. 0. 0. 0. 0. 0. 0. 0. 0. 0. 0. 0. 0. 0. 0. 0. 0. 0. 0. 0.
      0. 0. 0. 0. 0. 0. 0. 0. 0.</_>
    <_>
      110. 100. 100. 100. 102. 123. 76. 71. 94. 0. 0. 0. 0. 0. 4. 6. 56.
      0. 40. 36. 0. 0. 0. 0. 0. 0. 0. 0. 0. 0. 0. 0. 0. 0. 0. 0. 0. 0.
      0. 0. 0. 0. 0. 0. 0. 0. 0. 0.</_>
    <_>
      110. 100. 100. 100. 88. 106. 81. 71. 94. 0. 0. 0. 0. 0. 0. 0. 15.
      77. 15. 0. 0. 0. 5. 2. 0. 0. 0. 0. 0. 0. 0. 0. 0. 0. 0. 0. 0. 0.
      0. 0. 0. 0. 0. 0. 0. 0. 0. 0.</_>
    <_>
      110. 100. 100. 100. 100. 107. 76. 71. 94. 0. 0. 0. 12. 50. 0. 0.
      0. 0. 60. 1. 0. 0. 0. 0. 0. 0. 0. 0. 0. 0. 0. 0. 0. 0. 0. 0. 0. 0.
      0. 0. 0. 0. 0. 0. 0. 0. 0. 0.</_>
    <_>
      110. 100. 100. 100. 69. 98. 127. 71. 94. 0. 0. 0. 0. 0. 0. 2. 0.
      73. 5. 0. 0. 0. 0. 5. 37. 0. 0. 0. 0. 0. 0. 0. 0. 0. 0. 0. 0. 0.
      0. 0. 0. 0. 0. 0. 0. 0. 0. 0.</_>
    <_>
      110. 100. 100. 100. 145. 118. 97. 71. 94. 0. 0. 0. 0. 0. 19. 75.
      47. 0. 0. 0. 0. 51. 8. 0. 0. 0. 0. 0. 0. 0. 0. 0. 0. 0. 0. 0. 0.
      0. 0. 0. 0. 0. 0. 0. 0. 0. 0. 0.</_>
    <_>
      110. 100. 100. 100. 49. 114. 97. 106. 94. 0. 0. 0. 0. 0. 0. 0. 0.
      1. 76. 0. 0. 0. 0. 0. 0. 0. 25. 15. 0. 0. 0. 0. 0. 0. 0. 0. 0. 0.
      0. 0. 0. 0. 0. 0. 0. 0. 0. 0.</_>
    <_>
      110. 100. 100. 100. 152. 77. 76. 71. 94. 0. 0. 0. 0. 14. 81. 54.
      0. 0. 0. 0. 0. 0. 0. 0. 0. 0. 0. 0. 0. 0. 0. 0. 0. 0. 0. 0. 0. 0.
      0. 0. 0. 0. 0. 0. 0. 0. 0. 0.</_>
    <_>
      110. 100. 100. 100. 85. 117. 76. 71. 94. 0. 0. 0. 3. 25. 28. 3. 0.
      0. 16. 44. 0. 0. 0. 0. 0. 0. 0. 0. 0. 0. 0. 0. 0. 0. 0. 0. 0. 0.
      0. 0. 0. 0. 0. 0. 0. 0. 0. 0.</_>
    <_>
      110. 100. 100. 100. 57. 119. 93. 110. 94. 0. 0. 0. 0. 0. 41. 5. 0.
      0. 0. 2. 42. 0. 0. 0. 0. 0. 13. 27. 0. 0. 0. 0. 0. 0. 0. 0. 0. 0.
      0. 0. 0. 0. 0. 0. 0. 0. 0. 0.</_>
    <_>
      110. 100. 100. 100. 14. 165. 95. 71. 94. 0. 0. 0. 0. 0. 0. 0. 0.
      1. 1. 1. 44. 59. 0. 0. 0. 0. 0. 0. 0. 0. 0. 0. 0. 0. 0. 0. 0. 0.
      0. 0. 0. 0. 0. 0. 0. 0. 0. 0.</_>
    <_>
      110. 100. 100. 100. 74. 83. 76. 71. 94. 0. 0. 0. 0. 0. 0. 43. 19.
      0. 1. 8. 0. 0. 0. 0. 0. 0. 0. 0. 0. 0. 0. 0. 0. 0. 0. 0. 0. 0. 0.
      0. 0. 0. 0. 0. 0. 0. 0. 0.</_>
    <_>
      110. 100. 100. 100. 74. 81. 79. 71. 94. 0. 0. 0. 52. 13. 0. 0. 0.
      0. 0. 0. 0. 4. 2. 0. 0. 0. 0. 0. 0. 0. 0. 0. 0. 0. 0. 0. 0. 0. 0.
      0. 0. 0. 0. 0. 0. 0. 0. 0.</_>
    <_>
      110. 100. 100. 100. 38. 139. 77. 71. 94. 0. 0. 0. 1. 2. 0. 0. 0.
      5. 2. 78. 2. 1. 0. 0. 0. 0. 0. 0. 0. 0. 0. 0. 0. 0. 0. 0. 0. 0. 0.
      0. 0. 0. 0. 0. 0. 0. 0. 0.</_>
    <_>
      110. 100. 100. 100. 80. 98. 76. 71. 94. 0. 0. 0. 0. 0. 41. 6. 1.
      1. 44. 0. 0. 0. 0. 0. 0. 0. 0. 0. 0. 0. 0. 0. 0. 0. 0. 0. 0. 0. 0.
      0. 0. 0. 0. 0. 0. 0. 0. 0.</_>
    <_>
      110. 100. 100. 100. 16. 118. 79. 71. 94. 0. 0. 0. 0. 0. 1. 2. 0.
      0. 0. 0. 36. 8. 0. 0. 0. 0. 0. 0. 0. 0. 0. 0. 0. 0. 0. 0. 0. 0. 0.
      0. 0. 0. 0. 0. 0. 0. 0. 0.</_>
    <_>
      110. 100. 100. 100. 72. 77. 82. 71. 94. 0. 0. 0. 31. 31. 0. 0. 0.
      0. 0. 0. 0. 0. 0. 1. 4. 0. 0. 0. 0. 0. 0. 0. 0. 0. 0. 0. 0. 0. 0.
      0. 0. 0. 0. 0. 0. 0. 0. 0.</_>
    <_>
      110. 100. 100. 100. 51. 82. 76. 73. 95. 0. 0. 0. 0. 0. 0. 0. 24.
      22. 0. 0. 0. 0. 0. 0. 0. 0. 0. 0. 0. 2. 0. 0. 0. 0. 0. 0. 0. 0. 0.
      0. 0. 0. 0. 0. 0. 0. 0. 0.</_>
    <_>
      110. 100. 100. 100. 88. 102. 102. 71. 94. 0. 0. 0. 0. 1. 2. 2. 64.
      15. 0. 0. 0. 3. 40. 0. 0. 0. 0. 0. 0. 0. 0. 0. 0. 0. 0. 0. 0. 0.
      0. 0. 0. 0. 0. 0. 0. 0. 0. 0.</_>
    <_>
      110. 100. 100. 100. 59. 128. 104. 71. 94. 0. 0. 0. 32. 15. 1. 0.
      0. 0. 0. 0. 0. 60. 14. 0. 0. 0. 0. 0. 0. 0. 0. 0. 0. 0. 0. 0. 0.
      0. 0. 0. 0. 0. 0. 0. 0. 0. 0. 0.</_>
    <_>
      110. 100. 100. 100. 70. 87. 76. 72. 94. 0. 0. 0. 8. 1. 0. 0. 20.
      41. 0. 0. 0. 0. 0. 0. 0. 0. 0. 0. 1. 0. 0. 0. 0. 0. 0. 0. 0. 0. 0.
      0. 0. 0. 0. 0. 0. 0. 0. 0.</_>
    <_>
      110. 100. 100. 100. 64. 112. 88. 72. 94. 0. 0. 0. 0. 22. 32. 0. 0.
      0. 0. 0. 14. 30. 0. 0. 0. 2. 1. 0. 0. 0. 0. 0. 0. 0. 0. 0. 0. 0.
      0. 0. 0. 0. 0. 0. 0. 0. 0. 0.</_>
    <_>
      110. 100. 100. 100. 143. 100. 76. 71. 94. 0. 0. 0. 16. 63. 0. 0.
      0. 76. 4. 1. 1. 0. 0. 0. 0. 0. 0. 0. 0. 0. 0. 0. 0. 0. 0. 0. 0. 0.
      0. 0. 0. 0. 0. 0. 0. 0. 0. 0.</_>
    <_>
      110. 100. 100. 100. 22. 114. 76. 71. 94. 0. 0. 0. 0. 0. 0. 0. 0.
      1. 1. 34. 12. 0. 0. 0. 0. 0. 0. 0. 0. 0. 0. 0. 0. 0. 0. 0. 0. 0.
      0. 0. 0. 0. 0. 0. 0. 0. 0. 0.</_>
    <_>
      110. 100. 100. 100. 80. 78. 76. 71. 94. 0. 0. 0. 0. 9. 25. 37. 0.
      0. 0. 1. 0. 0. 0. 0. 0. 0. 0. 0. 0. 0. 0. 0. 0. 0. 0. 0. 0. 0. 0.
      0. 0. 0. 0. 0. 0. 0. 0. 0.</_>
    <_>
      110. 100. 100. 100. 108. 101. 76. 71. 94. 0. 0. 0. 0. 0. 3. 18.
      28. 56. 22. 0. 0. 0. 0. 0. 0. 0. 0. 0. 0. 0. 0. 0. 0. 0. 0. 0. 0.
      0. 0. 0. 0. 0. 0. 0. 0. 0. 0. 0.</_>
    <_>
      110. 100. 100. 100. 64. 108. 122. 71. 94. 0. 0. 0. 0. 0. 2. 1. 19.
      42. 0. 0. 0. 0. 28. 30. 0. 0. 0. 0. 0. 0. 0. 0. 0. 0. 0. 0. 0. 0.
      0. 0. 0. 0. 0. 0. 0. 0. 0. 0.</_>
    <_>
      110. 100. 100. 100. 200. 77. 76. 71. 94. 0. 0. 0. 0. 81. 24. 105.
      12. 0. 0. 0. 0. 0. 0. 0. 0. 0. 0. 0. 0. 0. 0. 0. 0. 0. 0. 0. 0. 0.
      0. 0. 0. 0. 0. 0. 0. 0. 0. 0.</_>
    <_>
      110. 100. 100. 100. 74. 77. 76. 71. 94. 0. 0. 0. 25. 37. 0. 3. 0.
      0. 0. 0. 0. 0. 0. 0. 0. 0. 0. 0. 0. 0. 0. 0. 0. 0. 0. 0. 0. 0. 0.
      0. 0. 0. 0. 0. 0. 0. 0. 0.</_>
    <_>
      110. 100. 100. 100. 98. 116. 81. 71. 94. 0. 0. 0. 8. 64. 16. 2. 0.
      0. 0. 0. 29. 15. 0. 0. 0. 0. 0. 0. 0. 0. 0. 0. 0. 0. 0. 0. 0. 0.
      0. 0. 0. 0. 0. 0. 0. 0. 0. 0.</_>
    <_>
      110. 100. 100. 100. 81. 77. 76. 72. 97. 0. 0. 0. 0. 9. 25. 37. 0.
      1. 1. 0. 0. 0. 0. 0. 0. 0. 0. 0. 0. 0. 0. 2. 0. 0. 0. 0. 0. 0. 0.
      0. 0. 0. 0. 0. 0. 0. 0. 0.</_>
    <_>
      110. 100. 100. 100. 33. 141. 101. 71. 94. 0. 0. 0. 2. 1. 0. 0. 0.
      0. 27. 18. 0. 38. 20. 0. 0. 0. 0. 0. 0. 0. 0. 0. 0. 0. 0. 0. 0. 0.
      0. 0. 0. 0. 0. 0. 0. 0. 0. 0.</_>
    <_>
      110. 100. 100. 100. 77. 130. 85. 71. 94. 0. 0. 0. 6. 56. 0. 0. 1.
      5. 0. 1. 32. 28. 0. 0. 0. 0. 0. 0. 0. 0. 0. 0. 0. 0. 0. 0. 0. 0.
      0. 0. 0. 0. 0. 0. 0. 0. 0. 0.</_>
    <_>
      110. 100. 100. 100. 87. 77. 76. 134. 99. 0. 0. 0. 0. 16. 63. 0. 0.
      0. 0. 0. 0. 0. 0. 0. 0. 0. 0. 0. 35. 10. 0. 0. 0. 0. 0. 0. 0. 0.
      0. 0. 0. 0. 0. 0. 0. 0. 0. 0.</_>
    <_>
      110. 100. 100. 100. 72. 95. 125. 71. 94. 0. 0. 0. 31. 31. 0. 0. 0.
      0. 0. 0. 0. 0. 18. 40. 0. 0. 0. 0. 0. 0. 0. 0. 0. 0. 0. 0. 0. 0.
      0. 0. 0. 0. 0. 0. 0. 0. 0. 0.</_>
    <_>
      110. 100. 100. 100. 56. 77. 129. 137. 94. 0. 0. 0. 0. 32. 14. 0.
      0. 0. 0. 0. 0. 0. 0. 0. 0. 26. 43. 3. 14. 0. 0. 0. 0. 0. 0. 0. 0.
      0. 0. 0. 0. 0. 0. 0. 0. 0. 0. 0.</_>
    <_>
      110. 100. 100. 100. 13. 77. 107. 105. 112. 0. 0. 0. 0. 0. 0. 0. 0.
      0. 0. 0. 0. 0. 0. 0. 0. 16. 24. 0. 0. 0. 12. 5. 0. 0. 0. 0. 0. 0.
      0. 0. 0. 0. 0. 0. 0. 0. 0. 0.</_>
    <_>
      110. 100. 100. 100. 13. 87. 140. 71. 94. 0. 0. 0. 0. 0. 0. 0. 0.
      0. 0. 0. 0. 0. 0. 44. 18. 0. 0. 0. 0. 0. 0. 0. 0. 0. 0. 0. 0. 0.
      0. 0. 0. 0. 0. 0. 0. 0. 0. 0.</_>
    <_>
      110. 100. 100. 100. 56. 77. 76. 72. 171. 0. 0. 0. 0. 0. 32. 14. 0.
      0. 0. 0. 0. 0. 0. 0. 0. 0. 0. 0. 0. 0. 0. 4. 37. 0. 0. 0. 0. 0. 0.
      0. 0. 0. 0. 0. 0. 0. 0. 0.</_>
    <_>
      110. 100. 100. 100. 64. 95. 80. 71. 94. 0. 0. 0. 19. 2. 0. 0. 1.
      38. 9. 0. 0. 4. 4. 0. 0. 0. 0. 0. 0. 0. 0. 0. 0. 0. 0. 0. 0. 0. 0.
      0. 0. 0. 0. 0. 0. 0. 0. 0.</_>
    <_>
      110. 100. 100. 100. 51. 120. 90. 71. 94. 0. 0. 0. 0. 0. 0. 0. 7.
      45. 1. 0. 0. 43. 0. 0. 0. 0. 0. 0. 0. 0. 0. 0. 0. 0. 0. 0. 0. 0.
      0. 0. 0. 0. 0. 0. 0. 0. 0. 0.</_>
    <_>
      110. 100. 100. 100. 15. 77. 158. 91. 94. 0. 0. 0. 0. 0. 0. 0. 1.
      2. 0. 0. 0. 0. 0. 0. 35. 36. 5. 3. 0. 0. 0. 0. 0. 0. 0. 0. 0. 0.
      0. 0. 0. 0. 0. 0. 0. 0. 0. 0.</_>
    <_>
      110. 100. 100. 100. 75. 84. 76. 71. 94. 0. 0. 0. 1. 11. 0. 0. 33.
      29. 0. 0. 0. 0. 0. 0. 0. 0. 0. 0. 0. 0. 0. 0. 0. 0. 0. 0. 0. 0. 0.
      0. 0. 0. 0. 0. 0. 0. 0. 0.</_>
    <_>
      110. 100. 100. 100. 77. 77. 76. 71. 124. 0. 0. 0. 7. 59. 2. 0. 0.
      0. 0. 0. 0. 0. 0. 0. 0. 0. 0. 0. 0. 0. 0. 0. 15. 0. 0. 0. 0. 0. 0.
      0. 0. 0. 0. 0. 0. 0. 0. 0.</_>
    <_>
      110. 100. 100. 100. 83. 113. 76. 71. 94. 0. 0. 0. 0. 0. 3. 6. 58.
      0. 0. 30. 15. 0. 0. 0. 0. 0. 0. 0. 0. 0. 0. 0. 0. 0. 0. 0. 0. 0.
      0. 0. 0. 0. 0. 0. 0. 0. 0. 0.</_>
    <_>
      110. 100. 100. 100. 39. 82. 77. 71. 94. 0. 0. 0. 2. 21. 3. 0. 0.
      0. 0. 6. 0. 0. 1. 0. 0. 0. 0. 0. 0. 0. 0. 0. 0. 0. 0. 0. 0. 0. 0.
      0. 0. 0. 0. 0. 0. 0. 0. 0.</_>
    <_>
      110. 100. 100. 100. 76. 114. 102. 71. 94. 0. 0. 0. 19. 2. 0. 37.
      9. 0. 0. 0. 0. 35. 24. 0. 0. 0. 0. 0. 0. 0. 0. 0. 0. 0. 0. 0. 0.
      0. 0. 0. 0. 0. 0. 0. 0. 0. 0. 0.</_>
    <_>
      110. 100. 100. 100. 97. 94. 76. 105. 122. 0. 0. 0. 0. 0. 0. 6. 56.
      21. 24. 0. 0. 0. 0. 0. 0. 0. 0. 0. 0. 17. 21. 0. 0. 0. 0. 0. 0. 0.
      0. 0. 0. 0. 0. 0. 0. 0. 0. 0.</_>
    <_>
      110. 100. 100. 100. 57. 130. 83. 71. 94. 0. 0. 0. 28. 18. 0. 0. 0.
      1. 0. 0. 38. 21. 0. 0. 0. 0. 0. 0. 0. 0. 0. 0. 0. 0. 0. 0. 0. 0.
      0. 0. 0. 0. 0. 0. 0. 0. 0. 0.</_>
    <_>
      110. 100. 100. 100. 18. 95. 87. 76. 94. 0. 0. 0. 0. 0. 0. 3. 2. 0.
      0. 0. 14. 5. 0. 0. 0. 8. 1. 2. 0. 0. 0. 0. 0. 0. 0. 0. 0. 0. 0. 0.
      0. 0. 0. 0. 0. 0. 0. 0.</_>
    <_>
      110. 100. 100. 100. 79. 78. 76. 82. 149. 0. 0. 0. 10. 16. 0. 0.
      41. 5. 0. 0. 0. 0. 0. 0. 0. 0. 0. 0. 0. 0. 0. 29. 6. 0. 0. 0. 0.
      0. 0. 0. 0. 0. 0. 0. 0. 0. 0. 0.</_>
    <_>
      110. 100. 100. 100. 103. 88. 76. 71. 94. 0. 0. 0. 0. 32. 14. 0.
      17. 45. 0. 0. 0. 0. 0. 0. 0. 0. 0. 0. 0. 0. 0. 0. 0. 0. 0. 0. 0.
      0. 0. 0. 0. 0. 0. 0. 0. 0. 0. 0.</_>
    <_>
      110. 100. 100. 100. 66. 105. 77. 71. 94. 0. 0. 0. 0. 0. 0. 2. 1.
      59. 19. 0. 3. 2. 0. 0. 0. 0. 0. 0. 0. 0. 0. 0. 0. 0. 0. 0. 0. 0.
      0. 0. 0. 0. 0. 0. 0. 0. 0. 0.</_>
    <_>
      110. 100. 100. 100. 66. 78. 76. 71. 94. 0. 0. 0. 5. 49. 2. 0. 0.
      1. 2. 0. 0. 0. 0. 0. 0. 0. 0. 0. 0. 0. 0. 0. 0. 0. 0. 0. 0. 0. 0.
      0. 0. 0. 0. 0. 0. 0. 0. 0.</_>
    <_>
      110. 100. 100. 100. 74. 77. 116. 85. 94. 0. 0. 0. 1. 2. 56. 6. 0.
      0. 0. 0. 0. 0. 0. 0. 4. 37. 0. 0. 0. 0. 0. 0. 0. 0. 0. 0. 0. 0. 0.
      0. 0. 0. 0. 0. 0. 0. 0. 0.</_>
    <_>
      110. 100. 100. 100. 130. 85. 100. 71. 94. 0. 0. 0. 0. 0. 56. 43.
      25. 0. 0. 0. 0. 0. 8. 20. 0. 0. 0. 0. 0. 0. 0. 0. 0. 0. 0. 0. 0.
      0. 0. 0. 0. 0. 0. 0. 0. 0. 0. 0.</_>
    <_>
      110. 100. 100. 100. 57. 89. 90. 71. 94. 0. 0. 0. 0. 0. 1. 4. 31.
      15. 0. 0. 0. 0. 14. 5. 0. 0. 0. 0. 0. 0. 0. 0. 0. 0. 0. 0. 0. 0.
      0. 0. 0. 0. 0. 0. 0. 0. 0. 0.</_>
    <_>
      110. 100. 100. 100. 145. 77. 76. 130. 103. 0. 0. 0. 0. 71. 8. 43.
      19. 0. 0. 0. 0. 0. 0. 0. 0. 0. 0. 0. 25. 20. 0. 0. 0. 0. 0. 0. 0.
      0. 0. 0. 0. 0. 0. 0. 0. 0. 0. 0.</_>
    <_>
      110. 100. 100. 100. 84. 98. 76. 71. 94. 0. 0. 0. 23. 23. 0. 0. 0.
      16. 35. 0. 0. 0. 0. 0. 0. 0. 0. 0. 0. 0. 0. 0. 0. 0. 0. 0. 0. 0.
      0. 0. 0. 0. 0. 0. 0. 0. 0. 0.</_>
    <_>
      110. 100. 100. 100. 52. 81. 86. 71. 94. 0. 0. 0. 0. 0. 0. 0. 30.
      15. 0. 0. 0. 0. 0. 1. 7. 0. 0. 0. 0. 0. 0. 0. 0. 0. 0. 0. 0. 0. 0.
      0. 0. 0. 0. 0. 0. 0. 0. 0.</_>
    <_>
      110. 100. 100. 100. 57. 122. 92. 71. 94. 0. 0. 0. 1. 28. 18. 0. 0.
      0. 0. 0. 9. 49. 0. 0. 0. 0. 0. 0. 0. 0. 0. 0. 0. 0. 0. 0. 0. 0. 0.
      0. 0. 0. 0. 0. 0. 0. 0. 0.</_>
    <_>
      110. 100. 100. 100. 72. 77. 79. 71. 94. 0. 0. 0. 31. 31. 0. 0. 0.
      0. 0. 0. 0. 0. 0. 2. 0. 0. 0. 0. 0. 0. 0. 0. 0. 0. 0. 0. 0. 0. 0.
      0. 0. 0. 0. 0. 0. 0. 0. 0.</_>
    <_>
      110. 100. 100. 100. 18. 122. 117. 71. 94. 0. 0. 0. 2. 1. 0. 0. 0.
      2. 0. 0. 0. 49. 10. 16. 3. 0. 0. 0. 0. 0. 0. 0. 0. 0. 0. 0. 0. 0.
      0. 0. 0. 0. 0. 0. 0. 0. 0. 0.</_>
    <_>
      110. 100. 100. 100. 64. 112. 100. 71. 94. 0. 0. 0. 0. 0. 0. 0. 19.
      47. 0. 0. 0. 10. 33. 0. 0. 0. 0. 0. 0. 0. 0. 0. 0. 0. 0. 0. 0. 0.
      0. 0. 0. 0. 0. 0. 0. 0. 0. 0.</_>
    <_>
      110. 100. 100. 100. 59. 80. 76. 107. 131. 0. 0. 0. 0. 0. 0. 37. 9.
      0. 6. 0. 0. 0. 0. 0. 0. 0. 0. 0. 0. 10. 34. 0. 0. 0. 0. 0. 0. 0.
      0. 0. 0. 0. 0. 0. 0. 0. 0. 0.</_>
    <_>
      110. 100. 100. 100. 103. 88. 76. 71. 94. 0. 0. 0. 0. 50. 12. 0. 0.
      43. 3. 0. 0. 0. 0. 0. 0. 0. 0. 0. 0. 0. 0. 0. 0. 0. 0. 0. 0. 0. 0.
      0. 0. 0. 0. 0. 0. 0. 0. 0.</_>
    <_>
      110. 100. 100. 100. 52. 82. 77. 71. 94. 0. 0. 0. 0. 0. 0. 31. 10.
      0. 0. 0. 5. 1. 0. 0. 0. 0. 0. 0. 0. 0. 0. 0. 0. 0. 0. 0. 0. 0. 0.
      0. 0. 0. 0. 0. 0. 0. 0. 0.</_>
    <_>
      110. 100. 100. 100. 101. 85. 76. 71. 94. 0. 0. 0. 46. 0. 0. 2. 21.
      33. 0. 0. 0. 0. 0. 0. 0. 0. 0. 0. 0. 0. 0. 0. 0. 0. 0. 0. 0. 0. 0.
      0. 0. 0. 0. 0. 0. 0. 0. 0.</_>
    <_>
      110. 100. 100. 100. 160. 77. 76. 71. 94. 0. 0. 0. 28. 113. 14. 2.
      1. 0. 0. 0. 0. 0. 0. 0. 0. 0. 0. 0. 0. 0. 0. 0. 0. 0. 0. 0. 0. 0.
      0. 0. 0. 0. 0. 0. 0. 0. 0. 0.</_>
    <_>
      110. 100. 100. 100. 82. 101. 76. 71. 94. 0. 0. 0. 42. 5. 0. 0. 0.
      4. 48. 0. 0. 0. 0. 0. 0. 0. 0. 0. 0. 0. 0. 0. 0. 0. 0. 0. 0. 0. 0.
      0. 0. 0. 0. 0. 0. 0. 0. 0.</_>
    <_>
      110. 100. 100. 100. 49. 142. 76. 73. 94. 0. 0. 0. 0. 0. 0. 0. 0.
      0. 48. 57. 0. 0. 0. 0. 0. 0. 0. 0. 1. 0. 0. 0. 0. 0. 0. 0. 0. 0.
      0. 0. 0. 0. 0. 0. 0. 0. 0. 0.</_>
    <_>
      110. 100. 100. 100. 103. 91. 76. 71. 94. 0. 0. 0. 0. 37. 10. 1. 4.
      57. 0. 0. 0. 0. 0. 0. 0. 0. 0. 0. 0. 0. 0. 0. 0. 0. 0. 0. 0. 0. 0.
      0. 0. 0. 0. 0. 0. 0. 0. 0.</_>
    <_>
      110. 100. 100. 100. 35. 77. 77. 72. 94. 0. 0. 0. 6. 15. 0. 2. 0.
      0. 0. 0. 0. 0. 0. 0. 0. 1. 1. 0. 0. 0. 0. 0. 0. 0. 0. 0. 0. 0. 0.
      0. 0. 0. 0. 0. 0. 0. 0. 0.</_>
    <_>
      110. 100. 100. 100. 74. 109. 90. 71. 94. 0. 0. 0. 0. 40. 25. 0. 0.
      0. 0. 0. 1. 42. 0. 0. 0. 0. 0. 0. 0. 0. 0. 0. 0. 0. 0. 0. 0. 0. 0.
      0. 0. 0. 0. 0. 0. 0. 0. 0.</_>
    <_>
      110. 100. 100. 100. 87. 77. 110. 91. 94. 0. 0. 0. 0. 8. 71. 0. 0.
      0. 0. 0. 0. 0. 0. 0. 0. 26. 15. 0. 0. 0. 0. 0. 0. 0. 0. 0. 0. 0.
      0. 0. 0. 0. 0. 0. 0. 0. 0. 0.</_>
    <_>
      110. 100. 100. 100. 137. 78. 76. 71. 94. 0. 0. 0. 0. 4. 69. 16.
      38. 8. 0. 0. 0. 0. 0. 0. 0. 0. 0. 0. 0. 0. 0. 0. 0. 0. 0. 0. 0. 0.
      0. 0. 0. 0. 0. 0. 0. 0. 0. 0.</_>
    <_>
      110. 100. 100. 100. 92. 108. 76. 71. 94. 0. 0. 0. 0. 5. 43. 0. 0.
      6. 60. 1. 0. 0. 0. 0. 0. 0. 0. 0. 0. 0. 0. 0. 0. 0. 0. 0. 0. 0. 0.
      0. 0. 0. 0. 0. 0. 0. 0. 0.</_>
    <_>
      110. 100. 100. 100. 77. 77. 77. 71. 94. 0. 0. 0. 5. 33. 31. 0. 0.
      0. 0. 0. 0. 1. 0. 0. 0. 0. 0. 0. 0. 0. 0. 0. 0. 0. 0. 0. 0. 0. 0.
      0. 0. 0. 0. 0. 0. 0. 0. 0.</_>
    <_>
      110. 100. 100. 100. 162. 117. 99. 71. 94. 0. 0. 0. 0. 0. 25. 57.
      76. 3. 0. 0. 0. 45. 13. 0. 0. 0. 0. 0. 0. 0. 0. 0. 0. 0. 0. 0. 0.
      0. 0. 0. 0. 0. 0. 0. 0. 0. 0. 0.</_>
    <_>
      110. 100. 100. 100. 45. 143. 105. 71. 94. 0. 0. 0. 2. 0. 0. 0. 0.
      32. 14. 0. 0. 59. 16. 0. 0. 0. 0. 0. 0. 0. 0. 0. 0. 0. 0. 0. 0. 0.
      0. 0. 0. 0. 0. 0. 0. 0. 0. 0.</_>
    <_>
      110. 100. 100. 100. 74. 77. 76. 71. 94. 0. 0. 0. 3. 0. 0. 43. 19.
      0. 0. 0. 0. 0. 0. 0. 0. 0. 0. 0. 0. 0. 0. 0. 0. 0. 0. 0. 0. 0. 0.
      0. 0. 0. 0. 0. 0. 0. 0. 0.</_>
    <_>
      110. 100. 100. 100. 141. 87. 76. 71. 94. 0. 0. 0. 0. 37. 44. 2.
      24. 38. 2. 0. 0. 0. 0. 0. 0. 0. 0. 0. 0. 0. 0. 0. 0. 0. 0. 0. 0.
      0. 0. 0. 0. 0. 0. 0. 0. 0. 0. 0.</_>
    <_>
      110. 100. 100. 100. 101. 77. 76. 71. 94. 0. 0. 0. 0. 0. 1. 34. 56.
      3. 0. 0. 0. 0. 0. 0. 0. 0. 0. 0. 0. 0. 0. 0. 0. 0. 0. 0. 0. 0. 0.
      0. 0. 0. 0. 0. 0. 0. 0. 0.</_>
    <_>
      110. 100. 100. 100. 79. 132. 85. 159. 94. 0. 0. 0. 0. 17. 4. 5.
      41. 0. 0. 13. 46. 0. 0. 0. 0. 0. 0. 28. 39. 0. 0. 0. 0. 0. 0. 0.
      0. 0. 0. 0. 0. 0. 0. 0. 0. 0. 0. 0.</_>
    <_>
      110. 100. 100. 100. 99. 79. 126. 71. 94. 0. 0. 0. 0. 0. 0. 51. 41.
      0. 0. 0. 0. 0. 0. 9. 33. 0. 0. 0. 0. 0. 0. 0. 0. 0. 0. 0. 0. 0. 0.
      0. 0. 0. 0. 0. 0. 0. 0. 0.</_>
    <_>
      110. 100. 100. 100. 99. 110. 78. 71. 94. 0. 0. 0. 0. 0. 16. 33. 0.
      19. 58. 0. 0. 0. 0. 0. 0. 1. 0. 0. 0. 0. 0. 0. 0. 0. 0. 0. 0. 0.
      0. 0. 0. 0. 0. 0. 0. 0. 0. 0.</_>
    <_>
      110. 100. 100. 100. 96. 77. 76. 71. 94. 0. 0. 0. 50. 12. 15. 9. 2.
      0. 0. 0. 0. 0. 0. 0. 0. 0. 0. 0. 0. 0. 0. 0. 0. 0. 0. 0. 0. 0. 0.
      0. 0. 0. 0. 0. 0. 0. 0. 0.</_>
    <_>
      110. 100. 100. 100. 77. 77. 76. 71. 94. 0. 0. 0. 0. 31. 31. 5. 0.
      0. 0. 0. 0. 0. 0. 0. 0. 0. 0. 0. 0. 0. 0. 0. 0. 0. 0. 0. 0. 0. 0.
      0. 0. 0. 0. 0. 0. 0. 0. 0.</_>
    <_>
      110. 100. 100. 100. 64. 93. 120. 71. 94. 0. 0. 0. 0. 1. 1. 0. 23.
      39. 0. 0. 0. 0. 0. 29. 13. 0. 0. 0. 0. 0. 0. 0. 0. 0. 0. 0. 0. 0.
      0. 0. 0. 0. 0. 0. 0. 0. 0. 0.</_>
    <_>
      110. 100. 100. 100. 23. 78. 121. 120. 94. 0. 0. 0. 0. 2. 3. 4. 0.
      0. 0. 1. 0. 0. 0. 0. 0. 5. 65. 0. 0. 0. 0. 0. 0. 0. 0. 0. 0. 0. 0.
      0. 0. 0. 0. 0. 0. 0. 0. 0.</_>
    <_>
      110. 100. 100. 100. 72. 119. 97. 72. 94. 0. 0. 0. 56. 6. 0. 0. 0.
      0. 0. 0. 0. 57. 2. 0. 0. 1. 1. 0. 0. 0. 0. 0. 0. 0. 0. 0. 0. 0. 0.
      0. 0. 0. 0. 0. 0. 0. 0. 0.</_>
    <_>
      110. 100. 100. 100. 99. 82. 76. 71. 94. 0. 0. 0. 0. 9. 39. 3. 23.
      23. 0. 0. 0. 0. 0. 0. 0. 0. 0. 0. 0. 0. 0. 0. 0. 0. 0. 0. 0. 0. 0.
      0. 0. 0. 0. 0. 0. 0. 0. 0.</_>
    <_>
      110. 100. 100. 100. 61. 77. 76. 71. 94. 0. 0. 0. 1. 2. 3. 41. 5.
      0. 0. 0. 0. 0. 0. 0. 0. 0. 0. 0. 0. 0. 0. 0. 0. 0. 0. 0. 0. 0. 0.
      0. 0. 0. 0. 0. 0. 0. 0. 0.</_>
    <_>
      110. 100. 100. 100. 53. 82. 78. 75. 94. 0. 0. 0. 0. 0. 1. 1. 24.
      22. 0. 0. 0. 0. 0. 0. 0. 0. 2. 2. 0. 0. 0. 0. 0. 0. 0. 0. 0. 0. 0.
      0. 0. 0. 0. 0. 0. 0. 0. 0.</_>
    <_>
      110. 100. 100. 100. 76. 77. 76. 71. 94. 0. 0. 0. 0. 64. 1. 1. 1.
      0. 0. 0. 0. 0. 0. 0. 0. 0. 0. 0. 0. 0. 0. 0. 0. 0. 0. 0. 0. 0. 0.
      0. 0. 0. 0. 0. 0. 0. 0. 0.</_>
    <_>
      110. 100. 100. 100. 80. 77. 76. 72. 94. 0. 0. 0. 0. 0. 0. 38. 33.
      0. 0. 0. 0. 0. 0. 0. 0. 0. 0. 0. 0. 1. 0. 0. 0. 0. 0. 0. 0. 0. 0.
      0. 0. 0. 0. 0. 0. 0. 0. 0.</_>
    <_>
      110. 100. 100. 100. 56. 77. 76. 91. 101. 0. 0. 0. 0. 14. 32. 0. 0.
      0. 0. 0. 0. 0. 0. 0. 0. 0. 0. 0. 2. 15. 0. 0. 0. 0. 0. 0. 0. 0. 0.
      0. 0. 0. 0. 0. 0. 0. 0. 0.</_>
    <_>
      110. 100. 100. 100. 51. 84. 76. 80. 96. 0. 0. 0. 0. 0. 0. 0. 19.
      29. 0. 0. 0. 0. 0. 0. 0. 0. 0. 0. 2. 6. 0. 0. 0. 0. 0. 0. 0. 0. 0.
      0. 0. 0. 0. 0. 0. 0. 0. 0.</_>
    <_>
      110. 100. 100. 100. 49. 83. 164. 73. 94. 0. 0. 0. 0. 0. 0. 0. 18.
      28. 0. 0. 0. 0. 0. 0. 66. 5. 0. 0. 0. 0. 0. 0. 0. 0. 0. 0. 0. 0.
      0. 0. 0. 0. 0. 0. 0. 0. 0. 0.</_>
    <_>
      110. 100. 100. 100. 61. 91. 85. 73. 94. 0. 0. 0. 0. 2. 0. 0. 3.
      61. 0. 0. 0. 0. 0. 0. 3. 6. 0. 0. 0. 0. 0. 0. 0. 0. 0. 0. 0. 0. 0.
      0. 0. 0. 0. 0. 0. 0. 0. 0.</_>
    <_>
      110. 100. 100. 100. 52. 125. 134. 71. 94. 0. 0. 0. 0. 0. 0. 1. 1.
      2. 75. 0. 0. 0. 0. 43. 14. 0. 0. 0. 0. 0. 0. 0. 0. 0. 0. 0. 0. 0.
      0. 0. 0. 0. 0. 0. 0. 0. 0. 0.</_>
    <_>
      110. 100. 100. 100. 18. 77. 84. 165. 109. 0. 0. 0. 0. 0. 1. 3. 0.
      0. 0. 0. 0. 0. 0. 0. 0. 0. 0. 24. 22. 32. 0. 0. 0. 0. 0. 0. 0. 0.
      0. 0. 0. 0. 0. 0. 0. 0. 0. 0.</_>
    <_>
      110. 100. 100. 100. 92. 77. 76. 71. 94. 0. 0. 0. 56. 26. 0. 0. 2.
      0. 0. 0. 0. 0. 0. 0. 0. 0. 0. 0. 0. 0. 0. 0. 0. 0. 0. 0. 0. 0. 0.
      0. 0. 0. 0. 0. 0. 0. 0. 0.</_>
    <_>
      110. 100. 100. 100. 89. 104. 76. 74. 94. 0. 0. 0. 0. 56. 7. 0. 0.
      0. 24. 21. 0. 0. 0. 0. 0. 0. 0. 0. 1. 2. 0. 0. 0. 0. 0. 0. 0. 0.
      0. 0. 0. 0. 0. 0. 0. 0. 0. 0.</_>
    <_>
      110. 100. 100. 100. 77. 77. 80. 78. 94. 0. 0. 0. 0. 0. 0. 35. 33.
      0. 0. 0. 0. 0. 0. 0. 0. 0. 5. 3. 0. 0. 0. 0. 0. 0. 0. 0. 0. 0. 0.
      0. 0. 0. 0. 0. 0. 0. 0. 0.</_>
    <_>
      110. 100. 100. 100. 89. 85. 79. 71. 94. 0. 0. 0. 0. 0. 0. 0. 74.
      6. 5. 0. 0. 6. 1. 0. 0. 0. 0. 0. 0. 0. 0. 0. 0. 0. 0. 0. 0. 0. 0.
      0. 0. 0. 0. 0. 0. 0. 0. 0.</_>
    <_>
      110. 100. 100. 100. 67. 77. 76. 71. 94. 0. 0. 0. 2. 6. 3. 28. 18.
      0. 0. 0. 0. 0. 0. 0. 0. 0. 0. 0. 0. 0. 0. 0. 0. 0. 0. 0. 0. 0. 0.
      0. 0. 0. 0. 0. 0. 0. 0. 0.</_>
    <_>
      110. 100. 100. 100. 93. 77. 76. 71. 94. 0. 0. 0. 1. 1. 54. 29. 0.
      0. 0. 0. 0. 0. 0. 0. 0. 0. 0. 0. 0. 0. 0. 0. 0. 0. 0. 0. 0. 0. 0.
      0. 0. 0. 0. 0. 0. 0. 0. 0.</_>
    <_>
      110. 100. 100. 100. 33. 88. 118. 71. 94. 0. 0. 0. 0. 0. 8. 12. 0.
      0. 0. 0. 2. 0. 0. 36. 6. 0. 0. 0. 0. 0. 0. 0. 0. 0. 0. 0. 0. 0. 0.
      0. 0. 0. 0. 0. 0. 0. 0. 0.</_>
    <_>
      110. 100. 100. 100. 86. 105. 76. 71. 94. 0. 0. 0. 0. 0. 0. 0. 1.
      95. 11. 0. 0. 0. 0. 0. 0. 0. 0. 0. 0. 0. 0. 0. 0. 0. 0. 0. 0. 0.
      0. 0. 0. 0. 0. 0. 0. 0. 0. 0.</_>
    <_>
      110. 100. 100. 100. 71. 112. 76. 71. 94. 0. 0. 0. 0. 0. 0. 38. 16.
      0. 0. 31. 13. 0. 0. 0. 0. 0. 0. 0. 0. 0. 0. 0. 0. 0. 0. 0. 0. 0.
      0. 0. 0. 0. 0. 0. 0. 0. 0. 0.</_>
    <_>
      110. 100. 100. 100. 95. 121. 76. 71. 94. 0. 0. 0. 0. 0. 72. 10. 0.
      0. 0. 25. 27. 0. 0. 0. 0. 0. 0. 0. 0. 0. 0. 0. 0. 0. 0. 0. 0. 0.
      0. 0. 0. 0. 0. 0. 0. 0. 0. 0.</_>
    <_>
      110. 100. 100. 100. 87. 104. 76. 71. 94. 0. 0. 0. 0. 0. 9. 37. 0.
      8. 52. 0. 0. 0. 0. 0. 0. 0. 0. 0. 0. 0. 0. 0. 0. 0. 0. 0. 0. 0. 0.
      0. 0. 0. 0. 0. 0. 0. 0. 0.</_>
    <_>
      110. 100. 100. 100. 59. 79. 76. 71. 94. 0. 0. 0. 0. 29. 20. 0. 0.
      0. 0. 1. 1. 0. 0. 0. 0. 0. 0. 0. 0. 0. 0. 0. 0. 0. 0. 0. 0. 0. 0.
      0. 0. 0. 0. 0. 0. 0. 0. 0.</_>
    <_>
      110. 100. 100. 100. 59. 77. 91. 153. 94. 0. 0. 0. 0. 37. 10. 3. 0.
      0. 0. 0. 0. 0. 0. 0. 0. 0. 0. 48. 20. 0. 0. 0. 0. 0. 0. 0. 0. 0.
      0. 0. 0. 0. 0. 0. 0. 0. 0. 0.</_>
    <_>
      110. 100. 100. 100. 63. 78. 114. 128. 94. 0. 0. 0. 0. 6. 3. 0. 40.
      6. 0. 0. 0. 0. 0. 0. 0. 0. 50. 18. 0. 0. 0. 0. 0. 0. 0. 0. 0. 0.
      0. 0. 0. 0. 0. 0. 0. 0. 0. 0.</_>
    <_>
      110. 100. 100. 100. 113. 78. 86. 123. 118. 0. 0. 0. 0. 0. 0. 18.
      84. 6. 0. 0. 0. 0. 0. 0. 0. 0. 0. 30. 10. 0. 0. 14. 2. 0. 0. 0. 0.
      0. 0. 0. 0. 0. 0. 0. 0. 0. 0. 0.</_>
    <_>
      110. 100. 100. 100. 63. 147. 76. 71. 94. 0. 0. 0. 0. 1. 2. 32. 14.
      0. 0. 20. 57. 0. 0. 0. 0. 0. 0. 0. 0. 0. 0. 0. 0. 0. 0. 0. 0. 0.
      0. 0. 0. 0. 0. 0. 0. 0. 0. 0.</_>
    <_>
      110. 100. 100. 100. 34. 77. 76. 71. 94. 0. 0. 0. 0. 0. 0. 21. 0.
      2. 0. 0. 0. 0. 0. 0. 0. 0. 0. 0. 0. 0. 0. 0. 0. 0. 0. 0. 0. 0. 0.
      0. 0. 0. 0. 0. 0. 0. 0. 0.</_>
    <_>
      110. 100. 100. 100. 113. 93. 77. 71. 94. 0. 0. 0. 0. 0. 6. 56. 0.
      57. 5. 0. 0. 0. 0. 1. 0. 0. 0. 0. 0. 0. 0. 0. 0. 0. 0. 0. 0. 0. 0.
      0. 0. 0. 0. 0. 0. 0. 0. 0.</_>
    <_>
      110. 100. 100. 100. 91. 116. 76. 82. 111. 0. 0. 0. 0. 32. 47. 0.
      0. 0. 0. 16. 29. 0. 0. 0. 0. 0. 0. 0. 0. 0. 14. 2. 0. 0. 0. 0. 0.
      0. 0. 0. 0. 0. 0. 0. 0. 0. 0. 0.</_>
    <_>
      110. 100. 100. 100. 13. 77. 79. 144. 144. 0. 0. 0. 0. 0. 0. 0. 0.
      0. 0. 0. 0. 0. 0. 0. 2. 0. 0. 0. 24. 15. 22. 15. 0. 0. 0. 0. 0. 0.
      0. 0. 0. 0. 0. 0. 0. 0. 0. 0.</_>
    <_>
      110. 100. 100. 100. 96. 77. 76. 75. 102. 0. 0. 0. 0. 14. 46. 27.
      0. 0. 0. 0. 0. 0. 0. 0. 0. 0. 0. 0. 0. 0. 5. 2. 0. 0. 0. 0. 0. 0.
      0. 0. 0. 0. 0. 0. 0. 0. 0. 0.</_>
    <_>
      110. 100. 100. 100. 98. 93. 76. 71. 94. 0. 0. 0. 0. 0. 0. 0. 41.
      66. 0. 0. 0. 0. 0. 0. 0. 0. 0. 0. 0. 0. 0. 0. 0. 0. 0. 0. 0. 0. 0.
      0. 0. 0. 0. 0. 0. 0. 0. 0.</_>
    <_>
      110. 100. 100. 100. 78. 100. 85. 87. 94. 0. 0. 0. 0. 0. 0. 0. 13.
      66. 15. 0. 0. 0. 0. 0. 0. 0. 10. 8. 0. 0. 0. 0. 0. 0. 0. 0. 0. 0.
      0. 0. 0. 0. 0. 0. 0. 0. 0. 0.</_>
    <_>
      110. 100. 100. 100. 115. 77. 162. 75. 94. 0. 0. 0. 0. 0. 95. 14.
      0. 0. 0. 0. 0. 0. 0. 0. 60. 11. 0. 0. 0. 0. 0. 0. 0. 0. 0. 0. 0.
      0. 0. 0. 0. 0. 0. 0. 0. 0. 0. 0.</_>
    <_>
      110. 100. 100. 100. 92. 114. 76. 71. 94. 0. 0. 0. 0. 0. 0. 39. 39.
      0. 0. 24. 20. 0. 0. 0. 0. 0. 0. 0. 0. 0. 0. 0. 0. 0. 0. 0. 0. 0.
      0. 0. 0. 0. 0. 0. 0. 0. 0. 0.</_>
    <_>
      110. 100. 100. 100. 71. 145. 83. 71. 94. 0. 0. 0. 0. 44. 19. 0. 0.
      0. 0. 0. 55. 21. 0. 0. 0. 0. 0. 0. 0. 0. 0. 0. 0. 0. 0. 0. 0. 0.
      0. 0. 0. 0. 0. 0. 0. 0. 0. 0.</_>
    <_>
      110. 100. 100. 100. 91. 77. 76. 71. 94. 0. 0. 0. 12. 8. 31. 31. 0.
      0. 0. 0. 0. 0. 0. 0. 0. 0. 0. 0. 0. 0. 0. 0. 0. 0. 0. 0. 0. 0. 0.
      0. 0. 0. 0. 0. 0. 0. 0. 0.</_>
    <_>
      110. 100. 100. 100. 99. 97. 76. 71. 94. 0. 0. 0. 1. 2. 31. 31. 0.
      12. 36. 0. 0. 0. 0. 0. 0. 0. 0. 0. 0. 0. 0. 0. 0. 0. 0. 0. 0. 0.
      0. 0. 0. 0. 0. 0. 0. 0. 0. 0.</_>
    <_>
      110. 100. 100. 100. 42. 93. 76. 71. 94. 0. 0. 0. 0. 0. 0. 0. 0.
      29. 19. 0. 0. 0. 0. 0. 0. 0. 0. 0. 0. 0. 0. 0. 0. 0. 0. 0. 0. 0.
      0. 0. 0. 0. 0. 0. 0. 0. 0. 0.</_>
    <_>
      110. 100. 100. 100. 30. 179. 85. 71. 94. 0. 0. 0. 1. 1. 0. 3. 4.
      0. 0. 35. 58. 26. 0. 0. 0. 0. 0. 0. 0. 0. 0. 0. 0. 0. 0. 0. 0. 0.
      0. 0. 0. 0. 0. 0. 0. 0. 0. 0.</_>
    <_>
      110. 100. 100. 100. 68. 148. 76. 71. 94. 0. 0. 0. 0. 4. 5. 0. 46.
      0. 0. 13. 63. 0. 0. 0. 0. 0. 0. 0. 0. 0. 0. 0. 0. 0. 0. 0. 0. 0.
      0. 0. 0. 0. 0. 0. 0. 0. 0. 0.</_>
    <_>
      110. 100. 100. 100. 99. 94. 76. 71. 94. 0. 0. 0. 0. 0. 0. 13. 50.
      21. 24. 0. 0. 0. 0. 0. 0. 0. 0. 0. 0. 0. 0. 0. 0. 0. 0. 0. 0. 0.
      0. 0. 0. 0. 0. 0. 0. 0. 0. 0.</_>
    <_>
      110. 100. 100. 100. 105. 101. 76. 71. 94. 0. 0. 0. 0. 0. 9. 37. 0.
      54. 23. 0. 0. 0. 0. 0. 0. 0. 0. 0. 0. 0. 0. 0. 0. 0. 0. 0. 0. 0.
      0. 0. 0. 0. 0. 0. 0. 0. 0. 0.</_>
    <_>
      110. 100. 100. 100. 13. 150. 149. 95. 94. 0. 0. 0. 0. 0. 0. 0. 0.
      0. 0. 0. 0. 37. 95. 0. 0. 0. 0. 5. 12. 0. 0. 0. 0. 0. 0. 0. 0. 0.
      0. 0. 0. 0. 0. 0. 0. 0. 0. 0.</_>
    <_>
      110. 100. 100. 100. 108. 86. 76. 71. 94. 0. 0. 0. 1. 2. 0. 62. 9.
      36. 0. 0. 0. 0. 0. 0. 0. 0. 0. 0. 0. 0. 0. 0. 0. 0. 0. 0. 0. 0. 0.
      0. 0. 0. 0. 0. 0. 0. 0. 0.</_>
    <_>
      110. 100. 100. 100. 70. 90. 76. 71. 94. 0. 0. 0. 0. 0. 5. 6. 8.
      56. 0. 0. 0. 0. 0. 0. 0. 0. 0. 0. 0. 0. 0. 0. 0. 0. 0. 0. 0. 0. 0.
      0. 0. 0. 0. 0. 0. 0. 0. 0.</_>
    <_>
      110. 100. 100. 100. 13. 98. 109. 90. 94. 0. 0. 0. 0. 0. 0. 0. 0.
      0. 0. 0. 0. 1. 42. 0. 0. 0. 3. 15. 0. 0. 0. 0. 0. 0. 0. 0. 0. 0.
      0. 0. 0. 0. 0. 0. 0. 0. 0. 0.</_>
    <_>
      110. 100. 100. 100. 16. 103. 96. 80. 151. 0. 0. 0. 1. 2. 0. 0. 0.
      0. 0. 0. 0. 22. 21. 0. 0. 0. 0. 0. 0. 0. 0. 25. 10. 0. 0. 0. 0. 0.
      0. 0. 0. 0. 0. 0. 0. 0. 0. 0.</_>
    <_>
      110. 100. 100. 100. 99. 77. 76. 71. 94. 0. 0. 0. 0. 42. 5. 5. 41.
      0. 0. 0. 0. 0. 0. 0. 0. 0. 0. 0. 0. 0. 0. 0. 0. 0. 0. 0. 0. 0. 0.
      0. 0. 0. 0. 0. 0. 0. 0. 0.</_>
    <_>
      110. 100. 100. 100. 83. 159. 76. 71. 94. 0. 0. 0. 1. 4. 0. 0. 0.
      37. 51. 66. 0. 0. 0. 0. 0. 0. 0. 0. 0. 0. 0. 0. 0. 0. 0. 0. 0. 0.
      0. 0. 0. 0. 0. 0. 0. 0. 0. 0.</_>
    <_>
      110. 100. 100. 100. 73. 77. 78. 82. 94. 0. 0. 0. 6. 56. 0. 0. 1.
      0. 0. 0. 0. 0. 0. 0. 0. 1. 0. 1. 7. 0. 0. 0. 0. 0. 0. 0. 0. 0. 0.
      0. 0. 0. 0. 0. 0. 0. 0. 0.</_>
    <_>
      110. 100. 100. 100. 92. 86. 114. 87. 94. 0. 0. 0. 0. 1. 47. 0. 6.
      40. 0. 0. 0. 0. 0. 0. 0. 37. 4. 0. 0. 0. 0. 0. 0. 0. 0. 0. 0. 0.
      0. 0. 0. 0. 0. 0. 0. 0. 0. 0.</_>
    <_>
      110. 100. 100. 100. 71. 77. 90. 113. 94. 0. 0. 0. 0. 0. 0. 25. 37.
      0. 0. 0. 0. 0. 0. 0. 0. 0. 4. 35. 0. 0. 0. 0. 0. 0. 0. 0. 0. 0. 0.
      0. 0. 0. 0. 0. 0. 0. 0. 0.</_>
    <_>
      110. 100. 100. 100. 110. 98. 76. 71. 94. 0. 0. 0. 0. 0. 37. 25. 0.
      43. 19. 0. 2. 0. 0. 0. 0. 0. 0. 0. 0. 0. 0. 0. 0. 0. 0. 0. 0. 0.
      0. 0. 0. 0. 0. 0. 0. 0. 0. 0.</_>
    <_>
      110. 100. 100. 100. 116. 122. 76. 71. 94. 0. 0. 0. 0. 0. 47. 20.
      0. 14. 57. 19. 0. 0. 0. 0. 0. 0. 0. 0. 0. 0. 0. 0. 0. 0. 0. 0. 0.
      0. 0. 0. 0. 0. 0. 0. 0. 0. 0. 0.</_>
    <_>
      110. 100. 100. 100. 87. 99. 101. 73. 98. 0. 0. 0. 0. 71. 8. 0. 0.
      0. 0. 0. 0. 6. 37. 0. 0. 0. 0. 0. 0. 0. 2. 2. 0. 0. 0. 0. 0. 0. 0.
      0. 0. 0. 0. 0. 0. 0. 0. 0.</_>
    <_>
      110. 100. 100. 100. 14. 112. 134. 108. 94. 0. 0. 0. 0. 0. 0. 0. 1.
      0. 0. 0. 0. 9. 57. 0. 0. 0. 20. 20. 0. 0. 0. 0. 0. 0. 0. 0. 0. 0.
      0. 0. 0. 0. 0. 0. 0. 0. 0. 0.</_>
    <_>
      110. 100. 100. 100. 56. 77. 81. 71. 94. 0. 0. 0. 0. 0. 0. 14. 32.
      0. 0. 0. 0. 0. 0. 2. 2. 0. 0. 0. 0. 0. 0. 0. 0. 0. 0. 0. 0. 0. 0.
      0. 0. 0. 0. 0. 0. 0. 0. 0.</_>
    <_>
      110. 100. 100. 100. 92. 77. 76. 71. 94. 0. 0. 0. 55. 27. 2. 0. 0.
      0. 0. 0. 0. 0. 0. 0. 0. 0. 0. 0. 0. 0. 0. 0. 0. 0. 0. 0. 0. 0. 0.
      0. 0. 0. 0. 0. 0. 0. 0. 0.</_>
    <_>
      110. 100. 100. 100. 104. 149. 76. 71. 94. 0. 0. 0. 0. 1. 2. 1. 46.
      34. 44. 0. 44. 0. 0. 0. 0. 0. 0. 0. 0. 0. 0. 0. 0. 0. 0. 0. 0. 0.
      0. 0. 0. 0. 0. 0. 0. 0. 0. 0.</_>
    <_>
      110. 100. 100. 100. 133. 77. 76. 71. 94. 0. 0. 0. 0. 0. 26. 51.
      51. 0. 0. 0. 0. 0. 0. 0. 0. 0. 0. 0. 0. 0. 0. 0. 0. 0. 0. 0. 0. 0.
      0. 0. 0. 0. 0. 0. 0. 0. 0. 0.</_>
    <_>
      110. 100. 100. 100. 22. 77. 115. 134. 94. 0. 0. 0. 0. 3. 1. 6. 0.
      0. 0. 0. 0. 0. 0. 3. 3. 0. 33. 35. 0. 0. 0. 0. 0. 0. 0. 0. 0. 0.
      0. 0. 0. 0. 0. 0. 0. 0. 0. 0.</_>
    <_>
      110. 100. 100. 100. 18. 132. 99. 71. 94. 0. 0. 0. 0. 1. 1. 2. 1.
      0. 0. 0. 2. 73. 0. 0. 0. 0. 0. 0. 0. 0. 0. 0. 0. 0. 0. 0. 0. 0. 0.
      0. 0. 0. 0. 0. 0. 0. 0. 0.</_>
    <_>
      110. 100. 100. 100. 102. 91. 76. 71. 94. 0. 0. 0. 0. 0. 32. 16. 2.
      61. 0. 0. 0. 0. 0. 0. 0. 0. 0. 0. 0. 0. 0. 0. 0. 0. 0. 0. 0. 0. 0.
      0. 0. 0. 0. 0. 0. 0. 0. 0.</_>
    <_>
      110. 100. 100. 100. 61. 94. 107. 71. 94. 0. 0. 0. 2. 1. 10. 39. 0.
      0. 0. 0. 0. 0. 29. 14. 0. 0. 0. 0. 0. 0. 0. 0. 0. 0. 0. 0. 0. 0.
      0. 0. 0. 0. 0. 0. 0. 0. 0. 0.</_>
    <_>
      110. 100. 100. 100. 57. 85. 86. 75. 99. 0. 0. 0. 3. 6. 0. 0. 15.
      31. 0. 0. 0. 0. 0. 2. 6. 0. 0. 0. 0. 1. 5. 0. 0. 0. 0. 0. 0. 0. 0.
      0. 0. 0. 0. 0. 0. 0. 0. 0.</_>
    <_>
      110. 100. 100. 100. 13. 115. 153. 76. 98. 0. 0. 0. 0. 0. 0. 0. 0.
      0. 0. 0. 0. 16. 42. 25. 17. 0. 0. 0. 0. 2. 3. 0. 0. 0. 0. 0. 0. 0.
      0. 0. 0. 0. 0. 0. 0. 0. 0. 0.</_>
    <_>
      110. 100. 100. 100. 138. 96. 76. 71. 94. 0. 0. 0. 14. 95. 0. 0. 0.
      10. 35. 0. 0. 0. 0. 0. 0. 0. 0. 0. 0. 0. 0. 0. 0. 0. 0. 0. 0. 0.
      0. 0. 0. 0. 0. 0. 0. 0. 0. 0.</_>
    <_>
      110. 100. 100. 100. 85. 77. 76. 71. 94. 0. 0. 0. 1. 1. 0. 66. 8.
      0. 0. 0. 0. 0. 0. 0. 0. 0. 0. 0. 0. 0. 0. 0. 0. 0. 0. 0. 0. 0. 0.
      0. 0. 0. 0. 0. 0. 0. 0. 0.</_>
    <_>
      110. 100. 100. 100. 148. 77. 76. 71. 94. 0. 0. 0. 0. 50. 83. 10.
      0. 0. 0. 0. 0. 0. 0. 0. 0. 0. 0. 0. 0. 0. 0. 0. 0. 0. 0. 0. 0. 0.
      0. 0. 0. 0. 0. 0. 0. 0. 0. 0.</_>
    <_>
      110. 100. 100. 100. 83. 103. 76. 71. 94. 0. 0. 0. 0. 2. 1. 0. 20.
      52. 27. 0. 0. 0. 0. 0. 0. 0. 0. 0. 0. 0. 0. 0. 0. 0. 0. 0. 0. 0.
      0. 0. 0. 0. 0. 0. 0. 0. 0. 0.</_>
    <_>
      110. 100. 100. 100. 80. 77. 76. 71. 94. 0. 0. 0. 3. 10. 56. 0. 0.
      2. 0. 0. 0. 0. 0. 0. 0. 0. 0. 0. 0. 0. 0. 0. 0. 0. 0. 0. 0. 0. 0.
      0. 0. 0. 0. 0. 0. 0. 0. 0.</_>
    <_>
      110. 100. 100. 100. 79. 100. 76. 71. 94. 0. 0. 0. 0. 0. 1. 34. 14.
      0. 39. 5. 0. 0. 0. 0. 0. 0. 0. 0. 0. 0. 0. 0. 0. 0. 0. 0. 0. 0. 0.
      0. 0. 0. 0. 0. 0. 0. 0. 0.</_>
    <_>
      110. 100. 100. 100. 96. 77. 76. 71. 94. 0. 0. 0. 57. 9. 11. 12. 0.
      0. 0. 0. 0. 0. 0. 0. 0. 0. 0. 0. 0. 0. 0. 0. 0. 0. 0. 0. 0. 0. 0.
      0. 0. 0. 0. 0. 0. 0. 0. 0.</_>
    <_>
      110. 100. 100. 100. 18. 77. 76. 98. 130. 0. 0. 0. 0. 1. 4. 1. 0.
      0. 0. 0. 0. 0. 0. 0. 0. 0. 0. 0. 0. 0. 36. 1. 0. 0. 0. 0. 0. 0. 0.
      0. 0. 0. 0. 0. 0. 0. 0. 0.</_>
    <_>
      110. 100. 100. 100. 93. 77. 77. 71. 94. 0. 0. 0. 6. 15. 0. 51. 14.
      0. 0. 0. 0. 0. 1. 0. 0. 0. 0. 0. 0. 0. 0. 0. 0. 0. 0. 0. 0. 0. 0.
      0. 0. 0. 0. 0. 0. 0. 0. 0.</_>
    <_>
      110. 100. 100. 100. 122. 144. 77. 71. 94. 0. 0. 0. 0. 1. 46. 12.
      50. 0. 0. 28. 47. 0. 1. 0. 0. 0. 0. 0. 0. 0. 0. 0. 0. 0. 0. 0. 0.
      0. 0. 0. 0. 0. 0. 0. 0. 0. 0. 0.</_>
    <_>
      110. 100. 100. 100. 86. 105. 76. 71. 94. 0. 0. 0. 0. 0. 0. 41. 5.
      7. 54. 0. 0. 0. 0. 0. 0. 0. 0. 0. 0. 0. 0. 0. 0. 0. 0. 0. 0. 0. 0.
      0. 0. 0. 0. 0. 0. 0. 0. 0.</_>
    <_>
      110. 100. 100. 100. 43. 125. 93. 120. 94. 0. 0. 0. 0. 5. 0. 0. 0.
      0. 32. 45. 0. 0. 0. 0. 0. 0. 5. 41. 0. 0. 0. 0. 0. 0. 0. 0. 0. 0.
      0. 0. 0. 0. 0. 0. 0. 0. 0. 0.</_>
    <_>
      110. 100. 100. 100. 142. 89. 76. 71. 94. 0. 0. 0. 0. 28. 20. 24.
      27. 51. 0. 0. 0. 0. 0. 0. 0. 0. 0. 0. 0. 0. 0. 0. 0. 0. 0. 0. 0.
      0. 0. 0. 0. 0. 0. 0. 0. 0. 0. 0.</_>
    <_>
      110. 100. 100. 100. 63. 92. 80. 71. 94. 0. 0. 0. 0. 0. 0. 0. 26.
      36. 0. 0. 6. 1. 0. 0. 2. 1. 0. 0. 0. 0. 0. 0. 0. 0. 0. 0. 0. 0. 0.
      0. 0. 0. 0. 0. 0. 0. 0. 0.</_>
    <_>
      110. 100. 100. 100. 63. 90. 132. 73. 94. 0. 0. 0. 32. 14. 0. 0. 3.
      5. 0. 0. 0. 0. 0. 51. 6. 0. 0. 2. 0. 0. 0. 0. 0. 0. 0. 0. 0. 0. 0.
      0. 0. 0. 0. 0. 0. 0. 0. 0.</_>
    <_>
      110. 100. 100. 100. 42. 105. 84. 71. 94. 0. 0. 0. 0. 0. 0. 0. 0.
      19. 34. 0. 0. 4. 8. 1. 0. 0. 0. 0. 0. 0. 0. 0. 0. 0. 0. 0. 0. 0.
      0. 0. 0. 0. 0. 0. 0. 0. 0. 0.</_>
    <_>
      110. 100. 100. 100. 74. 77. 80. 79. 94. 0. 0. 0. 8. 56. 0. 0. 0.
      0. 0. 0. 0. 0. 0. 0. 0. 0. 3. 5. 0. 0. 0. 0. 0. 0. 0. 0. 0. 0. 0.
      0. 0. 0. 0. 0. 0. 0. 0. 0.</_>
    <_>
      110. 100. 100. 100. 149. 100. 76. 71. 94. 0. 0. 0. 0. 0. 0. 106.
      19. 0. 40. 5. 0. 0. 0. 0. 0. 0. 0. 0. 0. 0. 0. 0. 0. 0. 0. 0. 0.
      0. 0. 0. 0. 0. 0. 0. 0. 0. 0. 0.</_>
    <_>
      110. 100. 100. 100. 102. 96. 76. 71. 94. 0. 0. 0. 37. 25. 3. 4. 0.
      13. 32. 0. 0. 0. 0. 0. 0. 0. 0. 0. 0. 0. 0. 0. 0. 0. 0. 0. 0. 0.
      0. 0. 0. 0. 0. 0. 0. 0. 0. 0.</_>
    <_>
      110. 100. 100. 100. 60. 90. 76. 104. 135. 0. 0. 0. 0. 0. 0. 2. 6.
      56. 0. 0. 0. 0. 0. 0. 0. 0. 0. 0. 0. 3. 40. 0. 0. 0. 0. 0. 0. 0.
      0. 0. 0. 0. 0. 0. 0. 0. 0. 0.</_>
    <_>
      110. 100. 100. 100. 93. 104. 76. 71. 94. 0. 0. 0. 0. 0. 0. 23. 23.
      30. 31. 6. 1. 0. 0. 0. 0. 0. 0. 0. 0. 0. 0. 0. 0. 0. 0. 0. 0. 0.
      0. 0. 0. 0. 0. 0. 0. 0. 0. 0.</_>
    <_>
      110. 100. 100. 100. 85. 109. 76. 71. 94. 0. 0. 0. 0. 3. 0. 28. 18.
      0. 52. 8. 0. 0. 0. 0. 0. 0. 0. 0. 0. 0. 0. 0. 0. 0. 0. 0. 0. 0. 0.
      0. 0. 0. 0. 0. 0. 0. 0. 0.</_>
    <_>
      110. 100. 100. 100. 75. 133. 79. 71. 94. 0. 0. 0. 2. 1. 31. 32. 0.
      0. 0. 0. 51. 8. 0. 0. 0. 0. 0. 0. 0. 0. 0. 0. 0. 0. 0. 0. 0. 0. 0.
      0. 0. 0. 0. 0. 0. 0. 0. 0.</_>
    <_>
      110. 100. 100. 100. 43. 161. 106. 71. 94. 0. 0. 0. 0. 0. 0. 0. 0.
      32. 15. 0. 4. 85. 5. 0. 0. 0. 0. 0. 0. 0. 0. 0. 0. 0. 0. 0. 0. 0.
      0. 0. 0. 0. 0. 0. 0. 0. 0. 0.</_>
    <_>
      110. 100. 100. 100. 59. 125. 88. 71. 94. 0. 0. 0. 37. 9. 0. 3. 0.
      0. 0. 0. 21. 38. 0. 0. 0. 0. 0. 0. 0. 0. 0. 0. 0. 0. 0. 0. 0. 0.
      0. 0. 0. 0. 0. 0. 0. 0. 0. 0.</_>
    <_>
      110. 100. 100. 100. 64. 88. 85. 71. 94. 0. 0. 0. 0. 0. 0. 1. 25.
      38. 0. 0. 0. 2. 0. 0. 6. 0. 0. 0. 0. 0. 0. 0. 0. 0. 0. 0. 0. 0. 0.
      0. 0. 0. 0. 0. 0. 0. 0. 0.</_>
    <_>
      110. 100. 100. 100. 74. 77. 76. 85. 108. 0. 0. 0. 0. 14. 51. 0. 0.
      0. 0. 0. 0. 0. 0. 0. 0. 0. 0. 0. 0. 4. 12. 0. 0. 0. 0. 0. 0. 0. 0.
      0. 0. 0. 0. 0. 0. 0. 0. 0.</_>
    <_>
      110. 100. 100. 100. 77. 77. 76. 71. 94. 0. 0. 0. 0. 0. 52. 10. 5.
      0. 0. 0. 0. 0. 0. 0. 0. 0. 0. 0. 0. 0. 0. 0. 0. 0. 0. 0. 0. 0. 0.
      0. 0. 0. 0. 0. 0. 0. 0. 0.</_>
    <_>
      110. 100. 100. 100. 114. 77. 76. 71. 94. 0. 0. 0. 0. 0. 93. 15. 0.
      0. 0. 0. 0. 0. 0. 0. 0. 0. 0. 0. 0. 0. 0. 0. 0. 0. 0. 0. 0. 0. 0.
      0. 0. 0. 0. 0. 0. 0. 0. 0.</_>
    <_>
      110. 100. 100. 100. 76. 77. 76. 71. 94. 0. 0. 0. 0. 0. 0. 28. 39.
      0. 0. 0. 0. 0. 0. 0. 0. 0. 0. 0. 0. 0. 0. 0. 0. 0. 0. 0. 0. 0. 0.
      0. 0. 0. 0. 0. 0. 0. 0. 0.</_>
    <_>
      110. 100. 100. 100. 59. 77. 76. 169. 94. 0. 0. 0. 0. 0. 30. 18. 0.
      0. 0. 0. 0. 0. 0. 0. 0. 0. 0. 0. 67. 0. 0. 0. 0. 0. 0. 0. 0. 0. 0.
      0. 0. 0. 0. 0. 0. 0. 0. 0.</_>
    <_>
      110. 100. 100. 100. 112. 81. 76. 71. 95. 0. 0. 0. 2. 0. 0. 0. 89.
      19. 0. 0. 0. 0. 0. 0. 0. 0. 0. 0. 0. 0. 0. 0. 1. 0. 0. 0. 0. 0. 0.
      0. 0. 0. 0. 0. 0. 0. 0. 0.</_>
    <_>
      110. 100. 100. 100. 56. 93. 108. 71. 94. 0. 0. 0. 0. 0. 0. 14. 32.
      0. 0. 0. 0. 0. 26. 17. 0. 0. 0. 0. 0. 0. 0. 0. 0. 0. 0. 0. 0. 0.
      0. 0. 0. 0. 0. 0. 0. 0. 0. 0.</_>
    <_>
      110. 100. 100. 100. 81. 133. 79. 71. 94. 0. 0. 0. 0. 0. 28. 18. 1.
      2. 18. 63. 0. 0. 1. 2. 0. 0. 0. 0. 0. 0. 0. 0. 0. 0. 0. 0. 0. 0.
      0. 0. 0. 0. 0. 0. 0. 0. 0. 0.</_>
    <_>
      110. 100. 100. 100. 92. 77. 78. 71. 94. 0. 0. 0. 0. 0. 2. 19. 61.
      3. 0. 0. 0. 0. 0. 0. 1. 0. 0. 0. 0. 0. 0. 0. 0. 0. 0. 0. 0. 0. 0.
      0. 0. 0. 0. 0. 0. 0. 0. 0.</_>
    <_>
      110. 100. 100. 100. 48. 87. 76. 107. 120. 0. 0. 0. 0. 0. 0. 0. 5.
      42. 1. 0. 0. 0. 0. 0. 0. 0. 0. 0. 0. 22. 16. 0. 0. 0. 0. 0. 0. 0.
      0. 0. 0. 0. 0. 0. 0. 0. 0. 0.</_>
    <_>
      110. 100. 100. 100. 75. 123. 76. 71. 94. 0. 0. 0. 2. 22. 28. 7. 2.
      0. 0. 19. 32. 0. 0. 0. 0. 0. 0. 0. 0. 0. 0. 0. 0. 0. 0. 0. 0. 0.
      0. 0. 0. 0. 0. 0. 0. 0. 0. 0.</_>
    <_>
      110. 100. 100. 100. 96. 103. 76. 71. 94. 0. 0. 0. 42. 7. 0. 2. 1.
      17. 46. 0. 0. 0. 0. 0. 0. 0. 0. 0. 0. 0. 0. 0. 0. 0. 0. 0. 0. 0.
      0. 0. 0. 0. 0. 0. 0. 0. 0. 0.</_>
    <_>
      110. 100. 100. 100. 48. 85. 76. 72. 106. 0. 0. 0. 0. 0. 0. 0. 11.
      35. 0. 0. 0. 0. 0. 0. 0. 0. 0. 0. 0. 0. 0. 2. 5. 0. 0. 0. 0. 0. 0.
      0. 0. 0. 0. 0. 0. 0. 0. 0.</_>
    <_>
      110. 100. 100. 100. 93. 98. 76. 71. 94. 0. 0. 0. 0. 0. 12. 50. 0.
      3. 42. 0. 0. 0. 0. 0. 0. 0. 0. 0. 0. 0. 0. 0. 0. 0. 0. 0. 0. 0. 0.
      0. 0. 0. 0. 0. 0. 0. 0. 0.</_>
    <_>
      110. 100. 100. 100. 111. 115. 76. 71. 94. 0. 0. 0. 0. 0. 37. 24.
      6. 0. 76. 1. 0. 0. 0. 0. 0. 0. 0. 0. 0. 0. 0. 0. 0. 0. 0. 0. 0. 0.
      0. 0. 0. 0. 0. 0. 0. 0. 0. 0.</_>
    <_>
      110. 100. 100. 100. 75. 141. 98. 71. 94. 0. 0. 0. 0. 0. 0. 23. 23.
      0. 37. 8. 0. 47. 11. 0. 0. 0. 0. 0. 0. 0. 0. 0. 0. 0. 0. 0. 0. 0.
      0. 0. 0. 0. 0. 0. 0. 0. 0. 0.</_>
    <_>
      110. 100. 100. 100. 50. 96. 76. 75. 94. 0. 0. 0. 0. 2. 4. 0. 0.
      27. 26. 0. 0. 0. 0. 0. 0. 0. 0. 0. 2. 0. 0. 0. 0. 0. 0. 0. 0. 0.
      0. 0. 0. 0. 0. 0. 0. 0. 0. 0.</_>
    <_>
      110. 100. 100. 100. 71. 91. 86. 71. 94. 0. 0. 0. 0. 0. 6. 56. 0.
      0. 0. 0. 0. 15. 6. 0. 0. 0. 0. 0. 0. 0. 0. 0. 0. 0. 0. 0. 0. 0. 0.
      0. 0. 0. 0. 0. 0. 0. 0. 0.</_>
    <_>
      110. 100. 100. 100. 66. 87. 76. 124. 110. 0. 0. 0. 0. 0. 1. 2. 24.
      40. 0. 0. 0. 0. 0. 0. 0. 0. 0. 0. 11. 34. 0. 0. 0. 0. 0. 0. 0. 0.
      0. 0. 0. 0. 0. 0. 0. 0. 0. 0.</_>
    <_>
      110. 100. 100. 100. 89. 106. 111. 71. 94. 0. 0. 0. 0. 1. 25. 55.
      0. 0. 0. 0. 0. 5. 53. 0. 0. 0. 0. 0. 0. 0. 0. 0. 0. 0. 0. 0. 0. 0.
      0. 0. 0. 0. 0. 0. 0. 0. 0. 0.</_>
    <_>
      110. 100. 100. 100. 22. 92. 76. 71. 94. 0. 0. 0. 0. 0. 0. 0. 0. 0.
      12. 13. 0. 0. 0. 0. 0. 0. 0. 0. 0. 0. 0. 0. 0. 0. 0. 0. 0. 0. 0.
      0. 0. 0. 0. 0. 0. 0. 0. 0.</_>
    <_>
      110. 100. 100. 100. 87. 77. 76. 81. 150. 0. 0. 0. 0. 0. 0. 39. 39.
      0. 0. 0. 0. 0. 0. 0. 0. 0. 0. 0. 0. 0. 0. 28. 8. 0. 0. 0. 0. 0. 0.
      0. 0. 0. 0. 0. 0. 0. 0. 0.</_>
    <_>
      110. 100. 100. 100. 62. 77. 76. 71. 94. 0. 0. 0. 5. 28. 18. 0. 0.
      0. 0. 0. 0. 0. 0. 0. 0. 0. 0. 0. 0. 0. 0. 0. 0. 0. 0. 0. 0. 0. 0.
      0. 0. 0. 0. 0. 0. 0. 0. 0.</_>
    <_>
      110. 100. 100. 100. 38. 78. 127. 114. 94. 0. 0. 0. 4. 4. 0. 0. 15.
      5. 0. 0. 0. 0. 0. 0. 0. 23. 46. 0. 0. 0. 0. 0. 0. 0. 0. 0. 0. 0.
      0. 0. 0. 0. 0. 0. 0. 0. 0. 0.</_>
    <_>
      110. 100. 100. 100. 76. 77. 76. 71. 94. 0. 0. 0. 31. 31. 0. 2. 1.
      2. 1. 0. 0. 0. 0. 0. 0. 0. 0. 0. 0. 0. 0. 0. 0. 0. 0. 0. 0. 0. 0.
      0. 0. 0. 0. 0. 0. 0. 0. 0.</_>
    <_>
      110. 100. 100. 100. 83. 93. 76. 71. 94. 0. 0. 0. 0. 9. 37. 0. 0.
      26. 20. 0. 0. 0. 0. 0. 0. 0. 0. 0. 0. 0. 0. 0. 0. 0. 0. 0. 0. 0.
      0. 0. 0. 0. 0. 0. 0. 0. 0. 0.</_>
    <_>
      110. 100. 100. 100. 57. 98. 76. 71. 94. 0. 0. 0. 0. 3. 0. 0. 0.
      50. 12. 3. 1. 0. 0. 0. 0. 0. 0. 0. 0. 0. 0. 0. 0. 0. 0. 0. 0. 0.
      0. 0. 0. 0. 0. 0. 0. 0. 0. 0.</_>
    <_>
      110. 100. 100. 100. 64. 86. 80. 71. 94. 0. 0. 0. 0. 0. 0. 0. 33.
      29. 0. 0. 0. 0. 3. 1. 0. 0. 0. 0. 0. 0. 0. 0. 0. 0. 0. 0. 0. 0. 0.
      0. 0. 0. 0. 0. 0. 0. 0. 0.</_>
    <_>
      110. 100. 100. 100. 47. 89. 84. 71. 94. 0. 0. 0. 0. 0. 0. 1. 2.
      44. 2. 0. 0. 0. 0. 2. 5. 0. 0. 0. 0. 0. 0. 0. 0. 0. 0. 0. 0. 0. 0.
      0. 0. 0. 0. 0. 0. 0. 0. 0.</_>
    <_>
      110. 100. 100. 100. 69. 123. 77. 72. 94. 0. 0. 0. 0. 9. 37. 0. 0.
      0. 0. 53. 8. 0. 0. 0. 0. 1. 0. 0. 0. 0. 0. 0. 0. 0. 0. 0. 0. 0. 0.
      0. 0. 0. 0. 0. 0. 0. 0. 0.</_>
    <_>
      110. 100. 100. 100. 22. 180. 135. 71. 94. 0. 0. 0. 0. 0. 0. 0. 0.
      0. 0. 39. 6. 50. 65. 2. 0. 0. 0. 0. 0. 0. 0. 0. 0. 0. 0. 0. 0. 0.
      0. 0. 0. 0. 0. 0. 0. 0. 0. 0.</_>
    <_>
      110. 100. 100. 100. 57. 78. 106. 136. 94. 0. 0. 0. 0. 0. 0. 46. 0.
      0. 3. 0. 0. 0. 0. 0. 0. 0. 27. 41. 0. 0. 0. 0. 0. 0. 0. 0. 0. 0.
      0. 0. 0. 0. 0. 0. 0. 0. 0. 0.</_>
    <_>
      110. 100. 100. 100. 59. 77. 76. 78. 154. 0. 0. 0. 0. 0. 28. 19. 3.
      0. 0. 0. 0. 0. 0. 0. 0. 0. 0. 0. 0. 0. 0. 18. 17. 0. 0. 0. 0. 0.
      0. 0. 0. 0. 0. 0. 0. 0. 0. 0.</_>
    <_>
      110. 100. 100. 100. 148. 77. 76. 71. 94. 0. 0. 0. 55. 87. 1. 2. 0.
      0. 0. 0. 0. 0. 0. 0. 0. 0. 0. 0. 0. 0. 0. 0. 0. 0. 0. 0. 0. 0. 0.
      0. 0. 0. 0. 0. 0. 0. 0. 0.</_>
    <_>
      110. 100. 100. 100. 135. 92. 82. 90. 94. 0. 0. 0. 2. 1. 55. 24. 2.
      61. 0. 0. 0. 0. 0. 0. 0. 0. 1. 17. 0. 0. 0. 0. 0. 0. 0. 0. 0. 0.
      0. 0. 0. 0. 0. 0. 0. 0. 0. 0.</_>
    <_>
      110. 100. 100. 100. 74. 77. 76. 82. 121. 0. 0. 0. 0. 2. 14. 50. 0.
      0. 0. 0. 0. 0. 0. 0. 0. 0. 0. 0. 0. 0. 11. 7. 4. 0. 0. 0. 0. 0. 0.
      0. 0. 0. 0. 0. 0. 0. 0. 0.</_>
    <_>
      110. 100. 100. 100. 16. 116. 104. 165. 94. 0. 0. 0. 0. 0. 0. 1. 1.
      0. 0. 0. 0. 42. 17. 0. 0. 0. 0. 13. 53. 0. 0. 0. 0. 0. 0. 0. 0. 0.
      0. 0. 0. 0. 0. 0. 0. 0. 0. 0.</_>
    <_>
      110. 100. 100. 100. 155. 110. 76. 71. 94. 0. 0. 0. 0. 55. 56. 14.
      0. 0. 44. 16. 0. 0. 0. 0. 0. 0. 0. 0. 0. 0. 0. 0. 0. 0. 0. 0. 0.
      0. 0. 0. 0. 0. 0. 0. 0. 0. 0. 0.</_>
    <_>
      110. 100. 100. 100. 42. 182. 127. 71. 94. 0. 0. 0. 0. 0. 0. 0. 0.
      32. 14. 0. 0. 105. 28. 0. 0. 0. 0. 0. 0. 0. 0. 0. 0. 0. 0. 0. 0.
      0. 0. 0. 0. 0. 0. 0. 0. 0. 0. 0.</_>
    <_>
      110. 100. 100. 100. 97. 98. 76. 75. 119. 0. 0. 0. 0. 1. 0. 1. 53.
      24. 31. 0. 0. 0. 0. 0. 0. 0. 0. 0. 0. 0. 0. 12. 4. 0. 0. 0. 0. 0.
      0. 0. 0. 0. 0. 0. 0. 0. 0. 0.</_>
    <_>
      110. 100. 100. 100. 71. 77. 81. 86. 110. 0. 0. 0. 0. 0. 0. 25. 37.
      0. 0. 0. 0. 0. 0. 0. 0. 4. 2. 0. 0. 0. 16. 0. 0. 0. 0. 0. 0. 0. 0.
      0. 0. 0. 0. 0. 0. 0. 0. 0.</_>
    <_>
      110. 100. 100. 100. 34. 103. 76. 71. 94. 0. 0. 0. 2. 0. 0. 2. 0.
      0. 26. 19. 0. 0. 0. 0. 0. 0. 0. 0. 0. 0. 0. 0. 0. 0. 0. 0. 0. 0.
      0. 0. 0. 0. 0. 0. 0. 0. 0. 0.</_>
    <_>
      110. 100. 100. 100. 106. 131. 76. 71. 94. 0. 0. 0. 0. 19. 30. 0.
      4. 57. 0. 13. 31. 0. 0. 0. 0. 0. 0. 0. 0. 0. 0. 0. 0. 0. 0. 0. 0.
      0. 0. 0. 0. 0. 0. 0. 0. 0. 0. 0.</_>
    <_>
      110. 100. 100. 100. 16. 123. 117. 71. 94. 0. 0. 0. 0. 2. 0. 0. 0.
      0. 1. 2. 0. 34. 40. 0. 4. 1. 0. 0. 0. 0. 0. 0. 0. 0. 0. 0. 0. 0.
      0. 0. 0. 0. 0. 0. 0. 0. 0. 0.</_>
    <_>
      110. 100. 100. 100. 82. 82. 76. 71. 94. 0. 0. 0. 0. 9. 56. 0. 0.
      5. 8. 0. 0. 0. 0. 0. 0. 0. 0. 0. 0. 0. 0. 0. 0. 0. 0. 0. 0. 0. 0.
      0. 0. 0. 0. 0. 0. 0. 0. 0.</_>
    <_>
      110. 100. 100. 100. 13. 77. 78. 80. 159. 0. 0. 0. 0. 0. 0. 0. 0.
      0. 0. 0. 0. 0. 0. 0. 0. 0. 0. 5. 1. 0. 0. 6. 29. 0. 0. 0. 0. 0. 0.
      0. 0. 0. 0. 0. 0. 0. 0. 0.</_>
    <_>
      110. 100. 100. 100. 74. 103. 96. 71. 94. 0. 0. 0. 21. 44. 0. 0. 0.
      0. 0. 0. 0. 22. 21. 0. 0. 0. 0. 0. 0. 0. 0. 0. 0. 0. 0. 0. 0. 0.
      0. 0. 0. 0. 0. 0. 0. 0. 0. 0.</_>
    <_>
      110. 100. 100. 100. 68. 82. 84. 71. 94. 0. 0. 0. 0. 1. 2. 0. 41.
      21. 0. 0. 0. 0. 0. 2. 5. 0. 0. 0. 0. 0. 0. 0. 0. 0. 0. 0. 0. 0. 0.
      0. 0. 0. 0. 0. 0. 0. 0. 0.</_>
    <_>
      110. 100. 100. 100. 150. 118. 76. 71. 94. 0. 0. 0. 2. 24. 23. 0.
      0. 110. 29. 0. 0. 0. 0. 0. 0. 0. 0. 0. 0. 0. 0. 0. 0. 0. 0. 0. 0.
      0. 0. 0. 0. 0. 0. 0. 0. 0. 0. 0.</_>
    <_>
      110. 100. 100. 100. 172. 92. 76. 71. 94. 0. 0. 0. 0. 0. 0. 77. 64.
      27. 19. 0. 0. 0. 0. 0. 0. 0. 0. 0. 0. 0. 0. 0. 0. 0. 0. 0. 0. 0.
      0. 0. 0. 0. 0. 0. 0. 0. 0. 0.</_>
    <_>
      110. 100. 100. 100. 74. 86. 135. 75. 95. 0. 0. 0. 1. 39. 25. 0. 0.
      0. 0. 0. 0. 0. 0. 40. 17. 0. 0. 1. 1. 0. 0. 1. 0. 0. 0. 0. 0. 0.
      0. 0. 0. 0. 0. 0. 0. 0. 0. 0.</_>
    <_>
      110. 100. 100. 100. 55. 97. 78. 71. 94. 0. 0. 0. 0. 2. 0. 0. 0.
      47. 14. 0. 0. 1. 2. 0. 0. 0. 0. 0. 0. 0. 0. 0. 0. 0. 0. 0. 0. 0.
      0. 0. 0. 0. 0. 0. 0. 0. 0. 0.</_>
    <_>
      110. 100. 100. 100. 81. 78. 79. 94. 94. 0. 0. 0. 0. 4. 7. 1. 57.
      5. 0. 0. 0. 0. 0. 0. 0. 0. 0. 9. 9. 0. 0. 0. 0. 0. 0. 0. 0. 0. 0.
      0. 0. 0. 0. 0. 0. 0. 0. 0.</_>
    <_>
      110. 100. 100. 100. 59. 77. 76. 71. 94. 0. 0. 0. 0. 0. 0. 28. 21.
      0. 0. 0. 0. 0. 0. 0. 0. 0. 0. 0. 0. 0. 0. 0. 0. 0. 0. 0. 0. 0. 0.
      0. 0. 0. 0. 0. 0. 0. 0. 0.</_>
    <_>
      110. 100. 100. 100. 101. 80. 76. 71. 94. 0. 0. 0. 0. 14. 33. 2.
      36. 12. 0. 0. 0. 0. 0. 0. 0. 0. 0. 0. 0. 0. 0. 0. 0. 0. 0. 0. 0.
      0. 0. 0. 0. 0. 0. 0. 0. 0. 0. 0.</_>
    <_>
      110. 100. 100. 100. 165. 77. 76. 71. 94. 0. 0. 0. 100. 62. 0. 0.
      0. 0. 0. 0. 0. 0. 0. 0. 0. 0. 0. 0. 0. 0. 0. 0. 0. 0. 0. 0. 0. 0.
      0. 0. 0. 0. 0. 0. 0. 0. 0. 0.</_>
    <_>
      110. 100. 100. 100. 140. 112. 76. 71. 94. 0. 0. 0. 0. 46. 1. 2.
      54. 25. 14. 30. 0. 0. 0. 0. 0. 0. 0. 0. 0. 0. 0. 0. 0. 0. 0. 0. 0.
      0. 0. 0. 0. 0. 0. 0. 0. 0. 0. 0.</_>
    <_>
      110. 100. 100. 100. 17. 113. 122. 71. 94. 0. 0. 0. 0. 0. 0. 3. 1.
      0. 0. 0. 0. 2. 71. 0. 0. 0. 0. 0. 0. 0. 0. 0. 0. 0. 0. 0. 0. 0. 0.
      0. 0. 0. 0. 0. 0. 0. 0. 0.</_>
    <_>
      110. 100. 100. 100. 77. 111. 76. 71. 94. 0. 0. 0. 1. 22. 0. 1. 1.
      14. 64. 0. 0. 0. 0. 0. 0. 0. 0. 0. 0. 0. 0. 0. 0. 0. 0. 0. 0. 0.
      0. 0. 0. 0. 0. 0. 0. 0. 0. 0.</_>
    <_>
      110. 100. 100. 100. 53. 101. 76. 71. 94. 0. 0. 0. 0. 4. 2. 0. 0.
      24. 37. 0. 0. 0. 0. 0. 0. 0. 0. 0. 0. 0. 0. 0. 0. 0. 0. 0. 0. 0.
      0. 0. 0. 0. 0. 0. 0. 0. 0. 0.</_>
    <_>
      110. 100. 100. 100. 19. 105. 168. 71. 94. 0. 0. 0. 0. 0. 0. 0. 1.
      6. 0. 0. 0. 13. 30. 8. 49. 0. 0. 0. 0. 0. 0. 0. 0. 0. 0. 0. 0. 0.
      0. 0. 0. 0. 0. 0. 0. 0. 0. 0.</_>
    <_>
      110. 100. 100. 100. 112. 90. 76. 71. 94. 0. 0. 0. 4. 6. 31. 31. 1.
      40. 7. 0. 0. 0. 0. 0. 0. 0. 0. 0. 0. 0. 0. 0. 0. 0. 0. 0. 0. 0. 0.
      0. 0. 0. 0. 0. 0. 0. 0. 0.</_>
    <_>
      110. 100. 100. 100. 105. 102. 76. 71. 94. 0. 0. 0. 0. 62. 0. 0. 0.
      20. 41. 1. 0. 0. 0. 0. 0. 0. 0. 0. 0. 0. 0. 0. 0. 0. 0. 0. 0. 0.
      0. 0. 0. 0. 0. 0. 0. 0. 0. 0.</_>
    <_>
      110. 100. 100. 100. 91. 85. 79. 71. 94. 0. 0. 0. 0. 0. 13. 17. 28.
      33. 0. 0. 0. 0. 0. 0. 1. 1. 0. 0. 0. 0. 0. 0. 0. 0. 0. 0. 0. 0. 0.
      0. 0. 0. 0. 0. 0. 0. 0. 0.</_>
    <_>
      110. 100. 100. 100. 93. 98. 76. 71. 94. 0. 0. 0. 0. 0. 0. 0. 35.
      55. 17. 0. 0. 0. 0. 0. 0. 0. 0. 0. 0. 0. 0. 0. 0. 0. 0. 0. 0. 0.
      0. 0. 0. 0. 0. 0. 0. 0. 0. 0.</_>
    <_>
      110. 100. 100. 100. 76. 77. 76. 71. 94. 0. 0. 0. 3. 33. 31. 0. 0.
      0. 0. 0. 0. 0. 0. 0. 0. 0. 0. 0. 0. 0. 0. 0. 0. 0. 0. 0. 0. 0. 0.
      0. 0. 0. 0. 0. 0. 0. 0. 0.</_>
    <_>
      110. 100. 100. 100. 64. 84. 76. 71. 98. 0. 0. 0. 0. 0. 0. 0. 33.
      29. 0. 0. 0. 0. 0. 0. 0. 0. 0. 0. 0. 0. 0. 0. 2. 0. 0. 0. 0. 0. 0.
      0. 0. 0. 0. 0. 0. 0. 0. 0.</_>
    <_>
      110. 100. 100. 100. 94. 121. 92. 71. 94. 0. 0. 0. 0. 3. 0. 0. 26.
      36. 60. 0. 0. 0. 7. 12. 0. 0. 0. 0. 0. 0. 0. 0. 0. 0. 0. 0. 0. 0.
      0. 0. 0. 0. 0. 0. 0. 0. 0. 0.</_>
    <_>
      110. 100. 100. 100. 107. 97. 76. 71. 94. 0. 0. 0. 2. 44. 21. 1. 1.
      22. 32. 0. 0. 0. 0. 0. 0. 0. 0. 0. 0. 0. 0. 0. 0. 0. 0. 0. 0. 0.
      0. 0. 0. 0. 0. 0. 0. 0. 0. 0.</_>
    <_>
      110. 100. 100. 100. 70. 86. 140. 74. 94. 0. 0. 0. 0. 2. 1. 0. 47.
      15. 0. 0. 0. 0. 0. 23. 33. 0. 0. 0. 1. 1. 0. 0. 0. 0. 0. 0. 0. 0.
      0. 0. 0. 0. 0. 0. 0. 0. 0. 0.</_>
    <_>
      110. 100. 100. 100. 128. 121. 76. 71. 94. 0. 0. 0. 0. 0. 56. 6. 0.
      31. 75. 0. 0. 0. 0. 0. 0. 0. 0. 0. 0. 0. 0. 0. 0. 0. 0. 0. 0. 0.
      0. 0. 0. 0. 0. 0. 0. 0. 0. 0.</_>
    <_>
      110. 100. 100. 100. 144. 106. 76. 71. 94. 0. 0. 0. 0. 0. 47. 32.
      26. 20. 34. 10. 0. 0. 0. 0. 0. 0. 0. 0. 0. 0. 0. 0. 0. 0. 0. 0. 0.
      0. 0. 0. 0. 0. 0. 0. 0. 0. 0. 0.</_>
    <_>
      110. 100. 100. 100. 64. 103. 106. 71. 94. 0. 0. 0. 0. 0. 0. 0. 31.
      31. 0. 0. 0. 0. 34. 9. 0. 0. 0. 0. 0. 0. 0. 0. 0. 0. 0. 0. 0. 0.
      0. 0. 0. 0. 0. 0. 0. 0. 0. 0.</_>
    <_>
      110. 100. 100. 100. 16. 109. 89. 83. 148. 0. 0. 0. 0. 3. 0. 0. 0.
      0. 0. 0. 2. 42. 0. 0. 0. 0. 0. 0. 0. 0. 0. 32. 4. 0. 0. 0. 0. 0.
      0. 0. 0. 0. 0. 0. 0. 0. 0. 0.</_>
    <_>
      110. 100. 100. 100. 86. 172. 76. 71. 94. 0. 0. 0. 0. 9. 37. 0. 0.
      10. 42. 10. 66. 0. 0. 0. 0. 0. 0. 0. 0. 0. 0. 0. 0. 0. 0. 0. 0. 0.
      0. 0. 0. 0. 0. 0. 0. 0. 0. 0.</_>
    <_>
      110. 100. 100. 100. 104. 82. 76. 71. 94. 0. 0. 0. 0. 1. 29. 18.
      34. 20. 0. 0. 0. 0. 0. 0. 0. 0. 0. 0. 0. 0. 0. 0. 0. 0. 0. 0. 0.
      0. 0. 0. 0. 0. 0. 0. 0. 0. 0. 0.</_>
    <_>
      110. 100. 100. 100. 40. 94. 146. 71. 94. 0. 0. 0. 0. 0. 0. 0. 0.
      23. 22. 0. 0. 0. 0. 2. 54. 0. 0. 0. 0. 0. 0. 0. 0. 0. 0. 0. 0. 0.
      0. 0. 0. 0. 0. 0. 0. 0. 0. 0.</_>
    <_>
      110. 100. 100. 100. 57. 85. 77. 71. 94. 0. 0. 0. 1. 23. 23. 0. 0.
      0. 0. 0. 7. 2. 0. 0. 0. 0. 0. 0. 0. 0. 0. 0. 0. 0. 0. 0. 0. 0. 0.
      0. 0. 0. 0. 0. 0. 0. 0. 0.</_>
    <_>
      110. 100. 100. 100. 107. 80. 76. 71. 94. 0. 0. 0. 0. 11. 14. 0.
      65. 13. 0. 0. 0. 0. 0. 0. 0. 0. 0. 0. 0. 0. 0. 0. 0. 0. 0. 0. 0.
      0. 0. 0. 0. 0. 0. 0. 0. 0. 0. 0.</_>
    <_>
      110. 100. 100. 100. 84. 96. 76. 71. 94. 0. 0. 0. 32. 14. 0. 1. 3.
      11. 34. 0. 0. 0. 0. 0. 0. 0. 0. 0. 0. 0. 0. 0. 0. 0. 0. 0. 0. 0.
      0. 0. 0. 0. 0. 0. 0. 0. 0. 0.</_>
    <_>
      110. 100. 100. 100. 98. 77. 76. 71. 94. 0. 0. 0. 0. 7. 2. 72. 9.
      0. 0. 0. 0. 0. 0. 0. 0. 0. 0. 0. 0. 0. 0. 0. 0. 0. 0. 0. 0. 0. 0.
      0. 0. 0. 0. 0. 0. 0. 0. 0.</_>
    <_>
      110. 100. 100. 100. 150. 88. 76. 71. 94. 0. 0. 0. 0. 0. 0. 0. 110.
      48. 0. 0. 0. 0. 0. 0. 0. 0. 0. 0. 0. 0. 0. 0. 0. 0. 0. 0. 0. 0. 0.
      0. 0. 0. 0. 0. 0. 0. 0. 0.</_>
    <_>
      110. 100. 100. 100. 58. 93. 76. 76. 156. 0. 0. 0. 0. 0. 0. 1. 1.
      58. 4. 0. 0. 0. 0. 0. 0. 0. 0. 0. 0. 0. 0. 12. 23. 0. 0. 0. 0. 0.
      0. 0. 0. 0. 0. 0. 0. 0. 0. 0.</_>
    <_>
      110. 100. 100. 100. 99. 94. 76. 71. 94. 0. 0. 0. 1. 19. 44. 0. 0.
      21. 25. 0. 0. 0. 0. 0. 0. 0. 0. 0. 0. 0. 0. 0. 0. 0. 0. 0. 0. 0.
      0. 0. 0. 0. 0. 0. 0. 0. 0. 0.</_>
    <_>
      110. 100. 100. 100. 150. 96. 76. 71. 94. 0. 0. 0. 0. 0. 0. 71. 18.
      77. 0. 0. 0. 0. 0. 0. 0. 0. 0. 0. 0. 0. 0. 0. 0. 0. 0. 0. 0. 0. 0.
      0. 0. 0. 0. 0. 0. 0. 0. 0.</_>
    <_>
      110. 100. 100. 100. 100. 109. 76. 71. 94. 0. 0. 0. 2. 1. 37. 25.
      0. 0. 49. 12. 0. 0. 0. 0. 0. 0. 0. 0. 0. 0. 0. 0. 0. 0. 0. 0. 0.
      0. 0. 0. 0. 0. 0. 0. 0. 0. 0. 0.</_>
    <_>
      110. 100. 100. 100. 51. 91. 76. 72. 94. 0. 0. 0. 8. 1. 0. 0. 0.
      33. 12. 0. 0. 0. 0. 0. 0. 0. 0. 0. 1. 0. 0. 0. 0. 0. 0. 0. 0. 0.
      0. 0. 0. 0. 0. 0. 0. 0. 0. 0.</_>
    <_>
      110. 100. 100. 100. 100. 91. 76. 71. 94. 0. 0. 0. 0. 0. 12. 50. 0.
      31. 15. 0. 0. 0. 0. 0. 0. 0. 0. 0. 0. 0. 0. 0. 0. 0. 0. 0. 0. 0.
      0. 0. 0. 0. 0. 0. 0. 0. 0. 0.</_>
    <_>
      110. 100. 100. 100. 87. 91. 76. 72. 96. 0. 0. 0. 0. 28. 18. 2. 0.
      32. 13. 0. 0. 0. 0. 0. 0. 0. 0. 0. 0. 0. 0. 2. 0. 0. 0. 0. 0. 0.
      0. 0. 0. 0. 0. 0. 0. 0. 0. 0.</_>
    <_>
      110. 100. 100. 100. 67. 142. 78. 71. 94. 0. 0. 0. 0. 0. 0. 16. 14.
      36. 0. 0. 54. 6. 0. 0. 0. 0. 0. 0. 0. 0. 0. 0. 0. 0. 0. 0. 0. 0.
      0. 0. 0. 0. 0. 0. 0. 0. 0. 0.</_>
    <_>
      110. 100. 100. 100. 96. 98. 76. 71. 94. 0. 0. 0. 3. 0. 0. 0. 40.
      48. 20. 0. 0. 0. 0. 0. 0. 0. 0. 0. 0. 0. 0. 0. 0. 0. 0. 0. 0. 0.
      0. 0. 0. 0. 0. 0. 0. 0. 0. 0.</_>
    <_>
