{
    "whitelist":
    {
        "": ["groupRectangles", "getPredefinedDictionary", "extendDictionary", "drawMarkers", "drawDetectedGridBoard", "drawDetectedDiamonds", "drawDetectedFractals", "drawDetected", "generateImageMarker", "drawDetectedCornersCharuco",
             "detectMarkers", "detectGridBoard", "generateMarkerImage", "generateGridBoardImage", "generateDiamondImage", "generateFractalImage", "getSolvePnpPoints", "estimatePoseBoard", "refineDetected",
             "aruco2_detectFiducialMarkers", "aruco2_detectGridBoard", "aruco2_drawFiducialMarkers", "aruco2_getFiducialMarker",
             "aruco2_getGridBoard", "aruco2_getDiamondImage", "aruco2_getFractalImage", "aruco2_getSolvePnpPoints"],
        "HOGDescriptor": ["load", "HOGDescriptor", "getDefaultPeopleDetector", "getDaimlerPeopleDetector", "setSVMDetector", "detectMultiScale"],
        "CascadeClassifier": ["load", "detectMultiScale2", "CascadeClassifier", "detectMultiScale3", "empty", "detectMultiScale"],
        "GraphicalCodeDetector": ["decode", "detect", "detectAndDecode", "detectMulti", "decodeMulti", "detectAndDecodeMulti"],
        "QRCodeDetector": ["QRCodeDetector", "decode", "detect", "detectAndDecode", "detectMulti", "decodeMulti", "detectAndDecodeMulti", "decodeCurved", "detectAndDecodeCurved", "setEpsX", "setEpsY"],
        "aruco_PredefinedDictionaryType": [],
        "aruco_Dictionary": ["Dictionary", "getDistanceToId", "generateImageMarker", "getByteListFromBits", "getBitsFromByteList"],
        "aruco_Board": ["Board", "matchImagePoints", "generateImage"],
        "aruco_GridBoard": ["GridBoard", "generateImage", "getGridSize", "getMarkerLength", "getMarkerSeparation", "matchImagePoints"],
        "aruco_CharucoParameters": ["CharucoParameters"],
        "aruco_CharucoBoard": ["CharucoBoard", "generateImage", "getChessboardCorners", "getNearestMarkerCorners", "checkCharucoCornersCollinear", "matchImagePoints", "getLegacyPattern", "setLegacyPattern"],
        "aruco_DetectorParameters": ["DetectorParameters"],
        "aruco_RefineParameters": ["RefineParameters"],
        "aruco_ArucoDetector": ["ArucoDetector", "detectMarkers", "refineDetectedMarkers", "setDictionary", "setDetectorParameters", "setRefineParameters"],
        "aruco_CharucoDetector": ["CharucoDetector", "setBoard", "setCharucoParameters", "setDetectorParameters", "setRefineParameters", "detectBoard", "detectDiamonds"],
        "QRCodeDetectorAruco_Params": ["Params"],
        "QRCodeDetectorAruco": ["QRCodeDetectorAruco", "decode", "detect", "detectAndDecode", "detectMulti", "decodeMulti", "detectAndDecodeMulti", "setDetectorParameters", "setArucoParameters"],
        "barcode_BarcodeDetector": ["BarcodeDetector", "decode", "detect", "detectAndDecode", "detectMulti", "decodeMulti", "detectAndDecodeMulti", "decodeWithType", "detectAndDecodeWithType"],
        "aruco2_DictionaryType": [],
        "aruco2_FractalType": [],
        "aruco2_FiducialMarker": ["FiducialMarker"],
        "aruco2_GridBoard": ["GridBoard", "getGridBoard", "getGridSize"],
        "aruco2_Diamond": ["Diamond"],
        "aruco2_FractalMarker": ["FractalMarker"],
        "aruco2_DetectionParameters": ["DetectionParameters"],
        "mcc_CheckerDetector": ["process", "getBestColorChecker", "getListColorChecker", "create", "draw", "getRefColors", "setDetectionParams", "getDetectionParams", "setColorChartType", "getColorChartType", "setUseDnnModel", "getUseDnnModel"],
        "mcc_DetectorParameters": ["DetectorParametersMCC"],
        "mcc_Checker": ["setTarget", "setBox", "setChartsRGB", "setChartsYCbCr", "setCost", "setCenter", "getTarget", "getBox", "getColorCharts", "getChartsRGB", "getChartsYCbCr", "getCost", "getCenter"],
        "FaceDetectorYN": ["setInputSize", "getInputSize", "setScoreThreshold", "getScoreThreshold", "setNMSThreshold", "getNMSThreshold", "setTopK", "getTopK", "detect", "create"]
    },
    "namespace_prefix_override":
    {
        "aruco": "",
        "aruco2": "aruco2"
    }
}
